1000 100
doc_0 -0.009379864 -0.036812447 0.015132558 0.022810567 -0.015390635 -0.014667131 -0.034828294 0.0465716 -0.013419174 -0.033541836 0.015816454 -0.006252419 0.029114548 0.027986672 -0.012845587 -0.0267874 -0.04842745 -0.0088214055 -0.028657092 0.04627787 0.005264152 0.026875269 0.042589847 0.035536718 0.033803012 -0.030120706 -0.012267806 0.00015748665 0.017603505 -0.020941889 0.0146497 0.01859286 -0.03829386 -0.0427539 0.009564638 0.046828713 -0.018744659 0.015785787 0.024731051 0.0034967177 -0.04921634 0.010942351 -0.008305442 0.035270367 -0.04729078 -0.04764818 0.04286195 0.002356995 -0.04182235 -0.010283887 -0.03140427 -0.044110563 0.042803098 -0.027759183 0.017138127 0.028310467 -0.040670156 0.004478287 -0.038151063 0.007334985 -0.031772375 -0.01752622 0.037215326 -0.0015309565 0.00887518 -0.009387054 -0.04431906 0.023202728 -0.00050155073 0.01860905 0.04969951 -0.025204862 -0.004346121 0.049050402 0.045007076 -0.014093138 -0.049885727 0.04162434 -0.011612736 0.021433119 -0.04767537 -0.020321846 -0.008598685 -0.049965084 -0.028641904 -0.03363893 -0.0002164729 -0.0241529 0.011029553 0.003544189 0.04550085 0.045827653 -0.023694038 -0.037402403 -0.046607684 -0.037733875 -0.03763522 -0.036155142 -0.017175496 0.00024155527 
doc_1 0.04734375 0.0022539622 0.022434318 -0.016471542 0.068899825 -0.0019307934 0.017574664 -0.052237872 -0.005959151 0.07017758 0.005821027 0.021207102 -0.048181098 0.028297557 -0.009392732 -0.005843586 0.013917636 0.044355474 -0.038697578 -0.01658503 0.009830238 -0.005100077 0.035441447 -0.018867206 -0.063861944 0.01893183 0.003983449 -0.016761791 -0.0007613958 -0.017514126 -0.015638875 -0.044252552 0.002854272 0.04217429 -0.034328014 -0.014251027 0.019722402 0.015588485 -0.02347241 -0.048725877 -0.057718575 -0.028958593 -0.012488651 -0.024034152 -0.01617018 0.040526647 0.017802017 0.054696992 0.05509921 0.029409047 -0.057772342 0.070328996 0.012595115 -0.0014037144 0.034006335 -0.00602852 -0.062632956 -0.02573151 0.011240282 0.00034883115 0.028598115 -0.009092435 -0.06091341 0.017859552 0.029361108 -0.009815376 0.01710471 -0.042540483 0.010767681 0.049865883 0.0019782742 -0.030929152 -0.041227136 -0.060422312 -0.05343423 0.020595454 -0.009897935 0.055779815 0.041167762 0.042329773 0.012097071 0.018976375 -0.04296004 -0.022584101 0.03952876 0.015540833 -0.04021923 0.010795318 -0.016866481 -0.012586126 0.054177083 -0.020300427 0.061650984 -0.013891639 -0.00910042 -0.017831892 -0.0385424 -0.012924624 0.014337359 -0.012906339 
doc_2 -0.032384235 0.042588927 -0.029565692 -0.05882776 0.040422965 -0.045274574 -0.026284197 -0.024098394 -0.058270946 0.0015817324 -0.060861375 0.03263515 -0.031058632 -0.049754124 -0.021111453 0.022221658 0.03660012 0.050961066 -0.051671114 -0.0070716147 -0.017568598 0.040924314 0.004460594 -0.052181687 -0.030510977 -0.016009185 0.010691349 0.029703084 -0.062937476 0.023681767 -0.010432564 -0.015940512 -0.04580475 -0.02242203 0.040073734 -0.006115568 0.011547113 0.012047343 -0.015617303 -0.004409248 -0.0039377506 0.044683132 0.057717815 -0.007236331 0.065711595 -0.047810268 -0.004389012 0.019168627 0.011440025 0.05855958 0.006681053 -0.011131402 0.046332892 0.00048429167 0.013334325 0.032988135 -0.048166774 -0.0027336597 -0.023543682 -0.026296444 -0.004942218 -0.025866555 -0.014762524 -0.025026591 0.017674448 -0.078622654 0.06618804 -0.05003768 0.035682227 -0.02405689 -0.0035402959 -0.03478453 -0.01143574 -0.060092747 -0.010149834 0.022365455 -0.018381583 0.025235642 0.069018885 -0.0013255128 -0.029403672 0.0069197314 -0.07028422 -0.040279143 0.029814769 0.06788125 -0.052003536 0.01762541 -0.022558969 0.03382666 0.035873394 -0.0505974 -0.005065264 0.04997095 -0.024333809 0.056460552 -0.054970335 0.013260929 0.08616212 -0.032492824 
doc_3 0.011729938 -0.009337716 0.019919213 0.026774067 0.03591569 -0.013085595 0.018549321 0.025902139 -0.025150474 0.020438544 -0.048608888 -0.0016543799 -0.034980875 0.0076210685 -0.026847921 -0.044042386 0.02065772 0.011213028 -0.028718133 0.024917778 0.028500414 -0.036922105 0.03707248 0.036829095 -0.01421733 0.023527436 -0.038541064 0.0007204187 -0.0058274297 -0.007150604 0.021718338 -0.04100251 0.041449156 -0.012865216 0.049660377 0.016318133 -0.035263445 0.043005094 -0.038598344 -0.040377468 -0.029638415 -0.040179502 -0.012854209 0.039227724 0.0109055005 -0.047901195 -0.017715534 0.009114559 0.02374273 -0.021788195 0.032020044 -0.046377353 -0.04724049 0.041583322 0.045055177 0.023167558 -0.044444613 -0.02517971 -0.033609178 -0.036930606 0.02078561 -0.028070185 -0.01131588 -0.03749266 -0.0055061695 -0.037526436 -0.010504706 -0.023297187 0.022429489 0.015043609 -0.029185912 0.046142627 0.043771267 0.024177939 -0.0032232543 -0.02406413 0.041703865 0.035758745 0.051091164 0.043037437 0.034127496 -0.04645694 -0.030040005 0.008370518 0.036922447 -0.008921918 0.006944855 0.034799185 0.018222183 0.033794872 0.014743828 0.043911967 0.027697304 -0.014112188 -0.010311902 0.013867302 -0.009813419 0.0021412799 -0.03507004 0.03842778 
doc_4 -0.0312601 -0.02371444 0.039178375 -0.025682483 0.006468551 0.037773676 0.025568942 0.007219888 0.01097852 -0.022996789 0.00096552086 0.037338823 -0.022255862 0.022401754 -0.007699645 0.04191728 0.019670753 -0.010814196 -0.01679306 0.03557182 0.035966318 -0.006620014 0.040374268 -0.046085436 0.023794575 0.046338886 -0.0042473995 0.05398941 0.011488395 0.0072133564 0.011247524 -0.0224441 -0.0018065694 -0.0012065036 -0.03342591 0.031198371 0.036555063 -0.0055219587 0.024293877 0.0424181 -0.007684104 0.03206129 0.016259978 0.0070636575 -0.0017366288 0.01563798 -0.03729468 0.049716722 0.035621654 0.039150078 -0.015500938 -0.028037546 0.027019618 -0.014216029 -0.018867796 -0.024509264 0.00036173945 -0.0022780744 -0.039299272 -0.011140178 -0.03880643 0.024703298 0.014538434 0.04635006 0.034089625 0.016145045 -0.0025835112 0.014945517 0.0055392836 -0.01575618 -0.051189277 0.0055951783 0.049428012 0.024756897 -0.05149548 -0.045203492 0.04397796 -0.039622072 -0.027419772 0.027789004 0.035026435 -0.032707326 -0.039394677 0.039953664 -0.019907603 -0.041153714 -0.031640705 -0.025980217 0.024467876 0.033894714 -0.012510172 0.048920315 -0.0238736 -0.0139196515 0.014370197 -0.0021093534 -0.05382737 -0.034463275 0.0074603334 0.056764673 
doc_5 0.037551433 -0.048018754 0.002818126 -0.039725374 -0.008476522 0.0011267579 0.01661104 0.03993718 -0.004771226 -0.015282649 0.021515647 -0.057684254 -0.03410007 0.0148565285 0.056874145 -0.050646327 -0.059482783 -0.02292806 -0.028212892 0.033665314 -0.02790322 -0.009091442 -0.06366824 -0.0248563 -0.00588246 -0.060412176 0.03822517 0.015102118 -0.0112776235 0.015581523 0.005068302 -0.019810602 0.046996623 -0.02755318 0.024049453 0.029497048 -0.0029040626 0.016725259 0.032245904 0.017293533 0.0038343237 -0.051066108 -0.058391355 -0.01703017 -0.022262648 -0.022036321 0.057761252 0.024420694 -0.018948417 0.030760413 -0.023281123 -0.042864505 -0.039801758 0.03348977 0.03285719 0.0077236183 -0.026249126 -0.05793734 0.02672502 0.013773004 -0.019340992 -0.022128073 0.0673742 -0.03929975 0.024949804 -0.014595436 0.010887623 -0.049353182 0.045013 0.010502789 -0.012744384 0.012113112 0.0006697932 -0.009479203 0.051558103 0.036325637 0.014136595 -0.0063871774 -0.060627136 -0.019772323 -0.027703384 0.033593036 0.036900986 0.0014957302 0.020355094 -0.020712746 -0.038546465 0.043225084 0.053698152 0.027301466 -0.046062876 -0.0004934016 0.03883446 -0.020093277 0.046361715 -0.047785338 -0.02028722 -0.0102620935 -0.012723275 0.03903793 
doc_6 0.038379617 0.045508824 0.036790457 -0.016374208 0.06389184 -0.047536157 -0.0098459525 -0.060879223 -0.021318726 0.059652224 0.022251405 -0.018977078 0.037962668 0.018971229 -0.05586557 0.029745132 0.048546463 0.04695968 -0.007858119 0.02588695 -0.024389183 -0.01637421 0.06613215 -0.013907113 -0.06136222 0.020393725 -0.05651996 0.0050706924 0.0001704974 -0.0017847106 0.033859584 -0.049110644 0.041628003 0.034116153 -0.022742927 -0.035337936 0.04313362 -0.00079436606 -0.041618716 -0.025820782 -0.06557864 0.059896763 9.341283e-05 0.0009031457 -0.014857527 0.018289998 0.009806604 -0.0040682023 -0.036340903 0.0067644287 -0.010677578 -0.00980546 0.021197217 -0.043082904 0.062128052 -0.03317483 -0.031641334 -0.025018789 0.037241522 -0.060864188 -0.046402268 0.029378116 -0.044418212 0.014567459 0.045594003 0.01909734 0.022142256 -0.027712287 0.0021395243 0.000100622055 -0.005049346 0.044978086 -0.024992079 0.022152878 0.042943545 -0.0060445773 -0.047722828 0.038762327 -0.0022054317 0.018107248 0.004448723 -0.03720759 -0.019074261 -0.03754011 -0.025572939 -0.021492431 0.012376484 0.03788211 0.0022650464 -0.044741392 0.016052682 0.043189898 0.008201076 -0.020904705 -0.00035820933 0.029583618 0.0021963993 0.00030003343 0.06370333 -0.0028455935 
doc_7 0.0013456598 -0.0100347 0.061425716 0.03962748 -0.03257292 0.069377154 0.06093196 0.05713982 -0.00056280696 -0.01058907 0.06823122 -0.024452029 0.022030715 0.029138569 0.08391176 -0.021868514 -0.008788289 -0.029821493 0.07395226 0.060078308 -0.06521329 -0.0332659 -0.058243316 0.056705203 0.06203307 -0.0553505 -0.009518836 -0.014373745 0.024789808 -0.077915475 0.020146558 0.02090356 0.07395227 0.009104283 0.030028403 0.06223956 -0.04790651 0.09634865 -0.008927429 -0.04061056 0.07441961 -0.01979115 -0.06618315 0.027619962 -0.05513486 0.04804405 0.015292916 -0.036411084 -0.052890908 -0.034886766 0.044722363 -0.07267059 0.04316397 -0.0010126118 -0.011131861 -0.007054979 0.057743262 -0.04030593 0.05977218 0.054511506 -0.06467288 0.017583473 0.06935215 0.020238347 -0.0202894 -0.0016168078 -0.07099926 0.013928378 0.019424407 -0.07231871 0.071530074 -0.005680461 0.007077411 0.02749968 0.045839462 -0.006321503 -0.04995303 -0.06998107 -0.09152012 -0.013380463 -0.016655974 -0.017943002 0.06746368 0.033586092 -0.05132605 -0.05651628 0.01564117 0.0015892767 0.048019126 -0.035455067 -0.081711575 0.0033611623 -0.044141155 -0.03765077 -0.006664024 0.035755087 0.07990619 0.012925049 -0.027056145 -0.05739156 
doc_8 0.012062327 -0.031327363 0.01237345 0.013563082 0.08042226 0.004370227 -0.0017048107 -0.022289313 -0.0020395922 0.04406772 -0.02994026 0.072428845 -0.06461511 -0.061215967 -0.07984475 0.00454415 0.06287505 0.012913589 -0.07716341 -0.036432546 0.0072245514 0.04168309 0.06278484 -0.030433154 -0.08239003 0.022898456 -0.051970948 0.072737485 -0.010523297 0.048668697 0.03327273 -0.0074271224 0.016361272 0.0011543912 -0.051232316 -0.06911968 0.028911836 -0.061363008 0.012937618 -0.031958587 -0.034963798 0.052487142 0.032074943 -0.072450705 0.0021907273 0.02888898 -0.021099413 0.014597035 0.05526652 0.0630688 -0.060125932 0.027419614 -0.051905386 0.0012209065 0.035610624 -0.06347061 -0.066322036 0.07265181 -0.049324267 0.004638737 0.022636224 0.001102501 -0.038743563 0.00036216722 0.05167189 -0.07751142 -0.01700102 0.03134184 -0.043917682 0.0021319846 -0.036192037 0.054852184 0.02237348 -0.05518179 0.014312269 0.038882904 0.012561464 0.065072715 0.078864105 0.048511565 -0.036173053 -0.041904353 0.011890724 -0.007640947 0.015147296 0.031858347 -0.038800158 0.016949994 -0.010102764 0.039178494 0.0098405015 0.003829296 0.0024771916 0.022280544 -0.039138038 0.01038788 -0.07122799 -0.005854303 -0.0043230047 0.026806511 
doc_9 -0.0052944846 0.034999773 0.015812054 -0.028485442 -0.008898235 -0.017815039 -0.027959408 -0.032421175 -0.01966955 0.044664063 -0.010157861 -0.031548124 -0.024216153 0.020038385 0.0392443 0.024499161 0.031951785 0.030275349 0.03953408 0.008127319 0.047803733 0.0014915242 0.034669813 0.021683205 -0.034288812 0.00026496564 -0.037982397 0.00084534544 -0.018123986 -0.030726284 0.032463316 -0.05235101 -0.022132939 0.009294079 0.03846392 0.019896049 -0.024189297 -0.01706764 -0.036579344 0.009870973 -0.012425546 0.03871574 0.0045557 -0.0588826 0.056838084 -0.011374287 -0.01676484 0.05021871 0.0041269436 -0.0036740399 0.027145917 -0.014752789 -0.034133658 0.049191196 -0.01714506 -0.00057788956 0.026235942 -0.024164831 0.034763448 -0.04913232 -0.043463115 -0.019547135 -0.02323421 -0.015248279 -0.025274653 -0.040450703 -0.009950805 -0.00055951416 0.029530292 0.03040121 0.042516623 0.016825136 0.0112568755 -0.026348498 0.01711781 -0.034495473 -0.03723525 0.027054805 -0.009843624 -0.014713743 0.014358541 -0.056314174 -0.02577963 -0.0067547667 -0.010142911 0.037230186 -0.0048303595 0.029503137 0.01392826 0.009098528 0.0401014 0.023130242 0.0023507704 -0.031193374 0.03177037 -0.032887 0.033041906 0.0037406827 0.0035882283 -0.034208022 
doc_10 -0.007332843 -0.029515201 -0.0468413 0.03263127 0.06911811 -0.048925925 -0.052242704 -0.016228717 0.034877516 0.06438498 -0.056191158 -0.018573673 -0.06599511 -0.06546558 -0.064769305 0.029367572 -0.008747336 -0.021091722 0.03084458 -0.05119476 0.007321357 0.045649134 0.04931925 -0.005847895 -0.025472857 0.043586247 -0.02975549 -0.039075695 0.0043725683 -0.0061696074 -0.022143235 -0.0030503087 0.022270087 0.007882078 -0.02439966 -0.05639354 0.006466443 -0.047286052 -0.013509428 -0.039678887 0.0061636465 -0.008545876 0.03050576 -0.024980154 -0.0059738294 0.050092712 -0.00045212806 -0.020999303 0.03550781 -0.0049359673 0.034820847 0.054763805 -0.0549837 -0.04613943 0.032100283 -0.06523407 0.015416112 -0.011971166 -0.0044081206 0.010481936 -0.01977705 -0.0017299062 0.017782934 -0.008016839 0.0017184517 -0.021273877 0.01588484 0.037635524 5.9463528e-05 0.021112677 0.01566685 -0.007926372 -0.045429066 0.011012046 -0.030107282 -0.043474715 0.015352985 -0.008851759 0.0153629845 0.023372347 0.054737538 0.029138736 -0.04138627 -0.032954678 -0.007175854 0.008314518 0.033691775 0.019946149 -0.03282723 -0.022452192 0.013249586 -0.020951124 -0.0051981513 0.051299717 0.04071784 -0.040839534 -0.06365681 -0.037382375 0.055575218 0.0004572943 
doc_11 0.032237742 0.020518497 -0.013777703 -0.044468284 -0.016341915 0.02600466 0.013714135 -0.05020604 0.040729396 -0.02809334 0.03792043 0.032309562 -0.017210178 -0.0203409 0.0028569875 0.021160152 0.051309768 -0.0033325562 0.015802061 -0.053958938 0.019044515 0.030372541 -0.042717904 -0.040641077 0.01998883 0.01812502 -0.030856961 0.04278233 -0.023157738 -0.011887836 -0.001897266 -0.040058725 -0.03523241 0.00076537137 0.023468865 -0.006053775 -0.039274447 -0.044830397 -0.037259307 0.030634603 -0.021508038 0.002287908 0.0047086067 -0.002372631 -0.03288075 0.039137892 -0.037825983 -0.016611699 0.04657311 0.022946455 0.0015328617 0.04084669 0.044425964 -0.020184355 0.03485429 0.025609871 0.01622403 -0.009604853 0.009012308 -0.04383273 -0.02363632 -0.04629018 -0.018281857 -0.0010005716 -0.042270463 0.022680437 0.04373342 -0.048557166 0.031330608 -0.02704572 0.0007593773 -0.0024484308 -0.049008243 -0.010205546 -0.043552 -0.038625818 0.007934804 -0.0025466993 -0.0048631723 -0.00613349 0.012776538 -0.028345553 -0.036818136 -0.035845246 -0.03635053 0.027624834 -0.044673588 -0.03843664 0.024085237 0.044890463 0.0048908875 0.008753494 0.051444393 0.04803393 0.018173195 -0.010161109 -0.052690182 -0.04002756 -0.011878545 0.014639616 
doc_12 -0.015540106 -0.030128352 -0.012421285 -0.019496806 0.022100775 -0.033053603 -0.0070607075 -0.0011624432 0.005822731 0.030951975 -0.01824305 -0.04583351 0.045685187 0.05069559 0.024501255 -0.019409204 -0.039041847 -0.006488122 -0.04084592 0.04640722 0.0018066195 0.02599541 -0.025442053 0.004338337 -0.030711517 0.020994913 0.0136982985 -0.016068311 -0.027684968 0.031698503 0.03983075 0.044072192 0.058907773 0.009144923 0.03576318 -0.0045951325 -0.021176238 0.0018756138 -0.00431018 -0.04859672 0.046321087 0.017702425 0.019747434 0.019358182 0.012843617 -0.03540895 -0.033164307 0.008379346 -0.025789445 -0.021266805 0.028251905 0.02347883 -0.022472005 0.03932486 0.014199603 0.001198307 0.033942685 -0.019471686 -0.009791562 0.056126527 0.043662254 -0.055272523 0.057455108 0.023524428 -0.03147446 0.04425554 -0.022122407 0.0128374975 -0.039161902 -0.028476592 -0.0065123164 -0.03032861 0.041707557 0.019887516 -0.0037221585 0.024669724 -0.032198343 -0.010654162 -0.039077953 0.0047513787 0.012157158 -0.003787556 0.05718188 -0.04083382 0.018953186 0.019845316 -0.038548198 -0.011770711 0.05021583 -0.041053064 -0.025050024 0.04904987 -0.035551034 -0.02959484 -0.0036194809 0.03557918 0.019076416 0.024296133 0.011118339 0.048219502 
doc_13 0.002236545 0.046578027 0.035606727 0.019063246 -0.014316373 0.004362336 -0.019097755 -0.04394196 0.024342619 0.015475489 -0.028467 -0.056264974 -0.030798215 -0.02062349 -0.0050111394 -0.010788342 -0.04317723 0.018124035 0.04002256 -0.0041565667 -0.054544616 0.030762548 0.024069844 0.046857573 -0.009831239 0.030418023 -0.009399035 0.013144479 -0.03611582 0.033127505 -0.033595443 0.02147769 -0.036265124 0.006269 0.0227101 -0.012098282 0.04524879 -0.02984532 0.0030018194 -0.023866175 0.004281289 -0.016501997 -0.022412729 0.047626983 -0.03626259 0.007429585 0.047639687 -0.008032736 -0.0110356985 -0.013669366 0.029022476 0.020027896 0.046178993 -0.0088718645 -0.00038816818 0.03224774 -0.04630169 0.027288884 0.029464373 -0.015414605 0.025773061 0.016520137 0.050420556 0.023708893 -0.016465144 -0.017968513 0.0001727473 -0.025818255 -0.03284322 -0.018699639 0.00659325 0.010145089 -0.011353393 -0.0007938916 0.043986265 0.020629521 0.039920326 -0.0017836248 -0.03627543 0.015117 0.03746963 -0.039620552 0.018215183 -0.035724413 0.0025798855 0.039549742 0.037052244 0.034097623 -0.0040501044 0.011053775 -0.028852932 -0.046376877 -0.034034915 0.0065678037 -0.030491501 -0.004148197 0.008685677 -0.013203927 0.022554947 0.024799379 
doc_14 -0.033185624 -0.022535568 0.022622699 0.015829956 -0.004022982 -0.060040962 -0.042737562 0.010344904 0.04794276 0.041227933 -0.029269084 0.012234024 -0.043942254 -0.040488694 0.021854373 -0.0022011455 0.03147611 0.04433849 -0.011680392 -0.027494574 -0.010961827 -0.004811051 -0.0038257753 0.017315771 0.008675857 -0.016186608 -0.050769404 -0.033779774 -0.016219042 -0.014724938 -0.0068567223 -0.01841569 0.03300716 0.027042879 0.044735618 0.008583644 0.0043830993 0.02841977 0.0071807657 0.013758175 0.0115947705 0.019288987 -0.024063984 0.038352575 0.039920047 -0.026035713 -0.010068501 0.0037688764 0.004997309 0.020945337 -0.022118146 0.039096706 -0.04833948 -0.05752151 0.025525456 -0.030710084 -0.055687647 -0.017141795 -0.031541195 0.024192903 -0.033659298 0.0020450423 -0.05148666 -0.029922811 -0.04013119 0.036478523 -0.030280868 -0.024128912 -0.02003297 -0.026442515 -0.011923006 -0.031234214 0.025861643 -0.01814481 0.033661213 0.032227762 -0.0051912237 0.05241122 -0.011120478 -0.026612101 0.020254726 -0.04393618 0.0318097 -0.035143007 0.014172113 -0.008752218 0.03256005 -0.029536182 -0.027492609 -0.017346578 0.0054654297 0.0109212315 0.05907597 -0.005713684 -0.042529553 -0.03249781 0.030781774 0.03186759 0.0407177 0.01444076 
doc_15 0.033718698 -0.00040937244 -0.0060962224 -0.0047775144 -0.013794419 0.034449708 -0.030322632 0.049461003 0.02888937 -0.028364355 -0.016062044 -0.0069740606 -0.022338523 -0.027404528 0.06906403 0.01996614 -0.053490896 -0.006274911 0.05429836 0.05997672 -0.0049200887 0.029781137 -0.021962527 0.014252768 0.0038327521 0.012523057 0.04328669 -0.04390029 0.02828133 -0.06563095 -0.03294516 -0.02318094 -0.020998511 -0.04297863 0.04544425 0.061516207 -0.028448962 0.046701424 0.010119427 -0.0078587765 0.029660424 -0.055485375 -0.008686884 0.0080322875 -0.009376135 0.012849103 0.009690909 -0.017747458 0.028010601 -0.06581783 0.054382443 -0.046720397 0.044570703 0.052273475 -0.033471897 0.01907205 0.0023584731 -0.020672878 -0.021763919 -0.022267997 0.005513898 0.014257703 0.042865656 -0.03604515 -0.0043618972 0.029767234 0.020237885 0.0073581394 0.010728604 -0.048392653 -0.020226546 -0.050830264 -0.026863594 0.04879869 0.016762469 -0.01926955 -0.04730118 -0.035405252 0.02130736 0.040356774 0.013500689 0.024411958 -0.028556772 -0.0054387352 0.00021753777 -0.009187039 0.045030516 0.012681444 0.03098063 -0.015850056 -0.03885054 0.01935098 2.1465958e-05 -0.02870017 -0.012164651 -0.04066271 0.03245341 -0.02381675 0.01744643 0.04131132 
doc_16 -0.020237694 -0.03210404 0.03171272 -0.021215884 -0.012587472 0.020384438 -0.0031578473 -0.02698482 -0.055622682 0.03819196 0.023389649 -0.0069972896 -0.025892643 0.0146974875 0.0347273 0.010689893 0.050834406 -0.0548376 0.035794448 0.03273524 0.05355301 0.021800462 -0.03335341 0.042436697 -0.023727829 0.014229231 -0.04010103 -0.026749924 -0.01518759 0.003658312 0.011033761 0.01996118 -0.053416956 0.056864493 -0.0060705235 0.0071825865 -0.014633968 -0.05902648 0.017189821 0.0077063027 -0.0070179556 -0.013439172 0.005357868 0.011027339 -0.04838084 -0.021351924 -0.053140685 -0.020843858 0.039898217 0.014652904 0.0035094616 -0.021416707 0.010589009 -0.014412235 0.019880839 0.0039299093 -0.027596522 -0.0020475185 0.02792651 -0.05078449 -0.03912722 -0.035373747 0.0065739043 -0.0048952675 -0.015946252 -0.032309115 -0.028760511 0.019245949 0.04614814 0.0011690089 -0.013502469 0.043743875 0.026147652 -0.01779706 -0.01748985 -0.008699509 -0.041528873 0.017229306 -0.011430188 -0.030777453 0.04345276 -0.023798175 0.009485894 -0.029297091 -0.007827035 0.012363823 0.013701077 0.016895955 0.019180901 0.029804492 0.013595327 0.053344637 0.018574074 0.052684933 0.009926279 0.019918045 0.036728196 -0.021820782 0.024475541 0.040360615 
doc_17 0.0028036644 0.03140374 -0.046286926 0.031963293 -0.02583101 -0.01149866 0.045864113 0.020589072 0.045552723 -0.03464992 -0.008280786 0.011965098 -0.007829618 -0.038136 0.0047314195 -0.0016821405 -0.049437538 -0.013746154 0.014592281 -0.011729113 0.047495734 -0.016942097 0.029645214 -0.01078811 0.028712505 -0.036819175 0.000195444 -0.0042637466 0.018983983 -0.005148931 -0.003649214 -0.030760923 -0.0024975769 -0.048923407 -0.03590451 -0.009441383 -0.006324983 0.051146403 -0.032811273 0.005810303 0.039360642 -0.021051724 0.02719998 0.032296125 -0.037222095 0.0028197672 -0.03731537 -0.040920615 -0.0076587386 -0.043957237 0.003821774 0.014148658 -0.042671587 -0.008792725 0.023797788 -0.02933638 -0.016083924 0.025150597 -0.047526713 0.004463099 0.036350757 0.032338854 -0.013641036 -0.02316893 -0.0435014 -0.008578164 -0.011439029 0.0011846762 -0.044921897 -0.027141772 0.04257244 -0.04701283 -0.037377864 -0.03710821 -0.017892383 0.021992529 -0.023705065 -0.0039670053 -0.008458888 0.03478801 -0.018529119 -0.011509652 0.029804872 0.031435557 0.050504707 -0.04244325 0.00783443 0.022361279 -0.032823563 0.03875375 0.034181133 -0.02948475 -0.015331954 0.03349975 -0.021515902 0.051428534 -0.036896434 0.050695 -0.023326356 0.031747825 
doc_18 -0.047766414 -0.027610792 0.016934646 0.03386573 0.0028830352 -0.035143197 -0.009878117 -0.04993661 0.017350785 0.050468534 -0.022009458 0.033871822 0.03261773 -0.046190824 -0.040751074 0.0017605551 -0.033511546 -0.0044342275 -0.031974837 0.021076418 0.00095670077 -0.012562571 -0.030372843 -0.024808032 0.017385582 0.032410678 -0.04873481 0.00650301 0.03571872 0.012763358 0.025465026 -0.026161112 -0.03111953 0.012154101 0.009666354 0.019124338 -0.030593568 5.8234575e-05 0.033784293 0.04444592 -0.00065990596 -0.01569703 0.015312124 -0.009630881 0.0054789777 -0.03345024 0.042999763 -0.021161424 0.0071343104 0.048671767 -0.039912876 0.011726404 -0.0029360051 0.015490109 -0.004118188 0.010307689 -0.033994585 0.018666942 -0.01736155 -0.046931766 -0.02072807 0.039148517 -0.05016694 0.036630873 -0.0027938224 -0.02492914 0.041699626 -0.030143881 0.040641144 -0.02453266 -0.033627737 0.016514285 0.006853397 0.02816021 -0.030750921 -0.030163141 -0.043309752 0.03574543 -0.04135404 -0.03750954 -0.02536141 -0.03363272 -0.04013622 0.036132555 0.037726212 0.0349054 0.0045824503 -0.0061483565 -0.0030268459 -0.023218675 0.0137010785 -0.037541553 -0.03912019 0.0006130378 0.044515047 0.04951189 0.00065760384 -0.0294611 -0.03717063 0.045362167 
doc_19 0.01418619 -0.046093598 0.0033723798 0.041666407 -0.008204347 -0.039797235 -0.0076639047 -0.021877192 -0.05113423 0.0054213097 -0.011697006 -0.0009687809 -0.016276604 0.020762755 -0.03562983 -0.03635291 0.0061917123 -0.041366152 -0.027052747 -0.035121072 -0.03382449 0.030539028 0.027570667 -0.0017479387 -0.015454107 0.0049388525 0.0053448128 -0.010352882 -0.05548234 0.041203942 0.0018427218 0.027686328 0.035812963 -0.019476887 -0.029349694 0.030665632 -0.0025274658 -0.038701665 -0.023624808 0.002949417 -0.031572253 -0.0029515277 0.037370674 -0.027526649 0.049122687 0.037534293 -0.005763488 0.05935804 0.025259437 0.04563739 0.028776173 0.020912984 0.047402393 -0.006464101 0.034989618 -0.034874503 0.038220793 0.039290503 -0.044559564 0.01022114 -0.0014873692 0.054981142 0.031182623 0.05000781 0.048061077 -0.03566571 0.006482763 -0.029727487 -0.019240191 0.0123693645 -0.0067216107 -0.010592855 -0.01732036 -0.02414822 -0.004454506 0.01742653 0.028785836 -0.035828955 0.012208234 0.036327068 -0.039858807 -0.0033326854 -0.023510987 -0.021769606 0.013731701 -0.04156396 -0.03815358 0.018238807 0.039445557 -0.0021194052 0.059060205 0.010664958 0.03041584 0.028567048 -0.042047635 0.006288799 -0.044482756 -0.03635111 0.045279518 0.047281593 
doc_20 -0.010056549 -0.007935398 -0.035751373 0.03138449 0.038009174 0.012851238 0.038714606 -0.0027304143 0.009942102 9.6418786e-05 0.00215299 0.03254712 0.03349542 -0.04282139 -0.04048443 0.031746924 -0.0009562457 -0.025351167 0.007449668 0.014160374 -0.019026097 0.015655747 -0.003555412 -0.021708243 -0.044722784 0.025869032 -0.035710104 -0.039850574 0.022180071 0.0024797812 0.041183818 0.011553229 0.040206544 0.024817307 -0.040605366 -0.056061875 -0.028277198 -0.010274023 0.023176363 -0.004244801 0.016543057 -0.024520183 0.015226654 0.015471254 -0.032008007 -0.017655365 0.0067900084 0.024449836 -0.018115742 -0.033666324 -0.013535597 -0.004183485 -0.038742125 0.017617315 -0.011204874 0.008642883 0.034001693 -0.015226973 0.02765826 -0.04570605 0.02045716 0.027265018 0.035556916 -0.0031388977 0.048030417 -0.0068170982 0.010300142 -0.040903367 -0.042492893 0.028470587 0.041023992 0.042640474 -0.0356646 -0.02770706 0.0099929515 0.029500863 0.038077 -0.037488364 0.021301491 0.014073115 0.049526982 -0.006966635 -0.022568706 0.03901646 -0.00054264825 0.040608354 0.045475207 -0.016856572 0.0171393 -0.017106067 0.045032796 0.03378419 -0.025397263 -0.03212257 -0.0346217 0.022701308 -0.038587313 0.04228045 0.039703712 -0.0018602696 
doc_21 -0.038096808 -0.023957372 -0.026122468 0.036963657 0.03636845 0.020399807 -0.00872187 -0.0033013083 0.00055634684 -0.025412371 -0.046740986 -0.018507292 0.022717375 0.033553354 -0.055172972 0.03168944 0.05604268 0.03256622 -0.04011606 -0.02468946 -0.018898431 0.0019271756 -0.03198921 0.028156174 -0.027712125 -0.0010062366 0.022582976 0.006764484 -0.0199775 0.058899123 -0.027495496 0.030869545 -0.019410493 0.032708403 -0.010371921 0.007445321 -0.0035215563 -0.006695966 0.008959357 0.006272123 -0.008450767 0.02622102 0.010847074 0.0055496274 0.03998641 -0.045512475 -0.04395072 0.042221624 0.044547934 0.013438984 0.033340327 0.062633954 0.033654142 0.001574368 -0.015396324 0.019833125 -0.016196487 0.047288302 0.025423884 -0.035856426 -0.003267531 -0.041901253 -0.0531089 0.035322793 0.038288854 -0.008521126 0.04182446 -0.013256331 -0.03207293 0.0031930392 -0.051083013 -0.026338225 -0.032417748 0.02224963 -0.019414714 -0.037868522 -0.035857372 -0.010945523 0.05490726 0.05376985 0.039205693 -0.040660605 0.020043274 0.018158488 0.015009249 -0.02292995 -0.05402548 -0.0012138302 -0.0063422206 -0.03166564 -0.008017745 -0.010382 -0.0006152587 0.03947675 0.039017543 -0.035854448 -0.046781316 -0.015850224 0.017640188 0.032978665 
doc_22 0.0020679643 0.015562327 0.031970955 -0.009585081 0.0400671 -0.012981825 0.008378749 -0.007489351 -0.03575619 0.010644946 -0.056942243 0.025426403 -0.035358824 -0.06155644 -0.044372153 0.023959527 -0.021766374 0.04527917 0.03814288 -0.035108853 0.005464617 0.034316793 -0.03134954 0.029136267 0.0111402115 -0.025220126 0.028590105 -0.03224855 -0.05737104 0.009591445 0.015007233 0.01925679 -0.04018389 -0.003726618 0.019254845 -0.02435737 0.03491648 -8.5618405e-05 -0.01538692 0.044774413 -0.025939485 -0.027759343 0.051709715 0.019928569 -0.018594384 0.026436621 0.023481756 -0.007480364 -0.026772382 0.041549608 0.015387957 -0.019657852 -0.045683056 -0.03759526 -0.0024910811 0.0018921983 -0.046344012 -0.0035189742 0.032579005 -0.015701318 -0.012241838 -0.012933571 -0.017654166 0.025766253 0.011497674 0.03231927 0.012489423 -0.047970213 -0.047086608 0.0032502683 0.024364982 -0.025772268 0.03083909 -0.04158731 -0.025894023 -0.024152119 0.0437875 0.008606877 -0.024620742 -0.026874997 0.045716878 0.015852148 0.0021775814 0.050471228 0.0058296877 0.049355496 -0.048154764 -0.0021121344 0.0026366382 0.030707968 0.051686723 -0.00461381 0.00067915954 -0.0397592 0.012561118 0.051189005 0.012957082 -0.037945457 -0.034198374 0.023724152 
doc_23 -0.007578005 0.008930765 0.05118365 -0.00068251777 -0.054746624 -0.027699748 0.038319957 0.0051101977 0.011000854 -0.006783882 -0.0014451616 -0.015128285 0.00046907767 -0.008644105 -0.02301742 -0.027514273 -0.045164246 0.029910369 0.04053644 -0.0024176408 -0.032981392 -0.03209643 -0.017288474 0.014086811 0.038157273 -0.004348482 0.01897354 -0.0126403235 -0.00569974 -0.017367244 -0.029082948 0.017599903 -0.035565056 -0.014269808 -0.034983475 -0.022682814 0.01170944 0.042969007 0.022065543 0.00348054 0.0029994205 -0.022462094 -0.059763458 -0.03052801 -0.0148656545 -0.0425701 0.03865069 -0.030188335 0.03161915 -0.034897994 0.02274814 0.022262992 -0.017577661 0.0072598383 -0.057279266 -0.030666882 0.022680683 0.013431061 0.030960597 0.0056556924 -0.01909492 -0.025095513 0.004945061 -0.050768606 0.0043906737 0.022844732 -0.0069936304 -0.03031293 -0.01705799 -0.052663613 0.035864186 0.022157343 -0.030129144 -0.004897126 0.016595015 0.031091793 -0.040606577 -0.0464369 0.022816157 0.03059046 -0.02650537 -0.0071783275 0.023997137 0.0013316032 0.032505926 -0.008861822 0.0072959666 0.043618012 0.0013287017 0.032349844 -0.01873636 0.0072781793 -0.0035316683 -0.015995024 -0.0027967035 -0.03705097 0.033984646 -0.036246028 -0.06852518 0.011791387 
doc_24 0.0038992092 0.028744213 0.03471458 -0.045728743 0.021051452 0.012374089 0.0275162 -0.0047694785 -0.012101738 0.044571266 0.028474994 -0.010797541 -0.04642798 -0.033926785 -0.047218494 0.009992141 -0.0116666 0.03240079 -0.046212904 -0.004678582 0.018004654 0.008878708 0.033445552 0.008808407 -0.052805714 -0.006330912 -0.011472582 -0.012136437 0.0035766847 -0.0036644065 0.007927679 0.012719475 0.011061409 0.024648774 0.020342397 0.038762424 0.022704743 0.028055608 0.0074708126 0.031789485 -0.02064087 0.0014219815 0.032968972 0.008280823 0.056613073 0.017015025 -0.008198816 0.031277698 0.01753496 -0.031379826 0.019872611 0.018597757 0.014354152 -0.020660508 0.029458163 -0.043147996 -0.042534914 0.053061124 0.03834397 0.030123146 -0.028464956 0.02190777 0.021121252 0.028430773 0.032131262 -0.044602815 0.010146877 0.0073451763 0.00018038478 0.024814056 -0.009881655 0.0069694337 0.032636724 -0.005043146 -0.0364306 -0.044086874 -0.012651655 -0.029747877 -0.03742735 -0.009399462 -0.02671904 0.0096232565 -0.05771968 0.032308787 -0.027962958 0.050471894 -0.0013047659 0.03988786 0.014139234 0.015638454 0.04160589 0.030128134 -0.028142791 -0.0035145571 0.03600542 -0.039537556 -0.012637856 -0.015923688 0.009963139 -0.038442533 
doc_25 0.052109398 0.02953287 0.02879771 0.038108632 0.024386449 0.029446049 0.010469236 0.037250288 0.01308398 0.040900327 -0.02301348 0.031544026 -0.020000031 0.019348737 0.02662409 0.053111695 0.046530988 -0.048992556 0.013334605 0.040776506 -0.012377527 -0.00074524846 0.020503327 -0.036068242 -0.0043644398 -0.03340581 -0.05622601 0.018839773 0.007658367 -0.016049989 -0.01551783 -0.017211653 0.02105611 -0.027082771 -0.04254799 -0.030439321 0.019277712 -0.042377587 0.009461326 0.044604186 -0.018115051 -0.02311175 -7.572056e-05 0.00078181695 0.010962373 -0.03497301 0.0054429523 0.009721922 0.031192137 -0.023786461 -0.027973775 0.027901545 -0.036567632 -0.019784082 -0.0030744888 -0.013949369 -0.00084715005 -0.004149194 -0.022045067 0.028294109 -0.0405469 0.0031823963 -0.005656355 -0.039782286 -0.022831451 -0.02276843 -0.0022050466 0.011325512 -0.03125492 0.022002457 -0.017785836 0.041641243 0.03931386 0.0014206826 -0.019468216 0.038964678 -0.015078744 -0.02051827 0.056924358 -0.03101596 -0.02965827 -0.030461175 -0.0034034657 -0.01569202 -0.024332846 -0.013106665 -0.050609548 -0.013085644 -0.050710507 -0.046936546 0.056898832 -0.033039175 0.03343731 0.039159257 0.0021228103 -0.036014967 0.015700672 0.05327801 -0.03346991 -0.046200268 
doc_26 -0.041867763 -0.0378716 -0.028906127 -0.04099479 0.04149339 -0.030114 0.034579683 0.028440548 0.023538755 0.01213812 -0.044115536 0.036746845 -0.057575636 -0.053655908 -0.0122809345 0.0135553675 0.01954613 0.023342967 0.017364237 -0.022249946 0.015154442 0.002551736 0.057754435 0.020569554 -0.052054305 0.04698842 -0.00356988 -0.02177733 0.021206865 0.012221041 -0.009091946 -0.037745364 0.009707836 -0.003429929 0.020501688 -0.05901531 0.039243616 0.014129518 0.029580528 -0.020874651 -0.059608284 0.044565715 0.06568339 -0.0026107163 0.014765619 0.001133475 -0.054898567 -0.018158263 -0.031125847 0.026288213 -0.028399426 0.056035627 -0.0026907471 -0.04945939 -0.020307356 -0.017858446 -0.036115624 0.025106845 -0.056647945 -0.048588023 -0.0023611598 0.026613623 -0.0643967 -0.013529029 0.048456226 -0.058349587 0.023879698 -0.02623559 0.027935658 -0.024286972 -0.05969395 0.03730925 -0.049703754 -0.007699827 0.00994267 0.04778388 -0.030243874 -0.0008526126 0.023941219 0.05472209 0.023827571 0.018531939 -0.022151457 -0.026382057 0.014250406 0.016708193 -0.030893462 0.012368284 -0.01021397 -0.028712183 0.03717423 0.007411803 0.0079747755 0.006952225 0.037684295 0.012136344 -0.038549993 0.0064105853 0.043449778 -0.013048369 
doc_27 -0.03705065 -0.045787323 0.011312535 -0.01973188 -0.010099597 0.00078303734 -0.030983089 0.04911872 -0.0043512094 -0.008381626 0.026898777 -0.037832975 -0.040987507 -0.018843539 0.033360697 0.030572282 0.0006778955 0.01837971 0.024082862 0.04237287 -0.028145961 -0.053315636 0.023796482 -0.019960888 -0.031118458 0.0013092164 -0.03692827 0.015540168 -0.0037121512 -0.03633641 0.031542733 -0.034217536 0.042794928 0.037525814 0.0048975553 0.0068647065 -0.0048794732 0.033789087 0.020843431 0.020240048 0.057676245 -0.038604222 -0.021032235 0.043469958 -0.0350705 -0.04931459 0.025887536 0.036214046 -0.04995169 0.020298345 -0.029349277 0.030441305 0.04228261 0.003548526 -0.026274573 -0.00065609196 0.007534393 0.04034254 -0.018079098 0.051185578 -0.036169633 0.009991896 0.018290928 -0.03757624 -0.016553583 0.025495054 -0.030494934 0.004313468 -0.00017738451 0.037096515 -0.007289424 -0.053495985 0.053534996 -0.020104904 -0.0032562108 0.0023710453 0.032119434 -0.012814331 -0.034908343 0.0023689452 -0.031130698 0.04196132 0.008419948 0.008229952 -0.028402844 0.010543163 0.048311576 0.0428353 0.02640713 -0.03518301 0.018013684 -0.04868198 -0.009425943 0.03416656 0.025587415 -0.024585579 0.044571143 -0.0011492899 -0.024319187 -0.053820115 
doc_28 -0.02773551 0.04412857 -0.008049204 -0.03727911 0.026058318 -0.049520344 -0.041884307 -0.019855326 -0.008064009 0.0011292514 -0.05144892 0.05871945 -0.05674798 -0.017609922 -0.05772918 0.030289017 0.030855652 0.002120611 0.0032555622 -0.01970346 -0.00078075245 0.02108872 0.0060284226 -0.0023194691 0.010035745 -0.01112516 -0.049011793 0.033193465 -0.019907365 0.013574397 0.0046299365 0.023783185 0.0047534765 0.0047977283 0.02345167 -0.040807832 0.03538628 -0.010637352 -0.027349513 -0.025324019 -0.05208348 0.06616507 -0.017074214 -0.04475885 -0.013896111 0.051889814 0.003175335 0.002415857 0.05201445 0.03943967 -0.025052588 0.01723958 0.016114317 0.012057993 -0.027931806 0.009541748 0.025813488 -0.028730562 -0.0014065962 -0.06490649 0.027711522 0.045166582 0.0128493775 -0.02464117 0.0067155226 0.024429617 -0.0064782053 0.025887005 -0.029174525 -0.019210557 0.037658308 -0.018798912 -0.012567031 0.028892027 -0.045066837 0.05768271 0.051709507 0.013932235 0.04364819 0.051612683 -0.005645664 -0.03355465 0.005941435 -0.023761563 -0.0022811457 -0.0048106434 0.036793537 -0.040188346 0.008181778 -0.03920917 0.053790238 -0.04042241 -0.022344777 0.02092155 -0.04872055 0.004117905 -0.052862443 0.01743895 0.018846624 -0.0035505702 
doc_29 -0.029859139 0.025041742 0.0333146 -0.050419267 0.033021744 -0.012918048 -0.057025835 -0.033928644 -0.040200673 -0.008993129 -0.027540231 -0.028432287 -0.0069417874 0.005797848 -0.0053381817 -0.008049845 0.061936777 -0.04791362 0.00020830338 -0.028764114 0.0035717872 0.03742304 -0.014151668 0.023245357 0.022025743 0.025456773 0.0138283465 0.0024969133 -0.018232014 0.052875288 0.031439487 0.002339463 0.01621895 0.029339498 -0.027494859 -0.032416582 0.03342229 0.030346246 0.007490631 -0.0038055999 -0.024192723 -0.011812538 -0.023713531 0.010217366 0.041190628 0.04156374 -0.059026487 0.008270454 0.0068217977 -0.033588514 0.003643025 0.020350097 -0.046661474 -0.008386339 0.018957946 -0.059022196 -0.01850735 -0.024327582 0.031933162 -0.04136401 -0.038826756 0.053237166 -0.06581266 -0.025050413 0.050951023 -0.0016410706 0.011919424 0.032511394 0.0007256529 0.031653397 0.0022187163 0.033176184 -0.010657261 0.0028660847 0.019156208 -0.04140027 0.021308895 0.041867156 0.00718245 0.035613447 -0.018507117 -0.010246273 -0.047883615 -0.0051445295 0.050193086 -0.027781155 -0.014731833 -0.03785774 0.033922605 -0.04677548 0.00614199 -0.02630929 0.03977945 0.024034387 0.027684974 0.037367918 -0.057069667 0.0017583143 -0.013847765 -0.014854854 
doc_30 -0.018048413 -0.036961604 -0.02234317 -0.034465343 0.055052634 -0.04831413 0.030723318 -0.03691805 -0.0105753755 0.038759306 -0.018712062 0.01601765 -0.04956322 -0.033339936 -0.06026115 0.058797967 -0.014235249 -0.034915894 -0.03267432 -0.057717305 0.06617069 0.052544158 0.047998838 -0.021448184 0.016416097 0.025930613 -0.014338653 0.050741423 -0.017048007 -0.02770848 -0.008904108 -0.061831698 -0.0544469 0.02608761 -0.0017672498 -0.017547937 0.007093344 -0.04576838 0.028755194 -0.026863487 -0.048750333 0.03588413 0.024640637 0.02058384 0.021713577 0.030416213 -0.05927979 0.030026026 0.040019628 0.022824038 -0.022068411 0.049076702 0.011178835 -0.019990657 -0.02112828 -0.022528086 -0.06661046 0.05729528 0.021501685 -0.014656739 0.022814438 0.00049700827 0.018291237 -0.019716382 -0.009071548 -0.023502313 0.055550214 0.012033476 0.01102815 -0.025355097 -0.05447841 -0.03264158 0.003328914 0.011023312 0.01441649 0.035759542 0.002074691 0.028254649 0.004385436 0.0021869156 0.031171275 0.048110895 -0.0074060624 0.020433795 0.020739231 0.0039528357 0.019871293 -0.03343492 -0.04020124 0.008938101 0.035065055 -0.045086574 -0.027482321 -0.006651563 -0.01869947 0.0039955834 -0.05225916 -0.015676666 -0.01532807 0.016180394 
doc_31 0.07297956 -0.02026462 -0.015350028 0.0017362741 0.112203926 -0.039785624 -0.08958035 -0.03344259 0.049723554 0.054652777 -0.08064562 0.08852112 -0.08416287 -0.094827436 -0.10079538 0.084977746 0.02797423 -0.007894639 -0.032658212 -0.007428013 0.008910329 -0.012570505 0.015816867 -0.021159997 -0.04715627 0.017970795 -0.053192817 0.025648912 -0.03874468 0.07858207 -0.012711496 -0.081490815 -0.010453535 0.0633816 -0.07672364 -0.05463789 0.02628495 -0.06700114 -0.038720634 -0.033965927 -0.06962192 0.01108531 0.07420968 -0.088983975 -0.0015592573 0.044718992 -0.052707423 0.06304473 0.028664077 0.08898568 -0.076587856 0.083265744 -0.005404802 -0.05788938 0.042295683 -0.06737195 -0.043227646 0.021789614 -0.07819318 -0.10222754 0.03737377 0.061842002 -0.056889303 -0.001498944 0.028692607 -0.057579618 0.04644318 -0.0025448317 0.034129348 0.09045163 -0.08106825 0.050589014 -0.023591608 -0.09141402 -0.054446615 0.026897555 0.045451082 0.10172873 0.09884227 0.08246526 0.003964494 -0.037964895 -0.07546013 0.0076049613 0.009441194 0.036677327 0.011911814 -0.024516704 -0.06290388 0.039330408 0.12062291 -0.053409357 0.027695527 0.034989696 -0.053084284 0.0043186187 -0.06354316 0.01904864 0.113128856 -0.020955794 
doc_32 0.045096934 -0.031445783 0.03804298 -0.023463001 0.04551223 0.038811516 -0.016841032 -0.037609167 0.026061352 0.01027752 -0.0068137976 -0.036996074 0.046865817 -0.031247444 -0.036926262 -0.040467642 0.010246036 -0.039762862 0.017531654 -0.009963761 -0.012453049 0.0033926112 0.03296546 0.027193416 0.03288842 0.026687006 -0.04223853 0.04343183 0.004634462 0.0211532 0.043278456 -0.017082455 -0.025467234 0.045375086 -0.037863545 0.03204803 -0.03650081 -0.026453633 0.027393624 -0.025026193 -0.022053422 -0.0036635308 -0.0028454957 0.045738846 0.029498544 -0.02766675 0.004043725 -0.041263714 -0.037697423 0.021302965 0.007052563 0.026941659 0.015462518 0.021290265 -0.0018407302 -0.008124677 -0.05549196 0.026678454 0.04547691 -0.028939 0.049765393 -0.030115275 -0.056057528 0.036557507 0.04907633 -0.016497882 -0.016023243 0.031795304 -0.01348221 0.05124693 -0.032055147 0.033695504 -0.015200145 0.0051929937 -0.0273796 0.015935497 0.02997147 -0.009685854 0.031944502 0.040584426 0.039233975 -0.0100311795 0.0048167817 -0.0156919 0.032344818 0.037676573 -0.032658253 0.008756264 -0.056401227 0.025888283 0.032176528 0.012406778 0.003360577 0.052068498 -0.029686067 0.047367387 -0.055207126 -0.025286378 0.025169408 -0.030830866 
doc_33 -0.0003053396 0.0056447973 -0.0027765075 -0.05530526 -0.036012266 -0.02924093 0.036893733 0.041240845 -0.048030417 0.00065806066 0.004446521 0.037886977 -0.031916477 0.037645344 0.010280906 -0.010610323 0.06274074 0.044351045 0.021150123 0.0018943452 -0.020582216 0.017808445 0.026647804 -0.033077233 0.03778382 -0.013612718 0.0039240643 0.053576093 -0.008997957 0.05842022 0.053966764 0.02500251 0.03307286 0.0177219 0.027816951 -0.023642456 0.042773753 -0.026350442 -0.031859078 -0.031235171 0.041426893 -0.031036926 -0.026251588 0.037680306 -0.029763184 -0.018993013 0.008128578 0.035614368 0.036351215 -0.007975805 0.027073568 0.041502766 -0.047415134 -0.0470236 0.018774772 0.031963013 0.0050361454 -0.029695606 -0.03646106 0.033379152 -0.001374632 -0.023998773 0.02469069 0.03380598 0.03080718 -0.04707931 -0.005958701 0.03652619 0.039918486 0.05317867 0.025690593 0.033080496 -0.021361358 0.024928717 0.025708592 0.050578654 -0.028606383 0.022541637 0.009148905 -0.01501061 0.04826222 -0.041903242 0.025886633 0.013285893 0.0061799856 0.029392425 0.030303527 0.009895482 -0.022477418 0.011688666 0.05363986 -0.009307462 0.011347353 -0.0014808072 -0.0024187542 0.012394657 -0.006044165 -0.023446767 0.040085126 -0.01237692 
doc_34 -0.038886506 0.0043669716 -0.028264591 -0.002813985 -0.0001204742 -6.26883e-05 0.00091960595 -0.053207353 0.023641193 -0.0025124191 -0.03293749 -0.006018313 0.005436788 -0.054542184 -0.07028346 0.052915737 0.013732069 0.032870308 -0.061783712 -0.05702385 0.05908128 -0.0028325631 0.032707013 -0.069552116 -0.042053964 -0.0010522302 -0.016127447 -0.024141727 0.002347954 0.0154372165 -0.005015543 0.02853327 -0.05584892 0.0009176984 0.0088996915 -0.0033149626 0.02582905 -0.024149988 0.018173976 -0.0024274024 -0.06740465 0.052198086 -0.0022417584 -0.05347604 0.059552163 0.0055268845 -0.03458607 -0.023479713 0.0069130356 -0.002893795 -0.027499115 0.053236526 -0.0017097656 -0.056229856 0.037776466 -0.059187137 0.024194742 0.012316711 -0.025713902 -0.028411295 0.00015055998 -0.011672309 -0.004362614 -0.011736552 -0.050721362 0.0051874565 0.014841517 0.04846996 0.0013226441 -0.021710986 0.022702288 -0.02545333 -0.0124345515 0.016352935 0.016810043 -0.033329993 -0.02929892 0.053893473 0.021005778 0.0382522 0.032322083 0.026274735 -0.05517573 0.018264921 0.03890845 0.064628616 0.03435026 0.034609403 0.03141674 0.03430207 -0.0032000784 -0.042887505 0.016063299 0.04230453 0.041051295 0.042192113 -0.008780495 -0.014186034 0.04916279 0.054333113 
doc_35 -0.01835257 0.0004490865 0.044479016 0.036325492 0.04354241 -0.03610937 0.001333448 -0.0059759505 0.047914725 0.033922102 0.008037332 0.017109392 0.038193684 0.014287669 0.037658572 -0.015544045 -0.047301766 -0.050413948 -0.034880806 0.00027207908 -0.051384743 -0.03698851 -0.055095963 -0.019628257 -0.0240413 -0.0059470655 -0.0022507547 -0.012610096 0.049012486 -0.040407095 0.004610149 0.030976042 0.015166634 -0.028530626 0.016335705 -0.0022234034 -0.036906347 -0.015456545 0.03226898 -0.0236895 0.02675165 -0.024953073 0.012156519 0.0050786315 0.032206774 -0.017395819 0.051851824 -0.009471568 0.019330215 0.026853232 -0.04628403 -0.027575526 -0.024538225 0.044446897 -0.03682769 0.034157712 -0.032655213 0.0029242758 -0.04493216 -0.02431733 -0.017577894 0.034681637 -0.019275464 0.053067055 -0.021534411 -0.0019048265 0.015013045 -0.04567134 0.038541447 0.0011895988 -0.0231407 -0.015011984 0.004630612 -0.017935265 0.048331726 -0.042981327 -0.031412486 -0.0047084074 0.0023895795 -0.023810316 -0.034642894 -0.024852328 -0.020800225 -0.032320008 -0.039948087 -0.056438126 -0.022316169 0.011234987 -0.020428345 0.018402401 -0.031395543 0.0034589902 0.035107702 0.010499987 0.009457759 -0.036879044 -0.024694022 -0.001354762 0.022213353 -0.02873029 
doc_36 -0.033706915 -0.01372453 0.045940727 0.04156868 0.01282183 0.017749934 -0.02655253 0.040238578 0.0074702087 -0.019755369 0.04340492 0.041123044 -0.027644359 -0.03347544 0.0337617 0.007344421 -0.03525056 0.009273657 0.018347904 -0.024859132 -0.043181773 -0.02430228 -0.012869344 -0.0028807959 -0.02197161 0.010430196 -0.016640585 -0.005792454 0.018028647 -0.0019069595 0.028832404 0.02403384 0.045341875 0.036035992 -0.01558386 0.018684706 0.012005539 0.010511441 0.030857692 0.022025198 -0.013702875 0.009911372 -0.054645445 -0.013907459 -0.057186563 -0.0021430734 0.009104571 -0.011091062 -0.059467215 -0.030355822 0.011734519 -0.04719926 0.0030306762 -0.0010555899 -0.028955689 0.023827296 0.017016964 -0.047129456 0.050665285 -0.024547439 -0.012279849 0.02440674 0.055435956 0.03624565 0.009740376 -0.03795242 0.025284769 -0.022409674 -0.05253439 0.02797661 0.061195325 0.019879626 -0.032801487 0.059816357 -0.016659958 -0.0007779483 -0.009753778 -0.029860158 0.020480419 -0.025771478 0.025622826 0.041564163 0.043046717 0.010389858 0.03011341 -0.0375695 0.016646294 0.011207355 0.045148756 0.003811023 -0.008529437 0.012688733 -0.015850348 -0.024199408 -0.008753003 -0.0016958768 0.018092597 -0.019330844 0.03287672 -0.048498873 
doc_37 -0.023336828 0.013587748 -0.011434356 -0.02855456 0.0192572 -0.011774825 -0.0031479988 -0.021058489 0.04443447 0.022926537 0.029123323 0.0038219667 -0.01768368 -0.014543609 0.035098713 0.028530005 -0.02591023 -0.0012954528 0.0063830395 0.014954926 -0.04153807 -0.042984035 -0.046251692 -0.0357089 0.045182534 -7.328171e-05 0.0010059443 0.030819362 0.02444754 -0.047771115 -0.014737339 0.0022453116 -0.030023968 -0.03083216 -0.047297295 0.0422959 -0.008918037 0.030022712 0.046566006 -0.030071186 0.0023817485 0.022693519 -0.013016585 0.023625126 0.047000498 -0.021506466 -0.0044719493 0.028618472 -0.015834648 0.03227252 0.02349384 -0.04104244 -0.032187674 0.018331388 0.02589696 0.046086136 0.029388696 -0.015441102 -0.03397334 -0.032370746 0.008367639 0.018803617 0.054554798 0.030821208 -0.04416282 -0.018227918 -0.0033348766 -0.045428835 0.045757744 0.009911075 0.044269122 0.010804901 0.05062897 0.034764018 -0.00798882 -0.015212208 0.006878926 0.004769693 -0.048319817 0.026163714 -0.00642721 0.012997215 -0.037708353 0.013606712 -0.038759377 -0.0052976203 -0.044757817 0.02150295 0.038557146 -0.047525387 0.033330806 0.03800641 -0.037989456 -0.022626083 -0.036747012 0.00025176333 0.0011426177 -0.03707616 -0.044384025 -0.020509226 
doc_38 -0.041731667 0.03329081 -0.037750766 0.031716276 0.0077639027 0.057672326 -0.020304272 -0.017360674 -0.04065928 0.00077502435 -0.0008611149 -0.012842951 -0.004064463 -0.0016706804 0.0643204 -0.04670421 -0.055226453 0.0299579 0.027575705 -0.020574586 0.02550631 -0.022120679 -0.03705355 0.069356896 0.030669525 -0.03983651 0.03658233 -0.04256284 0.01837169 -0.0563355 0.03755337 -0.0025701264 0.022796417 -0.046629343 0.023473818 0.039655436 -0.010954109 0.012528073 0.037002787 -0.030257428 0.025600309 0.018901186 -0.006423296 0.067553855 -0.06582004 0.04258522 0.047303956 0.032490943 -0.03086804 0.010726951 0.010224964 -0.050115474 0.0018515113 0.00554551 -0.053381223 0.06238434 0.009092446 -0.011171998 0.046427004 0.06158196 -0.028029034 -0.008341153 0.012020043 -0.0031548948 -0.027837707 0.017869782 0.038660917 -0.049649682 -0.012285077 -0.04405684 0.051543087 -0.006598675 0.014850921 0.032546554 0.05074079 -0.046633907 -0.047999915 -0.009566993 -0.047034677 -0.008851172 -0.035441734 0.022052992 0.055253334 0.027630042 0.00088999217 -0.03264234 0.049796633 0.005325195 0.007827736 -0.021539789 -0.0447041 0.047223516 -0.050534442 -0.059778426 -0.026880117 -0.04750314 0.07415044 0.031825274 -0.008859087 0.006833938 
doc_39 -0.020539891 -0.03807736 0.02544157 0.0007820823 -0.062156137 -0.015035984 0.02423824 -0.00591035 0.04708419 -0.010538744 -0.008832388 0.020238629 0.008524343 -0.00366666 -0.020556187 -0.03721169 -0.014886504 0.040936913 -0.02381008 0.00405645 0.010460648 0.032191962 -0.014074003 -0.010386271 0.031521436 -0.06357814 0.057990976 0.019764908 0.040655628 -0.0018919987 0.030451491 0.04973767 -0.0025668647 -0.03655277 -0.0280978 0.054813683 -0.021935264 -0.0075016427 -0.016760036 -0.039063323 0.06141439 0.00042461822 0.03161634 -0.016939888 -0.022361679 -0.006748927 0.05403474 -0.0151660405 -0.018803583 -0.045723524 0.04365396 0.023178482 -0.001907869 -0.024635453 -0.050716862 0.035494234 0.04515726 0.0019473326 -0.004345672 0.057894044 0.031572923 -0.047588393 0.047994312 -0.042833302 -0.0517697 -0.02495404 -0.013089807 -0.013700184 0.03451465 0.016903142 -0.032569967 -0.038174234 0.025589494 -0.012796606 -0.027289988 -0.025989136 -0.03378192 0.010379722 -0.03120345 -0.03341092 -0.048864864 -0.026622418 0.026704436 0.03751255 0.035055604 -0.022541555 -0.02205281 0.00057516334 0.059664167 -0.037337065 0.014869921 0.0040143672 -0.005536843 -0.026383838 -0.013665623 0.044157967 0.010720992 -0.034229197 -0.03256827 0.024332685 
doc_40 -0.038268667 0.036906898 -0.012810542 -0.04890096 0.020677209 -0.054361835 -0.040689617 -0.016332053 -0.005658402 0.0059799943 -0.03165904 0.05274069 -0.018539753 0.03304964 -0.03851253 0.017174011 0.00066789635 0.043300163 0.023788609 0.0387673 0.017905792 -0.023694325 0.042939436 -0.041638967 0.02431794 0.025018435 0.0022497384 -0.022306655 -0.032590006 0.025469001 0.031245114 -0.03490038 0.0068963617 -0.011577921 0.02392325 -0.0587213 0.050588883 0.025632568 0.008263741 -0.034080166 0.02052959 -0.018372256 -0.02339811 -0.029152563 0.044782735 -0.011339941 0.020072153 0.037837937 0.0043955953 0.011561553 0.006396674 -0.016897481 -0.04144817 0.012208047 -0.009211225 -0.009933088 -0.030062342 0.032002475 -0.029607272 0.013661625 -0.041192066 0.04510099 -0.047208503 -0.0066467947 -0.039216965 0.022350615 -0.0033711363 -0.049723778 0.011783604 0.050208155 0.01865473 0.041930065 -0.029787878 -0.016399402 -0.05001292 0.008686911 -0.036380548 0.013582385 0.042260394 0.027538633 0.0025317036 -0.012814141 -0.048858345 0.024500864 8.460547e-05 -0.021699818 0.00844982 -0.00022872264 0.002363417 0.024325203 -0.029264223 0.010269177 -0.006450228 0.0022196032 0.004779165 0.045950577 -0.04082223 0.047843214 -0.021920156 0.0223449 
doc_41 -0.031787366 -0.035209805 0.04144047 0.018018862 0.045540065 0.03534423 -0.049482007 -0.016107237 -0.024130462 0.0074494337 0.002644139 -0.034822527 0.040606793 0.043104973 -0.046189167 -0.04643827 0.04159178 -0.014590043 0.023235032 0.024125203 -0.016404977 0.018742371 -0.03942061 -0.04723944 -0.028578393 0.025229184 -0.023562877 -0.03179213 0.023447463 -0.0030404537 0.014178605 -0.045447256 0.033474475 0.016299542 -0.04822945 0.004695855 -0.02813483 0.04709817 0.0073686857 0.0031990497 -0.040561978 0.0029543345 -0.010224287 -0.008269683 0.022272458 -0.04073455 0.045048706 -0.0024088004 0.012075181 -0.01978072 -0.048512686 -0.04852273 0.039177913 -0.00505907 -0.015074948 -0.025223264 -0.018515995 0.048895005 0.034309793 0.039605502 -0.05160783 0.042418387 -0.010165825 0.042616483 0.041485675 -0.040233444 0.018439734 0.047279313 -0.017216621 -0.009982517 0.04438728 -0.046059795 -0.033691507 0.046879735 -0.00854169 -0.009136632 0.0044411966 -0.017124789 0.03283795 0.0014543816 -0.024095796 0.018629987 0.0050868024 0.017328478 0.01148793 -0.028620193 -0.016355565 -0.01941699 0.04875643 0.026677076 -0.052411973 -0.025154095 -0.0076425592 0.022413837 -0.03499092 -0.056916676 -0.048011977 -0.009950486 0.03310296 -0.011934716 
doc_42 0.034264553 -0.020351315 -0.03693888 0.048641864 0.018602442 0.016527114 0.053187918 -0.03038144 0.009660308 0.005683329 0.03625781 -0.017152252 0.038289852 -0.0036982063 0.00017696666 -0.018052654 -0.023199176 0.028772697 0.058535893 -0.013838458 0.004005596 0.022788413 -0.046100948 -0.006731612 0.004787417 -0.003732781 -0.0113926735 0.03013662 -0.037704222 -0.018465191 -0.028250143 -0.0147179775 0.053377327 -0.020930529 0.007448529 -0.025495538 -0.048061777 0.026008371 0.02009488 0.010228384 -7.862648e-05 -0.058483217 -0.04242432 -0.006432615 0.031152317 0.015652962 -0.029906835 -0.042648215 -0.024500515 -0.026565466 0.017619034 0.003086028 0.056333076 -0.019116243 -0.017192617 -0.00064158783 -0.008411439 -0.02194849 0.03188023 -0.026419366 0.010081618 0.00011107278 0.017067943 -0.012218449 0.016238201 0.033968404 0.03853468 -0.04270572 0.016288163 -0.04208086 -0.013304984 -0.03744254 0.038898487 0.018537376 0.051251672 -0.026252564 -0.043535113 -0.06761184 -0.03446398 -0.008082328 -0.037162285 -0.035550125 -0.026368508 -0.053223133 -0.050468855 -0.036640055 0.03634375 0.032816533 0.037154146 -0.037502237 -0.06385707 -0.011904741 -0.016190588 0.02094385 0.046775173 -0.00016686256 -0.007410794 0.0296779 -0.015544582 0.021193124 
doc_43 0.011228306 -0.018622525 0.03506643 -0.0032477542 0.04086972 0.03785396 -0.009423789 -0.01766134 0.008671198 -0.05112873 -0.03992069 -0.04390722 -0.0031837146 0.037494767 0.017704643 0.01663791 -0.0018355101 0.019469438 -0.043851543 0.00077461894 -0.022999123 -0.011779566 -0.03852041 -0.031605184 0.02609689 0.0018131818 0.052328512 -0.014413548 -0.016506622 -0.04162187 0.023018645 0.010078768 0.054891232 -0.0354925 -0.015752763 0.04825353 -0.043841213 -0.02304058 -0.044544898 -0.0118043525 0.04845504 -0.05105508 -0.011592189 0.008976351 -0.044451635 0.021434344 -0.014380164 0.02168407 0.020279447 0.042351093 0.023685833 0.0152073465 0.018223152 0.02807858 0.0056017134 -0.0064973673 0.022954341 0.00048476545 0.021102808 -0.008383688 0.018290678 -0.032241907 0.010489859 0.03758604 -0.00094721414 0.052306097 -0.01786671 -0.014473073 -0.048826102 -0.054504033 -0.022864833 -0.0127026355 0.028665613 -0.027741814 -0.039356943 -0.007674268 -1.6414344e-05 0.043488264 0.034023948 -0.013268334 0.03128511 0.025824659 -0.032979526 0.040360466 -0.046007883 -0.0066933627 -0.0018265094 -0.020477567 0.03396325 0.03908896 -0.012567904 0.0051531303 -0.012526016 -0.002482995 -0.053852912 0.04180803 -0.03289767 0.027511774 -0.015531872 0.0020706588 
doc_44 -0.012827646 0.014138701 0.022423781 0.020989945 0.029960442 -0.008199354 -0.017423194 -0.046261393 -0.016230557 0.01757856 -0.03708669 -0.057657562 -0.027070357 0.029405383 0.032316666 -0.049387336 -0.0026846288 -0.038645603 0.04465661 -0.009315359 0.015880672 0.025623167 -0.031026648 0.015882643 -0.014849603 0.037887372 0.038702477 -0.046055403 -0.012221528 0.013626725 -0.035003826 0.017080659 -0.0068946723 -0.017689796 0.03905412 -0.010329587 0.006715933 -0.0011758296 0.006391044 0.044182975 0.030321578 0.019900724 -0.027649203 0.012577807 -0.00017905563 0.054799486 0.046629757 0.0099043185 -0.00044366546 -0.0143360095 0.031963587 0.028597817 -0.00046513276 0.022223515 0.00997527 0.0010509307 -0.025603004 -0.006813298 -0.0066467454 -0.028080616 -0.04352566 0.037476037 0.03213475 0.021792615 0.025594128 0.04125643 0.03469559 -0.045348573 0.016202569 -0.038937047 0.012809451 -0.016520593 -0.026274893 0.016660405 0.02940976 -0.018974192 0.008287731 0.046324115 -0.030665837 -0.025716968 -0.016473632 -0.05426253 -0.03345923 0.045777783 -0.012690567 0.04157164 -0.028190576 0.05062382 0.037222568 0.049762055 -0.01984951 -0.054424178 0.01820162 0.019075371 0.042421624 -0.01321516 -0.0054128408 0.026597798 -0.013183125 0.013223209 
doc_45 -0.023337185 -0.036785793 -0.0040996186 0.046335388 -0.04898826 -0.024304723 0.022957291 -0.044038523 -0.01425476 0.027581464 -0.029625297 -0.048438717 0.00391414 0.042352866 -0.004424263 0.011312891 -0.040660083 0.010053195 -0.0027545802 -0.038795184 0.036834422 0.025515307 0.044969525 -0.012446605 -0.006155897 0.03397688 -0.011523306 -0.0075623877 0.04186863 -0.018142365 -0.043022048 0.036625337 -0.040934622 0.020008493 -0.026057387 -0.042138338 0.004216898 0.043739323 0.00222788 -0.0020798072 -0.0141945705 0.03332028 0.0028567314 -0.036250483 -0.0050410405 0.006798316 -0.03795618 0.03427467 -0.021534836 -0.042895284 -0.005644392 0.036577914 -0.026623834 0.032117832 0.005491186 0.035578977 0.028802607 -0.039649464 -0.016862594 -0.024644602 -0.04885112 -0.01004193 -0.046797063 0.04734994 0.017650995 0.0050855055 0.049225535 -0.047775615 0.0074908137 0.03150082 -0.022531128 0.03158504 0.043580737 0.0060846806 -0.023575056 0.02069271 -0.025835097 -0.02317909 -0.011058293 0.002383113 -0.04500393 -0.023853516 0.016322423 -0.027648915 -0.01479416 -0.039319515 -0.0016411766 0.015130583 0.042878535 0.037178826 0.023167301 -0.048929106 -0.037492502 -0.013942242 0.021423366 -0.025317622 -0.03963115 -0.025900055 -0.040202893 -0.0411124 
doc_46 0.021515213 -0.032593835 0.034419738 -0.039038766 0.0065436843 0.017164968 -0.002503521 0.014618824 0.015714958 -0.0037403603 0.013655701 0.0014994034 0.024254205 -0.026480855 -0.04371423 -0.013100687 -0.018722622 -0.04716744 -0.043099843 0.0017593201 0.011331041 0.035565864 -0.010653944 -0.019218722 -0.034473076 0.050619867 -0.008877912 -0.015609799 0.0045214733 0.057896115 0.0067913407 0.036555547 -0.016848011 -0.037719678 -0.037030414 -0.04997821 0.00909767 0.024480877 -0.054495085 -0.02849536 -0.04976457 0.040289145 -0.0011891456 -0.05300464 0.053441554 -0.030894166 0.01248562 0.02501738 0.03098701 -0.025540197 -0.048658933 -0.006099567 -0.044683393 -0.039275926 0.013381409 0.0043986207 0.03040131 -0.023136279 0.0013383629 0.019294342 0.026181243 -0.020130275 0.032926492 -0.045606136 -0.027220352 0.0023873276 -0.031348128 -0.0369791 -0.032193094 0.015076704 0.028753117 -0.010350673 -0.02314059 -0.04878302 0.020530978 -0.021040598 -0.040193528 0.033505272 0.022184309 0.015366816 -0.02176202 -0.030063204 0.008294483 0.027997347 0.0030420434 0.021310741 0.011213558 0.041542266 -0.024060164 0.015353488 0.019470152 0.026908522 -0.0032455348 0.040796135 0.03771394 -0.047010623 0.007993943 -0.025070481 0.038922142 -0.044731632 
doc_47 -0.016061362 0.0051816604 0.006086393 -0.03922046 -0.025468316 0.06230057 0.03328173 0.00012324768 0.031652477 -0.055718876 0.016210807 0.036342464 0.052505683 -0.029923854 0.053289633 -0.054442402 -0.01836153 -0.02907524 0.02333299 0.031197356 0.005248846 -0.038690846 0.02466679 0.020224473 -0.0022377397 0.024678137 -0.007453968 -0.04976166 -0.029307062 -0.059274413 -0.025442401 0.05110184 -0.020642413 0.008190913 0.0068376237 0.005528349 -0.042372417 0.02242776 0.0055381176 0.019194061 -0.0011655033 -0.06389638 -0.05192018 0.0020414246 0.0076682526 0.013537916 0.04919978 -0.02376525 0.032065503 -0.055833567 0.0013975789 0.011256778 -0.037452232 0.027509304 -0.011958157 0.042758033 0.021223443 -0.0133262 -0.02640312 0.044535164 0.0054028314 -0.008865975 0.010065982 -0.01552278 0.01221938 0.0608188 -0.0015662379 0.032682702 0.048926596 -0.016932301 0.041661836 0.03562171 0.00013091056 0.060771655 -0.0049509997 0.0021284092 0.013797289 -0.051298097 -0.024255766 0.015905201 -0.045009308 0.025123097 -0.03614686 -0.013883149 -0.0399937 0.01772172 0.03694971 -0.009850073 0.009146087 0.04397691 -0.04016746 0.043749396 0.03576614 -0.03843695 -0.010950696 -0.040797874 0.043284394 0.029555058 0.007907524 0.019374838 
doc_48 -0.025177978 -0.0007822354 0.051392883 0.044820998 0.05171733 0.00014004998 -0.038144555 -0.05796558 0.015659243 0.016525842 -0.027697137 0.002640592 -0.048227582 -0.034138422 -0.012247996 0.061278615 -0.010394357 -0.04205413 0.016654784 0.018224513 -0.016184313 -0.0117517 0.01673955 -0.026812099 -0.05287424 0.065790944 -0.0047062286 -0.0275857 -0.012187955 0.012167702 0.03821598 0.011175796 -0.058856025 0.040099744 0.01170301 -0.06647311 0.03285746 0.018759303 -0.017011665 0.024780782 -0.0004708407 -0.011293292 -0.018850181 -0.009655156 0.017363062 -0.015518732 0.013281634 -0.028354494 -0.011099498 0.039383776 -0.033944353 -0.025174707 -0.0039674914 -0.017255388 0.03395369 -0.021153139 -0.01193799 0.043861963 0.03250979 -0.028123247 -0.045769103 0.0045942157 0.020681687 0.054118834 0.04886367 -0.03492047 0.050215147 0.04839343 -0.012267663 -0.02543102 -0.06992183 0.036914594 -0.047078643 -0.011750685 -0.03608447 -0.029349184 0.004906582 -0.013334639 0.055679884 0.05642779 -0.002301166 0.0021030244 -0.003520068 0.05290441 -0.0023553455 0.0038343205 0.029109802 -0.036270037 -0.0226797 -0.03689598 0.07093979 -0.01650782 -0.014026973 0.010138994 0.042419605 -0.031837378 -0.03728627 0.026917782 0.06671876 -0.0071101617 
doc_49 0.02869952 0.054878324 -0.022773653 -0.0366028 0.04612225 0.032732174 -0.043177668 0.02947278 -0.037667114 0.041427612 0.0060427412 0.0014704948 0.030065948 -0.0010952038 0.03378774 -0.0059161573 -0.017295215 0.016406585 0.02439659 -0.042741865 0.039899968 0.022331258 -0.015297896 0.000857797 -0.05510236 -0.02715527 0.012183489 -0.003494481 -0.040139217 0.022354035 0.039954424 0.020203622 -0.030598817 0.030184114 -0.019196583 -0.007062508 -0.038173866 0.017157042 -0.0026071623 0.005537808 -0.038490705 0.05718433 -0.026412034 -0.043168206 0.017730342 -0.043871105 0.039955895 0.04368103 0.051791858 0.042003147 -0.036096815 0.024269236 -0.032532636 0.015349201 0.018053044 0.02979458 0.024479548 0.020117532 -0.014085459 0.008651265 0.041641958 0.0446933 0.0133920405 0.04687388 -0.009364353 -0.010425379 -0.043476038 -0.03139071 -0.0007716033 0.028852107 -0.034489516 0.015807956 0.033831466 0.025764309 0.009767538 0.0013178858 -0.018577278 -0.01661651 0.015077576 -0.0004171702 -0.027925575 -0.03930916 -0.008220849 -0.037131235 0.023001738 0.026514104 0.032797057 -0.047052037 -0.029090887 0.04140271 -0.02514809 -0.010952005 -0.0029019061 0.009899116 0.020624943 -0.020942794 0.028605366 0.01872898 0.0070176395 0.007992535 
doc_50 -0.022777887 -0.047352947 -0.039370276 0.03590783 -0.014479678 -0.026627213 -0.037798848 -0.030188415 -0.024276929 0.028108882 0.047383346 -0.04991441 0.034045078 -0.0039525083 0.03978555 0.037858382 -0.04316718 0.035306722 0.036547102 -0.044362288 -0.02937244 0.02044153 -0.011285849 0.002826683 -0.024397163 -0.026646733 0.026723718 -0.03439342 0.03601546 -0.04388826 0.009638912 0.048409525 0.030524109 -0.042250406 -0.0056163864 0.02531465 -0.032687314 -0.020688629 0.0060687847 -0.03497735 0.032076757 -0.035500806 -0.0077376137 -0.03519285 -0.013085003 -0.02608462 0.028775375 -0.009148336 -0.054651715 0.030465223 -0.005684411 0.019278273 0.002082778 -0.016324552 0.030280327 0.016513923 0.036335275 -0.023193324 0.0246305 -0.042615928 0.018835055 -0.051428404 0.027435476 0.031283632 0.0014813574 0.01593955 0.04355361 0.010126422 -0.0036411835 0.0018905654 0.007652252 0.0042821523 0.0134753855 -0.007978532 0.020264033 0.0027163883 0.017865561 0.028970543 -0.04691881 -0.027496157 -0.0018995643 -0.009591572 0.012306785 0.02196858 0.046488583 0.022867402 0.015988056 0.032162316 0.043767948 0.007214575 -0.029080985 0.009867319 0.02289589 0.039814934 0.036358565 0.018495763 0.04073541 0.0045806267 -0.02064453 0.008522147 
doc_51 -0.03900832 -0.0035534587 0.018148212 0.041800685 -0.002920485 -0.031865194 -0.02372526 -0.042124767 -0.01156842 0.009646916 -0.035062037 -0.047245365 -0.007990418 0.0039868844 0.03904388 0.021755982 -0.056363437 -0.0013442282 -0.041584093 -0.035155125 0.040296476 -0.031127049 0.032431137 0.048537202 0.0054276874 -0.04490371 0.032726184 -0.0189089 -0.019904377 -0.012018093 -0.04994445 -0.029165555 0.029762125 0.010608895 0.05275959 0.0068122777 0.0049300673 0.040664043 -0.0051647443 -0.0015632191 0.047044802 -0.03150944 0.03250305 0.041785587 -0.023698471 0.017495321 -0.011473196 -0.042323034 0.014137341 -0.035517152 0.017535722 -0.005498223 0.030329883 0.012521644 0.038428243 -0.030546166 0.03557407 0.01841642 -0.008048872 0.014305665 0.03269027 0.01142706 -0.022291193 -0.0012798888 0.0069382037 0.0035362707 0.022355776 0.036406763 -0.022518838 -0.029672015 -0.017731592 0.015805997 0.032881334 0.0038909253 0.031152038 0.030457174 0.010191876 -0.022689153 -0.012435953 0.037002422 -0.046934597 0.017833347 0.043703213 0.04110201 0.022124162 -0.032411598 -0.0134217385 0.02050033 0.034039497 0.03647411 -0.046005897 -0.015977899 -0.007774853 -0.010953037 0.0069778385 0.032296974 0.03685013 0.020082671 -0.057330552 0.029117517 
doc_52 0.047264546 0.050694823 0.016729685 0.016106993 0.03487187 -0.00746433 -0.040162396 0.028499799 -0.016821122 0.011014006 -0.013447711 0.06581183 0.022791734 -0.029644782 -0.062070016 0.022082835 0.0065016467 0.0015164908 -0.03372591 0.025673907 0.03665574 -0.01793812 0.06752223 -0.027824584 -0.042484086 0.028784849 0.009127381 0.01110372 -0.023849282 0.054954883 0.005681428 -0.016827984 -0.060901307 0.008363846 0.0023513755 -0.064247295 0.016791524 -0.024627438 -0.023283197 -0.02451761 -0.05968837 0.030685445 0.01703524 -0.0016083329 0.015223636 -0.012270748 -0.015292121 0.04959013 -0.035376295 0.04148716 0.03194699 0.014830621 0.013866311 -0.019238023 0.053766485 -0.033296335 0.008196368 0.025044002 0.02868919 0.026911935 -0.0126241585 -0.020503145 -0.05066227 0.02419177 -0.034507632 -0.035984013 0.024785614 -0.006629034 0.008854312 0.011095107 -0.011607046 -0.021676311 0.03694752 0.039970737 0.010304822 -0.053904932 0.030601684 -0.03855351 -0.006934671 -0.008940415 0.039862882 -0.02458178 0.003139913 0.011938075 -0.038123578 0.053054653 -0.015605548 0.004089443 -0.010062952 -0.014190967 0.052898668 -0.023155209 -0.033457734 0.05625629 0.03475322 0.012875689 -0.032212954 -0.029992405 0.049064193 0.02297323 
doc_53 0.02864653 -0.0023731035 -0.011197097 0.04109866 0.056573633 -0.013128902 0.025593735 -0.035485156 -0.03064064 -0.008186036 0.03550218 -0.015070003 -0.045567796 0.043625657 0.034068152 -0.020762693 0.023213997 0.008066543 0.044328578 -0.04154024 0.034596313 -0.050315704 0.01783294 -0.006569901 0.0052881637 0.032945633 -0.027830586 -0.005444956 0.027819032 0.035157233 -0.027972719 0.016082529 -0.057623696 0.010136158 0.038836062 0.01814588 -0.023553947 0.030911213 -0.011302704 0.026786484 -0.038258217 -0.0135658095 -0.031402655 0.019379444 0.034876246 0.033871233 0.019102937 -0.0321028 0.001509576 -0.017261114 0.026709702 0.007498252 0.01175365 -0.041713506 0.032717716 0.003865945 -0.033041243 0.04798961 -0.008610396 0.012325969 0.031040384 0.025235033 -0.019893764 0.04988743 -0.019024618 0.025151847 0.02365722 0.042800304 -0.016171047 0.012305158 -0.019152818 0.03965461 -0.0070870323 -0.012498972 -0.016646747 -0.013591133 -0.034416668 -0.001437832 0.053109813 -0.019933442 -0.04924832 -0.019025376 -0.014110916 -0.01446003 -0.043049335 -0.01618654 0.013902356 0.005020254 0.037648354 -0.010472022 0.02129484 -0.040336326 0.03929018 -0.04561051 0.010389442 0.028920377 0.031164244 0.0499012 0.0397038 -0.027917154 
doc_54 0.041554388 -0.048039243 0.043837976 0.009184249 -0.011861903 -0.021584008 -0.043318566 0.029682167 0.033503238 -0.009103384 0.031190451 -0.044277526 -0.036801424 -0.018363427 0.05297219 0.034156475 -0.021845173 0.0016730739 -0.045225255 -0.002516309 0.008504908 0.0043663653 0.03120388 0.01555575 -0.02435643 0.023785379 0.022370087 -0.014202104 0.040060215 -0.0043004947 -0.03900816 0.03713346 -0.018186063 -0.056121927 0.00451682 -0.01953454 0.012189993 0.014096386 0.05438003 -0.0034686138 0.015177926 -0.016699564 -0.011498292 0.0006499424 0.040206302 0.021272885 0.029649494 -0.00877252 -0.0009256691 -0.02260175 0.051948156 -0.008043888 0.006038386 -0.018231262 0.036627416 -0.018338155 0.028701594 0.011312328 0.042494576 -0.0027851975 0.038428217 0.042587016 0.04880756 -0.0019190966 0.017638296 -0.043784093 -0.04062943 0.02314746 0.030684382 0.011210085 -0.009238642 0.0136873415 0.011132241 0.028635914 0.009157495 -0.0023317197 0.014246545 0.021574585 0.028867189 -0.042138267 -0.019203426 0.014313449 -0.0313753 0.027841736 0.05171394 -0.04775289 -0.022273418 0.033118036 0.027292259 0.031453542 0.030454662 -0.0056903223 0.007379556 0.002444434 -0.04245897 0.040074214 -0.008213863 -0.044466186 0.034659334 -0.032519076 
doc_55 0.03839236 -0.022901816 0.03719764 -0.011914321 -0.004069875 0.045424197 -0.025279967 0.0061176624 0.030391572 -0.010660848 0.018348545 0.033178564 0.015955584 0.000989094 0.004106629 -0.020638946 0.028682545 -0.039684664 -0.048042137 -0.0018086134 0.04440491 -0.019442905 0.00889005 -0.02000229 0.026226267 -0.013868137 -0.031086478 0.040125553 0.018672168 0.009731124 0.040176366 0.010192509 0.026121095 0.040192686 -0.024674881 0.03341256 -0.02730376 -0.04010105 -0.030420315 -0.01559371 0.04062959 -0.011250333 0.033963777 0.002680343 0.033742633 0.02541946 0.0054455386 -0.025212144 -0.035301115 0.011329778 -0.038886614 0.024999686 -0.0091503905 0.038497213 0.0032076233 0.043075636 -0.033831973 -0.016575037 -0.015904384 -0.03854597 0.021360425 -0.040904675 -0.030757152 -0.017115304 -0.016254775 0.035256602 -0.021839432 0.019389795 0.021948377 -0.018299552 -0.04468652 -0.005302168 0.023759926 0.007551068 -0.03662322 -0.03563858 -0.023963507 0.0133479545 -0.018803826 -0.023769625 0.004006032 -0.04041828 -0.022471875 -0.046422526 -0.029435322 0.012363842 -0.0042935414 -0.03792361 0.022001348 -0.027441828 -0.043630067 0.005056946 -0.039096832 0.008202547 0.04122673 0.04776072 -0.03892505 0.03891138 -0.04087046 0.048667967 
doc_56 0.021932108 0.012820842 0.039702777 0.024987295 -0.007767595 0.020166473 0.03628124 -0.048390687 0.01798437 -0.006215751 -0.050044198 0.037434094 0.019590145 0.016744295 0.025819967 0.015313599 0.035056505 0.008871081 -0.009691924 -0.035795458 0.053563785 0.009717238 -0.031527452 -0.013695845 -0.056234684 0.03293646 -0.004646871 -0.037888467 0.0066856085 0.02981441 0.03809696 0.03711867 0.018059552 0.006760581 -0.031088477 -0.053583797 0.03631928 0.024704708 0.013651502 -0.023023942 -0.04606782 0.041216504 -0.0029871513 0.002036921 0.020860597 -0.008772141 -0.030137753 0.012113983 -0.0012746362 -0.035139095 0.004678356 -0.0035268634 0.02406532 -0.03554889 0.03487396 -0.01341917 -0.012340166 0.0018703829 0.023483038 -0.046127047 -0.021998322 0.009675713 0.009475927 0.041165106 -0.01459137 -0.029666774 0.047645275 0.015403018 0.022326352 0.04062571 0.0035385417 -0.008133588 0.043958 0.0062738196 0.0054464606 -0.022595726 -0.019766338 0.04736791 0.053336523 -0.027346473 0.023385972 0.049374927 0.03019562 -0.023786262 -0.0092251925 0.035154395 0.009760221 -0.02958536 0.016551709 -0.032493033 0.015107616 -0.027202735 -0.009991316 0.02734418 0.04778712 -0.04273066 -0.021626718 0.026281262 0.02467061 -0.01941655 
doc_57 -0.040440064 -0.0061656083 -0.045268364 0.03215689 0.0002227112 0.028005779 0.0014055723 0.03150879 -0.031431533 0.016079789 -0.0361537 -0.02613335 -0.021931805 0.0035045312 -0.031606358 -0.036382783 0.009364886 -0.003202667 -0.024897786 0.029429121 -0.04474341 0.020543607 -0.046186324 0.026963046 -0.026230216 -0.010750643 -0.007078555 -0.0441592 -0.015825596 -0.043284684 -0.024725314 0.01766536 -0.03677089 -0.026815213 -0.018545602 -0.013936535 -0.011052896 -0.027458783 0.040600877 -0.036651645 -0.004903773 0.033355422 -0.035914324 0.038103487 -0.04108439 -0.0027798193 -0.009419518 0.017011076 -0.035129435 -0.014385127 0.00845304 -0.041218977 0.033988632 -0.005631713 -0.04686588 -0.024288196 -0.010760998 0.022772968 0.0050922926 -0.02758285 -0.0011892751 0.039772775 0.05152577 -0.025781158 -0.015798824 0.013099099 0.02274449 0.0019228834 -0.045041777 -0.037648626 0.03354573 0.037712086 -0.0032716743 0.011476346 -0.007165871 0.020871501 0.04263541 0.0014894117 -0.040094566 0.01365534 -0.01791984 0.004532259 -0.025715835 0.047670577 0.024029901 -0.029536562 0.034098938 0.031784933 0.04979495 0.005989196 0.012454542 -0.051976994 -0.0120222755 0.0150858965 0.011563131 0.014642405 -0.027247 -0.038515832 0.0217297 0.038699687 
doc_58 0.042061135 0.034903407 0.027635716 -0.029934675 0.048688058 -0.007088697 0.030342018 0.017016344 0.02698328 0.056232166 0.022446772 -0.036221534 0.016517496 0.01010734 -0.011631857 0.008479121 0.008862655 0.029450608 0.0032594078 -0.03301603 0.0063847364 0.04737463 -0.029754529 -0.044227835 0.00083119597 0.026097035 -0.03685536 -0.02214558 0.037178103 -0.031898297 0.023693768 -0.024446242 -0.026717147 0.021852728 0.00038844088 -0.008892075 0.0412976 -0.023970336 -0.03163706 -0.0016283697 -0.029349163 0.023200689 0.0025342 0.022979783 0.030194817 0.016850859 -0.020573298 -0.025811477 0.038599968 0.0005059987 -0.013640881 0.021225866 -0.0316035 0.026920708 -0.037747055 0.018887535 0.018953595 0.017842906 -0.02323915 0.030249499 -0.004335839 0.016435659 0.01899275 -0.008118832 -0.04271327 0.01744969 -0.035180617 0.016379686 -0.007350861 0.037806015 -0.015118976 -0.014047728 0.009867157 0.02865196 0.005247962 0.03834083 0.007064798 0.059791077 -0.0035696279 0.046311863 -0.0033437426 -0.0013049671 0.030753845 0.042839967 -0.030537521 0.009692046 -0.055315472 -0.047922727 0.019605977 0.018931685 0.045063183 -0.020934012 0.009111652 0.044286232 -0.03341041 -0.024992066 0.029953105 0.015015219 -0.0168764 0.024354877 
doc_59 -0.031950522 -0.0335729 0.046440046 0.04080477 -0.03806628 -0.006788106 -0.039315138 0.023709135 -0.0057840664 -0.018978877 -0.016675483 -0.039234728 -0.015677746 0.017249728 0.027994353 -0.04996703 0.018819027 -0.019915788 0.052978244 0.04851833 0.031768065 0.021060614 -0.044282712 -0.033590674 -0.00475899 0.038315617 0.02802748 -0.02051907 -0.0069226897 0.036722433 0.036045156 -0.041235298 0.0318575 -0.013660041 0.017485565 0.0492766 0.035394557 0.033276975 0.01408716 -0.0069120177 0.017600121 -0.03503365 0.045952756 -0.040485334 -0.044901382 0.04949435 0.007777295 0.018681578 0.039027195 0.030947985 -0.046532694 0.013735498 0.031238543 0.043973092 0.012297019 0.010755484 -0.0077338126 -0.013459105 0.045374166 0.01981089 -0.029655498 0.04494917 0.0036417895 -0.041392934 0.044459343 0.011603533 0.043540314 -0.035985123 0.0055307206 -0.013769219 0.02067878 -0.0016765005 0.0033415284 0.052024473 -0.05048391 -0.005781874 -0.017967902 -0.008327048 -0.009260615 0.03541291 -0.010516089 -0.049399298 0.019459687 -0.044631563 -0.021710385 0.018536894 -0.025060955 -0.011386427 -0.012307196 -0.042389706 -0.049309615 0.021261238 -0.035847694 -0.013375114 -0.044883355 0.016427044 0.033558138 -0.024213266 0.012366367 -0.0006237093 
doc_60 0.0015893745 -0.016609991 0.016782802 0.048195265 0.021671979 0.026523355 0.046899937 -0.035322886 0.00757384 -0.03621392 -0.01017051 -0.0323186 0.02886403 0.01636928 0.051760845 -0.05376305 0.027970808 -0.00020824911 -0.0006671365 -0.043043226 0.04203207 -0.012642675 0.029367214 0.02746023 -0.041167885 -0.0200623 0.021936694 0.022024317 0.037139513 0.040191762 0.004913274 0.0017472522 0.053447735 -0.03819403 0.04604958 0.052404456 0.006426155 0.021775875 0.02888683 0.01793117 -0.010228205 -0.0012975718 0.019895218 0.030420315 -0.031253487 -0.03710973 -0.026653023 -0.029739982 -0.055347174 0.0026628827 -0.03883403 -0.048377175 -0.013032011 0.043866336 -0.025845788 0.039050054 0.00012898927 -0.039721113 0.011450566 -0.0070241652 -0.0408588 -0.048491653 -0.01808723 0.00013058755 -0.047607936 -0.0051235533 -0.009828389 0.028693736 0.00721234 -0.022716714 0.034564216 0.029681897 0.035134684 0.04834283 -0.03196083 -0.047114752 -0.0473399 0.03098442 0.023504818 0.013579047 -0.014249824 0.013534172 0.04398529 -0.0072887177 -0.0497915 -0.04427635 0.048819076 0.03959526 -0.031453583 -0.050009377 -0.006784455 -0.026861856 0.015909838 -0.052578274 -0.040209413 -0.046876043 -0.005755994 0.017897269 0.018094048 -0.0025109525 
doc_61 -0.015523742 0.042126562 0.019832931 0.00034787567 0.003604065 -0.026293954 -0.028512867 -0.003327124 -0.0469607 0.017726664 0.0004913164 0.036961257 -0.008909659 0.010496717 -0.013687619 -0.041519757 -0.05949631 -0.0047482937 -0.016757153 0.026237065 0.022503622 -0.05474501 -0.041066986 0.022508953 -0.0078035803 -0.019571941 -0.02897581 -0.03571685 0.03897424 0.015626244 -0.022502776 -0.031489283 -0.018005656 0.0030447654 -0.038405716 0.02160647 0.028532216 -0.030235188 0.042245302 -0.046033386 0.04704831 0.022459816 0.0062013897 -0.01894275 0.029989097 0.027642883 -0.022704802 -0.033801615 0.021221308 -0.0017564719 -0.021504361 0.029278494 -0.00825845 -0.018137148 -0.0049093124 -0.006180063 0.02143598 0.023590699 0.030726505 0.03849002 -0.0048121344 0.009802955 -0.02747029 0.042851754 0.02111297 0.03290305 0.034823216 -0.0038231683 0.022841908 0.0010754057 0.0105234645 -0.034218173 0.051893175 -0.027916461 0.005938856 -0.0059317607 0.045272782 0.027932081 -0.059605405 0.008906381 0.015406996 0.0006471803 -0.01796926 -0.032024674 -0.010006037 -0.022814807 0.039034218 -0.037703607 0.025277102 -0.004218099 -0.01729093 0.029170245 -0.018264273 0.01062245 -0.027243 -0.009080802 0.04825894 -0.023835141 -0.049709328 -0.042747274 
doc_62 0.042953815 -0.00071607454 -0.027364597 -0.033015825 0.032572314 -0.023766285 -0.032864615 0.014010043 -0.03664338 0.017803151 -0.00012856905 -0.041953385 -0.020186996 0.00012098647 0.041927643 -0.042982806 -0.039880056 -0.04514779 0.022877818 -0.01637105 -0.04376065 -0.036360733 0.026903115 -0.04951841 -0.0050935773 0.03264261 -0.022772724 0.031959224 0.032680638 -0.035430927 0.030390276 -0.022351837 0.028284756 0.045484822 -0.047060795 -0.01616014 -0.025505807 0.01707639 0.010293599 0.0058064885 -0.028565304 0.025857205 0.00038624468 0.025017295 -0.032672644 0.023773631 -0.017728923 -0.037265077 -0.008509501 -0.018376756 -0.020430276 -0.007671293 0.026148068 0.040190883 -0.03733769 -0.027512839 0.029552074 0.0068194238 -0.01473425 0.04502516 -0.039874963 0.037575975 0.03609708 -0.01375149 0.025795303 0.011667314 0.042631883 -0.029735584 -0.04920148 0.015421223 0.032179292 -0.035748642 -4.4540517e-05 -0.022608312 0.024551764 0.03683801 -0.026003683 0.03691075 0.03370786 0.021384014 -0.042775694 -0.001838902 0.003949622 -0.034753036 -0.04364237 -0.02208369 -0.010731565 -0.045712534 0.0050430014 -0.045900024 -0.02854117 -0.010890086 0.043872338 -0.025135262 -0.01010857 -0.04445555 -0.035406865 0.043113623 -0.044894356 0.04029785 
doc_63 -0.023155417 -0.04409483 0.007427096 0.05672573 0.016066803 0.02210404 0.051409326 0.030624969 0.007167006 -0.04631136 0.0019506871 -0.06334508 0.024602382 0.009475957 0.066718146 -0.016803607 -0.02581438 0.019099021 0.01774688 0.04383377 -0.06807806 0.0057523837 0.006115059 -0.003638507 0.044033963 -0.0071794074 0.02046655 -0.04128117 0.027986148 -0.009849596 -0.04900373 0.0014890459 0.0025004311 0.0015274053 -0.0029599143 0.028678125 0.0058031003 -0.021224724 -0.035446916 -0.041874208 0.051415626 -0.047812123 -0.07886565 -0.023951847 -0.032007188 0.016972726 0.024020206 0.018618636 -0.059779257 -0.010958668 -0.022145594 -0.043484885 0.037222933 0.07080452 -0.019397575 0.007386411 0.03407158 -0.07603563 0.023096215 0.059748966 0.012561225 -0.044624463 0.011046812 0.020402793 0.0010414266 0.049241498 -0.012417688 0.044670366 0.019403754 0.004265807 0.05509341 0.03237898 0.03871143 -0.020868544 -0.028301075 -0.020593554 -0.021037228 -0.07322349 0.0008840353 -0.05375062 0.011783464 0.025196934 0.05534406 -0.0024696228 -0.043551028 -0.059961833 -0.027218934 0.006167378 -0.00039321894 0.03448375 0.008866182 0.032073118 0.0046887775 -0.024282087 -0.028873447 0.01485031 0.002656871 -0.01895171 -0.075543664 -0.055306636 
doc_64 0.03947393 -0.045119457 0.04869925 -0.013169941 0.02047821 -0.024984647 -0.0015850909 -0.022230752 0.05174661 -0.059627935 -0.012949346 -0.0079568215 0.05598438 0.03497374 0.024704995 0.037350297 -0.049258508 0.04425162 0.014870166 -0.013799938 -0.029797189 -0.036858886 0.000655218 0.008079718 -0.019667909 -0.020571632 0.033750184 0.02465817 0.053807005 -0.022138972 -0.057144947 0.039263755 0.047099274 0.041381765 -0.008856562 -0.011446986 -0.012872778 0.013352186 0.051211588 -0.049967915 -0.023075748 -0.020884335 -0.048609808 0.013955035 0.030123187 -0.013972646 -0.0010595934 0.009535092 0.0013958811 -0.03421925 -0.0096809445 -0.013101102 -0.013201767 0.04089577 -0.012977699 -0.010415676 0.02632821 -0.06078924 -0.006325613 -0.03704706 0.031647474 -0.002327359 0.009881582 -0.016445782 -0.021234257 0.019033847 -0.04395349 -0.023421006 -0.0034656785 -0.02663268 0.04343861 -0.026914325 0.024771025 -0.0075489217 0.020026674 0.041075982 -0.02024301 -0.057244588 -0.05251963 0.023379508 -0.03351997 0.03640316 0.042799897 0.0031857386 -0.044821296 -0.010476715 0.016558908 0.00612086 -0.013378159 0.04377503 -0.0031981696 0.050774325 -0.05636844 -0.016230794 -0.03724215 0.03416776 0.03660644 0.004703039 0.0009955895 -0.018653927 
doc_65 0.04266898 -0.027708765 -0.04510916 0.031102622 -0.015574418 0.013514243 0.035547506 0.04443641 -0.035107393 -0.030191934 0.051003166 -0.034775242 -0.026464598 0.06408841 0.059482165 -0.031876672 -0.036734764 -0.032830514 0.003309526 0.041112315 -0.045845177 -0.023960778 0.014045049 0.051164676 0.04574332 -0.016759275 0.014857377 -0.017778428 0.055833284 0.028073959 -0.045204934 0.056162182 0.027945759 -0.016854754 0.032858312 0.012075255 -0.01552782 0.05178043 0.048061978 0.0025566872 0.04130452 -0.004724859 -0.0163835 0.024904175 -0.0140557 -0.040191267 -0.0029880528 -0.049589388 -0.024600334 0.031911224 0.056678023 0.012397995 -0.028522916 -0.009626576 -0.018308865 0.006887869 -0.0058228434 -0.06468567 -0.025483524 0.0028637587 0.02353567 -0.007887681 0.055621028 -0.038143795 0.0019066657 0.04110763 -0.0068821823 0.0049016834 -0.031712204 -0.0038141913 0.042615917 -0.028516112 -0.024952635 0.013722603 -0.0011052819 0.004964211 0.03312015 0.030241666 -0.040800553 -0.031347062 -0.02233504 0.010796171 0.04009372 0.017437866 0.02897418 -0.04622683 0.0050346125 -0.042765733 0.03206084 -0.011850784 0.02517487 0.044996988 -0.056837313 0.029641725 0.010882807 -0.033822298 0.0491545 -0.026465146 0.014488168 0.027981069 
doc_66 -0.006807529 -0.001511312 0.045570754 -0.012430228 0.04819509 0.02866028 -0.049544673 0.043109715 -0.035823856 -0.009986012 -0.012662963 0.05697135 -0.011523682 -0.04497744 -0.026149426 0.053735737 0.004622473 0.014272218 0.005536268 -0.028416522 0.019809384 -0.006793671 0.044213034 -0.02578134 -0.04750761 0.054023534 -0.050114747 -0.011123655 0.036357004 -0.021362921 -0.041870836 0.022689978 -0.008432846 -0.017019378 -0.012223005 -0.021455586 0.009599501 0.031414505 -0.012141584 -0.041565526 0.041473802 0.041430216 -0.027375648 0.0095452145 0.010039526 0.037001763 0.027906107 -0.009614615 -0.018203827 -0.008092176 0.016858788 0.0022193291 -0.020149434 0.0321226 -0.022340957 0.04208432 0.03387647 -0.017694922 -0.035429355 -0.023994677 0.024556175 0.0033416902 0.03288315 -0.012110949 -0.03498557 0.037160613 0.018560434 -0.045328878 0.016083043 -0.030440928 -0.030397102 0.00040203953 -0.036301438 0.033585686 0.02568048 -0.02333524 -0.011637558 0.016014975 -0.03470433 0.043105222 0.040631864 -0.00434903 0.021977514 -0.04046843 -0.013971336 -0.026506735 -0.05029155 -0.0010317755 0.04018105 0.042364765 0.015480448 -0.022475801 0.00944237 0.028441502 0.038131375 -0.03302159 0.006341975 0.009801171 0.013990437 -0.010342976 
doc_67 -0.009279101 0.047722403 -0.010493793 -0.0057781707 0.038442608 0.04255768 0.028488116 0.027547298 -0.012779442 0.02422135 0.010935049 -0.054427255 -0.025694465 0.028953182 0.0047506904 0.015058183 0.04259451 -0.0418593 0.03803937 -0.015564994 -0.049095813 0.041858807 0.019824704 0.019604703 -0.023190595 -0.0077687763 -0.006516288 0.014826896 -0.016686713 -0.010463437 0.040029548 -0.032821286 -0.020817108 -0.0049097463 -0.0059865545 -0.04219663 0.04720458 -0.037857987 0.013888365 0.013638745 -0.04224677 -0.038347613 -0.0018244837 0.013114501 0.014725106 -0.032579407 0.015615133 0.026079163 -0.051373277 -0.0032644626 -0.009952348 0.02177521 0.033995606 -0.04834325 -0.033507142 0.04639914 0.028991697 -0.014717869 0.03509345 -0.023542741 -0.00925018 -0.048169922 0.04035924 -0.052656233 0.0040278295 0.038066734 0.04803836 0.03861451 -0.0006304538 -0.026201552 -0.004347838 0.03435164 0.052301 -0.007788547 -0.040487476 -0.048288386 0.020068778 0.028246252 -0.015479521 -0.00260429 0.033384938 -0.00978027 0.016601954 0.013261022 -0.013004801 0.043526173 0.016032679 -0.012228247 0.05352737 -0.00030498556 0.03883748 -0.030779887 -0.027150495 0.03822891 0.035275444 0.015855746 0.042730547 0.013054546 0.031870402 -0.037913695 
doc_68 0.0041385056 0.03915065 -0.042697 -0.032628663 -0.043913066 0.014022241 -0.037929203 0.00762866 0.009639896 -0.041561343 -0.04844187 -0.018385118 0.025611095 0.009817666 0.04723756 -0.037998304 -0.029619198 -0.004991339 0.019947689 0.040037435 0.025053123 -0.029407604 -0.012849978 -0.041583292 0.0029607608 -0.045640074 0.012638343 0.030531231 0.0036071513 -0.01120529 0.0114708925 -0.017111486 -0.011874335 -0.035523638 0.037619915 -0.02944296 0.028548056 0.04540659 0.009274282 -0.039504204 0.02253374 -0.0025752257 0.035906777 0.03432545 0.01102007 0.01028885 0.016477501 -0.017764676 -0.02438898 -0.041722927 0.023887761 0.04310998 -0.04269216 0.04713172 0.029354708 -0.0052369135 0.021683395 0.034908723 -0.045758877 -0.0015199876 0.029727299 0.0018660758 0.04771084 0.014228129 0.007969578 -0.052108884 -0.045579147 -0.01898432 0.026797092 -0.04305687 -0.048133522 -0.001973245 0.019370474 0.0029278132 0.0034201464 -0.007195451 -0.020980628 -0.015592319 -0.0064869057 -0.037480935 0.041772876 -0.037365813 0.01935961 -0.05315358 -0.03174712 0.020638749 0.010980655 0.0107069835 -0.042694848 0.020213913 0.03579562 -0.04519674 0.021528827 -0.0058499095 0.01725668 0.04297882 -0.007683196 0.048468698 -0.04962481 -0.033545833 
doc_69 0.041368287 0.019486712 0.02522604 -0.0059706946 0.024914097 -0.035954457 -0.033875894 -0.003806925 0.031731833 -0.05179157 0.028188258 -0.0004533951 0.050397865 0.04612972 0.046913303 0.019190118 -0.028624827 -0.05210297 0.016229564 -0.03282298 -0.05415853 0.03176293 0.029932184 0.051898614 -0.0027055556 -0.028665949 -0.0075422875 -0.026122944 0.04971477 0.01731223 -0.01426737 0.038793337 0.04416825 -0.036324825 0.012500355 0.010867731 0.0072167777 0.03695671 -0.0014820172 -0.02566472 0.024004625 -0.0139708435 0.00024964416 -0.013298469 -0.051980883 -0.009228601 0.056597173 -0.04618438 0.03450145 -0.008052444 -0.034118433 -0.0058592176 -0.04485892 0.014912517 0.009409758 -0.014090946 -0.011302978 0.020262137 -0.017521834 0.04413161 0.016817747 0.009624372 0.040683456 -0.020535322 0.04096669 -0.013142595 -0.048604336 0.053533565 0.04467261 -0.00056699384 -0.01665722 -0.025982449 -0.017190818 0.051128674 0.01328552 -0.023487326 0.0428783 0.009072825 -0.053576708 -0.0270741 -0.03461126 0.039414924 -0.030624947 0.017120264 -0.03668357 -0.006209028 0.027817382 0.013227965 0.032531682 -0.049157552 0.021091226 -0.016412452 0.030684398 0.021012466 -0.023673596 -0.042776063 -0.028436756 0.03623374 0.028744597 0.02713521 
doc_70 -0.03960103 -0.04471943 -0.033030856 -0.04424447 0.03223148 0.021611279 -0.048338253 -0.007309633 -0.009858332 0.018448172 -0.06418495 -0.001376933 0.006332104 -0.046992403 -0.036639564 -0.023556635 0.043512985 -0.021942738 -0.0480942 -0.020217549 0.030505497 -0.043950357 -0.025536072 -0.042907946 -0.05234297 0.05825433 0.035393883 0.011922835 -0.0211122 -0.014688044 0.020494157 0.0037611532 -0.03653226 -0.02025443 0.039282415 -0.0021590968 0.037991002 0.0035498408 0.0083604045 -0.04818554 -0.0040116194 0.058063734 0.05770822 0.036037058 0.026660815 -0.03147082 0.031208573 0.048245154 -0.0012565551 0.053372942 0.010284083 0.041993495 -0.008843993 -0.0331319 0.010821653 0.018628903 -0.016985914 -0.02926051 0.02882422 -0.0246388 -0.037009325 0.018702632 -0.025867915 0.044708066 -0.038262118 -0.048797835 0.050910626 0.010611086 -0.030572671 -0.009634917 -0.02638585 -0.028512051 0.03810749 -0.0074732676 0.02783575 -0.030537648 0.050167676 0.022476658 0.042552818 0.0439883 0.031871766 -0.04625529 -0.007327414 0.008217342 -0.021189276 0.020693263 0.009548374 -0.039471414 0.013972907 0.05176568 -0.01932125 -0.025677137 0.009133888 -0.012922204 0.032917686 0.005552952 -0.011450164 0.050351333 0.05221749 -0.031338666 
doc_71 0.0011236538 -0.011672069 -0.021917805 0.051698986 -0.024239173 0.047980715 -0.02578532 0.011283131 0.012050374 0.051185664 0.03088528 0.046853602 0.03898397 0.035572413 0.028466085 0.039796997 -0.02943714 -0.021368418 0.021178829 -0.049408805 -0.0468308 -0.013261743 -0.00019602444 -0.011642435 0.037749972 0.0060170856 0.0077796318 -0.0044756425 -0.010204936 0.02723304 0.022699604 0.04402678 -0.05491928 0.02910899 0.039017793 0.023293035 0.0100574475 -0.016389841 0.01832285 -0.019504538 0.0048308293 0.041671824 0.020700892 0.026569499 -0.03386648 -0.017404867 -0.006963742 -0.015862446 -0.021225741 -0.020800183 0.041887965 0.024408674 -0.00060489157 -0.048044454 0.034745693 -0.0026504484 0.038835537 -0.009252266 0.046852928 -0.04810761 0.026543768 -0.022672957 0.0029657704 0.04869161 0.04076436 0.03742281 -0.04383376 0.03894889 0.014209044 0.02736283 0.01929525 0.028325256 -0.03939891 0.02244733 -0.019187521 -0.038463157 -0.031823713 0.04954167 0.04461212 0.041994702 -0.04081048 0.007782538 0.02478226 0.026045743 0.03768098 -0.0034291653 -0.006019952 -0.03712646 -0.02429148 0.0050795567 4.718707e-05 -0.021600723 0.022168517 0.045541506 -0.0133716725 0.006475975 -0.055243228 -0.011973558 -0.0020231644 0.05517742 
doc_72 -0.045776434 -0.028312145 -0.017635135 -0.046538487 0.022738658 0.0086729145 0.0020422677 -0.004049861 -0.013734544 -0.009091133 -0.060628053 -0.02458994 -0.026024967 -0.035554715 0.0090421755 0.05299572 0.003030273 0.0094346255 -0.0017802208 -0.010072019 -0.0015779077 0.04628174 -0.032606695 -0.030411053 -0.021058632 -0.0029246458 -0.031379573 -0.013033383 0.0049105533 0.050053895 0.013062287 -0.060638145 -0.019795835 -0.003319581 -0.05224094 -0.018507661 0.025769843 -0.023823446 0.0038759103 -0.026622724 -0.008278685 -0.0082974 0.051872004 -0.0015213441 0.00942257 0.038703136 0.0058033266 -0.02233169 0.06412225 -0.028631734 0.032218188 -0.017759815 0.011711775 -0.015126492 0.03338832 -0.03857552 0.005657784 -0.031388383 0.000756621 0.013062742 -0.0519823 0.017808026 -0.018977353 0.0031635961 -0.037139095 -0.038202096 0.046263184 -0.05258551 0.006695321 -0.007668074 0.030878395 0.017957771 -0.025038913 -0.035249688 0.0029833962 -0.015163102 0.025727632 -0.013120038 0.03554188 0.004988659 -0.027135126 -0.00036825833 -0.026059192 0.03199548 -0.012398435 0.04536631 0.048425563 0.020521784 -0.029287793 0.004292853 0.010824548 -0.061131936 0.053220168 0.052909616 -0.021015085 0.014934765 -0.023713041 0.029679049 0.028967457 0.052097555 
doc_73 -0.017141568 0.0050217374 0.038651112 -0.054784246 0.018920537 0.03361865 -0.0042868257 0.017629553 0.043281533 0.016432066 0.032759495 0.02229061 -0.033525232 -0.044153005 -0.04162983 -0.016448915 -0.026251439 -0.018175516 -0.00834111 -0.043509558 -0.030955067 -0.04164274 0.000449117 -0.011934757 0.019172577 0.046396047 0.027342556 0.04991475 -0.04188486 -0.021184448 0.01593759 -0.030708175 0.03143046 0.048160844 -0.010408905 0.003593444 -0.00835693 0.0282428 -0.0052486174 0.03224855 -0.048792627 -0.0032897722 -0.023443827 -0.030050468 0.038468547 0.037024226 -0.05002831 0.034495372 -0.038768977 -0.03252971 -0.056431442 0.050547894 -0.05788621 -0.041013777 0.010142141 0.008582728 -0.023956228 0.055885017 -0.03828018 0.02586826 -0.028570352 -0.0018346583 -0.035562877 0.044117812 0.020689284 -0.012917489 -0.040388037 0.032293223 0.022822376 0.0014005393 -0.0010902609 -0.002646425 -0.030509634 -0.014985438 -0.02228826 -0.017488318 0.01616151 0.028318403 0.040805347 -0.011141856 -0.05034662 -0.033989426 -0.008419567 0.05342625 -0.03840005 0.050895825 0.006405363 0.016619077 -0.036902167 -0.003603244 0.0057098283 -0.02066411 -0.014785773 0.029956268 0.006190185 0.013712792 0.036099806 0.013226869 -0.024565512 -0.0027046327 
doc_74 -0.017980356 0.028177515 -0.042889137 0.033553492 -0.03399994 -0.014827375 0.02672059 0.016269565 -0.0027587984 -0.06512685 -0.027010687 0.015560435 0.06060467 0.010876742 -0.0040407525 -0.028009918 -0.046475653 0.04220239 0.016945297 -0.0060466896 -0.008677227 0.020557327 -0.04251938 0.010916717 0.042586062 -0.0016015948 0.042580742 0.0056008 0.0034250554 -0.01913912 0.017848529 -0.004075246 0.027772836 0.037890125 0.0331621 0.050142284 0.013831959 -0.00028132033 0.045916483 0.007667769 0.05164198 0.018818863 -0.010628982 0.022059893 -0.026077297 -0.0039070914 0.039715726 -0.06044682 -0.03638522 -0.05415052 -0.028198332 -0.0060578147 -0.016122714 0.052562647 0.031374786 0.059017945 -0.032744832 -0.031855438 0.02170398 0.061929297 0.017900372 -0.02700529 0.017503388 0.031076174 0.030309511 -0.0033395288 -0.013894908 -0.027224576 -0.0034320396 0.022603618 0.01928126 -0.029994188 0.055120874 0.051213734 -0.020107344 0.031584565 0.0334573 -0.020131899 0.025417276 -0.044900667 -0.028825216 -0.033850513 0.03763131 0.020899693 0.005170435 -0.0058861496 -0.031223485 -0.020067655 0.0058677928 0.019764254 0.017294912 0.008344888 -0.052322086 -0.04581395 0.052837934 0.011731404 0.069632806 0.053032108 0.0055012256 -0.0077675018 
doc_75 -0.042855192 -0.013386353 0.04000943 -0.00084315805 -0.043558266 0.049311254 0.020312943 -0.028047923 0.037822146 -0.030253911 0.040563215 0.028004285 -0.03041322 0.05252095 0.01880296 -0.026975859 -0.048534036 0.03888661 -0.04186818 -0.0016415716 -0.008269034 0.04143235 -0.041151915 0.006385894 0.030202849 -0.0041394606 0.009314386 0.042348072 -0.045524046 -0.0042238533 -0.024171263 0.0010790442 0.041794952 0.032145284 0.0111778 -0.019997507 0.024169063 -0.026056323 -0.041350618 -0.037402123 0.012957318 -0.023872217 -0.0325651 0.026694767 -0.04267058 0.035992097 0.039324656 0.04268931 -0.043182507 -0.03271916 0.039517354 -0.017203921 -0.04124045 0.037638832 0.023114646 0.011749633 -0.029378515 0.019292276 0.030544726 0.02106066 -0.04408661 -0.01722199 0.038719643 0.029558027 -0.014246931 0.019576 0.045984056 0.031102799 0.02875824 0.03596875 0.011064153 0.019632975 -0.041053876 0.023571247 -0.024042511 -0.027395928 -0.005413143 0.029208377 -0.021040713 -0.045333914 0.012613523 0.026471306 -0.031520475 0.04465236 -0.034813978 -0.031258795 -0.029121637 -0.0025788574 0.019325532 -0.0032098459 0.04862158 -0.010389457 0.032637656 -0.02530777 -0.007769065 0.04812753 0.016114054 -0.033542044 -0.0009972836 0.035596486 
doc_76 0.009047743 0.017101914 0.030755747 -0.010343705 0.041632514 0.028681751 -0.011612226 -0.01713184 0.011382445 -0.03308256 0.029196335 -0.00018793363 0.021576142 -0.02578372 0.044636723 0.0057668732 0.016781488 -0.014160779 0.007236927 -0.032368 0.017946066 0.007921471 0.018445171 0.0035354104 -2.9180152e-05 0.03403495 0.017911782 0.038918942 0.0029194125 0.043431003 -0.024680486 -0.045990523 0.036150478 0.0036392678 -0.046914496 0.004366189 -0.033004746 0.008051194 0.0066004293 -0.03308013 -0.024718707 -0.048782323 -0.023853563 -0.037877236 -0.03274339 -0.041127447 -0.017038805 0.041921105 0.0178457 -0.04582066 -0.0024045778 0.009683825 0.005001013 0.015085645 -0.042643033 -0.010777678 -0.014340311 -0.04250534 -0.029381126 0.019915491 0.022873426 -0.045643 -0.01755752 -0.011472605 -0.01070173 -0.012889571 0.026181683 -0.022042021 0.037601642 -0.04563013 -0.040075738 0.007947505 0.035239626 0.034925185 0.038461953 0.008389634 -0.04564835 0.033115596 -0.02940277 0.03704513 -0.02971222 0.017574908 0.041079383 0.0011301431 -0.006816474 -0.035920177 -0.03109491 -0.03971578 -0.0030266882 0.047060136 -0.012161862 0.016241092 0.038337022 0.0090350555 0.048932683 -0.0164508 0.008272218 -0.0020891395 -0.0010635428 -0.028066915 
doc_77 -0.04837754 0.022234943 -0.011165628 0.016456049 0.04230442 0.03653115 0.03714459 -0.00617353 0.010742252 -0.038082562 0.040300228 -0.015444824 -0.035390824 0.022137048 -0.015740158 0.00987319 -0.007393889 0.032324944 -0.020803103 0.043537606 -0.038154766 -0.028702887 -0.01119418 -0.032105867 0.016006755 0.03770664 -0.02197068 0.036544982 -0.014319874 -0.019146763 -0.030794667 0.04370237 -0.0044736983 0.022647839 0.015539621 -0.020474924 0.04091439 0.008462984 -0.006240939 0.041644458 0.03831899 0.009171153 -0.03481708 0.025334446 -0.04701273 -0.031009924 0.027060153 0.015915286 0.02741778 -0.0137108015 0.040309552 -0.01553985 -0.031983756 -0.006034858 0.03238486 -0.037669826 -0.015728112 -0.021777095 -0.03633176 -0.041457094 -0.052603055 -0.04885767 -0.023806762 0.007130105 0.01014097 0.006113341 -0.03188589 0.034374446 -0.02097876 -0.013763694 0.0009882571 0.03756897 -0.04347634 -0.01944891 -0.04220585 0.027984647 -0.02348495 -0.045562327 -0.04311098 0.03896239 0.03545604 0.031086108 -0.013738958 -0.025977371 0.044403136 -0.03091952 -0.0034475676 -0.003037894 0.022098126 -0.02958484 -0.037328854 -0.030259388 -0.0041976613 -0.01993966 -0.03141539 -0.052261747 0.018020272 0.03349261 -0.012079863 -0.04928772 
doc_78 -0.04533628 0.025571162 -0.017116796 0.027069764 -0.013176815 0.028152399 0.002179886 -0.0052116956 0.03406232 -0.0011852205 0.0396029 -0.03448107 0.04825909 0.007805552 0.087148145 -0.049060475 -0.05795075 0.02236089 0.033280414 0.042580113 -0.07709494 0.019941822 -0.009418758 -0.003922776 0.025541125 -0.0763286 0.033857394 -0.053211525 0.0631221 -0.035531443 -0.045318585 0.043021824 0.05655546 -0.031936213 0.060626008 0.0011129302 -0.007805636 0.06761122 -0.009014124 -0.05138341 0.00019786578 -0.051689673 -0.06777956 0.049741607 -0.0134875495 0.03534602 0.057530124 -0.05168695 0.020453557 -0.027779954 0.0524097 -0.048136566 0.0075482805 -0.011775455 0.0016162733 0.01079722 0.0794748 -0.06409447 -0.02990819 0.0861777 -0.02680731 -0.048187386 0.018010302 0.030752886 -4.171234e-05 0.0725807 0.028007245 0.034797676 0.035318337 -0.041850694 0.068531185 -0.01531988 -0.004365453 0.04845959 -0.0075893407 0.0050808466 0.0070551024 -0.07087919 -0.016804889 0.023454586 -0.0006354669 0.053717382 0.052521177 -0.0027781306 -0.058788974 -0.046958588 0.051489394 0.02986624 0.0021941918 -0.023140159 -0.08202446 -0.016827395 0.00035611526 -0.042354565 -0.038065948 -0.042564597 0.05325692 -0.045832887 -0.07972692 -0.0011769822 
doc_79 -0.0024794468 -0.048897017 -0.0009035843 0.034565806 -0.014224259 -0.0279522 0.00545867 -0.006853237 0.004471593 -0.001297634 -0.039035324 0.040857233 0.006552141 -0.011358136 -0.0116933165 0.055266105 -0.02564389 -0.051343217 -0.014395355 -0.05600572 0.025452554 0.00044989111 0.0017881535 -0.03854332 0.037614685 0.004215746 -0.015923329 0.031698335 -0.027864955 -0.01764523 -0.029430913 -0.007997661 -0.040695377 -0.006939585 0.03964861 -0.055707097 0.023425933 0.010054607 0.0007132968 0.03634077 0.039482825 -0.0015412233 0.01332083 0.0060486803 0.011790617 -0.0016292187 0.017008392 0.020749208 0.03549115 0.052155223 -0.0076074502 0.03372278 0.023887072 0.020948129 0.025669826 -0.030331267 0.013656252 0.024196634 0.046588976 0.009835708 0.0054477816 0.019336222 -0.055230603 0.031607453 0.041853614 -0.018528238 0.0036352884 -0.02174831 -0.016623897 0.039099127 0.04167975 0.051778622 0.032150783 -0.05287081 0.03196257 -0.009721058 0.038027775 0.030634891 -0.029887538 0.015680252 -0.028757775 -0.021596948 -0.025828406 0.021680322 -0.011125982 0.006842943 -0.015318088 0.04324593 -0.039063413 -0.033545572 -0.037306562 -0.047951315 0.048452806 0.037146877 0.0024121352 -0.0042382353 -0.0005801962 0.026600137 -0.028411832 0.026286593 
