1000 100
doc_0 0.028068673 -0.04354751 0.02419113 -0.026241912 0.014504958 0.032975044 0.0035801418 -0.0060958154 -0.019683957 0.0041403063 -0.011759698 0.008015145 0.00081869215 -0.012494553 -0.023668636 -0.037371717 -0.04865364 -0.013900362 0.0066066273 -0.030633831 0.008062638 0.011536013 -0.041756965 0.048151683 0.02100959 -0.014502358 0.03093655 0.014638368 0.024974372 -0.04728744 -0.02266401 -0.012398623 -0.011074923 -0.035410177 -0.04796319 -0.029394543 -0.00058973953 -0.005888868 0.04509345 0.045536663 0.026270378 0.015865412 -0.04468442 0.012658309 0.047752332 0.021435145 0.04302944 -0.047529936 0.03196353 -0.034446288 -0.029496467 -0.027335478 0.025014292 0.002164483 -0.021724308 -0.029960072 -0.010610782 0.039219644 0.0018652081 -0.039620973 0.019636702 0.039505754 0.019209433 -0.035356294 0.039275732 -0.016634665 0.048584666 -0.025483657 0.044617604 -0.049743213 -0.02414887 -0.011541735 0.008335628 0.04665326 -0.011379875 -0.0050515532 0.011237513 -0.020356704 -0.0076694377 0.0030988343 0.01863924 -0.00044591352 -0.004688848 0.043666292 -0.049732234 0.0018143877 0.0065775886 0.013966288 0.022943523 0.04494128 -0.01760143 1.5474856e-05 0.035753917 -0.0015213974 0.037965488 -0.007717442 0.009140242 0.025998984 0.004151702 -0.046302974 
doc_1 0.0099718105 0.08113631 -0.12242698 -0.13486108 0.11077146 0.026334677 -0.092736125 0.050928783 0.0043696207 -0.13393241 -0.08670248 -0.0255828 0.041614577 -0.07529102 0.11452933 0.010900303 0.07081094 0.10701221 0.035053894 0.050159387 -0.06300799 0.10047981 -0.06177107 0.12957448 0.051145732 -0.1883019 0.13943745 -0.035413116 -0.12742582 -0.121373534 -0.15769276 -0.1691032 -0.17679787 0.0817251 -0.036727082 -0.1807828 -0.09767585 -0.026274022 -0.07633329 0.038083717 0.07540101 -0.09220006 -0.042580258 -0.061638057 0.0063266545 0.0076508545 0.18917005 0.08476625 -0.1327634 -0.10520276 -0.094308175 0.05334108 0.048961338 0.06371067 0.024112398 0.0072246483 -0.15975596 0.08021469 0.15129708 0.08180232 -0.018923234 0.17684935 -0.059612043 -0.1214784 -0.0888984 -0.056116853 0.052261304 -0.016870689 0.06481041 0.11398794 -0.1680153 -0.109896965 -0.10452006 -0.085167736 0.026775585 -0.03485072 0.027171308 0.05551823 0.059654795 0.22724713 -0.026548171 0.18508404 0.054784283 0.027670754 -0.0040482664 0.04952986 -0.059615128 0.12614624 -0.06054979 0.08547455 0.105131574 -0.055638667 0.020423183 0.1252161 -0.033601608 0.11663411 0.12194269 -0.10885968 -0.068880394 0.033600435 
doc_2 -0.063572995 0.2822092 0.19370154 -0.28654593 0.35487252 0.0399003 0.13025464 0.2017098 0.2151578 -0.24458174 0.2686278 -0.21220408 0.21346883 0.063864134 -0.18704452 -0.16205724 0.1815694 0.009505171 0.3018366 0.25676242 0.21965325 -0.21484002 -0.24017496 -0.27213684 0.10215399 0.13900301 -0.24243963 0.33357513 0.19853786 -0.30752307 -0.3390431 0.19712119 -0.01539492 -0.10301508 0.36043164 -0.34747314 0.18747926 -0.25387934 0.27643743 0.15175799 0.19175579 -0.38739243 0.4033579 -0.15953813 0.18357685 -0.34188974 0.37221044 0.22023268 -0.29797584 0.18459755 0.19164824 0.35137904 -0.36120316 0.13607958 -0.044066455 0.27058515 -0.3304482 -0.2570796 -0.23856036 -0.3262027 0.3677376 -0.08812408 0.2861976 -0.15935786 0.1832307 0.1512877 -0.025773307 -0.17393143 0.0007530359 -0.37943393 -0.085763134 0.22953145 -0.16424449 -0.3479954 0.22465055 0.15534706 0.19085132 -0.35599458 0.2750023 0.21453491 -0.039003376 0.23394379 -0.30277312 -0.22871704 -0.24327976 -0.37521434 0.2853061 0.24258964 0.30381387 -0.22144006 0.18108514 0.37323925 0.32224578 -0.13118541 0.17948297 -0.24312909 -0.09276206 -0.26890737 0.37961334 -0.14658229 
doc_3 -0.050073043 0.3445052 0.4647952 -0.15931304 -0.44343042 -0.3012462 -0.32167265 -0.26171005 0.3097013 0.41324356 0.30137447 0.39834106 -0.34894562 0.1608617 -0.2023223 0.14028639 -0.36668065 0.35746747 -0.42460343 0.29173124 0.27193803 0.19332363 0.2906588 0.4031493 0.28756014 -0.42591706 0.28094336 -0.43842006 -0.3155204 -0.35187194 -0.38856575 -0.31472537 0.4396134 -0.061978795 0.15135759 0.39592367 -0.2132303 0.39282808 0.28225353 -0.4659472 -0.39779902 0.5268616 0.18237744 0.4274561 -0.3267265 -0.3675133 0.30212417 -0.0039210585 -0.32995805 0.17906028 -0.374208 0.31468192 0.44663408 -0.25067306 0.3137387 0.33781183 -0.039778817 -0.4711917 0.3077848 0.43180603 -0.37616152 0.4162149 0.41686645 -0.15985048 -0.10323749 -0.13645792 0.3736723 -0.4169244 0.35540485 -0.34355876 0.45750532 0.45603812 -0.4587589 0.45480075 0.42623088 -0.43559918 -0.24417122 0.43600315 0.25030696 0.3452078 -0.23161227 0.4303458 -0.29558414 -0.50142753 -0.3983511 0.36358398 0.40361664 0.38093492 -0.45767435 -0.39192972 -0.35065138 0.3246488 0.17309403 -0.47764787 0.22545283 0.29252446 0.15417716 -0.439587 -0.3938554 0.31922808 
doc_4 0.3048441 0.34670457 -0.33404183 -0.30459872 0.35251883 -0.2870804 -0.25894266 0.022333864 0.2738029 0.40454 0.23669285 0.10163859 -0.32814914 0.27204823 -0.22938165 -0.41843864 0.39232072 0.15007745 -0.45240623 -0.1097862 -0.41509128 0.340169 0.27897328 -0.42728442 0.32748303 -0.29570803 -0.19486995 -0.42195705 -0.24181221 -0.1827645 0.42246047 -0.2653342 0.39738765 0.20402475 -0.26913604 -0.2108336 -0.28354576 0.24353795 -0.40497944 0.33046106 -0.28484 -0.32038382 0.310157 0.32672983 0.44851294 0.31089166 0.30788442 0.36451015 0.38939226 -0.28982913 0.4002799 0.3502667 0.37241346 -0.32660577 0.23046133 0.38966522 -0.25662637 0.42320648 0.23824897 0.36615533 0.3024794 0.32551193 0.28908402 0.25931782 -0.29249242 -0.24115099 0.28055537 0.29718864 -0.3186134 0.406794 -0.32826388 0.40790293 0.19303896 -0.3188404 -0.29140425 0.31690943 -0.13174264 -0.3279322 0.28467134 0.25640902 -0.32596627 0.4196754 -0.18184541 0.34494358 0.36702037 -0.4577419 -0.46837315 -0.38147703 0.30935106 -0.23704 -0.32651854 0.14852807 0.34492117 0.23902337 0.3942667 -0.43536022 0.2806706 0.49119046 0.23871373 0.24916197 
doc_5 -0.069053814 -0.092496224 -0.014731983 -0.02422155 -0.059742328 0.11174415 -0.1738422 -0.051673952 -0.12826897 -0.14576954 0.14898728 0.053713493 -0.11106761 0.04187023 0.18458384 -0.019905018 0.07259976 -0.10593908 -0.09018005 -0.1230814 0.18706805 -0.08454198 0.12121536 0.10596006 0.026122734 -0.17559741 -0.10080214 0.13685922 0.09698369 0.04138883 0.08562862 0.069706924 -0.16628833 0.06584634 0.19517413 -0.04555695 0.061668582 -0.06956431 -0.0350891 -0.12983873 0.059108224 -0.011175072 0.16279063 0.06273638 -0.14190547 -0.16279213 -0.095554255 0.13558073 0.0077820495 -0.1244636 -0.08429312 0.096616894 0.096277185 -0.12244812 -0.001445758 -0.13604301 0.104518 0.10307906 0.15288822 0.13222705 -0.082040414 0.1401727 0.1001875 -0.1453375 -0.15701015 -0.12299133 -0.027494598 -0.08610527 0.09869499 0.10288487 0.074643195 0.11929987 0.1510234 0.0900238 0.024164805 0.098032355 -0.1329688 0.09165625 -0.109085225 -0.07268457 0.11866096 0.17377494 0.11856281 0.13788888 0.050779864 -0.14419721 0.033850078 -0.09956537 -0.098319285 -0.12114698 0.06425976 -0.091898814 -0.15398459 0.09204359 -0.046248954 -0.12292161 -0.1287784 0.049112327 0.08027658 0.0866495 
doc_6 0.37378094 0.24545103 -0.3052864 -0.24001454 0.33126172 -0.4146682 -0.467455 -0.39058253 0.3691057 0.42046392 -0.53129816 -0.39789104 0.2916515 0.36220765 -0.019161474 -0.48289067 -0.24468178 0.021814493 0.37675518 0.3600071 -0.4584977 0.35120463 -0.53738075 0.39884 0.3865614 -0.29253542 -0.4339776 0.3847366 -0.44798994 0.35127023 0.50046927 -0.32208064 0.4219205 0.31443134 0.30535007 -0.3246671 -0.37427187 0.029212797 -0.44770566 -0.5229364 -0.3967566 0.48534936 0.37938225 0.392396 -0.33396852 -0.43313992 0.008651579 0.5245978 -0.3505983 0.5099263 0.46550047 -0.5146661 -0.40313917 -0.22826162 0.31008306 -0.50591236 -0.38992643 -0.4734518 0.26401386 0.18351173 0.38428238 0.3514875 0.3262936 0.3412961 0.13489267 0.45584464 0.36622268 -0.43166336 0.43792868 0.37046054 -0.21960674 -0.2750875 0.42274204 -0.35542163 -0.41456062 -0.48114958 0.17128497 -0.3327193 0.26123044 -0.40713507 0.47468588 -0.42468897 0.44700053 0.35943204 0.49310377 0.31359458 0.30068508 -0.4651234 -0.4226343 -0.4087746 -0.4089943 0.25374046 -0.41623017 -0.44546187 0.34094074 0.41691956 0.38038895 -0.4321389 0.3944849 0.41540584 
doc_7 -0.33975005 -0.3966507 -0.3665296 -0.39147267 -0.42196614 -0.09301999 -0.31234443 -0.21434076 0.15531857 0.39479637 0.37171328 -0.4200486 0.3642504 0.24378543 -0.33469743 0.34962046 -0.37345013 0.36089844 -0.19957395 0.44592798 -0.4128846 0.34295887 0.33581775 -0.38860705 -0.35916287 0.31311393 0.26476708 0.35509577 -0.29176733 0.34463698 -0.3607178 -0.3015161 0.3330205 0.1935524 0.26365727 -0.1991779 -0.3112276 -0.27742147 0.33082 -0.3834269 -0.35264778 -0.28089827 -0.2560863 -0.3639206 -0.29319206 0.3542033 -0.35466862 0.3453984 0.3707234 0.38085267 -0.32349268 -0.32634112 -0.29801676 -0.3225909 0.15379441 -0.40146232 -0.2161967 -0.4107709 0.33412692 0.43570262 0.43283847 -0.33233875 0.3779477 0.3831164 0.19600023 -0.19528025 0.34277582 -0.30644605 -0.20275186 0.46831235 -0.29334953 -0.43506566 -0.4158826 0.30409577 0.45994744 0.41999325 -0.36792913 -0.38919407 0.16010185 0.35195574 -0.3104992 0.34448138 -0.4185558 0.45318344 -0.37556344 -0.323751 0.32136315 0.37723872 -0.25884643 -0.31915838 -0.16302012 0.112503834 0.37935138 0.31420338 0.3251894 0.3088421 -0.25206295 -0.44718364 0.35468885 -0.3620337 
doc_8 0.032550175 -0.42987403 -0.32214162 -0.29806587 0.40214896 -0.34550115 -0.26666743 -0.34760475 0.32546926 0.40520847 -0.33858246 0.42583555 0.36422536 0.19248907 -0.34331143 0.10373119 -0.13843125 0.14978062 0.31768933 0.4058925 0.40281785 -0.37499407 0.36202276 0.4315148 0.33166587 -0.32154763 0.34468234 -0.4168908 0.34011236 -0.28489745 0.38545233 0.30967876 -0.3805886 -0.30151606 -0.34265354 -0.16949396 -0.21531448 0.3332196 0.29766056 -0.012967793 0.38585538 0.42994535 0.3304305 -0.18705018 -0.34777796 0.34210786 0.23920737 0.42529985 0.4092453 0.30982867 -0.33280426 0.27545965 0.35632408 -0.3886342 0.3011961 0.41664007 -0.21621904 -0.32806742 0.28088266 -0.26616916 -0.37181586 0.29980972 0.3455702 0.37129587 -0.1887971 -0.34164238 -0.21875583 0.32893378 -0.28682083 -0.38458136 -0.38092682 0.26242873 0.27892926 -0.40071195 -0.39208615 0.35351527 -0.17759061 -0.30682305 0.074931614 0.29539964 -0.12527464 0.4103104 -0.3520102 -0.44117746 0.30686107 -0.43468818 0.11419783 0.43952656 0.3684546 -0.34233445 -0.33756012 0.09826454 0.3888339 -0.027578903 0.39041853 0.40591756 -0.35587588 -0.3968556 0.3418126 0.1273398 
doc_9 0.31378344 0.3052162 -0.2904809 -0.322033 0.23088805 0.17103973 0.21303836 -0.2809895 -0.22390628 -0.24682082 -0.26499036 -0.30005294 0.23270409 -0.10306101 0.26509008 -0.2552755 0.2350813 -0.2617805 -0.257806 -0.2918564 0.11307941 0.29044497 -0.2469108 0.36998048 0.37911427 0.046226263 -0.24005398 0.346975 -0.24152932 -0.30252892 -0.2922085 0.25471497 -0.31742337 -0.035412323 -0.21068703 0.16056605 -0.330369 -0.17417651 0.25184557 -0.24856277 -0.25417164 0.22471099 -0.23542222 -0.33894542 0.16683608 -0.07241574 -0.24361691 -0.25479746 -0.29108718 -0.3344568 0.120643795 -0.23802316 0.2552835 -0.32733843 -0.06723404 0.29863006 -0.2501846 -0.33404905 -0.22482629 0.18157789 -0.25372347 0.16496173 0.28923038 0.089414716 -0.18424422 -0.21531206 -0.03632312 -0.08846781 0.23038992 -0.25560692 0.096124746 0.14990553 -0.2915567 -0.33628395 -0.34947097 0.36325544 0.09112246 -0.1400277 -0.2703386 -0.26925543 -0.08508428 0.29848924 0.23263504 -0.25247037 -0.31462315 -0.3011502 -0.10708359 0.28550556 0.37012225 -0.28016073 -0.07183421 0.25731787 0.3447997 -0.24940996 0.28501964 -0.34863853 -0.24521494 -0.26896712 0.3718901 0.30149707 
doc_10 -0.3002416 -0.5574112 -0.2126537 0.598695 0.3072138 -0.30855507 -0.35937157 -0.261029 0.18237695 0.56161094 0.25278988 -0.5887833 -0.27889785 0.19572935 -0.21652652 0.20703153 -0.26943707 0.16299565 -0.5831985 -0.626273 0.36427924 0.19091445 -0.5674796 -0.592683 0.15573199 -0.33204547 -0.59825087 0.4325878 -0.26623985 -0.27565396 -0.31027484 0.18545713 -0.22918493 0.28963697 0.16436803 -0.015707804 -0.29216057 -0.5932437 0.44046763 0.40169212 0.57863134 -0.41975528 0.36750975 0.60229737 -0.2526748 -0.45029768 0.26358262 -0.3664784 0.606043 -0.15169062 -0.2022699 -0.6075449 -0.33093867 -0.3339817 0.2769187 -0.55481875 -0.26467294 0.5196147 0.32587117 -0.46281284 0.357554 0.2794295 0.21743922 0.32763577 -0.20528571 -0.18142572 0.18040745 0.32813346 -0.3333681 -0.37877274 -0.33945513 0.6246661 0.21079484 0.6121082 0.58794165 -0.6084056 -0.17677915 -0.33607432 0.3369143 0.293339 0.59278554 0.45500088 -0.37679318 -0.55530375 -0.21315733 -0.53739256 -0.6251335 0.3826666 -0.56175 -0.20734599 -0.31830987 0.3267734 0.4088922 0.33468893 0.23547941 0.2323019 -0.015087811 0.5362016 0.35204634 0.15534936 
doc_11 0.34087574 -0.6282851 0.6493362 0.62483764 0.31174466 -0.2932404 0.53573 -0.048400417 0.27012268 -0.4305308 0.22759783 0.22942956 -0.06851497 0.29534423 -0.27054945 0.3340399 -0.25105727 0.21219109 -0.019572916 0.12692128 -0.552536 0.25112087 0.35690835 0.4194145 -0.63217974 -0.29990083 0.30464944 0.34005672 -0.30396685 -0.24666516 -0.2800744 -0.30047315 0.5760226 0.2743194 -0.62111336 -0.26881808 -0.13219415 0.09236519 0.27692464 0.27525046 -0.35310945 -0.31168926 -0.3134123 -0.2947803 -0.24973549 0.6000405 0.27919954 -0.38044986 -0.37237796 -0.23982124 -0.3128281 0.3065028 0.6225478 -0.26962578 0.33161888 -0.60222846 -0.24278133 0.43183422 0.30215108 0.49633336 -0.6387843 0.3323163 -0.058392335 0.39715898 -0.22240058 -0.27762768 0.21024947 0.26530978 -0.2070802 -0.32218862 0.6670547 -0.2840738 0.07491943 0.616201 0.012229916 -0.6160665 -0.20661628 0.29027104 -0.6319605 0.2942743 -0.2318807 -0.5394198 -0.37565804 -0.57358676 -0.3071291 0.38304836 0.29579756 0.29324165 0.3628679 -0.188573 -0.2663346 0.2996124 -0.52625644 0.18264277 0.3453787 -0.55981153 0.28011128 0.55527997 -0.58758336 0.2874038 
doc_12 -0.12066388 -0.28269663 -0.2987501 0.23139808 0.04766096 -0.28540254 0.11096851 0.12782691 0.3520696 -0.30999944 -0.20985225 -0.19583648 -0.28847617 -0.15778813 0.21458566 -0.05353666 -0.13329813 0.04374219 -0.21010573 0.302623 0.32298508 0.22702116 0.18349425 -0.20512083 -0.17492121 0.020854492 -0.22369304 -0.18602106 -0.0873747 -0.15535182 -0.27440518 0.14557433 0.15609878 -0.097321406 -0.08282014 -0.08537817 0.16247699 -0.102423735 0.15268676 -0.051288936 0.20309758 0.16488338 0.21059746 0.07456446 -0.17056592 -0.2539138 0.26235172 0.21603835 -0.18073799 0.17910738 0.17491926 -0.17175324 -0.25554097 -0.30789647 -0.25077137 -0.17615218 -0.24732147 0.07085264 -0.12640019 -0.16600832 -0.16096845 0.26283884 0.2679754 0.17379881 -0.18047911 -0.2711317 -0.0029147204 0.08866467 -0.27577415 0.1969558 -0.34012064 -0.087844 -0.16963738 -0.21765469 0.23672247 0.23394722 -0.30290344 0.16996944 -0.14194357 0.27194753 -0.2030478 -0.2648131 -0.21828097 0.22448602 -0.34986848 -0.28977904 -0.05957968 -0.21134059 0.03228225 -0.26330474 0.1672465 0.2306429 0.27396274 -0.18249758 0.061038148 0.24137649 0.30368054 0.25484958 -0.19877294 0.122405134 
doc_13 0.18720646 -0.51190275 -0.38451558 -0.24591191 -0.5047818 -0.2902537 -0.33992305 -0.29008284 0.36516237 0.43816873 -0.55174863 0.43315002 -0.29873842 0.37291896 0.5753059 0.08425681 0.5260799 0.3401547 0.336063 -0.48258743 0.36047184 -0.032196555 -0.56211394 0.34523642 0.34540075 0.5341573 0.30826953 -0.4874376 -0.36348623 -0.3650925 0.5062968 -0.30880344 -0.25467366 0.28340238 0.40252924 -0.38901013 -0.40260005 -0.54134583 -0.5106612 -0.47804835 -0.3978641 -0.31087437 0.29013395 -0.16424075 -0.3090444 0.4498293 0.3715721 -0.24529116 -0.36435738 0.5111793 0.5242535 -0.50740725 -0.3761922 0.50852156 -0.48210612 -0.4915974 -0.27261105 -0.4599783 0.31020403 -0.44336227 0.26737025 0.3410274 -0.5164697 0.26924855 -0.36282405 -0.26797527 0.4046337 0.34449017 -0.3233223 -0.36319873 0.51263934 0.45887405 0.34065896 -0.24169306 -0.35834938 0.3426391 0.50815123 0.46413857 0.38151953 0.37656584 -0.25895533 -0.40636295 -0.3196605 0.41685352 -0.14091821 -0.48163232 -0.50302875 -0.52186286 -0.5672548 0.5109172 0.49038953 0.31590456 0.37775156 0.37515056 -0.46982107 0.3814412 0.24203 -0.38483247 0.3181797 0.20454268 
doc_14 0.19049147 -0.04830885 0.29008216 -0.22324064 0.332026 -0.26465565 0.29868013 0.34294406 0.27070153 0.28954932 0.32205132 0.3228252 0.21809882 0.26092738 -0.18118846 0.32869822 -0.32233655 0.35483298 0.4480809 0.3214968 0.27211827 0.275849 0.37991908 -0.36662254 -0.23556986 -0.22101215 0.28811032 -0.31802866 -0.17331548 0.2967637 0.274532 0.1052923 0.2810898 -0.2757486 -0.27507088 0.1284201 0.20301548 -0.33926207 0.13670832 -0.37276584 -0.32465857 -0.35682186 -0.21080947 -0.36317173 -0.25554165 -0.39540514 0.23193759 0.35509077 -0.24965253 -0.2064182 0.28139567 -0.2680302 -0.21178965 -0.2668473 0.362421 -0.3762973 -0.31756884 -0.42017135 0.13656487 0.35195246 0.33966228 0.34039497 0.30485252 0.2938115 0.12612951 -0.3271424 0.29187202 0.07795142 -0.3782749 -0.27259362 -0.3895905 -0.42662844 0.3434013 -0.36828724 0.41053316 0.39961684 -0.19414681 -0.39907804 0.27765346 -0.20796579 -0.3907976 0.44222447 -0.40972435 -0.3613246 0.3510091 0.34029055 -0.29619738 -0.37951994 -0.3047636 0.25103742 0.3434167 0.2715443 0.4098056 0.37866628 0.043399498 0.33834678 0.37889838 0.3021135 -0.3540748 -0.12198395 
doc_15 -0.009945403 -0.045001864 0.08574208 -0.12926549 -0.07203327 0.08041064 0.043817673 -0.16572818 0.12875688 0.028504686 0.0242368 0.12714946 0.07080911 -0.063311405 -0.11534847 0.002746814 -0.024135483 0.0091170985 -0.032609683 0.14280955 0.19328336 0.1452682 -0.021304581 -0.024646526 -0.085592054 0.08893443 -0.106758274 0.1553671 -0.06514365 0.065699786 -0.038539886 0.048639894 0.0691016 -0.08408736 0.050562847 -0.20282494 0.020229781 0.15693587 0.020904291 0.11130096 -0.073116295 0.16019595 0.01375135 -0.05790309 0.08430421 -0.13834739 0.11140402 -0.026487827 0.035542358 0.0439109 0.040287975 -0.019499123 -0.13014127 -0.051351964 0.12008947 0.08032439 0.036526263 0.19491477 0.053011045 -0.093429744 0.13802774 -0.07756365 0.019659545 0.07107271 -0.17205288 0.06783437 0.17976657 -0.042503066 0.054826833 -0.2006637 0.09120411 -0.15325041 0.027685976 0.017976012 0.090511546 -0.06901037 -0.03326228 0.099572204 0.09260614 -0.040218975 -0.008851994 -0.14160961 -0.1111575 0.117348276 0.0674619 -0.14779899 0.027205056 0.106717646 0.21237427 -0.007497859 -0.014853292 -0.034436844 0.0704642 0.011616581 -0.07877747 -0.091544636 -0.10833395 0.0065018185 0.0067695715 -0.047102146 
doc_16 0.044530164 -0.053396504 -0.09959556 -0.079411685 0.11668722 -0.10031015 -0.11178317 -0.102771446 0.12080266 0.0907459 -0.10126255 0.0991745 -0.120277196 -0.026173277 -0.05661074 -0.14375183 0.15303622 0.072336264 -0.13164079 -0.023338351 -0.1157579 0.044622537 0.003988519 -0.13533312 0.122182816 -0.0731738 0.07654498 -0.069272496 -0.06895001 -0.12986785 0.10193594 -0.06826283 -0.06014408 -0.13796839 0.017706351 -0.12576813 -0.04992282 0.0889568 0.05850056 0.09189314 -0.10096643 -0.050774734 0.03302341 0.0006663911 0.063886285 -0.063093595 -0.032941878 0.068404 0.14750989 -0.13017076 0.10589336 0.051470056 0.05293915 -0.039349083 0.11631527 0.08546743 0.10270201 0.015453069 0.07913798 0.05879035 -0.073905624 0.003364363 0.11343931 0.0726831 0.03802951 0.01711399 -0.078022696 0.10493697 -0.041119467 -0.04468698 -0.08349776 0.11723419 0.06399614 -0.07252273 -0.045694564 0.13501376 -0.075449005 0.07209536 -0.018483369 0.036407508 -0.033318482 0.07930676 -0.07539595 0.004455529 0.058903165 -0.083977245 -0.03579355 -0.051770557 0.11437994 -0.09161778 -0.09720334 0.09036684 -0.020492611 0.08568672 0.12525113 0.033125035 0.08286762 0.109623455 -0.00010507361 0.061962754 
doc_17 0.32744217 0.38799375 -0.2916827 -0.34008166 -0.14591403 -0.20283748 0.25568178 -0.06778915 -0.346768 0.3275278 -0.3391182 -0.38480896 -0.26218015 0.31830752 -0.17985609 0.17921329 -0.32179272 -0.13486066 0.1070829 -0.32401022 -0.34390038 0.31732354 -0.39988 0.3454649 -0.31589907 0.32861 -0.405229 -0.24056199 -0.40695006 -0.34514496 -0.344262 -0.2706723 0.1794493 0.18078092 0.39260355 0.30886307 -0.054584906 -0.34482053 0.36177874 0.24778825 -0.36587432 0.3326305 0.35022572 0.34919626 -0.18807347 -0.3260191 -0.3495109 0.36389372 0.39136982 -0.26225907 -0.20684227 0.36527762 -0.3451778 -0.23353952 -0.37841746 0.41717905 -0.19970289 0.34210932 0.3929207 0.44044733 0.19603278 -0.3613908 -0.35468626 0.27060732 -0.30143997 -0.05096555 -0.3859231 0.25040257 0.32222068 -0.30612332 -0.33232665 -0.24956869 0.2891824 0.3051379 -0.37750724 0.31116286 -0.23597391 -0.3553048 0.35216212 0.22862595 -0.30478522 0.15763007 0.33227304 0.42695224 -0.31006262 -0.36047086 -0.358282 0.32612658 -0.33906356 -0.34162134 0.33238098 0.23973086 0.34658277 0.31807637 0.18049735 0.33759603 -0.29909003 -0.3926937 0.35720015 0.26906186 
doc_18 0.18989398 0.36197913 0.19674696 -0.10694834 -0.114000425 0.20632185 -0.30848223 -0.2967228 -0.084204935 -0.34871438 -0.16029102 0.37937456 0.16047665 -0.004311515 0.24291886 0.35754177 -0.35787132 0.054629065 -0.17493393 -0.23672031 -0.19410503 0.10949849 -0.3360476 0.3306522 0.30956894 0.09488025 -0.061642602 0.41579738 -0.3882441 0.14643776 0.16073975 -0.28203198 0.048042566 -0.04099748 -0.021529991 -0.27350834 -0.23015492 -0.19640352 0.3573669 -0.30896953 -0.09812244 0.29514813 -0.213915 -0.010014709 -0.12923194 -0.3305559 0.17425962 -0.43399268 0.14870198 0.12026515 -0.3185849 0.11754812 -0.32838762 -0.27703375 0.24812955 0.40481707 0.09850558 -0.27809066 0.37882838 -0.09760692 -0.08336614 0.08334251 0.2489919 -0.23498642 -0.068423785 -0.03648298 0.3878796 -0.032424297 0.1409965 0.15295462 -0.31417996 0.17249241 0.24936947 -0.07984855 -0.29350346 0.25376925 0.22081746 0.2271924 0.24628586 0.2806435 0.020429313 -0.2160804 -0.01010826 -0.1454183 0.0053200945 0.19167024 -0.17222664 -0.22672531 0.1501375 0.05399139 -0.33865827 0.3273549 0.28215367 0.043822806 0.42913064 0.3395572 0.44917396 0.31056914 -0.21737818 -0.12428971 
doc_19 -0.130703 0.041517016 -0.094797514 -0.1479197 0.0139247365 -0.1203743 0.096384 -0.22091958 -0.09597138 -0.21166149 -0.022230372 -0.16370277 0.16756795 -0.07226725 -0.031034615 0.2011345 0.059978053 0.053665414 0.046864975 -0.12537284 -0.07828364 -0.10450959 0.13058412 0.14191602 -0.11577682 -0.11240043 0.12130806 -0.076909736 -0.06459699 -0.034420095 -0.16878308 -0.06838991 -0.084798306 -0.07230286 -0.12420061 -0.10277457 -0.07266567 -0.028671524 -0.17640649 -0.21281098 -0.16244373 -0.059744988 0.15697451 -0.1202226 0.18577176 0.11403672 0.07623371 0.09056677 -0.021475181 -0.091301054 0.096497536 0.09013062 -0.12109549 -0.03174073 -0.085519776 0.039386954 -0.16632439 -0.06544818 0.18907082 -0.054860484 0.20160434 -0.12533943 0.15825768 -0.081125565 -0.20598799 -0.0548894 0.11276488 0.12869926 -0.19198312 -0.12636888 0.07116181 0.021692228 0.07689214 -0.03294922 -0.010583873 0.113997184 -0.17602661 -0.22078305 0.1559721 -0.08119389 -0.15813695 0.09017458 -0.026774675 0.112952866 0.10833168 0.09596048 -0.004553801 0.13714385 0.0884891 0.08375408 -0.099980704 0.12474078 0.12322103 0.060035292 0.057403088 -0.09377853 0.118778534 -0.10169049 0.025196066 0.17389861 
doc_20 0.11637297 0.055385496 -0.18430324 0.22285904 0.30128616 -0.122673914 -0.23127778 0.19938606 0.14210989 -0.2536227 0.22356595 0.16980776 -0.29822114 0.26329046 -0.19113588 0.26217437 -0.24876651 0.273608 0.072827905 -0.25351122 0.3572257 0.24787912 -0.29398474 -0.20482948 -0.18401645 0.19056687 0.12314256 0.23993507 -0.22896644 -0.11386231 0.20578073 0.17875724 0.19373387 0.25311333 -0.25609002 -0.2517035 -0.20680411 -0.17807524 -0.21680593 -0.25077394 -0.2490609 -0.24642992 -0.2093071 -0.28440145 0.013883564 0.12735593 0.13526778 0.22078799 0.32622537 0.20211178 0.15012151 0.32896152 0.18257795 0.20611106 0.19791995 0.14492841 0.16281624 -0.33380815 0.12202625 0.30322662 0.18718512 -0.19914691 -0.11897045 0.23829018 0.16584438 0.13223821 0.20551501 -0.21540901 -0.2320051 0.1215547 0.2314874 0.1499187 0.12061445 -0.27431902 0.26819268 0.24185126 0.20237611 -0.2850777 0.24528782 0.24961556 0.21001373 -0.27495053 0.20459336 0.19071943 -0.12145255 0.35064396 -0.14492068 -0.25337538 0.33165863 -0.050737772 -0.19807579 0.09859687 0.13143979 -0.20638649 -0.07594541 -0.29041034 -0.3111652 -0.35983968 0.15050527 -0.22829248 
doc_21 -0.14389083 0.2359455 0.16349715 0.13114488 0.22957331 0.2529863 0.117639385 -0.08083376 -0.058786362 -0.13773465 0.19379914 -0.010930082 0.13355245 -0.17452548 0.16547212 0.2548891 0.110776715 -0.053081945 -0.0676171 -0.06815594 0.19259824 0.17271413 0.13673168 0.2959914 0.05092677 -0.014728921 0.05865194 -0.037178755 -0.275569 0.037306376 -0.12885262 0.104534745 -0.123148985 -0.21134302 0.05759905 0.23603196 0.13947797 -0.057943873 -0.20063071 0.17709412 0.15321104 0.062342968 -0.14426787 -0.2190432 0.095954165 -0.28216544 -0.18530783 0.06347101 0.05447424 0.05128612 -0.1487614 -0.1730655 -0.21245569 -0.15478085 0.24738434 -0.1705198 0.048921943 -0.17223176 -0.15942022 -0.300993 -0.10436788 -0.05605418 -0.027949305 0.25662932 -0.3061146 0.06060457 0.2515544 -0.14939775 -0.12692194 -0.24537265 0.04736188 -0.2550047 -0.16742614 0.07025303 -0.2555391 -0.08979105 0.14322038 0.053669963 0.27728704 -0.11507812 0.08147345 0.22918434 0.20347537 0.14116023 -0.25295767 0.24566892 0.22341244 -0.034019403 0.03357124 -0.092095 -0.15185906 -0.120231695 0.18755184 -0.25321093 -0.23987418 0.10529677 0.104886346 -0.28326285 0.11378654 -0.11710017 
doc_22 0.11600408 -0.103249356 0.097355366 -0.120109275 -0.25378186 -0.07723546 0.033811156 0.08580279 0.038228877 -0.2489115 -0.15157032 0.22947796 -0.014715196 -0.17153023 -0.21811792 -0.15791246 0.010530283 0.12416482 -0.07494935 -0.10127086 0.09332053 0.13564065 0.006553888 -0.23427393 -0.060098935 0.14106046 0.24329193 0.009592256 -0.2226022 -0.14737585 0.100210644 -0.2518027 0.064832404 -0.12473143 0.006611525 0.095341854 -0.17311695 0.16782314 -0.2210134 -0.049890183 0.18249121 -0.021944664 -0.16689678 -0.2387196 0.1086348 -0.079815485 -0.16511019 0.0773999 -0.041349437 -0.17054647 -0.039907895 -0.101280354 -0.17610852 -0.18862493 -0.05168227 -0.21008039 0.020265048 -0.18995756 -0.22470665 -0.19542031 -0.065756716 0.007540841 -0.18571737 -0.055132836 0.2579662 0.13622157 0.0091448715 -0.1902239 0.028752752 -0.21825401 -0.2401598 0.17473617 0.016862419 -0.20637663 -0.10569963 0.17292097 0.17509781 0.14708386 -0.15855992 -0.16814153 0.08990741 -0.117111675 -0.22394991 0.16118789 -0.21047035 -0.22979586 0.1456361 0.032112405 0.21277086 -0.16181909 0.11616164 -0.13556884 -0.22445132 0.24889332 -0.08400992 0.036067735 -0.15748164 0.08290761 -0.08876203 -0.14163402 
doc_23 -0.26991478 0.3508451 0.3229174 0.2696426 0.36347505 -0.17247395 -0.20017922 -0.32666746 0.22076347 -0.35788244 0.3365735 -0.32615367 0.31858402 0.33395255 0.29306364 -0.32638782 0.013734764 -0.1812574 0.37311724 -0.3744017 0.35281783 0.18194 -0.29749414 0.3312914 0.33241105 0.2974698 0.35505015 0.34993196 0.115275346 0.29518622 -0.24467531 -0.28554112 0.27761552 -0.30823344 0.3585321 -0.33762723 -0.1557951 0.32961664 0.16324489 -0.20130304 -0.40792772 -0.40702754 -0.38224807 -0.21812554 0.31242234 -0.37297484 -0.30659944 0.26992148 -0.36845914 0.31657544 -0.20457205 0.23580888 -0.3215183 -0.2940674 0.37191832 0.36347395 0.20637949 0.31739265 -0.29985458 -0.3577546 -0.30220115 -0.28199536 -0.022248365 0.3597276 -0.19466315 -0.06262476 -0.3483122 0.22695416 -0.30688986 -0.29272735 -0.32555366 -0.15463682 -0.37186116 0.304034 -0.32848072 -0.29997915 -0.29271454 0.34003475 0.30922487 -0.32473716 -0.40754429 -0.29169855 0.3464151 -0.3313967 0.3040831 -0.29835945 -0.36222348 0.26467675 0.4200395 0.3361724 -0.39033437 0.23429649 0.29778722 0.1784328 0.39455056 -0.35790873 -0.3816225 -0.3679315 0.2692742 -0.29476568 
doc_24 -0.16926722 0.111013874 0.21598457 0.06973291 0.13783121 0.075269215 0.10526704 0.100837134 -0.09314153 0.23554917 -0.07845936 0.23588215 -0.053631574 -0.036435638 0.15205765 -0.100839525 0.19646063 -0.09975341 0.12272798 -0.15189674 0.19380103 0.21558243 0.15893571 -0.1678613 -0.15889303 0.0931593 0.14717454 0.21973634 0.09949888 -0.057755623 0.10698986 0.20670274 -0.09014942 -0.1906214 -0.12697126 0.08562023 0.11732314 0.21485582 -0.16825283 -0.11256268 -0.1083719 -0.19523044 -0.163021 0.079670355 -0.24537018 0.1232571 -0.06369022 -0.095112115 -0.21520613 0.13391286 0.105022945 0.14505826 0.07490784 0.20884673 -0.19804484 -0.16387285 0.021859676 0.18061242 0.1811237 0.041160274 -0.14533518 0.009686604 -0.14187181 -0.058436625 0.040953036 -0.13407117 0.13919245 -0.1424368 0.057132594 -0.02313327 -0.15687707 0.10202339 -0.24419215 -0.22056125 0.016956579 0.23615263 0.05156856 -0.20816861 -0.20852478 -0.14061359 -0.1492744 0.093337394 0.24638817 -0.09570508 -0.23017149 0.066263445 0.017893286 -0.09090706 -0.109284826 0.062692605 0.090026855 0.20416501 -0.13204502 -0.120435104 0.005935929 -0.13146096 0.18657202 -0.17997682 -0.107225776 -0.11769867 
doc_25 -0.09827736 -0.20797132 0.23048067 0.16152464 -0.17200539 0.16150497 0.1884888 -0.22582297 -0.14698689 -0.18613347 -0.043932803 0.15215589 0.1778793 -0.14667772 0.1776227 -0.15990736 0.06214188 -0.10486656 0.130507 -0.15114966 -0.092785284 0.19108164 -0.19551505 0.24846879 -0.22648014 0.1424429 0.27073774 0.24726377 -0.22897749 0.06716865 0.19817832 0.13212371 -0.04109654 -0.1161644 -0.18829654 0.12771536 0.11284846 -0.19184476 -0.0958964 -0.106970884 -0.005433939 -0.26001352 -0.13234536 -0.21046963 0.13041672 0.18952413 -0.04190784 -0.035875484 0.1999653 -0.14810614 0.14962582 0.2016243 0.20116435 0.041302495 0.21832742 -0.16299948 0.18719202 0.2053194 -0.1388666 0.19041622 -0.16642849 -0.120892115 -0.0725086 -0.086724415 0.16922916 0.08576775 -0.15698987 0.17814265 0.21228895 0.19978759 0.23866853 -0.15538268 -0.17043032 0.21919377 0.15615834 -0.13797148 -0.24838163 0.21115313 0.20679402 -0.14049233 0.1853719 -0.20574562 0.11749479 0.06024897 -0.12925518 0.18297188 0.17363706 -0.16572657 0.29052243 0.07894054 0.18648966 -0.011747689 0.20540759 -0.21035768 -0.11834843 -0.14881553 -0.078612715 -0.13361156 -0.20666939 -0.03523489 
doc_26 -0.20820262 -0.22556187 0.0102007035 -0.0035750603 -0.20978849 0.18274677 -0.06201865 -0.18997195 -0.19291204 -0.24987689 -0.20078692 -0.23828313 0.19327472 0.16116482 0.17300512 0.27095464 0.17094998 -0.20069712 -0.22254759 0.29406017 0.18512627 -0.180367 0.14205368 -0.26367882 0.21301493 -0.20074315 0.2860285 0.1324428 -0.13029748 -0.26942635 0.19423676 -0.27166444 -0.18023022 0.22110166 0.19596948 -0.08085946 -0.26748726 -0.21677898 -0.17792776 -0.21557961 -0.21180074 0.21669307 0.22010946 -0.29327908 -0.24764898 -0.15631947 -0.16648345 0.20347132 -0.1775229 0.19761759 -0.2221016 0.27807957 0.15140852 0.12807152 -0.22675808 0.2679998 -0.13794501 0.27458778 -0.21876864 -0.28290975 0.24556963 -0.20121327 0.1475443 -0.1762838 0.14810021 0.03998213 0.33113676 0.30531642 -0.13046621 0.14742899 -0.26497564 0.2218846 -0.1631892 0.20702411 -0.25098246 0.16735214 0.16996385 0.20792498 -0.14394522 -0.043156713 0.18620165 0.25824583 -0.18676126 0.210942 0.17514993 -0.19996762 -0.1412568 -0.21836074 -0.1968348 0.10876384 0.20448259 0.27658916 -0.19691736 -0.18191358 0.09992725 -0.2415509 0.29520893 0.26623103 -0.20077829 -0.19059399 
doc_27 -0.33160046 0.3929931 -0.38758174 -0.33750227 0.41605997 0.27662346 0.087710746 -0.37144402 -0.39184448 -0.36070308 0.32547346 -0.38901916 0.37762627 -0.13450693 -0.34961364 0.3746784 -0.38384655 0.37343648 -0.43017936 -0.30003768 -0.38575155 -0.34978122 0.36550364 0.3443317 -0.30568805 -0.37721875 0.3618868 -0.435233 0.39606312 0.36602256 -0.30521503 0.38625568 -0.3660963 -0.33054683 -0.36790198 -0.40042037 -0.25234157 0.17115925 -0.2829463 -0.40909192 -0.30935124 0.37506315 -0.30824658 -0.29165438 0.27681637 0.42119518 0.3510747 -0.20527029 -0.35066193 -0.3162341 0.27676207 0.4026326 -0.39010555 0.35316753 -0.21143165 -0.49062663 -0.40260142 -0.43471405 0.36695182 0.47779122 0.31006935 -0.28962192 0.29106268 -0.36516657 -0.38424388 -0.19564553 0.27670312 0.2759255 -0.34804425 -0.37518293 0.4260838 -0.35176024 -0.3783498 -0.29904538 -0.37111607 0.40483376 -0.31801337 -0.42132115 0.27405328 -0.039021146 -0.253571 -0.45515686 0.422497 0.3304117 0.28742585 0.3984627 0.34191856 0.33179042 0.17861524 0.368635 -0.34892413 0.2610425 -0.4465018 0.20652694 0.4159865 -0.41823676 0.33912808 -0.38402972 0.3942396 0.3145582 
doc_28 -0.07441984 -0.2839068 -0.23321286 -0.35678536 0.34110966 -0.35908 -0.3824447 0.12372394 0.09392194 0.048408262 0.2954578 -0.31049696 0.04384874 -0.13813356 0.27881488 -0.062256962 -0.28816408 -0.27557957 -0.2542717 -0.304292 -0.1608146 0.37717274 -0.25400123 0.14421271 0.3337584 0.22831658 0.29537648 0.36679804 -0.25099814 0.22940592 -0.2940564 0.2781675 0.16520616 -0.2072851 0.37881252 0.2536118 -0.07020951 0.29577234 0.093904674 -0.26254496 0.19989066 0.19598408 -0.21102193 0.24431446 -0.09536004 0.2390651 0.04012429 0.28923097 0.16981748 -0.27736083 -0.29261848 -0.2588687 -0.34382182 -0.18262939 -0.3739226 -0.28896 -0.097154096 -0.297765 -0.2659167 -0.3212231 -0.13289273 0.1996486 0.35120663 0.2978771 -0.3744565 -0.34580627 0.17096864 0.2654802 -0.07562414 -0.3587988 -0.33025625 0.26652092 -0.2426842 -0.027385859 -0.24176106 0.22308362 -0.36527273 0.24724576 0.36411762 -0.07133283 -0.36895266 0.34200677 -0.3313275 0.3351199 -0.3138679 0.24182801 -0.221577 -0.27003232 -0.22497281 -0.08968728 0.1148822 -0.26496884 -0.29794827 0.32367468 0.1764008 -0.13876055 -0.26259464 -0.3401122 -0.008165173 -0.17536986 
doc_29 0.42185128 0.42483065 0.31247154 -0.027825898 0.40315318 0.36387286 -0.14043227 -0.15344588 0.35869133 -0.43145415 0.2781469 -0.44346258 -0.15794683 -0.3856936 0.410693 0.2575837 0.37110233 0.16804323 -0.18547516 0.32685146 0.31893262 0.3223747 -0.4176441 -0.43453112 0.29664728 -0.24925366 -0.45443398 0.25279328 -0.19299309 -0.2777585 0.44259122 0.06168515 -0.42801675 0.25688863 0.0108761955 0.43007556 0.18610835 0.32013318 0.45969015 0.3757003 0.35908568 -0.28849754 0.25492734 -0.46785578 0.40079787 -0.45749602 0.4254037 0.46764687 0.48535237 -0.32622612 -0.38788497 0.38455877 0.4051089 0.43340468 0.43420288 0.41896787 -0.3145235 -0.41947812 0.32002804 0.4221078 -0.15680864 -0.41735885 0.51301175 0.1321203 0.38097167 0.41739446 0.39104247 -0.45016137 -0.3212676 0.42900226 -0.38425678 0.4729089 0.28486958 0.08083964 -0.4535446 0.35852352 -0.35703897 -0.2591031 0.4224927 0.3761144 -0.27052963 -0.31999296 -0.5178515 0.38491917 -0.078185365 -0.5625227 -0.4855281 0.46067488 0.314493 -0.31772307 0.3055466 0.27601022 0.42848852 0.18129683 0.24993652 0.41287392 0.43777385 -0.5139931 -0.42685792 0.41822174 
doc_30 0.0060551404 0.2862573 0.345982 0.2290812 0.3771991 -0.34663138 0.34906456 -0.3383495 -0.38164964 0.40836704 -0.22655806 -0.2496839 0.36262035 0.17845829 -0.36240616 0.33716255 -0.27896926 -0.28581402 0.22215103 0.07293333 -0.42659944 0.30652413 0.3088601 -0.37125042 -0.3478852 0.2010486 -0.3508624 0.32280204 0.34160537 -0.2842774 -0.37443787 0.35668 0.3708257 -0.24561611 0.3295672 -0.3760365 0.01692096 0.18325116 0.3585534 -0.40614438 0.18773043 0.45006415 -0.3418292 0.40110907 -0.18339461 -0.35844645 0.022522196 -0.30637285 0.3758195 0.30147278 0.3501699 0.29234162 0.33396593 -0.26015753 -0.42237023 0.2446733 -0.28886005 0.33962408 0.27692544 -0.35173246 0.25867718 -0.36296865 0.25634217 -0.42264745 -0.31507087 -0.3711235 0.30260423 0.36258882 -0.32913613 0.37558758 0.36318237 -0.114875786 0.26552355 0.31045714 -0.38356525 0.31334364 -0.2598304 0.13286172 -0.26895353 0.07964105 -0.10176563 -0.33506662 -0.34964204 0.39904177 -0.31713 -0.36802676 0.2487468 -0.4016028 0.29733756 0.3495582 -0.19724521 -0.32728156 -0.374815 0.18134308 0.3353159 0.2857227 -0.36939812 0.39923993 0.069061674 0.30777746 
doc_31 0.06736043 0.3058532 0.38397697 -0.25526693 -0.34640652 0.13670748 0.34246838 -0.25757113 0.3075669 0.37900952 0.37192705 0.2567785 -0.112979345 0.14452301 -0.28940523 0.19034927 -0.31472933 -0.31287995 -0.29191208 0.22946219 -0.45168427 0.18207854 0.43679255 0.46762675 0.32500482 -0.3774255 0.3191194 -0.41006905 -0.3966374 0.02085794 0.34217244 -0.033307277 0.39514643 0.14746293 0.32489654 -0.30843824 -0.34652764 0.08063164 0.34520304 0.2662631 0.31783393 -0.27283296 -0.32790706 -0.43530446 -0.3083913 0.47051227 -0.28717655 0.43226227 -0.2860865 -0.3669865 -0.37247542 0.30898356 0.33873838 -0.37513188 0.37493023 -0.31352088 -0.17400293 0.48075804 0.210541 -0.3516125 0.15856954 0.29981762 -0.34118778 0.4074911 -0.2665917 -0.2272639 0.31197935 0.21663699 0.08261102 0.29434586 -0.19114438 0.33587217 0.3357829 -0.26084208 -0.25897124 0.28070834 0.06410179 -0.32102075 0.3979398 0.008814087 -0.25046048 0.33128572 -0.33999863 -0.47649577 -0.32675314 0.4128085 0.37419048 -0.30053276 -0.371663 -0.40795287 -0.39286974 0.11302845 -0.43790042 -0.37111098 -0.3285079 0.34007928 0.31217092 -0.40504616 0.29254937 0.19979973 
doc_32 -0.39253595 0.41454145 -0.24004366 -0.16918802 -0.45168728 0.3298722 -0.38575155 0.3579049 0.22821283 0.40161365 0.38080534 0.41629827 0.27902642 -0.38236392 -0.14390948 0.23232555 0.19458318 0.3270837 -0.39822534 0.29776344 0.3118717 -0.35497046 -0.48047808 -0.44074214 -0.36494258 -0.38369876 0.24448082 -0.4494756 -0.34913898 0.33954993 -0.38037947 0.1530396 -0.4057188 0.24664527 -0.1916095 -0.24127015 -0.28308156 0.2893452 0.41497424 0.31271517 0.49871978 -0.3630897 0.3634659 -0.2578583 0.2782008 0.44843188 0.3531225 -0.1649121 0.39488003 -0.09711832 -0.30575633 0.3008931 -0.4167567 -0.38475764 0.3671369 0.3142703 -0.3700389 -0.33541048 0.17139381 0.38102227 0.30938476 0.27570304 0.34179598 0.26465297 -0.25911826 -0.3035292 -0.12642817 0.46323198 -0.37629098 -0.42201272 -0.42595097 -0.38006344 -0.011545705 -0.31745872 -0.32112104 -0.40485927 0.3798421 0.41714683 0.31389582 0.39212137 -0.05248305 0.41586307 -0.4278191 0.39742738 0.38126624 0.4151346 0.2936217 -0.44523063 0.439172 -0.045248274 -0.3358287 0.40560305 0.36754915 0.3020328 0.3681603 0.44822657 0.4063271 -0.40915394 0.31378752 0.42091554 
doc_33 0.38563067 -0.37915152 -0.4043473 -0.32778794 0.3446779 -0.30895534 0.2605585 -0.1804329 -0.4259722 0.49682423 0.3243726 0.36903277 -0.20019327 0.31772518 -0.25729656 0.41607878 0.51444995 0.42258838 0.35642338 0.3067814 0.2850772 0.32211837 -0.5434714 -0.53459144 0.12208497 0.519599 -0.44681248 -0.5200576 0.056684155 0.38974097 -0.30789024 -0.3522674 -0.30211905 0.3006888 0.4040982 0.49243018 -0.3747691 0.11367805 0.31844586 0.33714363 0.4405322 -0.39746955 -0.28550863 -0.36530668 -0.1415133 0.517997 -0.3770749 0.5347052 0.30621102 -0.24246484 -0.36361435 -0.45828483 0.5127292 0.49202582 0.2741426 0.47278965 0.40577352 -0.5506567 0.08577998 0.45688036 0.15397628 0.36805484 0.03933861 0.4013417 -0.2220468 -0.27967554 0.30583048 -0.49817148 -0.3982123 -0.33010226 -0.22039214 -0.45382556 0.37953672 -0.1415923 -0.36850807 -0.4789166 -0.31675398 -0.24093391 0.4109834 0.33142272 -0.27452788 -0.4630592 -0.36123297 0.45368904 -0.22009785 0.44457373 -0.46511674 0.32787567 -0.5001835 -0.2527499 0.13260394 0.25087437 -0.44382605 0.31621584 0.08744863 0.3497561 -0.05182697 0.51043063 -0.5225503 -0.50844264 
doc_34 0.27057788 -0.20134963 -0.35185155 -0.097312964 0.35048836 0.12754153 0.24017541 0.08104122 -0.33928335 -0.3519637 0.30321074 0.3569127 0.23586544 -0.06244489 -0.025934357 -0.15523756 -0.30520597 0.3010057 0.13154826 0.36061043 0.27058858 0.10769427 0.27960268 -0.32430488 -0.2612692 -0.34514195 0.20984785 0.31999865 0.2956345 0.2893869 -0.20041697 0.13661163 -0.06118362 0.30761406 -0.2807684 0.2933139 0.24234243 0.33248115 -0.25023642 0.15008125 -0.171412 0.26977584 0.31282577 0.28435704 -0.29808292 0.21358934 0.29631788 0.29761887 -0.24210933 -0.1607659 -0.2675937 -0.2670857 0.11886048 0.28187108 -0.255246 0.14203757 0.2120556 -0.3429748 0.33562115 0.31933892 0.15973988 -0.2544188 0.1359502 0.3625449 0.1615058 -0.2263084 -0.25026584 -0.1563042 0.1507708 -0.31291282 -0.33629194 -0.23249763 0.37968716 0.24747346 0.33063373 -0.21811424 -0.25093135 -0.3267071 -0.28344235 0.32154447 0.22850972 0.269612 0.3848667 0.34491637 0.26400426 -0.26893005 0.27566004 0.19877057 -0.26567924 -0.20388691 -0.27269346 0.21923222 -0.28296462 -0.24421665 0.3559033 -0.38956693 -0.29370916 0.31733447 -0.24395305 0.29070628 
doc_35 0.29262742 0.2797171 0.17387271 -0.01094583 0.3611386 0.12864965 0.0061022146 -0.3644037 -0.13839056 0.17998374 -0.21897803 0.32686096 -0.17827271 -0.043265145 -0.2626297 0.25728267 -0.24978924 0.2940389 -0.1841986 0.2227146 0.318395 0.34211454 0.13321465 0.3101794 0.30308232 -0.31426752 0.25119787 -0.048833344 0.048221868 0.12029864 0.14902487 -0.17387275 0.20354404 0.02348614 0.35517183 -0.34018028 -0.16761014 -0.17561394 0.3251386 -0.11944273 -0.30121037 0.25481603 0.2136869 -0.03176327 0.14537993 -0.2425597 -0.13158941 0.2842743 0.21017715 -0.18146405 0.09884457 0.3758391 0.14459358 0.21434774 0.3281627 0.30335587 0.025891686 0.28516516 -0.25825343 0.02912276 -0.1365275 0.19092613 -0.19943152 0.23101857 0.14541622 0.13378648 -0.12314647 0.1603188 -0.19178027 -0.008197713 -0.23386087 -0.33346 0.18792918 -0.34054872 -0.22625561 0.09660537 -0.30968237 -0.009961037 -0.18783814 -0.13771683 -0.29347196 0.32469067 -0.28974068 -0.2410638 0.041664723 0.24439411 0.14965998 0.17511986 0.29914555 0.024750307 0.20367935 -0.16768946 0.30489913 0.19696929 -0.22706908 -0.16412906 0.33602768 -0.26976606 -0.20882474 -0.17612883 
doc_36 0.14310654 0.32112515 -0.27554682 -0.28029472 0.06865409 -0.031808253 -0.30796054 -0.06517417 -0.51946616 0.5170334 0.33635506 0.3823854 -0.25740486 0.24431148 -0.27287862 0.23740952 -0.29841757 0.32238042 0.35174882 0.2430315 0.41933396 -0.53634626 0.31594983 -0.5170774 0.31366417 -0.2574868 0.3236363 0.3239357 0.48977432 -0.29984993 -0.33037442 0.40368986 0.49936023 0.25654393 -0.5540179 -0.18086238 -0.20397654 0.27898625 0.35714617 0.25568712 -0.36430246 -0.31279507 0.35273284 -0.28247166 -0.34806192 -0.42620614 0.2953015 -0.2917671 0.59890646 -0.27563164 0.37273428 0.19103572 -0.38458222 0.06166538 0.13021775 -0.49222052 -0.26898986 -0.4554734 0.15430325 0.45632714 0.4020583 0.3398125 0.33990973 0.28325468 -0.31995907 -0.2528094 0.27874377 0.09008224 -0.22512862 0.5738072 0.02464589 -0.23630026 0.18883063 -0.31778297 -0.38402942 0.33020258 -0.3492743 -0.26955947 -0.48667264 0.2289189 -0.17719725 0.4375176 0.52272755 0.42104167 -0.35160324 0.43971068 0.112485394 -0.53278375 -0.56402844 -0.25442708 0.48670304 0.13308656 0.41723025 0.15061976 -0.5767878 -0.52700347 0.26638287 0.46095794 0.20755066 0.24447861 
doc_37 0.22240071 0.23789023 0.11708556 -0.18477747 0.03844801 -0.28832048 -0.1739515 0.17718676 0.16818395 0.26483628 -0.14270493 -0.23906708 -0.22042257 0.2602056 0.03503733 0.25293368 0.23903544 0.21965687 -0.12300944 -0.123669654 0.3058419 0.08871823 -0.20964439 0.2348959 0.15287736 0.2139959 -0.18117107 0.25300726 -0.3112139 -0.10781722 0.067200325 -0.12589829 -0.28736347 0.13193683 -0.16246337 -0.24613807 -0.12048695 0.21184881 -0.29023063 0.27254266 -0.16004999 -0.2937932 0.29033747 -0.2464925 -0.30913785 0.15478979 -0.07679946 0.1205403 -0.065150924 -0.06120491 -0.26767978 0.3417536 0.097158745 -0.28122923 -0.20135449 0.2041654 -0.20960549 0.123992816 -0.09220676 0.26354507 0.25862518 0.24174814 -0.13916914 -0.18329385 0.122371465 -0.34524053 -0.21119817 -0.111724116 0.21083221 -0.29982576 0.15787342 0.06614291 0.27462867 0.079212755 -0.19821444 0.24183464 -0.10658141 -0.18468267 -0.18568552 -0.03446894 -0.10600334 -0.074648984 -0.33224428 0.1550122 0.20710142 -0.17942655 -0.19725253 -0.3028903 0.30367815 0.15942948 0.23675743 0.31937197 -0.193872 0.3005762 -0.23266283 -0.1195308 -0.10264973 -0.28126252 0.2061209 0.2876638 
doc_38 -0.26800448 0.25102475 0.27000943 -0.33809185 0.33906978 -0.21006428 -0.3591644 0.21515384 0.026713613 -0.3412733 -0.23033887 0.22559069 -0.3558974 0.29422176 0.2346412 -0.09171227 -0.11764818 -0.23308392 -0.2672679 -0.2347429 -0.3335706 -0.23751912 0.34964445 -0.27997887 0.33798128 -0.33300474 -0.23273188 -0.23983535 -0.34842703 0.22673301 -0.23977089 -0.061494645 0.2976731 0.313004 0.30971593 -0.32934472 0.17181805 0.17048465 -0.24165718 -0.25012755 0.23267472 -0.2806194 -0.26220196 -0.25949767 -0.18962163 -0.28628483 0.27735803 0.035726376 0.23743594 0.0065471 0.23159067 0.16776149 -0.27504364 0.24728769 0.30088013 0.15573363 0.20315778 0.35987648 0.08239312 0.31627616 0.24464688 0.2159681 -0.20732577 0.25867525 -0.3461571 -0.23109326 -0.17001213 0.3459015 0.1953373 0.19898492 0.28293493 -0.26427537 0.367833 0.28034723 -0.3397695 -0.30091706 0.22545084 -0.117275536 0.13997573 -0.23540244 -0.2192748 0.32720706 -0.3654002 0.2697805 -0.33454555 -0.12979218 0.26572305 0.2513349 0.3110038 0.2532397 0.17956866 0.35037395 0.34455603 0.31762555 0.08193495 0.32576835 0.3790336 0.3041847 0.3655777 -0.23735698 
doc_39 -0.10002748 -0.04974842 -0.17369194 0.06383896 -0.14771593 -0.16699073 -0.09651488 -0.18927908 -0.11373726 -0.089625284 0.18100893 0.2166767 0.030119361 -0.078246385 -0.15302657 -0.0864943 0.093458846 -0.13269529 0.17704305 0.12467855 -0.12967695 -0.11000134 -0.005205602 0.08608633 -0.08871006 0.10357381 0.078847095 -0.040654194 0.095185414 0.095426135 -0.18200856 0.049591456 0.09657763 -0.12298251 0.1701072 -0.17130299 0.05360822 -0.05995559 -0.11829701 0.06398061 0.073503256 0.061026964 -0.13074206 0.024134502 -0.13014862 0.1436506 0.0584721 -0.14174129 -0.010758948 -0.16842681 -0.1672342 0.10812313 -0.15362222 -0.050989557 -0.14499536 -0.036602035 -0.043421358 -0.0660866 -0.00465803 -0.12601097 -0.12083619 0.06504773 -0.1635426 -0.07757517 0.036714975 0.045714956 0.10971003 0.031529598 0.091683224 -0.16318695 -0.14198317 -0.21850541 0.110615626 -0.1459868 0.13138737 0.014242889 -0.015600199 -0.020212838 0.12300929 -0.035584442 -0.027990762 -0.15745339 0.12043043 0.08344341 0.12062085 -0.116522044 -0.008290762 0.12400962 -0.109913215 0.02475176 0.02889598 -0.013217874 0.15992768 0.13459273 -0.10171737 0.12074541 -0.089704186 0.10289942 -0.13937896 -0.03871178 
doc_40 0.3806072 0.1421258 -0.33870342 0.13337827 -0.32541215 0.22230434 -0.2193244 0.17716196 -0.21738915 -0.16431732 0.29179984 -0.26638892 -0.33100635 0.32226256 -0.33451173 0.36198044 -0.32232156 -0.122621894 0.1963829 -0.20143776 0.3730104 -0.17777073 0.28876337 -0.31101218 0.31480792 0.2854314 -0.20191652 -0.24078946 -0.036021736 0.08891658 0.17905787 -0.34697625 0.20705898 -0.19991837 0.3476197 0.2765814 0.2182577 0.28804758 0.3108755 -0.21680582 -0.3314034 -0.3148565 0.37911484 -0.21850777 0.0093123885 -0.3523679 0.30412784 -0.32907337 0.28602067 -0.06036875 -0.39142722 0.31199786 0.2793788 -0.34169847 0.04914657 0.33704388 0.20737329 0.29506382 0.16908222 0.33687633 -0.24949498 0.34609327 -0.29988426 -0.25712544 -0.26808402 -0.25612527 -0.099631704 -0.20548403 -0.29231188 0.23766221 -0.0556469 -0.35067466 -0.29901105 -0.32038084 -0.30261487 0.3741731 -0.2503388 -0.2580488 0.35903025 -0.1895086 0.24569407 0.3374101 -0.352303 0.3480773 0.32712582 -0.35184824 0.21491864 0.051230107 0.32698783 0.1880764 -0.33992463 -0.23459908 -0.16620441 -0.24528152 0.3258033 0.35877848 -0.32232726 0.18996942 -0.18046005 0.35470393 
doc_41 0.31693196 -0.50789034 -0.20604569 -0.1414049 0.24355868 0.53897905 -0.35241097 -0.42753688 0.27583754 0.45005766 -0.07385422 -0.5594137 0.5291814 -0.30162662 0.074159 0.3674074 -0.2987806 -0.5374493 0.41594613 0.31536 0.33440748 0.39231753 0.17844842 0.44335607 0.3140984 -0.14467756 0.2853625 0.2894391 -0.075139314 0.49631906 -0.4113777 -0.23395161 0.513237 0.38384143 -0.5371509 -0.30971676 -0.26799873 0.41650695 0.4444608 0.3456885 0.56730604 -0.36216936 0.36819574 0.3361117 -0.290251 -0.3657589 0.35779265 0.48177212 -0.17973015 -0.27894127 -0.3212618 0.3585523 0.5000001 -0.29174468 0.34130374 0.42911124 -0.20708753 -0.3935624 0.22219095 -0.54527444 -0.51035655 0.22236511 0.38393486 -0.5702942 -0.3315328 0.30116072 -0.48214552 0.25338385 -0.2807158 -0.4048189 -0.40952012 0.5064594 0.31846476 -0.26595286 0.51221794 0.44223556 -0.28203768 -0.28834176 -0.5350018 -0.48986962 0.0037944193 -0.4861777 0.5041799 -0.39704087 0.4917968 0.47888786 -0.24697396 0.39650756 -0.3975604 0.5209117 -0.25163808 0.34859553 -0.5521782 0.37009677 0.4010379 0.4819055 0.29655784 0.50046265 -0.48217806 0.40013736 
doc_42 0.26699284 0.29337776 0.17868795 -0.21675798 0.017128842 -0.30540055 -0.23344918 -0.0755331 0.3282241 -0.28845993 -0.09753725 0.32252526 -0.21030587 -0.20411204 -0.28839475 -0.06694372 0.18717656 0.10468078 -0.14468911 0.29110727 0.13950366 -0.024972552 -0.1788222 -0.25185618 0.25630412 0.250849 0.16220975 -0.23087336 0.07551511 0.14001761 -0.18148306 0.03965484 -0.34611532 -0.22194567 -0.17465529 -0.09002244 -0.31956503 -0.016643511 0.27002925 0.26822236 0.18606798 0.27674556 0.16904846 0.24005927 -0.28061813 -0.052961204 0.2625679 -0.30861452 0.22358976 0.12295691 -0.2905281 0.22306393 -0.2340919 -0.023495004 -0.0923567 -0.26845682 0.2168258 -0.13628154 -0.077640004 -0.25100952 0.1504469 -0.23744044 -0.062080838 0.2315282 -0.20727737 0.0818689 -0.23017567 0.24598737 -0.1640401 -0.3088027 0.17381814 -0.15366848 0.35043645 0.21380621 -0.33134162 0.1295437 -0.16234234 0.33041313 -0.2236248 -0.20737073 -0.28727227 0.07327616 -0.14728846 0.20707369 -0.17403601 -0.2539323 -0.12058741 0.25176215 -0.16664843 0.12915535 -0.087030426 -0.16115437 -0.19417885 -0.003543989 0.205853 -0.24561618 0.01335038 0.23799822 0.21263687 -0.10005093 
doc_43 -0.22022124 -0.22308695 -0.18331657 -0.2687607 0.2688125 0.069658 -0.23846003 -0.19407679 -0.17906715 -0.27123994 -0.12670428 -0.14385845 0.16791937 0.17284071 -0.10716069 -0.10673485 0.19959965 -0.19711126 0.24856052 -0.17323212 0.25616375 -0.20489241 0.2283873 -0.25133908 -0.17904486 -0.1920099 0.31215787 -0.12358134 -0.23076142 -0.17613259 0.23067522 0.230176 -0.22734055 -0.17605072 -0.22397493 -0.03242435 0.19253612 -0.2245234 -0.05606312 -0.24400362 0.22390153 0.20978281 -0.2326381 -0.11840652 -0.1885021 0.23532905 0.21134809 -0.26330042 -0.17681362 -0.18686569 0.21833971 -0.19472544 -0.12506486 0.24489664 -0.20435472 0.31578013 0.24690565 -0.22858115 -0.17580895 0.19883582 -0.23209661 -0.1871959 0.16244352 -0.2754328 0.02016309 -0.05833583 -0.2152872 -0.05181324 0.20912933 0.25642624 0.23564099 0.2059915 0.14542659 0.22678141 0.13563077 -0.20503692 -0.28594086 0.23099186 -0.20994873 -0.19352566 -0.06966547 -0.16008049 -0.16077647 -0.25042492 0.26087138 -0.19473967 0.18387353 0.27420527 -0.19764793 -0.25923672 -0.09679451 0.25516903 -0.2671044 -0.19613573 -0.24350089 -0.09540164 -0.27057073 -0.27200827 0.12801799 0.09451431 
doc_44 -0.01581625 0.08077426 -0.0202985 -0.05141046 -0.017272402 -0.02267459 0.009275467 -0.010802327 0.032662574 0.013878299 0.012846297 -0.0037136248 -0.008667909 0.06488619 -0.013075348 0.028585544 0.00041105816 0.048682243 0.057765186 -0.031408347 -0.0006949444 -0.010265905 -0.006600942 -0.03202857 0.019710785 -0.05522944 0.009745011 -0.0038275109 0.03167376 -0.007452016 0.013513911 -0.02906091 -0.01967714 0.000234262 -0.012007307 -0.0077158185 0.03554729 0.05062899 0.028043073 0.051633418 -0.03770224 -0.031715654 0.026497548 -0.010888468 -0.058395106 0.005395207 0.055631034 0.027834052 -0.05372255 -0.049930193 -0.061299715 -0.0029133519 0.02917773 -0.027997872 0.011717324 0.092944 -0.0519658 0.06705249 0.07328845 -0.003484469 0.058400325 -0.026548019 -0.006414066 -0.04630897 -0.0097494675 0.009554822 0.0037040384 -0.029028274 0.013897129 0.01494324 -0.04974216 0.016962187 0.049990974 -0.05373388 0.014162174 0.04369003 -0.022238636 -0.036964294 -0.00042009892 0.04511036 -0.036306966 0.023206647 0.044011764 0.013752722 0.008645636 0.024628572 -0.02799704 -0.016125726 0.06824991 -0.013990252 -0.007102102 0.013323528 0.0119197415 0.0461735 0.0017973756 -0.034327008 0.016194317 0.034106284 0.059086986 -0.0008207584 
doc_45 -0.039625965 0.043474603 0.010410726 0.034215737 -0.029337883 0.025479939 -0.021026123 0.0128453635 -0.018847836 0.001696717 0.030459668 0.02540021 0.038628805 0.031206477 0.01790395 0.010589611 -0.020854032 -0.032371927 -0.03704671 -0.029744804 -0.03597225 0.0005813837 0.025382172 -0.014344573 0.014492322 -0.03349723 0.005600214 -0.045088828 -0.0112831 0.011994887 0.04981268 -0.040354095 0.015004639 -0.011485614 -0.044191767 0.016094733 -0.018499754 -0.038493205 -0.0063351765 0.007970296 0.03528155 0.006451916 -0.027790798 0.026494626 0.00044058636 0.04133879 0.028893653 0.0269179 -0.030905414 0.034599353 0.044522557 -0.03138634 0.04720587 -0.026717652 -0.009492051 0.008022942 0.017342817 -0.0061443336 0.012593675 -0.0350886 -0.033352733 -0.019969715 -0.0027408376 0.0036604293 -0.039183177 0.011191357 -0.01143365 0.014585201 -0.018568587 -0.037794232 -0.0010958426 -0.018825555 0.035506595 -0.041627157 0.002121877 0.028879967 -0.042029522 0.031567764 -0.0060245767 0.031693283 -0.016977154 -0.032925308 0.0038170926 0.00825461 -0.014582407 0.035906147 0.04908525 0.042105626 -0.027609264 -0.005014252 -0.017213345 -0.0075829253 0.040318575 0.030937526 -0.02526468 0.038014736 0.041975882 0.045732964 -0.024366355 0.0024190545 
doc_46 0.3905013 -0.27444708 -0.08103607 -0.36166134 -0.26486987 0.24044982 0.23818406 0.18604 0.27216384 -0.34779245 -0.009825989 0.3389079 -0.31357333 -0.10569766 0.25162268 -0.19417045 0.114972994 0.3515858 -0.2517969 0.38532567 -0.22303346 0.36407867 0.19521658 -0.31397066 -0.01308896 -0.07179147 -0.17140529 -0.21272236 0.19590844 -0.35595545 0.168878 -0.21072452 -0.38315013 0.19746153 0.05766057 -0.33401272 -0.11005588 -0.25056067 0.22495194 0.35663944 0.24239437 0.25614256 -0.14150603 -0.26080835 -0.18821223 -0.18106864 0.26656416 -0.27236286 -0.31250808 -0.14298242 0.17958415 0.23869887 -0.31880686 -0.20562263 -0.22452499 0.2436637 -0.020085258 0.3422282 -0.19858156 0.21298513 0.3052168 -0.19249775 0.34580374 0.2932034 -0.28706527 0.22643572 -0.22117692 0.35957423 -0.27585492 -0.24378519 -0.3101683 0.24587382 -0.25069672 -0.15826623 0.17363715 0.30729845 -0.15467013 -0.36493194 -0.20704402 0.27187404 -0.29232112 0.21658312 -0.26687193 -0.30078152 0.18146576 0.41619515 -0.17322029 0.3549506 0.393302 -0.37860703 -0.28105173 0.3098214 0.21950093 -0.2199436 0.42253092 -0.18578492 -0.22531419 0.26186848 0.30575463 -0.019247834 
doc_47 0.18557794 0.36646998 -0.045042813 -0.38026354 -0.44263747 -0.42159212 -0.2938483 -0.2181211 0.25771922 -0.40667132 0.026491279 0.39351618 -0.4061715 -0.35328022 -0.39040342 0.33013433 -0.4205681 -0.4150379 0.36895743 -0.44229552 0.37358484 -0.4176555 -0.42953086 -0.45449468 0.27576226 -0.20196815 0.39679816 0.36349767 0.44286463 0.38384008 -0.43007642 -0.253543 0.47120234 -0.3790914 0.32412925 -0.32384908 -0.41333058 0.07940814 -0.39784566 0.35002336 -0.34547237 -0.32187018 -0.20345278 -0.28724986 -0.045061868 0.4471705 0.35149696 0.4709872 -0.27640808 -0.3311656 -0.3866894 -0.4376831 -0.2481935 -0.22085993 -0.35910678 -0.11132567 -0.35663322 -0.4060207 0.19702132 -0.36152056 -0.36730048 0.44229734 -0.4041728 0.37351024 -0.33385321 0.39409232 -0.3613097 -0.41052708 0.069989026 0.42769372 -0.32848543 -0.39561737 -0.3543224 -0.33964458 -0.3599612 0.29009664 -0.36166865 0.48057356 0.35222623 -0.3859596 -0.112859875 -0.45353797 0.41578776 -0.4719351 0.39153808 0.46419096 0.33582076 0.38168627 -0.54450554 -0.34776232 -0.13355462 0.24746674 0.35254532 -0.40547973 -0.4201208 0.37700152 0.35443354 -0.31996506 0.29086494 0.3181261 
doc_48 0.098448224 0.24441041 -0.37137964 -0.35245866 0.28550813 -0.058844108 0.28765282 -0.12636642 -0.2249583 -0.44859082 0.32520118 0.3880831 0.30358878 0.3491119 -0.35150802 -0.24105175 -0.3574654 -0.26727304 0.29492444 0.45477638 0.42708844 -0.16845791 0.40393692 0.28092858 0.27311325 -0.39264867 0.24972686 0.41403735 0.29005644 -0.30806825 0.25882328 0.25706777 -0.2728384 -0.29461762 0.09417082 -0.030773073 0.16754235 0.17494534 0.32315493 -0.29924574 0.2888976 0.37424797 -0.121489555 -0.39158458 -0.0034707435 0.27600464 0.32716817 0.35002738 -0.4242587 0.050772574 -0.19428936 -0.2238775 0.1617291 -0.35643378 0.099603094 0.34566623 0.19346668 -0.37927413 -0.116638586 -0.33804584 0.23383875 -0.13916439 -0.19447571 0.27131557 -0.3398448 -0.3577822 0.18716389 -0.20070733 -0.13561566 -0.3585458 -0.39137056 -0.28794035 -0.11316304 0.285664 -0.36546358 0.27421436 0.12549704 -0.41607285 0.28209126 -0.017513933 0.2584818 0.28081742 -0.12541562 0.33400196 -0.2431259 -0.3402671 0.3466984 -0.29633778 0.43034855 -0.24148805 0.23457399 0.18590513 0.45844978 0.21175973 -0.28568456 -0.3497052 -0.08081169 -0.3692425 0.37241492 0.38236862 
doc_49 0.2577935 0.16908696 0.0068434104 -0.11737754 -0.16601162 -0.29034898 -0.25490496 0.16562667 -0.1498385 -0.26133248 -0.11346605 0.18154286 0.16199835 0.13154961 -0.26666513 0.24336502 0.17587836 0.28343642 -0.1785138 0.27883217 0.1796117 -0.17607436 0.16895618 -0.25779906 0.247777 -0.20731328 -0.12178213 0.27078435 0.18547745 -0.14268616 -0.25304636 0.09320861 -0.06659742 0.21625608 0.2882276 -0.2751743 0.15854695 0.24328162 0.29779235 -0.18899018 -0.2431827 0.29537213 0.26771685 -0.1982379 -0.3180542 -0.24597843 0.14116472 -0.24858107 0.04356445 -0.27046773 -0.060704935 -0.2195158 0.09423366 0.18334727 -0.13071154 -0.15111382 -0.27755505 -0.042998344 -0.24395032 0.18325897 0.24802911 0.22742732 -0.20703638 0.22141446 -0.108988434 0.16414286 0.25080425 -0.19544007 -0.30006096 -0.28133857 0.2549958 0.22032762 -0.17760164 -0.2796279 0.30261162 0.31047985 0.19370386 0.011367117 -0.14422497 -0.17687301 0.18669422 -0.12763502 0.2615694 -0.21119827 0.19975683 -0.31447965 -0.15540509 0.22790751 0.3015823 0.18861827 0.14178069 0.16512913 -0.23378932 0.0186912 0.2821764 0.0029035856 0.23453917 -0.10638876 -0.123157956 0.25406054 
doc_50 0.29412097 0.31450582 -0.33874378 -0.34579718 -0.43704638 0.40740392 0.26691276 -0.20701134 0.2490355 -0.39018726 -0.3718292 -0.49679238 0.38852796 0.2556882 -0.03564733 -0.39216435 0.40814075 0.18215099 0.33621654 -0.40340266 -0.41989434 0.31575897 0.39411047 -0.499533 0.31531712 -0.27027547 -0.44315815 -0.44505578 0.24783516 -0.34098142 -0.30098286 0.40009823 -0.0733045 0.3571195 0.40530348 -0.26905832 -0.27095616 0.15125863 -0.41637143 0.3780232 -0.3150576 -0.33818552 0.30779257 -0.33795926 -0.31458494 -0.39947358 -0.42903888 -0.37541363 -0.39617395 0.3882488 0.40728498 0.28404653 -0.31965694 -0.3251572 0.118745 0.359935 0.37613568 0.43190095 0.29143977 -0.41858217 0.31987703 0.35693735 0.36561024 0.09665907 0.40217823 -0.27348122 0.30671912 0.41028675 -0.31478384 -0.33879194 -0.31908768 -0.37383443 -0.40469855 -0.11006647 -0.31967404 -0.38188094 -0.35978723 0.43569025 -0.36668664 0.28533533 -0.3746689 0.23088479 -0.3881052 -0.422176 0.39937353 -0.45282096 0.3404332 0.3935782 0.3640391 -0.22359812 0.4203745 0.29724258 -0.4757783 -0.3775887 0.29911986 0.32813525 -0.40623194 -0.38900137 0.24241264 -0.3739401 
doc_51 -0.13584386 -0.0773022 -0.0653495 -0.08774681 -0.1016114 -0.08038227 -0.035016716 -0.020657731 -0.08571972 0.07921534 0.025359733 0.0041928985 0.10578526 -0.05859737 -0.04374648 0.09324162 0.06900656 -0.0029213957 -0.13258964 -0.023457978 0.022894999 -0.085192725 -0.08847517 -0.20312767 0.06497413 -0.08563093 0.06491376 0.01913008 0.059990566 -0.12166758 0.10417728 -0.08117217 -0.09063188 0.060536746 -0.10550241 -0.14977245 -0.017537594 0.028672643 -0.14482924 0.078986056 0.071455136 0.008840187 -0.1131733 0.08792678 -0.030810999 -0.018588068 0.09509801 0.11501744 -0.09434498 -0.14901915 -0.053463884 0.05872291 -0.06665025 0.084141925 0.0028042025 -0.1277828 -0.08189098 -0.10078763 0.042288717 0.04470365 -0.098298945 0.004313345 -0.11089351 -0.16506808 -0.0767375 -0.07022615 -0.050243948 -0.02849303 0.088684045 0.10000758 0.12103231 -0.060427416 0.054869037 0.09392351 -0.06185542 0.09939211 0.08814356 0.05530027 -0.049528945 -0.095679656 -0.029143231 -0.08234641 -0.08576286 0.029336903 -0.084205 0.10833057 0.021915942 0.13391665 -0.10298413 -0.08425588 0.09485483 0.08397982 0.09550466 -0.06511258 -0.09139432 0.042471804 0.09047787 -0.113517255 -0.07623942 -0.0987665 
doc_52 0.23944959 0.3924801 -0.3807709 -0.3273789 0.39141914 -0.16869327 -0.40166637 0.35156578 -0.3895256 -0.43912032 -0.2833742 0.31332904 -0.3276691 0.30565482 -0.3933015 0.16470632 -0.30533314 0.37021708 0.35589272 -0.31716377 -0.20050034 0.15816872 0.28334704 0.27988 -0.3531784 -0.30782822 -0.41323408 0.43045536 -0.10213514 0.3413377 -0.36637115 -0.3587311 -0.37247407 0.272336 -0.40333965 -0.3373236 -0.3312169 0.3559228 0.4091 -0.3607948 0.35418066 0.37102664 0.38646588 -0.19836555 -0.073071554 0.3244137 0.28163067 -0.2811492 0.4851423 0.23961565 -0.3079433 0.3957493 -0.22105303 -0.35109347 0.33307406 0.40884882 0.34907487 -0.4429292 0.25968346 0.4559914 0.44548836 0.3346119 0.43785647 -0.3803376 0.32717434 -0.37902448 0.35350606 0.40851885 -0.038816784 -0.33488917 -0.31902814 -0.22125186 0.29119983 0.36944526 -0.36849147 0.07335273 -0.03588233 -0.34070882 -0.38721344 0.33235273 -0.2727736 0.18430398 0.41750935 -0.45534968 -0.3112605 0.43089625 0.3715559 0.39961585 0.31967503 -0.053798072 -0.20878547 0.30411088 0.244403 0.26962957 0.30135918 -0.5173801 0.3306749 -0.3752702 0.43413597 -0.31470573 
doc_53 0.27551487 -0.30579275 -0.3447109 -0.21257982 -0.33352757 -0.3158437 0.39498368 -0.29201794 0.29964587 -0.3254576 -0.10064552 -0.3657388 0.31384614 -0.009178145 -0.3246049 0.34134132 0.33060196 -0.25661764 0.31623873 -0.3223383 -0.28513214 -0.32706526 0.18477349 0.43485105 -0.27714872 -0.21602798 -0.34377187 -0.3569588 0.19103591 -0.22606678 0.34184238 -0.3725848 -0.41192976 0.36217016 0.33049542 0.29296556 -0.25375274 -0.20952736 0.3409389 0.3485599 -0.39858446 0.39928493 0.36080998 -0.34140626 -0.28970248 0.27077225 0.2565907 -0.16007221 -0.31423756 0.28841296 0.3637279 0.41515198 -0.29407787 -0.29138812 0.22975864 0.29518187 0.17632474 -0.29850635 -0.23125875 -0.25636706 0.3433001 -0.24363527 0.3222164 -0.22883599 -0.30260423 0.20448156 0.2270252 -0.34563303 -0.16359103 -0.2451745 0.3514621 -0.30269462 -0.2373053 0.2442177 0.36968485 0.34262377 0.2717695 -0.3422324 -0.25353292 0.2612734 0.24763246 0.3954381 -0.27797237 -0.33986932 -0.41097417 0.42386937 -0.13975996 -0.42812845 -0.3000939 0.31493604 -0.17735027 0.1256086 0.33812618 0.176528 -0.39712805 -0.27353394 0.111902125 0.11888866 0.38654938 -0.1757875 
doc_54 0.17398673 -0.20407343 -0.20832157 0.17928462 -0.2946634 0.19090158 -0.05232908 0.1316848 0.14362477 0.24870737 -0.1394226 0.28859782 0.21196713 0.16727735 -0.25529978 0.13964905 -0.3254966 0.35936776 -0.18379825 0.23556553 0.31008336 -0.20538647 0.16001904 -0.07552859 -0.20006603 0.22500448 -0.19120951 -0.16762508 -0.10187812 -0.07263644 -0.23425077 0.056403983 -0.3925626 -0.16265193 0.11792463 -0.22490501 -0.01282254 -0.2569493 0.31920975 -0.25157243 0.24712047 -0.28153315 -0.20817433 -0.30975437 -0.38355574 -0.23664209 0.200347 -0.22166443 -0.2435157 0.22535944 0.2429659 -0.3126683 -0.3571708 -0.3616363 -0.28369334 -0.1466909 -0.027017849 -0.2999663 0.31204167 -0.2883631 0.115810506 0.07442015 0.35928598 0.3610077 -0.23035558 -0.03569096 0.25316343 0.27038342 0.23297283 -0.35997662 0.0018071022 -0.32163897 0.1518811 -0.25926995 -0.29187548 0.35783812 -0.07741056 0.06945151 0.22820546 0.013210227 0.04390166 -0.29507828 -0.35597554 0.29203698 0.27616364 0.24896464 -0.21843188 0.24745916 0.0793127 0.12163865 -0.22503555 -0.16790739 0.39634225 0.38867518 0.40147653 0.23244037 0.35301733 -0.28423777 -0.1623528 -0.19685452 
doc_55 -0.03662416 0.36091343 -0.3607383 -0.3016195 -0.29839095 -0.35642046 -0.24344571 -0.3891399 -0.46116236 -0.43445605 0.11380092 -0.40588647 -0.39790437 -0.31701085 -0.26940924 -0.36840275 -0.23157886 0.31049216 0.3816997 0.3858589 -0.2598005 0.07214868 -0.44228753 0.32801336 -0.013116608 -0.3602136 0.31832272 0.33963773 0.46907532 0.0027814766 0.4120269 -0.2071791 -0.41646776 0.25277412 -0.44746518 -0.18607607 -0.10142877 0.35975993 0.4416916 -0.42883983 -0.42936522 -0.3335854 -0.392181 -0.41713056 -0.3008545 0.07043682 0.21059859 -0.20757517 -0.25236696 -0.37037814 -0.38603222 0.33790287 -0.04593192 0.4092414 0.16916679 -0.49784464 -0.28423214 0.35276628 0.37229288 0.4339997 0.39754805 0.43780348 0.40331596 0.41471142 -0.38731837 -0.25174862 0.12784636 -0.42432767 -0.3442887 0.42273322 0.48088193 -0.41308522 -0.4501862 -0.24845266 -0.3735622 0.21940391 0.41341087 -0.36519435 -0.08663305 0.2954053 -0.3762398 -0.23343018 0.48025888 0.3951489 -0.4391812 -0.40670288 0.38665068 -0.42825252 -0.51850224 0.3032035 -0.28123173 -0.2855766 -0.42820233 0.4373607 0.34383783 0.12553838 -0.40221575 -0.41234276 -0.40527958 0.28977382 
doc_56 0.40989217 0.39552334 -0.33599415 -0.21281712 -0.42941618 -0.3584056 0.18897822 -0.29595086 0.3366065 -0.32203898 0.26029184 -0.3645272 -0.19243637 0.32444432 -0.34559843 0.08927767 0.45959118 -0.19942614 0.3518067 0.27511966 0.41030106 0.24326126 -0.17513119 -0.33569458 -0.3500784 -0.26768404 0.32761657 -0.44339722 -0.2479103 -0.23499167 0.26528335 -0.33574846 -0.39575234 0.30457076 0.25531325 0.36242306 0.123662114 -0.38950536 -0.42861935 0.2784732 0.39352044 -0.3215724 0.38086617 -0.28695732 -0.3754587 0.42004168 0.328308 -0.36897087 -0.38630208 -0.18492338 0.3837103 0.31908783 -0.35109803 0.4541358 0.3753 0.3287428 0.25467104 0.3348828 -0.004273428 0.41952634 0.30513206 0.23833607 0.25016138 0.41705087 -0.37292597 0.31497574 0.2613583 0.3744975 -0.2646126 -0.43489388 -0.3582012 -0.37944937 0.33160263 -0.29729626 -0.4390776 0.28059024 -0.27636972 -0.23845164 0.37656155 -0.3348673 -0.2905142 0.3490205 -0.334568 -0.4304727 0.22760506 -0.42240113 0.17554797 -0.4812557 0.30916345 -0.19426413 -0.29220858 0.30307373 0.3757578 0.32839027 -0.44494858 0.38416007 0.40859693 0.40895888 -0.17081796 -0.12657492 
doc_57 0.22334225 0.39143947 -0.3224136 0.22631964 0.4100827 0.25770414 -0.38754264 -0.4360871 0.42200214 -0.31858805 0.31203213 -0.3709573 -0.31601855 0.25178248 0.16178367 -0.27008703 -0.338944 -0.17299804 -0.26451042 -0.18388252 0.23637334 0.39364985 -0.050425176 -0.3596615 -0.1764537 0.29206833 0.419538 -0.33251604 -0.27157626 -0.18057097 0.2638389 -0.13063449 -0.13061738 -0.24067101 -0.22438717 -0.30284894 0.25178736 -0.27216014 0.24172816 -0.40424025 -0.29172933 -0.31413776 -0.16827586 -0.35482162 0.25540537 -0.27306405 -0.14426203 -0.35664508 -0.22879149 0.28163394 -0.3006439 -0.27640462 -0.35602075 -0.28469902 0.34600717 -0.30039403 -0.33335513 0.3243222 -0.29215324 -0.2290375 -0.29517534 0.42267734 0.3516526 -0.3636609 -0.28219593 -0.08682653 -0.26967824 0.35874903 -0.34317404 0.14891697 0.3312643 0.28231925 0.40480962 -0.23681568 0.2766826 -0.22689132 0.18775795 -0.34457204 0.318888 0.10729854 -0.23015909 -0.3367505 0.24454439 -0.30715168 -0.3576092 -0.26709765 -0.26096466 -0.22037591 0.25899258 0.24744867 -0.33967024 0.14687662 0.37286252 0.38710722 0.26709467 0.36093682 0.38005978 -0.33481526 0.34247053 -0.2790442 
doc_58 0.24392775 0.22209209 0.27627492 0.20160353 -0.09112987 -0.019589521 -0.32888007 0.25784498 0.38305095 0.35471612 0.31730634 0.37458995 -0.38060006 -0.037641138 -0.29993168 0.33577454 -0.27279124 -0.25685176 -0.26377496 -0.11022784 0.36358175 0.28740436 0.28311324 -0.32948628 0.39983186 0.05622018 0.3602542 -0.27564207 -0.3999093 -0.3849011 0.3177392 -0.3882694 -0.08171658 -0.25020176 0.3366647 0.1839997 0.14950141 -0.15322383 -0.3762141 0.32875025 0.21466157 0.29897708 0.3825782 -0.29165527 0.16320759 0.37028325 -0.28163636 0.28461874 -0.36170208 0.32418624 0.31812328 0.30485663 -0.40881404 -0.3251976 -0.2884751 -0.33430594 0.024783073 0.3116265 -0.30660442 0.3993653 0.08589664 -0.2862184 0.35744834 0.3846074 0.31224737 -0.36075243 0.43025756 -0.14159808 0.258776 -0.33168188 -0.29922965 -0.3074777 0.3882865 -0.39623338 -0.29452166 0.014112455 0.14627665 -0.34654048 0.32177103 -0.23152518 -0.3906088 -0.47460026 -0.43323115 0.18307954 0.24727397 -0.37293637 -0.27327174 0.2717364 0.36976844 -0.23408243 -0.2765676 0.36746538 0.3598717 -0.28122807 -0.3014151 -0.25717968 -0.2965156 -0.3990467 0.37771562 -0.25232378 
doc_59 0.22682784 0.33189598 0.1115491 -0.23204423 0.27206752 -0.2182668 -0.41791832 0.42493907 -0.41129082 0.43483546 0.2713881 -0.45716146 -0.2839103 0.29909015 0.27926198 -0.3183268 -0.3343266 0.32113218 0.36736408 -0.4030282 0.2344842 0.3248258 -0.20323886 -0.4175821 0.2780099 0.47430634 0.41615114 0.340778 0.3502918 -0.3441731 -0.32204363 -0.3469909 0.2831925 -0.41823992 0.34850928 -0.36885828 0.39158127 0.30463165 0.30928096 -0.43433097 -0.360877 -0.28307027 0.39034358 -0.34318757 0.43474594 -0.43428427 0.33782935 -0.15662017 -0.3108924 0.39932725 0.31632638 -0.35576612 -0.30049008 0.43655473 -0.40432307 -0.21545953 -0.33190212 0.38277462 0.289732 -0.20746256 0.33018768 0.16584931 0.35708758 0.32640466 0.40915656 -0.06129433 -0.38365167 -0.22715412 -0.060102336 0.37061155 0.43387243 -0.30705506 0.30481863 -0.23960134 -0.3576557 0.3072442 0.31074268 0.27167434 -0.4407581 0.2631389 -0.344399 0.4231838 -0.40639096 -0.48979884 -0.35377726 -0.39860076 -0.36553758 -0.38522583 0.20843479 0.45651555 -0.3427081 -0.07774262 -0.4741143 0.324129 -0.37835744 -0.46420702 -0.49683458 0.39080122 0.32122475 -0.41729522 
doc_60 0.0077496674 -0.10676741 0.04004868 -0.14386068 0.18852367 -0.04399178 0.04795207 0.08896246 0.0684236 -0.15793513 -0.03161284 -0.14457175 0.022014447 -0.045144923 0.07726606 0.027796444 -0.15897176 0.17739813 0.06425136 0.123822436 -0.055785593 0.0051433225 -0.12133281 0.15814584 0.016109545 -0.16033629 -0.04756385 -0.034797117 -0.028550256 0.029696075 -0.19505838 0.047781743 -0.18190882 -0.015179942 -0.07871434 0.045229945 0.023227002 -0.04939146 -0.039852288 0.16395646 0.042211358 -0.019876963 0.066813976 -0.14385825 0.07171554 0.024374576 0.13974436 0.08105746 0.110752314 -0.1254873 0.048828337 -0.014272175 0.017212138 0.054846838 -0.09315795 0.13904442 0.052783363 -0.16122364 0.18053228 -0.097257175 -0.09609362 0.12731086 -0.02225417 -0.014498158 0.017451366 0.03672337 0.18972233 -0.059004456 -0.01820257 0.09484109 -0.15723807 0.07797702 -0.096209146 0.08782535 -0.13532576 -0.07067916 -0.14650878 -0.15043207 0.041234624 -0.03646064 -0.18227127 -0.13100475 -0.15101172 0.12075236 -0.17394346 -0.010552006 0.110238105 -0.09511566 0.19387516 0.034654777 -0.049940083 -0.024242392 0.13788329 0.072931394 -0.120368026 -0.11551642 -0.08944063 0.077260755 -0.12288064 -0.0631122 
doc_61 -0.3977258 -0.62567556 0.6250391 0.5990358 -0.6528097 -0.30315593 -0.30207437 -0.095371395 -0.025620336 -0.41663402 0.32785827 0.4367387 -0.29188418 -0.24857639 -0.32169524 0.35814998 0.62771213 0.25123602 -0.41586313 0.2139887 0.36723486 0.3414548 -0.5808932 0.4992368 0.30204993 0.6694383 -0.66183615 0.3760156 -0.019247297 -0.3853618 -0.20402694 0.61040795 -0.40552664 0.331179 0.22012126 -0.38657007 -0.22650889 -0.63166183 0.20974502 0.42787814 -0.37400782 -0.2587343 0.3047071 -0.40762398 -0.32013172 -0.34263963 -0.53332853 -0.2841458 -0.15420805 -0.120919116 -0.28215897 0.16297433 -0.17696679 -0.07979294 -0.6560451 0.45031166 -0.32741246 -0.5758786 0.2517647 0.5695062 -0.6111709 0.30573007 -0.6653693 0.37922233 -0.33543807 -0.20950556 -0.63150746 0.27171674 0.03242607 -0.36043888 -0.13401815 -0.3982449 0.2643443 0.5977141 0.56729656 0.35182634 -0.28378022 -0.17161058 0.3634649 0.013745488 -0.11931211 0.5028132 -0.38672248 -0.64230984 -0.36790842 -0.5604224 0.34725645 0.4205302 0.45920265 0.6257553 -0.26600042 -0.6321827 0.41935393 -0.7154797 -0.64506984 0.33388036 0.33059508 -0.43411225 -0.6711613 0.28984022 
doc_62 0.33611158 0.36161274 -0.36789134 -0.32953313 0.33561593 -0.13145901 -0.03764266 -0.35459054 0.4393143 0.352774 0.36357528 -0.3512996 -0.40233034 0.32280418 -0.29551843 0.046837967 -0.27251717 -0.31347942 0.4031861 -0.3517073 0.40165478 0.39276198 0.3952498 0.37893027 0.23488976 -0.29525438 0.33370563 0.3569514 -0.38327172 -0.39514363 -0.33650145 -0.20901644 0.32693613 0.35021856 0.38184693 -0.3775674 -0.32965323 0.3691954 -0.40667117 0.34315187 -0.3508629 -0.3772158 0.3490499 -0.40014994 0.32819676 0.32901278 -0.30853593 0.25061825 -0.37580943 -0.20522515 -0.3528566 0.22506331 -0.40695786 0.0015774703 0.26258454 0.41943607 0.24805146 0.42465812 0.35047707 -0.3953846 0.37455744 -0.34486935 0.3702817 0.3936807 -0.016447037 0.30682972 0.38734996 -0.24407482 0.2958769 0.3432863 -0.43016532 0.32130852 0.41056293 0.26658273 -0.35109597 0.13380146 -0.2889085 -0.3086061 0.30783427 0.33574992 -0.25855505 -0.34478718 0.4135359 -0.39155436 -0.36309984 -0.47350252 -0.3371806 -0.32648006 0.36841348 0.35462937 0.008583778 0.15095006 0.43202993 -0.31554726 0.18532397 0.25645977 0.3635322 0.4681775 -0.3233577 0.4030765 
doc_63 -0.24452512 0.37106013 -0.3607168 -0.21464284 -0.3458051 0.055818398 0.2591797 -0.38676587 0.33112267 0.42665264 0.23330604 -0.45808783 0.41010994 -0.36890718 -0.30277675 -0.31041658 -0.36545572 0.19659984 -0.033737753 -0.3344917 -0.38570458 0.23363082 -0.38130632 0.30431503 0.30185258 0.33424303 -0.3611105 0.36558467 0.33305293 0.3532613 0.29399666 0.36349088 -0.33722872 -0.40508828 -0.4221067 -0.28862807 0.23823777 0.31031778 -0.39706454 0.3554862 -0.23030019 -0.43598863 0.34245542 0.3490093 0.3549634 0.41170195 -0.36329132 -0.31920955 -0.39277422 -0.116233945 0.052608993 -0.44641384 0.17429774 0.3982468 0.35026482 0.2613396 0.27203923 0.36567318 0.301035 -0.3159021 -0.27522677 0.21072137 -0.28474772 -0.34878555 0.31281263 -0.41192624 0.35296765 -0.17983304 -0.31294745 -0.33993155 -0.27654883 0.2555314 -0.44867286 -0.3789326 -0.27995658 -0.4211126 -0.23589517 0.27616695 -0.37126338 0.32684466 0.4021555 0.35785547 -0.4522397 0.35052967 -0.13285215 -0.37496975 0.36303577 -0.24893507 0.26173308 -0.3877415 -0.386403 0.3582947 0.32332212 0.23334986 -0.19161062 0.2827475 0.10699945 -0.19052167 -0.41144967 -0.3654393 
doc_64 0.38534343 -0.09801442 0.26081094 0.16442259 0.31804064 0.20777567 -0.41761208 -0.31109366 0.056989368 0.28702193 0.23412777 -0.28739965 -0.09640919 -0.24061453 -0.3751889 0.33219004 0.1456205 0.1672229 -0.31234485 0.31634393 -0.17318684 -0.20185979 0.11081898 0.21479455 -0.20871802 0.10982711 0.18129642 0.36183795 0.21995714 0.20798783 0.24387236 0.111219645 -0.3410464 0.09868985 0.29260495 0.107942194 -0.2989233 0.34658074 0.19123717 0.33312365 0.2453185 -0.42521837 -0.18507297 -0.32646924 0.19976863 -0.30909804 -0.22322184 0.14076532 0.17204787 0.17453104 -0.18543619 -0.21282503 0.11512865 -0.2620283 -0.23045278 -0.25337732 0.23295172 -0.2281488 0.41953346 -0.23808603 -0.22044322 -0.16090041 -0.2578268 -0.0897723 0.23783186 0.027439628 0.20889157 -0.1535411 -0.27641526 -0.18767366 -0.10029803 0.15446311 -0.28347963 -0.2948398 0.30769715 -0.30760148 -0.32090467 0.07900547 0.38612276 -0.26588705 -0.25778377 0.37692457 -0.36526474 0.23317839 0.21572322 -0.29505935 0.2464146 0.10671667 0.25759882 -0.39730436 0.22965145 -0.16081604 0.3257742 -0.2397303 0.20708546 -0.13560428 -0.25234687 -0.25691402 -0.24524368 0.27756673 
doc_65 0.19783722 0.2604004 -0.15057352 0.18675555 0.19580272 -0.2671546 -0.12010897 0.12708223 0.3204882 -0.2843461 -0.15603665 0.3437794 -0.17359304 0.21650715 -0.28855023 -0.16805966 -0.27451316 0.26592568 -0.014343245 -0.21892245 -0.1838845 0.13761495 0.35476327 0.20661303 -0.14525355 -0.2510369 0.345285 -0.30451697 0.15296191 0.11131198 0.20899262 -0.26999435 0.21172945 -0.07200402 0.29237303 0.15949239 0.04411825 -0.17080241 -0.32323647 -0.20110941 -0.3457565 -0.3347437 -0.14546512 -0.3028857 0.09426607 0.20681272 -0.09382822 0.15267755 -0.15785621 -0.22627245 0.09071225 -0.07364114 0.20688482 -0.3149262 0.33048072 -0.2636922 -0.089505486 -0.23740356 0.21556789 0.31512108 0.06203922 0.20574178 0.2272839 -0.093326904 -0.25426266 -0.00015257105 0.16134293 0.18834136 -0.26313797 -0.26452485 0.23689866 -0.08308096 0.32832628 -0.30099562 0.16627789 0.07589525 0.1840615 0.23613276 -0.20061342 -0.1625652 0.17015462 0.25584555 0.1840484 0.22066441 -0.277059 0.2712156 0.1723974 0.24722356 -0.22536299 -0.041992012 -0.11588935 0.20190686 0.07289782 0.14680992 0.110901386 -0.037980072 -0.16115007 0.26484826 -0.013807318 -0.10355466 
doc_66 0.2674781 0.39338025 0.6178838 -0.3283616 0.2935278 -0.3423056 -0.25848842 -0.3468639 0.08277423 -0.45969138 0.3022504 -0.5471064 0.6090966 0.060918435 -0.25156313 0.37530813 -0.24454287 0.35043982 0.34809908 0.41979414 -0.5882496 0.35760644 0.3686853 -0.57775587 0.36320314 0.6005873 -0.5714892 -0.5889619 -0.34316212 -0.31639957 -0.3251041 -0.17314251 -0.25219864 0.31909814 0.25341475 -0.15433586 -0.032739323 0.23779982 -0.58554906 0.37057805 0.60594374 0.5549106 0.32759026 0.5877611 -0.26225924 0.55693525 0.32183185 -0.3259612 0.58131105 -0.24112388 -0.16839242 -0.5630092 -0.36431026 -0.25016192 0.27694476 0.41968325 -0.25333777 0.43129694 0.3518494 0.56218123 0.16140655 -0.58682406 0.37760898 -0.58909297 0.560733 -0.31797343 0.18432051 0.32840908 -0.21793158 0.56098175 -0.32271823 0.006014455 0.34261957 -0.30382654 -0.42662287 0.30423874 -0.3549409 0.60537285 0.3269468 0.31520203 -0.124437585 -0.6067283 -0.47661752 0.23319173 -0.28186923 0.56296176 0.35256484 -0.5827246 -0.58552694 0.11267778 -0.30664352 0.3127367 -0.60878575 0.3008833 -0.5805551 0.45147556 0.3472387 -0.44085896 -0.62934726 0.3377297 
doc_67 -0.011620131 -0.10789726 0.00870082 -0.055231445 0.038091905 -0.02689842 -0.0021935932 0.023852574 0.045476925 0.09430801 0.026887298 0.0704116 0.01372355 -0.015227724 -0.01706472 -0.076248005 -0.027743254 -0.033520255 -0.03042685 0.042861 -0.028566355 -0.12729971 -0.0110218655 0.079973795 0.041584227 0.021708446 0.010950399 -0.10279251 0.0034218603 -0.010908229 -0.0077930596 0.035770003 -0.024745531 -0.0225972 -0.045813054 0.028992092 -0.059739124 0.06542932 -0.07800515 0.03469368 -0.050669722 -0.06670051 0.009806445 0.016223008 -0.04994319 0.018141054 0.0325458 -0.032777455 0.103693 -0.0058928677 -0.02658367 -0.012762985 6.4425105e-05 0.0034528389 0.03615686 0.042722777 -0.019600537 0.049448878 0.04669946 -0.061047174 0.034244593 0.031464785 0.016558742 0.05502706 0.05232565 -0.065171055 0.006322977 -0.008750169 0.029602591 -0.03442818 0.013401474 0.017900817 0.01767817 -0.020263314 -0.058552552 0.061122164 0.0063347365 0.04361218 0.02914661 -0.041236285 -0.024294449 0.0024030183 -0.027661806 -0.010634506 -0.051338702 -0.015458381 0.044645093 0.019945974 -0.017632708 -0.045888174 0.011103506 0.052934125 -0.015413572 0.049818464 -0.02610759 0.028335713 -0.049657848 0.012307073 0.05092335 0.01093246 
doc_68 -0.11612175 -0.23195332 -0.30127305 -0.30367348 0.27896336 0.1987222 -0.21423714 -0.33298436 -0.1631374 0.21384019 0.19552264 -0.2423022 -0.32415545 -0.13921852 -0.36986747 -0.20420372 -0.33684316 0.08057175 -0.13904707 0.1767588 0.06484414 0.24423741 0.19783215 -0.22803237 -0.20703101 0.11144407 0.37170753 -0.28717908 -0.2359025 -0.30613238 -0.3333108 -0.14270015 -0.28078958 0.24609046 0.24940962 0.23716868 0.19753505 0.2966789 0.30026832 -0.30804247 -0.34695405 -0.34324586 -0.22957702 0.24382843 -0.31290933 -0.28875628 0.28391597 -0.4139841 -0.24519368 0.20653503 0.20957819 -0.23234418 -0.3797629 0.23653182 0.24457921 -0.26935256 0.18247676 -0.28278735 -0.13350335 0.30246145 0.30036053 -0.03218414 0.40368333 0.36574975 0.1976596 -0.35635298 0.3467031 0.3745054 -0.30083436 0.25483206 0.23413765 0.24558735 0.3220634 0.22273214 0.2923442 0.3233311 -0.30967227 0.23140636 0.22626589 0.24629043 0.18491353 0.2688622 0.3105886 -0.23791392 0.20843771 0.3508796 0.31574216 -0.2669733 -0.0009482648 0.2300522 -0.14080907 -0.23774357 -0.31338745 -0.2207216 0.29172978 -0.2850662 -0.24217756 0.19771662 0.3329945 -0.16570073 
doc_69 -0.30358607 -0.2586873 -0.21644786 0.3342139 -0.31450427 0.086889595 -0.20101225 -0.3170867 -0.19121498 0.31981784 0.30822867 0.4329625 -0.4058842 -0.13745669 -0.40809193 0.39054573 -0.27491266 0.25509697 0.42192766 -0.35688287 -0.33926928 0.4675816 0.35430163 -0.38348117 -0.25447497 0.2893029 0.27877152 0.36783725 -0.036114097 -0.40803632 0.20533662 -0.258108 0.24337132 -0.18179232 0.18168373 -0.3234457 0.2680937 -0.36996028 0.45010465 0.40759793 0.23855749 -0.25286642 0.40915155 0.042911332 0.014533823 0.2828438 -0.24184273 -0.40882784 -0.35341877 -0.34799147 -0.25627062 0.20889258 -0.122014925 -0.4488932 0.3387729 -0.34318766 0.07246714 -0.3221451 0.37192604 0.30859637 -0.3401089 0.33133656 -0.25446367 -0.29670224 -0.35730392 0.151012 -0.32560927 0.30272943 0.11323276 0.21903212 -0.37410972 0.2799034 0.36094853 0.1930819 -0.29910916 0.22333077 -0.3271543 -0.44508263 -0.29583848 -0.043059424 -0.28230873 0.29552075 -0.41950548 -0.2617241 -0.15344174 0.3237031 0.41424417 0.37497976 0.40044343 -0.1351807 -0.020495698 -0.23055568 0.18824668 0.28984964 0.3406557 0.37956068 0.25404853 -0.2823758 0.12718104 0.3088421 
doc_70 -0.09040415 -0.15104087 -0.054853853 -0.12805331 -0.031960923 -0.21692292 -0.14918207 0.020606812 -0.06183075 0.17450823 -0.11190109 0.03317968 -0.12358961 -0.019383196 0.15221316 -0.15480308 -0.09009469 -0.17198417 -0.15015301 -0.12959278 -0.09281318 0.011213109 -0.02881115 -0.103533454 -0.079174615 0.12768708 -0.073190935 -0.17143376 0.034333512 0.13679306 -0.20802766 0.15727903 -0.13632719 -0.07774037 0.05668827 -0.18789595 -0.058983717 0.13478501 -0.036586538 -0.055289123 -0.12878676 -0.17806113 -0.10100136 0.11109949 0.151555 -0.101481065 -0.11985598 -0.09530899 -0.16971572 0.11833202 0.10062568 -0.027528223 0.15698862 -0.23397702 -0.13513537 0.2131043 0.09239921 0.16043338 -0.14019701 -0.23175809 -0.133669 -0.12131877 0.12943707 -0.13021612 0.18673438 0.07814755 0.19031532 -0.14398398 0.070704386 0.12366909 -0.1219614 0.108197965 -0.113709256 0.14249389 -0.16720748 -0.05852364 0.028782532 -0.04599518 -0.08090255 0.13379045 0.06494364 0.08329442 -0.17811139 -0.15095286 0.12710683 0.12981142 -0.13217388 0.20228891 -0.1093576 -0.20946531 0.10277692 0.08950554 0.25271338 0.07061845 0.16453174 0.13831313 0.020738037 0.06386209 -0.07106631 0.120557904 
doc_71 0.34146625 -0.3827716 -0.07344807 -0.2935116 -0.3078743 -0.35812706 -0.25435978 -0.34918365 0.13265097 0.083136275 -0.3711266 0.33314547 0.31285518 0.2434172 -0.3881306 -0.30018705 0.22355267 -0.07419264 0.29961976 0.3993943 -0.38356495 -0.32448062 0.2823343 0.341172 0.29004183 0.34317002 -0.38855475 -0.4055811 -0.3897518 -0.24916236 -0.3348699 0.32665658 -0.38724625 0.10552308 0.3303565 0.17732096 -0.26015744 -0.34998974 0.4200542 0.43578535 -0.19482754 -0.36394125 0.20529081 -0.14198278 0.3235756 0.276372 0.018316112 0.4022483 -0.20404491 -0.39387718 -0.34974658 0.34781316 -0.16291822 -0.3554226 0.2422536 -0.39284688 -0.009643584 -0.30860895 0.36472103 -0.4144345 -0.43976778 -0.35033563 0.4014097 -0.43032274 0.049628753 -0.17438847 0.31891856 0.36731708 -0.28918734 -0.3626577 0.313422 -0.35271615 -0.38359463 -0.32271934 -0.3649334 -0.31770712 -0.2730688 -0.21371926 0.23513642 0.22295628 -0.28343943 0.42367786 0.426791 0.39760235 -0.17411959 -0.3848675 0.08829558 0.3130028 0.33468437 -0.39509168 -0.3437506 0.35853845 0.28347123 0.36532038 -0.35374767 -0.400243 0.3752841 0.5159337 0.36316526 0.32199946 
doc_72 0.35535756 -0.41693422 -0.06809411 -0.04492051 -0.37723175 -0.35870764 0.28972754 -0.30209 -0.39464098 -0.34520036 0.16737774 0.09326858 0.428765 -0.31315154 0.28459165 0.31064686 -0.34514502 -0.28196266 0.34533662 -0.33163935 0.285166 0.33297995 -0.35329175 -0.3957607 0.2782828 -0.3061936 0.35322067 0.1956981 -0.3602607 -0.31919807 0.018532328 -0.27024812 -0.40696883 0.038582828 0.42491198 0.030508023 -0.35783526 0.29894596 -0.36778805 0.32452193 0.402105 -0.3778227 0.3129383 -0.28814796 -0.3928923 -0.19826946 0.27396828 0.36587855 -0.35969666 0.10958569 0.22626995 0.28718027 -0.38964146 -0.35238448 0.0025602174 -0.4252006 -0.3119589 0.4071591 -0.34280494 -0.38716614 0.38462013 0.22091413 0.36250892 -0.3309871 -0.26570973 -0.3446527 0.1545425 0.28240848 -0.23266459 0.43495882 -0.39522994 -0.43897992 -0.30537918 -0.13067195 0.39372894 -0.3908274 -0.17663896 -0.357703 -0.2894298 0.34940895 -0.17674866 -0.3781888 -0.4693678 0.10035745 0.34980646 0.3984066 0.097287916 0.16762523 0.37532803 0.039595567 -0.24909888 0.2896322 0.4386232 0.30919373 -0.37112173 0.5105463 0.43526807 -0.4751214 -0.42285767 0.27460143 
doc_73 -0.010846597 -0.044778526 0.0018254401 -0.046688393 0.034342602 0.074633606 0.011307035 0.019222481 -0.018248713 -0.056368083 -0.005570995 0.009044155 -0.034186296 -0.012500681 -0.0035253244 0.015895924 0.012965945 -0.044958867 0.011998726 0.0008851685 0.03789379 -0.020444915 0.07001009 0.009176227 0.0006217409 -0.021646699 0.002951932 -0.009237315 0.04538482 -0.033485193 -0.0011869436 -0.0042579016 -0.069440894 -0.011696991 -0.053041622 0.018193554 -0.04723225 0.034552537 0.05338811 0.009525026 0.06922283 0.08289581 -0.005715661 -0.054513704 -0.04356542 -0.0071238237 -0.0033154397 0.04559979 -0.0071445443 0.09374751 -0.075551726 0.0020287985 0.0015573204 -0.042971842 0.06996187 0.00497859 0.012992581 -0.049777538 0.048374925 -0.03525899 -0.017979188 -0.051919047 -0.08818675 0.0639974 0.018172374 -0.010358783 0.021624744 0.032163832 0.023753196 -0.058827564 -0.05241184 -0.009889868 -0.028996402 -0.038214095 -0.0076931966 0.036182806 0.055586215 0.0032792168 0.08074721 -0.022105934 -0.038216464 0.039753024 -0.014039724 -0.04777041 0.04745779 -0.033842813 0.07325636 0.070244186 0.00088082487 -0.052578818 -0.011791131 -0.022217572 -0.00012517146 0.014253934 0.086177796 -0.0078738285 -0.0845999 -0.08607372 0.02627834 0.0054737236 
doc_74 0.35555208 0.3260883 -0.37243736 0.328225 0.25201073 -0.36814752 0.317413 -0.35028875 0.35169718 0.38627088 0.421033 -0.42483717 -0.40219474 0.31106272 -0.3721069 -0.27511877 0.3620805 0.2687621 0.40919867 0.32980815 0.441301 -0.3072387 0.1260019 0.41273212 0.3302022 -0.2499347 0.2796777 0.18931974 -0.11762129 0.32799348 -0.45787275 -0.40460452 0.356068 0.32498625 0.26632366 0.26162332 -0.25900424 0.03635874 0.36742252 0.39748386 -0.09845997 0.35774732 0.35012683 0.35640603 -0.40944046 -0.19568302 -0.13809633 -0.2619006 -0.22256376 0.35129887 0.21783304 0.21580477 0.29699317 0.17734963 0.2680807 -0.377986 0.07146818 -0.37109166 -0.32788628 0.43442026 0.2828443 0.4039892 0.39992532 0.33400744 -0.3555776 -0.3205177 0.13466285 0.3392604 0.14824408 0.41700864 0.3808793 0.32863528 -0.12544113 -0.41382447 -0.23567453 -0.3584262 -0.21472451 0.3191835 0.27561057 0.119242854 -0.20054264 -0.4232436 0.23478365 0.3072294 0.32200179 -0.32081744 -0.3493165 0.30760017 -0.21314141 0.26361623 0.1802644 -0.043858323 -0.0035878678 0.34725556 -0.27677685 0.1593337 -0.3034213 -0.42494127 -0.2916867 0.2717223 
doc_75 0.17834958 0.36559445 -0.21936542 -0.16177784 -0.34861583 0.37166342 -0.32210127 -0.22460757 0.37243345 0.33790573 0.272445 -0.37246403 -0.35011843 0.25221318 -0.31879428 0.29694512 -0.037667688 0.3038599 -0.23882346 0.35934055 -0.35582975 0.21542522 0.2987192 -0.30261293 0.2971613 -0.22428492 0.34063438 0.34532267 -0.2333969 -0.24492 -0.30813265 0.27521902 0.29931945 0.33009943 0.2985028 0.305648 -0.13797548 0.19473459 0.09685163 -0.3642355 -0.23276463 -0.28072977 0.3622307 0.23569112 0.32480118 -0.39009684 0.35390216 -0.3155375 -0.39409465 -0.28457704 0.3976814 0.2981365 0.31660038 -0.35251203 -0.3832698 0.34388992 -0.30346027 0.35934025 -0.29478377 -0.22758144 -0.30328408 0.28805825 0.38732713 -0.2877971 -0.32090783 0.12110097 0.30820706 0.29131562 0.29307017 -0.30920652 0.30638838 0.28443083 0.14358148 -0.34339318 -0.32435185 0.24865715 -0.36028367 0.31627333 0.30297717 0.24704462 -0.20395772 -0.38905013 -0.24753724 0.31089234 0.21116613 -0.33534348 -0.3058153 0.2973347 0.33435807 -0.36289847 0.27992618 0.33313277 -0.30924815 0.2247342 -0.26792404 -0.3381892 0.3450935 -0.33498818 0.38754165 0.30929968 
doc_76 0.37454107 -0.3778954 -0.16198394 -0.25116238 0.36570054 -0.31692585 0.16261166 -0.141036 0.29018047 -0.41283092 -0.35725215 0.3829725 -0.3155234 0.2954737 -0.21797116 0.27114287 0.33819702 -0.26318932 -0.35156775 -0.3395265 -0.23901989 0.3510435 -0.31834787 0.34512475 0.38647994 -0.32565877 0.3868884 0.45030674 -0.3396101 -0.34646624 0.25250348 -0.30257258 -0.272451 0.28621432 0.39088237 -0.27561864 0.04701908 0.3061055 -0.41339073 0.38742977 0.37151843 -0.36186266 -0.21614254 -0.22477086 -0.23410338 0.40207064 0.26904687 -0.37066266 -0.34754148 -0.32922944 -0.08195935 0.383133 -0.29980892 0.393662 0.36451983 0.4120843 -0.23261948 -0.36419433 0.34035605 -0.26541567 -0.32849753 -0.36668158 0.3698157 -0.44428027 0.0570016 0.28569037 0.24238707 0.32832503 -0.2317002 0.305321 -0.23149414 -0.2683179 0.3219343 -0.31659183 0.3308078 0.35773256 -0.2988983 -0.14930198 -0.38601786 0.32644314 -0.32896754 0.4093972 -0.3934017 0.42163983 -0.3327865 -0.41574103 -0.35435548 -0.39558107 -0.2829612 -0.096039176 0.2360288 0.06770223 0.3783176 0.35469395 0.33950996 0.37272236 -0.29415724 0.1830528 0.31423938 0.31167808 
doc_77 -0.17990778 -0.17605503 0.13617638 -0.1472556 -0.21692461 0.2555449 -0.23559569 0.14733885 -0.21438596 0.23305872 0.17082465 -0.23030248 0.1675403 0.27220282 0.080205746 -0.16386582 0.1861505 -0.10342748 -0.19489875 -0.21934691 0.12698394 -0.17593758 -0.1641058 -0.18466589 -0.15904598 0.19661933 -0.21015991 -0.09093866 0.2165757 0.16560791 0.12928903 0.17798644 0.21413158 -0.21146479 -0.1860347 0.1592612 0.18112132 0.24841863 -0.16988404 -0.22670725 -0.23100753 -0.23592833 0.04337538 0.1519333 0.17436697 0.18697424 -0.18770434 0.16570605 0.24571311 -0.27325866 -0.24288014 0.23169905 0.19167396 0.1684738 0.21600299 -0.20226142 0.20730147 -0.2652385 -0.11340697 0.20588677 0.19490644 -0.15781257 -0.17405307 -0.19739968 0.13393353 0.13383332 -0.17285325 0.20312649 0.16063163 0.16213578 0.19917753 0.11303401 0.21238516 0.17125535 0.21581453 -0.19191572 0.18586646 0.15740101 -0.006061312 -0.20686759 -0.24935305 0.270277 -0.2184078 -0.15490055 0.1533427 -0.18327972 0.1729363 -0.1934575 -0.09705336 0.16158879 0.16288349 -0.14415258 -0.16995424 0.23707347 -0.20524952 -0.18528008 -0.18027294 0.22302207 -0.19824114 -0.099605024 
doc_78 0.42396083 -0.3373341 -0.1658456 0.19777395 -0.3910574 -0.35110927 -0.23314358 -0.37573764 0.26586682 -0.33526886 0.33928525 -0.05771035 0.31662196 0.21347491 -0.32864198 0.015429338 -0.35777837 -0.28161106 0.2397334 -0.313987 -0.3168726 -0.31611645 -0.43036783 -0.43319538 0.3537218 0.44604838 0.22248523 0.29442787 -0.2735056 0.33946565 -0.16131425 0.32796946 -0.3208564 0.29294452 -0.38111845 0.35169068 -0.33904704 0.33109447 -0.4397394 0.25098735 0.47272134 0.41418186 -0.20884505 0.3585224 0.34843394 -0.28412354 0.3708994 -0.3086641 -0.37424022 0.36381993 -0.16480303 0.31631505 -0.1869104 -0.10612622 0.35423312 -0.47464 -0.3007113 0.38783923 0.30010253 0.445274 -0.30950013 0.22942865 0.34865406 -0.42826712 0.28040487 -0.3508847 -0.34608015 0.2681714 0.07791004 -0.011365267 0.3983822 0.3492969 -0.2769053 0.3416651 -0.3884533 0.23558617 -0.37981176 -0.25275075 0.3264527 -0.0049860603 -0.36958838 0.37467304 0.43031436 -0.41790223 -0.40347818 0.35775173 0.35217163 0.33396557 0.37841517 0.36711046 0.07907825 0.33751798 -0.38933116 -0.27621937 0.2149579 -0.3929252 -0.26429752 -0.42778808 -0.08702423 0.34351355 
doc_79 -0.010024738 0.27429363 0.22121547 0.14792278 -0.16399063 -0.07970742 0.18557046 0.16272287 -0.13415386 -0.028080285 -0.10285609 -0.09221874 0.1587984 -0.17276333 0.19934122 0.16173242 0.14500596 -0.18206151 0.1931703 -0.16983125 0.17779474 -0.16325024 0.28934652 -0.20770656 -0.20495291 0.08720284 0.050322372 -0.13279998 -0.21548566 0.14428197 -0.21934235 0.15276924 -0.30384082 -0.17354253 -0.18461159 -0.24468231 0.14479949 -0.17146543 -0.16374214 -0.1802665 -0.18187201 0.059178855 0.14355205 0.20762184 0.17374992 0.12489932 -0.070156455 0.19402668 -0.2986274 0.19279015 -0.24248242 -0.12129514 0.19537029 0.17777675 -0.15465097 0.20167589 -0.17808415 -0.16214924 -0.060477104 0.2129696 0.21489626 -0.14477825 0.28853428 -0.18014342 0.17538397 0.110536836 -0.15728782 0.054410007 -0.23661037 0.19860019 -0.2816361 -0.21442974 -0.15184684 0.22693 0.23581113 -0.18999708 -0.21891822 0.11662335 -0.20246677 -0.050935887 -0.19991192 0.16491576 -0.20261304 0.26162767 -0.26450667 0.19102867 -0.16731516 0.29878932 0.20154652 0.1374651 -0.2147382 0.214506 0.258758 -0.12145428 0.1771801 -0.17384556 0.16055751 0.17367326 -0.2062422 0.18990098 
doc_80 0.33798426 0.27199152 -0.4385874 -0.008382184 0.25905913 -0.20531571 -0.37493107 -0.35262677 0.08568908 0.32969332 -0.27840754 0.40961912 0.27434382 0.33848578 0.26254016 0.30923948 0.2655097 -0.068811744 0.38385412 0.19177683 -0.26109964 -0.24015956 -0.39791352 -0.3740015 -0.07966038 0.24379733 0.33183545 0.43778214 0.28689873 0.24692237 0.28213108 -0.3785627 -0.36194345 0.35410812 -0.26220226 -0.03991219 -0.27759063 -0.29920128 0.35788506 0.29151624 -0.3655307 -0.36657172 0.18153876 -0.15750301 0.27701 -0.30808616 -0.20479758 0.30012834 -0.33359864 0.1561377 -0.3803683 -0.32498798 0.24748686 0.23448478 0.37163576 0.39833167 -0.28301823 0.28276518 -0.2890951 -0.18283582 0.11529888 -0.2619349 0.16733162 -0.35140723 0.19990866 -0.2492897 0.09969172 0.17161115 -0.38263687 -0.41008818 0.25935173 -0.37631488 0.23991935 0.27554008 0.29509622 0.37256137 0.23712093 -0.4026517 0.25267026 0.35093567 -0.24356197 0.40794286 -0.3215178 -0.24463864 -0.36019436 0.16112642 0.37032554 0.40634593 -0.2762432 -0.42154732 -0.2180042 0.30015594 0.2509298 0.24421881 0.38495475 -0.35513768 0.3505681 -0.28662425 0.118052885 0.36738342 
doc_81 0.38256815 -0.2601816 -0.27853018 -0.2518841 0.34384212 -0.2906981 0.25234464 -0.34480956 -0.2694351 -0.19243072 0.37767655 0.28276706 -0.2646368 -0.058814406 -0.17734648 -0.4060218 0.3387578 -0.3541568 -0.2539583 0.3094054 0.3663438 0.20425792 0.3653314 -0.27144644 0.36899537 -0.3426352 -0.32413238 -0.29199257 -0.17447147 -0.049103 0.01983564 -0.30120158 0.30995637 -0.19237924 0.3248861 -0.38347834 -0.07877824 0.21359627 -0.35381776 0.16383679 -0.20186923 0.35606104 0.34944174 -0.17741017 -0.22635883 0.39432102 -0.31263086 -0.2119991 -0.35775188 0.30910867 0.33714893 0.3857117 0.027014574 -0.3624588 0.2729521 0.30877805 0.27170563 -0.42644846 -0.11709548 -0.3744592 -0.23577985 0.1991617 0.2102702 -0.1564862 -0.34238958 -0.30998012 -0.14486028 -0.025133904 0.19430777 0.39709496 -0.27732384 -0.31491378 0.17150953 0.124697424 0.3553495 0.13951066 -0.004202295 -0.3466784 0.20845617 -0.3541894 -0.15637824 -0.4042466 -0.35982534 -0.33589748 -0.20702203 0.38030836 0.33807147 -0.23008072 0.3556671 -0.3868883 0.23997436 0.29922396 -0.30786166 0.2896478 -0.43814665 -0.40687835 0.16630824 0.25778708 0.31266856 0.30053854 
doc_82 -0.5752216 -0.5364214 -0.37471706 0.53036284 -0.5625831 -0.20472506 0.5440042 0.5591726 0.37234804 -0.48217222 0.3766253 -0.5173409 -0.091021724 0.30120876 0.5375279 -0.5509876 0.5786147 0.18048956 0.24520417 -0.58444107 0.438459 0.37505075 -0.6271986 0.4294121 0.2494787 -0.3042167 -0.57286793 0.4192697 -0.35164356 -0.40447128 -0.12526989 -0.3123233 -0.342528 0.3682907 -0.5804885 -0.33715865 -0.2999543 0.3468823 -0.52268034 -0.51049966 0.4951155 0.508703 0.17068191 -0.30629748 0.57348883 -0.42278436 0.36615452 -0.36045402 0.56657666 -0.31708443 -0.3921785 0.36806554 -0.35956633 -0.30113602 -0.5705258 0.47479784 -0.2890907 -0.5547319 0.23187046 -0.48874965 0.36360297 -0.53785735 0.16505452 -0.596127 -0.37356958 -0.33933303 0.2599575 0.21965845 -0.002629446 0.5479986 -0.20346907 -0.38102087 -0.5398227 -0.19603692 0.5233891 0.39512822 -0.26106513 -0.26855358 0.14997731 0.24649508 -0.06877667 -0.4941699 -0.43629578 0.35088277 -0.27442077 0.44907987 0.38021693 -0.13413069 0.31577998 -0.34681082 0.5779131 0.3600106 -0.4966681 -0.5785121 -0.54487914 -0.5435081 -0.5857377 -0.4180823 0.39266333 0.112083286 
doc_83 -0.30528635 0.36820504 0.21681929 0.26538467 0.24107556 0.25526193 0.30675256 -0.32879 -0.26744577 -0.20642413 0.30440995 0.34729147 -0.19493423 0.13918209 -0.28778398 0.34466457 0.27834615 0.16560173 0.32674217 0.3540218 0.39385834 0.34870222 0.33566704 0.28060013 0.3791861 -0.34185234 0.29362324 0.29431942 -0.23533998 -0.34161338 0.26459745 -0.32303488 0.23651502 -0.23804171 0.40607804 0.2942706 -0.22225592 0.3131354 -0.25974384 0.30765906 -0.3197767 -0.31916967 -0.055442788 -0.34745798 -0.33389813 -0.33197895 0.18809916 0.3179763 -0.354368 0.2327291 0.23379633 0.3348187 0.1961854 -0.32771084 0.33012626 0.33513477 0.2178562 0.22538748 -0.30959088 0.2871514 -0.28874683 -0.27475357 0.27646565 0.19965012 -0.3343048 0.05543311 -0.27363354 0.109255075 -0.28075746 0.29424742 -0.08513949 -0.2790039 0.37324658 -0.29319146 -0.28308335 -0.27904055 0.2746617 -0.35027465 -0.27352116 0.2392607 -0.10133765 -0.26493877 0.34975722 0.3169443 -0.2115452 0.33780771 -0.3003087 0.33817804 0.353244 0.3136521 -0.30038807 -0.17586464 0.29748103 -0.3396493 0.14804193 0.3846924 -0.34820658 0.10192536 0.31409383 -0.24654825 
doc_84 0.35367584 -0.3587975 -0.19330919 -0.31913978 0.28437233 -0.37927818 -0.41566256 -0.3097215 0.34268194 -0.3165252 0.2461537 0.43660307 0.23876835 0.16120157 0.2808974 -0.23145442 0.29804796 -0.07763701 0.13887839 0.3436497 -0.32654276 -0.2870361 -0.32120785 0.3707734 0.162304 0.27830702 0.122107916 0.13072103 0.2372468 -0.4103618 -0.09971104 -0.3058183 0.3263123 -0.15141661 0.28520802 0.2598426 0.2560245 0.33409417 -0.31331393 0.047098704 0.30845723 -0.33653423 0.3015459 0.032466598 -0.39682877 -0.37123078 -0.25312033 -0.35384643 0.32134345 -0.04725517 0.31786692 0.40175167 -0.32067215 -0.358983 -0.2689858 0.32256165 -0.3812581 -0.42787606 -0.25346765 -0.35599348 0.26669812 0.18321325 -0.33151647 0.26235002 -0.19545636 0.07907552 -0.19123593 -0.19330692 -0.40832806 0.271506 -0.37452406 -0.26416153 -0.22226165 -0.21678564 -0.056828037 0.33540568 0.3089485 0.2497555 -0.056066256 0.27017617 0.2339966 -0.37697208 0.3563851 0.1244742 -0.19186093 0.054049507 0.32271767 -0.3899432 -0.39745808 -0.3908901 -0.37359998 -0.018378831 0.29253286 0.24512985 -0.29195985 0.26339 0.29578066 -0.27612457 -0.25315285 -0.21913704 
doc_85 -0.08884035 -0.23363134 -0.12127031 0.14998436 0.04312183 0.12276097 0.1888069 -0.050812416 -0.19373776 0.27737582 0.11652159 -0.18382144 0.062370773 -0.17328413 0.09793251 -0.13360418 -0.1962501 0.16839395 0.07563748 0.21621792 0.18508244 -0.16007453 -0.20249088 -0.2674553 -0.18932058 -0.14166154 -0.16886333 -0.14235534 -0.19633818 0.15928783 0.1454749 -0.20831528 0.05860299 0.06556242 -0.11048935 -0.08836169 -0.21154064 0.12837878 -0.16910724 0.090367936 0.18955886 -0.20387974 -0.17435083 0.028042581 -0.10625861 -0.012054523 0.04933487 0.017165553 0.18673699 0.10566842 0.16641773 0.044588752 -0.07660706 -0.07179904 0.1297907 -0.2655118 -0.04535831 -0.11877821 -0.12263965 0.31508625 0.12336409 -0.1461663 0.17747773 -0.124518625 0.11549186 0.12962721 -0.12403366 -0.2049944 -0.16659492 0.15263906 -0.1567446 -0.07686229 0.18863851 0.0067603695 0.15252884 -0.13663909 -0.14986555 -0.111491695 -0.20489721 0.108415425 -0.17700022 -0.18325382 0.12847583 -0.10558586 0.056996264 -0.18432803 0.14454208 -0.16976617 0.1072132 0.13511832 -0.21333607 -0.17352663 0.015608259 0.095669135 -0.14720668 -0.15322566 0.1673431 0.13871665 0.16839 -0.19625327 
doc_86 0.1448624 0.15108815 -0.026137453 -0.18638052 -0.00052209006 0.112805724 -0.16827941 0.00028831034 -0.06939134 0.070130534 -0.0875205 -0.14703462 -0.13360247 0.16004384 0.085300185 -0.09175103 -0.110023506 -0.14451393 -0.084054664 0.016823918 -0.13141266 0.17176548 -0.13758579 -0.06925152 0.16084759 -0.17435606 0.16768849 0.058710832 -0.045882154 0.11329033 0.15159836 -0.06689172 -0.14020388 0.18849806 0.17075637 0.08159101 0.035109114 0.051997993 0.096390516 -0.08750469 0.14331117 -0.07307475 -0.12084028 0.16817965 0.102748916 -0.10860711 -0.11681471 -0.12918562 0.1560831 0.10351888 0.14343499 0.18839623 -0.1666943 -0.17942467 -0.1390046 0.18754594 -0.076939054 -0.118054606 -0.042328708 0.10768895 0.17590332 0.1766253 0.13907811 0.1161614 0.118625686 0.14723684 -0.15305878 -0.12961449 -0.16912152 -0.16234891 0.15844622 0.103000246 -0.09303109 -0.15925415 0.15125127 -0.13844346 0.10877769 0.0014856519 -0.109546475 -0.11917881 -0.16053538 0.14216274 -0.18394504 -0.17012027 0.13427909 0.1584643 0.16079703 -0.091406316 0.18400815 -0.17242764 -0.13768391 -0.12007022 -0.14113513 -0.034135398 -0.07647843 -0.08405316 0.15703548 0.1373211 -0.11616864 0.1533649 
