2104 100
<unk> -0.011115586 -0.0023042255 0.0101416055 -0.0067624478 0.0029727365 -0.0047418973 0.0033925606 -0.0044041546 0.011884494 -0.007761934 0.0019835706 -0.0032492236 -0.0054563326 -0.0004209645 0.017000534 0.007971671 0.0061514336 0.01583461 -0.0040664477 -0.010860232 0.008687622 0.0035487437 0.016330753 -0.011505632 0.0007828971 -0.0011261711 0.0014010315 0.010714688 -0.011509329 0.0019540098 -0.004921844 -0.0011190539 -0.009949914 0.002629294 -0.0057738195 0.0010003964 -0.0053959675 -0.008891736 -0.006214043 -0.004481682 -7.151301e-05 0.00066036766 0.0033063383 -0.021053448 0.007544287 -0.0022171806 0.00800477 0.0054055504 0.0008338614 -0.018313339 -0.017911194 -0.00070631184 -0.0047279 -0.0038923447 0.009974194 0.0070417 0.003139495 0.0033502367 -0.00011510355 -0.0025129544 -0.0024399222 -0.016124403 0.009812088 -0.033926554 -0.01284064 0.010721294 0.00969703 0.0012519374 0.023653662 0.004574341 -0.007614105 0.0023174924 0.005907811 -0.00583351 0.009331326 -0.0015914193 -0.018581847 0.01112292 0.009161328 0.014795158 -0.012642525 0.014598725 0.004693591 0.0011051904 0.003722883 0.008319442 0.0025036205 -0.023073884 -0.0099553885 -0.010906018 -0.006710747 0.006520739 -0.014594259 0.005192994 -0.011108071 -0.0050389315 -0.00381794 -0.0044712466 0.0033014452 0.006302609 
nice -0.14100742 0.1506325 -0.11208398 -0.13487428 -0.048358053 0.12834395 0.13138252 -0.13145447 -0.071265236 0.046210352 -0.13235481 0.030084401 0.12829989 0.06277455 -0.096809424 0.07146578 0.12751208 -0.08443157 -0.118076876 -0.071597144 0.071210615 0.06820693 0.048444558 -0.09743634 0.09527483 0.0162692 0.10446045 -0.07960193 0.024365393 0.08165717 0.052795283 0.037642457 -0.108322695 0.043665268 0.10924614 0.10238413 -0.02987222 0.06382162 -0.06986786 -0.03769202 -0.10172888 -0.15732785 -0.09673824 0.14466433 -0.07644281 0.07825426 -0.107214674 -0.09380169 0.09776668 -0.13546693 -0.112778835 0.08804225 -0.18090409 -0.1672949 0.06059062 0.17265216 -0.13221808 -0.1395663 -0.1579168 0.15472013 0.07440002 -0.14083089 -0.062287632 -0.0644877 -0.04116014 -0.021723257 -0.112432264 0.110355705 0.068769336 0.08740349 -0.003067776 -0.121502034 0.0745783 0.008916835 -0.06861351 -0.13537496 -0.0031049247 0.012037173 -0.122401886 -0.16222614 -0.13344891 0.09694405 -0.10691978 0.079734035 0.030594327 -0.1579769 -0.14430381 -0.13916226 0.091115914 0.13780087 0.056570057 -0.010483873 -0.02546291 -0.016830454 -0.11220882 -0.17803766 0.09498397 -0.00475009 0.10110615 -0.02029842 
spicy 0.028840972 0.05808015 0.091245145 -0.081194796 0.062991016 0.015226863 0.05773593 -0.051199485 -0.10606446 -0.06496491 -0.11216925 0.048966404 -0.13907653 -0.111628436 0.025638677 0.02174503 0.10421486 0.045524366 0.06399116 -0.014045371 0.037352867 0.08987734 -0.09006132 -0.01654953 0.059924547 -0.020074394 0.05486751 -0.03398156 0.014326192 0.016145317 -0.0689788 -0.101114124 -0.066269234 0.033321448 -0.028343014 -0.04492233 -0.10028489 0.048745528 -0.032784246 -0.047269594 -0.010010909 -0.019580167 -0.08117134 0.08417031 0.10971322 0.049976777 -0.0762361 -0.004695792 -0.09857771 0.05851854 0.025658904 -0.04241087 0.082768366 -0.06404397 0.009205527 0.0038764651 -0.024415597 -0.044539537 -0.02603179 -0.04475517 0.09088432 -0.0528674 0.09025852 -0.011902542 0.063759424 0.07335962 -0.03018003 0.006551176 0.05670877 0.026687525 0.021924857 -0.09383737 0.06659459 0.062187623 -0.058137815 -0.05852585 -0.05626749 0.07091317 0.053094737 0.032523435 -0.026407203 0.02692611 -0.0020517388 0.051477272 0.07989642 -0.037989587 -0.026611183 -0.06470742 0.081469536 -0.0006593791 0.060697254 -0.046675246 -0.08791825 0.11633929 -0.04100116 -0.06091504 -0.030744625 0.110528566 0.0236448 0.03797544 
and -0.021111626 0.058515243 -0.09508501 -0.023176644 -0.030517247 -0.010924458 0.021393439 -0.08368803 -0.04371124 -0.00837669 0.0698509 0.015249791 0.01824322 0.0038523343 -0.099829786 0.06096896 0.081467316 -0.10489754 -0.022418275 -0.11754178 -0.036887866 0.038876105 0.035725594 -0.087468855 0.008418303 0.009777305 0.094275795 -0.03486717 0.058713727 0.08411598 -0.05576124 -0.017385587 -0.10017978 -0.02405524 -0.03414976 -0.07412316 0.03222662 0.07587793 0.01469712 0.032712296 -0.11626902 -0.017504243 -0.07255439 0.054202303 -0.07082899 0.08791659 0.02493915 -0.06925843 -0.034838974 -0.061553888 0.020285066 0.035189755 0.044918034 -0.053719457 0.04176974 0.05603092 -0.10028825 -0.055160522 -0.015853481 0.055407863 0.05901984 -0.03435463 0.10512821 -0.015285283 0.0013303143 -0.031427763 -0.021803845 0.10066847 0.059141595 0.025925905 -0.007181074 -0.05853202 0.0066823587 -0.05609108 -0.040906545 -0.09073973 0.073620014 -0.009224292 -0.097402416 0.010531537 -0.041987788 0.095340475 0.021875713 0.04097695 -0.003420606 -0.11231626 -0.03605702 -0.09601536 -0.012014178 0.087598994 -0.0074054524 0.029411092 -0.10606514 -0.011270991 -0.114046 -0.0634481 -0.08576756 0.029895512 0.10121816 -0.028407384 
tender -0.05274722 0.12951055 0.07518542 -0.012343424 0.017955206 0.0026531378 0.11067084 -0.10778605 -0.11237808 -0.05136855 -0.13164163 0.06972323 -0.0075017596 0.019269582 0.0060390146 0.007023626 0.08221532 0.028955769 -0.026824009 -0.13841945 0.117734134 0.08266185 -0.03072404 -0.12816058 -0.007610611 0.13847965 0.0656875 -0.0057578348 -0.06662298 -0.028806198 -0.09708551 -0.0030844624 -0.12810954 0.12142978 0.0598192 0.014492977 -0.044136915 0.056770433 -0.048957013 -0.13825561 -0.12546329 -0.09866522 -0.08472824 0.009023609 -0.027281182 0.073562436 -0.015760025 -0.08924145 0.037392844 -0.049601242 -0.11426912 0.07196135 0.010504636 -0.10997154 0.08301221 0.105579615 -0.08574713 -0.048576154 -0.08364703 0.009366585 0.07272542 -0.06484529 0.043893967 0.06994429 -0.027469235 0.07618426 -0.102765225 0.0052743666 0.09987718 0.04557429 -0.010877322 -0.103914954 0.023807826 0.013517952 -0.031167509 -0.13483205 -0.111519486 0.12067493 -0.059603207 -0.11546243 -0.07431828 0.0784297 -0.13157587 0.1369259 0.086937524 -0.038799386 -0.08172554 -0.115083024 0.06756014 0.07224105 0.094912946 0.016670363 -0.10278695 0.027744027 -0.0546449 -0.118332595 -0.014226223 -0.00019012082 0.004288158 -0.076616235 
1 0.03521575 -0.024748052 0.07213972 0.0585796 -0.025107337 -0.05841683 -0.078080185 0.0335721 0.015910216 0.052854825 0.048866898 0.0057346276 0.02444453 0.03526438 0.042817455 -0.10299584 -0.021728514 -0.026726484 0.049449712 0.016134009 -0.015823286 -0.08885092 -0.021190474 0.03214772 0.05522715 0.012784599 -0.051756363 0.032516386 -0.07091467 -0.026940128 -0.054444008 -0.109412104 0.04634239 -0.019490661 -0.03448734 0.033752784 0.019153921 -0.10941003 -0.0027586888 -0.06787939 0.036611423 0.08127477 0.032963876 -0.037003122 0.04738574 -0.07469177 0.062028863 -0.008345509 -0.08759472 0.08145709 -0.020058988 -0.05973597 0.032610632 0.11332465 -0.09472203 -0.11083298 0.03657638 0.058772877 0.029713 -0.053054437 -0.06803152 0.11598328 0.0035226622 -0.01632026 0.05027628 -0.06904604 -0.016672337 -0.068381816 0.008744659 -0.0147705255 0.0062135793 0.10334185 -0.029786248 -0.09786779 0.031795017 0.09377433 0.070975885 0.035096586 0.08185972 0.03021005 0.07159369 -0.044198565 0.085618 -0.067607 -0.084961005 0.08342859 0.06268736 0.08647192 -0.0365952 -0.07925203 0.006147424 -0.033184405 0.032959227 0.06948915 0.08621982 0.072761096 -0.039437514 0.01781027 -0.049899682 0.035795435 
i 0.07380883 -0.03847177 -0.012574672 -0.053933136 0.06080069 -0.055490553 -0.06179133 0.001967182 -0.03236101 0.02348972 0.010259226 -0.016306315 -0.023353003 -0.017566528 0.013197513 -0.035263795 -0.05409909 -0.02742792 0.014853104 0.051013846 -0.08580304 0.0015043016 0.067168936 -0.04457146 -0.019489124 -0.038214006 -0.07237095 0.067599095 0.034904487 -0.024974696 -0.049420413 -0.0141549455 0.037598107 -0.06853845 -0.05048665 -0.06490609 0.042824414 -0.022694144 0.056580618 0.0321931 0.034272097 0.063011855 0.0495794 -0.064019725 -0.0022225387 -0.043153487 0.09166822 0.0627291 -0.057375457 0.0345884 -0.023973204 -0.08575452 -0.029584311 0.019557994 -0.008541942 -0.07800769 0.068242885 0.091450416 -0.045382474 -0.05660468 -0.09412353 -0.01222785 0.046397634 -0.03696127 0.03847419 0.023070347 0.029509572 -0.04770138 -0.029661437 -0.0521289 -0.037413593 0.06680012 0.051572356 -0.078843206 0.051416475 0.06968863 0.06811718 -0.0093686655 0.027058506 0.07332959 0.04934786 0.032779977 0.08054467 -0.070207916 0.01342778 0.07018874 -0.021038739 0.00036780277 -0.067655824 0.07375622 -0.041989904 0.002118897 0.07053659 -0.030640261 -0.0024378013 0.047602504 -0.034785826 0.018439446 0.060591456 -0.051772196 
go -0.08510867 -0.029273905 -0.09036763 0.028555637 -0.009560693 -0.06516643 -0.03009397 0.052143276 0.113011606 0.023532419 0.023553038 -0.028993733 0.06521703 0.16091442 -0.10022232 -0.0015802771 -0.04449725 -0.096923806 -0.11556431 -0.020420635 -0.018380966 -0.1408402 0.10280141 -0.043197155 0.023569386 0.05990605 0.06963711 0.015353398 0.078277 -0.012792182 0.13272008 0.03136503 0.07968692 -0.07601315 0.106959924 0.18551365 0.090303876 0.024240863 0.07198255 0.08815599 0.078798085 0.019081775 -0.054450978 -0.0018502077 -0.022671511 -0.004283763 -0.030456856 0.010315727 0.10149245 -0.045070376 -0.033509362 0.12808256 -0.13084532 0.03881343 0.029386472 -0.024835099 -0.049532093 -0.064941876 -0.01912201 0.18393157 -0.02869545 0.039772715 -0.079177186 -0.03829923 -0.124560446 -0.10287208 0.109282024 0.0015951749 -0.08007453 -0.07176358 0.004682619 0.008671951 0.019070517 -0.097061954 0.010501669 0.0047258963 0.077078454 0.027043099 -0.016648045 -0.0797041 -0.009520826 -0.08491548 0.053796005 -0.0029846497 -0.09136379 -0.039115 -0.011602748 0.015369991 -0.011901544 0.10349803 -0.1545994 0.013411837 0.055036593 -0.020348588 0.012531005 -0.07102035 0.09655004 -0.12200874 0.03249387 -0.029874876 
to 0.007989288 0.042379275 0.114629894 0.015938696 0.025779337 0.04213568 0.038952112 -0.05407785 0.045332283 -0.10635713 0.037563335 0.06599923 -0.111898385 -0.039282687 0.03437847 -0.033762917 -0.011790379 0.049442176 0.13769105 -0.009715799 0.10369839 0.059702862 -0.07008451 -0.033161897 0.12001624 -0.0683211 -0.033108722 -0.052620657 0.015383453 -0.075154655 -0.11521038 -0.051406767 -0.006555992 -0.038506348 -0.09099135 -0.14684196 -0.070910074 -0.075985745 0.013723951 0.020268891 0.017840873 0.057408847 -0.025617557 0.03919592 0.010846237 -0.023553394 0.09362792 0.089767195 -0.10610911 0.063467175 -0.09793338 -0.11635768 0.049925886 0.037841637 -0.035686553 0.025662163 -0.0021006798 -0.032386333 0.07465773 -0.13009803 0.05384171 -0.07622578 0.006992078 -0.051525187 -0.037881073 0.06261322 0.006335626 -0.007598516 0.09423174 0.08095939 -0.08908084 -0.08452109 -0.0368339 0.059081327 0.058703437 0.020799091 -0.09203413 0.10079207 0.06600055 0.028324313 -0.03140901 0.022823099 0.0784674 -0.07427742 0.018622069 -0.069412224 0.010434432 -0.05548691 0.0141795445 0.09851379 -0.03379506 0.05105889 -0.13312049 0.08962129 0.035316546 0.039052747 -0.138071 -0.005357919 -0.06615249 0.035709176 
far -0.061095428 0.047717612 0.026634855 0.017123355 -0.033541624 -0.03242798 0.041794434 -0.015520173 -0.009077969 -0.068012685 0.021670006 0.049932465 0.026108919 -0.090151735 0.071678124 0.09205627 0.027104005 0.03849336 0.056167558 0.032213226 -0.088925846 0.082951225 -0.01257691 -0.0031038695 0.121500425 -0.029434964 -0.09099962 0.082076974 0.05775833 -0.054700453 -0.056120276 0.0018118783 -0.04580827 -0.01594455 0.024253685 -0.026284019 -0.02941489 0.02565249 -0.028475843 0.0059722373 -0.0019790109 -0.0066914624 -0.013670662 -0.0018155597 0.006238989 0.044616908 0.0021660712 -0.032754704 -0.11854697 0.0043327985 -0.009824853 -0.0669649 0.04020184 -0.03605547 0.009547526 0.06339274 -0.06474621 -0.04631124 0.008035467 -0.029719876 0.02660219 0.0036032582 0.09968647 -0.08876938 -0.030359315 0.08165739 -0.0079491325 0.035973374 0.013478138 0.007318614 0.023317307 -0.084278725 0.07586056 0.008836355 -0.061603155 0.0073265233 -0.039354376 -0.033667073 0.06849533 0.0680139 0.0003436575 -0.004410987 0.11137138 0.0100956205 0.07209041 -0.01128093 -0.023241695 -0.10467325 0.06347888 -0.016549394 0.060731728 -0.073139995 -0.03583273 0.07378957 -0.108009554 0.01232042 -0.06876825 0.06087099 0.09725208 0.07212028 
too 0.05265513 0.0062936554 -0.0083129015 0.0359345 0.035427123 0.044098258 -0.0653962 -0.025734667 0.06589028 0.010216827 -0.039968308 0.009689105 -0.017707728 0.11728537 -0.056915965 -0.110816605 -0.02913677 -0.010387831 -0.009879115 0.018464554 -0.00056057685 -0.008753932 -0.056970943 0.0753167 -0.101082675 0.049567766 -0.038257636 0.020190451 0.0149830105 -0.009366352 0.00042848047 -0.06680946 0.028935272 0.020581054 -0.07942697 -0.022161052 0.049084533 -0.058067046 0.028230807 0.04480345 0.060908098 0.009597977 -0.08573314 -0.017871045 -0.003318546 0.035821773 -0.032216463 0.050171237 0.027294854 -0.028546406 0.031849027 -0.065934844 0.0626529 -0.0043382603 -0.11384486 -0.08051468 -0.004143333 0.11723017 0.07370521 0.07539008 -0.013417253 0.051155794 -0.03176314 0.12355528 0.12271761 -0.10951714 0.037682325 0.031570733 -0.001399042 -0.039681662 0.022878055 0.07362532 -0.04350095 -0.013674632 0.020402672 0.07152929 0.04379691 0.0017893057 0.0048290845 -0.02354079 0.020926613 -0.053494215 0.013007041 0.0215737 0.013966768 0.071511306 0.049168415 0.1158986 -0.007749114 0.036396824 -0.05939049 -0.055764552 0.040663313 -0.051552054 0.081889965 0.026354268 0.020680537 0.05385882 -0.022918124 -0.07466945 
many -0.06450794 -0.008400907 -0.038188633 -0.028490813 -0.10819016 0.05828117 0.056123428 -0.010228382 -0.06650867 0.056015402 -0.06775255 0.12335153 0.09682357 -0.077899605 -0.014689924 0.090005174 0.07308195 -0.09071516 -0.12513947 0.06381819 -0.11962623 -0.00886084 0.013822705 0.047036164 -0.010771256 -0.08528255 0.04311323 -0.13408256 0.15402675 0.023259921 0.10668342 0.09512571 -0.040631 0.023820382 0.04817169 0.0137448395 -0.01757614 0.07302579 0.06937345 0.10781201 -0.09489922 -0.042880137 0.0029813773 0.091510095 -0.0784984 0.013836229 -0.07322554 -0.019570721 0.11262299 -0.08013504 0.08597824 0.07310461 -0.009436497 0.007364736 0.026588814 0.048859283 -0.025416119 -0.09895032 -0.08196043 0.085470736 0.09007756 -0.0026131256 -0.11488793 0.16434138 0.14226857 0.03236325 -0.1335341 0.06368092 -0.09311177 -0.13902374 0.12359132 -0.029435001 -0.0322134 0.09803991 -0.059240427 -0.0684156 0.030047853 -0.14643069 -0.035581224 -0.038215205 -0.06823231 0.06209695 -0.09620594 0.01701693 0.09423181 -0.015851207 0.0052488004 -0.078206815 0.041175514 0.013390692 0.1173065 -0.0598951 0.090441175 -0.035724197 -0.07116125 -0.025486255 0.11456533 0.06029853 0.015975578 0.08324136 
places -0.034631092 -0.024187827 -0.08326029 -0.026275361 -0.11718996 -0.009346447 0.020731073 -0.025556605 -0.048478488 0.055710245 -0.13154964 0.082827404 0.036459528 -0.0004892962 0.0061045857 0.02911222 0.040889256 -0.09019797 -0.07152866 0.014034026 -0.013958239 0.019643862 0.066890486 -0.10888912 -0.10797192 -0.021821648 0.09062932 -0.06902332 -0.030337343 0.08562411 0.07307146 0.014048953 -0.06730636 0.068167225 0.05497549 0.06140945 -0.009169566 -0.0061105955 0.01944741 -0.06885318 -0.07608206 -0.071381666 0.06465685 -0.019550782 0.011191784 0.057439372 -0.017250191 -0.03212693 0.017478963 -0.03191628 -0.01528348 -0.001968559 -0.115150616 -0.04604663 0.07670167 0.011598471 0.008680527 -0.012254877 -0.046872832 0.07539878 -0.014539635 -0.0811851 -0.05162736 -0.025997058 0.09424789 0.06099173 -0.07723427 0.009812672 0.008059092 -0.03683282 -0.042763747 -0.029543132 0.03917408 0.081352726 -0.02784394 -0.05448445 -0.005434232 -0.06855956 -0.033655193 0.041167546 -0.007824091 0.0242647 -0.08154358 0.04867271 0.042582385 0.02901086 -0.01046171 -0.09694584 -0.0068105585 -0.05506847 0.038352743 -0.0046588653 0.04718624 -0.09321732 -0.08382748 -0.0898975 0.047573175 -0.007226128 0.030471278 0.0820914 
ive 0.062621295 -0.02932119 -0.06221455 -0.032331556 0.05653614 -0.08680958 -0.073019385 -0.033754863 -0.071254954 -0.018769953 0.019852458 -0.056881968 -0.031384565 -0.09535543 0.008198148 -0.044156995 -0.03745668 -0.054642685 -0.08958509 0.06095255 -0.04928276 -0.11830042 0.03180299 -0.056835663 -0.10082516 -0.12585239 -0.06390963 0.064231284 0.05776114 0.04161743 -0.100821905 -0.029920345 0.021752061 -0.018425222 -0.067813985 -0.077753685 -0.013497305 0.016613314 0.09317482 0.08615171 0.088746294 0.078273706 0.019591393 -0.085978836 0.092528485 0.009596714 0.09674251 0.12699191 -0.059658587 -0.025522267 0.12601288 -0.0687211 0.038665608 0.11776947 0.035841618 -0.08974297 0.03640487 0.113261595 0.07005849 -0.061003212 -0.037436534 0.029196173 0.06394621 0.13827723 0.09434022 0.063854106 0.07389635 -0.033436608 -0.05867291 -0.04496901 -0.103751644 -0.005281261 -0.047174364 0.082041934 0.13418745 0.09219897 0.018441351 -0.07612225 -0.06820311 0.07119334 0.07757403 -0.0057178605 -0.07795365 -0.13486768 0.065251 0.05804217 0.13668936 0.13043346 -0.12515044 0.04089981 0.055073205 -0.110670425 -0.008126086 -0.0723094 0.00063797564 0.043047957 0.051933 -0.053313658 -0.022378761 0.038925655 
never 0.09600684 -0.062084887 -0.08639148 0.005945961 0.053887963 -0.029581191 -0.13284422 0.07958702 0.0077280393 0.156482 0.06323935 -0.047221996 0.14132546 0.15384151 -0.09122411 -0.15482354 -0.07200784 -0.030051509 -0.1554025 0.09189485 -0.028594492 -0.14933181 0.096826516 -0.031277385 -0.11432364 0.030992666 -0.12609936 -0.006216909 -0.007186421 -0.033959907 0.08450139 0.12382663 0.10840398 -0.08902593 -0.005555399 0.03294696 0.16534731 -0.07244886 0.06628957 0.07293383 0.14069739 0.10431153 0.09381689 -0.06723823 -0.06409297 -0.14320385 0.09062666 0.130903 0.05470145 -0.12667705 -0.049204167 0.14131945 -0.02356097 0.13857812 -0.033228554 -0.15932207 0.051097795 0.121000186 0.089186855 0.07261972 -0.062534116 0.13184568 -0.09761112 0.044850197 0.022605851 -0.09753795 0.015730007 -0.15061824 -0.10864018 -0.04082154 -0.11980172 0.15003087 -0.08652702 -0.1564909 0.11991831 0.07951084 0.1737097 -0.10409324 -0.11000012 -0.017921505 0.12408884 -0.07457546 0.026329271 -0.13094044 -0.05694645 0.066774234 0.10841494 0.17234856 -0.07221311 -0.010168124 -0.09087552 -0.03148596 0.18019277 -0.12000927 0.08920106 0.060555227 0.07241722 -0.121400096 -0.0147953825 -0.13411526 
seen 0.07756332 -0.04897409 0.08119477 0.02701167 -0.08093515 -0.07087523 -0.013770926 -0.048164938 -0.006390109 0.04587963 0.027410625 -0.051304217 0.00078328425 0.021727407 0.06051476 -0.02031758 -0.03802821 0.0077908086 0.019083617 0.039661046 -0.10523708 -0.09244755 0.017105106 0.015886944 0.04166832 -0.08505807 -0.022602577 -0.0761691 0.04892208 0.0105484985 -0.097213246 -0.10104369 0.03594489 0.02363666 -0.04033451 0.073351145 0.01419472 -0.0438195 0.06931411 0.031091295 0.074913464 0.01683963 -0.08471477 0.03833528 0.088188395 -0.06670934 0.095245324 0.051352423 -0.017620372 -0.044815965 0.07644864 0.02150664 0.10630815 0.060723826 0.008977622 -0.043597136 -0.0077891517 0.050150614 0.003637062 -0.006511628 -0.065472975 -0.0005028537 -0.039303266 -0.09539883 0.099521905 -0.05636754 0.061781686 -0.060456585 -0.083827764 -0.035010405 -0.0497822 -0.05999046 0.03194994 0.011458566 0.060385294 0.06429008 0.08770411 -0.041039947 -0.033953626 0.04242115 0.059223328 -0.08678873 0.003484993 -0.08857735 -0.025394196 0.091840215 0.03689066 0.04012565 -0.05483401 0.07283034 -0.06323735 -0.012035214 -0.0068665235 -0.07112359 0.105251506 0.0019093786 0.060244616 -0.06960768 -0.021205733 0.047905166 
any -0.0025161325 0.01175853 -0.037735313 -0.10311887 -0.03991724 -0.01034287 0.037640385 -0.035742555 -0.012902865 -0.06810712 0.008044303 -0.08978879 0.02206506 -0.083595164 -0.07183691 0.07794132 0.0145382825 -0.096144296 0.07302393 0.01403259 -0.062336642 0.035243347 0.11606021 -0.05494346 0.045830633 -0.050397426 0.012292201 -0.03782363 0.05347343 0.048556674 -0.0035760498 0.15759848 -0.025902186 -0.019212635 -0.04406778 0.09163446 -0.04899781 0.07423415 0.11536276 0.014035844 -0.08272277 -0.013174295 0.0207201 0.04896269 -0.11470772 0.009699922 -0.01994869 -0.00059118634 -0.06402398 0.0069673206 -0.0760432 -0.032191463 -0.09446493 -0.057958044 0.16033316 -0.015269545 -0.099183284 -0.14766248 -0.04839171 -0.0051340163 0.005889634 -0.05269585 0.00026380122 -0.109956026 -0.08464679 0.15787476 -0.04293104 -0.008989877 0.042163793 -0.066975 0.010715442 -0.012508 -0.010915669 -0.07064326 -0.024359543 -0.09410204 0.14117694 -0.12545621 -0.06219347 -0.046486963 -0.059738897 0.03767323 0.020179655 0.053406756 -0.028773045 0.010435664 -0.111764155 -0.08963818 0.012014718 0.108790666 -0.045723714 0.041560326 -0.02729711 0.059732076 -0.03313223 -0.0067269066 -0.019478757 -0.0023163254 0.07876666 0.0947382 
restaurant -0.13568246 0.17713143 0.07052441 -0.18293959 0.05690644 0.092005774 0.15531532 -0.13129003 -0.17228435 -0.05656541 -0.029020377 -0.0012430511 0.00932645 0.021734973 0.058898717 0.069056675 0.19210964 0.01317742 0.11196257 -0.16107339 0.03756913 0.11328191 0.020100154 -0.096708946 0.11920409 0.1487101 0.105564184 0.112093 0.008564756 -0.008329804 -0.17008261 0.02531761 0.011656307 0.055819646 -0.047166113 -0.058995944 0.033139642 0.1524212 4.1595846e-05 -0.14440559 -0.13819341 -0.15614781 -0.100306585 0.040463697 0.09186128 0.018314468 -0.07751381 -0.098727696 0.05095807 -0.11545999 -0.030076444 0.1189205 -0.006192923 -0.13567314 0.030727638 0.10954184 -0.17585726 -0.12932141 -0.03571557 -0.08069915 0.10517648 -0.06605196 -0.014505613 -0.14332464 -0.03664246 0.04682047 -0.08507629 0.036767505 0.15686652 0.03793952 0.021149436 -0.15208651 0.12165682 -0.052220248 0.023288162 -0.07413572 -0.0023440844 0.17099866 -0.011804159 -0.116806574 -0.13886239 0.05276143 -0.0364782 0.05418496 0.06861653 -0.1452384 -0.03747017 -0.0909519 0.030573782 0.030196298 -0.023433799 -0.013335961 -0.12684895 -0.047483306 0.031757947 -0.1443003 -0.06131635 0.0013459204 0.12764135 0.022602785 
that 0.006934503 0.023133302 0.08266391 0.14706105 0.042295773 0.008991237 -0.09493362 0.097799905 0.026154427 0.0031639184 0.054935243 -0.0021395343 -0.0067198635 0.07883215 0.004727682 -0.123675644 -0.11865394 0.006626822 -0.03718057 -0.0054253065 0.1143485 -0.09473194 -0.11132472 0.01777127 -0.031732894 0.033483814 0.017454881 -0.045411196 -0.16569288 -0.11147205 0.12169358 -0.063962586 0.10841963 0.041945726 0.044401877 -0.028986702 0.02241515 -0.11798152 -0.036893636 0.04944455 0.086152844 0.041235536 0.0054581542 -0.053533528 0.035455238 -0.03667209 0.10147875 0.055943232 -0.03646054 0.090644754 -0.00053924153 -0.058600668 -0.01564882 0.04731249 -0.15045238 -0.12629062 0.13314027 0.13435942 0.10008571 -0.027521437 -0.04424026 0.08482495 -0.11970533 0.047765538 0.024700517 -0.082898475 -0.03817045 0.015767459 -0.06829046 0.068162814 -0.029154385 0.05248659 -0.069578685 -0.057062477 0.105412416 0.07281574 -0.04936338 0.071393624 0.011092253 -0.0336257 0.042986233 -0.028356826 -0.0056312904 0.023611702 -0.06494324 0.08390209 0.15482937 0.07844632 -0.013108615 -0.103461854 -0.012472816 0.009523221 0.09921355 -0.038878594 0.18890661 0.10171064 0.030181412 -0.03577829 -0.0981064 -0.12256625 
serves 0.0020667606 0.00084618136 -0.062310588 -0.049777567 -0.010440329 0.083969004 0.053744968 -0.008977542 0.036588088 0.05914604 0.058500238 -0.0031833255 0.017062433 -0.007431941 -0.014685612 -0.012356073 0.030818373 -0.012078817 0.012487055 -0.04140837 -0.030474262 -0.05677458 -0.009197021 0.04299897 -0.015992336 -0.003805285 -0.02539376 -0.013455125 0.1018665 0.056077387 -0.01928855 -0.0024937345 0.012279342 -0.04270127 0.0012534223 -0.019455014 0.075893745 0.031840313 -0.02814731 0.018923279 -0.0040816003 -0.0814021 -0.049983095 0.020920658 -0.033839617 -0.030602971 -0.06857947 -0.010692359 0.0059226537 -0.08021557 0.06695993 0.007920585 0.0959721 -0.0062031723 -0.029837841 -0.0014679348 -0.07253425 0.06444703 0.0039639655 -0.024050144 0.0144027015 -0.012441556 0.068557225 0.003914578 -0.036833808 -0.033646952 0.0969582 0.064820044 0.00439269 -0.1032068 -0.0024318527 -0.008991505 0.026455611 -0.030324025 -0.011200674 -0.04476743 0.020918956 -0.026144214 0.013522208 -0.057200212 0.010880285 0.047354113 -0.0129445335 -0.0039649196 -0.0019126474 -0.013034915 -0.0530574 -0.053442903 0.046394724 0.011360017 -0.005136662 0.023250217 -0.03390705 0.04144243 -0.026590493 -0.019879714 0.030276109 0.071547255 0.07864418 0.019974208 
a 0.015923137 0.012269996 -0.07649015 -0.03006097 0.046781626 -0.0066347974 -0.045795687 -0.044577893 -0.006801264 0.06955893 0.07565824 -0.057709433 0.07723276 0.01305288 -0.1141369 0.06317912 0.01562136 -0.15408245 -0.062260203 0.032814488 -0.07701647 -0.049525864 0.13962097 0.056867294 -0.008305954 0.0065129898 0.06111802 0.046467554 0.08020883 -0.014193194 0.06341459 0.09016631 -0.018895388 -0.051755298 0.10772553 0.068925455 0.023539582 0.11715556 -0.055887815 0.07763116 -0.0024932204 -0.09193288 -0.09514174 0.04056436 -0.10311601 0.096329704 -0.09096668 -0.02604643 0.03929569 -0.08767977 0.00360893 0.10178881 -0.007752109 -0.04245841 0.018740783 0.030156014 -0.12111501 -0.04817468 -0.074424006 0.08790499 0.0115927765 0.03495815 0.09362056 0.012627802 -0.06391929 -0.018076017 -0.020568669 0.035036337 -0.035639957 -0.026607642 0.1262209 0.026795037 0.022212423 -0.014343556 -0.10612963 -0.052540317 0.09592689 -0.033245884 0.00945741 -0.054115366 -0.026046153 0.033325024 0.08568514 -0.0011843382 0.0011889976 -0.046076838 -0.042178 -0.006541431 0.051975295 0.029020833 -0.026517475 -0.06872741 -0.056201767 0.033341423 -0.058583148 -0.067391366 -0.01640915 0.044394076 0.16131404 0.04154962 
egg -0.07795311 0.010735845 0.044311926 -0.010790981 -0.08766291 0.056052748 0.010982252 -0.07589299 -0.046322055 0.032361034 0.0138580175 0.045303144 0.050686687 0.06894357 -0.022437546 -0.055256125 0.054095156 0.0128690675 -0.061052736 -0.041868325 0.04832709 0.089699745 -0.011741077 -0.061362583 -0.046619367 -0.024760302 0.032604236 -0.013994813 0.041605454 -0.028879194 -0.06554214 0.033354666 -0.04888094 0.05289815 0.05721709 -0.043550566 0.06301432 0.05501466 -0.09677377 -0.056543883 -0.079304084 -0.05888125 -0.036818177 -0.021501936 0.027681755 0.02281599 -0.02897056 -0.026867043 0.06500306 0.004297369 0.016112398 -0.010495407 0.029878002 0.019485606 -0.015251906 0.007086099 -0.104455784 0.06889077 0.009708362 0.050974075 -0.01950792 -0.009815528 -0.013093102 0.07144985 0.0745019 0.04393148 -0.07265596 0.03009289 0.020595258 -0.008834438 0.01886663 -0.033899635 0.08568045 -0.039773688 0.0026305942 -0.064207755 -0.017940631 -0.007929692 -0.06440469 -0.010726597 -0.091221444 0.04561434 -0.04350941 0.09196164 0.016373554 -0.1061554 -0.025554132 -0.014882098 0.04454176 -0.015687302 0.060498253 0.028673315 -0.024089841 -0.05998369 0.019259974 -0.010222487 0.06948524 0.06540241 0.054851852 -0.016270379 
breakfast -0.11038305 0.07671223 0.009268673 -0.17001683 0.057480443 -0.022458646 0.10771822 -0.13817424 -0.120978415 0.05727752 -0.0957452 0.05150929 0.0807277 0.054883182 0.017581122 0.07765821 0.104580015 -0.001810614 0.0121459095 -0.1323781 -0.023693465 0.15948513 -0.033889934 -0.050284356 0.13017221 0.059081845 0.038806714 0.14665055 0.044888537 -0.008421774 -0.072595745 -0.03435266 -0.14009517 0.05795336 0.078243084 -0.032006044 0.015243389 0.12095378 -0.033906545 -0.103101596 -0.12532371 -0.13143751 -0.07693529 0.03908636 0.04665256 0.076664045 -0.09644404 -0.096527375 -0.009276282 -0.09569701 0.0017832449 0.002356418 -0.07024356 -0.13457187 0.061966926 0.14725581 -0.099384315 -0.0432031 -0.1493088 0.023306828 0.12311888 -0.084712565 0.12716754 -0.09914675 -0.037677675 0.08000935 -0.09818384 0.074058406 0.06790738 0.12849331 0.029447308 -0.06887161 0.14440037 -0.0067353905 -0.017556233 -0.09020608 0.006181686 -0.036912985 -0.010211854 0.0011191623 -0.15542881 0.15580769 0.042705838 0.0618892 0.12476196 -0.10183239 -0.1289345 -0.107342444 0.035464834 -0.01786899 0.08507946 -0.0076094475 -0.13887653 -0.008222163 -0.13349536 -0.08713325 -0.019476838 0.09315339 0.14669406 0.060332835 
especially -0.06790017 -0.022661814 -0.046832558 -0.07989436 -0.032556005 -0.063517265 0.0081759505 -0.02400978 0.038720816 -0.053034242 -0.028220419 -0.048585515 -0.07353405 -0.018225506 -0.07399172 0.038962077 0.061780997 -0.017590515 -0.020126697 -0.06159736 0.058190353 0.049025998 -0.0069530066 -0.04424035 0.020366263 -0.013262256 -0.011242568 -0.0062119896 0.070843734 -0.044766005 0.033344124 0.04954636 -0.079146035 -0.0058854846 -0.0063474453 -0.0389377 -0.07376072 -0.003379631 -0.04269594 0.010757004 0.00939509 -0.039783787 -0.022564266 0.051157493 -0.07669913 -0.0072327475 -0.009603004 -0.061844714 -0.023255736 0.047673162 0.029137125 0.016965635 -0.04127711 -0.015978698 0.015538241 0.03294304 -0.032633636 -0.0054576593 0.0017789487 -0.08966252 0.007869712 -0.013783895 0.061235033 0.07187358 -0.03900475 0.02519075 0.07396615 -0.0175875 0.046069395 0.02424666 0.041762847 -0.02586314 -0.059091847 0.058090556 -0.024917258 -0.06594376 -0.03288711 0.026770756 -0.058164965 -0.015150201 -0.009309368 -0.012088702 -0.00510692 0.036863834 0.043576747 -0.06304402 -0.073376 0.025358208 -0.00919923 0.006878672 -0.025592647 0.072914876 -0.06581589 0.04732155 -0.02649062 -0.037022218 -0.039949972 -0.046073858 0.0688191 0.0102605885 
for 0.08292016 -0.033540577 -0.034044173 0.043631796 0.049414802 -0.07817698 -0.030852864 -0.008301744 -0.04472148 0.021705419 -0.015695287 -0.075914994 -0.009131091 0.0065987674 0.048719145 -0.035494376 -0.088111654 0.074664295 0.023237145 0.11442629 0.023430016 -0.009442353 0.013787278 -0.041310403 -0.0069137057 0.005912309 -0.018790502 -0.06424721 -0.03204445 -0.04659809 0.012592409 -0.01552457 0.0557438 -0.03157865 -0.030933613 0.012307895 -0.020596849 -0.01162173 0.06631521 0.02178807 0.1184249 0.101105586 0.045488153 -0.023589015 -0.03167404 -0.06637839 0.038917035 0.045970682 -0.06333189 -0.029053995 -0.011362202 0.031079656 0.0052075805 0.070308916 0.055090282 -0.06022702 0.06367066 0.038853627 -0.015581546 -0.03873282 -0.068290755 0.04131761 -0.114400245 -0.034243315 -0.018088486 0.008514137 -0.00635953 -0.011434392 -0.10560031 -0.018663414 -0.07464605 0.078515515 -0.0075479676 -0.005121871 0.12734924 0.08892831 -0.030175101 0.015194333 -0.07119755 0.0022869427 0.1024863 -0.044377737 -0.04513094 -0.026371032 -0.039823685 0.030959578 0.08581088 0.10487397 -0.037979517 0.011986948 0.043060806 -0.102962136 0.08328169 -0.113818 0.096635185 0.013761259 0.06693525 -0.070821 -0.037851565 0.008196959 
$400 0.08524305 0.023836652 -0.015195818 0.025931029 0.00022019973 -0.029779438 -0.013255585 0.021605708 -0.061892007 0.03548476 -0.038020656 0.06615273 0.010924195 0.077887364 -0.012681616 -0.06925974 0.0057053776 0.0577559 -0.0064112237 -0.0412616 -0.06781818 -0.016269173 0.007492446 -0.031399086 -0.066943124 -0.00089495187 -0.007892374 -0.05636979 0.03967182 -0.014339986 0.05266993 -0.00909857 0.037719868 -0.011315032 -0.016217435 0.08876263 0.007135619 -0.055056214 0.002204973 -0.09021871 -0.05599762 0.06804413 -0.094754376 -0.0048186397 0.017473308 -0.04488336 -0.057974145 -0.015014607 -0.01803403 -0.018152727 0.05650984 -0.010391829 0.07328736 -0.067184694 -0.026285706 -0.02373682 -0.032512538 0.013605507 -0.037852306 0.041060373 -0.044147782 0.00733966 -0.023409987 0.011632997 0.0457665 -0.056718167 0.010846098 0.017595785 -0.03262789 0.048017513 0.026059376 -0.0044552847 -0.042073853 -0.0320669 0.07917352 -0.004458773 0.022492813 0.0050393585 0.0014933465 -0.02642061 0.05800829 0.012288378 -0.051427886 0.07676032 0.003122256 0.0075801965 -0.07120654 0.015448032 0.05789658 -0.019805046 -0.026889835 0.030356815 -0.07703646 -0.005100966 0.011983938 0.05358859 -0.020898517 0.063965075 -0.044561334 0.06821096 
0 0.04308902 -0.021004736 -0.014075376 0.019068424 -0.019404864 -0.013862014 0.031525243 -0.020764245 0.01483449 -0.010157861 -0.034195997 -0.008008443 -0.024603963 0.03966273 0.029293146 -0.024282968 0.02896538 0.042321626 0.038614932 -0.02706343 -0.048705127 0.022032473 -0.019880343 -0.027324487 0.046784807 0.038770173 -0.028613437 0.02843317 0.01791041 -0.001245439 -0.011370219 0.0063170567 0.0353848 0.00010658428 0.045045886 -0.04783381 -0.03563174 0.044913147 -0.046448994 -0.018693436 0.022493865 0.008873023 -0.011842847 0.022960331 -0.018416513 -0.040484916 0.025440108 -0.005064953 -0.008197404 0.04633149 0.0043038726 -0.040872835 -0.04274285 0.020617258 0.048974518 0.043025937 0.022908572 -0.022722293 0.037003886 0.023855757 -0.048152577 -0.005263768 0.022519793 0.03553817 -0.039635636 0.014027689 -0.0023907423 0.045284454 0.04462986 -0.036516763 0.043967854 -0.009777058 -0.036518835 -0.026056588 0.024206404 -0.005308736 -0.020837177 -0.044162955 -0.043744124 -0.020455195 -0.043579735 -0.006090723 -0.042141248 -0.035838258 0.02967472 0.0005296841 0.005025994 0.03371242 -0.01160549 0.028996024 0.012505721 0.028470028 0.014959145 -0.01720643 -0.036176156 0.015527416 -0.015093576 -0.01888516 0.019555893 -0.019349648 
all -0.006789362 0.0033382305 0.043471072 0.047897525 0.0032581782 0.041668087 0.044347182 0.050091036 0.012195778 -0.07829971 -0.031403016 -0.013591798 -0.01576162 -0.044115398 0.056610182 0.0134594 -0.0067056464 0.10690245 -0.06166642 -0.021963624 0.046877284 -0.024096103 -0.013615182 0.041845262 -0.04967519 -0.061571244 -0.074588306 0.03361362 0.08266655 -0.012087089 0.06356271 0.04016741 -0.0012842298 0.016003558 -0.01972458 0.029899286 -0.077688515 0.057364646 0.034699365 0.034319058 0.01961921 -0.023250805 0.053996015 -0.018450838 0.03771308 -0.010652579 -0.08640831 -0.034250896 0.055633012 -0.003973223 0.089216866 0.0053872736 -0.07431385 0.023641897 -0.048727274 -0.008574487 -0.0032618137 -0.053913955 0.045175094 -0.01010986 0.034123506 -0.04488591 -0.11077592 0.09276357 0.028011851 0.014205532 0.06510844 -0.024202336 -0.018748317 -0.018406274 0.07035853 -0.039287236 -0.00842209 0.07860921 -0.055552058 0.025048614 -0.037299722 0.0476521 -0.023735354 -0.016380316 -0.012777365 0.04337191 -0.059418377 0.05314135 0.04475898 -0.040234707 0.05369677 0.041276503 0.08008358 0.029162677 -0.009205178 0.025181865 -0.0017293075 0.024300536 0.043012608 0.0071106805 0.00074474915 -0.03262417 -0.047769733 0.11280708 
in 0.0701454 0.0900384 0.048210043 -0.099850565 0.068833105 -0.06852612 -1.2024142e-05 0.019927483 -0.032132797 0.08310201 -0.0585834 -0.018159272 0.07375512 0.07591977 -0.058418773 0.0068520783 -0.00042703576 0.005665072 -0.029829614 -0.036981035 0.04213749 -0.00051231746 0.023996351 -0.099334955 -0.031520985 0.0052147917 -0.039030515 0.10596266 -0.08292504 -0.12594523 0.00039382256 -0.028721772 0.0159552 -0.0065780967 0.04471215 -0.045501642 0.063580856 -0.03987509 -0.06973653 -0.0752309 0.018070696 0.011922777 -0.0065499106 -0.00929776 -0.016273016 -0.0238696 -0.010567074 -0.011263504 0.012548243 -0.032012727 -0.13012047 -0.015014318 -0.0957869 -0.07315475 -0.072672814 -0.048637174 -0.081033505 0.015165738 -0.1026583 0.0057661673 -0.029881155 -0.08885836 -0.028086174 -0.069362134 -0.078117274 0.085470185 0.014731703 -0.09027759 0.05652344 0.15927595 -0.024924522 0.09299611 0.0944408 -0.057634834 0.08133682 -0.0032458573 -0.03833726 0.01668405 -0.019573085 -0.03362921 -0.05099383 0.10358601 0.106257275 0.056702945 0.027773453 -0.04289965 -0.08293681 0.0137139475 -0.07517229 -0.023352792 -0.003636402 -0.023245668 -0.06662457 -0.060391344 -0.050850462 -0.036501065 -0.031349815 0.06382425 -0.014462621 -0.11184301 
an -0.023860795 -0.011506306 0.0068316287 0.02134195 -0.027128436 0.0007543982 -0.051458802 0.038513903 -0.044598285 -0.0787034 0.026130103 -0.01711168 -0.065618366 -0.020976206 0.07069516 0.015274531 0.05300241 -0.023902413 0.09189142 0.06346822 -0.031906158 -0.04929914 -0.0003972352 -0.084698796 -0.00024917512 0.057744898 0.04361251 0.00727545 0.004607565 0.03300744 -0.05257619 0.029419785 -0.016771622 0.021928014 -0.08618301 0.07873849 -0.04280002 -0.033091277 -0.008167137 0.006174554 -0.07923416 -0.024803635 -0.042568285 0.03329199 0.011522351 0.026429642 0.06992598 -0.017625956 -0.004168628 0.0859034 -0.0043091057 -0.09187631 -0.04375089 -0.010315342 0.10253171 -0.0010720764 0.06896665 -0.052055843 -0.007129003 -0.11366134 0.048585605 0.012011159 -0.028405318 0.023583733 -0.011446088 -0.016900666 0.08711039 -0.04490707 -0.036277812 0.024832703 -0.061673485 -0.0057934388 0.0013668635 -0.036878496 0.057989534 0.01156734 -0.013588721 0.077422336 -0.07964401 -0.10112705 -0.06262961 -0.016787546 -0.08752487 0.0404117 -0.042140767 0.08071986 -0.043054488 -0.039122596 0.00058077986 0.09289303 -0.08090809 0.01206786 -0.067091316 0.012472863 0.026139287 0.0021995308 -0.008251609 -0.049337707 -0.009406184 0.09654563 
excellent -0.10227105 0.10131807 -0.006427745 -0.12925899 0.013779682 0.043618828 0.11444064 -0.15227549 -0.06325659 -0.028254792 -0.11534643 0.055928428 0.047003757 0.04231689 0.0061407667 0.11005502 0.061605833 0.041106306 0.021781383 -0.10079878 0.11502139 0.17615661 0.00046101533 -0.07370974 -0.030060986 0.10910097 0.059549678 0.109308034 0.038917284 0.0063355356 -0.07904835 0.09111235 -0.097739264 0.10461964 -0.0011746271 -0.00013779261 -0.08599719 0.085960895 0.005115742 -0.027798224 -0.06395595 -0.07773832 -0.038159877 -0.10301229 0.07463078 0.081718914 -0.0660516 -0.119506195 0.071424715 -0.055084065 0.04768881 0.09359268 -0.06891182 -0.07010823 0.064367965 0.07843619 -0.14500777 -0.11340386 0.009172731 -0.058651216 0.11574165 -0.06950575 -0.023062292 0.03572069 -0.051451977 0.12321776 -0.08172034 0.023074614 0.10453673 0.12853634 0.016519742 -0.060656708 0.10318305 0.07209796 -0.009428536 -0.105479546 -0.06870877 0.11562605 -0.12084015 -0.10357573 -0.12459325 0.16232261 -0.087710924 0.09471206 0.08664029 -0.056990378 -0.08697396 -0.08973777 0.08249508 0.035375886 0.05506086 0.021758333 -0.02975433 -0.09761494 -0.042916548 -0.10647826 -0.059118554 0.0239701 0.037799776 0.00594725 
highlighted -0.02839098 -0.0019332862 -0.06307298 -0.07678818 0.0582261 0.02942086 0.03227818 -0.056997 -0.041405443 0.06446683 0.017213935 -0.022935508 0.022703854 0.053084817 0.0014088127 -0.019074976 0.05031325 -0.054810334 0.003282351 -0.0161686 -0.012794176 0.020567687 0.043550923 0.0015925855 0.0026795482 0.050565097 -0.021097641 0.040638115 0.024729684 0.058899418 0.024163485 -0.039980862 -0.025045209 -0.054755937 0.022434156 -0.011991566 -0.010413042 -0.017869761 -0.0079255095 -0.014283495 -0.05187581 -0.010609473 -0.055825584 0.06933041 0.013492843 0.052032415 0.016300408 -0.069322705 0.009878809 0.008770303 0.02451524 0.0023949505 -0.0011011511 0.0056692977 -0.058354586 0.07519269 0.0055512376 -0.021519367 0.032599058 0.043530487 0.063856706 -0.047363833 0.02566472 0.02959462 -0.0804645 -0.015221207 0.04279112 0.063045956 0.04452718 0.0071366127 0.047520697 -0.06552403 -0.017827084 -0.06632711 -0.06367158 0.017550278 0.041449964 -0.015316894 0.06317757 -0.038334604 -8.072999e-05 -0.009825559 0.0551642 -0.034541417 0.00050184125 -0.018609365 0.008851314 -0.049887896 -0.021964526 0.04019463 -0.0672709 0.010873087 -0.032450512 0.007049174 -0.040941976 -0.037940733 -0.038715888 0.064933255 0.04771524 -0.062006563 
by -0.016152991 -0.049631126 -0.03851433 -0.11484531 -0.01046993 -0.03020642 -7.549954e-05 -0.007837621 -0.06486481 0.03576721 0.038295258 -0.076395884 0.06346167 -0.051721375 -0.040445752 0.06290067 0.020138891 -0.11387392 -0.043188486 0.08736958 -0.113062575 0.0014576231 0.022794414 -0.021615658 -0.0051812986 -0.062121723 -0.05564062 0.045175627 0.10186035 0.026004924 -0.069634646 0.09634043 -0.03284563 -0.051348075 -0.002384761 -0.05343861 0.0008441819 0.08084741 -0.014576271 -0.0070569827 0.0125059085 -0.023424497 0.03786176 -0.07294101 0.011107466 -0.054945156 -0.031094793 -0.058538575 -0.008746805 -0.11159004 0.057726514 0.075233094 0.010777607 -0.0040589515 0.1063415 -0.01618285 -0.03836527 -0.0069694803 -0.04813585 -0.04933045 -0.003323677 -0.039107706 -0.014605782 0.07423644 0.019187577 0.032286134 0.009082169 0.032715824 -0.009828287 -0.028018994 0.08337232 0.0561484 0.098414615 -0.008594069 0.042962175 -0.023000011 0.04961559 -0.08052097 -0.08413717 -0.012247385 -0.05467595 0.015257867 0.019930577 -0.031124745 0.09160696 -0.050827894 -0.03449451 0.051328912 0.0424224 0.014575934 -0.0032698456 -0.119955584 0.067027174 -0.010348533 -0.020942701 0.03821201 0.097131215 0.007199448 0.11024156 -0.0016996693 
great -0.14659677 0.20354229 0.14244524 -0.14350078 -0.082799405 0.2334266 0.2034356 -0.18099616 -0.013853849 0.059186608 -0.20995636 0.23549588 0.14416772 0.06502721 -0.14997888 0.12574667 0.1442547 0.054981712 -0.026762044 -0.22225933 0.20892607 0.18466236 -0.18960088 0.074367315 0.045033067 0.23853606 0.13745363 0.002447432 -0.1818075 -0.047721125 0.003883659 -0.1609269 -0.22588311 0.22643209 0.19845997 0.013842705 0.044671576 0.1307614 -0.22062847 -0.21398754 -0.17528224 -0.22573231 -0.17597127 0.054976657 0.04174317 0.23126493 -0.18634593 -0.21720763 0.15379965 -0.1252411 -0.059699968 0.15402518 -0.044452623 -0.23144741 -0.07931771 0.17396751 -0.22289482 -0.05184587 -0.23297489 0.20488037 0.22237153 -0.1900718 -0.04885262 0.0895819 -0.013385081 0.018332087 -0.15289651 0.23149917 0.16964252 0.23830637 0.10141869 -0.21567714 0.13584037 0.00390994 -0.14171448 -0.18358618 -0.12872373 0.23189783 -0.082909346 -0.2060643 -0.22798696 0.19129644 -0.08757855 0.19923899 0.13276841 -0.22062549 -0.13457873 -0.20170157 0.16534984 -0.019474005 0.22380005 0.09691819 -0.13741821 0.04380884 -0.04431977 -0.2300073 -0.01985137 0.20543799 0.088731706 -0.2069925 
service -0.020711925 -0.09265353 -0.0006829291 0.038004123 -0.06571342 0.0509356 -0.035049006 0.1188888 0.117678076 0.06865982 -0.05288002 0.026619911 0.07575908 0.08756859 0.04867352 -0.07412899 -0.11291675 0.06301251 -0.09911106 0.023221273 0.044928677 -0.020440768 -0.08413742 0.1564973 -0.06399862 0.03428239 -0.033124402 -0.031131795 0.04997139 -0.10788409 0.07208511 0.08721116 0.050129656 0.03435781 0.08995624 0.046955794 0.059302535 -0.0020333237 -0.0028292192 0.007274031 0.009058029 -0.025756292 0.023774626 -0.1736907 -0.045845434 -0.090534784 -0.012866849 -0.03479241 0.11276773 -0.020744594 -0.011364537 0.09637749 -0.07621335 -0.050002676 -0.050349288 -0.040139474 0.050156802 0.02628825 -0.037306298 0.05542412 -0.044822216 0.034245323 -0.07114138 0.045921717 -0.013754874 -0.04148534 -0.025143424 0.023294495 0.02451231 0.045850635 -0.016750269 0.049373336 -0.023985168 0.021749055 -0.06507021 -0.015401328 0.018400839 -0.00072353415 0.0022181754 -0.053225596 0.018041803 -0.030354558 -0.0058327126 -0.0022729873 -0.012686289 -0.046194993 0.10527229 0.024149958 0.06139748 -0.029544147 -0.07737203 0.049732268 0.1095889 0.021689562 0.09627038 0.083973885 0.11150505 -0.05751291 0.0123742325 0.0037112497 
unique 0.0040083216 0.048926495 -0.021431122 -0.011657525 0.029198054 0.015583059 -0.017985731 -0.06199731 -0.01409473 0.04456752 -0.006599274 0.046325613 -0.015922092 0.05083502 -0.050873432 0.039943665 0.011589011 0.039576057 -0.0629269 -0.04163669 0.025274264 0.035930876 0.009915433 0.002148657 -0.045908198 -0.0025999413 0.0012796355 -0.005937802 -0.06310298 -0.05265209 0.06238777 -0.014315629 -0.021716213 -0.0017452984 0.068649955 0.0034980394 -0.0020207074 -0.009763184 0.006427614 0.076016374 0.024361575 0.017353548 -0.004452039 0.011091989 0.01605344 0.04475829 0.011831905 0.021154875 0.0012871532 0.026027689 0.007130387 0.025767036 -0.025213664 -0.037425432 -0.06676566 -0.044305164 0.015794322 0.004139265 -0.016409751 0.041217104 0.01751819 -0.005048947 -0.03352844 -0.053550743 0.0111804465 0.042207595 0.0002227799 -0.06602288 0.060691528 0.022500955 -0.0030525464 0.048478562 0.063684784 -0.005362077 -0.028838541 -0.07121126 -0.0138719445 0.02612958 -0.013599071 -0.067338616 0.00628627 0.0682895 0.011011976 -0.027991833 -0.0068596518 0.008246856 -0.061390743 0.03150905 -0.0122846365 -0.019266704 -0.010854268 -0.04664837 -0.06528872 0.068148434 0.0057466547 -0.04597928 -0.012287517 -0.02172866 -0.010727574 0.007837982 
menu -0.07397689 0.03268393 -0.014165163 -0.026760275 -0.08368468 -3.7004775e-05 0.02647999 -0.03805544 -0.040215664 0.09354374 -0.040111344 0.066158965 -0.018920692 0.020446004 -0.0575272 0.066056974 0.09313527 -0.054241624 -0.01828816 -0.061415195 -0.057555925 0.045129146 0.069440514 -0.050297573 -0.03528705 0.05161432 0.08225357 0.03673482 -0.019642264 0.103170685 0.007820008 -0.07157649 -0.06551651 0.042745855 0.05445739 0.019179981 -0.01734965 0.03968344 -0.03687123 0.0010898906 -0.08807775 -0.020327084 -0.09864111 0.13680023 -0.041524645 0.065458335 0.035519183 -0.06101368 0.066789426 -0.011519829 0.027015012 0.023956202 0.031594336 -0.057263758 0.06786635 0.09764287 -0.027995653 0.037699893 -0.031042779 0.108287245 -0.004470605 -0.076685786 0.089286976 -0.028767232 0.060463756 -0.04370257 -0.0036525163 0.051363714 0.06497637 -0.036414273 -0.012006522 0.01820999 0.057395887 0.0027397093 -0.03449912 -0.04568701 0.06835856 -0.045789715 -0.03469086 -0.03546133 -0.06722116 0.037711434 0.0004625816 0.074708834 0.05328604 -0.010138543 -0.043282017 -0.04485509 0.005913126 0.086315624 0.01774901 0.0043159737 -0.03690931 -0.041471332 -0.048247173 -0.07678955 0.046207342 0.075069055 0.017268065 0.035147306 
beautiful -0.027690955 0.03639795 -0.04927996 -0.023292802 -0.036478862 0.018439133 0.05827224 -0.006396243 0.0117223635 0.005876368 -0.08963168 0.023790674 0.032888208 0.018797526 -0.024297565 0.07303406 0.07728985 -0.038683407 0.0073476275 -0.085886694 0.03417636 0.067385316 0.07774304 -0.0704305 -0.0649835 0.08422274 0.043674946 0.014263132 -0.043730844 -0.0075095543 0.044204663 0.010524857 -0.011646732 0.05707967 0.057805937 -0.0045432323 0.041346386 -0.019327201 -0.084040195 -0.004505475 -0.08266059 -0.05864922 0.0057132673 0.0023695652 -0.005169449 0.05252654 -0.027443018 -0.016990284 0.008784931 -0.017586906 -0.0686711 -0.044858404 -0.07443504 -0.04277733 0.007490787 0.025173519 -0.019365195 -0.012687819 -0.09480909 0.008841248 0.07257713 -0.025637373 -0.005234967 -0.025009556 0.041783877 0.020349478 -0.060404006 0.053845584 0.048371565 -0.0076851426 -0.008193042 -0.014513769 0.031668205 -0.078125894 -0.042729694 -0.011141134 -0.052514877 -0.030897455 0.026372813 0.027503664 -0.084780574 0.09771353 0.0066231177 0.05765399 0.034537584 -0.0057820575 -0.025763407 -0.027336676 0.042107604 0.019681064 0.043191712 0.07455097 -0.06578734 -0.07227112 -0.014273467 -0.06683063 0.04218027 0.0053984504 0.016528323 -0.043776583 
setting 0.020823743 0.0073606614 -0.0663641 0.030623335 0.03536146 -0.0012892913 0.036182612 0.023150532 -0.05430734 0.057976007 0.07507017 0.009349873 -0.02611069 0.00069534074 -0.060089435 -0.015950466 -0.052167654 0.0027000248 -0.03451053 0.025882134 0.008224012 0.038860016 -0.0016052892 0.005510963 0.041445512 -0.024505101 0.06688143 -0.05289808 0.02393186 -0.04582585 0.040136654 0.00070468074 -0.037964046 0.010106743 0.04507064 -0.012665655 0.08360462 0.0035708474 -0.046044398 -0.011846643 -0.018012524 -0.06960202 -0.071045056 -0.010635578 -0.05865197 0.06287297 0.0040705414 -0.0017660289 -0.066323906 -0.017381193 -0.048601635 0.059069287 -0.0030331998 -0.025051227 0.011814509 -0.0029561764 -0.054879747 0.011916964 -0.028194675 -0.0062427945 0.0050906064 0.05080754 -0.0057611666 0.056770246 0.024039783 -0.042854045 -0.03174616 0.07143074 -0.017493965 -0.01616978 0.011404431 -0.030166648 0.05039938 0.06877815 -0.010178522 0.0022109263 -0.03785744 -0.026716352 0.010904753 -0.017129123 -0.05492673 0.0012937937 0.021852963 -0.023841552 -0.044147737 -0.01587543 0.028308053 0.053375993 -0.025658827 -0.03048609 0.01694405 0.060668528 -0.043439742 -0.005407448 -0.013157296 0.026679303 0.076276734 -0.0423194 0.024353765 -0.024244841 
not 0.15797755 -0.18467663 -0.061569992 0.13592097 0.07491074 -0.15541193 -0.22891548 0.21763611 0.09355682 -0.06801161 0.21569902 -0.19186601 -6.1889807e-07 0.09611243 0.012548498 -0.21548475 -0.20700909 0.009351188 0.014146765 0.14181496 -0.13756916 -0.22250557 0.09216115 0.10651778 -0.055488396 -0.07604264 -0.16586493 -0.08262479 -0.009154056 -0.057221763 0.11732559 0.0645119 0.2030701 -0.120779485 -0.16683221 0.064141355 0.012206972 -0.16106778 0.11846977 0.23005739 0.20863052 0.23807284 0.09183176 -0.024503436 -0.09273315 -0.10464234 0.21347597 0.24448588 -0.08422304 0.104515284 -0.014856832 0.01141772 0.017721485 0.17771953 -0.079600655 -0.23413165 0.27128133 0.10440814 0.24507995 0.036402643 -0.12577017 0.23927678 -0.047514252 0.012328006 -0.0318761 -0.14814678 0.1301699 -0.13419 -0.17155996 -0.1579827 -0.123992376 0.15898195 -0.16284469 -0.14806205 0.2024843 0.1987735 0.1473058 -0.11911144 0.047961645 0.08662262 0.1960405 -0.17347208 0.12751718 -0.21798907 -0.1965812 0.18612537 0.20931138 0.21855204 -0.2228726 -0.024403473 -0.14833315 0.009231555 0.13483204 -0.05664255 0.19257988 0.19658275 -0.017011512 -0.169962 -0.1309717 -0.054517526 
my 0.05629386 -0.01232463 -0.012683364 0.08755318 0.016613398 0.039962076 -0.01988337 0.049542394 -0.03121842 -0.00834984 -0.013282445 -0.0030681025 -0.014120813 0.04694136 -0.010112027 -0.12143499 0.01939915 0.040571947 0.008348674 -0.07136732 0.13719508 0.003704846 -0.027967717 0.0030420427 -0.024823058 0.039471276 0.01825814 -0.05881917 -0.08735077 0.009071973 0.04067854 -0.06557111 0.062562115 0.046219036 -0.06450837 -0.06491217 -0.031204885 -0.06818968 0.06815912 0.0032650097 0.042483527 0.06216213 -0.07214736 0.051925477 -0.121829994 -0.047433387 0.06214666 0.13909662 -0.07625334 0.0009594078 -0.09792552 -0.09361833 0.04629355 0.047477674 -0.007392774 -0.0017711963 0.09138434 -0.013399833 0.08644355 -0.007434232 0.05423118 0.021695778 0.047734816 0.13146034 -0.0067890277 0.046529815 -0.026324859 0.026437351 -0.05306137 0.021225765 -0.11993567 0.0009787603 -0.08911718 -0.094259694 0.046768114 -0.029959807 -0.015966022 0.057114463 -0.05041066 -0.08391852 0.04826361 0.12257996 -0.042140223 -0.033904042 -0.056761064 0.03015206 0.061284274 0.0134584 -0.07635086 0.07506729 0.04717522 0.15519892 -0.033760272 -0.0159408 0.04623603 0.08369534 -0.07266006 0.015205158 -0.10321763 -0.16588663 
thing 0.026544042 -0.017830392 -0.057001136 -0.0880851 -0.012466195 0.041641798 0.04003453 0.017185934 0.035026196 0.0476322 -0.051388457 0.023971181 0.111113034 0.09523831 -0.106869444 -0.07997782 0.056060288 0.036172163 -0.052702155 -0.09669573 0.042834733 0.049305398 0.036330175 -0.022086388 -0.11507203 0.08416036 -0.009550707 0.057234164 -0.047114905 -0.03044396 0.0005097518 0.03869052 0.018224044 0.04390624 0.13054995 0.001840876 0.0709405 0.044804428 -0.0457241 -0.056726806 0.0031073198 -0.027179575 0.0032732794 0.004810646 -0.009857667 0.040079758 -0.050644778 -0.09045936 0.056704078 -0.05211268 -0.044404026 0.09927338 -0.026096797 -0.056234404 -0.019096175 -0.0047321278 -0.09996437 0.042041175 -0.08616334 0.051737454 -0.039117772 0.033517566 -0.08001138 0.026049843 0.03703028 -0.0225312 -0.054998726 0.02963804 0.08201702 0.0049013686 -0.032136176 0.0010255169 0.063561514 -0.031483393 0.046433903 0.020715427 0.051503666 -0.003008179 -0.010569165 0.003568887 -0.013575908 -0.0062335515 -0.053132087 0.039975535 0.022958344 -0.02052707 0.0336184 0.066424236 -0.053514488 0.020110875 0.00040462156 -0.028175028 -0.008478162 -0.06843588 0.027886333 0.015754513 -0.00962498 -0.0274069 0.035307564 -0.028388342 
have -0.1075486 0.07161824 -0.0072180135 -0.04022004 0.07415562 0.057742022 0.016737077 -0.028527744 -0.01552921 0.031969648 -0.013653168 -0.008298848 0.008324237 0.05386572 0.039730486 0.026828848 -0.012742091 0.017669303 0.032893274 -0.038503915 0.11438164 0.033052947 -0.0061549353 -0.021523874 -0.01717071 0.03933371 0.029501993 0.042039987 0.06967519 0.05582218 -0.038168717 4.849603e-05 0.02352016 -0.019592896 0.0050934483 0.08491866 -0.047711875 0.030070487 0.040270966 0.03061705 0.0025276977 -0.07289581 -0.044137344 -0.0136713 -0.035412118 -0.024503352 0.012991562 -0.0084787635 0.06900985 -0.023053404 -0.07740046 0.0037436956 0.07458919 -0.06784366 -0.0019654143 0.04735912 -0.030184409 -0.02431136 0.006780664 -0.0025417851 0.084537685 -0.097666696 0.038431417 -0.035633072 -0.030516366 -0.016764393 -0.0567423 0.041532166 0.0120407455 -0.00020242717 -0.042529065 -0.081827484 0.02655973 -0.07207586 -0.011675024 -0.0519908 -0.05781404 0.09768151 0.03835695 -0.101151764 -0.019245928 0.0743318 -0.029928876 0.0039928076 0.009550216 -0.038097255 0.02068686 -0.08427107 0.07558587 0.022410987 0.00046297332 0.023999648 -0.05236661 0.057687353 0.010470571 -0.027743004 -0.09170673 -0.030089028 -0.025205914 -0.0056514507 
watched 0.0697456 -0.088697106 -0.093431234 -0.011994838 0.01609088 0.009112355 -0.084184006 0.073868185 0.10696057 0.0017297625 0.065096244 -0.067675546 0.016396165 0.037158377 -0.0032647084 -0.057819474 -0.062104132 0.0073663034 -0.03854034 0.035442118 -0.06826342 -0.024397716 0.08212159 0.024811272 -0.043461613 0.005745702 -0.06600929 0.03247536 0.060171098 -0.05067233 0.07592287 0.057160094 0.039807133 -0.07441477 0.021179518 0.043154933 -0.0010425787 -0.05581407 0.01819268 -0.0058988235 0.07322708 0.050636854 0.072661355 0.009655468 -0.033402726 -0.053171087 0.010808912 0.011292183 0.050586473 -0.017105171 0.018410962 0.08488059 -0.08844832 0.009170162 -0.015423419 -0.08529684 0.021150349 0.03136224 0.082131684 0.021244654 -0.06630717 0.078257814 -0.065426536 0.013804558 -0.048424926 -0.07977034 0.05339051 -0.08003709 -0.056187868 -0.046363894 -0.028543299 0.045616176 -0.03480102 -0.062067688 0.014974794 0.027950129 0.09445295 -0.032138348 0.0036576604 -0.042257708 0.08035274 -0.007240918 0.05849391 -0.09683125 -0.06410341 0.072944835 0.06352739 0.07789885 -0.08533961 -0.0074075037 -0.103435755 0.045982417 0.06169113 -0.07734118 0.09488597 0.03669926 0.06947809 -0.04310805 -0.029785583 -0.022135295 
their 0.021909451 0.067110196 -0.04332828 0.0049604713 -0.039015066 0.016266005 0.04688636 -0.00074097415 0.0148368385 0.013029979 -0.03639422 -0.052317005 0.08414055 -0.008917019 0.0021238106 0.057429027 0.07519329 -0.0061529595 0.051752467 0.056786653 0.049082834 -0.013979138 0.055690467 -0.051557012 0.12569337 0.02703154 0.032106154 -0.12650034 -0.049310632 -0.0814865 -0.062066603 0.010507757 -0.045380693 -0.0019577604 0.0076872287 0.06577875 -0.079256386 -0.021580586 0.008693607 -0.026797978 -0.035487086 -0.040788334 0.005911119 0.035217278 -0.09966837 -0.040155873 -0.02664105 -0.0609212 -0.019361593 -0.024698254 -0.11564817 0.011144292 -0.04312964 0.012307975 0.014690229 -0.0004892603 -0.019835738 -0.076843426 -0.07263642 -0.021705318 0.038037617 -0.051493227 -0.043041464 -0.06635229 -0.05881731 0.016746314 -0.08986676 -0.034131993 -0.019006759 0.023400584 0.045433268 -0.0020780936 0.023611598 -0.1309472 -0.017283397 -0.026837563 0.003685995 -0.027568279 0.008785648 -0.021841958 -0.018950414 0.025514113 -0.017639589 0.005105488 -0.07476383 -0.060435753 -0.1401169 -0.060657486 0.0007831256 -0.0050781635 0.00089463004 -0.029679373 0.012597413 0.06953564 -0.008734663 -0.07157932 -0.032799546 0.063428834 0.01817632 0.01645577 
prices -0.052678283 0.027004758 0.013733451 -0.073097914 0.033330668 0.10076331 0.11858339 -0.052742805 -0.0052293655 0.043268453 -0.020067804 0.0069641564 0.031252462 -0.011652999 -0.025371607 0.034047 0.010435635 -0.015939405 0.0043491996 -0.08732111 0.07937411 0.08967322 0.04626739 -0.011329461 -0.0037943786 0.07912931 0.022044403 0.081394844 -0.015559141 0.023912288 -0.002244237 -0.05727294 -0.09507649 0.06243402 -0.010788203 0.071377546 0.010051012 0.062037986 -0.042502496 0.044833433 -0.072447866 -0.07671118 -0.10389197 -0.03329666 0.000920182 0.06791081 -0.0761676 -0.04416464 0.08106913 -0.021768868 -0.056466423 0.010876168 -0.022002224 -0.09814258 -0.025487918 0.030477757 -0.09478625 0.0422882 0.040134918 -0.0012392908 0.0538765 -0.023548007 0.036567893 -0.011175209 -0.03285941 -0.06326622 0.0939001 -0.053901304 0.074119925 0.0066541405 0.06191664 -0.082360424 0.093637355 0.00387751 -0.073369145 -0.029109849 0.012282579 0.047301613 0.042767778 -0.081395335 -0.052555196 0.0052677486 -0.00997086 0.076564424 0.029827032 -0.085706145 -0.10714325 -0.055017717 0.10485479 0.017955933 -0.061944854 0.028860336 -0.029554099 0.0478137 -0.07051839 -0.09441921 -0.037042722 0.03510102 0.066357665 -0.043588065 
inflate 0.05851461 0.001710725 0.006518488 0.0413005 -0.009648108 0.032424644 -0.062187728 0.022863789 0.03570539 -0.087015405 0.0055781193 0.018747253 -0.07899709 0.013297079 -0.032983333 -0.0017750396 -0.06173276 0.024303257 -0.0836531 0.029509941 -0.02269818 -0.04908819 -0.062987335 0.064738266 -0.026341604 -0.052694846 0.014325295 -0.073276974 0.007492479 0.07462382 0.025657395 -0.07852107 -0.06485511 -0.013761947 -0.04426257 -0.039916657 0.0029962754 -0.060973253 -0.006142144 0.038333043 0.044554822 0.04321054 -0.026009833 0.025679894 -0.033690166 0.055297382 -0.006954575 -0.0006805229 0.06530851 -0.006121343 0.07096133 -0.057566267 0.009689113 0.05268684 0.008129273 -0.031464018 0.08319173 0.030239899 0.026155023 0.008976534 -0.025903666 0.096786514 0.0669291 0.035277966 0.08940904 -0.021489397 0.06628328 -0.03466953 -0.074541815 -0.040257134 0.06431549 -0.019904733 0.0003216139 0.009260986 0.0022035907 0.08226729 -0.020118749 -0.071857244 0.047954742 0.06665165 0.059513528 -0.038901325 0.08305139 -0.05072251 -0.07307912 0.012083791 0.0014995809 -0.009990611 0.044230007 -0.07598515 -0.08001196 0.034765407 0.05070904 0.05494416 0.07209 0.015242829 0.007934955 0.06843449 -0.061601225 -0.008336639 
portions 0.0072719846 -0.043523077 0.034327026 -0.013389175 -0.090155296 -0.03132517 -0.035614017 0.039612636 -0.028296122 -0.070857435 -0.054593783 0.068286076 -0.027262896 -0.08392165 0.1174793 -0.0012886748 -0.020827206 0.08305171 0.041873157 0.07242824 -0.060737073 -0.012802208 -0.064069815 -0.011274964 0.07210736 -0.044015642 -0.037222117 0.04094321 0.0813806 -0.042763583 -0.04818696 -0.06935034 -0.050809283 0.041251846 0.011522847 -0.068418644 -0.010785567 -0.012262165 -0.11091111 -0.019625666 0.04162399 -0.04059569 -0.04960072 -0.0077312742 0.016597958 0.063058265 -0.0052536223 -0.029518092 -0.061285634 0.0030192966 0.081241824 -0.026164848 0.057563443 -0.034793954 -0.029424412 0.011393879 0.030277118 0.005492327 0.0058216127 -0.070727155 -0.024113955 0.029012399 0.016172038 -0.037582394 0.10041168 0.004768632 0.04287171 0.06821247 -0.008649125 0.02256205 0.10364449 -0.07011742 0.036778167 0.04810472 -0.057168033 0.03451759 -0.08100824 -0.059892125 0.06869563 0.013550801 0.04350648 -0.027580254 0.0012967369 0.04181902 -0.002860735 -0.015182123 -0.058115553 -0.067228705 0.07310933 -0.078194715 0.07873151 -0.07947769 -0.036292113 0.07998854 -0.0070035444 0.026197901 0.032881506 0.07015648 -0.017394634 0.050032753 
get 0.05329414 -0.055681605 0.03837456 0.1798334 -0.07679552 0.08434125 -0.055397645 0.019700082 0.05435072 -0.13244008 -0.043970544 0.033228185 -0.15544981 0.0019235858 -0.030567627 -0.0020073082 0.01066704 0.061363976 -0.009168213 0.057286695 -0.07098248 -0.006183039 -0.09183086 -0.0059134215 -0.096683525 -0.0883931 -0.090173066 -0.08691438 0.00068561983 0.12706512 0.056371503 -0.074736156 -0.015504683 0.036772832 -0.061474323 0.046289004 -0.05612262 -0.11135218 -0.0058001564 0.018728536 0.04109979 0.112613566 0.0012029991 0.050779168 -0.02347994 0.029562373 0.032172672 0.08315488 -0.045031372 0.16387172 0.036654282 -0.07875477 0.020250926 0.033762816 -0.06562705 -0.057505034 0.098686494 0.033563178 0.0774331 -0.044081237 -0.0025416678 0.014821641 -0.008088073 0.073421106 0.03214262 -0.035492156 0.049250405 -0.008540272 -0.051226456 0.0056057638 0.04354499 0.06889637 -0.08276408 0.13193369 -0.03463977 0.06012132 -0.0036428415 0.011519619 -0.0017114878 -0.0438913 0.068292834 -0.0405667 -0.052241873 0.025837634 0.030265654 0.061783876 0.030201294 0.060225513 0.08531011 0.08502258 -0.04834644 0.012197462 0.08917454 0.09709916 -0.00042868362 0.015406803 -0.04889864 0.07539772 -0.10025966 0.055006515 
smaller 0.0732266 -0.077875696 0.013952616 0.058683377 -0.004758925 0.07425037 -0.05083925 0.020288203 -0.03996384 -0.020344974 0.05936296 0.0020074365 -0.037644245 0.005714106 0.06715034 -0.0017831676 -0.07059683 0.05771359 0.057840616 0.019694865 0.0048185606 -0.07330355 -0.012681564 0.08604386 0.049668718 -0.0054055504 -0.08902639 -0.06595026 0.002639333 -0.015878448 0.06416854 0.0059818192 0.052293785 0.018329974 -0.040468518 -0.06663082 -0.0688428 -0.031655684 0.0019239378 -0.00014221856 0.0518124 0.04186733 0.06141561 -0.014404165 0.04600206 -0.054229937 -0.022823552 0.0500781 0.002818615 0.045433052 0.05286038 0.03280803 0.056570977 0.022529237 -0.003387302 -0.074438326 -0.0045943283 0.065288804 0.017507566 -0.043105938 0.026433349 -0.006031522 -0.027901944 0.07117502 -0.07939259 -0.07432458 0.10090994 -0.036541425 -0.06592966 -0.043933645 0.06687951 0.04729886 -0.05718685 -0.00386656 0.06048507 0.004409513 -0.028828075 0.055469465 0.055490088 0.003243491 0.0117401965 -0.08246095 0.048685107 -0.06695107 0.039656006 0.0053356937 0.06289662 0.093698464 0.061886456 -0.042832855 0.06448544 -0.0017135051 0.03336614 0.055505246 0.07995799 0.08370146 -0.018107645 -0.073426604 -0.037128687 -0.014507797 
management 0.0321676 -0.079495154 -0.07904329 0.06671053 -0.10667063 -0.047913328 -0.12158981 0.07830784 0.09373301 -0.051461123 0.1515204 -0.052480027 0.048508514 0.06611274 -0.062395662 -0.077598654 -0.07097977 -0.11666056 -0.009907337 0.11255822 -0.09984295 -0.06432387 0.057481717 -0.023800673 0.0027313433 0.023704037 0.011960198 -0.16018759 -0.018210199 0.1249333 0.041527905 0.11243226 0.11013442 -0.118258454 -0.13665612 0.052554954 0.055898096 -0.06734731 0.0772526 0.13767925 0.09992864 0.050150517 0.07606211 0.06326287 -0.13225985 -0.095755816 0.09812584 0.11960513 0.032576982 -0.0055511165 -0.051598027 -0.073386356 0.011656271 0.1376929 0.048709627 -0.1136869 0.060059775 -0.0459983 0.1239643 -0.03207634 -0.12141529 0.11665483 -0.02629412 0.030051544 -0.05983351 -0.14128938 0.073502466 -0.082500175 -0.08327352 -0.12906049 -0.064793125 0.100949846 -0.058289997 -0.09380151 0.076367415 0.14305586 0.15658332 -0.00083652954 -0.06790346 -0.0066487426 0.08641445 -0.10974758 -0.06355411 -0.052738886 -0.12849946 0.11660482 0.13094951 0.12314621 -0.07832898 0.087766886 -0.09170248 0.015076545 0.098127134 -0.119391024 0.12901177 0.08300005 -0.021122439 -0.12864354 -0.076224685 -0.08597819 
attitudes -0.020579685 0.002389387 -0.10947311 0.012620051 -0.059981328 -0.022559188 -0.06521382 0.10236888 0.033479452 -0.0737347 0.06873388 -0.080160566 0.0005505533 -0.07600161 0.06075158 -0.04152332 -0.029555019 -0.033519503 0.05924372 0.071514204 -0.032742918 -0.048601795 0.025747284 0.013645294 0.06114621 -0.0395205 -0.008749448 -0.018839465 0.043488625 0.088993 0.002848555 0.027476374 0.091925606 -0.0557297 -0.037801772 0.03309375 -0.059266295 -0.003898601 -0.0020303535 -0.0041418495 0.006630855 -0.0078088697 0.08803394 0.018115303 -0.039728098 -0.05649398 0.070298344 -0.019212067 -0.08035972 0.0756561 0.00015722142 -0.025965527 0.022382488 0.076125875 0.090300955 -0.072011344 0.0013058421 -0.10409364 0.06823911 -0.053932685 0.017328626 0.07176504 0.06442823 -0.047650144 -0.067643724 -0.04001808 0.035214942 0.016671944 -0.049228624 -0.057603296 -0.0052321027 0.03085605 -0.08216367 0.0017554178 -0.050669365 0.08214207 0.0016734297 -0.07554896 0.027627958 0.07850184 0.080159724 -0.0070147472 0.028895857 0.017691493 -0.061985135 0.033774603 0.03377388 -0.07834859 -0.044205558 -0.05795057 -0.07238491 0.056019783 -0.0277365 0.07380751 -0.03681224 0.05527796 -0.027181713 -0.076813735 -0.067545645 0.06737518 
grow 0.080392234 0.07579835 -0.0018286611 -0.0123541895 0.08780101 -0.032477044 -0.07616717 0.03567127 -0.04034497 -0.03552312 0.074322894 -0.038667295 0.01343526 -0.07832 -0.023564989 -0.02062727 0.04747405 -0.047612295 -0.020463945 -0.04698811 -0.007678269 0.0010515195 0.062982164 -0.048599575 0.03264464 -0.018400718 -0.006011023 -0.059747748 -0.055155694 -0.06489916 -0.07143349 -0.008974928 0.03750647 0.065943584 -0.039697498 -0.043127526 0.020157529 -0.07775387 -0.05932534 -0.040413078 0.0057849027 0.022147883 -0.042852666 -0.07448739 -0.063716784 -0.04709654 0.07592955 0.0077831494 -0.016263034 0.051299483 -0.0056564296 0.005162303 -0.040807106 0.04368539 -0.023854673 -0.05775456 0.0031138011 -0.054701686 -0.002506372 -0.027266974 0.07275014 0.03826265 -0.04986862 -0.037942857 -0.042873498 -0.004898803 -0.009782114 -0.019803725 -0.013035578 0.08225528 -0.0010838363 0.056053143 0.01863413 0.04985419 -0.0010708134 0.010028234 0.052197907 -0.026136372 0.085250996 0.0148820765 0.051759094 -0.032083858 0.060842562 -0.009709158 0.052311826 -0.07899793 0.0062625627 0.024874985 -0.061362784 -0.09754232 -0.080619246 -0.08445318 -0.08182817 0.012456383 0.050639942 -0.013018154 -0.051547196 0.0387632 -0.037318774 -0.08562581 
rapidly 0.016647266 -0.004704332 0.073174275 0.025820222 -0.007997654 -0.084193155 -0.0060769496 -0.013042812 -0.028035505 -0.012996996 0.017154897 -0.01631186 -0.074651204 0.05149558 -0.027493956 -0.024407888 -0.05541416 0.009713529 -0.012739073 0.07322713 0.0015412698 0.0017438972 -0.06246559 0.072738454 -0.012714736 -0.027502265 -0.013589731 -0.013576973 0.00046190355 -0.018905668 0.02027789 0.058215998 0.07480054 0.075127095 -0.0025066747 0.064308286 0.040813845 0.030163096 -0.0386095 0.033315904 -0.015350715 0.07607215 -0.06268197 0.050362445 0.039459117 -0.052977126 0.01170598 -0.037864834 -0.036914032 0.04129353 0.079614215 -0.002327936 0.005549013 -0.019683734 -0.049443547 0.010383405 0.053446647 0.02380004 0.027727753 -0.042476177 -0.08862411 0.045034368 0.011089929 0.08018073 -0.0039049725 -0.06922724 0.025797028 -0.024508962 -0.06999118 0.029882964 0.065705165 0.055328723 0.0097696725 -0.058992147 -0.0081515815 -0.0040445924 0.070021756 -0.015979929 0.024731712 0.014539556 -0.003932582 -0.06483469 0.039277107 0.022968883 -0.06915923 0.03390971 0.06727999 0.058354255 -0.008384999 -0.025106736 -0.051561262 -0.036597475 0.03652325 -0.07733884 0.083313204 0.02078326 0.06576275 0.043643456 0.05064369 0.071717314 
overall -0.028200472 0.0011347263 0.07531917 0.09405521 -0.085880145 0.039772265 0.08002761 0.011719767 0.021987468 -0.08273967 -0.07615175 -0.0056255916 -0.04897205 0.0611887 0.036651812 0.04114586 0.02832907 0.09098516 0.026517835 -0.022966914 0.053273443 8.685727e-05 -0.012628907 0.03321388 0.07884714 0.058841534 0.05703409 -0.07263374 -0.08294617 -0.012794637 0.00034856226 -0.018037492 -0.07433817 0.054283135 0.05493873 0.025943253 -0.06871564 0.00976436 0.0029159393 -0.12850857 -0.09957331 -0.05484232 -0.030437257 0.021152122 -0.059687424 0.06532378 -0.06648595 -0.033871714 0.029039744 0.001536769 -0.0945625 0.05026972 -0.023039777 -0.09649298 -0.034256116 0.007494272 -0.11224298 -0.023708174 -0.118151456 0.028524177 0.024670703 -0.04493782 -0.0115784025 -0.031057866 -0.058650773 0.0028874408 -0.08315749 0.08436881 0.13655733 0.024799341 0.024899371 -0.074102685 0.10362045 0.048584796 -0.035311993 -0.06728546 -0.06229007 0.056377497 -0.012699937 -0.07939465 -0.041029207 -0.06964171 -0.10703283 0.021374969 -0.08551968 -0.07802341 -0.02492392 -0.0046174717 0.07646469 -0.06621643 0.0673888 0.035453867 -0.024991753 0.006460374 0.018118186 -0.08197815 -0.038915873 0.12582007 0.0020461055 -0.07129102 
experience 0.042984813 0.052319955 -0.1456734 -0.061906975 0.17743996 0.08586374 0.05336136 -0.08091496 -0.057436515 0.18539762 0.05381719 -0.15290824 0.14353052 0.21726209 -0.1717395 -0.020423364 -0.08585686 -0.07910115 -0.031710982 -0.07383181 0.038504947 -0.09168992 0.15574694 0.064840816 -0.081214495 0.042490453 0.03201878 0.03593519 0.024401706 -0.11353291 -0.03108312 0.049237486 0.07385955 -0.11116475 0.052676186 -0.011084856 0.17995933 0.08714957 0.14514941 0.118810974 0.008898595 -0.052637555 -0.09793497 0.05206104 -0.06783589 -0.024675313 -0.02510286 0.024675522 0.089592 -0.13697089 -0.080946326 0.16230837 -0.017561018 -0.018875485 -0.1684194 0.006964585 -0.059800815 0.107338816 0.03440521 0.09849716 0.025526859 -0.059032764 -0.024725288 -0.044599235 -0.19210137 -0.13581057 0.12079607 -0.07578899 -0.0020258937 -0.039216794 0.01911803 0.0071078935 0.096528515 -0.16059308 -0.025546595 -0.0416151 0.1928346 0.048159424 0.00058293954 -0.14950086 -0.059012048 0.06560699 0.11187222 -0.11952998 -0.019968256 -0.07869351 0.017082157 0.030466633 -0.016197395 0.15590985 -0.09808487 0.006456109 0.041577127 -0.015896635 -0.06073562 -0.023380028 -0.050139714 0.010812383 0.13116917 -0.14014076 
this -0.052263882 0.063489795 -0.10065604 -0.10932674 0.022394108 0.050204728 0.0036484012 -0.032622673 -0.039190296 -0.0040508574 0.00024310393 -0.025471088 0.0174284 -0.016115747 -0.12161813 -0.023593877 0.030931663 -0.03551195 -0.03194548 -0.02075685 0.0143299205 -0.010624253 0.005949303 -0.050256975 -0.009847279 0.03275435 0.07956307 0.051652078 0.109187774 0.055180017 0.027426377 -0.0060468838 -0.014653359 0.052259494 0.007250669 0.043632798 0.0707879 0.07608635 -0.0143624265 0.08211554 -0.06983811 -0.051865894 -0.034754686 0.07542249 0.020374278 0.08325351 0.01114952 0.0021803477 0.02420026 -0.09437645 0.045004506 0.03212979 0.02256268 -0.05997905 0.022837289 0.07143913 -0.072979815 -0.056697134 0.06848467 -0.00085997616 0.06798571 0.005614415 0.059753247 0.088410996 0.044514086 -0.040646248 0.031362105 0.05484077 -0.017741606 0.014798579 -0.037110075 -0.090714104 0.021596769 -0.016816735 -0.0033758057 -0.048688367 0.025544131 0.04576798 -0.034350656 -0.08591765 -0.062326215 0.06494439 -0.009748249 0.018358134 0.020324098 -0.052346 -0.013410182 -0.0075693023 0.02225044 0.013498318 -0.013340446 -0.012416452 0.009196241 -0.06260349 -0.07041412 -0.026323965 -0.029831966 -0.0030359495 0.066622965 0.005134553 
hole 0.009186117 0.030128643 -0.022986101 -0.026465915 0.043266404 -0.0077095833 -0.011212035 -0.030035092 0.011783757 -0.036967702 -0.037402917 -0.005865953 -0.049444653 -0.017303068 0.033241834 0.06441298 0.009192065 0.06524822 0.07616594 0.014606846 0.031945657 0.005134143 -0.06126734 0.036513943 -0.021189362 -0.05557494 -0.043667525 -0.0027253306 0.075786576 -0.033177294 -0.07570546 -0.06401086 -0.027744964 0.077640206 -0.023269556 -0.01730776 0.017866908 0.053467423 -0.06608177 -0.038036577 0.004370634 -0.049927436 -0.069774896 -0.071054414 0.08247244 0.080271974 -0.0026106478 -0.04459962 0.020871235 -0.033142585 0.056336146 -0.020162985 0.004505551 -0.029616961 -0.06625494 0.058992304 -0.036447465 -0.07704239 -0.05180458 -0.051027987 0.07609394 -0.02819968 0.030379312 -0.06821067 0.05653143 0.061896794 -0.054466914 0.017637879 0.024772676 0.066053376 0.015732436 0.022462705 -0.021978434 0.040699605 -0.041741394 -0.008833135 0.009344293 -0.056280304 0.020663235 0.018874355 -0.05979286 0.06549955 0.0540935 0.031077486 -0.008239946 -0.045452595 -0.06829668 -0.018377716 -0.014558774 -0.029726217 0.0794689 -0.040609628 -0.055771228 0.037346877 0.007525595 -0.06536227 -0.036832035 0.030713795 0.04571372 0.066089496 
the -0.046099853 0.0060805446 -0.027666703 -0.03959606 -0.02619032 -0.049172293 0.017295863 0.00012864957 -0.0044335225 -0.1204207 -0.017323457 0.04046508 0.006801973 -0.048711628 0.004752827 5.7420504e-05 0.08303218 -0.05269223 0.060475823 -0.070364475 0.03508129 0.015330707 -0.00060126034 -0.11428928 -0.040113278 0.059594102 0.076024935 -0.005710055 -0.08771469 0.08101886 -0.013749611 -0.0530113 -0.035630282 0.018128576 0.013673152 0.0357951 -0.10923362 -0.052353695 0.008292553 0.021468027 -0.094844095 0.018297527 0.0130705545 0.068287514 -0.07775209 0.0733016 0.021782696 -0.02003688 -0.037287585 0.07722625 -0.105637476 -0.094676696 0.02680554 -0.016601585 0.11384734 0.06475251 0.027133042 -0.055300854 -0.00816685 -0.08509243 0.0020578054 0.02453173 0.04490187 0.059522945 -0.026126213 0.087764785 -0.02999703 -0.016558582 0.0370617 0.010760894 -0.042126104 -0.08024337 -0.09100724 -0.037614703 0.046571985 -0.037764773 -0.031515807 0.061971866 -0.08111473 0.00260424 -0.006733272 0.032902133 -0.06022042 0.06464679 -0.026433906 0.024995845 0.01169695 -0.042988744 -0.042754468 -0.008274471 -0.021301128 0.10234204 -0.11437657 0.0048355926 -0.023120727 0.0420507 -0.0847169 0.01793532 -0.015274823 0.0103775505 
wall 0.0032630763 0.06851734 0.002581562 -0.058966845 0.009878576 0.0033730806 0.009509856 0.0002279132 0.0024133008 0.076398745 -0.08569018 0.03483138 0.08736985 0.043184124 -0.076713316 0.02714679 0.06109024 -0.0701494 -0.032868512 -0.0014370499 -0.004692164 0.043863546 0.032276675 -0.05462774 -0.010655114 -0.002176947 0.0029389674 -0.055153538 -0.02995366 0.04114891 0.0010738189 0.018951464 -0.075948246 0.019384203 0.05008926 0.08724459 -0.034899537 0.048494525 -0.009367533 -0.005706794 -0.05699885 -0.08763206 -0.0071214074 0.07684131 -0.007595735 -0.0048583467 -0.0125626335 -0.08117339 0.019477544 -0.061364073 0.045523 0.010856967 -0.013508937 -0.0152277425 0.033640373 -0.008151566 -0.07991799 -0.05589014 -0.020554837 0.023859117 0.019175256 0.0069024204 -0.03239294 -0.037383724 0.039562847 0.048563953 -0.06738389 0.08632871 0.05562209 -0.039490286 0.015807318 -0.06512875 0.009161272 0.02312538 -0.023131775 -0.010507911 0.043624416 -0.06682644 -0.0109213395 0.032176666 -0.04397126 0.07701586 -0.047856253 0.005115538 0.013066116 -0.07367654 -0.047670044 -0.0910111 0.026432695 -0.027188761 0.023334004 -0.03300348 -0.016494924 -0.0034031179 -0.07422989 -0.012072015 0.02090393 -0.007106685 0.037118603 0.008510643 
has -0.070103355 0.023670599 -0.04267543 -0.08202951 -0.0036072165 0.05055249 0.009469769 -0.08300634 -0.030824559 0.045176875 -0.021628842 0.025745416 0.0006850681 0.06236899 -0.0036783866 0.02150848 0.055161912 -0.055626422 -0.08199274 0.044230133 -0.013146002 -0.015076114 0.06056313 -0.062825836 -0.037091743 0.081937045 0.030918397 0.015154505 0.069619395 0.040203523 -0.008353152 0.06131951 -0.020313403 0.043024987 0.034557812 0.035072125 0.08142 0.13971971 0.0042274534 -8.340674e-06 0.034236193 -0.037208967 -0.036977433 0.0009817367 0.026640918 0.0011845024 -0.11383882 -0.03656417 0.09206588 -0.11191771 0.100246556 0.13847405 0.012296397 0.01774127 0.007424047 0.10420469 -0.05980617 0.019870933 0.0021864497 0.06098327 -0.031513195 0.010664638 0.050941613 -0.0036823708 0.007801732 -0.10690791 0.020317592 0.0066696103 0.028779728 -0.07902542 -0.06825644 -0.07305644 0.09548928 -0.054307483 -0.021220177 0.0101441685 0.08525517 -0.03850074 -0.046763603 -0.04985784 0.026532343 -0.017094688 -0.031405345 0.029478142 -0.034721073 -0.0040948107 0.021411056 -0.00226469 0.06720499 0.042662375 -0.049132492 -0.05040967 0.0071464996 -0.08543237 0.037983604 -0.080077864 0.07313576 -0.052265707 0.09967221 -0.0013479696 
mexican -0.0016462817 0.0459694 -0.022439845 -0.07318435 -0.039397303 0.032618545 0.055018708 -0.002584574 0.032493245 0.0011230829 -0.017290153 0.05026102 0.03297134 0.005039114 0.0028526795 0.051652573 0.016455851 -0.0139473975 0.0013551709 -0.025698556 -0.05616341 -0.00930059 0.06569455 0.032418985 -0.07706371 0.024118511 -0.015235499 -0.033109613 0.02805643 0.023269184 0.08090205 0.0640384 -0.046627462 -0.0071354248 0.036641344 -0.06131684 -0.034814995 0.054371454 0.019009406 -0.06021479 -0.07911355 0.0066324845 -0.0038650676 -0.052550483 -0.027013402 0.032010462 0.0057368344 -0.019144602 -0.008621666 -0.025688078 0.049149945 -0.016964141 -0.036066208 -0.038632393 -0.02948414 0.021371353 0.005810031 -0.07196349 -0.022194246 0.056617636 0.08325548 -0.030979758 -0.053172167 0.0468034 0.031512197 0.03762838 -0.04711137 0.0042056423 -0.0020965724 -0.032741614 0.07877193 0.026515724 -0.04284639 0.022695884 -0.07132794 -0.020334542 0.0014703834 -0.014207675 -0.022441857 -0.0015390273 -0.032070618 0.07256965 -0.062319595 0.041181996 0.047393937 0.006258272 -0.044537794 0.012861694 0.07281736 -0.022965176 0.0054790075 -0.0006913251 0.083340876 0.05435756 -0.06310037 0.015195996 0.013264801 0.08167916 0.019862877 -0.06875204 
street -0.075286604 0.007723057 -0.030981036 -0.05588772 -0.03667419 -0.06572562 -0.030898478 0.008309044 -0.016622163 -0.016986052 -0.030927144 0.03533069 0.010379572 0.014744255 -0.025076898 0.066404596 0.033666298 -0.06708645 -0.005999351 -0.025283061 -0.03622227 0.06728788 0.033637073 -0.07382375 -0.04006882 0.05064744 0.022965908 0.06928342 0.021910932 0.019264368 0.01870673 0.024821348 -0.055656027 0.03960707 0.038742 0.023190098 0.023221351 -0.00434328 -0.06344172 0.04450372 0.015709843 -0.060479153 -0.07121892 0.03167159 -0.04800658 -0.018116951 -0.026404802 -0.024203246 0.031908065 0.04623196 -0.018082215 0.024015462 0.00768849 -0.071753494 0.05429732 -0.004763343 -0.004542384 -0.0470292 -0.046038114 0.0411774 0.02331832 0.018420566 0.05317408 -0.063746594 0.05681384 0.052736524 -0.013644702 0.011923809 0.05841079 0.0009374549 0.010456805 0.0030948448 0.033463717 -0.05626779 -0.0035204103 0.015732838 0.059705906 -0.02966709 -0.030984228 0.010256046 -0.004060401 0.031572726 -0.06096296 0.05255927 -0.026205517 0.01485022 -0.0445507 -0.04534957 0.015604093 0.043156307 -0.04739163 0.075494185 -0.011130072 -0.042664986 0.0076814 -0.0576053 0.026668845 0.02682359 0.034320623 -0.013755031 
tacos 0.03536647 0.009176785 0.090462916 -0.04362946 0.059337035 -0.040709615 0.03144549 0.0018522769 -0.05291114 -0.0026721384 -0.04513274 -0.0019224314 -0.04377669 7.9726786e-05 0.10573941 -0.009840888 0.059212126 0.060799636 0.0689052 -0.098041125 0.06353117 0.07615719 -0.04906797 -0.06285538 0.026890637 0.032187756 -0.09692941 0.06484422 -0.03074277 -0.07579066 -0.094678186 -0.0018396865 0.008051879 -0.0060789967 -0.0390645 -0.050700027 -0.0076019685 0.017271122 -0.08507565 -0.06375703 0.024276366 -0.058860436 0.024649944 -0.059339292 0.06872449 0.018949525 -0.0433665 0.022772405 -0.052709106 0.013115818 0.037005734 -0.024658918 0.04059407 -0.06848719 0.0053009833 0.042156667 -0.031167133 0.023903146 -0.029307395 -0.10823347 0.012270912 -0.07753527 0.010505872 -0.079282425 -0.07231026 0.052013833 0.060343403 0.010563106 0.026817799 0.027971312 -0.027234172 -0.0057325563 0.10176903 0.008353964 -0.006310221 -0.05057449 -0.114413634 0.07216463 0.009887314 0.04614086 -0.08034681 0.0056783506 0.013914222 0.045432385 0.010179911 -0.061256424 -0.0023329116 -0.050475363 0.032475933 -0.07747524 0.03692341 -0.015356204 -0.044025786 0.023195105 0.042376537 -0.0030375107 -0.06674512 0.0008100775 0.017192923 0.076558076 
friendly -0.1234465 0.091115855 -0.07646582 -0.10163549 -0.03683701 0.12684546 0.17318486 -0.1381956 -0.120858945 0.08805483 -0.20426622 0.13700657 0.10235861 -0.065961435 -0.07797352 0.17756642 0.0756045 -0.05142112 0.01016134 -0.029169647 0.08099778 0.12536559 -0.02996032 0.025040422 -0.006264474 -0.05857707 0.05251544 0.0017330948 0.09790514 0.041228637 -0.05132288 -0.019804738 -0.17714751 0.14331861 0.16176262 0.020204987 -0.104974754 0.13587254 -0.06411215 -0.11021393 -0.09814676 -0.18437731 -0.024847561 0.017292058 -0.027420167 0.1822923 -0.10499731 -0.18259354 0.12037495 -0.11648462 0.008416748 0.06144866 -0.03265063 -0.17346624 0.06923604 0.09077964 -0.07350188 -0.06222785 -0.11782746 0.027420504 0.14858215 -0.20508225 0.004522704 0.06912983 0.029775718 0.19961627 -0.12967345 0.1171203 0.07777077 0.12214547 0.07313783 -0.06962335 0.10309998 0.09564577 -0.087132156 -0.15237495 -0.13500471 -0.01525657 -0.081028506 -0.063247405 -0.10959408 0.20658132 -0.057440706 0.14594147 0.17842159 -0.20713903 -0.17328627 -0.17784771 0.10399135 0.101028815 0.2219937 -0.028106114 -0.028843269 0.107136905 -0.204513 -0.09645883 -0.05779176 0.09151874 0.06835862 -0.024004532 
staff -0.14460379 0.034304604 0.024755513 0.04200756 -0.1006969 0.15303609 0.07600668 0.010232092 -0.020677835 -0.100868754 -0.056054957 0.057172365 0.032614045 -0.0016251196 -0.020180788 0.057560932 0.045449346 0.015500785 0.069017254 -0.11423365 0.08430135 0.06529349 -0.018784136 -0.09488334 -0.005589241 0.066872016 0.093850054 -0.0908519 -0.06993958 0.12532704 -0.04366537 -0.02159371 -0.084227465 -0.0026159696 0.041352354 0.00031472644 -0.09662922 -0.0057236967 0.013360265 -0.011806229 -0.0044941106 -0.030433435 -0.009639283 0.12933353 -0.017392918 0.0500245 0.045713622 0.0463683 -0.008209808 0.055185217 0.0006196788 -0.0047844294 -0.0056141717 -0.0534424 0.112166844 0.041104224 0.03427459 -0.10141049 0.006244954 0.02732934 0.07788907 -0.08730512 0.08693789 0.0072108787 -0.0437173 0.019791976 -0.13420667 0.024425358 0.050819248 0.027813045 -0.049530648 -0.09394848 -0.04784839 -0.033253275 0.016130025 -0.08398144 -0.079659455 0.0963827 -0.065387435 -0.01963518 -0.033022426 0.13479581 -0.09661398 0.05774375 -0.0054528983 -0.0018416095 0.020464314 -0.0672252 0.016321337 0.0408724 0.01962786 0.1356667 -0.11092554 -0.022630692 -0.00282342 -0.016058551 -0.0900555 0.068669364 -0.058913615 -0.041302513 
are -0.061593723 0.06323569 0.088114515 -0.036389068 -0.09528769 -0.07061465 0.011576791 -0.048033163 -0.06951868 -0.13988024 0.024070257 0.027716396 -0.123450294 -0.04443823 0.068491414 0.0699031 0.07382016 0.008903378 0.07290721 -0.023008045 -0.0026036897 0.06496087 -0.019164074 -0.15249667 0.096870095 -0.058404587 0.03638217 -0.102112375 0.008262199 0.035473645 -0.07745545 -0.1465092 -0.034538794 0.041487344 -0.017791398 -0.017093353 -0.14703809 -0.083838195 -0.043851037 -0.036841433 -0.05534453 -0.07356229 0.06395128 0.069406085 -0.044438057 0.020829549 0.058926642 0.039503768 -0.13238192 0.081637554 -0.01579821 -0.11085651 -0.048874035 -0.04650766 0.14296523 0.0973109 -0.05759468 -0.11649053 -0.07642886 -0.1445982 0.0020290276 -0.005015285 0.04771304 -0.07094244 0.032705612 0.11074774 -0.013485685 0.04064224 0.08781333 0.05361769 -0.06272157 -0.10684892 -0.018043594 0.025199963 0.029250843 0.038798448 -0.08265794 0.07175098 0.0007055438 -0.06260351 -0.011551085 0.0031764903 -0.054824293 0.040981628 -0.03755498 0.021477606 -0.0875541 -0.029798182 -0.022005673 0.051894736 0.024697524 0.022059094 -0.12563083 0.11672894 -0.03517542 -0.032036092 0.0060171555 0.075842574 -0.038197502 0.054973003 
also 0.031540476 0.11898681 0.047965378 -0.09827743 0.059581816 0.047139786 0.0149162905 0.011991243 -0.063485704 0.046016198 -0.033136316 0.03715978 0.058525603 -0.0017226615 0.06389261 -0.0047685006 0.016257763 0.10132212 0.0867557 -0.08512587 0.10673083 0.1374133 -0.015561816 -0.025289638 0.03192068 0.0951276 0.002109315 0.09087301 -0.11729823 -0.11822531 -0.09513315 -0.031089643 0.0039211563 0.030203471 0.077035986 -0.11205354 0.03245688 0.03317757 -0.072581515 -0.118122 -0.047935564 -0.03439321 -0.05134147 -0.06525671 0.082839355 0.03813605 -0.05863446 -0.03980998 -0.013596409 -0.032490272 0.031635907 -0.026424428 0.034483753 -0.046649657 -0.07316922 0.033845633 -0.048301727 0.06870715 -0.06811164 -0.06383101 0.06453055 0.00977221 0.019754952 -0.04780834 0.03507751 -0.03600432 0.00084930885 0.046175074 0.07055939 0.084274665 0.0040168823 -0.05712853 0.09442769 -0.00925895 0.031167895 -0.03903432 -0.07801517 0.031775925 0.073537625 0.03469745 -0.045976102 0.04950981 0.045869876 0.02630244 0.0077179284 -0.022683017 0.030763771 -0.054447778 0.04052754 -0.019891024 0.026555147 0.03561266 -0.057585206 0.032611713 0.02149116 0.013615015 -0.032742813 0.019534383 0.0279191 -0.04706056 
very 0.052940723 0.030492263 -0.08967836 -0.054065637 0.11466804 -0.01721905 -0.0010824688 -0.04359157 -0.0699938 0.11379345 0.037415966 0.0051388224 0.09761245 -0.054470543 0.026028339 0.014224752 -0.018509105 -0.03457982 -0.10574457 -0.0071535553 -0.056885537 -0.037749864 0.016229337 0.029787341 -0.06182347 -0.029869737 -0.06362458 0.097332016 0.08527967 0.0016433324 -0.03582367 0.034478318 -0.04503593 0.03347625 -0.028162075 -0.12351253 0.011210244 0.090660974 -0.0008849523 0.026579753 -0.024889462 -0.03418202 0.095118396 -0.045441642 0.027006181 0.04335959 -0.063403904 -0.043662716 -0.0010753709 -0.019283766 0.14158292 0.028402112 -0.030247528 -0.03295659 -0.030502947 0.00543854 -0.07817077 0.059491716 -0.054227907 0.072507165 0.047194283 0.0057333163 0.014148644 0.053532805 0.06717129 0.044009417 -0.014641497 0.019807303 -0.025564138 -0.00012817892 0.031941384 0.051757347 0.098269604 -0.0023455126 -0.027233083 -0.011244697 0.0073986957 -0.069419816 -0.021643596 0.07205251 -0.029225154 -0.012859996 0.067122914 0.03549478 0.07618587 0.0014220144 0.040483795 0.054731328 -0.017660253 -0.042069387 -0.009165532 -0.038135193 0.050258644 -0.064982936 -0.08011742 0.039751444 0.057299785 0.012863229 0.12595217 0.052835077 
efficient 0.020185769 -0.060255554 -0.03243029 0.061264526 0.07567546 0.025880028 0.07827993 -0.009739034 0.056356348 0.012416254 -0.021528613 -0.0076639573 0.028839435 -0.05635321 0.021439344 0.050881285 -0.036636952 0.041545987 0.0697982 -0.013157558 0.03469887 -0.002881526 0.01606325 0.027015597 -0.030986516 0.07534098 -0.0018411523 -0.014719637 -0.03876958 -0.021478564 -0.0054809954 -0.008181654 -0.0027553632 -0.016940277 0.009970472 -0.043733753 0.031066598 0.0008088675 -0.062125117 -0.08003325 -0.0032436836 0.054103382 -0.011573039 -0.028211629 -0.009193304 0.03066372 -0.07150195 -0.029935293 0.021430248 0.06267935 -0.06349319 -0.0015127971 -0.012136136 -0.013180299 -0.01851061 -0.055081055 0.059185285 0.0065794648 -0.03692022 0.05559774 0.0076575805 -0.012315763 -0.020523101 -0.011391394 -0.023435725 0.054646328 -0.036333635 -0.0008244467 0.023958314 0.016119488 0.012713741 0.064702846 -0.06406315 -0.069838375 -0.0006623453 0.018575005 -0.0451881 -0.0047799945 0.081246726 -0.008176749 -0.06951855 0.030429067 0.014977275 -0.006774314 -0.0061335936 -0.05327475 -0.08241194 -0.06651136 0.018529838 -0.01050812 0.042549636 0.045138456 0.085276864 0.03232078 -0.030844955 0.065135546 -0.034702353 0.006637795 0.024994912 -0.019630384 
bad 0.16735429 -0.19709525 0.06730897 0.17302002 0.089060046 -0.086299114 -0.14207213 0.12583555 0.16189906 0.010587867 0.14050162 -0.07784327 -0.05801972 0.12459311 -0.011399811 -0.12170702 -0.1475002 0.009406332 0.024268035 0.10945383 -0.08517862 -0.18318467 0.023311773 0.13744733 -0.08799623 -0.06621836 -0.08869246 0.018559923 0.03117899 0.0028765653 0.06823004 0.025114445 0.1023713 -0.169238 -0.106283695 0.046672408 0.13503934 -0.13058263 0.046321712 0.15848807 0.16758734 0.1911347 0.03403731 -0.046567127 0.022776978 -0.12071527 0.12072402 0.15684816 -0.0032621017 0.14699955 -0.02227931 -0.10273625 0.109792486 0.116532505 -0.1271558 -0.10574957 0.14125505 0.13317296 0.14554575 0.02028771 -0.14665926 0.15959135 -0.06422219 0.025894562 0.033438116 -0.11662544 0.1695709 -0.16858286 -0.110520035 -0.13587718 -0.07156373 0.18591116 -0.056767378 -0.106521405 0.107725084 0.18631375 0.076647826 0.0049701035 0.07581408 0.09431004 0.18986265 -0.17339012 0.13314427 -0.13673565 -0.16295448 0.17711453 0.08895348 0.10943929 -0.16311748 0.028883344 -0.1255108 0.042125408 0.09574397 -0.08711798 0.11743369 0.116219826 -0.03530419 -0.11970536 -0.13929631 -0.02242309 
day -0.006459961 0.045741722 -0.01658071 -0.011691055 0.10385316 -0.07585166 0.03620212 0.021868948 -0.10783544 -0.024232078 0.07669541 0.02123732 -0.043455355 -0.06053596 0.012034005 -0.0030297758 -0.006347647 -0.037773807 -0.030547734 -0.08475174 0.03578465 0.062791355 -0.0017603227 0.027986012 0.01426886 -0.030761985 0.028166551 0.07864217 -0.020712001 -0.14154933 0.032735568 0.023336861 -0.040695768 0.095047355 0.07041365 -0.06785118 0.03317185 0.080945574 -0.09035496 -0.04193112 -0.074212596 -0.10995539 -0.09387426 0.085156955 -0.04992717 0.07842535 -0.097485855 -0.061347973 -0.09917145 -0.06427791 -0.016566899 0.08572483 -0.049435683 -0.10723539 0.005575435 0.024947826 -0.005708109 -0.098542444 -0.060104515 0.0075913533 0.07641187 -0.012155111 0.050820865 0.102015525 -0.095531 -0.03964174 0.0050508063 0.01128306 -0.012374773 0.13642259 0.023616599 -0.059637867 -0.008229305 0.046565052 -0.11280668 0.0144157065 -0.0031950297 0.0058235964 -0.04334784 -0.05568843 -0.046942107 -0.03159768 0.051071636 0.01239555 0.08633736 -0.090656914 -0.05028508 -0.03180933 0.062394675 -0.024562921 0.03596802 0.038773216 -0.03165983 0.058756318 -0.046103947 -0.019324565 0.013364028 -0.032737225 0.06925685 -0.010639598 
or -0.029243685 0.034742307 -0.037992153 0.007903709 0.0535439 -0.048156172 0.061115246 0.04948394 -0.023782242 0.038565505 0.00256614 -0.09083948 0.01635818 0.07687883 -0.033403657 0.017661085 -0.019991761 0.04702694 0.009566134 -0.013788773 0.11774837 0.033336513 0.00463378 -0.0025458275 0.08100151 0.062221706 0.023076184 0.059867676 -0.017395549 -0.09460243 -0.061517328 0.022865785 0.03285307 -0.06494953 0.06598584 0.021664063 0.025661968 -0.01786858 -0.00782853 -0.12203372 0.018574817 -0.03211921 0.054129433 0.022050304 -0.009084061 0.025842378 -0.018378248 -0.031620808 -0.03187384 0.031491593 -0.034608603 0.023201263 0.010509399 0.023290802 0.009161661 -0.014467027 -0.04135792 -0.023356436 -0.03090484 0.00657662 0.017055025 0.041667916 0.05325925 -0.014105008 -0.10008388 0.027939158 -0.0582487 0.0001630873 0.03352723 0.10091328 -0.091344975 0.04180858 0.0520947 -0.016730448 0.080860056 0.024517091 -0.01972441 -0.016862225 -0.04710274 -0.03737417 -0.04736204 -0.016823092 0.033112682 -0.037180953 -0.058601927 -0.00828237 0.04710763 0.002906608 -0.061413012 -0.08049425 -0.022879122 0.045979135 -0.022133878 -0.06335754 -0.017559856 0.03178598 0.010911932 -0.10194061 -0.02868358 0.020945787 
low 0.08873278 -0.09046931 0.046296585 0.051855687 0.061514862 0.066692606 -0.022524932 0.0088056 -0.044982024 -0.05180521 0.060582757 -0.041441273 -0.0015676916 -0.072074085 0.074060105 -0.013282465 -0.035628922 0.049788784 0.04925685 0.06781596 0.0027603195 -0.017930249 0.02159729 0.08092714 0.017617932 -0.007868659 -0.076761514 -0.040913206 0.021989623 -0.023988202 0.053812977 -0.015566153 0.04134994 -0.039844386 -0.052952435 -0.045272198 -0.086081974 -0.08714455 0.030935353 0.033347625 0.025149142 0.049494456 0.043695748 -0.0020404635 -0.014598821 -0.030787203 -0.04241032 -0.0015384743 0.018589146 -0.043638956 0.062322024 -0.011450218 0.0065949764 -0.010836617 -0.048909064 -0.014175865 -0.0007527859 0.022521557 0.031376895 0.00031886293 -0.004532604 0.087804936 -0.022523208 -0.0031997387 0.015359805 -0.008055123 0.06662454 -0.051821854 -0.07136234 0.0010186748 0.05373394 0.021697255 -0.01928159 0.068195246 -0.0056449375 0.038960718 -0.01165317 0.03142347 0.008636082 -0.04561241 0.063838884 -0.05005398 0.017204536 -0.050382897 0.024416061 -0.01417311 -0.011266143 -0.009914641 -0.0053987475 0.010073359 0.029251667 0.002831013 0.053527113 -0.011778704 0.05512995 0.068866596 -0.043360997 -0.06895705 -0.07298822 -0.0693136 
tolerance -0.0095038405 0.00384148 -0.00180617 0.0028540874 -0.059093554 -0.03669689 -0.0015848755 0.036540415 -0.0727395 -0.0112731345 0.019531038 0.008835897 0.03849943 -0.061173186 0.003214423 0.0152761405 -0.043562822 -0.050012264 -0.04111154 0.032476213 -0.03140071 -0.027904006 -0.060170494 0.01738991 0.035519645 -0.03672549 0.05513531 -0.024502365 -0.062051237 -0.02359435 -0.04815052 0.0006628999 -0.012263355 -0.019466694 0.048983976 0.0025291166 0.067225665 -0.04692973 0.016190188 0.039194517 0.051140938 -0.05839152 -0.004590146 -0.018531622 0.01636057 0.062290724 0.002722167 0.077379666 -0.07292278 -0.043526266 0.00021315103 -0.017726796 -0.004545253 0.046761297 0.0076776785 0.007485063 0.021412017 0.079828836 -0.06633634 0.0676323 -0.07439996 0.05738937 0.020479871 -0.023948796 0.06761859 -0.014016849 -0.060128998 0.00847793 0.0249771 -0.027967213 0.060375065 0.059915103 -0.034151226 -0.016255673 -0.053004324 0.024809577 0.050427686 -0.06915098 0.034009784 0.051518656 0.0071277535 -0.058467533 0.036817238 -0.02905006 -0.056972858 -0.064536445 0.023388011 0.072082594 -0.009679488 -0.07648454 0.06611981 0.0067485166 0.048028093 0.06627627 0.0005128224 0.069837764 0.034250744 0.05442797 0.06910183 -0.022700543 
rude 0.057484124 -0.14640392 -0.053020727 0.08171089 -0.042886995 -0.12182083 -0.15585381 0.055772465 0.010931405 -0.09954767 0.1671643 -0.0208336 -0.039410215 -0.14902717 0.11422247 0.03540457 -0.14632456 -0.1253526 0.06177041 0.119142145 -0.14945596 -0.12564065 0.064217925 -0.004086606 0.086037904 -0.1067512 -0.110123724 -0.11803317 0.10962218 0.05306272 0.0238737 0.09730138 0.07471455 -0.11504691 -0.039756756 0.06807498 -0.06335702 -0.14918333 0.07437443 0.15572067 0.14118078 0.08703938 0.011806361 0.08121083 -0.08933909 -0.11641741 0.13427705 0.08651201 -0.093588024 0.14520611 0.017385771 -0.14738823 0.024397273 0.080290705 0.09284568 -0.13721497 0.15785891 -0.0070341565 0.073542684 -0.026576133 -0.15000688 0.11002953 0.13448313 -0.027755478 0.04554805 -0.009287631 0.057012737 -0.09616027 -0.14479984 -0.15996738 0.054908596 0.054400228 -0.15480925 -0.082414955 -0.06660143 0.12244121 0.050794113 -0.08944187 0.14093228 0.14425474 0.113215454 -0.14594233 0.113058664 -0.08981682 -0.16760442 0.07841057 -0.02805711 0.006101073 -0.1205083 0.028380802 -0.02357295 0.08171741 0.038402192 0.046541393 -0.008516231 0.07153483 -0.020717451 -0.08751367 -0.007384399 0.13314983 
customer 0.07114361 -0.016972363 0.092155665 -0.00840912 -0.016250592 0.002903664 -0.058859017 0.06572018 0.057970572 -0.05036758 0.10897159 0.013953217 -0.079148084 -0.0031482102 -0.10045393 -0.030942637 -0.08013887 -0.09468208 0.037273366 0.029179616 -0.045466222 -0.13645655 -0.059058458 0.0773636 -0.09886303 -0.0012614626 0.042413045 -0.0038320676 0.026756544 0.06842549 0.075785525 -0.08276001 0.06723612 -0.000984092 -0.039196778 -0.044068854 0.10214008 0.037492063 -0.048113022 0.052247457 0.021958899 0.003864258 -0.12034818 0.067377806 -0.07432591 -0.04207289 0.007358728 -0.04005902 0.012110237 0.06751596 0.04722247 -0.006778993 -0.0020108798 0.04688895 -0.11149887 -0.051212966 0.08029302 0.08551207 0.09637237 0.017323557 0.015520433 0.11529824 0.0028710486 0.08874621 0.018508576 -0.12864141 0.087906316 -0.057248563 -0.029802872 -0.1077846 0.11474819 -0.009689981 -0.07935436 0.052776568 -0.02463249 0.07023388 0.097255126 -0.01155711 0.08851052 -0.031838723 0.060145773 -0.025067534 0.059849095 -0.021038609 -0.039233662 0.015807118 0.05136506 -0.033578835 0.027504038 -0.0057944464 -0.10206389 -0.025309607 0.08877936 0.07205721 0.037468195 0.00061479013 0.044462718 0.084358 -0.0014035088 -0.01915586 
people 0.019700527 -0.09544261 0.011803242 0.032890655 -0.09293369 -0.05539693 -0.032314744 0.019703802 0.078642696 0.040480033 0.008413494 0.018520288 0.019378679 -0.018832238 -0.0837022 0.024086058 0.00782334 -0.1039252 -0.09884352 0.023488898 -0.12605919 -0.026772086 -0.09428434 0.07922313 -0.018739795 0.0030476395 0.034598727 -0.06920377 -0.026777178 0.086047746 0.015307344 -0.1138046 -0.09061765 0.07714449 0.02800755 -0.020265752 0.051478457 -0.095416665 -0.049799766 -0.03122146 0.015706206 -0.014828874 -0.017166583 0.07245181 -0.06748659 0.055854872 -0.04124561 0.0018373987 0.038239866 -0.003932329 0.10408274 -0.07127955 0.103861876 0.07296863 0.008726889 -0.058394592 0.009704115 0.050657436 0.015457496 0.06865143 -0.00034072038 0.035452176 0.03265453 0.07528103 0.11099582 -0.069939695 0.02469079 -0.012215051 -0.08626073 -0.074281335 0.06608605 0.027549952 -0.09110079 0.07581229 -0.12869059 0.043824546 0.011054235 -0.06816558 0.039298266 0.043525726 0.057038587 -0.072913855 0.034150366 0.06027627 -0.05393784 0.040684372 0.04990427 0.03594094 0.046764985 -0.059421908 0.04875329 -0.07727325 0.10979109 0.09953896 0.002296798 -0.026776826 0.13320942 0.12515847 -0.0072067725 0.050666694 
it -0.02870586 -0.005887521 0.0030884338 -0.026726065 0.055508647 0.03039311 -0.02571093 0.013873684 -0.020941168 0.050287664 -0.14374946 -0.0004926533 0.0887579 0.10734591 0.10542086 0.012404579 0.038628656 0.07398578 0.01713332 0.008642408 0.034186587 0.08074404 0.047109537 -0.035361506 -0.025153335 -0.0036383835 -0.0038577016 0.03302801 -0.100480184 0.01498619 -0.056127477 0.025739186 0.0013506194 -0.028929034 -0.018547019 0.05689494 -0.0128806755 0.042562675 0.04567422 -0.13728136 0.012605436 -0.029040094 0.1059967 -0.019524742 0.079414144 -0.054574512 -0.030608762 0.021144712 -0.021681633 -0.046354167 -0.03839677 0.033896636 -0.037459984 0.06811271 0.070453346 0.026371013 -0.049636334 -0.093290664 -0.051184483 -0.053311016 -0.02777651 -0.007991691 -0.0027078213 -0.042292286 -0.020321218 0.04373594 -0.116656646 0.035208497 0.039446063 -0.0050885817 -0.14069165 0.026162257 0.025484975 -0.017717505 0.11096597 -0.019128852 -0.015835546 -0.026780339 -0.02905059 -0.036446307 0.02895481 0.054124717 -0.08655069 -0.034616623 -0.060836915 -0.0414234 0.037197094 0.05999648 -0.08377738 -0.019253809 -0.049699474 -0.06592894 -0.018618222 -0.029357981 0.014848946 0.031568974 0.060128167 -0.06633321 0.028126873 0.025731288 
is 0.012821828 0.10798359 0.0039692773 -0.07634566 0.088896036 -0.041234147 0.012608845 -0.053281743 -0.093907766 -0.06688547 0.116153695 0.012292591 -0.024454307 -0.050097972 -0.045957193 0.061563376 0.08934072 -0.12444754 0.05998972 -0.045549944 0.037057776 -0.03298013 0.0412667 -0.055321787 0.039361663 0.03306822 0.09948758 -0.030793952 -0.0068841656 -0.005082399 -0.070794396 -0.0047836863 0.00645384 0.018779313 -0.06997148 -0.043473467 -0.032496586 0.07773934 0.037933793 -0.04905767 -0.05761221 -0.04358485 -0.09952414 0.12100394 -0.05140994 0.044152815 0.038662378 0.013295408 -0.088944905 0.023758149 -0.08607537 0.009317051 0.038342383 -0.064496495 0.050571445 0.05526115 -0.040494643 -0.07365901 0.010517478 -0.0123571 0.0052917893 -0.040070243 0.09786701 -0.04536972 -0.13647988 0.026719164 -0.005549517 -0.01025708 0.025230896 0.004282574 0.05409229 -0.050912995 0.016254112 -0.07534223 -0.035740286 -0.057699345 0.05941514 0.07848013 -0.008236673 -0.009656621 -0.074545644 0.034500092 0.07553269 0.031873994 -0.0133972615 -0.024307543 -0.091533095 -0.062963225 -0.04670381 0.078255825 -0.018810907 0.03398074 -0.10512127 0.08708801 -0.061626434 -0.05436509 -0.09732296 0.049714614 0.00018655317 0.0018751114 
your 0.07163243 -0.04083787 -0.062690146 -0.024078583 0.13081795 0.042232618 0.020186946 0.06945972 -0.02531809 0.11309842 0.07763541 -0.039549597 0.060190402 0.047181066 -0.090789855 -0.08859957 -0.047124952 -0.05504511 0.018632388 -0.04338336 0.061867893 -0.067442186 0.057761177 -0.028321154 -0.09906939 0.039302744 -0.087326854 0.012271053 -0.07723334 -0.047332086 -0.029175838 -0.028205846 0.037544597 -0.04350318 0.023281612 -0.10911444 0.12810586 -0.06305957 -0.011371222 -0.019398024 -0.0015627877 0.012045467 -0.017582295 0.011591407 -0.042172465 -0.0820587 0.06514815 0.08999234 0.023172602 0.01538411 -0.06578701 0.05242732 -0.018352112 0.021633428 -0.047335073 -0.09743576 0.03214884 0.09540825 0.05438569 0.008412232 -0.098263085 -0.016682737 0.045421492 -0.0043703187 0.015019058 -0.009712305 0.017231572 -0.019861089 -0.033990946 -0.027214767 -0.0059233573 0.109239 -0.0020727247 -0.08744417 -0.001077299 -0.0086855125 0.07456173 -0.050991487 0.025108607 -0.05436615 -0.00982536 0.057183508 0.10170406 -0.036725137 0.018084053 -0.019536905 -0.022263154 0.03627116 -0.01098385 0.02070128 -0.008638501 0.04623098 -0.017206145 -0.043960247 7.556593e-05 0.07270935 -0.0931263 0.043654352 -0.020084934 -0.03950402 
