2104 100
<unk> 0.0051593003 -0.003041959 0.0009301266 0.0009466993 -0.00067892094 -0.0037123486 0.00015279907 -0.00044705597 0.00022873405 0.0011234948 -0.0019805764 1.3668982e-05 0.0010599692 -0.0011781813 0.002010536 0.0022046675 -0.0012189358 0.001965125 -0.0008519755 0.00015600662 0.00080581725 0.0025447628 -0.0018726982 0.0035296304 -0.00014277665 -0.0013719529 -0.0010520602 0.00026278713 -0.00039715218 -0.0007987311 -0.0029567706 -0.00044837312 -0.0036972896 -0.00440738 -0.00040416516 0.0014050795 0.00032810794 -0.00010692142 -0.0010506646 -0.0025132527 0.00073931844 -0.0048937374 -0.00014158658 0.0022407544 -0.00039825038 0.0021318381 0.0033212323 4.332114e-05 -0.0013768274 0.000497613 0.0009913879 0.0012135585 0.0005954537 -0.00033524388 -0.0006555974 -0.00012562901 4.0843348e-05 -0.0029495405 0.0006941576 -0.0015590294 0.0005326018 2.0308448e-06 0.00089433574 0.0017613611 0.00086170965 0.0013383223 -0.00085715664 3.8561997e-05 0.0008402788 -0.0024115427 -0.0017988333 -0.0027171122 -0.0040091285 -0.0012007378 0.0031675713 -0.0003284571 -0.0007805673 0.0021540353 0.0008773238 0.00010869064 -0.0002935919 0.0036625846 -0.0011951948 0.00097390555 0.00022066037 -0.0001008425 -0.00028894522 -0.00025086114 0.001999699 0.0001235849 0.0032721222 -0.004137577 0.0012902695 0.0010366525 0.0007162027 0.002082271 -0.00013657325 -0.0023496107 -0.00039107047 -0.0003028556 
nice -0.30507964 -0.0190211 0.31123066 -0.17987536 -0.065556854 0.56894666 0.56516767 0.5780938 -0.30957592 -0.35701495 0.030533776 -0.41737384 -0.46545017 0.25931674 0.19323763 0.84014106 -0.27817774 -0.20844074 0.00929895 1.0398735 0.11256891 0.4582691 -0.3245928 -0.7947371 0.50569826 -0.32216907 -0.71143353 -0.52396184 -0.19234341 -1.0208027 -0.8746502 0.24541472 0.6681198 -0.31429464 0.80712897 0.7875798 -0.06873077 0.3986851 0.34651902 -0.5950836 0.84532523 -0.7763326 0.4656928 -1.0669848 -0.57043827 0.28701 -0.20465353 0.10517359 0.23045285 -0.7311273 0.20555256 -0.087966256 -0.2593417 0.2677707 -0.521974 -2.3984427 0.29019514 0.89721 0.5756142 -0.8105521 -0.3756356 0.43858257 -1.5393258 -0.28364843 0.6338585 -0.14239286 -0.12253752 0.3958527 -0.31072298 -0.46520162 0.25347772 -0.106542274 0.17672464 -0.72469056 0.39238912 0.44305444 0.6619734 -0.5905235 0.53564817 0.27218935 -0.10893005 0.067573555 -0.105337895 -0.10163587 -1.1374505 -0.03128694 0.23541525 0.3423062 -0.38980833 -0.5850929 0.26870382 -0.27199206 0.4610915 -0.047512587 -0.76993614 0.54461145 -0.65020037 -0.048484884 0.05651347 0.43345356 
spicy -1.1827826 0.5865338 0.5077079 -0.37330213 0.021489512 0.7129464 0.4872195 -0.5376829 0.011581497 0.5652217 -0.35210538 -0.23280618 0.52276355 0.9939118 0.65774465 0.9942716 -0.023749776 -1.3045033 0.052095186 0.84251547 0.4178296 0.16102718 0.023511099 -0.5712336 -0.068039306 1.7086018 -0.10077698 0.2745788 -0.6053698 -0.45579064 -0.66256046 0.40041798 0.37672633 -0.58579963 0.3022717 0.89498305 0.17880471 0.2608089 0.514472 -0.48445585 1.1545366 -0.9821054 -0.5809241 -0.7252416 0.71067506 0.6801229 -0.38740185 0.03491048 0.34773225 -0.87379074 -0.16583379 -0.0047144396 -0.008745803 -0.44462827 -0.6986182 -0.35348275 0.74464685 0.059366494 -0.08607464 -0.5467866 -0.22349195 1.242635 0.29354852 -0.08104936 0.14196773 -1.0165391 0.2085683 -0.6230215 -0.13917157 -0.57346845 -0.20852916 0.2833077 0.24819534 0.88838416 -0.5391516 0.89424485 -1.3620226 0.029490454 0.43352258 0.25474352 -0.16323416 -0.97626734 -0.20861539 0.56489384 0.03847078 -0.1380167 -0.32503673 0.7690047 -0.13921544 -0.36077568 0.16379854 0.41268745 -0.86881906 -0.5242031 -0.8835275 -0.44534367 -0.89872134 -1.0120666 -0.071159475 0.7959067 
and -0.009508277 0.19090277 0.0642915 -0.5015898 0.3947118 0.1676899 -0.30887088 0.23991838 -0.15643102 0.3731033 0.1902682 -0.5562296 0.2828486 0.6232884 0.18840739 -0.4461581 0.19410886 -0.08984167 -0.87966293 0.2569972 0.057462685 -0.1343139 0.9577527 0.42168292 0.37845722 0.23451515 -0.11196637 -0.5713103 -0.018614342 -0.41860005 -0.29596677 0.6707414 -0.4790623 0.2908192 -0.092509456 0.29180452 0.49373022 0.36369732 -0.19028232 -0.10045214 -0.4706022 -0.6094591 -0.028164795 -0.29485223 -0.2857566 0.10503309 0.15865284 -0.5768807 0.41924542 -0.551308 -0.36837322 0.15038852 -0.15559794 1.6425347 -0.039669517 -2.317929 -0.02522637 -0.25598505 1.2507616 0.80293524 -0.23493518 0.6547306 -0.089624606 0.3298393 0.85710925 -0.4527658 0.88382864 0.3684464 1.0137798 -0.15076141 -0.22626948 -0.51336414 -0.008567713 -0.69732744 0.18079372 0.2788107 -0.22690105 0.51737267 -0.64960265 -0.06640546 1.0473593 0.5542027 -0.22880891 0.61466354 -1.3956366 -0.33606791 -0.101568915 -0.11889675 -0.014222952 -0.5562382 0.113117196 -0.6188462 -0.2880468 0.43201983 -1.0317254 0.5660073 -0.45922422 -0.68296695 0.82632387 0.19165729 
tender -0.40294126 0.5100944 -0.59934336 -0.27063707 -0.0056488137 -0.06895069 0.525512 0.71366197 -0.09928396 -0.011727737 0.30884314 0.86395913 0.07271686 0.06357973 0.2014638 -0.39069942 0.18134885 0.08510642 0.6409868 0.309692 -0.57820904 -0.23822597 -0.32156274 -0.49251 0.9910873 1.0869397 -0.5354036 0.5538475 -0.28041768 -0.21719255 -0.46200567 0.860837 0.19171953 -1.116029 -0.20198312 0.7245314 0.46868628 -0.5933575 -0.1916496 -0.8275525 1.0062401 -1.3607132 0.29404888 -0.51648134 0.8907335 0.18676619 -0.5521566 -0.2812453 0.46021783 -0.48022375 0.06895237 0.20859978 0.6494199 0.48672768 -0.44827312 -0.923299 0.5340273 -0.4072695 1.4381918 0.17682257 0.57439405 0.7585681 -0.27635616 0.5233451 0.62568414 -0.592099 -0.47168761 0.49650997 -0.21527737 -1.1174686 -0.35022178 0.04946399 0.15167071 0.120252185 -0.12828255 0.6495026 -0.80867094 0.022408133 0.04013384 -0.77373517 0.4130489 0.03393514 0.23448588 0.9308775 -0.22979009 -0.38364133 0.2987927 0.89454556 0.25513405 0.071500584 -0.59654546 0.47548562 -0.316524 0.26120812 -0.40824455 0.743043 -0.5004759 -0.58246964 -0.22609729 0.6598023 
1 -0.25771526 0.66779184 0.034732744 0.31461602 -0.05739825 0.17144404 1.1480685 0.39156115 0.021511743 -0.36870643 1.1308182 -0.13747582 -0.6172022 0.4734154 0.63585347 -0.3985263 0.8795002 0.13367783 -0.24733184 0.6763618 0.52969843 -0.06850015 0.4601646 0.9978043 0.3486731 0.40397286 0.6899638 0.073205195 0.3397795 -0.18153584 -0.19691317 0.8753736 -0.030842982 -0.24199538 -0.6954111 0.22785416 -0.051533513 0.96835893 -0.148209 0.04530676 0.7455559 -1.525821 0.26757887 -0.6880315 0.59423536 -0.58095855 -0.2971055 -0.31942508 -0.07446364 -0.58074504 -0.07893901 -0.58814716 -0.36263174 1.485702 -1.1375647 -2.7048202 -0.28434822 -0.70939744 1.7132012 0.48620725 -0.27738327 0.0078698965 -1.0294541 -0.12313875 0.9534629 0.2414368 -0.79218316 1.0097926 0.5113306 0.3734019 -0.6516895 -0.15438177 -0.10761028 0.8302692 0.3569782 -0.048586477 0.032829836 -0.008631824 -0.79989797 -0.16988677 0.41189948 -0.72841585 -0.9625658 0.25762808 -0.36973605 -0.11147847 -0.2385161 0.1557739 0.49022835 0.368945 -0.7985382 0.7299903 -0.6006659 0.4223817 -1.0569994 -0.31871626 0.32814294 -0.13856164 0.4795004 -0.73213327 
i 0.027470626 0.55935854 0.54302585 -0.33403176 -1.2326885 0.52960604 0.1104641 0.34021547 0.24530797 -0.17387845 0.84991044 0.3500268 0.2157776 -0.07619883 0.11469211 -0.40642482 -0.33844113 0.52732944 -0.97443473 0.5467069 0.14640354 1.1074777 -0.32850048 -0.29366222 0.21776977 0.63577837 -0.22928289 -0.80109125 0.9928961 -0.48026055 -0.15726571 0.79815865 0.75484324 0.30882517 0.18189602 0.61793864 -0.42109382 0.56484306 0.75308436 -0.42437583 -0.48105383 -0.14577042 0.27841 -1.083375 -0.94775903 -0.09635991 0.32610542 -0.56734747 0.16762853 -1.6801851 -0.02949589 0.07287787 0.19627774 1.0282974 -0.61123884 -2.6360853 0.25425017 0.5597283 1.3570064 1.0458381 0.20364411 1.272939 -1.1248493 0.08537558 0.9697651 0.0026480365 0.97586656 0.7269848 -0.5400363 -0.11589596 0.5572967 -0.45117772 0.55173934 -0.460351 0.06329276 0.2827668 -0.11044943 0.13166294 -0.66105884 -0.22946961 0.52955747 -0.5580658 -0.8387687 0.2168722 -1.9756447 -0.29809514 -0.3503032 -1.0104913 -0.9126386 -0.7076109 -0.2890285 -0.38773444 0.31504083 0.31423786 -0.61414564 0.19552451 -0.14960493 -0.28085336 -0.09332548 0.7073622 
go -0.020337613 0.46940556 0.7353824 -0.7867429 -0.070752494 0.20325391 -0.3283306 0.5279299 0.11874067 -0.19595627 0.5358197 0.48252997 0.013028284 0.4027792 -0.14245397 -0.28182462 0.017075099 0.8726129 -0.9080018 0.49247953 0.32702094 0.6369801 -0.039693244 -0.08936267 -0.04860179 0.07553293 -0.53088653 -0.83709055 0.71176004 -0.34123647 -0.677075 0.23219074 0.036992103 0.05878298 0.0629056 0.8411725 -0.20415728 0.12459724 0.033247367 -0.54417634 -0.32658827 0.085319616 -0.4117332 -0.756855 -0.5927845 -0.18523186 -0.37829393 -0.17518614 0.011988256 -1.189969 0.04805468 -0.24963136 0.007323563 0.7342615 -0.08937967 -2.3474648 -0.25738293 0.44884366 2.164887 0.2594953 -0.5446541 0.6044874 -0.4820291 -0.22516748 0.8394588 0.7583421 0.1326176 0.38363272 -0.46975923 -0.12685831 -0.08462719 -0.63512343 -0.34237635 -0.8104327 -0.019999797 -0.042610947 -0.2946601 -0.2148413 -0.36823753 -0.11512203 0.58924055 0.04332977 -0.50882167 -0.2701406 -1.4557998 -0.30606088 0.0059933853 -0.016277647 -0.303316 -0.4157515 -0.13724394 -0.20504932 0.13560268 -0.35110903 -0.6147638 -0.11884828 0.3728312 0.2300192 0.6062419 0.36149323 
to -0.20658739 0.03684303 0.14872411 -0.02045257 -0.033651672 0.20855872 -0.52834576 0.0027043715 -0.24438784 0.25417644 -0.1488276 0.090825826 -0.1824562 -0.19189027 0.16838177 -0.38851565 1.0477159 0.20525889 -1.0886172 0.3978901 0.502322 -0.535102 0.3792314 0.4687136 0.05486191 -0.21227342 -0.02299509 -0.78082275 1.0140318 -0.23667413 -0.5039677 0.61549467 -0.0918164 0.35128117 -0.4332801 1.0568187 0.31461865 0.18918465 -0.056159988 -0.06879481 -0.70930207 -0.37053856 -0.579004 -1.120812 -0.43706894 0.53242576 0.038752664 -0.5527443 -0.066161476 -1.1255548 -0.28770828 0.19148873 0.65347785 1.532458 0.13461739 -2.9810078 -0.18823083 -0.926588 2.1613312 0.22025158 -0.3414937 0.58182514 -0.4031793 0.39779887 0.8255756 0.13640888 0.27523795 0.92449504 -0.056221712 -0.88571316 -0.046108462 -0.81882614 -0.38640875 -1.0609071 0.042915788 -0.23619394 -0.4493918 0.16452777 -0.7274106 0.026951516 0.43917373 0.30494082 -0.6139251 0.10852547 -1.4610641 -0.11962077 0.7059938 0.64636666 -0.06390646 -0.062310014 -0.21515149 0.14360729 -0.28258893 -0.6229432 -0.6238242 -0.44916955 -0.08492452 -0.4589295 0.52061534 -0.16023228 
far -0.14402167 0.6559027 0.88395864 0.05525053 0.21537106 -0.22748393 0.036112413 -0.21273997 -0.14485644 0.02455939 0.117521144 0.33006725 0.10339821 -0.38944203 0.21408676 -0.48186493 -0.37194806 -0.14799593 -0.45068315 0.48550498 1.014436 0.79140264 0.095721364 -0.14439723 -0.37514207 -0.028924061 -0.0124267815 -0.57036287 -0.17197593 -0.37667364 0.24089096 0.005825866 0.20236444 -0.08330352 0.6887129 0.41381854 0.15527885 -0.10970347 -0.6822671 0.24034582 -0.46362787 -0.4157985 -0.07275052 -0.16064526 -0.067738265 -0.32623285 0.96005625 0.01272158 0.23384447 -0.3259322 0.62218624 -0.28370982 0.21381341 0.96035475 -0.35991776 -2.348161 -0.109073415 -0.34132814 1.6668564 0.18727392 -0.040273167 1.2199905 -0.29050484 0.19124733 0.6537563 0.18416747 0.19699916 0.057673756 0.18516125 -0.036829565 0.30270994 -0.45023867 -0.25206646 -0.10108272 0.3562583 -0.5079692 -0.09671758 -0.1784573 -0.86305785 0.094780914 0.46775484 0.38773102 -0.51873285 -0.45267966 -1.5827293 -0.28109512 0.41651127 0.13891247 -0.24292526 -0.2823778 0.13907404 -0.07360966 -0.40012345 -0.121110104 -0.5437302 0.33398518 -0.6295029 0.08925281 0.57879096 0.13581191 
too -0.61928153 0.24479005 0.61014664 -0.6051352 -0.60056037 0.025599727 -0.5843704 -0.005772059 0.36519948 -0.44869745 0.18893686 0.24821845 -0.00025359337 -0.27691856 -0.15973715 -0.6032989 -0.6756981 0.22575073 0.0450152 0.5977286 0.630004 0.80749136 0.38618952 -0.37797877 -0.11529384 0.28915587 -1.0855788 -0.9507964 -0.0075426963 0.08546771 0.07263399 0.33151448 -0.25806177 -0.2652725 0.18247432 0.4568944 -0.14848633 0.14652944 -0.42243645 -0.07109614 -0.13081856 -0.19375907 -0.20334603 -0.42459914 -0.35026762 -0.49326763 0.6260107 0.5510151 0.34139517 -0.804509 0.12027898 -0.3086434 -0.0705714 1.2626833 -0.3596779 -2.4523785 0.24980257 0.13559699 1.5295484 -0.029378587 0.018980933 1.3606958 -0.4780972 0.25306815 0.66590506 -0.31486613 0.8034148 0.12732498 -0.08960013 -0.23506361 -0.17127284 -0.61257595 0.17738691 0.032294028 0.29347786 -0.1641759 -0.48985484 -0.07888362 -0.5719938 -0.07547497 0.8754794 -0.24102864 -0.6796539 -0.057309806 -2.0761244 -0.524272 -0.15468772 0.112256035 -0.9858995 -0.48026365 -0.0008197812 -0.24858415 -0.1963936 -0.012679184 -0.4659899 -0.23424578 -0.48502004 -0.26373374 0.08076123 0.3406524 
many -0.42301303 0.774286 -0.2903844 -0.14064878 0.11146341 0.57277703 -0.4535512 0.012059251 0.028824963 -0.2870214 -0.048097804 -0.40474057 0.41707563 -0.09565296 -0.08334257 -0.21422748 -0.10712338 0.04701463 -0.22430597 0.799424 0.43618664 -0.0864196 0.32614228 -0.4297565 0.104799695 -1.0822495 0.11570826 -0.4279764 -0.06002653 -0.14825632 0.23144795 0.19410764 -0.5155617 0.06034565 0.08793595 0.56025994 0.25465354 0.29542738 -0.2027177 -0.2872604 -1.0217676 -0.27988625 0.05889303 -0.04250177 0.21882398 -0.32649124 0.6207814 0.0036460331 0.062168833 0.03131765 -0.25287786 -0.17559998 -0.22831412 0.86556065 -0.11994492 -2.0753968 0.19904345 -0.24796353 1.6071732 0.6197528 -0.506155 1.5758957 0.57548064 0.20860893 0.77018064 -0.22541462 0.65465534 0.1742312 0.82079226 -0.5492945 -0.38165817 -0.077848464 -0.14382932 -0.2741807 -0.020693077 0.2623716 0.22375992 0.031053292 -1.0406946 0.00835917 1.4381919 -0.13383074 -0.2932112 0.29919356 -2.1057618 0.071726665 -0.4871499 -0.25855726 -0.6746075 -0.37836254 0.09154126 -0.4701067 -0.24031761 -0.09229872 -1.6013544 -0.1778073 -1.2215544 -0.12553246 0.72158915 0.70028096 
places -0.25130442 0.25871232 0.22022851 0.08597893 0.57436126 0.23107962 -0.7296256 0.4316569 0.23280127 -0.030972702 -0.12197963 -0.4125539 0.41347727 0.22304776 -0.011466959 0.0051260656 0.22893466 0.18489712 -1.0059363 0.6854185 0.60034686 0.6277127 0.43856618 -0.14855343 -0.14678882 -0.80235827 0.4646042 -0.08732851 -0.1310113 -0.3542489 0.17699292 -0.41550773 0.27401924 0.0389792 0.45704767 0.64564645 -0.49477884 -0.14727134 -0.3621929 -0.22589587 -0.21297203 -0.40906283 0.07417235 -0.4390627 0.06974655 -0.030749928 0.15194106 0.25397992 -0.10685386 -0.49389824 0.12217131 -0.036803566 -0.32632542 0.6228053 -0.06562826 -2.1218112 0.33922148 -0.12267473 1.589582 0.0457646 -1.0363522 0.98153996 0.40491682 0.13585709 0.8345848 0.20678408 0.4167339 -0.3103591 0.5331145 -0.6260173 -0.40622452 -0.36991826 0.24592789 0.1306689 0.2370536 0.13069135 0.2278233 -0.40403044 0.059840247 0.1088493 0.4020567 -0.11881998 -0.6929076 0.32481357 -0.653621 0.2061081 -0.39546376 -0.46318102 0.19801077 0.3390157 -0.4382116 0.15128957 0.715023 0.32760632 -1.2792029 0.4204042 -0.62446207 0.09689296 0.28737432 0.23306969 
ive 0.33700064 0.37816793 -0.14828661 0.28933132 -0.5076983 -0.1543174 0.53361183 0.06383084 0.70474523 -0.50692093 0.5210237 0.3574008 1.1759714 -0.14200981 -0.28555006 0.1308149 -0.3057828 -0.12581196 -0.5484416 0.8952826 -0.5943479 0.40129203 0.9578919 -0.31286338 0.022059632 0.09128894 0.32463983 -0.3712524 -0.40557444 -0.49011278 -0.013567475 -0.28733337 0.011241726 0.27529705 -0.02942633 0.33348346 -0.7392639 0.32169074 0.2785953 -0.07321874 0.16105448 0.70081705 -0.38423485 0.41387933 -0.5071066 0.1509341 0.46650013 -0.52092046 0.7622298 0.4710039 -0.35442922 0.08272946 -0.3843527 0.2584736 -0.6714926 0.33856863 0.035527665 -0.032686025 -0.8448877 -0.3408669 -0.054872405 -0.19446206 -1.1773088 0.6335551 -0.43026268 -0.22451 0.4019089 -0.8333447 -0.38728568 -0.38981387 0.70901453 0.67710215 -0.000117940006 0.14832151 0.14109753 -0.3858358 -0.48683852 -0.2745298 0.07314638 0.7400027 0.42953426 -0.72811645 -0.42253736 0.024044145 -0.86137456 0.11135009 -0.0856193 -0.9035494 -0.041808292 -0.2518624 0.079936154 0.22047801 -0.10617385 -0.00416979 0.35285002 -0.15335721 -0.017958688 0.1647559 -0.9178963 0.34925693 
never 0.40749428 0.28117082 0.72781295 -0.29384547 -0.53337795 0.09842377 0.23210283 0.1929052 0.59454596 0.0053141895 0.69621927 0.7453665 0.5247724 0.28619662 -0.16380528 -0.41229677 0.34258968 0.816756 -0.64661 -0.10940454 0.19840434 0.30700493 -0.06440376 -0.43487462 0.034623045 -0.02705898 -0.72800493 -1.1739329 0.65621805 -0.22649407 0.37918368 1.0314096 -0.091368556 0.43177631 0.15037198 0.2109047 -0.3833806 0.005330113 -0.28382406 -0.048157062 -0.7597239 0.16830562 0.33780903 -0.5247011 -0.2001899 -0.45095837 0.8604877 -0.5873902 0.54197973 -1.6069815 0.32236877 -0.013137061 0.28105834 1.1336234 0.30505303 -2.1718934 -0.35884607 0.38262278 1.0146666 0.9809852 0.2746444 0.74681574 -0.7357905 -0.35866073 1.0425504 -0.08100797 0.4969745 0.29520202 -0.5210941 0.08922687 0.25034726 -0.5181142 0.114610724 -0.0050279074 -0.12310571 0.007987598 -0.2336127 -0.16450724 -0.95148486 0.41115695 0.39022696 -0.111594886 -0.6775073 0.14249407 -2.1572883 -0.5988372 -0.17771707 -0.5728434 -0.34207416 -0.063692965 -0.29846776 -0.69243526 0.17996234 0.11723532 -0.46081403 0.26150542 -0.34568715 0.17471033 -0.30958128 0.4178138 
seen -0.14968875 0.41708833 0.27475858 -0.10113382 0.09179495 -0.029069494 -0.14872606 -0.1177553 0.18397653 -0.36164665 -0.2075265 0.08548436 0.7049442 -0.033224534 0.39755604 -0.15219069 -0.20864013 0.09158404 0.25959438 0.3337073 0.54899675 0.20953755 -0.030782185 -0.08595201 0.21724908 -0.2044158 -0.21754444 -0.25563458 0.09091677 0.0678966 0.5413676 -0.22589202 -0.15985328 0.27666783 0.4227894 -0.0047892774 -0.069040224 -0.22490488 -0.11971098 -0.096968666 -0.6199649 0.10347821 0.24993768 0.32851332 0.10314598 0.18523557 0.5999359 -0.023564829 0.053073272 -1.2498322 0.20047908 -0.31160975 0.233458 1.5410907 -0.06732515 -2.378907 -0.42742386 0.06936905 1.1445816 0.22658037 -0.3907546 1.2183574 -0.46231627 0.059711605 0.6303179 0.5588854 0.6518182 -0.2216642 0.16592598 0.04369663 0.111491874 -0.54308426 -0.2754758 -0.09806375 -0.025425607 -0.4845871 0.23676145 0.34903675 -0.7297436 0.082329825 0.5394974 -0.17776796 -0.28419828 -0.39470434 -1.4084934 -0.88777065 -0.08075021 -0.3302088 7.846954e-05 -0.47818184 0.17837334 -0.427358 -0.10749229 -0.08613644 -0.50516057 -0.039708655 -0.32400352 -0.32169402 0.5052396 0.13466121 
any -0.23836252 0.04684788 0.32126865 -0.09341531 -0.31076413 0.23098926 -0.41379082 -0.036875293 0.5036138 0.37952632 0.09350776 0.39767674 0.018898478 0.014053474 0.30085537 0.102466784 -0.32837653 0.49582124 -0.095944576 0.5158824 -0.33161896 -0.38627842 -0.2853801 -0.64409417 -0.09513846 -0.053713083 -0.056733873 -0.74904996 0.0493078 -0.3468416 -0.068461545 0.5124946 -0.20267433 0.1650436 0.44806212 0.386113 -0.00913351 -0.05360547 -0.276273 0.023837892 -1.0258386 0.07600746 0.75887424 -0.50977015 0.012397523 -0.14800905 0.34572428 -0.52962613 -0.5393514 -1.2237289 0.7989894 0.31637707 0.25284946 0.8376154 -0.049776286 -2.4174948 0.41964576 -0.27340698 2.4200125 0.49707758 -0.44309673 0.5797369 -0.61112607 0.30563617 1.4133124 -0.34387866 0.88464266 0.585817 -0.0046172165 0.025384929 -0.48484755 -0.660123 -0.10977776 -0.5555968 0.82561547 0.1142286 -0.13665882 -0.75324166 -1.5165241 0.46665707 0.67702156 -0.39180556 -0.16194507 0.4851621 -1.5406365 0.046581734 0.35843322 0.40451697 0.44530103 -0.5734731 -0.5770607 0.039591648 -0.15864153 -0.19135903 -0.44265085 -0.19684292 -0.20580927 -0.25994095 0.79895264 0.32573268 
restaurant 0.244116 -0.35279235 -0.25901178 0.30976057 0.052750662 0.43827882 0.54834336 0.2131407 0.2702998 0.47037184 -0.32185644 -0.38372567 0.3421753 0.34963158 -0.5906103 0.28427106 0.33024874 -0.41088265 -1.1195234 0.6508967 0.2520496 0.5311205 -0.46189216 -1.2346572 0.42895812 0.0013286535 -0.3200301 -0.5324625 -0.8000442 -0.6579519 -0.21970384 1.0118257 0.7860239 0.30468255 0.6123255 1.0626732 0.2465973 0.12539114 0.55983233 -1.2744677 1.007175 -0.31718153 0.07620741 -0.27954897 1.1922439 0.624277 -1.2808022 0.0072264 0.57084566 0.055633347 -0.31007197 -0.7179677 -0.33814746 0.42287827 -1.0256573 -2.0103326 -0.6017732 0.37257496 1.2289186 0.07088547 -0.60535336 0.6931081 0.9051174 -0.18092091 0.2069015 -0.33051726 0.35741985 -0.34666747 -0.12731396 0.22992258 -0.78627974 0.62672323 0.15523976 -0.02537627 -0.35897994 0.06511381 0.46561775 -0.5801412 -0.18843633 0.18679538 -0.049872614 -0.0585982 -0.18219213 0.0060758376 0.077984475 -0.75457144 -0.4064227 -0.3332207 -0.2608653 -0.36355886 1.1454028 -0.01603423 0.6472812 -0.4059469 -0.8904238 0.480254 -0.06288608 -0.15373784 1.4404268 0.8171987 
that -0.09168533 0.19347058 0.70961773 -0.53976846 -0.32944542 -0.13713036 -0.15588555 0.19332509 0.16539156 -0.053872675 0.01228838 0.4113031 0.77948487 -0.044015817 0.3893584 -0.16755868 0.29243627 0.15441208 -0.51805365 0.22828205 0.14005418 -0.6189994 0.34445933 -0.1279757 0.24136026 -0.095290855 -0.13614891 -0.61036515 -0.32572576 -0.37094346 0.28195733 0.7459004 -0.1073943 0.32703382 -0.33204174 0.44201508 0.29375002 0.5379944 -0.3780918 -0.23903713 -0.7819584 -0.08095519 0.17179368 -0.24542865 -0.33788282 -0.13178664 0.64982355 -0.73558307 -0.30461583 -0.83441734 0.06438387 0.088818125 0.381116 1.3899416 -0.10323422 -2.8687372 0.051093124 -0.32025397 1.9586114 1.2438562 -0.16323005 0.67822754 0.27929503 0.35414279 0.9683854 0.2804466 0.693551 0.66862994 0.17735206 -0.6220948 0.4370944 -0.6443183 0.09373645 -0.49931884 0.31671917 -0.006280166 0.1548705 -0.031396568 -1.8277862 0.17847338 0.7591538 -0.2565555 -1.0803212 0.17414585 -1.8523498 -0.724644 0.11459981 -0.31397206 -0.4446935 -0.40320194 0.046930157 -0.49202794 -0.39824963 0.052756567 -0.20428155 -0.46096843 -0.28606445 -0.565665 0.30563483 0.54767156 
serves -0.3678585 -0.063332975 0.33255008 0.30649823 1.1490419 0.57166356 0.1531622 0.62338215 0.19147764 -0.1599356 -0.34337524 -1.0120132 0.37134266 0.7613756 0.22114502 -0.53923565 0.21175008 0.04419049 -0.7736675 0.29844964 0.19615088 0.25206214 0.3080371 -0.31888318 -0.33940634 -0.4210058 -0.2760746 -0.005363038 -0.36062002 -0.043685168 -0.5299101 1.4147575 0.49255982 -0.25420517 -0.3043911 0.36132157 -0.1726344 -0.039204665 0.45259044 -0.17237805 0.15828459 -0.66989696 0.20045345 -0.55588293 0.8474044 0.19310047 0.20419979 -0.43046847 -0.35628965 0.25178963 -0.65379447 -0.7958456 -0.040044323 0.26595584 -0.2748931 -1.9397068 0.32079875 -0.34743163 1.4311265 0.23117587 -0.08093916 -0.20580311 0.7339806 -0.21915646 0.29517865 -0.6776355 0.11419648 0.10482728 0.6232661 0.41680774 0.25463217 -0.021322502 0.75571096 0.1523971 0.46961498 -0.07850077 0.28880548 -0.035110738 0.18020436 -0.42658395 -0.01710438 0.21615012 -0.6627768 0.06237743 -0.55633646 -0.1580405 -0.06899702 0.02027575 0.84934664 -0.19237824 0.225319 -0.13130468 0.10094247 -0.03613171 -0.13465373 0.2973005 0.27617788 -0.7294951 0.68783534 1.2503635 
a -0.21933375 0.081807636 -0.010338556 -0.14288414 0.61298156 0.58650047 0.35750255 0.46068108 -0.21098724 0.64801496 -0.70955694 0.006417238 0.028230958 0.012842377 0.35824856 0.16502647 0.31225485 -0.55521816 0.039710134 -0.007264231 0.5997379 -0.08689259 0.1043561 0.0038998316 0.65657437 -0.28202376 -0.7485373 -0.409436 -0.24882214 0.14900278 -0.44096518 0.73940533 -0.09395528 -0.18274784 0.1945721 0.3469399 -0.20372461 0.2777485 0.67708504 0.28912866 -0.18049093 -0.010414076 0.9203064 -0.26906487 0.5664003 0.12904249 0.5741958 0.2742904 -0.57251877 -0.79018265 -0.15238672 -0.49423394 0.04023027 0.83486784 -0.51794994 -3.6256115 -0.10348926 -0.21649227 2.230335 0.31907806 -0.06023215 0.5841483 -0.5951769 -0.09818894 0.7850619 0.25066462 0.40471318 0.57691205 -0.0712988 0.15547198 -0.49992278 0.08561284 -0.18009618 0.124727085 0.086981386 0.1073689 -0.23747978 -0.4431538 -1.4462676 0.22347279 1.0703505 0.06127215 -0.30003682 -0.009692861 -1.0842129 -0.33027878 0.8657119 -0.2112849 0.039274875 -0.88290215 0.6897502 -0.04615848 -0.46991235 -0.044444863 -0.05951661 -0.1773617 0.04627112 -0.47336715 0.5662865 0.26916882 
egg -0.48897758 0.855495 -0.46611375 0.010422757 -0.582509 0.43446615 1.2548743 0.22319086 0.19659527 -0.45373237 -0.63632196 0.33235422 -0.042346895 1.26967 0.5181806 0.29836386 0.31358054 0.055498295 0.4877917 -0.5746623 -0.7213118 0.11813251 -0.19990674 -0.44899845 0.35930017 1.3978343 -0.43579638 0.43672878 -0.5547895 0.16213423 0.4471562 0.5408406 0.42014974 -0.28137302 0.03433512 -0.42005578 -0.30042547 0.3567646 -0.111162886 -1.0711255 0.073596574 -1.7192225 -1.2816187 -0.433229 0.56763613 -0.22522971 -0.48523703 -0.12420304 -0.59244823 -0.7221799 -0.51276207 -0.43583757 0.22926293 1.1175607 -0.8357766 -1.1870233 -0.62529415 -0.16666843 0.5479849 0.42498782 -0.07971287 0.099742584 0.58090293 0.4425337 1.3959622 -0.45535347 -0.25429684 0.318198 -0.15017335 -0.80979156 -0.04832486 0.16181602 0.027062677 0.36367136 0.5383321 0.29392248 -0.54745036 -1.511783 0.35798192 0.1646886 0.37182975 0.70419496 -0.23965341 1.1531045 -0.56058645 -0.5308146 0.25622094 0.045278415 0.32439747 0.38088796 0.27193794 0.41819856 -0.11403319 -0.37457436 -0.3748081 -1.5613818 -0.18855786 -0.21057184 0.8309208 -0.36753055 
breakfast -0.8956449 0.115182385 -0.081457675 0.1521255 -0.35283747 0.5218525 1.0797629 1.0207369 -0.5379395 -0.62489927 -0.09275164 -0.266586 -0.16577598 1.0646007 0.18667772 -0.31543607 -0.24540888 -0.47403067 -0.5929467 -0.13221407 -0.30578703 0.15143108 -0.4508406 -1.2682898 0.10888834 0.30641657 0.11593673 0.12100678 -0.7266002 -0.14163615 -0.31016436 1.0734476 0.5834609 -0.117043935 0.3927419 1.6235327 -0.23150404 0.260697 0.2626012 -0.46845284 0.22932121 -0.57515216 -0.0040755477 0.012430368 0.4891513 0.13858394 -1.2250708 -0.69991505 0.21958524 -0.71022296 -0.40351894 -0.27974355 0.41897526 -0.05384396 -0.48945796 -1.6847796 -0.2564508 0.48467225 0.54108083 0.05454796 -0.34319 0.36316478 0.28781384 -1.0687851 -0.034956004 -0.6252116 0.27013662 -0.21987092 0.71846503 -0.7138868 -0.515266 -0.23503785 0.3620812 -0.23603608 -0.4926369 0.93286264 0.12837103 -0.41601104 0.25579968 0.17251311 -0.7733126 -0.11865268 0.67986774 0.046680767 -0.43787125 -0.40725642 -0.0690238 0.25733033 -0.18031798 -0.25543714 0.69636023 0.18551484 0.50556904 0.08101252 -1.4866284 -0.5970425 0.6431719 0.08918604 1.7464446 0.671643 
especially -0.48363525 0.5019625 0.29744968 -0.08231688 -0.04573507 -0.26321405 -0.6746464 -0.3810235 -0.20634337 -0.22674087 -0.63732636 -0.7356918 0.021623546 0.22385523 -0.044924848 -0.30902493 -0.25331172 -0.37644494 -0.31509224 0.63688743 0.15339094 0.11485977 0.25410637 -0.029406978 0.14346883 -0.037925743 -0.17434089 -0.28212172 -0.19290075 0.24048404 -0.2376176 0.047775317 0.20473987 -0.38952056 0.41447908 0.16385464 0.17706774 0.3254982 -0.28700972 -0.24230386 -0.21170022 -0.17225842 0.07264621 -0.14543958 -0.10936657 -0.42748824 0.9911166 0.3460263 0.16278747 -0.8800279 0.25264916 0.18337955 -0.31339273 0.8561334 0.013439071 -1.955975 0.06730138 -0.18635997 1.4263482 0.0937061 -0.6323593 1.1849971 0.14403276 -0.39932364 0.8724349 0.06503113 0.5090672 -0.32248428 0.69090205 -0.39726236 0.14902744 -0.53594714 -0.09030694 -0.016912038 0.31811202 0.18431932 -0.11838103 0.27686593 -0.32719913 -0.0067572505 0.6816239 0.24214064 -0.6728706 0.15967783 -1.6898049 -0.0033829971 -0.4730588 -0.14465708 -0.62955743 -0.6913679 0.0598013 -0.31511033 -0.14127026 0.024109092 -0.83433473 0.4275822 -0.8760441 -0.31776652 0.45376644 0.21648937 
for -0.028670985 0.43823522 0.18560502 -0.032990642 0.59937084 0.2783043 -0.16806541 0.17784908 -0.7604448 0.20464708 0.13954094 -0.45798072 0.0375003 -0.10180397 0.32053536 -0.4624876 0.69017345 0.024925929 -0.17121322 0.6105273 -0.08873985 -0.38165113 0.307529 0.17385307 0.08229386 0.14824529 -0.1570062 -0.72105306 -0.099791 0.10182239 -0.35005704 0.29393223 -0.33986288 0.20707159 0.07195078 0.6348029 -0.053021073 0.75046974 -0.43021673 -0.20705733 -0.62454236 -0.26244286 0.0029332212 -0.3253677 -0.047517657 0.2472831 0.2835432 -1.3739151 -0.56030345 -0.74787444 0.18007763 -0.09115558 -0.04839637 1.7783483 -0.77087706 -2.5257843 0.12249581 -0.6320543 2.0010977 0.4657642 -0.52092624 0.17963937 -0.2490684 0.44731632 0.61975706 0.065846905 0.86361825 0.5937589 0.19447297 -0.33114582 -0.48311615 -0.5285564 -0.6697309 -0.17304192 0.022750933 0.08915931 -0.32473022 0.3703696 -1.5341254 -0.01009815 0.93720657 -0.20324345 -0.34887052 0.5230249 -1.5275732 0.053238064 0.32366285 0.17444782 -0.46833524 -0.5163027 -0.18908706 0.025866084 0.063393794 0.19722469 -0.6110509 -0.112594955 0.11580656 0.41731855 0.9559194 -0.23869614 
$400 -0.036480214 -0.042103365 0.051495068 0.045372568 0.0482862 -0.01594925 -0.056787778 -0.059575208 -0.045380317 0.008439172 -0.046130262 -0.050447147 0.04679664 -0.025921639 0.040859837 0.045903023 0.01538463 0.04931019 0.043558862 -0.030304793 0.04639821 -0.052395396 0.050984815 -0.041127678 -0.046383757 0.021874405 -0.04913811 0.01681886 -0.042841505 0.04558155 0.04626307 0.051667236 0.030499004 -0.04408417 0.05625276 -0.003131821 -0.031971533 0.056515668 -0.045698743 0.050275333 0.03950689 -0.055423252 -0.032087293 -0.03642663 0.04421535 0.052661926 -0.039558038 0.04231018 0.043431923 -0.053210754 0.056552257 0.055649966 0.037625898 0.02595318 -0.051513575 -0.04917972 -0.049014043 -0.04372351 0.054033436 -0.03183818 -0.055473734 0.051811315 -0.023788033 -0.00435266 0.010843316 -0.04835862 -0.037516147 -0.03364255 0.042767808 0.020716028 0.045651875 -0.045672897 -0.045392603 0.04515398 -0.033624712 -0.05215633 0.029459095 0.04321486 0.041269366 0.041308984 -0.039908 0.03934587 -0.04935869 -0.05520494 -0.041551795 0.05349619 0.04483436 0.061375592 0.04865936 -0.00024579733 -0.049175285 0.0066152965 0.030857757 -0.03592999 -0.048604533 0.024833241 -0.04753425 -0.04380809 0.053344447 0.030634874 
0 -0.61491 0.92734 0.55826 0.0057455 -0.67172 0.61189 0.99226 0.27641 -0.64889 -0.51675 1.1789 -1.1631 -0.90994 0.5714 1.0018 0.20675 0.36751 0.46931 0.096868 1.4351 1.3924 0.4589 0.65491 1.0463 0.11249 0.56988 0.76595 0.45246 0.48627 -0.74383 -0.21478 0.7041 0.068082 0.54945 -0.012204 -0.18558 0.4266 0.90742 -0.62418 0.56063 0.9091 -1.4814 0.39494 -1.2353 0.39864 -0.86375 0.51337 0.36805 0.2084 0.068722 -0.011695 -0.48135 -0.61458 1.2844 -1.2055 -1.929 -0.48368 -0.67811 0.15408 0.15402 -1.4051 -1.5294 -1.2464 -0.38637 0.89358 0.71173 -1.0529 0.64586 -0.16673 0.53946 -1.1164 0.19146 0.55717 0.031212 0.76968 -0.59599 0.05137 -0.61187 -0.56898 -0.34163 -0.1408 0.045282 -0.71647 -0.29842 0.16358 0.30357 -0.14735 0.052451 -0.15184 0.83193 -1.1335 0.61988 -0.14507 0.51219 -1.2197 -0.39897 -0.38261 -0.092153 -0.079833 -1.2843 
all -0.21020257 0.71992135 0.64937925 -0.5063825 -0.24470471 0.4960593 -0.2581002 0.5281216 -0.3101822 -0.23026904 0.75559384 0.03828491 0.41533267 0.054324467 0.20725657 -0.5333973 0.040419806 0.8199618 -0.5083412 0.59576803 0.29040372 0.033172835 0.39097676 -0.52086407 0.33217728 -0.39039716 0.21814172 -0.42365235 0.07063209 -0.366129 0.28315797 0.1827384 -0.16857016 -4.1746857e-06 -0.06304961 0.26366246 0.10508317 0.25692445 -0.66726 -0.03714162 -0.7843808 -0.26396048 0.18593632 -0.11235694 -0.030414807 0.29997206 0.02329244 -0.49415153 -0.054041717 -0.74360615 -0.0014673726 0.209721 -0.25844535 0.881337 -0.4268913 -2.147169 0.15944478 0.0910613 1.9996097 0.9660362 -0.21490422 1.0191351 -0.30720606 0.29118532 0.7044993 0.07551223 0.7854129 0.37865016 0.22773859 -0.16824897 -0.06539004 -0.6346046 0.035890285 -0.34739012 0.33188805 0.38347098 -0.44788396 -0.22535719 -1.1483521 -0.37185818 0.83071756 -0.08557227 -0.26423356 0.8977268 -1.9160143 0.21458386 -0.21657994 -0.25713882 -0.1811628 -0.17834245 -0.5653152 -0.08181706 -0.44300917 0.033559978 -1.2063003 -0.27823955 -0.7041805 -0.34802738 0.61908865 0.6022794 
in 0.01919807 -0.31164274 0.15653245 0.08861397 0.38796097 0.29402077 0.044475712 0.2217378 -0.4954021 0.5073106 -0.44168362 -0.40242878 0.03923479 0.7191464 -0.23555373 0.13397211 0.46420392 0.120328866 -0.23497206 -0.2734411 0.5075756 0.47221047 0.9261234 0.70699495 0.20795408 -0.37668198 0.19560684 -0.36972636 -0.17596169 0.19714779 -0.20050794 0.09990115 0.06001633 -0.24761684 -0.20704453 0.56270987 -0.26343808 1.0038571 -0.3915712 -0.33484823 -0.22634353 -0.31774378 -0.1293646 -0.4522086 -0.0036631576 -0.10571931 0.67873466 -0.76365185 -0.05006493 -0.98703015 -0.29691288 0.18933861 0.5015606 1.3475182 -0.6744799 -3.2325282 -0.2701652 -1.1697068 1.8717369 0.36443263 -0.8282499 1.2633545 -0.3080986 0.36997354 0.83490556 0.25725836 0.41396302 -0.07897044 0.38644007 -0.009682101 0.26192546 -0.48553565 -0.5745603 -0.40959588 0.20229854 0.2903029 -0.044043373 -0.21835236 -0.9372742 0.075834945 0.53090537 0.34137464 -0.63458854 0.807455 -0.8468344 0.020657014 -0.4117136 -0.59054965 -0.29665437 -0.2482 0.3322773 0.010046523 -0.16003671 0.895896 -0.53285265 0.7196812 -0.1779256 -0.08025659 0.78822434 -0.33617866 
an -0.41132805 -0.27685305 0.5488761 -0.16504206 0.3260939 0.41472703 0.23893295 0.22946022 -0.0389633 0.49927947 0.107461944 -0.31291404 0.012140253 -0.3551153 0.4928107 -0.037770476 0.72050005 -0.17649195 -0.37006065 0.06889384 0.5487399 -0.16524215 0.32852003 0.13100982 1.1117353 -0.22922781 -0.11025465 -0.49652484 -0.17151175 0.08276375 -0.7099626 0.8984185 0.09424566 0.300578 -0.33639276 0.0035809078 0.42279696 0.77011985 0.30078477 0.15855221 -0.5380953 0.46408254 0.042358927 -0.66058666 0.368806 0.052327268 0.57928646 -0.30393466 -0.34933993 -0.76364803 -0.03416894 -0.45054007 1.2980447 1.1742862 -0.98998857 -3.4606633 0.18454082 -0.99033606 1.965798 0.7987283 0.38477036 0.4151689 -0.011783144 0.28440052 0.5366284 -1.0567626 0.7449693 -0.16237508 0.067223854 0.1906892 -0.23163217 -0.60245115 -0.07642012 -0.8747234 0.5568088 -0.1112054 -0.5456667 -0.0857009 -1.7303698 -0.9503711 0.9897988 0.29601076 -0.34577385 0.033047616 -0.69096375 -0.22289649 0.8544649 0.46218556 -0.17948185 -0.994814 0.3283442 0.089789234 -0.1271885 -0.01733086 0.2637689 -0.48097163 -0.43452623 -0.5614496 0.7080476 -0.18634738 
excellent -0.3255901 0.12373558 -0.082250126 0.36153206 0.038636297 -0.5266889 0.4021636 -0.06818758 -0.980595 -0.24095166 -0.016843457 -0.7885409 0.15758362 -0.1829073 -0.3938851 0.004483767 0.29429615 -0.44708946 0.09835657 1.2279403 -0.59437937 0.45873544 -0.2916882 -0.61653423 0.2273903 0.07375206 -0.34610394 0.1642189 -0.381628 -0.4748243 -0.8499974 0.5538463 -0.20811951 -0.0087135285 0.86985993 0.38667107 -0.26094747 0.6005366 -0.12542689 -0.1635604 0.6661084 0.20758615 0.37332597 -0.12381497 0.56231886 0.1579415 0.2300003 -0.71210724 0.1685634 -0.8103621 0.011119397 -0.17092325 -0.11794017 0.65151554 0.11066106 -1.6886075 0.61380774 0.11711914 1.0413609 -0.56579065 -0.82747966 0.60665464 -0.6481177 0.38551933 0.21021509 -0.32960042 0.27732226 0.04130721 0.27821156 -0.07937719 0.3126597 0.48705226 1.0908077 -0.15924042 0.8897835 0.34251797 -0.19479771 0.072743274 0.5309139 -0.4361724 0.42192844 0.7245451 -0.251645 -0.41207612 -0.90579265 0.04728654 0.44417575 -0.04602809 -0.5005914 -0.24964723 0.11542834 -0.4221966 0.20760101 -0.04839063 -0.45125762 0.28034365 -0.76744115 -0.8605127 0.20763987 0.70385706 
highlighted -0.6529049 -0.1916736 0.27440706 0.1173367 0.7917088 -0.5245053 -0.40435195 -0.12444128 -0.037280627 0.059324067 -0.5847673 0.022103906 0.17113169 -0.2013851 -0.2865764 0.51572466 -0.44380432 -0.4477301 -0.5034932 -0.6245272 -0.018682318 -0.59348744 -0.13007973 0.39777467 -0.017802125 -0.5479365 0.17395246 0.7162808 -0.5280092 0.12638025 -0.10354493 -0.24573763 0.049873803 0.41533715 -0.22525676 -0.027480777 -0.29001844 0.33932787 -0.44320634 0.54013646 -0.31514367 -0.062203567 0.20892645 0.48730573 0.0606952 -0.09873103 0.5676568 0.043170303 -0.105481096 -0.5566967 0.24932942 0.03115328 -0.38340256 0.7429538 0.0051865187 -1.4135773 0.27439016 -0.10794541 0.10188582 0.30837342 -0.8732862 0.26711115 -0.05565835 -0.41121534 0.32000813 0.04162522 0.16259623 -0.1352072 0.2762928 0.124819316 0.20565924 0.5550802 -0.6398876 0.043095693 0.5310103 0.46541357 0.046058796 0.27286774 -0.63256407 0.261415 0.15338771 -0.049357485 0.26547578 -0.16724497 -1.1024473 -0.8518021 -0.4524353 -0.13209331 -0.61211437 -0.18232764 -0.3497826 0.04889255 -0.67006683 0.0022683842 0.09804049 0.50003904 -0.5302893 -0.60660404 0.2860514 0.43933108 
by -0.24751054 -0.13258933 0.15178065 -0.15701732 0.32464984 0.70568895 0.088783324 -0.013248685 -0.4704684 -0.18666674 0.17035198 -0.62875915 0.42117316 -0.6841185 0.16198756 -0.35293204 -0.14056307 -0.50631833 -0.61249405 0.05097838 0.17046629 -0.6791747 0.43267906 0.63719773 0.7434878 -0.4530398 -0.06616061 -0.4810123 -0.09336658 0.02272183 0.15612155 0.037440386 -0.25978738 -0.16045256 -0.3195925 0.20484726 0.3871651 0.21406873 -0.32535368 -0.24781422 -0.51700187 -0.100754276 -0.093543805 0.7803769 0.611397 -0.4321252 0.11299101 -0.4270257 -0.26465365 -0.2633496 -0.2898917 0.76638293 0.21739972 1.5525414 -0.4503147 -2.968162 -0.37684315 0.096023925 1.8712323 -0.11794981 -0.18460786 0.6755549 0.271474 0.7562603 0.6979443 -0.2819462 0.6812773 1.2018847 1.2659824 0.12326957 -0.70703113 0.12066383 -0.38126692 -0.47525036 -0.28586492 0.2289432 0.32054192 -0.10241275 -1.429107 0.15221632 1.1245707 0.17930977 -0.2583402 0.5504719 -1.0524349 -0.124703005 0.19500688 -0.015121456 -0.47256762 -0.87244695 -0.04124757 -0.67006177 -0.7162876 0.5631004 -0.3526838 -0.1913149 -0.34247127 -0.39447123 0.3232331 -0.8031769 
great -0.2714923 0.28316674 0.2765572 0.04426244 -0.013406382 -0.42547542 -0.21558344 -0.69629645 -1.0341096 -1.029025 -0.62056035 -0.43189555 -0.33987376 -0.03999514 -0.44014096 -0.21629035 0.6005292 0.25550246 -1.3147722 0.70094407 -0.2202249 0.52197814 -0.7051651 -0.9161699 0.9017637 0.11253163 -0.3164806 0.27708772 0.10028905 -0.60832465 -0.5968899 0.09269727 0.5382841 -0.34514803 0.11285777 -0.2079748 -0.3223934 0.8444332 -0.09670792 -0.45790333 0.0972694 -0.046647176 0.92155796 -0.6272473 0.7187686 0.35978708 0.7594546 -0.2858126 0.72101486 -0.18937857 -0.73449874 0.17780371 0.3903902 0.6237759 0.24624686 -2.8937078 0.03644141 0.24555786 1.2439657 -0.00024796822 -0.34755105 1.4993438 -0.77108073 0.31713408 1.033158 -0.19052115 0.056905624 -0.052216496 0.5110624 -0.3124025 0.6948885 0.13828455 0.45450684 -0.5310037 0.59444755 0.3494616 0.28788492 -0.5985255 -0.042057417 0.111729175 0.32509792 0.3927217 0.43200704 0.3521637 -1.1343912 0.24507205 -0.6603898 -0.7651099 0.025958728 -0.6006311 -0.17411187 -0.23768114 0.12634352 0.19256568 -1.18597 -0.5402627 -1.0070362 -1.3017691 0.5009933 0.9078701 
service -0.4466563 -0.12770158 -0.48546037 -0.21573853 0.0904866 -0.35354704 -0.16264725 0.5462062 -0.055372722 -0.004270422 0.33999586 -0.3099235 0.25100112 0.18226977 0.097687505 -1.0221393 1.3750157 -0.30011636 -0.6210753 0.16762756 -0.36695156 -0.093307704 0.109101824 0.09160681 0.4652767 -0.23972334 -0.23492238 0.40343645 0.04424697 0.0915409 0.16139987 0.98263985 -0.26163852 -0.5668941 0.18495631 0.46711773 -1.0345292 -0.090575546 0.11164019 0.06151897 0.40379053 -0.40313402 -0.2660304 0.12799153 0.6986766 -0.16432793 0.44333726 -0.6939008 0.40781948 -0.38237417 0.75227517 0.28615057 -0.20090683 0.91120464 -0.042927258 -1.9250643 0.31363216 -0.37409613 3.2187474 0.8873694 -0.062074978 -0.36313745 0.5168089 -0.1521249 -0.082774654 -0.21833631 -0.2893665 -0.11934664 1.3327783 0.5599659 -0.18531527 -0.55077064 0.29916415 -0.5330025 0.7838077 0.23993488 0.6353433 0.4779408 -0.96231925 -0.85917324 0.47309822 -0.2676766 0.48882878 0.63204205 -1.805919 -0.30200198 -0.16293056 -0.17303826 -0.11728063 0.05185609 0.28460526 -0.22911663 0.12341064 0.107823856 -0.6751536 0.0154061 0.47760728 -0.08483 0.050340045 0.41131285 
unique -0.27226064 0.58868635 0.28914502 0.54566246 0.61281383 0.0060460223 0.10229291 0.19809441 -0.11391403 0.20811775 -0.4398347 -0.5432582 0.41427657 -0.27481133 -0.3402609 0.103867546 0.51516694 0.23857489 -0.17407623 0.3439562 -0.07265727 -0.45788932 0.023000449 -0.620627 0.3999082 -0.40371615 0.45531693 0.060437884 -0.49480492 -0.4158957 -0.34190747 0.7374471 -0.3561939 -0.12219207 0.73408604 -0.49922365 -0.16047426 0.20486046 -0.14424868 -0.5617664 0.48215753 0.041659273 0.573402 0.029342966 -0.045804683 0.46034744 0.5258919 0.34755456 -0.2797128 -0.42006546 0.09222095 -0.18618743 0.4378381 0.3128221 0.24647948 -2.174465 0.58318913 -0.41591647 1.3898993 -0.26115212 -0.19424173 1.1935164 0.094346546 -0.095644094 1.0714475 -0.25094497 0.087463774 -0.32966086 0.50575083 -0.42766476 -0.11133543 0.31662282 0.21448392 0.01576674 0.85428756 0.11803069 -0.31856477 -0.5096259 -0.18067525 0.08243628 -0.017968424 -0.24065123 -0.026485162 -0.12201501 -0.7464503 0.558115 -0.006940983 -0.5638346 -0.2201546 -0.067405224 -0.13705483 0.018956814 0.2933546 -0.4869967 -0.1483141 -0.028453069 -1.3849902 -1.4182929 0.7558345 0.59319514 
menu -0.73683953 0.15345594 0.29042435 0.0677545 0.46799937 0.3345161 0.6170098 0.10492563 -0.056510955 -0.3041307 -0.30070868 0.084252 0.040359873 -0.4735012 0.3032052 0.7728811 -0.544941 -0.32318848 -0.35841063 -0.0056272154 -0.6832196 -0.2246042 -0.07626437 -0.9716932 0.39066315 -0.14397764 -0.2678228 -0.06322024 -1.0476701 -1.0106887 -0.2322461 0.82687795 -0.13514258 -0.29183814 0.8195592 1.4129987 -0.09836058 -0.28141603 -0.079803795 -1.5377325 1.026069 -0.67284584 0.29129282 -0.2946137 -0.0022423356 0.7785221 -1.3621235 -0.5777297 0.24118216 -0.19584228 0.29384708 0.16191015 -0.8163519 -0.072408445 -0.86692923 -1.089072 0.16025403 0.23499587 1.3433808 0.12298081 -0.4079232 0.66445917 0.7796427 -0.42022437 0.6106219 -0.82051605 -0.49121872 -0.4034268 0.2311899 -0.12082169 -0.06818235 0.38898775 0.25096098 0.02086972 -0.57883346 0.7300922 -0.9434402 0.29203585 0.42965418 -0.44692028 -0.35217145 -1.0085449 -0.22723058 -0.06733792 -0.50402373 -0.28300706 -0.11990165 -0.45724073 -0.33174288 -0.37517565 -0.05095582 0.84474754 0.48228905 -0.23845673 -0.7030652 -0.23213746 0.043670658 -0.8619987 1.3417295 1.091174 
beautiful -0.26421714 0.42069846 0.39118832 0.1836703 0.52803457 0.6250673 -0.6035367 0.84911263 -0.25267345 0.205125 0.14874016 0.022169763 -0.046983212 0.007996516 0.17817016 0.39912 0.27539024 0.18879867 -0.11265086 1.2371551 -0.15876117 0.29529986 0.040654667 -0.43877682 0.6591283 0.46650702 -0.65988255 -0.11590457 -0.43587545 -0.31542358 -0.4622485 -0.091753796 0.7661377 -0.32907388 0.6842694 -0.21209185 -0.17843048 -0.12474325 0.24004993 -0.8350726 0.36556426 -0.08829713 0.15005097 0.037741277 0.19879869 0.28093243 0.0057181492 0.5664896 0.41443008 -0.030381653 -0.27583146 -0.49308166 0.9352995 0.30753297 -0.1600943 -2.3635013 0.51662356 1.2057937 0.76541543 -0.82418716 -0.3860983 1.6166191 -0.6881105 -0.48257583 0.62526476 -0.3598232 0.84625614 -0.08599945 -0.04750491 -1.1371783 0.58791894 0.43395177 0.42414176 -0.1101774 0.91215134 0.30676353 0.1546775 -0.0092978515 0.5214959 -0.26162028 0.030894952 0.4512094 0.31668648 0.31453943 -0.7807926 -0.28776535 -0.089909695 -0.4554792 -0.1326561 -0.57464164 0.39443603 -0.15981296 0.61142945 0.03191288 -1.0448893 0.21373798 -1.9862157 -0.89591247 -0.37515888 0.58598655 
setting 0.1791872 -0.16250627 0.34013093 0.6459433 0.5250844 0.54245424 -0.39833233 0.2616399 -0.5715603 0.27947012 -0.050985318 -0.43619952 -0.20667809 -0.14307778 -0.021957858 0.22806852 -0.13199796 0.39661145 -0.08371539 -0.45027024 0.23934886 -0.26722154 0.567976 -0.26284298 0.11153173 -0.36155748 -0.78104025 -0.035674848 -1.0064168 0.19005246 -0.60469157 -0.41861764 0.00926923 -0.32352144 0.36818632 -0.50386184 -0.22607282 -0.38557273 -0.35022584 -0.15883864 -0.18638043 -0.060282562 0.45542297 0.23181514 0.0382431 -0.04914658 -0.41391882 -0.16376951 -0.2565851 -0.761322 0.32787788 -0.19541757 -0.047801014 1.2652721 -0.08800689 -2.5415113 0.48513427 0.16134192 1.4387839 0.7097502 -0.35881522 0.22281305 -0.050307143 0.04242968 0.6711604 -0.051083494 -0.0024343256 -0.09891501 0.15112966 -0.49130836 -0.3583384 -0.15751214 -0.15151814 -0.29235643 -0.28722528 0.11474434 0.2863002 -0.1345771 -0.37640685 -0.056851547 0.5047015 0.29659072 -0.43459883 -0.07501988 -0.7928939 0.4525978 0.06612635 -0.21280587 0.084918 0.06098856 0.2153042 0.1486844 0.063320376 -0.34279397 -0.37934378 -0.035994705 -0.10829212 -0.19896887 0.6647163 0.06961454 
not 0.04089914 0.10254144 0.6384731 -0.7011387 -0.74736637 0.19296518 -0.32584098 0.43706325 0.5213747 0.275801 0.3789444 0.5193481 0.9771629 -0.17169996 0.0379649 -0.7117879 0.19376938 0.5690866 -0.3480856 0.08467575 0.36664107 -0.0903756 0.59607047 -0.058223557 -0.35411778 -0.14526784 -0.5056022 -1.1269559 0.4416619 0.16577783 0.5390129 0.5482889 -0.61778194 0.23094386 0.034846764 0.6431811 -0.1549581 0.1070843 -0.48566267 0.030284526 -0.8983985 0.39412323 -0.047419485 -0.5765175 -0.3736197 -0.48659748 0.9949717 -0.6888079 -0.56880915 -1.5879357 0.4279449 0.020401673 0.07010073 1.3205854 -0.35441473 -2.4515233 -0.16984421 -0.22824568 1.9971284 0.9747737 -0.2135276 0.40702614 -0.6958452 0.009864188 1.2362393 0.18629697 0.7418234 0.78622764 -0.40693763 -0.44761762 -0.49941194 -1.215049 0.16122448 -0.50031775 0.013263725 -0.2544033 -0.49461678 0.32259342 -1.413904 -0.010367014 0.82296985 -0.67119884 -0.97725135 0.24041253 -2.2138975 -0.6532506 0.1498188 -0.26779523 -0.39936313 -0.460744 -0.21521375 -0.37101105 -0.28813252 -0.108792685 -0.3068813 0.16965477 0.05185404 -0.24102335 -0.12735245 0.022361936 
my 0.12764035 -0.09537921 0.7477109 -0.5059993 -0.7781081 0.70999795 -0.1915058 0.50400656 -0.00907527 0.31351078 0.4218961 0.5930347 0.5767149 0.26852176 -0.24137263 -0.58545923 -0.3761902 0.38540846 -0.27299318 0.30527025 -0.1313863 0.4099793 -0.21765587 0.22986929 0.44217578 0.85991424 -0.78097355 -1.2851937 0.95074445 -0.09509077 0.40154052 0.9128462 0.8392259 0.21100968 -0.67395693 0.65355295 -0.7257569 0.4540822 0.31720653 -0.546325 0.04159686 -0.056882158 0.91374385 -0.76450884 -0.57703966 0.16977662 -0.23096716 -0.5093926 0.06511318 -1.3645113 -0.09549166 0.1996384 0.08890417 1.273378 -0.27839732 -2.6318293 0.5796694 0.46077335 1.8670334 0.16388986 0.77114815 1.7673488 -0.58785766 0.10490768 0.8177973 0.37769607 0.7758128 0.12988076 -0.13753217 -0.25098655 0.15147227 0.8075141 0.857732 -1.0000554 0.28368405 0.8367476 -0.44557276 -0.3024834 -0.61528057 0.059890922 0.22076117 0.5522201 -0.20820862 -0.033395488 -1.8016924 -0.41465214 -0.34289494 -0.3364511 -0.69117785 0.025979767 -0.42559257 0.38310298 0.99545133 0.6181551 -0.49719322 -0.46581537 -0.23805806 -0.22991191 0.22687012 0.9267516 
thing 0.15175143 0.2487478 0.8777118 -0.7276596 -0.62612164 0.18459399 0.11550632 -0.073733136 0.5485827 -0.37946388 0.36661807 -0.11775674 0.018963706 -0.01990653 -0.16093022 0.2726615 -0.20829432 0.53244877 -0.19732985 0.84555095 0.2210818 0.36181098 -0.6034506 -0.9158123 0.42163393 0.6085317 -0.3173351 -0.40407488 0.05373754 -0.5361031 -0.2870076 0.55468273 0.70555604 -0.22986859 -0.1912159 0.07721118 -0.68905383 0.1912639 0.5557056 -0.9037286 -0.17820308 0.1038563 0.4121395 -0.67145705 -0.93457836 0.06246559 0.49157223 -0.2980943 -0.4725562 -1.0492806 0.18486947 -0.016514609 -0.073756784 0.7274013 0.17938234 -2.469712 0.09434213 0.84491056 1.4896259 0.3850129 -0.29094166 0.81553286 -0.58568966 -0.3964369 1.2875954 -0.07705279 0.6796227 0.2925952 -0.038711 -0.43268067 0.4075866 -0.34539166 0.096392564 0.058744404 0.40011892 0.21411337 -0.0057999743 -0.3737303 0.055707432 0.26490337 0.10754225 0.06031498 -0.2146073 -0.03101522 -1.5081295 0.08690073 -0.4091746 -0.23594601 -0.2448932 -0.65998733 -0.012359218 -0.1794809 0.26301053 0.04709891 -0.5410755 0.3120332 -0.09851524 -0.32476276 0.022844901 0.94133687 
have 0.10971738 0.5577305 0.069565594 -0.69632363 -0.18551368 -0.24066557 0.03182218 0.49089655 -0.11558234 -0.16909406 -0.21698856 0.2601068 1.0728676 0.4231451 -0.31940907 -0.5543196 0.30709636 0.47908968 -1.1356373 0.09862932 0.5656674 0.19923952 0.56213903 0.24043489 0.077282794 -0.57514226 0.21530603 -0.4622159 -0.29574776 -0.5908762 0.6409577 0.6716403 -0.22745146 0.59093356 0.72181416 0.21912402 0.15693797 0.9715308 -0.10882403 -0.09495381 -0.50973403 -0.30631995 0.4414304 -0.61869735 0.18694544 -0.05614844 0.47389334 -0.5210372 0.7926172 -0.868623 -0.06215672 -0.36316794 -0.036999308 1.3751868 0.16948879 -2.230561 0.20709224 -0.033663362 1.3360523 1.3252441 -0.4583683 1.338323 -0.49721518 -0.097020015 1.2604514 0.23076107 0.39856607 0.6238284 0.29434955 -0.56465405 0.23516245 -0.40856215 -0.068502955 -0.7265998 -0.32260993 -0.16136207 -0.05797897 0.15897956 -1.374604 0.14649868 0.82888645 -0.11084094 -0.56695545 -0.13229339 -2.205593 -0.39067617 0.5622227 -0.121541254 -0.6628762 -0.52867 -0.35585305 -0.15865028 -0.26805174 -0.29431581 -1.0247414 0.15762493 -0.6296312 -0.67341876 0.7649342 0.5126429 
watched 0.18209736 0.2896002 0.015621719 -0.3938123 -0.7924937 0.41353285 0.04856133 0.46378142 -0.39101568 -0.55879396 0.15210286 0.17728525 0.16857736 -1.0012395 -0.11414725 -0.1104104 0.11678901 0.69318444 -0.014596264 -0.46350873 0.14717673 0.1637946 0.3719165 -0.0006946873 0.6938998 -0.9938719 -0.021534843 0.540549 0.4964665 0.3627811 0.35479513 0.13474336 0.1591555 0.91096663 0.39471307 0.11660271 -0.12844498 0.124197245 0.3818145 0.16671579 -0.4414554 -0.46531337 -0.08653753 0.41913757 -0.030550646 -0.072660886 -0.0843035 -0.0362669 0.17860843 -1.3938043 0.0031569516 -0.52602154 0.43961897 0.81316745 0.1337155 -1.6091601 -0.546176 0.26767352 0.70829374 0.55652 0.12329833 1.0741898 0.11647294 -0.66464746 -0.17474571 0.44965357 0.24527666 0.43989626 0.13823368 1.0385674 0.26945812 -0.038157128 0.35223347 -0.12985009 -0.39187658 0.5921358 -0.011172185 0.09962111 0.24133337 -0.14310843 0.8250917 0.4548355 -0.36008286 0.035943747 -1.3402263 -1.485191 -0.5307549 0.0794873 -0.11430943 -0.2789518 0.5726136 -0.37685704 -0.1308613 -0.36011082 -0.8152715 -0.09046428 0.32709268 0.5954165 0.1271164 0.37585887 
their 0.1958835 -0.3730471 0.16093427 -0.4659381 -0.7731198 0.53811467 -0.70489776 0.24955872 -0.61622965 0.37329242 -0.30207166 0.119533345 0.5431964 0.3355876 -0.26727182 -0.6418952 0.46545568 0.35638914 -0.27368075 -0.0792401 0.28439152 -0.30384177 0.75558925 0.58088404 0.16101418 -0.30604216 -0.15603592 -0.6682877 0.3914422 -0.29536617 0.6449257 0.42782235 -0.41216674 0.08051626 -0.008816864 0.019338593 -0.009247128 0.5552007 -0.3788077 -0.21935004 0.026751151 -0.35365462 0.5925045 -0.008491596 0.1658831 -0.09042982 -0.13294265 -0.13357967 0.27532044 -1.03176 -0.14964736 0.21684752 -0.25152323 1.7088038 0.07091966 -2.5447881 0.7156496 -0.6822541 2.0029626 0.23722753 -0.19375665 1.2816817 -0.047223188 0.09441484 0.8618973 0.16258152 0.44424024 0.49325028 0.2905752 -0.56105995 -0.30082417 -0.1530409 0.061230052 -1.6554984 -0.07909827 0.31994158 -0.71254885 -0.47431135 -1.3563995 0.1640434 0.7051359 0.7771359 -0.21497531 0.4475407 -1.7982967 -0.42648605 0.008294558 -0.022658948 -0.7705903 0.18157828 -0.49720874 0.2918205 0.3410083 0.36329162 -1.1753614 -0.84622693 -1.0403283 -0.13665037 1.254886 0.56196666 
prices 0.25717276 0.5002959 0.43943924 0.29633024 0.23036988 -2.1340058 -0.9267658 0.28527197 -0.11277655 -0.23291676 -0.3222991 -0.41550255 0.09960843 -0.3705312 0.062949255 -0.066509716 -1.6403627 -0.09977621 -0.008199466 -0.52963454 0.99151295 -0.62604547 0.7169496 0.6223595 0.13686782 -0.10280244 -0.1606508 -0.8600252 -0.9219044 -0.097969316 0.1293324 0.037209827 -0.5613637 -0.06002423 -0.0055249673 0.9808286 0.83117443 -0.14992578 0.21206492 -1.2697004 0.21805017 -0.9828668 -0.61750674 -0.29870352 0.9105 0.1420192 -0.46119317 -0.5328084 0.38344 -2.1207316 -0.15059704 0.23773602 -0.039452966 1.0270435 -0.479628 -1.6291883 -0.5345722 0.2204346 2.132276 -0.008677937 -0.34217995 0.143435 -0.8616247 -0.080819495 -0.06397239 0.028111437 0.54174244 -0.6714659 1.0794836 -0.55457914 -0.26684695 0.19912557 0.06612467 0.3381384 -0.22352597 -0.089415446 0.35880885 0.08715502 -0.93954337 -0.1341886 0.7998387 0.26085916 -0.9855424 -0.9069803 -0.6837273 -1.3123541 -0.22693208 -0.1442877 -0.32841137 -0.52576125 -0.29109535 0.405823 -0.31457332 -0.75323814 -1.4712147 0.09608869 0.6944583 -0.27902597 0.80283564 0.022928761 
inflate -0.5857047 -0.37057146 -0.19588952 0.46062872 -0.29371467 0.113105066 -0.7289289 -0.27974835 0.5493372 0.35573995 0.39100394 0.72635615 0.4613015 0.09790326 -0.43370205 0.033759438 0.48045802 0.5961551 0.6901395 -0.63585037 0.054342303 -0.65422696 0.38565353 0.5548831 -0.447868 -0.055363104 -0.7404338 0.2534284 -0.36256078 -0.47757223 1.3122092 0.23031527 -0.8194751 -0.43886635 -1.1593918 0.25012752 0.51295435 0.34763134 0.1181217 -0.38404185 0.86583793 0.083086 -1.1469084 -0.41406304 -0.15972054 0.61244357 0.34277278 -0.71101004 -0.5780117 -0.84988564 -0.6618524 0.68336713 -0.099417776 0.8308944 0.24664131 -0.120706365 0.59466213 -0.045406416 0.39928168 -0.3903056 -0.48617274 0.059719145 0.10865001 1.04194 -0.9388618 -0.4150225 0.5884955 -0.23929866 0.31827062 -0.5619309 0.19674303 -0.7590655 0.10142555 -0.07173005 -0.43601084 -0.19701037 0.42721087 -0.5024209 -0.41453665 0.25180402 0.19172966 0.7361036 -0.2539751 -0.52059466 -0.40968394 -1.2932109 0.121223316 0.30033243 -0.2468532 0.7549246 -0.43366525 0.2066101 -0.45611984 -0.933656 0.32737684 -0.6996843 0.23211275 0.2102436 -0.5068348 -0.20881048 
portions -0.7118042 -0.03254559 0.29563242 0.39603806 0.22867517 0.21631688 -0.17698863 0.73529774 0.22830997 -0.16676295 -0.3925726 0.105143376 0.20339604 -0.108770795 0.42147154 0.006332257 0.46695325 -0.16046819 0.05310679 0.41547987 0.2845298 0.307481 0.30100676 -0.15984277 -0.42847323 -0.5541259 0.08655953 -0.030464794 -0.8016823 0.31406495 1.0831418 -0.12071896 0.37510893 -0.5255712 -0.6103861 0.13119356 0.4461537 -0.19293061 -0.19993433 0.35028505 -0.132809 -0.99754184 -0.27639693 0.35357788 0.3453516 0.35643458 0.30076936 -0.37029204 0.061714534 0.3692018 0.099186234 1.2071685 0.42645726 -0.38843048 -0.070130914 -1.1269752 0.46246284 -1.0843295 1.2427717 0.35267016 -0.21830186 1.2287377 0.7037289 0.080276065 0.7338426 -0.65386057 0.29249832 0.2549766 -0.21472923 -0.4074511 -0.045825556 0.28096035 1.1119152 0.4615077 -0.035296306 0.37541035 -0.16498406 0.31324443 0.4734273 0.046362158 -0.19855015 0.1374272 -0.6090324 0.071885645 -0.6874465 0.17003027 -0.08756965 -0.5354782 0.37262112 0.5829869 -0.17345308 -0.5905144 -0.83837837 -0.23055193 -0.9342059 -0.29780763 0.33105198 -0.14757669 0.64079195 0.10380537 
get 0.06690386 0.37203246 0.5169847 -0.6601766 -0.545879 0.16182703 -0.34810317 0.48654312 0.10332218 -0.38342994 0.3322954 0.47475594 0.30030793 0.14092606 0.21586646 -0.38134626 -0.021315308 0.2848501 -0.645182 0.771093 0.35277998 0.44786206 0.16211952 -0.5244258 0.13277392 0.04148596 -0.28466028 -0.75142866 0.54467124 -0.43471235 0.060184482 0.70781416 0.26185212 0.3389522 0.29901066 0.20100193 -0.5507805 0.020600233 0.16897373 0.28998345 -0.24309243 -0.3393152 -0.29798836 -1.0535195 -0.44439983 0.23776059 -0.55660665 -0.17970324 0.33410662 -1.0539194 -0.4221221 -0.083893664 -0.36461455 0.89282197 0.07259611 -2.4719129 0.34977874 0.085979156 1.8900522 0.24122341 0.07225168 1.1627353 -0.9539546 0.20336965 0.68517625 -0.060126394 0.7442822 0.30021152 -0.17637205 -0.59294087 -0.055250168 -0.55377847 0.11160216 -0.5746751 -0.0176742 0.44905782 -0.6073981 -0.3526935 -0.5061363 -0.30003795 0.66023016 -0.20776054 -0.94572836 -0.2856462 -1.8436854 -0.030889576 0.3500983 -0.024818541 -0.8492574 -0.609619 -0.124539964 -0.14542942 -0.110936746 -0.8177127 -0.5150064 -0.3442155 0.3726578 0.5505275 0.5567401 0.3629176 
smaller -0.48696148 1.0195434 -0.34145936 0.13052076 -0.08654517 -0.07957659 -0.27016228 0.030587623 0.41069987 0.12595063 0.05711431 -0.21682361 0.12859839 0.010178539 0.1243095 -0.47221673 -0.46056962 0.10530631 0.7452143 0.38603485 0.46816972 0.09835314 0.012790462 -0.037413288 0.1567461 -0.744881 -0.40567923 -0.408194 -0.25329137 0.5569191 0.7470038 -0.1848155 0.0581106 -0.8188932 1.1245389 0.4188716 1.0925808 -0.09985862 -0.33364773 -0.14993756 0.02041159 -0.69704396 -0.28315666 0.060045462 -0.08333401 0.096590444 0.37166554 0.51837 -0.04360875 0.22836941 -0.17586085 -0.068153195 0.12942967 0.43178874 0.11075477 -1.9289368 0.045303736 -0.16804509 1.9180669 0.55863637 -0.36966762 0.8232536 0.21280527 1.2712607 0.4885471 0.049178552 -0.24603519 0.14796306 0.97424763 0.11636203 0.15563023 -0.44230482 -0.02828318 -0.057873715 0.13121876 -0.34838548 -0.13982941 -0.34554768 -0.30322772 0.7040935 0.29657474 -0.1585215 -0.6160023 -0.07348864 -1.296528 -0.25448847 0.56396157 -0.43376622 0.14032017 0.12829538 -0.11568033 -0.16251323 -0.41171685 -0.6354213 -1.2228332 -0.15824388 -0.5405085 0.36091807 1.1709905 -0.12583663 
management 0.40346774 -0.67951435 0.3966107 -0.38918528 -0.36298624 -0.3901586 -0.27887803 0.1835254 -0.5455234 0.3627076 0.61737704 0.09412884 0.45341742 -0.22882217 -0.28013694 -0.5630458 0.3796514 0.04439753 0.011539255 0.09356145 -1.042085 0.03338456 -0.2738326 -0.3344366 -0.7969023 -0.26710597 -0.069403514 0.26817262 -0.7244669 0.3964633 -0.28447932 1.4024338 -0.8100747 -0.0968867 -0.65634656 0.16165091 -0.10986686 0.41160432 -0.07706733 -0.6206938 -0.092983335 -0.54662156 -0.41022566 -0.17730391 -0.1888703 0.4496506 -0.0801742 0.23303361 -0.42040625 -0.6017683 0.11772173 -0.61500555 -0.7731183 0.8925885 0.6180038 -1.9230697 0.559754 -0.4944953 1.86984 0.43917915 0.44397804 -0.4186851 -0.42776385 -0.02114058 0.42272592 -0.33607712 -0.07159044 0.29620016 1.4834517 0.48225245 -0.7086152 0.20448662 -0.8990983 -0.88978255 0.024352917 -1.1784567 -0.4009784 0.77016306 -1.1413572 0.27905577 0.9411737 0.16827402 -0.57015806 -0.05171847 -1.2944613 0.33625767 0.3001175 -0.7724754 -0.46801683 -0.19082068 0.4947872 -0.76825756 0.026590811 0.2807807 0.6956308 1.1568396 0.09929959 -0.20933832 0.83226657 0.33253077 
attitudes 0.57327306 0.37671682 0.22607754 0.16014063 -1.3077359 0.41589853 -0.6155394 -0.83851683 -0.34857908 0.79528636 -0.89281094 -0.41260794 0.4640162 -0.47208923 0.95396596 0.13097261 -0.29860115 -0.04985036 -0.6846504 -0.037123796 0.38967866 0.011006946 0.24625574 0.05511121 -0.9985759 -0.6202066 0.72544086 -0.5609795 -0.037452303 0.13955119 0.34733275 0.9604148 -0.18172267 -0.067681454 -0.32035866 -0.17706425 0.19438003 0.031654287 -0.5181041 -0.028131386 -1.093426 -0.72630847 -0.93650794 0.5713664 -1.2042643 -0.71713984 0.051064618 0.5417301 -0.24158409 -0.979109 0.6335345 -0.043955807 -0.45788154 1.0866 0.34645283 -0.6386869 1.0039117 -0.28289115 0.38305277 -0.19788931 0.06864407 0.730316 0.45804638 -0.4397909 0.4984783 0.8381877 -0.21586779 -0.5626699 0.27608 -0.5156972 0.18609734 0.1471948 0.14874272 -0.22205286 -0.20059267 -0.3994402 0.22695535 0.12960468 -0.46119934 -0.5117941 -0.13179299 0.47796443 0.41659456 0.28220513 -0.6952972 -1.0914052 -0.52350587 -0.4579147 -0.76520056 -0.7398894 -0.6375266 -0.15506475 0.08953251 0.1289944 0.39396986 0.08326514 -0.71819395 -0.77309614 0.20615241 0.73918796 
grow -0.09535481 0.9524195 0.12359952 -0.2508 -0.24539153 -0.5212189 -0.34231505 -0.06401058 0.5668035 -0.2606121 -0.4315978 0.16914539 0.44721398 0.13937193 0.2765228 -0.78266156 -0.07178155 0.9245882 -0.06497116 0.64881533 -0.29899284 0.005165429 0.21073459 0.84469527 -0.1778986 0.47356415 0.1760564 -1.1670215 0.46319544 0.33375418 -0.40504077 0.34413207 0.5999139 -1.1828982 0.40421304 1.0389186 0.2921405 -0.31666327 -6.3346495e-05 0.10591948 -0.022023708 -0.55294245 -0.8919957 -0.37591797 0.24774617 -0.5983243 0.75276816 0.386114 -0.1308622 -1.3119828 -0.18147959 -0.77360016 0.028535847 1.1161088 0.3784169 -1.5004066 -0.298347 -0.21196605 1.0762897 0.03392013 0.43131328 1.1350213 -0.60363865 -0.44842637 0.6234963 0.64567184 0.2667263 -0.058653425 1.569221 -0.59324944 0.9576692 0.027907586 -0.51469284 -0.5905718 0.005994005 -0.24318384 -0.7164412 0.096497506 0.1615394 0.26007828 0.57962376 0.34549993 -1.3118926 0.41554528 -0.38224968 -0.7225404 0.7209902 -0.19102134 -0.28376985 0.6174993 0.45340982 0.13551736 -0.054274727 -1.0634449 -0.3957791 -0.46483052 -0.15959634 -0.44179007 0.96592385 0.17110386 
rapidly -0.18817294 0.41239846 0.028721824 0.9815999 0.025647052 -0.3314334 -0.15665217 -0.5305797 1.193168 0.1716221 -0.2483418 -0.30226558 0.12602644 -0.8718203 0.22840926 -1.1144195 -0.33031934 0.12751007 0.026017625 -0.9174337 -0.0639461 0.22214448 0.61213666 0.37288514 -0.12651432 0.28654942 -0.116645284 -0.6625308 0.050552692 0.5572081 -0.10891936 0.38584515 -0.5109985 -0.4728295 -0.11438889 -0.21191715 0.13154246 -0.8077562 -0.53438216 -0.0554009 -0.634703 -0.46316692 -0.9172258 -0.063867114 0.803531 0.5472025 0.5870958 0.66978776 0.73549604 -1.1427032 0.117524795 -0.123414606 -0.037854053 1.4122678 0.19892862 -1.475194 -0.16483484 -0.03681952 1.0843816 0.267398 -0.14065892 0.83998495 0.03636209 0.033427685 0.47144416 0.5789322 -0.26576084 -0.2866592 1.4039227 0.19240382 0.70021373 -0.41546953 -0.32437804 -0.42679617 0.6715654 -0.38271692 -0.68915087 -0.26982877 0.07689817 0.12913734 0.4942426 0.20054483 -0.6256102 0.30988115 -0.56412476 -0.68828136 0.5795331 -0.9449402 -0.8615631 0.21573685 0.04817682 0.23906612 -0.47003156 0.08339551 -0.38336876 -0.19260606 0.12582105 -0.26081243 0.37347722 0.16829067 
overall 0.008033545 0.01611925 0.9249185 0.07233422 0.21670093 -1.2572123 0.15950109 -0.2054866 -0.8296133 0.2429398 0.06289719 -0.09222109 0.020975022 -0.9086245 -0.16097511 0.45560613 -0.26706022 -0.2660847 -0.14683595 -0.057226762 0.1435237 -0.15377524 -0.008423879 0.5255477 0.031148378 -0.55040085 0.619318 -0.32080668 -0.15619534 -0.54000485 -0.5118813 0.19422719 0.17993887 -0.15284401 0.00096241187 -0.104170494 0.18661468 1.2071306 -0.2763272 0.70288503 0.8862369 -0.8934426 0.6284715 0.47775054 0.11126149 -0.17006588 0.35738292 -0.5455953 -0.28515074 -1.4673835 0.20579202 -0.35213596 -0.69610035 0.8713453 -0.017113518 -2.5005956 0.80952746 0.029303785 1.2637751 0.06933004 -0.48274094 -0.09463457 -0.25703576 0.37049156 0.6309606 0.5350152 -0.52869654 0.0027774381 0.6342663 0.0733542 0.5917665 0.15827493 -0.33953843 0.4492538 0.7404217 0.6063031 -0.7624727 -0.62502474 -0.013240451 -0.7630293 -0.12460003 0.76452976 -0.71090436 0.45000705 -1.0608277 -0.80257064 -0.1606861 -0.5313526 0.038120512 0.24786805 -0.3578063 -0.23738804 -0.03895179 -0.145388 -0.5271375 -0.17945297 -0.030561676 -0.44443747 0.8462383 -0.06076084 
experience 0.11947412 0.4302308 0.6208897 0.14751078 -0.269282 -0.5235876 -0.046978746 0.3804898 -0.20750573 0.012445951 -0.20668134 -0.5772644 0.21279569 -0.26020566 0.010586958 -0.30523953 0.14008348 0.2915036 -0.5238384 0.55653477 -0.44144338 0.04602979 -0.44659394 -0.42504054 -0.5763928 -0.2548349 0.19668871 -0.35909808 0.35802582 -0.62250394 -0.5863639 0.6963251 -0.7964126 -0.347628 0.15931904 -0.13861078 -0.549031 0.68864024 -0.15964095 -0.45957145 -0.5215657 0.040042497 0.4218209 -0.4792123 -0.22313665 0.28497893 0.5780174 -0.6266945 0.55686796 -0.88633424 -0.105543576 -0.6032791 0.12893459 0.9932832 0.8841084 -2.2443657 0.3809667 -0.17553905 1.4351933 0.47485834 -0.13899553 1.1644839 -0.01870748 -0.8581853 0.33301184 0.00253819 0.42442265 -0.7774544 0.42033854 0.36485922 0.13666753 0.023729913 0.24656333 -0.112389274 -0.05336664 0.46737072 -0.12549639 -0.4389363 -0.43098906 -0.14667207 0.050721195 0.6014903 0.024890676 0.31346065 -1.6216079 -0.03123807 -0.31610683 -0.45631942 -0.6256088 -0.8181731 0.16702582 0.11711088 0.65569794 0.0049731256 0.3826301 0.4481964 -0.4522178 -0.57173747 0.3502879 0.70243895 
this -0.546435 0.427025 0.6218544 -0.2909917 -0.25745606 0.04303295 0.03278655 0.50710934 -0.015670782 0.19815762 -0.20056997 -0.026160643 0.20329046 -0.43656012 -0.04535876 0.0154210515 -0.10262212 -0.041705623 -0.33655617 0.29770485 0.34449118 -0.4223683 0.12379413 0.3183374 0.41894218 -0.3101378 0.2921218 -0.5781247 -0.008945685 -0.3791397 -0.520937 0.59376585 0.12915212 0.015463522 -0.12133924 0.47425777 0.02542829 0.37538117 0.1036674 -0.36771318 -0.26964316 0.18027757 0.32153523 -0.1344597 0.16153616 0.049886595 0.71536213 -0.6296717 -0.10023455 -0.9464356 0.23113807 -0.17530026 0.5451658 1.1709076 -0.5478814 -3.3520112 -0.14382415 -0.3636389 1.73464 0.44256553 -0.58182234 0.9846016 -0.37269363 -0.05937775 1.1631696 -0.13312225 0.39602903 0.20209816 0.32908738 -0.28268763 -0.15944332 -0.3784746 -0.15345722 -0.3923424 0.15577184 -0.0056618587 -0.29442596 -0.28291476 -1.304732 0.2363211 0.10581485 0.12129871 -0.71075875 0.18157224 -1.324727 -0.0139759155 0.16001606 -0.7854652 -0.017714981 -0.80596864 -0.029028507 -0.11097983 -0.5161831 0.17995429 -0.1405279 -0.10229866 -0.25835007 -0.69587994 0.46533224 0.40624043 
hole -0.6371241 0.17567225 0.88890904 0.08778308 -0.08811434 -0.2368887 0.77175057 0.35390863 -0.35850295 -0.14309324 0.7182705 0.9512769 -0.48751107 0.015471604 0.643169 0.5029118 -0.30077362 0.14907843 -0.48211834 -0.3963487 0.0913433 0.9889565 -0.55590993 -0.19210394 0.799876 0.084155224 -0.5750242 -0.62140244 0.37166613 -0.55093515 -0.4595652 0.24762991 0.7102321 -0.099450916 0.3390171 -0.34161848 -1.20495 0.4296651 0.9761864 0.5894588 -0.39338437 -0.33871055 -0.12802847 1.061098 -0.18368271 0.1297052 -0.03346497 0.9759468 -0.69522643 -0.37265337 -0.82837015 -0.23656112 -0.013000552 0.79981744 -0.31495962 -2.7316806 0.023828778 -0.17516786 0.9256187 1.1959211 -0.039818697 0.8007471 0.16010633 1.6113546 0.37107298 -0.33603275 0.12129128 -0.41973868 -0.3661685 -1.1485406 0.06384681 0.8881732 0.39802507 -0.09154398 -0.46766853 -0.09032696 0.4550749 -0.51409876 0.26507968 1.4314799 0.16141681 0.099117845 -0.47889975 -0.2534819 -0.7317045 -0.038854986 0.32910544 -0.11945468 -0.036636267 1.1001414 -0.1715831 -0.058974262 0.0048869634 -0.014101855 0.011768025 -0.053417504 0.775126 -0.38573688 -0.046328694 -0.14194453 
the -0.02420847 -0.06019243 -0.04922631 -0.08962139 0.034074925 0.10325562 0.00014311816 0.08706396 -0.02129854 -0.10807273 -0.009237841 -0.011113296 -0.016174847 0.021006813 -0.0058070454 0.055800192 0.05626881 -0.034030758 0.039660905 -0.02586555 0.0116677685 -0.078472875 0.0013808216 0.094648965 -0.018443296 0.016452853 0.021688653 0.041985884 -0.0020841889 -0.0062587652 0.005756577 0.034235038 0.07215163 0.046696894 0.04407573 0.0643947 0.055901144 0.0034498041 0.052171532 0.026445998 0.0017082384 -0.0839821 0.0022889115 -0.068788916 -0.004286046 0.07829686 -0.030331794 -0.07497248 0.014266159 0.018658422 -0.0042393603 -0.0264628 0.051421896 0.015333619 0.013610752 -0.005112868 0.118760474 -0.044238538 -0.0655185 -0.07026888 0.022358047 0.0009080057 -0.07421937 -0.078248076 0.019358028 -0.04418414 0.04476078 0.026786555 -0.053805765 0.012080742 -0.017945338 0.100891665 -0.041289985 -0.075840205 0.1328777 -0.06408592 -0.08773278 0.0060299197 0.05864049 0.013486927 -0.050640836 0.031403724 0.0448963 -0.07918072 0.114058875 0.014630002 0.1211994 0.08954032 0.06457932 -0.013828447 -0.032167003 0.18567632 -0.042281415 0.04226386 0.0028736056 -0.015689662 -0.0065357415 -0.00058313453 -0.025099926 -0.017291596 
wall 0.14243177 0.16641489 -0.001633814 -0.24684878 0.019477213 -0.12931131 -1.0586195 -0.84117764 -0.13747141 -0.5787895 0.7603199 0.11899158 0.29933307 -0.13544671 0.0032492203 0.7542118 -0.7660107 -0.20327936 0.07854768 -0.8542758 0.3555546 -0.14031875 -0.78550977 0.2894488 0.8843441 -0.80679715 -0.35673034 -0.3687679 -0.20790823 -0.18928677 0.77270865 -0.12098628 -0.099009566 0.7527172 0.067246936 0.17484751 -0.21341039 -0.14175539 0.6725273 0.033466496 0.040242195 -1.1360857 -0.23232074 0.37460688 -0.10347031 -0.21224149 -0.01982917 0.46373564 0.2729513 -0.98601854 0.043288756 0.027594704 0.21709651 0.7171638 -0.6589545 -3.0498385 -0.5575592 -0.4287366 1.6374419 0.52067304 -0.25281468 0.8029313 0.19850416 0.6642374 0.045987397 -0.13627759 0.73147863 0.14250155 0.07589291 -0.7488524 -0.20418951 0.95219505 -0.37841606 -0.25890663 -0.33495316 -0.41211656 0.72574496 0.57228833 0.027547842 -0.04660248 0.8050894 0.68340325 -0.69605494 0.15012482 -0.42455146 -0.6064639 -0.5682079 -0.53845114 0.658238 -0.19826901 0.82009226 -0.5703408 -0.012606392 0.09792934 -0.13568449 0.11360833 0.41834223 -0.4551282 0.32592118 0.70369023 
has 0.112321086 0.5496369 0.48176652 -0.46594328 0.6326676 -0.2579359 0.01456611 0.43607742 0.07446259 0.2297416 -0.07748033 0.08171208 0.7040389 0.075275354 -0.17879406 -0.03174899 0.24039999 0.054473855 -0.17396283 0.31023532 0.31320128 0.16639121 0.1341871 0.1296001 0.29413974 -0.29707184 -0.12916806 -0.3972081 -0.73800755 -0.43111748 0.20484442 1.2980314 -0.26420596 1.0028243 0.39544037 0.43782035 0.13855673 0.5238372 -0.5570985 -0.045295935 -0.92511517 -0.27630204 0.69370216 -0.4989931 0.33380926 0.015679706 0.52584326 -0.5873546 0.89666414 -0.41159806 -0.11512052 -0.6830816 0.023428114 1.4495816 -0.14626206 -2.8850033 -0.30942762 -0.04893173 1.0756475 1.3821592 0.44469696 0.19760042 0.10057404 -0.17180595 0.8427205 -0.26434273 0.48129606 0.37398645 0.5092796 0.11301326 0.5827276 -0.27743393 -0.3415816 -0.022741057 0.24640678 -0.55691814 0.04258821 0.27025446 -1.621153 0.46405503 0.86576945 -0.07193817 -0.30628547 -0.04223807 -1.4729611 -0.47034106 0.33545956 -0.3598123 -0.1487567 -0.45842242 0.018339403 -0.1990041 -0.6698538 0.13677748 -0.43373984 0.73492 -0.4875312 -0.811729 0.6003069 0.8024835 
mexican 0.76606995 -0.43662378 0.25361314 0.33034086 0.26761726 0.48742908 -0.4399769 -0.30273718 -0.17469613 0.13185313 -0.2761337 -0.4475662 0.10660923 -0.034066077 -0.24079636 0.54349715 1.010133 -0.30067208 0.3685765 0.19975394 0.52220553 0.2813887 0.21758237 0.20006922 -0.8979889 0.25201696 -0.010501224 -1.6295788 0.281499 -0.35199696 -0.1233101 0.30922785 0.16035682 0.2750734 0.15681288 0.031764224 -0.0242172 -0.18138543 0.93097097 0.032956935 0.19279283 -1.0667119 0.17249545 0.24145828 0.96256596 -0.347166 -0.38921914 -0.21496488 -0.7326371 -0.011725957 -1.0329738 0.30138487 -0.04782454 0.5706247 -0.24600244 -0.9099541 -0.90425396 0.043832134 1.6729544 0.9809513 -0.50765693 0.81670064 0.5456117 -1.4004074 0.49073076 -0.37570906 -0.50186795 -0.19110855 0.5454423 -0.00574975 0.4164472 0.20813636 0.16140653 0.334999 0.25320864 0.6950487 -0.2653053 0.20527807 -0.878249 -0.09675209 0.57465315 -0.61683327 -0.4221855 0.1373861 -0.5009324 -0.66822 -0.691081 0.463366 -0.17920975 -1.6614531 0.25454134 -0.34127823 -1.0030191 -0.2318793 -1.0044905 -0.29348117 -0.89637464 -0.03385776 0.10055754 0.03475147 
street 0.50725377 -0.22553216 -0.30796236 -0.2864167 0.31357136 0.43077672 -0.61833125 0.019525098 -0.07736418 -0.37357122 0.10456255 0.151056 0.08921377 -0.63348633 0.05318953 0.87540185 -0.062189862 -0.2952994 -0.08342556 -0.2867122 1.1400684 -0.20352523 0.48791608 -0.49031365 0.2000542 -0.2931708 -0.22292627 -0.34707063 -0.08429568 0.4806443 0.1817958 0.52483076 0.1983824 0.55562764 -0.073079325 0.35732645 -0.1469069 -0.5395093 1.180833 0.32389402 0.041379362 -0.8273157 -0.35380918 -0.40292746 0.5426657 0.09850972 -0.0714806 -0.021836521 0.84346133 -0.2905797 -0.25312522 -0.6288595 -0.14064077 0.43574944 -1.0367044 -3.2286136 -0.44069785 -0.18337753 1.1095204 -0.18464114 -0.8127904 0.4792329 -0.05473136 0.55243874 -0.119088836 -0.2602928 0.7774327 -0.6291722 0.62837905 -0.1561964 -0.6933581 0.030613353 -0.54557323 -1.0179427 0.33490652 -0.74574673 1.0261183 0.72786975 -0.4846265 -0.73648083 0.7092905 0.5001668 -0.22492975 0.2843505 -0.90604305 -0.7779249 -1.2894857 -1.0846603 0.69962317 -0.30135322 0.019246293 -0.47733602 -0.38832283 0.17090678 -1.2396284 0.09574305 0.88202804 0.0055933814 0.62180567 0.78667617 
tacos 0.12928846 0.2404518 0.06612355 -0.09417286 -0.056273364 -0.07578368 0.6287323 0.18472818 0.05260068 -0.4385945 0.31318375 0.31441697 0.26398668 1.3171884 0.9057649 -0.13249598 0.13187724 0.2340008 -0.042178012 -0.03158922 0.77974564 0.29072115 -0.02246782 -0.65928555 -0.07950743 1.2138543 -0.029451903 -0.33896092 0.0375352 -0.21092457 -0.09167338 0.11082769 0.17140263 0.05167104 0.38937607 1.2115395 -0.28044534 -0.22282788 0.28636467 -0.82727253 1.1653762 -0.2719534 -0.44131908 -0.8587924 0.49208635 -0.47619966 -0.35575485 -0.20912793 -0.4750518 -0.4237059 -0.8837982 0.27462888 -0.08976487 -0.29571193 -0.78981274 0.6693271 0.40675184 0.38296255 0.076105386 0.24015206 -0.61897284 -0.18436497 1.2891613 -0.9448651 -0.4026105 -0.69440734 0.35105777 -0.30579394 -0.0074343467 -0.29008496 0.70186436 0.5979141 0.43389666 0.2597267 -0.22450623 0.2512446 -0.49963477 0.579613 0.9893415 0.83265406 0.011263956 -0.23160493 -0.09535467 0.021457847 0.119993955 -0.3450991 0.058783278 0.75434864 -0.3930627 -0.43766 0.3059933 0.2879802 0.13607241 -0.47648263 -0.8389408 -1.0376736 -0.58033484 -0.28881237 0.6645266 0.31056032 
friendly -0.86892873 0.35883182 0.07282014 0.31529397 -0.21134572 0.011140559 0.63592714 0.02186275 -0.44578886 0.15966636 -0.825304 -1.2755814 0.20260572 -0.2186521 0.37619138 0.7044338 0.6168769 -0.52600336 -0.19742242 0.6798959 0.40940917 0.22205676 0.22506848 0.2105882 0.1873488 -0.07770248 0.021488016 0.50113505 -0.28227812 0.049412455 -0.8213169 1.2329626 0.44193786 -0.24772528 1.5799152 0.23055835 0.020077858 -0.36554658 -0.6387577 -0.5862997 0.38701665 -1.1217595 0.7197048 -0.534672 0.008534161 0.007784414 -0.38728175 0.41538674 0.5542064 -1.0885423 -0.34137198 -0.013634853 -0.1223201 0.485602 -0.03895225 -2.166932 0.5515819 0.043169145 1.0300008 0.0062448652 -0.7684368 0.022027897 -0.5820633 -0.22126552 0.25290725 0.22014587 -0.44055924 0.36398193 0.25426254 -0.90729785 0.5211852 -0.40867797 0.8101785 -1.085937 0.0047609187 0.82443184 0.69643885 -0.84950525 -0.34050885 0.1845037 0.62833756 0.7750524 0.7569368 0.53754526 -0.77901274 0.47641873 -0.95879996 0.91407186 -0.6205375 -0.92703074 0.16232018 0.014948925 0.2924899 -0.104725055 -0.5002035 0.5025704 -1.0393718 -0.15660536 0.17228553 -0.10479268 
staff -0.69604504 -0.3642859 -0.31010684 -0.44313446 -0.36066413 0.259107 -0.048110135 0.49204716 -0.5880093 0.25466448 0.38670355 -0.7057065 0.6015881 0.5910731 -1.0614039 -0.83361965 0.1540913 -0.30562508 -0.7274279 -0.35024813 -0.42163008 -0.23158608 -0.47438765 -0.1980532 -0.21667238 -0.7838798 0.15362684 -0.041012418 0.49409196 -0.3528212 -0.0341964 0.6243675 -0.33640873 -0.15613525 -0.7053695 0.6052407 -0.6557876 0.52431834 0.21415296 0.1414162 -0.16587749 -0.2593425 0.33227745 0.011882441 0.74866706 0.21903734 -1.0039362 -0.6447093 0.12155599 -0.2856804 0.64530784 -0.661385 -0.6489563 1.136502 0.11670031 -1.5759064 0.34569827 -0.73776734 1.4963721 0.5642683 -0.10428701 0.4716845 0.11497773 -0.017997056 0.614561 -0.8823714 0.56745017 0.85936385 1.0099534 1.2483548 0.2570446 -0.048869044 -0.82692474 -0.8418206 0.6214549 0.30877355 0.119270965 0.71006155 -0.23473965 0.122809425 0.220782 -0.4670115 0.05735228 -0.48317942 -1.5314041 -0.27403578 0.53893834 0.013322454 -0.2804668 -0.19600146 0.6514419 0.06838364 0.6135104 0.22964074 -0.60501033 0.2395844 0.08528108 -0.109924175 0.19848657 0.3287475 
are -0.56138337 0.78301716 0.21650204 -0.7547556 0.21683854 0.40954226 -0.5171393 0.6079794 -0.35755926 -0.7268179 0.06763087 -0.28685555 1.0528637 0.7194261 -0.07897766 -0.8666658 0.17660843 0.42186496 -0.43203092 0.43789452 0.35452867 0.3156185 0.89108515 0.4028891 -0.13017714 -0.29972407 0.58751166 -0.29914445 -0.47538263 -0.19374515 0.36931294 -0.16827346 -0.31041047 0.02050745 1.1553522 0.33513656 0.41598374 0.42062452 0.14945361 -0.11889559 -0.11076204 -0.45180014 -0.29329154 -0.5067183 0.08369629 -0.085159026 0.561161 -0.004862954 -0.2672387 -0.5922269 0.22838847 -0.5326534 -0.09306843 1.483708 -0.08580053 -1.8995503 0.6062615 -0.2546737 1.4456676 0.7145444 -0.62684923 1.2225629 -0.32423517 0.17620753 1.2701818 0.23937382 0.7287732 0.72430426 0.36625907 -0.9107419 -0.3207867 -0.58906215 -0.33302155 -0.47198102 -0.043240696 -0.32384995 -0.06398566 0.5425081 -1.0616225 -0.37197065 0.5855097 -0.22164215 -1.0037317 0.0307398 -1.9800789 -0.12726036 0.14447539 0.044228546 -0.23324516 -0.3727634 -0.90319365 0.1728693 -0.32503983 -0.19876368 -1.1828985 -0.15380792 -0.7366428 -1.2120149 1.2152119 0.28809062 
also -0.377792 0.13246447 -0.108356304 -0.2726467 0.87600935 -0.38357553 -0.24280053 0.2789109 -0.052486304 -0.11707725 -0.18959542 -0.45379412 0.5558472 0.46376488 0.069760956 0.006862899 0.6548793 -0.1651113 -0.45140347 0.35051638 0.39622676 -0.18911888 0.24500549 0.5427254 0.17256902 -0.18432704 -0.12786734 -0.18313915 -0.34099916 -0.06922713 -0.21020009 1.1288265 -0.47611758 0.63058436 0.53358436 0.38992167 0.25276604 0.78593385 -0.20908323 -0.065464795 -0.60372186 -0.30028263 0.36359692 -0.41913202 0.32712469 0.03969813 0.035016872 -0.54585576 0.71821773 -0.69443625 -0.21160512 -0.37522358 0.3277477 1.0647471 -0.34086257 -2.4402254 -0.5296387 -0.2773906 0.7606046 1.3312782 -0.101078354 0.4191127 0.14908122 0.27272344 1.1147153 -0.33281332 0.3152002 0.17964122 0.4622401 -0.35019228 0.2497993 -0.44169548 0.07747917 -0.12798776 0.18033046 -0.027245723 0.053060062 0.4896122 -1.1539572 -0.09418523 0.49345502 -0.24624203 -0.5894233 -0.27855727 -1.9327708 -0.5023787 0.044564474 -0.35068905 0.35165757 -0.14618437 -0.23010421 -0.5760482 -0.20427503 0.1166208 -0.55649424 0.46623528 -0.4983207 -0.9249919 0.78452325 0.41742247 
very -0.7732155 0.34966516 -0.059547495 0.060142934 -0.5690374 -0.091031514 0.013897863 0.27330485 -0.05999618 -0.2921728 -0.1786258 -0.16916548 0.37580585 -0.46464458 -0.26911348 -0.36092752 -0.67114586 -0.31097728 0.12472394 0.6765013 0.484147 0.1921779 0.33706367 -0.31353968 -0.033234987 0.19831762 -0.18495539 -0.59164816 -0.16932532 0.36630565 -0.50885844 0.470733 -0.019990457 -0.33557814 0.7959858 0.51346207 -0.06827665 0.14367503 -0.16624099 -0.30691752 -0.09450795 -0.06429532 0.31086847 -0.18515202 -0.10151692 -0.3350894 1.0301152 0.49535742 -0.23801817 -0.87339634 0.33370823 -0.25244683 0.1817722 0.9572209 -0.5135432 -2.8104389 0.27639797 0.049236834 1.3753312 0.13501164 -0.016509954 1.3429185 -0.6045084 -0.031172384 1.0320114 -0.35137284 0.76547045 0.28720322 0.40692285 -0.36474568 0.1056063 -0.4875199 0.46109894 -0.23469533 0.93643445 -0.044213817 -0.50941193 -0.24853021 -0.50584334 -0.15054224 0.6520829 0.17207335 -0.63904405 0.26003957 -1.6407365 -0.28880286 -0.009421156 -0.28667647 -0.5799047 -0.74895287 0.13950579 -0.049923416 -0.3514058 0.37558308 -0.21556902 0.24212708 -0.9317183 -0.69698495 -0.20604087 0.4366956 
efficient -0.7152017 0.18559983 -0.14397506 0.11707045 0.122794345 -0.53991926 0.11854473 -0.18484594 -0.10215666 0.6835158 0.08007886 -0.7807615 -0.13822891 -0.38374037 0.09585706 -0.72247076 -0.052058414 0.51178485 0.6278784 0.2011272 0.09271173 -0.09485228 0.0914572 -0.46756655 0.16309518 0.10108121 -0.41341674 0.106659375 -0.77016276 0.59551084 -0.43772635 0.56638384 -0.29994962 -0.8530132 1.2566768 0.22546308 -0.18279712 -0.46900243 0.16912262 -0.20650123 0.4785784 -0.79881847 -0.27206787 0.28210577 -0.12167481 0.15494241 0.64293236 -0.19107364 -0.069810145 -0.73443145 -0.32860592 -0.1542899 -0.72762257 0.93685585 0.013566632 -0.7697035 0.49009803 0.69267714 1.723232 -0.742599 -0.39593235 -0.7787821 -0.22434716 0.7884216 1.1903753 -0.34479725 -0.3145923 -0.37074384 0.57913154 -0.93893564 0.5447396 -0.74143577 0.38905284 -0.36104965 1.1410694 -0.33798006 -0.11385202 -0.45746747 -0.45588827 -0.45617658 0.97549516 0.75131977 -0.75986916 0.45421952 -1.3359698 0.9287094 0.6849738 -0.00029784508 -1.1816072 -0.75577396 0.79229325 -0.19420733 0.1861911 -0.1991352 -0.4306824 -0.26770723 -0.17075671 -0.5988209 0.52879083 0.12143132 
bad 0.63164675 -0.30275437 1.2461696 -0.76462686 -1.4446285 0.06892882 -0.7815268 -0.20183235 0.14223555 -0.19881038 0.45770305 0.5332259 0.64802694 0.2593103 0.48846552 -0.0020532138 -0.32813916 -0.06577539 0.6963962 0.961093 0.3759723 0.5815179 -0.12970126 0.065844156 -0.5435135 0.102638945 -0.8774977 -0.31350654 0.15967746 0.28487298 0.37591952 0.40786642 -0.1313038 -0.3757701 -0.8806726 0.00023238787 -0.70543647 -0.2641745 -0.104460664 -0.018874694 -0.27799422 0.117618725 -0.5082988 -0.4400286 -0.4951796 -0.22879957 0.28872633 -0.083831735 -0.28099918 -1.367544 0.07895342 -0.0117615275 -0.06690385 0.6876365 0.15992989 -2.4383237 0.44556606 0.6819564 1.3857918 0.25280806 0.11191078 0.8677754 -1.1619798 0.074962854 0.39563927 0.0675536 0.7831091 -0.22186223 -0.018010836 -0.62077296 -0.5828097 -0.28941426 -0.06441937 0.560622 0.44963872 0.042075243 -0.4036231 0.670356 -0.649289 0.46528223 0.92086303 0.10283197 -0.9534399 0.036542255 -1.9519649 -0.4948973 -0.921539 -0.61471564 -0.7763975 -0.23567724 -0.2787932 0.025712809 -0.2659315 0.13842067 -0.10038792 0.5126349 0.06712948 0.22219582 -0.039902415 -0.2807309 
day -0.45362854 0.49516863 0.020573989 -0.22301956 -0.2848271 0.13227949 0.44451696 1.0798867 -0.9207441 -0.59378916 -0.113927566 -0.27724123 0.15955523 0.03925448 0.42602342 -0.3234891 0.24102327 -0.25478938 -0.5519676 0.043824982 0.8030311 -0.328277 0.2632149 0.40846628 0.6191701 0.117855266 -0.2605619 0.11654634 0.26099494 -0.07979034 -0.6124659 -0.27857584 0.12583153 -0.008781456 -0.10171426 0.4434159 -0.3543084 0.37261125 0.2146341 -0.092652746 -0.6013761 -0.418928 0.71362305 0.10529999 0.09267969 0.13132222 -0.2717269 -0.84093755 0.17722684 -1.0499209 0.14582194 -0.6643783 0.5381433 0.9830518 -0.82838434 -2.6835592 -0.29915014 0.18220405 2.1404872 0.6137231 -0.5500223 0.93031955 -0.18504821 -0.5085667 0.025044695 0.45560274 0.35598013 -0.29502103 0.35504955 -0.39157745 -0.12035896 -0.4343272 -0.4631188 -0.37908316 -0.05583608 0.66010654 -0.109565794 -0.33172867 -0.9728822 -0.012734779 0.34839147 -0.014295038 -0.07205997 0.018912142 -1.4561901 -0.2181453 -0.23892601 0.00978431 0.3797496 -0.30442604 0.21293269 0.07716314 -0.11853309 0.29227692 -1.2272729 -0.019424671 0.53938705 -0.09359811 0.24427322 0.52842164 
or 0.27012587 0.6652684 0.2963254 -0.5176822 -0.25064093 0.7397132 -0.032235757 0.33957887 0.48906597 0.11081969 0.1460622 -0.12375611 0.16225486 0.7157747 0.60339403 -0.36600062 0.26596102 -0.06838125 -0.41495138 0.48563793 0.097208574 -0.14822508 0.26837727 0.3697028 0.5653905 0.12122878 -0.13493782 -0.70761555 0.15641657 -0.30307782 0.39507377 0.6573342 -0.5367134 -0.5524686 0.269019 0.70850194 0.043189786 -0.08139774 0.010954407 0.1390413 -0.34973052 -0.7159468 -0.19256179 -0.7570607 -0.19745304 -0.204434 -0.18781267 -0.15723684 -0.544099 -1.4975517 0.19950615 0.25571075 0.4825519 1.3232003 -0.6188917 -2.0494716 0.26100278 -0.10649843 2.3270621 0.7753705 -0.29834184 0.78565115 -0.27419502 0.24094363 0.87004554 -0.28292775 0.688229 -0.21440879 0.6066872 -0.2650189 -0.93285656 -0.31771472 -0.15210828 -0.47473195 0.066832446 -0.040410858 -0.12450744 0.24390323 -0.5454244 0.21457861 0.20154282 -0.17057353 -0.6265311 0.41095647 -1.6525255 0.36164355 0.41243646 0.5686373 0.94655854 -0.13957119 -0.60128117 0.11213841 0.15345563 0.14943038 -0.7254828 -0.0586237 -0.1746085 -0.9268992 0.84893394 -0.5795461 
low -0.35036805 0.27779138 0.060521588 0.20381846 -0.68633664 -0.44730324 -0.33873776 -0.1943161 -0.89402986 0.58143526 -0.24040666 -0.027877284 -0.066853926 -0.1228761 1.1584643 -0.83172005 -0.6785308 -0.6002788 0.6544175 0.27330476 0.30971062 0.66692567 0.5906082 0.2853654 0.24761137 -0.114709176 -0.53530526 -0.5637199 -0.73578167 0.17978604 0.39252305 0.19792126 -0.28083828 0.21685575 0.25244224 0.38114738 0.4524665 0.21288662 0.01504548 0.17120972 -0.08333409 -0.6346496 -0.83457965 -0.0070984485 0.96576613 -0.14333107 0.37242997 -0.26392838 0.09630459 -1.1736096 0.05760308 -0.79370713 -0.23976976 1.0424418 0.07459492 -2.3820167 -0.067023024 0.03706106 2.3648553 0.0061532557 0.18140477 0.108697236 -0.18515222 0.09564446 0.019713087 -0.046653356 0.6466362 -0.55165076 0.5965047 -0.60335916 0.15742132 -0.20265394 0.2071317 0.41812432 0.091439456 0.12355225 -0.27974048 -0.18426038 -0.14064173 -0.13225849 0.8455796 0.32488275 -0.8883063 -0.92715454 -1.114487 -0.42713684 0.27690077 0.18930405 -0.132997 0.09181664 -0.7423187 0.43565622 -0.38114008 0.24100545 -0.9336399 -0.19877106 0.09721175 -0.498536 0.24724215 -0.58888245 
tolerance 0.7355434 0.37163907 -0.06716974 0.53212655 -0.4996502 0.79252255 -0.3692666 -0.58572614 -0.7612417 0.6272587 -1.4052413 0.13983127 -0.3715464 -0.19411932 0.5971488 -0.097728565 -0.34482646 -0.31270903 -1.1279887 -0.03344139 -0.17582071 -0.426872 -0.56242025 -0.43565133 0.5278001 0.935344 0.28481042 -0.3427872 -0.2335353 -0.15463242 0.21314983 0.66031176 -0.27309147 1.1581149 0.80431795 0.022229081 0.63927525 0.13387723 -0.6397659 0.22870614 -0.76074946 -0.24778105 -0.10075289 -0.3738491 -0.40093052 -0.8376931 0.53880644 -0.038274277 -0.56222713 -0.62214875 0.36513427 -0.521395 -0.7964837 0.9763383 -0.15064153 -0.68604434 0.75194156 -0.38397038 1.1473609 -0.51341146 0.10277626 -0.3801628 -0.31702137 -0.9625068 0.2165422 0.678764 0.26191014 -0.6598623 0.896149 -0.8026585 0.2551091 -0.25048265 0.27312723 -0.08114355 0.058258258 -0.1695492 -0.15512304 -0.2658161 -0.2870078 0.22043258 -0.33698314 0.029309826 -0.115797155 0.6112901 -0.80365777 0.90953386 -0.40192586 0.03197777 -0.44417036 0.093080804 -0.54310185 -0.49528825 -0.61578584 0.587542 0.046433423 -0.15065351 -0.07298968 -0.97789687 0.20571278 0.91367275 
rude 0.6289951 -0.29200372 0.6505952 -0.62527275 -1.0620239 1.0067005 -0.41250625 0.6097677 0.33535764 -0.06160623 0.0149994735 -0.65867054 0.39154503 -0.25377163 0.8351782 0.40648222 -0.8472399 -0.47404295 0.1685616 0.63526434 0.9232488 0.081818014 0.0024385455 -0.10467263 -0.5762801 0.60946345 -0.60235476 0.5476054 0.6297298 0.2437217 0.03804445 0.31511912 -0.3802724 0.14584328 -0.12169758 0.4667979 -0.79743725 -0.6713282 0.41097453 0.024717221 -0.30420044 0.4850014 -0.7859174 -0.10219287 -0.063726336 0.48984995 0.1249623 0.5934336 0.19763403 -0.2647869 0.29884806 -0.23480977 -0.03674684 -0.3618896 -0.8629336 -0.38661563 0.89537483 -0.18646762 -0.15103298 -0.69436264 0.63793784 -0.15576616 -0.92054135 -0.51182765 0.18530272 -0.63453573 1.2272213 -0.55076534 -0.14196943 -0.5305178 -0.8065845 -0.34185308 0.13535225 -0.0184001 -0.07590008 0.6330655 -0.12137948 0.6313689 -0.2887857 -0.34424478 0.058276474 -0.757785 -0.030281577 -0.10757064 -1.181241 -0.33258802 0.2517411 -0.05492548 -0.060860187 -1.4245943 -0.08197251 0.48522514 -0.42562193 0.32202888 -0.20408465 0.10127464 -0.8417046 -0.16511005 -0.62186635 -0.073994815 
customer 0.20317045 0.024340283 0.35653105 0.3648892 -0.36290297 -0.5916251 -0.41700774 -0.121456385 0.4094179 0.43811253 0.023406483 -0.10975046 0.6936662 -0.45152348 -0.014099902 -0.3120818 -0.20227818 0.4909246 0.3312841 0.7252434 -0.35191995 0.17383872 -0.21670252 -0.1713875 -0.11452061 -0.46420863 -0.150685 0.20474653 -0.04285326 -0.1270304 0.58835703 1.4097923 0.30680263 -0.40683433 0.24284747 0.37956834 -0.072468236 -0.240405 0.5737379 -0.4427726 0.85655016 -0.7135872 0.16940981 0.1620212 -0.04198495 0.54856914 -0.49568298 -0.23907548 0.3311095 -0.45199478 0.5683225 0.036192074 -0.548347 0.37294605 0.09297179 -0.8889072 0.07830769 -0.5881721 2.0205276 -0.020653823 0.43435597 -0.53108996 -0.13749538 0.18826938 0.25979662 -0.70086175 0.3751744 -0.4701574 1.0678766 0.07475765 -0.33845565 0.09957726 -0.00010091082 -0.9791826 0.67371017 0.8707102 0.049557503 -0.6768674 -0.8401738 -0.16489026 0.89449275 0.13331921 -0.46180663 0.009091715 -1.5552988 -0.829112 0.060574565 -0.6895569 -0.5237167 -0.26055446 0.031112436 0.9344087 0.4379689 -0.8651874 0.2728051 0.5510761 0.3318132 0.030019885 0.5220321 0.7890511 
people 0.21332842 0.79800385 0.21434544 -0.30856872 -0.50120103 1.1287605 -0.40791786 0.07806548 0.415246 0.029377624 -0.0993165 0.018493922 0.81494135 -0.3053491 0.2042111 -0.6075615 -0.12294841 -0.30749816 -1.0118381 0.7526128 1.1014107 0.35436076 0.8641917 -0.54594034 -0.22769335 -0.3174634 0.4660035 0.067953 0.30307555 -0.33155647 0.51704437 0.64013934 -0.0037537378 0.087761424 -0.083374165 -0.47373387 0.29021066 0.71764046 0.39922696 -0.0039405813 -1.0786215 -0.18239588 0.120450415 -0.5627729 0.031566154 -0.036830034 0.09429928 -0.43946534 -0.8380412 -0.4388489 -0.48668334 -0.7506879 0.09376953 1.2595658 -0.5558608 -1.7468709 0.43953475 -0.24181797 2.1819992 0.14906307 -0.34677067 1.4587592 -0.2134775 -0.21050312 0.4514359 0.8626025 0.6120539 -0.111296825 0.519113 -0.7212515 -0.1679606 -0.5185762 -0.12974623 -0.45290107 0.16750172 0.6488797 0.04843681 0.4664388 -1.0659769 -0.3101397 0.76990974 0.1682538 -0.5815893 0.20294057 -1.9317236 -0.023125354 -0.5747442 -0.16332573 -0.54144955 -0.5120448 0.7620034 -0.35999724 0.17245474 -0.5045426 -1.4732108 0.24091697 -0.7978514 -0.27985027 0.45034534 -0.12157499 
it -0.29494023 0.13270625 0.99925476 -0.3277858 -0.15843992 0.12321815 0.015713919 0.42544615 0.5188726 -0.14630985 0.36101255 0.20009185 0.17437224 -0.051283985 -0.014839434 -0.1666998 0.23225798 0.32549706 -0.2396423 0.48947302 0.34895745 -0.003974369 0.31690702 -0.006716718 0.45382723 0.25521258 -0.25356123 -0.5333801 -0.115288064 -0.7104662 -0.33630383 1.2360849 -0.04281353 0.1458993 -0.007157051 0.50179815 0.013710074 -0.13622338 -0.530848 -0.61452687 -0.32228157 0.0043972554 0.19649303 -0.553409 -0.3501675 -0.021521816 0.6781808 -0.6271411 -0.115540534 -0.74528766 0.07008165 -0.011303772 0.5429011 1.2492785 -0.70547134 -3.3879755 -0.11455315 -0.21011107 2.082318 0.5538577 0.11489236 0.91952866 0.050831944 0.28868034 1.1275593 -0.24741882 0.5738142 0.65548986 0.26151258 -0.35634378 0.3949433 -0.62452006 0.11577731 -0.2814386 0.6629537 -0.4100241 0.041739635 -0.2533747 -1.2098303 0.42200065 0.19209026 -0.16466554 -1.0280173 0.515021 -1.2348293 -0.2654426 0.39937797 -0.38775817 -0.09157129 0.06885792 -0.064326316 -0.38986656 -0.28658307 0.10016261 -0.33093226 0.07625147 -0.2207561 -0.42227474 0.345943 0.59498763 
is -0.50719804 0.40076375 1.0544889 -0.48572752 0.5092921 0.28010845 -0.12962176 0.5129564 0.081731156 -0.16998152 -0.15298173 -0.123539306 0.5110293 0.27994612 0.09618138 -0.36645025 0.47567794 0.07172576 0.08189095 0.44146118 -0.18943499 -0.008878609 0.17360336 0.2929134 0.28242713 0.2224092 0.13501151 -0.5861952 -0.5717654 -0.03433297 -0.67913705 1.0649325 0.25515625 0.30580148 0.64842874 0.31480798 0.3054077 0.3555703 0.32007554 -0.38227972 -0.43634787 0.10657832 0.6002674 -0.6492659 0.09149417 -0.09137812 0.6009876 -0.43498206 -0.21980768 -0.4025284 0.056979667 -1.007749 0.6413542 1.4493959 -0.749719 -3.0957983 -0.20724927 -0.29660818 1.4541593 0.44320357 0.25418997 0.4288008 -0.23030083 -0.3388751 1.241637 0.12036121 0.7922607 0.277827 0.37563506 0.0019736693 -0.016048871 -0.52640164 -0.3167108 0.07897279 0.8229031 -0.45129043 0.078508355 0.16373678 -1.109705 -0.0517281 0.07941575 0.04235026 -0.9732102 -0.22512466 -1.081696 -0.09063129 0.16774008 -0.5224443 0.5683927 -0.81655025 -0.35120675 -0.09148018 -0.2660529 0.37577012 0.030599024 0.282079 -0.0149722 -1.2894988 0.7943924 0.45306283 
your -0.4596572 0.0031005058 0.9497319 -0.6352511 -0.6817043 0.6696756 -0.813652 0.3089041 0.0751165 0.26173085 0.405252 0.21320163 0.4484938 0.24279447 -0.077270634 -0.41605362 -0.087650865 0.45286718 0.0327745 0.29243958 -0.6929746 -0.11203461 -0.2520245 -0.102047734 0.24101757 0.94672453 -0.8120341 -1.1245894 0.62347573 -0.40482736 0.82705975 1.3193313 0.5007136 -0.012819633 -0.35349187 0.4435422 -0.7686523 -0.0020611861 0.5261434 -0.70397115 0.5468283 -0.26344964 0.24084802 -0.8559431 -0.7894626 0.13305657 -0.88539135 -0.42851144 -0.009113948 -1.4309388 0.20600039 0.23513107 -0.11246726 0.95236826 -0.15592413 -2.3225596 0.822764 0.26631656 2.4008865 -0.16420402 0.6108093 1.6464794 -0.40762982 -0.09166066 1.0253954 0.6198106 0.5510561 -0.31341726 0.37422472 -0.47170487 0.021843165 0.5138067 0.587275 -0.9216638 0.64138544 0.44741416 -0.38560164 -0.3878685 -0.40749297 0.17259909 0.4232113 0.47892663 -0.42429036 -0.1690117 -1.6245286 -0.33035985 -0.17953439 -0.25866163 -0.13531086 -0.09903342 -0.61257535 0.9572061 1.2998897 0.08340907 -0.42178702 -0.42826736 0.32112017 -0.31622508 0.8787685 0.8480436 
job 0.16369906 -0.017589094 -0.108094856 -0.44292715 -0.33413106 -0.44814196 -0.1901267 0.22586699 0.045398314 0.3874039 0.02171664 -0.47543606 0.2582096 -0.07309916 -0.11485028 -0.47190836 0.23371108 0.11671915 0.11748504 0.9154989 -0.46434012 0.40550205 -0.5751356 -0.44752106 0.08887799 -0.7797161 -0.29112327 -0.68148565 -0.27088553 -0.41603807 -0.5714605 0.40265808 0.106251694 -0.4746242 -0.55756515 0.44073057 -1.0090067 0.08244767 0.35134587 -0.38631934 -0.3352628 -0.21015999 0.46481216 0.015706532 -0.31762886 0.61106604 -0.18841611 -0.6730003 0.043503787 -1.1572651 0.18526836 -0.79830587 -0.6177239 1.5817713 0.17978293 -2.179346 0.4980415 -0.33485296 1.3972274 0.10101562 -0.18212156 0.06733112 -0.27361238 -0.35746762 0.71877664 -0.17485681 0.76647377 0.033595722 0.29484615 0.3023445 0.23253527 -0.018251216 -0.6316892 -0.4935725 0.4210741 0.32473913 -0.44265184 0.22283183 -0.291627 -0.07052683 0.5408274 -0.09717863 -0.42711666 -0.3727713 -1.5261499 -0.5672808 0.44009838 -0.0009549977 -0.5160602 -1.0535679 0.2875828 -0.09385879 0.7008488 0.41190532 -0.22930105 0.30607718 0.15677474 0.47149333 0.7210517 0.42751884 
be -0.47885364 0.4929182 0.49856523 -0.58405954 0.07614829 0.044530086 0.07020455 0.4881838 0.0508169 -0.13831805 -0.09447262 0.47430933 1.0843906 -0.07385087 0.33816013 -0.7130155 0.4380159 0.3310865 -0.74590915 0.13940968 0.25559682 -0.28751186 0.18240535 0.11525214 0.13282076 -0.17150973 0.19330657 -0.41484582 -0.3067915 -0.0073551345 -0.04072012 0.5790339 -0.26094198 0.34490007 1.0355201 0.27577835 0.105414584 0.30589402 -0.22881225 -0.25588042 -0.45654398 -0.32529715 0.28291082 -0.5212446 0.36420068 0.08481943 0.41806832 -0.32923716 -0.032316856 -1.0376451 0.11942784 -0.88224286 0.49645382 1.1361765 -0.40835398 -2.5181038 -0.14025822 -0.20214753 1.7831523 0.74505085 -0.10786625 0.96632236 -0.87317425 0.051966865 1.2516545 -0.08531318 0.68581647 0.7095846 -0.20721054 -0.7080109 0.06303667 -0.90452904 -0.1425751 -0.22921702 0.246728 -0.43595666 0.10563473 0.11459041 -1.1641716 -0.04001237 0.4751633 -0.35861167 -0.8630622 -0.24581215 -2.091187 -0.33916008 0.86935914 -0.05999241 -0.19928665 -1.1556473 -0.635867 -0.2857055 -0.2344525 -0.19600381 -0.25948432 0.10642317 0.12438073 -0.79360485 0.4440845 0.30950937 
polite -0.14027475 0.3431572 0.15898468 0.38982877 -0.8113787 1.4654042 0.1693749 -0.1728673 -0.16214085 -0.31790698 -0.61300504 -0.39359483 0.21000114 -0.3844792 0.39963377 0.023565931 -0.6176344 -0.45128497 0.18596599 -0.05829398 0.11081389 0.38359034 -0.06069388 -1.067158 0.08751978 0.22146767 -1.0196899 0.32167932 0.21226297 -0.42318282 -0.06784056 0.51826787 0.35220897 -0.11695258 0.8788463 1.0056851 -0.53935283 -0.43945113 0.31715605 -0.052179776 0.2053375 -0.53050554 -0.00056082057 0.11773208 -0.39891687 -0.40449637 0.45053825 0.48346755 0.414767 -0.7134048 0.51614225 -0.5270248 0.715171 -0.12763238 -0.5182272 -0.16188417 0.5430766 -0.2964145 0.2855397 -0.3984731 0.15653254 -0.043927334 -1.1535506 -0.31145322 0.3346895 -0.6460608 0.8482332 0.29893112 0.041651674 -0.2622274 -0.37547287 0.22753628 0.4142688 -0.9517995 0.20008846 0.90140283 -0.10451556 -0.703264 -0.25241238 -1.1383677 0.35625044 -0.20806608 0.06052098 0.05331075 -1.3271912 0.22815995 -0.21561895 0.35989326 -0.068066396 -1.0249437 0.28227443 -0.04899495 -0.1257521 -0.09708497 0.07082009 0.6625351 -0.9078644 -0.09049217 -0.8717297 0.6615986 
wash -1.0491093 0.49421084 0.1295157 -1.0516057 -0.42103946 0.4659695 0.16654424 1.213656 -0.13698761 0.55130935 0.15363543 -0.009444849 0.13753307 0.50247824 -0.27015537 -0.015036876 -0.11833848 0.25429747 -0.65446496 -0.4432106 -0.5593401 0.07560452 0.16327603 0.0070656664 -0.44815615 0.97626317 -0.7890613 -0.18900107 0.17203939 -0.58417445 0.41812295 -0.009133237 -0.07489371 0.09860046 -0.65130234 -0.11584205 -0.075964294 -0.75839543 0.9378196 -0.11493732 -0.17674807 -0.9105867 -1.1706775 -0.90106064 -0.21144481 0.9002811 -0.56002307 -0.29856244 0.1272387 -0.20038572 -0.21618831 0.005204152 0.36676958 0.45603195 -0.6879289 -0.83706796 0.03886753 -0.110927515 0.7442876 -0.48386845 0.1401589 0.545147 -0.19930692 0.19770655 0.72338593 0.5764085 1.2556901 -0.6199129 -0.54570085 -0.5705246 -0.46210438 0.50641155 0.06184689 -0.07066731 0.6828341 -0.05510249 -0.3330215 0.08172455 0.44909647 0.35574937 -0.2892271 -0.20515844 -0.66090244 0.5765154 -0.38175404 -0.38655728 -0.09781755 0.16997075 -0.25059637 0.06694333 0.037379045 -0.2527553 0.38294157 -0.5654639 -0.33576024 0.052867044 -0.19492762 0.07948118 0.5290004 0.047548246 
dishes -0.9429299 0.6224774 -0.06087297 -0.08639107 0.08077317 0.27188903 0.46943992 0.06118813 -0.017888635 0.57240534 -0.434869 -0.3300154 0.4898227 0.9369053 -0.14977317 -0.06340938 -0.3437751 0.044334564 -0.4177138 0.20575675 -0.6911815 0.6951199 0.8972066 -1.1424164 -0.036140986 0.41871822 -0.22063187 0.32594797 -0.6481195 -0.81704056 0.014124872 0.2846343 0.15363058 -0.56045485 0.7155698 0.8084846 -0.007445746 -0.34279597 -0.32577977 -1.222083 0.3973367 -0.6379103 -0.62085646 -0.59366 0.6011156 0.4246889 -0.752078 -0.5516671 0.15571408 -0.3768228 -0.22140794 0.27417657 0.42258495 0.22937566 -0.98129314 -0.4703951 -0.23087847 0.44847512 0.812396 0.75823396 -0.5557939 1.2970419 1.160762 0.14312117 0.2772443 -0.31543002 -0.11076202 -0.5727957 -0.1545991 -0.6392484 -0.2267479 0.45969597 0.88402534 0.69094104 -0.608182 0.9814596 -0.62785274 0.46235353 0.7635779 0.29667485 0.19130772 -1.0007857 -0.67284256 0.5221969 -0.79824334 -0.23688138 -0.2587135 0.59107286 -0.34230456 -0.65365505 0.27973473 0.4336878 0.4695391 -0.80548435 -1.2886478 -0.51517844 -1.1016818 -0.7562083 0.7601299 0.88750726 
otherwise -0.61543524 0.112526126 0.34738013 -0.15665253 -0.17059241 0.43792626 -0.2991147 0.44491193 0.5080321 -0.20549296 0.1862465 0.43570876 0.5338983 -0.25293693 -0.22382121 -0.28483868 -0.009187243 0.21808593 -0.10640804 0.47395888 0.03765668 -0.32619607 0.44524255 -0.364953 -0.08335728 -0.08224091 -0.4223865 -0.54456866 -0.111637406 -0.016190125 0.25716773 0.47115558 -0.5064585 -0.5136411 0.37387055 0.2642032 0.2214109 -0.2591718 -0.38513604 -0.2189693 -0.1086082 -0.19357303 -0.12524523 0.0899863 0.007862842 -0.49620476 0.46591324 0.33891308 -0.37172824 -1.1326826 0.52896756 -0.04581972 0.49855426 0.3879756 0.23690888 -1.4955968 0.45036 -0.28408226 1.3282896 0.27915666 -0.57444453 0.5155905 -0.5451998 -0.28739342 0.8477968 -0.14595178 0.7854979 -0.27393934 -0.1975974 -0.4839307 -0.0345924 -0.23551482 0.16603933 0.040783174 0.59690255 -0.043857526 -0.09915346 0.04093816 -0.36021987 -0.0965382 0.0052141394 0.14423689 -0.8017769 -0.086386584 -1.495845 -0.3968986 0.045925606 0.38466078 -0.31944704 0.0057533765 -0.40134856 -0.4403577 0.38662577 -0.14114141 -0.31096476 0.023716733 -0.19371815 -0.09441291 -0.17322113 -0.1704001 
took 0.4946997 -0.3427735 -0.1740576 -0.13840453 -0.09420377 -0.0005182144 0.08904965 0.53842795 -0.5060032 -0.046139535 0.52858686 0.3770052 -0.019803118 0.2673268 0.18969825 -0.27384633 0.0039900686 0.3383024 -0.34998286 -0.25725827 1.164706 -0.009494791 0.3986507 0.26369742 -0.26136693 -0.5506655 -0.57891476 -0.16751678 0.43189576 -0.3934421 -0.029185958 0.5698656 -0.08811834 0.08669533 -0.620602 -0.28985947 -0.46604478 0.6838891 -0.46493417 0.29196396 -0.86909914 -0.2184884 0.6095482 -0.472868 -0.052460525 -0.17906451 0.21717049 -0.31493762 0.6659759 -0.67902774 -0.10510387 0.013487904 -0.11779587 1.3822021 -0.23829997 -2.7649503 -0.705248 -0.03712899 1.2375661 0.6763186 0.055608302 0.63008034 -0.052016325 0.30850968 0.36372313 -0.17826074 0.014575684 0.039717585 -0.1902591 0.5753664 -0.43896735 -0.35427132 -0.22318251 -0.08718941 -0.23793247 0.10230381 -0.6536734 0.23815286 -0.8791924 -0.046148755 0.8587546 -0.26241836 -0.38579622 -0.022589916 -1.1580522 -0.50807023 0.191782 -0.24886575 -0.29204375 -0.32137915 0.08441989 -0.69644034 0.13804533 0.39173657 -0.5581264 0.25206065 -0.2744221 0.36018452 0.06414945 0.19032499 
