2104 100
<unk> 0.00878336 0.007737142 -0.0054319007 0.0072251544 0.0055300836 0.0077127637 -0.008590924 -0.007339481 0.008316634 -0.0073270234 -0.00671041 -0.0053870156 0.0078076217 -0.007875961 0.008543019 0.0059451926 0.0073000817 -0.006309678 -0.007298128 0.007123835 0.0076586385 -0.0065426147 -0.0084029045 0.008034986 -0.007842732 -0.0074628424 -0.008187557 0.0062576644 -0.0061853197 -0.0068259127 0.00810652 0.008354344 0.0074918047 0.0077105635 0.0056449072 -0.0073458534 -0.0072962893 -0.007825797 -0.00714136 0.008638361 -0.008610525 0.007806469 0.0063101454 0.0063883397 0.006763485 -0.0074102115 -0.006671091 0.007518577 0.0070437132 -0.007995922 0.0085602375 -0.0087709725 -0.0065978337 -0.0075347372 0.0074924836 0.0065125003 0.007946999 -0.00877303 0.007937897 0.007738371 -0.006138579 -0.007610118 -0.008125245 0.008283288 0.008109683 0.008192165 0.008478993 -0.007302164 -0.008751302 0.008294604 -0.00821766 0.006933357 0.0059140213 0.0072486047 -0.0072038737 -0.00869441 0.006938682 0.00873079 -0.00865411 -0.0074704215 0.0077493256 -0.008516813 -0.008799859 0.006485735 0.0069311014 -0.008026285 -0.0066214884 -0.008594203 -0.0074938606 -0.007018897 -0.007907925 0.0077180215 -0.008362251 -0.007360712 0.0076832776 0.008638235 0.007758683 0.008501988 -0.007581045 -0.008395916 
nice -0.34727705 -0.055088364 0.2841414 -0.16069579 -0.00013204777 0.54472363 0.5819826 0.5874619 -0.37012178 -0.32823378 -0.030587815 -0.4820833 -0.5295637 0.3130273 0.13422737 0.8998163 -0.25933605 -0.21901064 -0.043726515 1.0725105 0.0585497 0.39127296 -0.36313564 -0.82394713 0.5673155 -0.36034578 -0.6549004 -0.48560977 -0.23845416 -1.076126 -0.9343553 0.2529065 0.68910044 -0.2957721 0.87067705 0.8142366 -0.011510768 0.44438738 0.40205234 -0.66596234 0.8979241 -0.8173327 0.5214519 -1.0653015 -0.57570785 0.29411465 -0.25944018 0.097676404 0.293137 -0.68948805 0.1792589 -0.053440627 -0.26283073 0.24005045 -0.49616474 -2.3971465 0.283106 0.9637994 0.5574879 -0.8661781 -0.44599313 0.42389843 -1.5114577 -0.33884802 0.6190156 -0.17051072 -0.16720423 0.46032736 -0.2544912 -0.46228117 0.30633107 -0.07259212 0.16180909 -0.78231853 0.40725902 0.4648704 0.72694653 -0.6462955 0.57735467 0.2654785 -0.14467059 0.13361768 -0.043852586 -0.095611855 -1.1016057 0.016329525 0.22626497 0.40443587 -0.33175758 -0.62203276 0.31453666 -0.26434246 0.5096366 -0.015048155 -0.81770223 0.57736653 -0.69669026 -0.11053375 0.12090242 0.48997012 
spicy -1.2122259 0.59838736 0.4836701 -0.34874466 0.046302184 0.7187406 0.52631295 -0.5604591 -0.017699089 0.53981626 -0.3835069 -0.25871393 0.5229599 1.0278035 0.6721351 1.0073891 -0.0020573 -1.3273009 0.033055954 0.8569334 0.4334964 0.14226878 0.018342251 -0.5518159 -0.037756994 1.7380612 -0.07143712 0.2868935 -0.6317851 -0.48248023 -0.6929934 0.4089005 0.41529992 -0.5943721 0.32160324 0.8749821 0.20243777 0.29532138 0.5385267 -0.5077047 1.1746637 -1.0090715 -0.5643449 -0.7216781 0.7422358 0.7088787 -0.41978478 0.038766235 0.37488356 -0.8567342 -0.1941739 -0.01990721 0.035490498 -0.4549901 -0.68817747 -0.34541494 0.7668679 0.030397383 -0.10248526 -0.56539917 -0.2407966 1.2770973 0.31193045 -0.056370888 0.16213226 -1.0153984 0.22645642 -0.6457364 -0.13759919 -0.60526097 -0.18100286 0.30477074 0.24895845 0.89454925 -0.552054 0.91854143 -1.362808 0.0012133252 0.4544882 0.23079394 -0.19489753 -0.9622068 -0.18807101 0.5321811 0.05950912 -0.106869265 -0.3038991 0.7964547 -0.11898823 -0.35915416 0.124817304 0.43019605 -0.862006 -0.53179383 -0.8966247 -0.48492754 -0.92282265 -1.0381546 -0.046166416 0.80637485 
and -0.008200948 0.1556638 0.04914752 -0.49449688 0.428636 0.15098734 -0.29177967 0.24800307 -0.17370747 0.40432608 0.16090378 -0.5775044 0.2710725 0.6455186 0.17153706 -0.40933803 0.19231653 -0.13033843 -0.8941912 0.2684188 0.03842298 -0.17294401 0.93333066 0.42348832 0.37973434 0.2054963 -0.090490855 -0.5569513 -0.04480219 -0.4436883 -0.32249114 0.67448467 -0.48446617 0.31655428 -0.06895461 0.29537174 0.52114254 0.37100983 -0.17068645 -0.11803473 -0.4577713 -0.60794336 0.0010432492 -0.27892867 -0.27308047 0.12422694 0.12839063 -0.58542264 0.43483025 -0.5231925 -0.39357692 0.15185359 -0.17368166 1.6221311 -0.034977235 -2.3063846 -0.024124775 -0.23867783 1.2272254 0.7795546 -0.24261603 0.640985 -0.09959715 0.28773433 0.85211223 -0.47081003 0.8730412 0.37004033 1.0292401 -0.1220215 -0.23022652 -0.49310887 -0.009022858 -0.7145288 0.17388666 0.28909805 -0.20720603 0.505492 -0.63643 -0.07000028 1.0437438 0.584218 -0.20920214 0.5850714 -1.3759279 -0.3462529 -0.08239108 -0.117635906 0.017053772 -0.5917975 0.15739904 -0.6203427 -0.2791987 0.43625683 -1.033642 0.6014907 -0.47737402 -0.71117157 0.84709924 0.21173017 
tender -0.4389976 0.47805014 -0.63796425 -0.280707 0.03884411 -0.07763538 0.5688944 0.7036061 -0.14663835 -0.038773455 0.26099366 0.82091403 0.02540685 0.08950611 0.1720535 -0.35116512 0.21843639 0.063883916 0.6168699 0.3209861 -0.60612977 -0.26929215 -0.34780565 -0.47439027 1.0231892 1.1290292 -0.5024621 0.59275824 -0.32115737 -0.26203027 -0.5081248 0.8650582 0.238516 -1.1408416 -0.15713672 0.714483 0.49801275 -0.5439986 -0.1642596 -0.8685456 1.0498338 -1.3908052 0.3399326 -0.5085774 0.9151334 0.22237888 -0.58971566 -0.3002952 0.50176775 -0.44238192 0.03624019 0.1917761 0.67846423 0.46141514 -0.43082786 -0.9046013 0.5620165 -0.37225237 1.4159011 0.15057468 0.5296298 0.792812 -0.26763135 0.50189596 0.63067144 -0.58683896 -0.50116134 0.53365713 -0.18309867 -1.1210345 -0.3118501 0.0889976 0.14940888 0.09385879 -0.083855376 0.6748541 -0.80204034 -0.020501396 0.08541777 -0.793833 0.37112725 0.07960009 0.27851033 0.9326179 -0.18934256 -0.34508705 0.31856805 0.9359491 0.297251 0.07487899 -0.6010605 0.51375663 -0.28582218 0.28219798 -0.44277775 0.7148372 -0.53939664 -0.6060126 -0.21744601 0.7026274 
1 -0.22197436 0.68340576 0.056320034 0.28922513 -0.08887086 0.17096266 1.1315111 0.37677538 0.055906408 -0.38526782 1.1564469 -0.09921469 -0.58530545 0.45911103 0.6703264 -0.42863497 0.8903413 0.15359919 -0.2375093 0.65956706 0.55415684 -0.044358667 0.48191658 1.0129063 0.3133959 0.42898974 0.663546 0.05245332 0.3545522 -0.15187082 -0.1655191 0.882724 -0.04051014 -0.27116567 -0.7220095 0.21300969 -0.08653112 0.9533328 -0.17674959 0.07466274 0.7133282 -1.5059758 0.2507513 -0.6939706 0.5929032 -0.57705384 -0.27385277 -0.32979345 -0.10538421 -0.59920096 -0.051819414 -0.6134004 -0.35482728 1.495455 -1.1255348 -2.7029376 -0.26347777 -0.7358107 1.7308499 0.5112039 -0.2457983 0.015573433 -1.0422332 -0.11132658 0.9761958 0.2651608 -0.7636458 0.9761329 0.49156263 0.39042142 -0.6884966 -0.1727025 -0.10905494 0.8604708 0.35491493 -0.0665476 0.010697321 0.0192742 -0.82344353 -0.16731566 0.4197613 -0.76012254 -0.9920957 0.24536626 -0.3830183 -0.13637994 -0.22831398 0.13427238 0.46497104 0.38517675 -0.8202562 0.73408115 -0.599508 0.4010899 -1.0449101 -0.3439365 0.34716022 -0.11604479 0.46043748 -0.7450374 
i 0.042871743 0.5494578 0.5546268 -0.31608298 -1.243344 0.5442434 0.11326943 0.35591343 0.261381 -0.161384 0.86511445 0.36153468 0.2312429 -0.08962987 0.10444678 -0.4224359 -0.34790364 0.52629536 -0.9626277 0.53653526 0.15839994 1.122123 -0.31518063 -0.27684364 0.1996418 0.6467834 -0.22924253 -0.8138112 1.0089638 -0.48144346 -0.14220208 0.8012781 0.7422772 0.3260976 0.162228 0.6305059 -0.4262126 0.5481492 0.7545026 -0.40349743 -0.49510396 -0.13225979 0.26494455 -1.0878454 -0.96486115 -0.101607956 0.34343016 -0.58073926 0.16132386 -1.6899657 -0.015931938 0.079800725 0.20043932 1.0374361 -0.61894363 -2.6327317 0.24487661 0.54511905 1.3493761 1.0480556 0.21980451 1.2688586 -1.1288092 0.09137216 0.9771256 -0.0017619698 0.98905325 0.7146315 -0.5539808 -0.11365258 0.5451893 -0.46295884 0.54244006 -0.45959893 0.054484002 0.2671964 -0.12467718 0.14745969 -0.67356735 -0.21309729 0.53925425 -0.56984514 -0.8450939 0.22537722 -1.9770626 -0.3025001 -0.3431963 -1.0183171 -0.92316264 -0.71518755 -0.28859606 -0.37828603 0.3079433 0.32652798 -0.59999835 0.20913345 -0.13602442 -0.2699106 -0.108580634 0.6883165 
go -0.0077584605 0.45035398 0.7728304 -0.8257374 -0.05872288 0.16529861 -0.35093355 0.53500116 0.12498838 -0.14804615 0.5311521 0.46744272 -0.0035025014 0.4128723 -0.15683264 -0.25835767 0.022543438 0.89275587 -0.9358153 0.47584736 0.2747102 0.6366874 -0.0606325 -0.110980235 -0.05683638 0.03055118 -0.54382265 -0.8589566 0.7174544 -0.33102396 -0.6723351 0.24531561 0.027408598 0.07540922 0.06981386 0.85515 -0.20876026 0.12950324 0.03489356 -0.5695884 -0.3313687 0.09772299 -0.39827728 -0.78547883 -0.61300206 -0.21274059 -0.38010162 -0.19454286 0.0234868 -1.2000693 0.05969721 -0.2644732 0.008618455 0.7277549 -0.09557851 -2.3613489 -0.2779404 0.5031699 2.1943877 0.26137513 -0.5740518 0.5956793 -0.50436836 -0.27573466 0.81506187 0.7774529 0.087750986 0.41678387 -0.44186193 -0.09182565 -0.08928869 -0.6556302 -0.344058 -0.8275652 -0.017466879 -0.044702016 -0.25736192 -0.21399508 -0.37142998 -0.10411334 0.5999468 0.06201812 -0.50378203 -0.25767177 -1.4532886 -0.3269446 -0.010170899 -0.042591292 -0.3089584 -0.44320956 -0.097557 -0.21522057 0.15583621 -0.36623 -0.6153754 -0.08230258 0.3770429 0.21985099 0.63058084 0.38646182 
to -0.2258035 0.0474235 0.14156428 -0.017896859 -0.02506118 0.20533347 -0.52652395 -0.014179229 -0.25898498 0.216906 -0.15954915 0.073417485 -0.18866009 -0.17504877 0.18249549 -0.3956099 1.0719119 0.20809421 -1.0841249 0.3997381 0.5180167 -0.53526753 0.36918417 0.5001603 0.087555066 -0.16880701 -0.011852857 -0.7776694 1.0143737 -0.23882668 -0.509843 0.63902843 -0.056585215 0.35816845 -0.42338574 1.0424227 0.32399988 0.19136432 -0.051326603 -0.057429302 -0.69557303 -0.3743788 -0.5837896 -1.1401857 -0.43404043 0.5570619 0.020141533 -0.5644116 -0.045825444 -1.1287624 -0.29890543 0.18870741 0.69453627 1.5443687 0.16466351 -2.9961426 -0.1645137 -0.9461392 2.1600041 0.2193958 -0.3350787 0.610427 -0.40270898 0.43043292 0.8426285 0.14434156 0.29820248 0.9223373 -0.06261635 -0.8989232 -0.032444187 -0.8060079 -0.39727905 -1.0682563 0.07500522 -0.24108757 -0.46445724 0.15021154 -0.7147936 0.0143549675 0.4167143 0.3142519 -0.59714645 0.076319456 -1.4533042 -0.10051709 0.7169498 0.68097425 -0.05572144 -0.033162195 -0.25480354 0.17198937 -0.28357083 -0.62567014 -0.6290706 -0.48951393 -0.09600147 -0.46274987 0.528672 -0.1746084 
far -0.14867193 0.67348015 0.8752285 0.08495237 0.2278283 -0.23005554 0.039680287 -0.22601335 -0.14906467 0.012303999 0.096233785 0.3183924 0.11006045 -0.37707227 0.24626678 -0.4564541 -0.38127938 -0.17564327 -0.45066798 0.5017232 1.0236632 0.8017336 0.059000835 -0.1501328 -0.36313123 -0.008240574 0.02226559 -0.57052183 -0.19548781 -0.38634554 0.23018688 0.012883807 0.21873906 -0.07874368 0.7082574 0.39843705 0.195961 -0.108816706 -0.6391151 0.25691542 -0.45667773 -0.44325885 -0.08669646 -0.14449437 -0.05387566 -0.3093095 0.9357702 0.02310484 0.25322 -0.30913147 0.6160897 -0.32414094 0.23966642 0.9404413 -0.3729192 -2.337382 -0.07195303 -0.37764633 1.644284 0.15705277 -0.019716926 1.2241553 -0.28252488 0.19151185 0.65142256 0.19433592 0.23282236 0.043061428 0.15901618 -0.050339647 0.31020316 -0.43975055 -0.28032196 -0.077898934 0.33128393 -0.51555884 -0.072683655 -0.18780625 -0.8598039 0.11038411 0.44905517 0.3861901 -0.50765795 -0.4882395 -1.5692527 -0.2592878 0.45446903 0.15409346 -0.23135415 -0.31218827 0.100536056 -0.06582311 -0.4251631 -0.13365503 -0.5300543 0.32522407 -0.65182835 0.0717279 0.5918816 0.14455926 
too -0.61153054 0.25129622 0.6076452 -0.6150887 -0.61971503 0.01825719 -0.59326905 -0.0052442877 0.37483534 -0.4482335 0.20994452 0.26520142 0.021564197 -0.29698724 -0.17046884 -0.6291407 -0.6946465 0.229606 0.05397731 0.597269 0.6540855 0.8101704 0.43451327 -0.39558446 -0.14135982 0.2636288 -1.111682 -0.9495952 0.0025036086 0.09420448 0.08852703 0.3078131 -0.28416795 -0.25272658 0.15979302 0.4495409 -0.17836027 0.13200313 -0.44725785 -0.06687043 -0.14795677 -0.18644126 -0.20980051 -0.42116764 -0.34989807 -0.48359704 0.63496923 0.5671806 0.3091489 -0.81320775 0.10394848 -0.28759316 -0.09894034 1.2718979 -0.36794406 -2.4575336 0.22396287 0.14189611 1.5369978 -0.0132810315 0.014097627 1.3551781 -0.4882249 0.26992303 0.6616716 -0.33917934 0.7941733 0.10363127 -0.08823217 -0.24717982 -0.18665613 -0.6157656 0.21782276 0.03546521 0.27966067 -0.1468253 -0.5049969 -0.05828743 -0.5828697 -0.09544314 0.90058595 -0.24797086 -0.7032866 -0.03246017 -2.0994465 -0.5528986 -0.18569343 0.08897007 -0.99754226 -0.4800123 0.011859706 -0.2781084 -0.20322274 -0.028373636 -0.4677194 -0.22664087 -0.47980905 -0.23285867 0.07100099 0.31932026 
many -0.44118932 0.7780421 -0.3225375 -0.11119149 0.12509753 0.6158516 -0.43489358 0.02347428 0.020913862 -0.26358813 -0.052840505 -0.40609798 0.40870005 -0.08019635 -0.099349454 -0.20110449 -0.15214375 0.023445183 -0.24285115 0.8245467 0.43721813 -0.10382223 0.3421264 -0.46385086 0.11881216 -1.12534 0.13317733 -0.3983296 -0.088832356 -0.17058834 0.22025067 0.14953241 -0.55675626 0.096946985 0.10757507 0.56846064 0.28814757 0.3053823 -0.17387412 -0.3024681 -1.0151461 -0.30496183 0.07316449 -0.0032015634 0.26077566 -0.37148443 0.61090666 0.050782654 0.052610498 0.058404166 -0.27358815 -0.15404533 -0.26325428 0.85196465 -0.16418716 -2.0511541 0.17133687 -0.22628894 1.5788056 0.6027564 -0.5123115 1.5604215 0.61212945 0.19184221 0.73186696 -0.25156713 0.64360714 0.18567728 0.8347323 -0.57788026 -0.37880456 -0.09787525 -0.11383781 -0.2731169 -0.05905221 0.28851354 0.25152695 0.02101402 -1.0391845 0.034562193 1.4751549 -0.11800935 -0.2813637 0.31783298 -2.1005526 0.08754692 -0.5067389 -0.24226804 -0.66789544 -0.4059715 0.10739012 -0.52062404 -0.23750494 -0.07882746 -1.6217569 -0.1567516 -1.2478749 -0.1407335 0.73846215 0.720865 
places -0.29205263 0.23873362 0.18757169 0.1024823 0.59626144 0.24668577 -0.7266143 0.46535394 0.2069598 -0.022639874 -0.13756113 -0.43590334 0.37659457 0.23578078 -0.048607185 0.039362356 0.20581596 0.16428167 -1.0226696 0.73048764 0.5823346 0.603034 0.43285817 -0.19680762 -0.10684086 -0.8038696 0.49238327 -0.056137107 -0.15659514 -0.38397825 0.15867963 -0.4288941 0.23434043 0.05180511 0.483084 0.6866464 -0.46672547 -0.15068646 -0.3520355 -0.24630278 -0.18076572 -0.44887036 0.09491159 -0.41748655 0.06442414 -0.037847415 0.13118681 0.27451628 -0.09980754 -0.46620667 0.110723 0.0009288855 -0.3644897 0.60367703 -0.05074141 -2.1172905 0.36258334 -0.099596635 1.580219 0.00665836 -1.0489386 0.946752 0.42709953 0.11267156 0.8105594 0.1710888 0.41266057 -0.26984972 0.5622515 -0.6663058 -0.37202856 -0.36268178 0.24896759 0.1189705 0.24230996 0.15243173 0.25024828 -0.4271361 0.08303197 0.10970948 0.41138768 -0.10217641 -0.6632596 0.36531043 -0.6371437 0.2495627 -0.42425925 -0.41347173 0.22564541 0.32332394 -0.41992518 0.16286553 0.72748154 0.36932993 -1.312865 0.43334094 -0.6403326 0.07243149 0.3141899 0.2632027 
ive 0.3567655 0.40473163 -0.13872999 0.30001467 -0.5348355 -0.135568 0.55216676 0.06563013 0.72860014 -0.5175845 0.545163 0.38987762 1.2189503 -0.16825071 -0.29595113 0.083156206 -0.33832443 -0.13076302 -0.53252447 0.9193879 -0.5445183 0.4154396 1.0159701 -0.30662555 -0.01069373 0.09309472 0.30544716 -0.39406982 -0.37323606 -0.4823912 0.006974678 -0.3210401 -0.015075641 0.30033422 -0.072428815 0.34725872 -0.76200235 0.2854519 0.25102594 -0.053638976 0.12875706 0.7249507 -0.41901433 0.40855655 -0.5076511 0.17122495 0.48483747 -0.5308146 0.72129923 0.455107 -0.34519407 0.12007202 -0.4108451 0.2752553 -0.6997111 0.34135497 -0.001597174 -0.06260351 -0.8617603 -0.3128815 -0.03530812 -0.20447133 -1.1846993 0.6922461 -0.43368906 -0.24646032 0.42588958 -0.8621748 -0.4146255 -0.3918871 0.68110687 0.66401565 -0.014256808 0.18741946 0.10194589 -0.40875387 -0.52589273 -0.23648506 0.054766763 0.75943285 0.4558917 -0.759175 -0.44971946 0.0330933 -0.8782927 0.08203348 -0.08417919 -0.9042096 -0.06256164 -0.26552898 0.09390262 0.20898429 -0.13914052 0.00806345 0.36832112 -0.13483472 0.011724433 0.20350981 -0.9530003 0.30332488 
never 0.4423566 0.26929745 0.7812415 -0.32555982 -0.5822745 0.10718967 0.21439506 0.20255366 0.637544 0.05673691 0.741146 0.7840998 0.53495634 0.26221535 -0.18885083 -0.4498235 0.33519357 0.8664775 -0.62879425 -0.16200103 0.19520214 0.33810872 -0.03531668 -0.4196807 -0.0048637018 -0.05729039 -0.78920627 -1.2144665 0.7041283 -0.18020096 0.42859766 1.0206153 -0.12996413 0.42321667 0.10866559 0.24298814 -0.4576112 -0.014093437 -0.35046828 -0.048463535 -0.7976139 0.20711903 0.32603693 -0.5506841 -0.24749453 -0.50778574 0.91058236 -0.60964984 0.50280786 -1.6572422 0.36986592 0.014223932 0.2557513 1.177302 0.2871866 -2.183163 -0.3977872 0.42129436 1.0530533 1.0161055 0.28259072 0.7308165 -0.7486727 -0.36482447 1.0425037 -0.049728505 0.46151343 0.3207051 -0.5171374 0.13444698 0.21930343 -0.56246185 0.12946641 -0.0077460874 -0.1166429 -0.011933665 -0.25754273 -0.12979105 -0.9887889 0.43422815 0.43059343 -0.1372092 -0.71753144 0.20838706 -2.1924512 -0.6333187 -0.21789317 -0.624804 -0.3928079 -0.0310208 -0.27595204 -0.7116339 0.1869868 0.13363782 -0.44769666 0.29233187 -0.2999386 0.21207006 -0.32958108 0.39375204 
seen -0.1198156 0.432888 0.30368856 -0.097756214 0.06355246 -0.032371037 -0.17507586 -0.14687684 0.21340439 -0.34340462 -0.18205513 0.11358355 0.7369567 -0.058662664 0.38221171 -0.18089269 -0.24074471 0.121943995 0.2584121 0.33057806 0.56533533 0.23661073 -0.0063916 -0.11456868 0.18983129 -0.22209394 -0.20422803 -0.27875635 0.116671585 0.094804294 0.56926626 -0.25225082 -0.18550943 0.3041382 0.39630213 -0.028753156 -0.08725704 -0.2543588 -0.13764518 -0.09907605 -0.6474749 0.12606096 0.2250343 0.30439314 0.07745015 0.20285712 0.6219442 -0.007992998 0.028562577 -1.2671379 0.22064373 -0.30438676 0.21685275 1.5556902 -0.06668231 -2.3783278 -0.4504998 0.05294354 1.1250123 0.21656214 -0.3618281 1.217926 -0.46464923 0.0859337 0.62945265 0.54668677 0.67193544 -0.24006607 0.14587311 0.031416155 0.104808114 -0.55847603 -0.2786588 -0.07086168 -0.054698333 -0.50716066 0.23430617 0.37571263 -0.7569885 0.10997975 0.5590563 -0.19719508 -0.31566796 -0.39339232 -1.4302032 -0.90536964 -0.09508239 -0.34523454 -0.027254336 -0.47179857 0.17212015 -0.45540005 -0.10896592 -0.09840578 -0.4830092 -0.013171204 -0.30460042 -0.29620597 0.50957084 0.10552703 
any -0.22672768 0.0025599797 0.32925406 -0.06469141 -0.28239033 0.2642565 -0.41593966 0.010280428 0.50016284 0.4212198 0.08751769 0.3796791 -0.016117373 0.032529954 0.27845764 0.13507642 -0.3269614 0.496936 -0.11889018 0.51263607 -0.36898258 -0.40566546 -0.3343548 -0.64165926 -0.06096032 -0.062215872 -0.013914706 -0.73814327 0.039765734 -0.37750968 -0.090901956 0.54727966 -0.2236425 0.20256394 0.47866535 0.43402004 0.042549428 -0.0452855 -0.22423401 0.014506389 -1.0162575 0.065133765 0.78033423 -0.51202565 -0.012429084 -0.18237182 0.34353712 -0.55056715 -0.5064285 -1.2127215 0.8204933 0.32606688 0.2524892 0.82504594 -0.047849275 -2.4133492 0.42477515 -0.24779025 2.4101186 0.47182798 -0.44627252 0.5561911 -0.6041359 0.24990763 1.4156294 -0.35824326 0.8895758 0.6275233 0.013745612 0.058305148 -0.47194353 -0.672287 -0.14209947 -0.59377456 0.83938795 0.09509815 -0.10313996 -0.7724656 -1.511296 0.49815407 0.6860068 -0.36875924 -0.13860425 0.47862324 -1.5172195 0.06361214 0.38684854 0.40501326 0.46544898 -0.6091131 -0.54529876 0.04424069 -0.12715203 -0.14256307 -0.4545931 -0.13928507 -0.21447337 -0.2996507 0.8225645 0.3452431 
restaurant 0.24149624 -0.3544797 -0.26319838 0.31192622 0.11184717 0.38701665 0.55915517 0.1731389 0.22764204 0.44656578 -0.36548945 -0.42405054 0.3010668 0.39361897 -0.60248536 0.30320626 0.37025276 -0.38649127 -1.1734426 0.667466 0.21281883 0.50039184 -0.5182838 -1.2397333 0.46471348 0.007474709 -0.26736772 -0.5112157 -0.8481366 -0.69540817 -0.26535058 1.0447531 0.8260885 0.3166555 0.6565272 1.0249542 0.2953893 0.18513994 0.60491806 -1.3219293 1.0300407 -0.3045782 0.1054366 -0.29174212 1.201779 0.66394717 -1.3285185 -0.0050605186 0.61968994 0.10028139 -0.31100413 -0.76917076 -0.27256504 0.38628766 -0.98205066 -2.000268 -0.60640293 0.39942664 1.2007143 0.042552125 -0.6330756 0.71789515 0.91548485 -0.18719134 0.23687734 -0.30397758 0.35029322 -0.3249232 -0.10941213 0.25330788 -0.7535087 0.6609148 0.13052894 -0.049721874 -0.33046815 0.05137425 0.5224638 -0.6283309 -0.16818756 0.18094566 -0.10000384 0.0108132 -0.14216372 -0.03747757 0.11974888 -0.72975576 -0.37636703 -0.3015164 -0.20549881 -0.3703351 1.1749532 -0.039723095 0.68377006 -0.4273721 -0.9156265 0.47501776 -0.089774646 -0.20549963 1.4849247 0.86340606 
that -0.11636459 0.20345248 0.7018075 -0.59280485 -0.35057932 -0.1320851 -0.17848995 0.18741351 0.16187146 -0.079324774 0.023029512 0.42584294 0.7763729 -0.037473965 0.38973266 -0.2043989 0.3179521 0.18811567 -0.49500212 0.21666178 0.16225034 -0.616842 0.3807127 -0.1311181 0.24464554 -0.078435905 -0.1751065 -0.6044203 -0.3110421 -0.34287095 0.30409047 0.73465717 -0.10531558 0.28996545 -0.35670456 0.4332031 0.2473059 0.53966826 -0.42229107 -0.24038054 -0.7833893 -0.077729255 0.16386546 -0.2526383 -0.33231798 -0.12747352 0.65573156 -0.7324312 -0.33779 -0.8374856 0.06466283 0.10425467 0.36451322 1.4283497 -0.080071434 -2.8773394 0.0657088 -0.31601405 2.0025537 1.2579252 -0.16019653 0.6881348 0.27467257 0.37896565 0.98553115 0.2903555 0.67348623 0.65935117 0.19491383 -0.64843607 0.42916632 -0.64259714 0.14092998 -0.5131541 0.36818928 0.018173937 0.11170207 -0.035023697 -1.8271056 0.13980904 0.7630558 -0.2717669 -1.0974233 0.20708022 -1.8590472 -0.7153713 0.0825634 -0.30613127 -0.43910328 -0.3347765 0.018753449 -0.4692575 -0.37848723 0.05762904 -0.22011322 -0.516527 -0.26928407 -0.5380096 0.30153933 0.5364013 
serves -0.33772174 -0.07446311 0.3536876 0.30833277 1.1479006 0.5616044 0.17094877 0.6425518 0.1970003 -0.15398538 -0.3428566 -1.0110524 0.4019853 0.77895397 0.24244256 -0.5347081 0.19400068 0.048156485 -0.79999655 0.27513334 0.19018395 0.24903017 0.2971072 -0.29177782 -0.3682345 -0.44340697 -0.27776116 -0.020610876 -0.37034035 -0.048344597 -0.540209 1.4402075 0.5042758 -0.2467318 -0.28148887 0.35115194 -0.17878729 -0.022866735 0.4871015 -0.19264212 0.15620267 -0.6444696 0.23091874 -0.5800822 0.85450906 0.17927201 0.20268744 -0.44359723 -0.33410457 0.25055107 -0.65114135 -0.8226069 -0.01118958 0.25365993 -0.27531132 -1.939222 0.30146456 -0.3172762 1.440815 0.25271615 -0.10246357 -0.21206312 0.70331943 -0.25300458 0.3136707 -0.659931 0.1054945 0.07745509 0.65453106 0.44226632 0.23660949 -0.021905469 0.7786474 0.12555277 0.43942714 -0.0497825 0.31751153 -0.0611489 0.16147433 -0.4603904 -0.043702196 0.22520117 -0.66548747 0.044127412 -0.56383955 -0.18614009 -0.07062035 -0.0157006 0.852039 -0.22259843 0.25747612 -0.16414846 0.13562925 -0.044202268 -0.10547172 0.32808623 0.26427147 -0.7597102 0.71282977 1.2828273 
a -0.21581942 0.07591582 -0.013550369 -0.13869122 0.6222224 0.5734454 0.36585078 0.46830335 -0.20244963 0.68683445 -0.7309132 -0.0034308657 0.032817345 0.030018162 0.37894762 0.2024446 0.28613216 -0.59272504 0.03923613 -0.016317442 0.58357185 -0.11185014 0.08715983 0.0006923717 0.64148206 -0.3205108 -0.76379985 -0.4125429 -0.27047378 0.15302677 -0.44020152 0.7313805 -0.119417325 -0.1892306 0.20536563 0.36851275 -0.19502787 0.27283904 0.6858296 0.29372796 -0.18338926 -0.01425896 0.92879933 -0.24587525 0.59151727 0.10587171 0.5652316 0.2746724 -0.5729602 -0.78361076 -0.1540326 -0.50614 0.018669823 0.82108146 -0.5566613 -3.6087418 -0.1143439 -0.20128314 2.2326233 0.31750095 -0.05506365 0.5536864 -0.60076267 -0.14285444 0.7594106 0.26201516 0.375593 0.5740451 -0.06009839 0.18253145 -0.5270559 0.07175313 -0.17937525 0.12962586 0.052695163 0.12633546 -0.22190201 -0.4315182 -1.4612352 0.23587978 1.087402 0.06185775 -0.30337963 -0.014479479 -1.0785453 -0.35357827 0.8776053 -0.2353438 0.038144726 -0.9261237 0.72244316 -0.06717604 -0.4789374 -0.050659407 -0.051573005 -0.143244 0.04089921 -0.48593354 0.5705414 0.28005594 
egg -0.51259714 0.8406478 -0.4882053 0.026072672 -0.5489011 0.40372348 1.2820501 0.1998329 0.17110598 -0.47782207 -0.67158103 0.3069281 -0.07870054 1.2953129 0.5035626 0.30946672 0.34300476 0.0667284 0.45441267 -0.5597641 -0.70722497 0.087820254 -0.19929959 -0.46272096 0.39186203 1.425918 -0.45931184 0.46141937 -0.58006924 0.14099759 0.42691663 0.5347586 0.425379 -0.28473824 0.06217463 -0.43484575 -0.32243118 0.3617095 -0.14151359 -1.0938488 0.09456016 -1.7123525 -1.257492 -0.4362722 0.59706 -0.19451068 -0.5147867 -0.11258062 -0.5660496 -0.7146181 -0.5350375 -0.4030509 0.22162138 1.1201738 -0.81340015 -1.2104733 -0.64719284 -0.13448155 0.5663552 0.43822226 -0.10689818 0.10125432 0.57446027 0.4670685 1.4100529 -0.46262562 -0.27737647 0.31226856 -0.122480884 -0.82616854 -0.03881889 0.1775055 0.05097657 0.36024046 0.5748744 0.3186259 -0.5234703 -1.5396587 0.35829878 0.14950828 0.3606541 0.7394472 -0.21854581 1.1817356 -0.5744127 -0.53827745 0.23917234 0.07451158 0.33791766 0.40640566 0.30588022 0.4129052 -0.096874356 -0.37914178 -0.4023335 -1.5750225 -0.20113818 -0.20910762 0.8487686 -0.36108908 
breakfast -0.9175386 0.098715 -0.11075968 0.19339727 -0.3059222 0.49161395 1.1179175 1.0054829 -0.58528817 -0.650246 -0.14208494 -0.31690222 -0.21038423 1.0919309 0.16664262 -0.2723293 -0.22030899 -0.47973597 -0.6277601 -0.11643824 -0.33664647 0.11001807 -0.5039768 -1.2752552 0.15878151 0.33766526 0.16685335 0.14132208 -0.76085293 -0.18981569 -0.36027166 1.1073004 0.63025963 -0.14509813 0.44682422 1.6188163 -0.19738491 0.28898513 0.31282255 -0.50671285 0.27539232 -0.5980798 0.045072697 0.01495781 0.48812935 0.17200735 -1.2596182 -0.71518457 0.2710897 -0.6787189 -0.40958956 -0.30564252 0.445836 -0.08783899 -0.44551927 -1.6865573 -0.23885572 0.48941693 0.51538885 0.016643513 -0.38211632 0.3668361 0.29999483 -1.0891765 -7.2200266e-05 -0.62070185 0.26934102 -0.20539303 0.7482751 -0.7131619 -0.46359405 -0.18863662 0.32259032 -0.26532257 -0.47957 0.9235702 0.18383342 -0.4677264 0.2916298 0.17107701 -0.82289463 -0.07442706 0.72690475 0.014966391 -0.40944716 -0.36256695 -0.021345183 0.2972277 -0.13655786 -0.2836037 0.71470904 0.20961681 0.52870226 0.09148297 -1.5105524 -0.57245815 0.6028282 0.041753467 1.7850606 0.71410006 
especially -0.49353004 0.47811452 0.27224728 -0.079658225 -0.031768695 -0.29038638 -0.6594775 -0.38286805 -0.22829287 -0.23694216 -0.6490602 -0.75404215 -0.008902163 0.21599223 -0.014554624 -0.2992029 -0.22011827 -0.40418372 -0.3325502 0.6553081 0.12785082 0.08393317 0.23908225 0.0018305171 0.1520676 -0.049961105 -0.1995376 -0.26002866 -0.19351465 0.24298519 -0.26351497 0.041132323 0.22755936 -0.3915842 0.43531862 0.16466112 0.19415572 0.32384184 -0.261619 -0.21818335 -0.19948125 -0.16206205 0.09195837 -0.118824646 -0.09363036 -0.41176483 0.9785031 0.3366913 0.17860906 -0.8751437 0.22974288 0.19290368 -0.3013235 0.83804715 0.02893142 -1.9662391 0.06609523 -0.19979033 1.4218522 0.114228524 -0.6639218 1.1729865 0.12021975 -0.41192368 0.85379934 0.09295588 0.48913327 -0.29885834 0.68516 -0.3719551 0.13516018 -0.54588103 -0.11901213 -0.044025477 0.33585036 0.19457129 -0.10384208 0.2656403 -0.29743814 -0.023121638 0.6802737 0.26638108 -0.6380124 0.12817207 -1.681766 -0.00035469022 -0.45503178 -0.13102317 -0.6233899 -0.7128617 0.0889236 -0.29650894 -0.14297855 0.010468497 -0.8547613 0.4163551 -0.899829 -0.33480307 0.4414112 0.21852098 
for -0.0045062993 0.46413988 0.20599727 -0.035881743 0.565995 0.31204793 -0.15970735 0.18171488 -0.73058325 0.20060769 0.17057043 -0.42339966 0.04524736 -0.13421267 0.30319837 -0.4997074 0.6735321 0.06468867 -0.15966757 0.6026371 -0.0696594 -0.35677212 0.3542263 0.18085146 0.06677229 0.15906912 -0.17787257 -0.743333 -0.055744927 0.103885494 -0.32735258 0.27464625 -0.34642172 0.21482728 0.040462323 0.66339415 -0.07747969 0.7253765 -0.4466488 -0.19761206 -0.64848286 -0.24522088 -0.028514542 -0.34439325 -0.062575914 0.22964126 0.30757806 -1.3917855 -0.59200084 -0.7682438 0.2256162 -0.06768677 -0.040564325 1.7860631 -0.79576385 -2.519441 0.0838344 -0.63236743 1.9920975 0.4880506 -0.5061774 0.17764539 -0.22451706 0.4752753 0.6041311 0.07964926 0.87411785 0.61922765 0.16418634 -0.32587108 -0.48847234 -0.5497997 -0.69720274 -0.1439656 0.005846821 0.04589042 -0.3482392 0.39931998 -1.5427532 0.03739371 0.95299447 -0.23304886 -0.3692218 0.55726576 -1.5319647 0.04229054 0.33144417 0.19316833 -0.49652535 -0.49054605 -0.1993777 0.024365287 0.047820576 0.22636361 -0.60656583 -0.10669347 0.14876729 0.45567632 0.923659 -0.2685337 
$400 -0.055949453 -0.029114572 0.07486084 0.04486685 0.062038638 -0.038781673 -0.07458596 -0.08236079 -0.06990239 -0.00935736 -0.07241659 -0.07499693 0.06899209 -0.016543666 0.062001947 0.072787285 0.031996816 0.067932844 0.06555608 -0.04987792 0.061354417 -0.06152407 0.07212754 -0.06202668 -0.070186704 0.033057645 -0.07003248 0.031141905 -0.064183734 0.06977635 0.06616834 0.0762533 0.029994698 -0.06760392 0.0795919 0.021222709 -0.037687875 0.07407509 -0.06699721 0.06608131 0.044509504 -0.07942807 -0.04557179 -0.046839584 0.058901973 0.07533519 -0.05710611 0.059798334 0.0665936 -0.078007445 0.082715735 0.074249096 0.06184646 0.018867198 -0.077377945 -0.046773966 -0.071248144 -0.06298096 0.07460262 -0.036801048 -0.07534166 0.07393448 -0.014880914 -0.020085804 0.031927772 -0.067775376 -0.04300491 -0.05321142 0.059244726 0.026332088 0.047373626 -0.029157909 -0.06348407 0.06646112 -0.039629657 -0.07337953 0.01193084 0.05357188 0.029602164 0.054586288 -0.06337402 0.043315202 -0.073783904 -0.045332227 -0.036075696 0.041249014 0.07055731 0.07912118 0.06754183 0.007937937 -0.07303186 0.02417561 0.034637947 -0.057584625 -0.066689506 0.0017994624 -0.06380832 -0.0518843 0.076195024 0.017807687 
0 -0.61491 0.92734 0.55826 0.0057455 -0.67172 0.61189 0.99226 0.27641 -0.64889 -0.51675 1.1789 -1.1631 -0.90994 0.5714 1.0018 0.20675 0.36751 0.46931 0.096868 1.4351 1.3924 0.4589 0.65491 1.0463 0.11249 0.56988 0.76595 0.45246 0.48627 -0.74383 -0.21478 0.7041 0.068082 0.54945 -0.012204 -0.18558 0.4266 0.90742 -0.62418 0.56063 0.9091 -1.4814 0.39494 -1.2353 0.39864 -0.86375 0.51337 0.36805 0.2084 0.068722 -0.011695 -0.48135 -0.61458 1.2844 -1.2055 -1.929 -0.48368 -0.67811 0.15408 0.15402 -1.4051 -1.5294 -1.2464 -0.38637 0.89358 0.71173 -1.0529 0.64586 -0.16673 0.53946 -1.1164 0.19146 0.55717 0.031212 0.76968 -0.59599 0.05137 -0.61187 -0.56898 -0.34163 -0.1408 0.045282 -0.71647 -0.29842 0.16358 0.30357 -0.14735 0.052451 -0.15184 0.83193 -1.1335 0.61988 -0.14507 0.51219 -1.2197 -0.39897 -0.38261 -0.092153 -0.079833 -1.2843 
all -0.2228751 0.7436607 0.6413456 -0.4838639 -0.24706595 0.48501882 -0.22702616 0.52391607 -0.31979915 -0.24317883 0.7639081 0.031163853 0.40965757 0.04147743 0.20201536 -0.5497581 0.04689057 0.83068985 -0.5217834 0.6206164 0.29972163 0.05480027 0.39522034 -0.54626924 0.345071 -0.39230287 0.21735965 -0.41631228 0.083184525 -0.37860373 0.2748383 0.14970651 -0.15744592 0.005061577 -0.070135996 0.25027198 0.10067855 0.25053844 -0.67176896 -0.04338711 -0.78480005 -0.2513618 0.16759779 -0.10130583 -0.009476286 0.2990113 0.017229354 -0.47766453 -0.06441167 -0.74779075 0.0019126608 0.23556273 -0.26384538 0.85706973 -0.43986654 -2.1532617 0.12845823 0.0932502 1.9972829 0.99489444 -0.2380828 1.0195547 -0.28213277 0.32746652 0.68038857 0.070209675 0.7740323 0.36842299 0.21446721 -0.17146358 -0.057725176 -0.6584473 0.040143616 -0.32348776 0.31379586 0.38596103 -0.4245331 -0.23334152 -1.1417339 -0.37178755 0.8378709 -0.09289301 -0.25739172 0.91869545 -1.9208452 0.23015197 -0.23876125 -0.2503385 -0.19236939 -0.1745974 -0.55009955 -0.11177661 -0.45613244 0.014005709 -1.212354 -0.2955917 -0.6904255 -0.34307078 0.60636085 0.5880364 
in 0.010366437 -0.34443083 0.1557854 0.10262999 0.4018015 0.26089647 0.07495301 0.2237566 -0.51916176 0.5348699 -0.46643114 -0.43485025 0.024752693 0.7358053 -0.27179593 0.16273935 0.5113188 0.12847473 -0.24501066 -0.2935529 0.47018257 0.4731158 0.924125 0.73091584 0.21379754 -0.32611042 0.19607958 -0.38443577 -0.1571934 0.18992172 -0.22677957 0.105331205 0.09288272 -0.30688527 -0.20495021 0.5775287 -0.30271533 1.0159781 -0.4322365 -0.36634523 -0.19959813 -0.2948914 -0.11041489 -0.46373916 -0.01860469 -0.09623548 0.6756115 -0.79740363 -0.02728321 -1.0124415 -0.30346474 0.21997224 0.5102341 1.3580219 -0.66993755 -3.2333405 -0.27568763 -1.1499269 1.9034861 0.35688177 -0.86478734 1.2872003 -0.3184731 0.3580312 0.87363315 0.2773279 0.3667838 -0.07755849 0.42291737 -0.009354728 0.29931802 -0.48581976 -0.555284 -0.41656122 0.22098808 0.30683127 -0.055745035 -0.23832744 -0.91059756 0.05592058 0.51446486 0.34317616 -0.62300503 0.85330683 -0.8290797 0.04695097 -0.45024532 -0.61015 -0.2932361 -0.22054689 0.33585322 0.055626653 -0.13394918 0.9194988 -0.5345163 0.7283901 -0.16834162 -0.08698974 0.79639333 -0.31946078 
an -0.40692276 -0.30187 0.57481617 -0.17037593 0.32266846 0.42956516 0.22038125 0.25980228 -0.046244238 0.50913405 0.12087131 -0.31662726 -0.005940182 -0.36036533 0.48040468 -0.045314267 0.7242386 -0.17486952 -0.36755764 0.06816724 0.5334033 -0.14806768 0.3107534 0.13969657 1.1174947 -0.22472046 -0.08684995 -0.49647343 -0.16505311 0.08279752 -0.7089207 0.91438377 0.10084866 0.33488134 -0.34600368 0.007442968 0.45398572 0.7680732 0.3492241 0.16669752 -0.5345348 0.47304332 0.031201454 -0.70559365 0.33279628 0.053366948 0.56940585 -0.321988 -0.33753413 -0.7652327 -0.019417671 -0.46261364 1.3173641 1.1630293 -0.9838205 -3.4560883 0.20437215 -0.98678696 1.9564025 0.7910425 0.3799626 0.40409967 -0.04622401 0.26367444 0.5097105 -1.0669503 0.7637504 -0.15478308 0.054191515 0.21367298 -0.23904906 -0.61862403 -0.08024695 -0.8820443 0.5802063 -0.12551525 -0.5458761 -0.094620876 -1.7289226 -0.9562125 0.9803895 0.3010853 -0.33984336 0.023171157 -0.679189 -0.21155451 0.86723965 0.458927 -0.18077381 -1.0138235 0.3376486 0.11221741 -0.11316411 -0.003557202 0.2806029 -0.48333544 -0.4093682 -0.56472135 0.69813544 -0.20264156 
excellent -0.36168683 0.09194303 -0.09459429 0.39134634 0.08299833 -0.56812125 0.44378734 -0.06628349 -1.0269837 -0.2568084 -0.037232082 -0.83535844 0.11652049 -0.18351525 -0.4313802 0.004220536 0.33562443 -0.43880457 0.061292898 1.2638032 -0.63104934 0.47072944 -0.33140674 -0.6403886 0.27305964 0.10339185 -0.305226 0.19827904 -0.38553825 -0.516977 -0.8973231 0.5587242 -0.1693145 0.006604021 0.8849166 0.3572185 -0.22730337 0.6442435 -0.11248432 -0.20589435 0.7104167 0.22649093 0.38043344 -0.129749 0.5623263 0.19535887 0.18800549 -0.7221922 0.20532309 -0.7803017 -0.0080563845 -0.15172192 -0.0907566 0.61891836 0.14497598 -1.6866326 0.59424406 0.14144419 1.0123603 -0.5567931 -0.8685606 0.6371004 -0.6300469 0.40771312 0.20262821 -0.35585546 0.24427436 0.05728313 0.28060514 -0.059878092 0.3617607 0.4931747 1.0865413 -0.17772591 0.9190065 0.32779342 -0.15337278 0.03415154 0.5709433 -0.45619062 0.38710117 0.76764995 -0.20881708 -0.39543912 -0.8698651 0.09041542 0.4308477 -0.009816653 -0.46882036 -0.24320778 0.14621808 -0.42797077 0.22848237 -0.05888943 -0.47171894 0.25379488 -0.76724356 -0.89211875 0.19614872 0.7105037 
highlighted -0.6481551 -0.1996491 0.2715224 0.120968975 0.8013679 -0.5334674 -0.39559457 -0.12551889 -0.046046585 0.06875738 -0.592831 0.012609096 0.1807651 -0.19155942 -0.2893589 0.5256161 -0.4376381 -0.45468178 -0.51415503 -0.6332405 -0.026164288 -0.6039722 -0.13790071 0.40703547 -0.023929674 -0.5550853 0.18341349 0.71959037 -0.5365234 0.11775332 -0.11384209 -0.23906672 0.057661008 0.42619178 -0.21777754 -0.034988105 -0.28222522 0.34891927 -0.4322628 0.52892804 -0.30906758 -0.05420367 0.2188038 0.4852138 0.06468312 -0.08886743 0.5588122 0.03610168 -0.09495901 -0.5489169 0.239487 0.02266361 -0.37704748 0.7393967 0.002630257 -1.4107566 0.27383077 -0.099369444 0.09782307 0.30795336 -0.88365245 0.27686802 -0.06807893 -0.4208245 0.33023414 0.042685352 0.15440492 -0.14090674 0.28413874 0.13347843 0.20469835 0.5635819 -0.6312557 0.03212842 0.52457166 0.47637933 0.055581883 0.2640238 -0.6333678 0.2530563 0.1461239 -0.039545316 0.27204394 -0.17638148 -1.0954295 -0.86215305 -0.4462978 -0.14144938 -0.60488653 -0.19370167 -0.34053284 0.038466353 -0.6592371 -0.00570001 0.103215545 0.50975007 -0.5396825 -0.61653906 0.29218063 0.44532186 
by -0.23613897 -0.14009988 0.13334748 -0.12246641 0.36360404 0.7000968 0.12752506 -0.021972483 -0.4780768 -0.16152593 0.1448975 -0.645207 0.39684033 -0.6712861 0.13404089 -0.32182986 -0.14816345 -0.5118766 -0.64769363 0.07483134 0.1539593 -0.6919692 0.42049557 0.6179866 0.75534385 -0.45804647 -0.03808843 -0.4716752 -0.11447215 -0.009578375 0.12522666 0.023259917 -0.26852745 -0.14884539 -0.2960742 0.22006658 0.41597334 0.22441448 -0.3202799 -0.27286363 -0.508246 -0.105101496 -0.08516391 0.80161244 0.63438594 -0.4258774 0.10214954 -0.42787027 -0.25439897 -0.25037575 -0.2803895 0.7885456 0.20842023 1.5252559 -0.4757122 -2.9497795 -0.412218 0.11012174 1.8467971 -0.12690373 -0.20626698 0.66429526 0.30183372 0.7474643 0.6951905 -0.29366013 0.66566896 1.2217098 1.2762587 0.13395628 -0.6888723 0.12239601 -0.4080644 -0.45412886 -0.31545883 0.21728553 0.3553444 -0.11055564 -1.4207424 0.19571191 1.1231474 0.20417504 -0.23995711 0.56043726 -1.0334393 -0.12076317 0.20460725 -0.007330857 -0.45383197 -0.8932174 0.00043324288 -0.6962494 -0.7272036 0.58308357 -0.36452484 -0.15780194 -0.35103384 -0.4157527 0.3312159 -0.78264964 
great -0.36511835 0.23849002 0.19459827 0.046672653 0.080895394 -0.500356 -0.14273545 -0.7520191 -1.132397 -1.0862247 -0.708484 -0.5247725 -0.42471865 0.035603635 -0.50779927 -0.14537449 0.6872142 0.22166125 -1.390859 0.7301934 -0.27697742 0.4437244 -0.77033734 -0.9634271 0.9899908 0.12377383 -0.24955897 0.36088565 0.015750822 -0.6914171 -0.69002986 0.0955416 0.6360559 -0.39636156 0.21384628 -0.2833027 -0.30715838 0.9367764 -0.09166604 -0.5517312 0.18837276 -0.11622306 1.0208185 -0.5826731 0.7986516 0.4385035 0.6705019 -0.2373741 0.8158476 -0.11417809 -0.82925725 0.17456132 0.40935317 0.56741697 0.3178431 -2.8843074 0.10007576 0.32251742 1.2197104 -0.054046642 -0.44414723 1.567719 -0.7303381 0.29505143 1.0614234 -0.23510934 -0.015417217 -0.035504986 0.5939539 -0.36007598 0.7920447 0.225282 0.5287657 -0.6107337 0.6632715 0.43888393 0.36356264 -0.69640666 0.04022573 0.022336649 0.23731242 0.48299372 0.51959395 0.33049902 -1.0822914 0.3188373 -0.7040999 -0.69189143 0.10294082 -0.5816619 -0.17922813 -0.22067283 0.2068747 0.12836196 -1.2652537 -0.60517824 -1.1008462 -1.3769917 0.57931554 1.0038621 
service -0.4614915 -0.10515069 -0.49332246 -0.225524 0.07239185 -0.37910625 -0.16226229 0.5286814 -0.05586523 -0.01534592 0.35271546 -0.306041 0.24448211 0.172997 0.10999415 -1.0220773 1.3944484 -0.28221306 -0.60458165 0.15792862 -0.36475986 -0.06157606 0.10072215 0.070665404 0.46992594 -0.22829074 -0.27163535 0.4134406 0.04553565 0.116012186 0.18022789 0.9618291 -0.26619178 -0.61743456 0.18965827 0.46536553 -1.0652055 -0.08308301 0.06209856 0.075380445 0.40509555 -0.39808998 -0.2632787 0.15827617 0.71485305 -0.20057066 0.46453473 -0.6646157 0.39532462 -0.39538157 0.75865644 0.30166548 -0.22076307 0.91143227 -0.0426401 -1.9323428 0.29587048 -0.3584518 3.243005 0.92157096 -0.06680431 -0.3662376 0.5450232 -0.13942474 -0.09367936 -0.19436175 -0.3162643 -0.11852314 1.3422424 0.5506417 -0.1819454 -0.5758784 0.3186811 -0.522321 0.80935025 0.25234255 0.6452548 0.4751224 -0.96728563 -0.8676679 0.4837927 -0.28198847 0.48493636 0.6706195 -1.8322688 -0.3025947 -0.2041061 -0.18920143 -0.13283874 0.09835506 0.28766486 -0.25230384 0.116200976 0.08766567 -0.688758 0.0016975388 0.478418 -0.08390326 0.036983795 0.42266852 
unique -0.28052002 0.585272 0.29441208 0.55226636 0.62244195 0.00047459995 0.11079431 0.20374888 -0.12383471 0.2185537 -0.44762906 -0.55377 0.41372496 -0.26568654 -0.34464034 0.1120342 0.5265024 0.22881787 -0.18320198 0.35085565 -0.07790162 -0.46759635 0.031290993 -0.6098268 0.40857846 -0.39524478 0.462411 0.049308524 -0.4884081 -0.41782618 -0.3510097 0.73562163 -0.34868267 -0.1305179 0.7298672 -0.49005166 -0.1699275 0.20314312 -0.15093333 -0.569477 0.49180758 0.034196973 0.5824011 0.023220493 -0.047067888 0.47096768 0.51651376 0.33615232 -0.27035484 -0.42929402 0.08395387 -0.17792411 0.4437581 0.31360477 0.24231248 -2.180519 0.59119356 -0.41304263 1.3986559 -0.26702496 -0.20548113 1.2000422 0.083632186 -0.10190449 1.069825 -0.25168476 0.08260314 -0.33664462 0.5151904 -0.43536142 -0.103432685 0.3116267 0.22550707 0.019333577 0.844964 0.12753065 -0.32822242 -0.5209503 -0.17359418 0.07166626 -0.023719128 -0.24830945 -0.019867342 -0.118347675 -0.7424484 0.56469375 -0.016846662 -0.5608076 -0.22005631 -0.0755716 -0.14609037 0.029109713 0.29983106 -0.4838514 -0.15071584 -0.035009205 -1.3808866 -1.4252892 0.76647615 0.59316355 
menu -0.766117 0.11474861 0.27329364 0.0584421 0.49514997 0.3265068 0.6139454 0.13460183 -0.088379525 -0.2743898 -0.31668746 0.055082537 0.0091094915 -0.45246518 0.26415667 0.7977356 -0.53771627 -0.34896278 -0.38288632 0.006250605 -0.7092746 -0.27135727 -0.09008877 -0.9882389 0.41003343 -0.16284642 -0.25266516 -0.034141053 -1.059954 -1.0370741 -0.25487697 0.8460279 -0.14104086 -0.26305145 0.83596784 1.4220849 -0.09098348 -0.2831624 -0.06425771 -1.5717956 1.0565842 -0.6955562 0.3329223 -0.29912797 -0.011675961 0.79647547 -1.3877414 -0.5808506 0.26409692 -0.16854116 0.25041085 0.19241877 -0.85142046 -0.08092356 -0.8469206 -1.0994853 0.19215277 0.2613038 1.3485684 0.1034402 -0.4455905 0.6525439 0.7528799 -0.46288735 0.6023396 -0.86523557 -0.5095721 -0.39679298 0.27319357 -0.11987195 -0.054587007 0.40826756 0.27838224 -0.017811155 -0.5633669 0.77261114 -0.9370533 0.26801527 0.45680088 -0.49024716 -0.35474896 -0.98024535 -0.19870529 -0.06472557 -0.49313486 -0.27044424 -0.14212039 -0.45523384 -0.3031388 -0.41116047 -0.021784322 0.8697301 0.5148944 -0.22927633 -0.73310566 -0.20830016 0.025821991 -0.8834573 1.3701037 1.1196098 
beautiful -0.2893218 0.39603853 0.36663535 0.19137423 0.5506877 0.6069909 -0.6062995 0.8676032 -0.2792427 0.21615818 0.12492945 -0.0045545236 -0.07151324 0.007654635 0.15057321 0.4236381 0.29275233 0.1637648 -0.12057927 1.2493756 -0.18275571 0.27424982 0.01715621 -0.4565592 0.6794721 0.48245654 -0.6395263 -0.08770808 -0.45839402 -0.3398244 -0.48853418 -0.07692449 0.77842426 -0.32948673 0.7115521 -0.2149481 -0.15665404 -0.13099891 0.25919715 -0.852915 0.3905827 -0.11290632 0.17528716 0.048541088 0.18325377 0.30156967 -0.020595998 0.57020545 0.4428026 -0.010757716 -0.304095 -0.46673885 0.91272384 0.28584954 -0.13917825 -2.3612974 0.54545784 1.2292192 0.7574791 -0.8506132 -0.4098755 1.5987695 -0.7056164 -0.505124 0.6309023 -0.37895557 0.8345323 -0.068469465 -0.023769286 -1.1466638 0.61266965 0.4580373 0.4374769 -0.133241 0.93673736 0.3310611 0.1743196 -0.03208752 0.5459708 -0.28386542 0.013977112 0.47278392 0.34243146 0.32205322 -0.76687115 -0.25767052 -0.10705598 -0.43577042 -0.107557625 -0.58788097 0.4127993 -0.1361237 0.6381171 0.05038793 -1.0616821 0.2321851 -2.0084739 -0.91295844 -0.35812542 0.6123366 
setting 0.1759434 -0.14292563 0.3197595 0.6268475 0.5234575 0.55209255 -0.4179501 0.24537854 -0.5587879 0.28122813 -0.07179051 -0.4291619 -0.19218887 -0.120793484 0.0023374967 0.25233534 -0.15008064 0.37163565 -0.06370754 -0.4693745 0.25524983 -0.2918895 0.5862247 -0.24072528 0.10032193 -0.38139895 -0.8026973 -0.045412906 -1.0289284 0.20893762 -0.58461756 -0.4171649 -0.0040127733 -0.34882608 0.38923454 -0.47733012 -0.23798288 -0.4012137 -0.36235145 -0.13889624 -0.19351374 -0.08562944 0.46148208 0.24662097 0.05524474 -0.06536162 -0.39907062 -0.15703923 -0.27173734 -0.7625953 0.317248 -0.20861094 -0.053793818 1.2808142 -0.10860904 -2.5366569 0.49319986 0.14931823 1.4462314 0.687602 -0.33962262 0.20998396 -0.038151573 0.02039922 0.67904234 -0.033138756 0.0024388728 -0.08846112 0.17273834 -0.5038673 -0.3744111 -0.1352361 -0.16825984 -0.28307328 -0.30190352 0.13396917 0.26377288 -0.11751715 -0.38377032 -0.040508457 0.51517624 0.2820386 -0.44395489 -0.10015143 -0.80494916 0.42806584 0.08857437 -0.20729856 0.091806635 0.07002807 0.19945493 0.16536276 0.04090709 -0.3315062 -0.38468644 -0.025512967 -0.12687962 -0.19862112 0.6861829 0.08218357 
not 0.10618784 0.12824255 0.70771754 -0.7636082 -0.8376066 0.21575853 -0.3944908 0.4733352 0.59355325 0.32489714 0.46541092 0.6053276 1.0497346 -0.24243376 0.073277675 -0.79976076 0.14083008 0.6061258 -0.27596352 0.03418844 0.409796 -0.044785272 0.66950166 -0.027710881 -0.43601468 -0.17805283 -0.59343994 -1.1962967 0.52737355 0.25021955 0.62077314 0.5299084 -0.6927249 0.24481289 -0.06802762 0.68943477 -0.22393368 0.028542127 -0.5349566 0.10563168 -0.975864 0.45640197 -0.11532177 -0.6058859 -0.429289 -0.5417441 1.0669192 -0.7133365 -0.6632811 -1.6560943 0.49268794 0.038769104 0.039881364 1.371762 -0.3968237 -2.4674704 -0.21909569 -0.2532827 2.0429912 1.0355427 -0.1506967 0.36375225 -0.74740404 0.03901715 1.1981244 0.22348268 0.7464727 0.7611242 -0.45955348 -0.3986231 -0.58562607 -1.2780687 0.15090977 -0.46670017 -0.0091175465 -0.2992513 -0.5639954 0.4035986 -1.4738855 0.032979697 0.9016363 -0.74865764 -1.0574318 0.29040766 -2.2649589 -0.7332214 0.13930745 -0.3293509 -0.470696 -0.4308943 -0.20716567 -0.38184616 -0.33573344 -0.09030276 -0.26124036 0.21092705 0.13515559 -0.14287835 -0.19307308 -0.062343776 
my 0.13183674 -0.119800724 0.7519462 -0.53765947 -0.79031074 0.7428612 -0.17430286 0.5283589 -0.0037702408 0.30473846 0.44200468 0.61088085 0.59351885 0.26202807 -0.27887243 -0.63039404 -0.35873362 0.40305194 -0.25784674 0.26917216 -0.11125802 0.39335197 -0.17393619 0.2908133 0.42502975 0.86922455 -0.8057249 -1.2907425 0.98314077 -0.10048784 0.39693984 0.93491125 0.84719956 0.22806899 -0.70593715 0.6750126 -0.76776505 0.4586843 0.29394323 -0.55074525 0.032522183 -0.00783231 0.91301876 -0.8027777 -0.5912234 0.18874376 -0.21448208 -0.56547034 0.052945442 -1.3725045 -0.10026318 0.2221403 0.09476876 1.3208872 -0.27161896 -2.6334388 0.5664045 0.47486213 1.8741761 0.19107123 0.76524484 1.7849276 -0.6122074 0.12979056 0.85736907 0.36337274 0.7655215 0.13620529 -0.13346376 -0.21914396 0.13678947 0.8211232 0.8872176 -1.0241954 0.31863278 0.8190715 -0.5095672 -0.2919657 -0.6138259 0.043651596 0.22929895 0.5477727 -0.22406115 -0.018863397 -1.7988698 -0.43829152 -0.33793926 -0.33752587 -0.68556446 0.049538326 -0.42794275 0.40585673 1.0177307 0.656454 -0.4953821 -0.46746284 -0.21142916 -0.1994271 0.19931671 0.88778514 
thing 0.14443122 0.21829104 0.86730623 -0.75421035 -0.60884017 0.16543254 0.113451794 -0.061243813 0.5335536 -0.37873262 0.36236024 -0.13656342 -0.015027077 -0.019395526 -0.20272839 0.28562182 -0.1847981 0.5406731 -0.22070178 0.8525661 0.18395683 0.34190333 -0.60769194 -0.9322309 0.43452683 0.60533935 -0.3192572 -0.38852122 0.052681178 -0.5543884 -0.30109304 0.5666502 0.7041771 -0.23649439 -0.17304035 0.087516084 -0.70232224 0.19766802 0.53410524 -0.9327122 -0.15969658 0.10763984 0.43919086 -0.67126924 -0.9495058 0.069051385 0.48354495 -0.31120825 -0.4586653 -1.0381496 0.17354774 0.028946642 -0.10164368 0.7232336 0.20260687 -2.4801695 0.09382194 0.89370036 1.5024676 0.3724306 -0.32305545 0.80504584 -0.5970809 -0.42100257 1.3062657 -0.09908696 0.64093614 0.32004514 -0.0020420298 -0.42000398 0.42828363 -0.3350601 0.11335624 0.03199633 0.43248588 0.22552024 0.000978723 -0.38508028 0.07505646 0.24680743 0.10558767 0.086041205 -0.19441707 -0.009909568 -1.5035285 0.09076451 -0.43677744 -0.23109047 -0.22954574 -0.6560736 0.015940355 -0.16363817 0.2881874 0.06406041 -0.5624766 0.32421988 -0.10190015 -0.33791324 0.035233844 0.9692152 
have 0.095087536 0.5251348 0.07260473 -0.70815736 -0.15827791 -0.2437993 0.057719674 0.49461654 -0.1360659 -0.17371681 -0.2340331 0.23151138 1.0493637 0.45377585 -0.3426943 -0.546968 0.33888355 0.4940998 -1.1708151 0.07383346 0.52774817 0.19251779 0.53929645 0.2634471 0.09953769 -0.5824962 0.23783919 -0.46019083 -0.30777344 -0.6168496 0.60883987 0.7157441 -0.19452119 0.6043974 0.7475888 0.21133389 0.15063867 1.0151508 -0.09019774 -0.14157295 -0.47878733 -0.30184266 0.4853571 -0.65419066 0.18952987 -0.04850803 0.45266062 -0.5439663 0.84425396 -0.85199034 -0.08180799 -0.3879182 0.010412239 1.3794509 0.19223216 -2.2355616 0.22520064 0.008914582 1.3346674 1.3279139 -0.49342635 1.3741205 -0.50136733 -0.13409427 1.2777499 0.24019839 0.37744874 0.6381002 0.32342845 -0.53900886 0.26327723 -0.38106567 -0.054221336 -0.77280515 -0.31007975 -0.15851264 -0.037544657 0.1286211 -1.3523921 0.124892674 0.7939213 -0.07959598 -0.53544676 -0.14557607 -2.1799335 -0.3814773 0.56537104 -0.116204694 -0.6472349 -0.53587973 -0.3662591 -0.1490809 -0.21153773 -0.3026992 -1.0408859 0.15716231 -0.6537226 -0.6955667 0.7892047 0.53832936 
watched 0.21222427 0.284606 0.04412751 -0.41382927 -0.8242671 0.41768947 0.01826711 0.4836871 -0.3583094 -0.52983606 0.18342075 0.20847857 0.18876167 -1.0314255 -0.12609293 -0.13422449 0.09425564 0.7189663 0.008032119 -0.4858908 0.12749009 0.18681341 0.39457795 -0.0023162344 0.65894884 -1.018463 -0.054637633 0.5114535 0.52550554 0.3987396 0.38612577 0.1193104 0.12234317 0.90680176 0.35968164 0.14095144 -0.16110498 0.092414856 0.34870765 0.19326921 -0.4695748 -0.43048665 -0.10981362 0.4052191 -0.05795724 -0.10416524 -0.05080603 -0.047908787 0.14461355 -1.4217645 0.03532626 -0.5033229 0.4008943 0.8264472 0.11382733 -1.6171336 -0.575543 0.29399234 0.73010737 0.5846779 0.14265 1.0466508 0.09974041 -0.6830168 -0.19992837 0.46839398 0.21658997 0.45247054 0.13314147 1.0685425 0.23866992 -0.06687838 0.36136603 -0.1269176 -0.3888061 0.55930895 -0.020070698 0.13155241 0.21375746 -0.11820514 0.856867 0.42200673 -0.3911166 0.069239885 -1.3625437 -1.5194852 -0.56313056 0.050107725 -0.14230186 -0.26442313 0.6041053 -0.39182824 -0.13263471 -0.3464841 -0.7890701 -0.06049038 0.35951212 0.62775546 0.09542472 0.3473855 
their 0.20985785 -0.39900023 0.19343896 -0.45410678 -0.7648063 0.5539027 -0.71655357 0.25318828 -0.6089002 0.41045985 -0.30487794 0.11957542 0.5247443 0.35199535 -0.27293763 -0.6336889 0.47214192 0.38442558 -0.29514632 -0.10240203 0.25857103 -0.30499452 0.73786736 0.59436554 0.16524693 -0.3093291 -0.12152994 -0.6758937 0.3899355 -0.2986769 0.64291275 0.45254427 -0.41151688 0.096861705 0.003266156 0.029370632 0.015178443 0.56684726 -0.34199607 -0.23055924 0.024075955 -0.34884214 0.60866374 -0.031726897 0.13511652 -0.11080269 -0.13589582 -0.1512852 0.29628164 -1.0336938 -0.12172151 0.20534799 -0.22257906 1.7131011 0.07552275 -2.531823 0.71968764 -0.66776013 2.0017893 0.21172339 -0.18901977 1.2830321 -0.035773844 0.055274777 0.8692122 0.18687877 0.44573438 0.5127727 0.29392081 -0.5375194 -0.29222554 -0.16432486 0.043059833 -1.6724168 -0.078212015 0.29735002 -0.6941245 -0.48291868 -1.3591872 0.19024251 0.69335306 0.78866285 -0.20699163 0.43629536 -1.7801862 -0.41127774 0.02078394 -0.02232381 -0.7699617 0.17981416 -0.5075917 0.3031695 0.37428573 0.38284028 -1.1700068 -0.83885854 -1.0384067 -0.14607687 1.2756556 0.57634914 
prices 0.2430296 0.46439013 0.4287651 0.31825662 0.26566312 -2.1692166 -0.89701056 0.30592978 -0.1547049 -0.20228937 -0.3616945 -0.45651782 0.09193229 -0.33255333 0.045623925 -0.037037186 -1.6169103 -0.12938209 -0.0529483 -0.53825253 0.95253307 -0.6422023 0.6794613 0.6280299 0.14998427 -0.13227373 -0.13509752 -0.8435707 -0.9496279 -0.11774067 0.0865729 0.049462568 -0.5221424 -0.03621629 0.030224402 0.95881546 0.8490489 -0.11050404 0.24994804 -1.3082273 0.25035152 -0.97370887 -0.57823825 -0.3116076 0.93629456 0.16842046 -0.5023246 -0.54140764 0.4280161 -2.1034431 -0.18982211 0.2174697 -0.014714006 1.0079983 -0.4864187 -1.6301584 -0.5262246 0.2564918 2.1222165 -0.026007628 -0.38944876 0.1683684 -0.88112885 -0.1186817 -0.059483714 0.017712183 0.5071651 -0.688047 1.1077449 -0.52819777 -0.2387073 0.2200232 0.1117064 0.299786 -0.24709868 -0.046807718 0.39070007 0.047191832 -0.92589784 -0.17562094 0.76585114 0.30162516 -0.9521559 -0.9335084 -0.651575 -1.3055197 -0.2317165 -0.16636547 -0.30317917 -0.5566158 -0.25840443 0.39110762 -0.26847404 -0.7780606 -1.4698558 0.120728225 0.6625264 -0.31540185 0.8211959 0.042162955 
inflate -0.5970704 -0.35078833 -0.20594086 0.45180804 -0.3143831 0.11312959 -0.74643934 -0.2874062 0.5721582 0.3458946 0.40889004 0.74824536 0.48194087 0.076459475 -0.41037455 0.016879858 0.46089628 0.5734663 0.7106067 -0.6153 0.07264157 -0.6402284 0.4069501 0.53253883 -0.46869296 -0.078669295 -0.76100147 0.26543805 -0.36800328 -0.456028 1.3326217 0.20901626 -0.8367906 -0.42187083 -1.182657 0.22856954 0.5158875 0.32863525 0.105401635 -0.36110255 0.8492171 0.06978376 -1.167437 -0.40260467 -0.13870026 0.6302887 0.33995423 -0.6898936 -0.59816444 -0.8424666 -0.68283796 0.6855195 -0.12206029 0.83043027 0.23287907 -0.12348115 0.6126936 -0.06571137 0.39091566 -0.38970917 -0.46483952 0.042898998 0.090547085 1.0634807 -0.95963615 -0.4366936 0.60737956 -0.2616146 0.30029166 -0.5789066 0.17571951 -0.7690005 0.11999564 -0.051707048 -0.45621616 -0.17853384 0.40502596 -0.4795888 -0.42748705 0.22903554 0.21501598 0.7149873 -0.2728904 -0.5383099 -0.42839092 -1.3135928 0.0970513 0.28247654 -0.26529238 0.74120593 -0.4461681 0.18801887 -0.4782634 -0.9537413 0.34545964 -0.7179191 0.23943767 0.2311335 -0.52574146 -0.22955434 
portions -0.74130917 -0.0009181656 0.2667118 0.41910866 0.23496999 0.20116249 -0.17919572 0.71038824 0.21877521 -0.20195982 -0.39980564 0.09998195 0.21303067 -0.11475872 0.45019686 0.015776278 0.45446503 -0.18139303 0.06507796 0.44760618 0.3067659 0.3214011 0.30466488 -0.18623117 -0.41578093 -0.54223675 0.09777923 -0.0045747566 -0.82255334 0.31186604 1.0823694 -0.13736697 0.3765873 -0.5317622 -0.59706545 0.10660108 0.47083506 -0.20649113 -0.19285524 0.3689401 -0.13003801 -1.0283331 -0.30033085 0.38119704 0.37594262 0.38420227 0.2839126 -0.34744817 0.05774855 0.3916171 0.08413493 1.2026337 0.42259333 -0.41029906 -0.073125765 -1.1226835 0.48851308 -1.118114 1.222997 0.3298562 -0.19843179 1.2202033 0.71917653 0.11121943 0.7195905 -0.66212344 0.32509512 0.2352176 -0.2361894 -0.44112885 -0.042037643 0.29103053 1.0965204 0.49481365 -0.054820295 0.3854753 -0.15611748 0.31182387 0.47593382 0.040626314 -0.20365603 0.12629782 -0.6074058 0.052100766 -0.6943909 0.18936156 -0.07839656 -0.5056546 0.3762897 0.57685184 -0.20395829 -0.588938 -0.8667812 -0.24549027 -0.9327049 -0.33360365 0.31487137 -0.14778757 0.645968 0.102682695 
get 0.042013958 0.3769649 0.5196527 -0.64292216 -0.556061 0.18276732 -0.34197348 0.5151092 0.084620334 -0.38386965 0.33562636 0.4707538 0.30605397 0.1415229 0.21082659 -0.39879537 -0.024587631 0.26016736 -0.6517962 0.79958373 0.36710295 0.45353857 0.19273722 -0.5256934 0.14564496 0.0417818 -0.27724355 -0.74224025 0.56246877 -0.4358416 0.05574554 0.6815509 0.2755733 0.35333073 0.26680514 0.17895295 -0.5439995 0.0038496489 0.19003005 0.29112256 -0.23238286 -0.35150388 -0.3031335 -1.076565 -0.43892136 0.26483387 -0.5852681 -0.16471744 0.33248442 -1.0599058 -0.4488547 -0.047983922 -0.36886367 0.8842827 0.05927845 -2.478924 0.3753153 0.072565116 1.8960086 0.23291463 0.052651033 1.1731151 -0.9771039 0.2360277 0.64976454 -0.09172026 0.7516949 0.26140556 -0.17742324 -0.6333001 -0.050918538 -0.56994385 0.15468717 -0.5639832 -0.034542233 0.4885243 -0.6385119 -0.36675155 -0.49557272 -0.34437698 0.65544146 -0.21965384 -0.9389486 -0.27590623 -1.8451806 0.0008810203 0.31146976 -0.020833334 -0.86039066 -0.6299665 -0.14980757 -0.13209756 -0.10653086 -0.8196366 -0.5118929 -0.3904807 0.38787606 0.56300324 0.5643982 0.32877982 
smaller -0.46966138 1.0387815 -0.32431462 0.13905571 -0.10527407 -0.063679345 -0.24975823 0.01267382 0.42994705 0.119991735 0.076684855 -0.19803564 0.14915389 0.010249846 0.1466234 -0.49254137 -0.47035667 0.123170614 0.76726437 0.36733773 0.4869642 0.11442506 0.03500242 -0.01624676 0.13922487 -0.74995303 -0.4211891 -0.4283707 -0.23375751 0.57670784 0.76578397 -0.20374888 0.06657101 -0.83487415 1.1044863 0.4133807 1.0709428 -0.08620038 -0.35016638 -0.13421087 0.002137238 -0.6758488 -0.30260706 0.05779467 -0.06838585 0.07611091 0.38801053 0.5253738 -0.06310595 0.21415345 -0.15627368 -0.089128114 0.14862421 0.4513196 0.08791783 -1.9182097 0.02241409 -0.18235809 1.9249445 0.57720625 -0.3492925 0.8390594 0.23189238 1.2924147 0.4807794 0.06790021 -0.24581693 0.12865515 0.95555437 0.1186362 0.13579924 -0.45915338 -0.04424149 -0.035857216 0.11147027 -0.3659009 -0.16217174 -0.32777202 -0.32036978 0.7246052 0.3103622 -0.17916743 -0.63716316 -0.06168889 -1.3082583 -0.27395523 0.5772681 -0.45359397 0.119822234 0.14724626 -0.1353231 -0.1792492 -0.43288034 -0.6517747 -1.2070326 -0.1802146 -0.52036047 0.37895283 1.153158 -0.14405425 
management 0.4611988 -0.7006715 0.44345644 -0.42654425 -0.4169667 -0.34326553 -0.33795995 0.20989391 -0.48668694 0.39634073 0.6730562 0.15379003 0.48009622 -0.28131172 -0.28751248 -0.610499 0.3333547 0.091205776 0.05832761 0.047856953 -1.0526654 0.084916696 -0.24750194 -0.31877926 -0.8570502 -0.3194773 -0.113882676 0.24450733 -0.6832222 0.452629 -0.22303028 1.4154071 -0.8724026 -0.043548796 -0.7087005 0.18472567 -0.12651654 0.35989037 -0.07443496 -0.58297443 -0.15201186 -0.49776605 -0.45475826 -0.20114014 -0.2387445 0.4049779 -0.025941186 0.21818872 -0.48196965 -0.6314078 0.17474034 -0.620298 -0.8012443 0.92464644 0.6030488 -1.9150681 0.52256805 -0.4733501 1.8775481 0.4733908 0.4878966 -0.4620971 -0.4535306 -0.046979543 0.3815224 -0.3402547 -0.067015946 0.34028223 1.4483094 0.5282425 -0.7657076 0.17368223 -0.904082 -0.9122903 0.049678028 -1.2308474 -0.43341738 0.8296078 -1.1869662 0.32691133 0.990931 0.13203558 -0.6248467 -0.03135725 -1.3216333 0.28215224 0.30580285 -0.8128417 -0.5155912 -0.17673267 0.523223 -0.7891915 0.032600876 0.31579766 0.73268306 1.2110363 0.14846939 -0.15025212 0.7814874 0.2810776 
attitudes 0.60231555 0.371127 0.24456525 0.15883823 -1.3353285 0.44470727 -0.6458235 -0.82674986 -0.31901705 0.8082143 -0.8663041 -0.38237336 0.4827687 -0.49524748 0.9796686 0.11603971 -0.32586265 -0.039478563 -0.6538945 -0.06134938 0.39157826 0.043160707 0.21699652 0.06619503 -1.0255435 -0.6392988 0.72720075 -0.56469375 -0.024850816 0.1611321 0.3784703 0.97938263 -0.2110653 -0.039365247 -0.33649227 -0.16661607 0.22223134 0.012197575 -0.4894263 -0.0003811064 -1.1208717 -0.71746397 -0.9660299 0.57138294 -1.2241961 -0.7423386 0.07994801 0.54324543 -0.26337823 -0.987806 0.66281736 -0.07501668 -0.44761175 1.0952085 0.3304336 -0.6247926 1.0152106 -0.3067012 0.36825264 -0.19190557 0.09931691 0.70810604 0.4523643 -0.4553287 0.4771494 0.8507122 -0.19346389 -0.5453346 0.24833398 -0.49000293 0.15811814 0.13533229 0.12116127 -0.21532741 -0.19526118 -0.4290538 0.22583081 0.16108257 -0.4829497 -0.4800383 -0.10940562 0.46178952 0.39202634 0.25921068 -0.7024144 -1.1153545 -0.498304 -0.48015246 -0.7854879 -0.7529595 -0.6421101 -0.16593018 0.062407535 0.14242718 0.41766018 0.110897005 -0.6993763 -0.74891037 0.18013169 0.71785396 
grow -0.080328494 0.96638024 0.13980666 -0.23756224 -0.24719907 -0.5409311 -0.35986507 -0.0847878 0.5481484 -0.24551986 -0.4460583 0.18749525 0.46092933 0.15983005 0.29809305 -0.7783285 -0.054181628 0.92100304 -0.04810891 0.6642642 -0.3148896 -0.017990753 0.19765882 0.8623452 -0.196954 0.4937953 0.17893592 -1.1833634 0.44851276 0.35414863 -0.41035128 0.32517925 0.57886845 -1.203741 0.38433537 1.0436157 0.3132891 -0.30322918 -0.019196056 0.12414244 -0.041334208 -0.53508914 -0.9100782 -0.35958531 0.24174842 -0.6141733 0.76598924 0.37324673 -0.15229939 -1.3231133 -0.15854788 -0.78775465 0.008371608 1.1119943 0.39489025 -1.4841423 -0.31638932 -0.22911075 1.0754111 0.019465435 0.45100608 1.1209823 -0.60451347 -0.42983523 0.6371165 0.662982 0.2542994 -0.06268224 1.5872467 -0.59797037 0.9405329 0.009074711 -0.5362192 -0.5729419 0.02789645 -0.22623202 -0.73447526 0.099976316 0.14124174 0.23972294 0.59750354 0.36434525 -1.3290532 0.4013061 -0.36705545 -0.7068734 0.7177505 -0.20353903 -0.26186037 0.62977207 0.4743041 0.11706731 -0.061746933 -1.0458883 -0.37865636 -0.4786741 -0.14100091 -0.46332934 0.96420485 0.17613989 
rapidly -0.1708946 0.39771503 0.046699397 0.962436 0.012563266 -0.33784494 -0.17746346 -0.51224136 1.2136488 0.18652098 -0.26458555 -0.28768122 0.11997113 -0.8910456 0.246886 -1.1083825 -0.3487714 0.12618817 0.03659255 -0.92400646 -0.044581667 0.23715697 0.63551074 0.3546722 -0.14502047 0.26917222 -0.13105847 -0.652802 0.03681644 0.57609093 -0.09282475 0.37421504 -0.50106007 -0.48149824 -0.118990175 -0.22071977 0.12204166 -0.82218236 -0.5189798 -0.05644943 -0.6526688 -0.44624585 -0.93318397 -0.05496098 0.81082386 0.5684156 0.5969026 0.67963845 0.71528137 -1.1545821 0.13570698 -0.1389916 -0.048345756 1.4161434 0.17964372 -1.4710116 -0.18243285 -0.052666456 1.0983336 0.2837232 -0.124810934 0.8247076 0.021855729 0.02147661 0.48294213 0.586628 -0.2814336 -0.2948362 1.4022478 0.17790763 0.68467665 -0.43450773 -0.30877712 -0.4398348 0.6800916 -0.36237472 -0.6976793 -0.25460285 0.070703685 0.13650908 0.5124932 0.18235773 -0.6444282 0.31550896 -0.5674125 -0.6828789 0.60188365 -0.96148473 -0.856667 0.19597754 0.0670142 0.2435469 -0.49210873 0.100420706 -0.36646253 -0.20816676 0.14574692 -0.24156308 0.39230484 0.16634205 
overall -0.008637363 0.029079998 0.92080677 0.058331683 0.23672733 -1.2731115 0.14857091 -0.22441259 -0.85222834 0.22313282 0.045118444 -0.108828574 0.0050252876 -0.8924596 -0.1473287 0.47771612 -0.2560914 -0.25165886 -0.16430534 -0.055760443 0.12841453 -0.15869501 -0.023034642 0.49863756 0.042294182 -0.5548393 0.6395081 -0.2985459 -0.17721966 -0.53444445 -0.5385868 0.20824605 0.20402591 -0.17643456 0.022410238 -0.1241061 0.20234795 1.2233565 -0.24699295 0.6783839 0.91105133 -0.91786486 0.6492827 0.4601909 0.119740225 -0.17597084 0.33641768 -0.5292922 -0.26716104 -1.4506578 0.18351631 -0.36898145 -0.678656 0.8434233 -0.0034874368 -2.503667 0.82972527 0.05613049 1.2733562 0.049751353 -0.5011738 -0.07096712 -0.24885765 0.35104242 0.62202513 0.5563904 -0.5444291 0.02669355 0.65111107 0.045723885 0.6165319 0.17890961 -0.32650048 0.4368544 0.7576647 0.6267907 -0.7436253 -0.6381259 0.016023364 -0.77618855 -0.14511901 0.78278154 -0.69089925 0.4402351 -1.0531545 -0.7841012 -0.1751025 -0.5070563 0.052071296 0.26178852 -0.37758896 -0.24279888 -0.021416834 -0.16447493 -0.5449481 -0.19154885 -0.049350604 -0.4576951 0.8631837 -0.040563338 
experience 0.16259867 0.39989665 0.67767155 0.13247302 -0.2706442 -0.55558604 -0.019918801 0.40929568 -0.20221628 0.083346926 -0.2153738 -0.5843751 0.25491524 -0.24608968 -0.0056698616 -0.30093563 0.14884213 0.30657437 -0.5569698 0.50111544 -0.49927515 0.05177011 -0.45552433 -0.38907108 -0.628518 -0.29529402 0.17713144 -0.4167985 0.3763024 -0.61396235 -0.60306716 0.7188092 -0.79741853 -0.3453237 0.14148583 -0.122680046 -0.5951434 0.7071669 -0.16798699 -0.49667525 -0.537762 0.10528778 0.45434868 -0.5217499 -0.23699076 0.26144537 0.58203185 -0.670039 0.57144046 -0.91860586 -0.10242848 -0.6171708 0.14712751 1.0162178 0.83828074 -2.2572727 0.32879168 -0.11857342 1.4710048 0.510002 -0.17670406 1.1901214 -0.05835509 -0.90525913 0.35562965 0.043654494 0.35866663 -0.78881305 0.44759184 0.4190715 0.119385004 0.0030834172 0.27839106 -0.13362443 -0.08843701 0.4892835 -0.1143865 -0.4389686 -0.4572197 -0.15328537 0.063467264 0.6111507 0.010611503 0.32009968 -1.6093785 -0.07315447 -0.3490227 -0.5169228 -0.6466647 -0.84783554 0.20803468 0.09449496 0.692477 -0.0052594454 0.425557 0.50442445 -0.43884906 -0.5731252 0.35775083 0.7090063 
this -0.5575353 0.3993273 0.600143 -0.279605 -0.2329103 0.03291597 0.0574337 0.51196283 -0.02879034 0.23237632 -0.22331467 -0.045389783 0.20900069 -0.41707262 -0.06907334 0.02548923 -0.10637826 -0.071589455 -0.36395437 0.29970992 0.3343749 -0.44633254 0.12150276 0.31097862 0.41628966 -0.36259142 0.3117898 -0.5651318 -0.029293867 -0.40258285 -0.5485565 0.5711064 0.13450557 0.041496206 -0.102981284 0.47149011 0.039392784 0.39409465 0.1282326 -0.39349887 -0.26074785 0.18849255 0.34160593 -0.11843517 0.19222586 0.07130703 0.6849665 -0.6229458 -0.078399576 -0.9194558 0.20168981 -0.18025501 0.53452426 1.1603986 -0.5620867 -3.3317652 -0.1547795 -0.34123707 1.70554 0.43894377 -0.61323434 0.98644334 -0.36965176 -0.083338 1.1463447 -0.15284178 0.37289593 0.19101913 0.33971664 -0.26019102 -0.15594393 -0.36480594 -0.12810667 -0.40614218 0.12465714 0.016522005 -0.27554956 -0.2989732 -1.2977246 0.22313087 0.096484676 0.14325815 -0.69354844 0.16487691 -1.3023167 -0.015294075 0.15738802 -0.79419774 0.0025102992 -0.8378638 -0.006135942 -0.13472332 -0.50157017 0.16937332 -0.14725326 -0.08858685 -0.27997088 -0.7046988 0.47393557 0.42212716 
hole -0.6491772 0.18672074 0.8760719 0.098974615 -0.07564367 -0.25115556 0.7857278 0.34013698 -0.3713253 -0.15745685 0.7033002 0.9365087 -0.49235663 0.03103989 0.6579607 0.5142511 -0.29995367 0.1401331 -0.49173602 -0.3809747 0.098424055 0.98011655 -0.5697537 -0.20696937 0.8151889 0.09951158 -0.5593879 -0.60979664 0.3584494 -0.5653786 -0.47395793 0.2431646 0.72494036 -0.10887322 0.35464424 -0.3530312 -1.1903384 0.44252816 0.9881193 0.5849255 -0.3805532 -0.35320342 -0.12599398 1.0712702 -0.16976103 0.14256501 -0.04706622 0.98590845 -0.6799289 -0.36120373 -0.84153175 -0.24879053 0.0038932064 0.78837967 -0.3087456 -2.7256474 0.037237294 -0.1902112 0.91658306 1.1838146 -0.044943936 0.8058258 0.17307241 1.6247557 0.37547335 -0.3286996 0.1372882 -0.43298095 -0.3754902 -1.164526 0.0791852 0.89825666 0.38560712 -0.079093955 -0.4815015 -0.07861374 0.46858063 -0.52724653 0.2759009 1.4246937 0.1486386 0.11451812 -0.46450713 -0.26778534 -0.7245587 -0.024222719 0.34104663 -0.1050578 -0.023000987 1.087352 -0.1860114 -0.058722004 -0.008917799 -0.028081814 0.011203412 -0.06682312 0.75969565 -0.40041932 -0.034199703 -0.12767026 
the -0.030819526 -0.09520809 -0.056546595 -0.110828064 0.045677803 0.12677927 0.0007057767 0.11911059 -0.028460965 -0.11675234 -0.008379971 -0.013753265 -0.017590942 0.011104503 -0.02367968 0.05674121 0.061352216 -0.049185283 0.054810647 -0.03703375 0.015876204 -0.08970134 0.0023200957 0.1232969 -0.01295813 0.04394237 0.035955116 0.053906135 0.00076421566 -0.020710867 -0.006030584 0.072744705 0.0910744 0.06248329 0.045885257 0.0842402 0.071674764 0.00885777 0.07621077 0.03092476 0.017477477 -0.0816809 0.002714432 -0.081330076 -0.022979748 0.103781514 -0.034490142 -0.10923812 0.019615015 0.030887788 -0.008851826 -0.032603048 0.0749103 0.018267237 0.01963151 -0.0023866945 0.14496504 -0.050088387 -0.083899505 -0.08325814 0.03230439 0.005122748 -0.097267516 -0.093492635 0.03343483 -0.0649309 0.06392766 0.057132427 -0.059429705 0.026882553 -0.010106734 0.12389287 -0.052962627 -0.09856078 0.17231031 -0.07783328 -0.11735414 0.00679092 0.08074017 0.011301552 -0.05892001 0.037504252 0.05192401 -0.091894306 0.12884195 0.0127822915 0.15911852 0.1184847 0.08492981 -0.014766604 -0.04321271 0.23788643 -0.033361644 0.070654854 0.0015064118 -0.01939174 -0.004694088 -0.004268092 -0.039167292 -0.02184262 
wall 0.12706503 0.15221426 -0.01886512 -0.23369241 0.03610148 -0.12512918 -1.048767 -0.8286367 -0.15556148 -0.56534 0.7420301 0.10063447 0.28086495 -0.1223835 -0.014442807 0.7708562 -0.7696751 -0.2202247 0.058764957 -0.8347426 0.3401936 -0.15832536 -0.80154043 0.27016833 0.90095645 -0.81648976 -0.34110087 -0.35027963 -0.22557288 -0.20878308 0.7546061 -0.12692851 -0.11038931 0.7669485 0.08767888 0.18438508 -0.1945835 -0.13353 0.6915995 0.014128372 0.056650054 -1.149888 -0.212259 0.3891257 -0.1004398 -0.20958711 -0.035207044 0.4744736 0.2902303 -0.9713651 0.026572175 0.0449007 0.20083182 0.7083635 -0.6521514 -3.0467215 -0.55078244 -0.4123564 1.6293076 0.5035309 -0.2699579 0.7937944 0.20497373 0.64531565 0.036626782 -0.15329438 0.7230538 0.15731603 0.09410017 -0.7596452 -0.18781659 0.9619671 -0.36101136 -0.2738127 -0.3350302 -0.39350298 0.74433476 0.55439854 0.03829498 -0.051781487 0.8009288 0.70071954 -0.67813885 0.1607056 -0.4177059 -0.58902335 -0.58037144 -0.52021015 0.6750112 -0.21721719 0.8348555 -0.5701747 0.006055508 0.11609014 -0.15204792 0.13295044 0.39780843 -0.47327998 0.34340397 0.7221692 
has 0.12566732 0.5538856 0.48796085 -0.49029517 0.64792836 -0.2826134 0.020450383 0.42399675 0.08493739 0.21409078 -0.07548365 0.07480995 0.6882247 0.05970986 -0.19434813 -0.035831064 0.2214424 0.06866765 -0.20714231 0.32602522 0.31109953 0.17434298 0.12584296 0.087872215 0.2886003 -0.33574888 -0.13869578 -0.39118266 -0.7599261 -0.44346067 0.20942993 1.2896771 -0.27147627 1.0277082 0.4134684 0.42056292 0.1329462 0.5243425 -0.5522311 -0.06876394 -0.93038785 -0.26787823 0.6931521 -0.5057106 0.34577408 0.029733494 0.51581556 -0.58159804 0.90166944 -0.38974994 -0.108517505 -0.6977698 0.016809236 1.4207624 -0.1529051 -2.8877928 -0.33776706 -0.004844937 1.0548227 1.3971828 0.4247694 0.17974839 0.09828231 -0.18111505 0.81361187 -0.27059376 0.47468397 0.39293155 0.50088 0.15020955 0.57766664 -0.26648822 -0.36287418 -0.01645105 0.22833246 -0.5767473 0.09987128 0.27717003 -1.6225557 0.48703107 0.8638859 -0.0548311 -0.3016555 -0.054384083 -1.4793004 -0.49805915 0.34945974 -0.345325 -0.14169246 -0.49282736 0.052805457 -0.22629234 -0.6760964 0.107594244 -0.45144176 0.7744643 -0.49419916 -0.8089365 0.60942024 0.81654733 
mexican 0.7507572 -0.45164812 0.23824109 0.34319982 0.27942666 0.50203395 -0.42490664 -0.29282498 -0.19064416 0.1418124 -0.2894331 -0.46309814 0.09694417 -0.021605374 -0.25119537 0.5583837 1.0187792 -0.31680283 0.37292254 0.19251612 0.50991625 0.2718624 0.20568909 0.205417 -0.8821462 0.25405082 -2.4441677e-05 -1.6131525 0.2722352 -0.36661965 -0.13847522 0.30682167 0.1687236 0.26760197 0.17289992 0.040178377 -0.017169613 -0.16673258 0.9345118 0.02409076 0.20771582 -1.0799551 0.18928309 0.25649562 0.97282314 -0.36661103 -0.39503008 -0.20222071 -0.71895254 -0.0060752644 -1.0501301 0.31835333 -0.055950776 0.566597 -0.25044915 -0.90513164 -0.89194876 0.053809166 1.6698346 0.97241324 -0.52197737 0.8185133 0.5581788 -1.4156327 0.49255303 -0.38804948 -0.5133487 -0.191114 0.5599802 -0.016689759 0.43129537 0.21451454 0.17697865 0.31986818 0.26002282 0.7102751 -0.26077262 0.19026354 -0.8697582 -0.1043294 0.56797737 -0.6126908 -0.40886647 0.15480039 -0.49249002 -0.65158635 -0.70682234 0.45845538 -0.16981328 -1.6583416 0.24724089 -0.3408985 -0.98492557 -0.21705751 -1.0114335 -0.2992397 -0.91152436 -0.04991023 0.10342361 0.052438192 
street 0.49579632 -0.23833166 -0.3181182 -0.29084525 0.32659206 0.41809195 -0.6309576 0.031593397 -0.09092866 -0.36618882 0.08925254 0.13807596 0.07571448 -0.63094515 0.038918275 0.8878932 -0.054386783 -0.30805063 -0.09513415 -0.27445439 1.127681 -0.2146028 0.4713625 -0.5040711 0.21300577 -0.2887756 -0.21360451 -0.33149672 -0.0969438 0.46726084 0.167835 0.5374197 0.19715953 0.5645782 -0.059813395 0.35845575 -0.13565089 -0.5486158 1.1913283 0.3133409 0.05326534 -0.8389075 -0.340051 -0.40017283 0.5305718 0.11347926 -0.08863231 -0.025402669 0.8566241 -0.28051075 -0.2667421 -0.61405927 -0.15384182 0.42054978 -1.0219312 -3.2337673 -0.4251487 -0.16928425 1.1071134 -0.19833362 -0.8269092 0.46693498 -0.06704013 0.53890574 -0.11503693 -0.27369896 0.77826005 -0.6173231 0.6415014 -0.15990542 -0.6808353 0.042081416 -0.5383841 -1.0310873 0.34861526 -0.7359981 1.0413923 0.7164639 -0.47386837 -0.74941367 0.70342195 0.5148887 -0.21157116 0.27433375 -0.9039228 -0.7615709 -1.2979904 -1.0690769 0.71191674 -0.31265143 0.030265253 -0.4647182 -0.37410828 0.18135248 -1.2518004 0.11044328 0.867907 -0.0077580926 0.63232374 0.7995389 
tacos 0.12978029 0.25214618 0.06269336 -0.08415297 -0.039233357 -0.11038624 0.64101106 0.1604274 0.03471737 -0.46627584 0.29771262 0.29526696 0.25735295 1.320479 0.9162204 -0.12540524 0.16094325 0.24260412 -0.051629 -0.03142193 0.7778685 0.31013468 -0.056637563 -0.63906235 -0.061772957 1.255117 -0.013540981 -0.34785992 0.029329672 -0.21761854 -0.11382934 0.13843624 0.21090552 0.02188131 0.4007422 1.1907381 -0.2692045 -0.19887461 0.29943156 -0.82970864 1.1815057 -0.26204306 -0.4464729 -0.8700208 0.4942248 -0.44658065 -0.36647907 -0.21891817 -0.44604388 -0.4233237 -0.87542045 0.24405047 -0.047826793 -0.3061824 -0.7565751 0.6662508 0.4156795 0.36708504 0.06722187 0.2482468 -0.62226623 -0.15915295 1.2840928 -0.92691904 -0.37512764 -0.66958815 0.3655638 -0.31424707 -0.024105133 -0.287982 0.7264866 0.6179054 0.4016116 0.26878518 -0.21100345 0.22374737 -0.4812997 0.5597316 1.0010359 0.8335255 -0.021823075 -0.22004272 -0.08377225 -0.00014504344 0.13033527 -0.33087966 0.091090724 0.7715384 -0.37391254 -0.42222387 0.29299742 0.30973622 0.1367814 -0.49046797 -0.83509827 -1.0580605 -0.58739096 -0.30766964 0.6634585 0.31414694 
friendly -0.92795646 0.33060238 0.013666563 0.37400943 -0.1500765 0.004683915 0.70342827 0.012179674 -0.51000726 0.1485794 -0.8830959 -1.3404093 0.15471974 -0.16268489 0.34357795 0.7641915 0.64432615 -0.5590439 -0.25227 0.69830775 0.38257036 0.17764272 0.18720004 0.20441978 0.25612122 -0.07044395 0.078382745 0.54812664 -0.33743632 -0.009796494 -0.88543963 1.2386082 0.48551676 -0.2509657 1.646908 0.21874727 0.051373847 -0.31659976 -0.6024635 -0.64210886 0.4473793 -1.1628954 0.7825164 -0.508994 0.06156852 0.03419523 -0.44437546 0.42575976 0.61761594 -1.0442947 -0.38713995 0.007379917 -0.10889137 0.45380545 -0.030457178 -2.1565294 0.5747284 0.07639404 1.0049127 -0.032879043 -0.8276389 0.06241319 -0.54221874 -0.2470993 0.26764452 0.18787459 -0.461629 0.37508634 0.3052655 -0.9318186 0.58148193 -0.36297098 0.8300912 -1.1071287 -0.008432316 0.86793584 0.73812306 -0.9148779 -0.29905286 0.15781642 0.57835877 0.82901907 0.82399625 0.5264292 -0.7438895 0.5320723 -0.9627952 0.9557959 -0.57646984 -0.94767773 0.15759422 0.0174401 0.32915616 -0.09868435 -0.54707146 0.49279448 -1.0978664 -0.21624635 0.21228778 -0.055994004 
staff -0.72696066 -0.39465633 -0.329817 -0.4464736 -0.33726993 0.2913448 -0.024153728 0.50485307 -0.6098364 0.23640326 0.37188464 -0.7274081 0.56483 0.6098427 -1.0949924 -0.8281769 0.18709089 -0.31506276 -0.7441926 -0.3543354 -0.43120864 -0.25526497 -0.4655479 -0.18015896 -0.18264446 -0.7723333 0.1752491 -0.006863706 0.48360232 -0.38018385 -0.05584107 0.6592249 -0.30733055 -0.12611404 -0.6818861 0.6028254 -0.6515628 0.5513133 0.22145732 0.099146076 -0.13288598 -0.2796577 0.36119422 -0.007209096 0.75395197 0.2387543 -1.0222034 -0.65792674 0.15502086 -0.25993982 0.606382 -0.6539218 -0.6180951 1.1457783 0.14014979 -1.582481 0.37801528 -0.72331625 1.4820313 0.5447982 -0.15045357 0.5019396 0.11326159 -0.03856091 0.6182286 -0.9265164 0.5673186 0.88548255 1.03269 1.2418842 0.28225237 -0.015422671 -0.813468 -0.8735851 0.6388571 0.3172549 0.1048313 0.6921207 -0.2025249 0.10228428 0.20089322 -0.44112822 0.087543115 -0.4973284 -1.5112288 -0.25023034 0.551707 0.04382853 -0.26813766 -0.18106514 0.60994136 0.10842956 0.64118636 0.24430008 -0.6338513 0.21353126 0.061194144 -0.11929758 0.21971706 0.331817 
are -0.58242947 0.76294434 0.21160197 -0.751426 0.24290475 0.4495936 -0.53712654 0.6147778 -0.3764418 -0.7480172 0.050050475 -0.30677152 1.0215 0.7447114 -0.09042147 -0.8462339 0.19138676 0.41172352 -0.42577094 0.45209128 0.35562328 0.28809458 0.891547 0.4388991 -0.08581094 -0.26560292 0.63930386 -0.2798537 -0.49151573 -0.21139035 0.35400927 -0.13195314 -0.27855343 0.050354023 1.1790165 0.34681776 0.46794006 0.4295282 0.19582462 -0.117493086 -0.077583715 -0.49174055 -0.29078317 -0.5444819 0.06271458 -0.0597149 0.5382778 -0.03686474 -0.233061 -0.566363 0.22460522 -0.53655285 -0.039858837 1.4887962 -0.04874526 -1.8901814 0.6638644 -0.26942113 1.4166784 0.65384305 -0.6203101 1.2272214 -0.32533216 0.16449225 1.2777053 0.22090334 0.773972 0.759571 0.371352 -0.92807055 -0.29296458 -0.5631003 -0.3604037 -0.4952895 0.0015729865 -0.34484702 -0.08911309 0.52016103 -1.0316508 -0.37731123 0.5528491 -0.21012004 -0.96750116 -0.011200992 -1.9522752 -0.07916378 0.18937182 0.10053259 -0.20435052 -0.3712256 -0.9517598 0.23984677 -0.30219248 -0.1556581 -1.1940871 -0.19271548 -0.74592936 -1.2399905 1.245494 0.2842041 
also -0.39858842 0.14885034 -0.13833828 -0.26331472 0.89049065 -0.4162709 -0.2165349 0.25368908 -0.079999655 -0.15800633 -0.21171144 -0.47865352 0.5542582 0.47160977 0.0780235 0.017568633 0.6939898 -0.17403051 -0.45292267 0.3530157 0.4115946 -0.1924993 0.2296035 0.55017966 0.19027033 -0.1334343 -0.13239883 -0.17284839 -0.35499194 -0.08444011 -0.2364866 1.1377732 -0.42123127 0.57792026 0.55267286 0.36133355 0.2352812 0.8085668 -0.22983347 -0.07359073 -0.5707235 -0.29387096 0.3755103 -0.39704546 0.35312474 0.07039992 0.02125388 -0.5361697 0.74291956 -0.6865739 -0.23988482 -0.38311842 0.3505578 1.0574433 -0.30956653 -2.4435658 -0.52212566 -0.29993758 0.76037943 1.3442591 -0.116805084 0.4506911 0.15356742 0.30653617 1.1651707 -0.31717446 0.31338382 0.14747444 0.4675686 -0.36771894 0.28611448 -0.40613416 0.08405552 -0.12232247 0.20452411 -0.012105414 0.06107552 0.4647581 -1.1318818 -0.12882614 0.45887634 -0.2370605 -0.5760974 -0.29014075 -1.9298674 -0.48946005 0.038398433 -0.3331601 0.3760267 -0.115420975 -0.2449674 -0.55669826 -0.20257501 0.094050355 -0.5631856 0.43584266 -0.5226791 -0.93588686 0.7832505 0.43549448 
very -0.7778545 0.3289925 -0.09014534 0.10602386 -0.5457836 -0.07511156 0.061871275 0.29158914 -0.070698015 -0.29253644 -0.19216752 -0.18128052 0.38139668 -0.4613919 -0.30009392 -0.3434407 -0.6767059 -0.35328245 0.12058987 0.6936279 0.5028617 0.16485587 0.35102874 -0.29565784 -0.026696194 0.21804947 -0.16054219 -0.57834625 -0.17950514 0.3217401 -0.54025316 0.45836043 -0.009710128 -0.3359982 0.80611795 0.5309175 -0.05204762 0.14525792 -0.15652327 -0.31010458 -0.07794646 -0.07100009 0.32344002 -0.14842737 -0.08031074 -0.31461594 1.0228268 0.48206693 -0.23183273 -0.8526402 0.3159483 -0.21890157 0.16137344 0.9476311 -0.5189786 -2.7836351 0.26855615 0.041984748 1.3342237 0.124993294 -0.017425716 1.3336731 -0.58758146 -0.03303532 1.0520155 -0.3852137 0.7723011 0.2797141 0.41679814 -0.37254423 0.11886695 -0.47009405 0.46197164 -0.23789372 0.9251694 -0.032198865 -0.52214265 -0.25647715 -0.48463497 -0.15258327 0.65060073 0.17748334 -0.6245972 0.26025125 -1.6203548 -0.28322032 0.0045472123 -0.27576008 -0.5542716 -0.76629966 0.15452659 -0.04401508 -0.35769826 0.41024792 -0.21593913 0.25028262 -0.9396295 -0.71199495 -0.21469083 0.44365165 
efficient -0.73686165 0.16409996 -0.1643833 0.13539726 0.13410234 -0.5216608 0.13767362 -0.16307051 -0.12352358 0.7011753 0.06215083 -0.80062115 -0.16068427 -0.36250564 0.07787123 -0.7024687 -0.030228324 0.48995852 0.6465471 0.17889853 0.076916896 -0.10666447 0.07219116 -0.44444555 0.1818379 0.121339254 -0.39650434 0.12853396 -0.78027487 0.57444316 -0.45895544 0.58828366 -0.27824932 -0.8756379 1.2784841 0.24287702 -0.20354116 -0.4473982 0.15374398 -0.19157761 0.49901873 -0.819727 -0.2509383 0.3040522 -0.10251219 0.13004977 0.6544459 -0.17052396 -0.04790485 -0.7361776 -0.35042614 -0.12968145 -0.7471645 0.95042473 0.008000525 -0.7638058 0.511772 0.69007266 1.7419801 -0.74447966 -0.42000967 -0.76081413 -0.20088297 0.7680184 1.2107972 -0.36191347 -0.33261812 -0.37865326 0.5979684 -0.95756346 0.5651185 -0.72899586 0.41041696 -0.3818446 1.1634437 -0.31546766 -0.13483632 -0.47876155 -0.43274447 -0.48030564 0.9593866 0.7278294 -0.73835385 0.47549173 -1.32279 0.9517734 0.665022 -0.020769373 -1.1704847 -0.735692 0.7695114 -0.17317246 0.2083323 -0.1808968 -0.4202415 -0.2892243 -0.19021311 -0.62005085 0.5086699 0.141565 
bad 0.6939778 -0.28631094 1.309253 -0.8109348 -1.5178096 0.07262529 -0.850576 -0.18661429 0.21409412 -0.1750515 0.5269342 0.60347277 0.7120937 0.18984343 0.52171034 -0.061862327 -0.3678286 -0.03665059 0.76774585 0.9090078 0.4115402 0.64668447 -0.076648206 0.08367806 -0.62044454 0.086940445 -0.9449588 -0.37075496 0.22054419 0.35543805 0.4491018 0.39531296 -0.18227015 -0.36522993 -0.9557221 0.005740966 -0.76491 -0.34138024 -0.15907466 0.052057665 -0.3475067 0.16904101 -0.57618815 -0.48271438 -0.54583985 -0.25638202 0.3469231 -0.09311296 -0.35216334 -1.4272276 0.12170781 -0.018709298 -0.08676875 0.7243577 0.1345382 -2.453682 0.4260313 0.65654916 1.4193671 0.30547556 0.18103324 0.82731855 -1.2223821 0.10388435 0.37041414 0.09397654 0.79814994 -0.2548129 -0.0733053 -0.59034145 -0.6549755 -0.3373311 -0.045004655 0.5864056 0.44980884 0.0019850386 -0.45750237 0.744092 -0.6973449 0.47903466 0.9775961 0.03041518 -1.0214945 0.059836462 -2.002838 -0.56259525 -0.94779354 -0.68216264 -0.8428192 -0.20175946 -0.28211308 0.028888298 -0.30416578 0.115091704 -0.032484826 0.53653145 0.12916397 0.2924168 -0.10859444 -0.35750046 
day -0.48111677 0.52291316 -0.014121696 -0.24239703 -0.24963307 0.10236569 0.44638878 1.0747936 -0.9428692 -0.6224035 -0.1551596 -0.30669466 0.14203691 0.07849705 0.4730897 -0.28252193 0.256535 -0.2939994 -0.5421695 0.06528834 0.812008 -0.37105802 0.23936605 0.4365549 0.6441206 0.121726826 -0.26484698 0.13155808 0.2205419 -0.08044107 -0.6329992 -0.26821467 0.13962677 -0.051981073 -0.064831905 0.46042252 -0.3200158 0.39230722 0.23731226 -0.07342168 -0.57989186 -0.44994146 0.7254871 0.1354371 0.12537639 0.14146382 -0.2949186 -0.8540711 0.17599149 -1.026524 0.1345069 -0.70467955 0.5575169 0.96938926 -0.83548546 -2.679973 -0.28203338 0.15904956 2.1441023 0.5999022 -0.55117524 0.90868723 -0.19407888 -0.526165 0.036082905 0.50121003 0.35465533 -0.27081668 0.38513935 -0.38688353 -0.12896982 -0.41749468 -0.49624547 -0.38587028 -0.032436643 0.7006842 -0.09900555 -0.34897614 -0.95355546 -0.035052426 0.33559796 0.008546195 -0.055088095 -0.022920202 -1.4351763 -0.20853232 -0.19310495 0.034831416 0.42471597 -0.32579005 0.2336284 0.10179749 -0.16287714 0.2964596 -1.2348902 -0.049036857 0.5244743 -0.13485427 0.2696249 0.56218714 
or 0.26041347 0.6694345 0.30192834 -0.53929603 -0.24510895 0.74212575 -0.023570176 0.3491346 0.4846467 0.07314597 0.1300049 -0.1354741 0.14439479 0.71366405 0.61347693 -0.35458654 0.2941109 -0.04864795 -0.40178052 0.4722185 0.08918862 -0.15877694 0.26224375 0.39152798 0.58270127 0.14880592 -0.14583492 -0.7250908 0.16302991 -0.29656208 0.39427856 0.69166243 -0.5078224 -0.5963877 0.28637815 0.7496113 0.02482425 -0.07418277 0.00045318445 0.14359805 -0.33914527 -0.715642 -0.18677743 -0.7779444 -0.19719122 -0.20961776 -0.17999294 -0.1984927 -0.53242254 -1.5087396 0.23713304 0.24205644 0.5152772 1.3246956 -0.60839826 -2.0633326 0.25332177 -0.11318896 2.3475096 0.79084516 -0.30622828 0.78035116 -0.279339 0.23480399 0.89185244 -0.2540253 0.68384343 -0.19225849 0.6085361 -0.23918296 -0.9215669 -0.30498505 -0.19298382 -0.48501423 0.095264204 -0.07374949 -0.13139084 0.24143514 -0.5409227 0.22754405 0.17641152 -0.17870986 -0.6268553 0.40798885 -1.6466302 0.36181876 0.44650123 0.5905925 0.95068824 -0.12448852 -0.60463834 0.14649011 0.15806298 0.16954948 -0.74045706 -0.07177287 -0.16130428 -0.9394485 0.8453927 -0.5757307 
low -0.3388036 0.29312566 0.07209351 0.21034876 -0.6988793 -0.4325192 -0.3225981 -0.20710929 -0.8777269 0.5745167 -0.22255266 -0.011016409 -0.05133164 -0.1229516 1.1750867 -0.8465586 -0.68674034 -0.5861203 0.66725224 0.2591596 0.32279587 0.6778471 0.60561675 0.30131674 0.23246942 -0.119016126 -0.54558295 -0.58195025 -0.7230695 0.19211678 0.4059071 0.18945038 -0.2792091 0.20350611 0.23373745 0.37447357 0.4373541 0.22160935 0.0007691938 0.18228349 -0.095950745 -0.61942476 -0.8503001 -0.00931862 0.9776278 -0.15874352 0.39056236 -0.25823408 0.08114228 -1.1838455 0.07238819 -0.81009656 -0.22649556 1.0601078 0.057101462 -2.3739944 -0.083552256 0.024762375 2.3665853 0.023570262 0.19717541 0.1202262 -0.172367 0.111097455 0.019030884 -0.029983584 0.6458256 -0.56147593 0.58266604 -0.6005805 0.14442949 -0.21626808 0.19601451 0.4323381 0.07661122 0.11228393 -0.29578292 -0.16985063 -0.15266725 -0.117257066 0.8506897 0.30864778 -0.9056261 -0.9153763 -1.116572 -0.4409662 0.28479972 0.17171866 -0.14819655 0.10560355 -0.7557885 0.4237123 -0.3993072 0.22721569 -0.9218279 -0.21609713 0.1141191 -0.48318845 0.23216705 -0.6030038 
tolerance 0.7414296 0.39113453 -0.07633527 0.5163609 -0.50746775 0.8102114 -0.38625342 -0.5982355 -0.746852 0.62884545 -1.4195287 0.15482211 -0.35729563 -0.17501448 0.6142783 -0.08248969 -0.35673726 -0.32702705 -1.1112659 -0.043022785 -0.16450773 -0.442637 -0.54529715 -0.42901176 0.5128322 0.92028975 0.27379653 -0.34783307 -0.2481845 -0.13682812 0.22878887 0.6544117 -0.28859815 1.1407341 0.8192297 0.03987419 0.62608516 0.11924865 -0.656234 0.24005488 -0.77298796 -0.26532796 -0.09755902 -0.3555689 -0.38580653 -0.84692955 0.5534858 -0.03189229 -0.5787353 -0.62438095 0.36287737 -0.53126985 -0.81286067 0.9913105 -0.16314712 -0.6796595 0.7574147 -0.39942878 1.160142 -0.52403677 0.11976639 -0.38549954 -0.31111795 -0.9778793 0.22772512 0.6925495 0.2669702 -0.65598667 0.9037332 -0.8146791 0.23431714 -0.23357485 0.26677436 -0.07529114 0.04450498 -0.15282625 -0.17167448 -0.25240248 -0.29786915 0.23833443 -0.32697985 0.017539296 -0.12906685 0.59754795 -0.81480694 0.89082134 -0.38935837 0.03237377 -0.44510454 0.10380955 -0.5555028 -0.4876366 -0.62727386 0.5967674 0.038477696 -0.13924447 -0.08146201 -0.9703661 0.21458222 0.9185156 
rude 0.67519903 -0.2835893 0.6861362 -0.60619885 -1.1214356 1.0626606 -0.46180433 0.64950824 0.3939206 -0.020858174 0.06645364 -0.59908956 0.45017418 -0.29736316 0.8916749 0.3894695 -0.9099224 -0.52539986 0.23078196 0.6062304 0.96151334 0.11773288 0.027393762 -0.08044372 -0.63462585 0.57886297 -0.625276 0.5136926 0.66185284 0.29456702 0.09808752 0.31581452 -0.44078827 0.1936785 -0.17568849 0.49841923 -0.76618093 -0.7342045 0.44379944 0.08496171 -0.3632498 0.4734671 -0.84580487 -0.10719383 -0.08999328 0.4509791 0.17424734 0.5905277 0.14568904 -0.30052066 0.3259761 -0.26254997 -0.04722681 -0.33224958 -0.9228659 -0.3657948 0.921211 -0.24892451 -0.17939128 -0.7061429 0.69997954 -0.2047353 -0.96832293 -0.532535 0.1499137 -0.6370422 1.2866213 -0.5710197 -0.19971505 -0.5169611 -0.8694667 -0.38191733 0.10813526 0.030983802 -0.1375945 0.5995685 -0.1811789 0.6931138 -0.339424 -0.3013816 0.11324978 -0.81582844 -0.083777666 -0.15303002 -1.2110319 -0.38160783 0.29364765 -0.10963045 -0.11356422 -1.4743224 -0.11704162 0.49758404 -0.48322994 0.34579894 -0.15137249 0.13723806 -0.797862 -0.115307435 -0.6662127 -0.1292885 
customer 0.20572093 0.029374024 0.34740177 0.34319595 -0.38124117 -0.61226547 -0.44682685 -0.12022821 0.4285558 0.4442934 0.026050193 -0.08570925 0.72311753 -0.4675597 0.027818127 -0.3281138 -0.23192665 0.45518792 0.35111824 0.734788 -0.32845113 0.18144917 -0.20488164 -0.19709364 -0.15280429 -0.50375926 -0.17886034 0.2307645 -0.066153966 -0.09702665 0.6071875 1.3815931 0.28235072 -0.38037258 0.21892971 0.33970034 -0.057350606 -0.2571799 0.5899892 -0.42211574 0.8299311 -0.7155664 0.14915544 0.18972689 -0.008119062 0.5858187 -0.5095137 -0.21038693 0.3051294 -0.44144753 0.53785855 0.014791264 -0.5796836 0.36435786 0.05709234 -0.88345563 0.09746557 -0.61254114 2.0136573 -0.010738179 0.45301914 -0.5565783 -0.17877893 0.20278986 0.24081354 -0.7259748 0.38848174 -0.50838774 1.0459458 0.061020914 -0.37504846 0.09168684 0.038165938 -0.96420425 0.64365876 0.90814185 0.031931806 -0.659145 -0.8664737 -0.20245045 0.9201764 0.12139446 -0.49624228 -0.019693488 -1.5747615 -0.86214334 0.053440645 -0.72689563 -0.5335669 -0.29217425 0.04455528 0.8963854 0.41222903 -0.8951042 0.30783713 0.5413924 0.3350972 0.04956106 0.5109665 0.76648766 
people 0.18817483 0.8096661 0.17418356 -0.29258415 -0.5091045 1.1422299 -0.40510285 0.058594164 0.41968095 0.045817204 -0.11056811 0.035355907 0.82987905 -0.3154316 0.2164121 -0.5990783 -0.1641396 -0.35279164 -0.99914503 0.7812138 1.118695 0.35381913 0.89859617 -0.5892272 -0.25300995 -0.34211472 0.4636249 0.10191648 0.26335612 -0.32001624 0.5333152 0.59680325 -0.033291448 0.10269702 -0.08874796 -0.50334936 0.30414423 0.7000857 0.40766338 0.0038146232 -1.0793699 -0.22203806 0.12147877 -0.5212767 0.077249974 -0.029712064 0.081974015 -0.39339477 -0.85791165 -0.40462503 -0.52623504 -0.7411758 0.05010757 1.242907 -0.60198015 -1.7252446 0.47158682 -0.24970712 2.1617339 0.12040195 -0.33486152 1.4392495 -0.20446582 -0.20756638 0.41391507 0.83340067 0.6205362 -0.13467142 0.5122981 -0.76640874 -0.18693776 -0.50948447 -0.095878296 -0.41594017 0.12084688 0.6938274 0.04181351 0.48037308 -1.0655484 -0.31549996 0.787007 0.16427742 -0.5891025 0.21522039 -1.9406899 -0.026189663 -0.60326374 -0.15692016 -0.55291575 -0.53991926 0.7465367 -0.38565433 0.14659026 -0.5201931 -1.4732697 0.23510352 -0.8224254 -0.2588285 0.45103678 -0.114800856 
it -0.27467045 0.13105536 1.0157002 -0.3338437 -0.1629742 0.1369044 0.028827053 0.44440743 0.52253246 -0.17182052 0.38696665 0.2087618 0.15775836 -0.074395046 -0.045839246 -0.17797118 0.2342589 0.36812034 -0.24542478 0.48865324 0.34667933 0.017663168 0.32017675 0.0075046057 0.45037553 0.3011569 -0.25419652 -0.5476753 -0.08394338 -0.738724 -0.34482238 1.2645577 -0.033822227 0.1355113 -0.022818614 0.5285173 -0.0056905714 -0.14065605 -0.5352214 -0.6189087 -0.31711334 0.028296817 0.18889117 -0.57925636 -0.391301 -0.03695898 0.70138043 -0.6609149 -0.12036723 -0.7617637 0.11349409 0.008906302 0.55646175 1.248227 -0.69661945 -3.3944972 -0.14109801 -0.18898115 2.0895422 0.5772762 0.12033719 0.9128786 0.05691695 0.29945603 1.1620791 -0.23911966 0.58194184 0.68780226 0.2608012 -0.3408891 0.41570136 -0.6329498 0.08913155 -0.27967057 0.6923224 -0.44336534 0.035176996 -0.2515477 -1.1987631 0.4444712 0.19047174 -0.17062302 -1.0270228 0.54118997 -1.2390914 -0.2745361 0.4025712 -0.38125578 -0.09319156 0.078282215 -0.047326103 -0.3795434 -0.2763298 0.1309767 -0.33368385 0.095770255 -0.1917118 -0.42071834 0.3233111 0.58252615 
is -0.49133554 0.3896447 1.0616996 -0.49598858 0.5297404 0.2726657 -0.14056967 0.51243556 0.074832015 -0.1597554 -0.18673734 -0.13228841 0.5080949 0.3119036 0.118956566 -0.3445391 0.48466396 0.060955066 0.081227645 0.4345615 -0.21644461 -0.028716702 0.13400829 0.3219838 0.28021833 0.224843 0.15895692 -0.5944559 -0.5921688 -0.03583611 -0.69280124 1.0949107 0.25876516 0.30952692 0.6539068 0.31980753 0.34349844 0.38176122 0.35235482 -0.37774256 -0.43572888 0.118968554 0.59571576 -0.66273975 0.09002544 -0.07991141 0.58340853 -0.46696118 -0.20365153 -0.3899746 0.06520106 -1.0603944 0.6737874 1.4413272 -0.7451644 -3.0756178 -0.1975275 -0.3060345 1.4369854 0.42291933 0.2722289 0.42475712 -0.24787131 -0.36602765 1.2653307 0.14791378 0.80490136 0.28714857 0.37296057 0.027960375 -0.031119974 -0.515735 -0.34098545 0.072671816 0.8291987 -0.46741548 0.08604337 0.15415113 -1.1124322 -0.041280873 0.07323167 0.065883234 -0.969657 -0.26444265 -1.04643 -0.08876745 0.21479638 -0.5175061 0.5965656 -0.82977486 -0.34080058 -0.076476954 -0.25817305 0.38745502 0.049255937 0.28298965 -0.018545894 -1.3099118 0.80948406 0.45813352 
your -0.43419206 -0.013146092 0.9605954 -0.6443111 -0.69425714 0.6641637 -0.8071138 0.31962597 0.09213443 0.2708769 0.4082542 0.22525157 0.4905459 0.23508437 -0.07754898 -0.42249528 -0.07943772 0.446449 0.045916837 0.25775415 -0.68171334 -0.10900568 -0.23370558 -0.048459124 0.20863567 0.96480685 -0.836479 -1.1599416 0.6440121 -0.39180169 0.8304245 1.3445594 0.5092965 -0.03574535 -0.37617242 0.45906845 -0.8087879 -0.011913017 0.49735886 -0.69611436 0.5361114 -0.23023473 0.24411069 -0.874532 -0.8011499 0.13899337 -0.8679924 -0.46531057 -0.010734934 -1.4649322 0.2010641 0.23056719 -0.10137103 0.9788417 -0.1711033 -2.3300753 0.8066249 0.25581723 2.4173486 -0.135787 0.6150427 1.6650597 -0.4456309 -0.09115519 1.0712132 0.6434504 0.54786247 -0.33652958 0.3732325 -0.44922277 0.012137476 0.51799077 0.600144 -0.92292047 0.6378753 0.44564834 -0.42160246 -0.36732367 -0.4209935 0.16059954 0.43067 0.45277599 -0.44997945 -0.16593754 -1.6357603 -0.36456683 -0.18312553 -0.2985034 -0.14968742 -0.09591298 -0.61473227 0.9791801 1.3017786 0.08711329 -0.39063966 -0.40113965 0.3323147 -0.29760715 0.8573526 0.8252404 
job 0.1537275 -0.035524327 -0.12815943 -0.42332923 -0.32120097 -0.4324066 -0.16722512 0.24175096 0.03215881 0.4040724 0.003782379 -0.4878847 0.2386327 -0.06176948 -0.1307641 -0.46137783 0.22730006 0.10287747 0.09704947 0.9403319 -0.48197892 0.39197597 -0.58620125 -0.474271 0.09893952 -0.78821856 -0.27134416 -0.65961194 -0.28904837 -0.4332186 -0.59115666 0.38919228 0.08258759 -0.4600669 -0.54113954 0.44803983 -0.9974399 0.09308225 0.36252496 -0.40619493 -0.32576042 -0.22381426 0.4848162 0.035331335 -0.30328444 0.6006686 -0.20117386 -0.6589833 0.057199627 -1.1390207 0.17480113 -0.7846791 -0.64081675 1.5693992 0.17973034 -2.1713183 0.50415695 -0.32248855 1.3880535 0.08669795 -0.19550642 0.0601095 -0.26093268 -0.3782061 0.71070105 -0.19280441 0.7570936 0.033723924 0.30956495 0.29096267 0.24336873 -0.014963025 -0.60744554 -0.50175107 0.40585965 0.34456947 -0.42120147 0.20122343 -0.28866795 -0.06751556 0.54175985 -0.08358382 -0.41621977 -0.35814968 -1.5146899 -0.5460787 0.42582327 0.017710175 -0.5028631 -1.0731643 0.30481982 -0.10391319 0.7271278 0.42776856 -0.25112256 0.3194521 0.14014076 0.45412675 0.73432285 0.44913098 
be -0.47800115 0.5033066 0.49300817 -0.5919738 0.09096409 0.03897199 0.060251355 0.4678023 0.050815705 -0.1582053 -0.12507746 0.45825037 1.0871108 -0.059551794 0.37467048 -0.69588435 0.4402943 0.30981427 -0.7552612 0.14630014 0.26634395 -0.29755542 0.13882425 0.11983836 0.14039539 -0.1603616 0.20932291 -0.4161168 -0.33436424 -0.0127063645 -0.048243653 0.6068741 -0.24346972 0.36178195 1.0542797 0.25487277 0.13932025 0.31795195 -0.18722019 -0.2513005 -0.45533198 -0.3425455 0.28097445 -0.5297223 0.38523778 0.105159044 0.39573434 -0.33648643 -0.011425623 -1.0208228 0.1138405 -0.9413855 0.535363 1.1268119 -0.40721852 -2.5170777 -0.12148622 -0.23186359 1.7608529 0.7290349 -0.09196988 0.9760479 -0.89263666 0.045603532 1.2638834 -0.070117265 0.7255867 0.7047553 -0.23110321 -0.705627 0.06216423 -0.8841173 -0.17215902 -0.24297056 0.23727326 -0.4425508 0.12422964 0.1073854 -1.1653543 -0.03596627 0.45130673 -0.34688187 -0.85642505 -0.29783133 -2.074686 -0.33652857 0.93379974 -0.053411108 -0.1831897 -1.1791346 -0.6435026 -0.28084013 -0.24413884 -0.21693935 -0.25005686 0.09921886 0.10222161 -0.81356114 0.46269706 0.32441267 
polite -0.13513508 0.33319414 0.17259228 0.37867752 -0.82178766 1.4802089 0.15603684 -0.17011322 -0.17212813 -0.32800126 -0.59920937 -0.37639385 0.19792771 -0.39920402 0.39017805 0.010573141 -0.6325242 -0.4362142 0.19311307 -0.04980926 0.12150601 0.39449853 -0.06865268 -1.060864 0.09641302 0.21967778 -1.0304117 0.3185362 0.23048712 -0.4306284 -0.05498927 0.5277157 0.3670736 -0.10764299 0.8839046 0.9939762 -0.55499554 -0.4434 0.3234577 -0.052544717 0.19417763 -0.52645934 0.00951071 0.11040059 -0.41533896 -0.4154698 0.46586892 0.47367936 0.42312124 -0.72072875 0.50747275 -0.5149543 0.70734876 -0.12114857 -0.5158803 -0.16491139 0.5514951 -0.28488472 0.29016808 -0.39670843 0.1539815 -0.03559338 -1.161556 -0.29603583 0.32521456 -0.6383811 0.85522306 0.30338532 0.027975356 -0.27390912 -0.3593052 0.22474027 0.42651486 -0.9679081 0.19378418 0.9081975 -0.08714415 -0.7071968 -0.2389261 -1.1552217 0.35993963 -0.20433548 0.06637215 0.045850437 -1.3397909 0.21967211 -0.23150048 0.37226334 -0.075833865 -1.0217005 0.2654553 -0.037659176 -0.1164939 -0.08367935 0.08418156 0.66999245 -0.9250765 -0.072755136 -0.87227416 0.67163146 
wash -1.065586 0.5017997 0.12750252 -1.0494142 -0.42621654 0.47545737 0.1553821 1.2132431 -0.12584582 0.5349125 0.16204645 -0.012671758 0.13910443 0.51024854 -0.26023233 -0.026548099 -0.12518607 0.26406506 -0.6668705 -0.45575947 -0.5504044 0.075435266 0.15783381 0.01931177 -0.4418111 0.9884372 -0.79293907 -0.20220093 0.18421619 -0.5741069 0.4326495 0.004919966 -0.0849424 0.11406004 -0.66714746 -0.1253635 -0.058704186 -0.7559687 0.95139384 -0.13003513 -0.19126105 -0.9226606 -1.1841104 -0.9085959 -0.21166952 0.9141728 -0.571088 -0.29133454 0.12851986 -0.20443524 -0.22136517 -0.0005701339 0.37633312 0.4665868 -0.7061116 -0.8414009 0.025578871 -0.12492195 0.75595653 -0.4705788 0.15139687 0.55436146 -0.18535012 0.18395299 0.7290861 0.5804535 1.2652297 -0.6149965 -0.54521054 -0.56902575 -0.46731722 0.49564987 0.05103582 -0.08265076 0.6697661 -0.06392055 -0.32570502 0.08939753 0.4403005 0.36517584 -0.2780449 -0.20076276 -0.6778499 0.5896356 -0.39030218 -0.39427298 -0.110526174 0.15343301 -0.25766152 0.070014276 0.051844392 -0.26648754 0.37645364 -0.55505234 -0.34581688 0.04731957 -0.183824 0.07609132 0.5363318 0.041388173 
dishes -0.9510441 0.6439698 -0.079121046 -0.07160639 0.07953682 0.2566955 0.5138131 0.049421504 -0.011276017 0.56646883 -0.41980103 -0.34064895 0.47969085 0.9160713 -0.1777543 -0.078509584 -0.35897365 0.07923176 -0.4449632 0.20633289 -0.67329866 0.713789 0.93270546 -1.1915181 -0.035403766 0.3785066 -0.24620071 0.33054006 -0.6434618 -0.83715916 0.01454411 0.25059044 0.1583539 -0.57316697 0.73110974 0.78719264 -0.0488313 -0.34418476 -0.36297747 -1.2477753 0.400713 -0.6368322 -0.6090212 -0.56465214 0.6409701 0.41464534 -0.7446097 -0.49664143 0.15343997 -0.37685677 -0.23286855 0.3155761 0.3904374 0.20842138 -1.000252 -0.48229852 -0.26864058 0.4913713 0.8280745 0.7937212 -0.5874254 1.2999 1.2048012 0.14662175 0.25292584 -0.32208344 -0.15473473 -0.5883169 -0.1467309 -0.6502727 -0.20221654 0.4582003 0.90481937 0.70829463 -0.65018076 0.99637085 -0.57428676 0.45823687 0.76787007 0.31020325 0.1953764 -1.0176487 -0.66552746 0.57233787 -0.82267165 -0.2522946 -0.3096031 0.58212024 -0.36125004 -0.6594893 0.29631647 0.39364552 0.46265495 -0.84364164 -1.3078723 -0.4927446 -1.1179868 -0.7386874 0.7606031 0.9124666 
otherwise -0.6259847 0.12300624 0.36115578 -0.16933374 -0.17327173 0.45195597 -0.29534754 0.45958024 0.5167559 -0.21118763 0.18420328 0.4432062 0.54790723 -0.24223934 -0.21401471 -0.2905612 -0.009213539 0.21503368 -0.108421594 0.4684418 0.039984673 -0.32187456 0.45575395 -0.37167147 -0.069061324 -0.08093095 -0.43527523 -0.5556488 -0.121518716 -0.02366864 0.25446796 0.4794212 -0.5032857 -0.5284453 0.38931775 0.26950976 0.21099946 -0.26079232 -0.3883479 -0.20787787 -0.10338756 -0.2060989 -0.119001366 0.08560835 0.0058859126 -0.5051037 0.4746773 0.34840235 -0.3739949 -1.1387079 0.5402746 -0.059754636 0.4903556 0.39587232 0.23617211 -1.4966154 0.4603763 -0.27615136 1.3416685 0.29255465 -0.5786888 0.5281407 -0.5557741 -0.29701257 0.85719013 -0.15599875 0.7954042 -0.2670916 -0.20273614 -0.4756309 -0.049566593 -0.2321695 0.15602176 0.032991678 0.61018974 -0.035837922 -0.09914985 0.029699298 -0.36670753 -0.08420894 0.016276872 0.15585858 -0.81065655 -0.09480631 -1.5075768 -0.41348583 0.043035697 0.37355942 -0.31645495 -0.0066829044 -0.39281675 -0.45273873 0.38391837 -0.14719705 -0.32244214 0.034590982 -0.19632484 -0.09189989 -0.17648531 -0.16001149 
took 0.53318954 -0.3380519 -0.13467847 -0.17404926 -0.134415 -0.0075771646 0.05263146 0.5528197 -0.46345356 -0.030181026 0.56915355 0.4174409 0.009424917 0.22952765 0.20110536 -0.30737746 -0.011140155 0.37126544 -0.31358635 -0.29236603 1.1727228 0.020856261 0.42358366 0.2812253 -0.3018265 -0.55363244 -0.62250465 -0.20206743 0.47246265 -0.3545829 0.0126111135 0.5741289 -0.11978085 0.07323988 -0.6624124 -0.2669321 -0.51151574 0.64122397 -0.50783277 0.32521364 -0.9090254 -0.18442473 0.58143324 -0.49701038 -0.08870055 -0.20701174 0.25959355 -0.33681923 0.62236565 -0.7163667 -0.067055374 0.0135837635 -0.12459617 1.4048902 -0.25205603 -2.7746112 -0.7357792 -0.031163877 1.2647505 0.71306765 0.0862886 0.6089538 -0.08155642 0.3196611 0.3611213 -0.1492818 0.0076135173 0.034666657 -0.21216404 0.61124164 -0.48237184 -0.38668248 -0.21926212 -0.083490886 -0.22359082 0.072515495 -0.67805886 0.27628374 -0.90877813 -0.02634143 0.8942133 -0.29974148 -0.42383772 0.0033420017 -1.1863852 -0.5510434 0.1722253 -0.28650126 -0.3306157 -0.2958512 0.09504558 -0.69409823 0.12687244 0.39020544 -0.52766085 0.27549034 -0.23524377 0.40472925 0.027510779 0.15611349 
