2104 100
<unk> -0.004850061 0.0014080015 0.001100639 -0.0013669216 0.0074207084 -0.0028691965 0.001318018 -0.00082950824 -0.0017036622 -0.0037539825 0.0003095673 0.0004237692 0.0025771775 -0.0023014317 0.0025459512 0.0027833644 -0.0007874267 0.003942255 0.0007014861 -0.0014878134 0.002438792 -0.0014476466 0.002586049 0.0016654482 0.0020191064 -0.0024836338 -0.0036469668 0.0005319734 -0.0026739351 -0.0018598029 -0.0011693896 -0.0044244155 -0.0020915915 -0.0053537656 -0.00032308005 -0.00544558 -0.00255648 0.0017161353 -0.00049914885 0.0027853022 0.00048360584 0.0032081131 0.0012819702 -0.0004990133 0.0005128073 -6.031242e-05 0.0029875902 -0.001447329 0.00011516784 0.0052540484 -0.0052770413 -0.00224776 -0.003739905 0.0026284382 -0.0025411434 0.003612392 -0.0036349357 0.0014381964 -0.0013634656 -0.0050144973 0.0047103353 -0.0011432659 -0.001497121 0.00045167241 0.003987251 0.0055887387 -0.0031980218 0.00016188486 -1.00674415e-05 0.004060199 -0.00069298124 -0.0006930569 1.24452545e-05 -9.1030735e-05 -0.0022861834 -0.0014361636 -0.0006781344 0.0031620099 0.00078758865 0.0018006081 0.003991689 7.455821e-05 -0.0031392162 -0.0043035643 0.00096057105 -0.00094454776 0.00033079612 -0.0015853515 -0.00056314626 -0.0051422347 0.000109495915 0.000845821 0.0042897295 0.003394352 -0.0009922659 -0.0035196664 0.00036796386 -0.002600255 0.00060182816 0.0018720535 
nice -0.14749338 0.07523733 -0.16433774 0.41395634 0.39639133 0.014717153 -0.32482982 0.9285284 0.24332266 -0.28985745 -0.26583278 0.038909495 0.62765986 0.016755031 0.47318244 -0.075485155 -0.7142374 0.12292279 -0.20193869 -0.054580934 0.24795577 0.009194665 -0.0011489805 -0.29355925 -0.36677688 0.48496902 -0.35350388 0.53257525 0.2863937 0.078251794 -0.27615198 -0.26186976 0.82883656 -0.30940098 0.30164522 0.4249298 -0.30839986 0.40164685 -0.16913721 -0.72481847 -0.5652898 0.7192696 0.4204216 0.10243206 0.110757396 -0.1182424 0.17281532 0.29085878 0.373825 0.13179383 -0.46729398 -0.47038895 0.07744434 -0.074745074 -0.6674768 -0.8877935 -0.07534016 0.21512438 -0.39411527 -0.94974554 0.51466775 0.28909996 -0.03267328 0.46034715 -0.03358822 -0.6163937 -0.32474008 -0.30733657 0.31662297 -0.2656952 0.33923313 -0.28098285 0.42847186 0.022204885 -0.36397815 -0.16371433 0.17908405 -0.7440406 -0.52574676 -0.6630362 0.9249974 -0.16647102 0.24394909 0.5697119 -0.2879513 0.01239326 -0.31115064 0.028092077 0.8565339 0.37573707 -0.0068231537 -0.28084257 -0.67296696 -0.27057454 -0.5613703 0.058659777 0.20415586 0.047202203 -0.598127 -0.28979537 
spicy -0.3522586 -0.24724947 0.012086542 0.65753734 -0.017773757 0.22465532 -1.3238147 0.047247123 0.026212875 -0.27387723 -0.59561175 -0.44136825 -0.06385221 0.02586143 -0.42465603 0.41531268 0.2791903 -0.34990937 -0.53632545 -0.09237428 0.052323822 0.60198396 -0.71614015 0.21949661 -0.3397832 -0.50697035 -0.40198594 -0.15256798 0.95555186 -0.28147027 0.21644801 -0.7587461 0.3047706 0.37891003 -1.1572186 -0.14667857 -0.41947103 0.27432778 0.039670233 -0.07168964 0.76531214 0.40115985 0.18606791 -0.23843113 0.44547915 -0.20253704 0.6503015 0.1462774 0.72959554 0.7939921 0.10040296 0.20613992 0.23892078 -0.27185342 0.32820714 -0.124107085 -0.23989007 0.42076364 0.5801315 0.1852518 -0.7749173 0.4850339 0.93001926 -0.024568345 -1.086154 0.24956317 0.14659387 -0.0899059 0.21548614 -0.681478 -0.52962935 0.11518508 -0.88732255 0.2361288 -0.026058022 -0.8300749 0.02252098 0.58616316 -0.4267262 0.19107464 -0.18081678 -0.23164336 -0.19034064 0.4230012 -0.33405283 0.0063669733 0.3167535 0.23965827 -0.49298355 0.28579664 -0.12542063 0.2777778 0.20491597 -0.18062823 0.6398331 0.25870505 -0.07884658 -0.2634098 0.26181558 -0.39493993 
and 0.22714297 -0.15674198 -0.023823336 0.2824813 -0.035937194 -0.006411244 0.005078168 -0.08909291 0.008887422 0.21443334 0.17586711 -0.02346078 0.18873033 0.07883348 0.18214387 0.025096819 -0.08313926 -0.023994068 -0.1529016 -0.14498623 -0.05124597 0.13524245 -0.17580827 -0.07539803 -0.05367666 -0.2695554 0.2270356 0.0038600373 0.21886578 0.22551265 0.11688377 -0.1017565 0.1183788 0.038892377 -0.11601045 -0.021989733 -0.031217052 0.1635594 0.025563044 -0.1307054 0.03517019 0.03868353 -0.24599244 0.20361462 0.011886455 0.005224785 -0.1943943 0.10518497 -0.034196507 0.098129556 0.064087324 0.14065745 0.28241712 0.1356839 0.06633355 -0.08399216 0.042925067 0.040229898 0.17881072 0.1060065 -0.112935536 0.1002369 -0.11859008 0.09597158 -0.14115743 -0.070036046 0.08099943 -0.21299957 0.06999006 -0.13638675 -0.05899553 0.25625643 -0.04148291 -0.07510141 0.06100345 0.039216373 -0.23577012 -0.045571275 0.030919783 -0.057524316 -0.14906204 0.006422754 -0.19143163 0.1300761 -0.17905296 -0.2564116 -0.1277969 -0.0033292582 -0.11752406 -0.14154457 0.18187732 0.0013297742 0.12300054 0.17645063 -0.025447164 0.052075442 0.028187884 0.09615302 -0.19802147 0.16871336 
tender 0.3468589 0.10409844 -0.5152082 -0.08319004 0.34888867 0.2355612 -0.18692607 -0.3911611 0.49707097 -0.022075992 0.16880554 0.091942616 -0.17708541 0.3272176 -0.027745588 -0.37614468 0.4142691 0.10767063 -0.3079093 0.70657676 -0.27188703 -0.38588643 0.045694057 -0.7222514 0.06635786 -0.29779416 0.42093822 0.09296538 -0.2691475 -0.6693477 0.29350534 -0.39588547 -0.36198667 1.0535058 -0.07433822 0.23769136 -0.20976508 -0.50976485 0.08690282 -0.46971574 0.93190336 -0.06382541 -0.054827325 -0.2255609 0.40496364 0.33743665 -0.4382534 0.42544183 0.22246258 -0.46241465 0.10062582 -0.14728157 0.5790294 -0.05504646 -0.34400254 -0.39592713 -0.42946526 0.36193907 0.4102744 0.73938125 -0.5043105 0.51844585 -0.22408046 0.028895654 0.40628222 0.1849983 0.050190117 -0.5383028 -0.49243614 -0.017105535 0.75171965 -0.1698087 -0.76059496 0.06900409 0.3936831 0.8468993 0.4569816 -0.63801605 0.2233035 0.20714119 0.7886697 -0.07017821 -0.2777835 0.61438364 0.21299706 -0.060812663 -0.096614644 0.66077685 -0.053493213 -0.28165817 -0.21969628 -0.21252911 -0.30591622 -0.7740774 -0.092679195 -0.061489146 -0.019198386 0.03822212 0.108978406 -0.054700967 
1 -0.09900287 1.2050179 0.06647238 0.5279281 0.115122 0.19831899 -0.38269266 -0.14403127 0.5145768 0.8583049 -0.92728734 0.30554566 0.7304688 0.22331023 -0.1710754 -0.14300932 0.93012094 -0.055161282 0.07595189 0.49181774 0.3125544 -0.32098952 -0.26302555 -0.03471235 0.45065764 -0.18734406 -0.4663608 -0.25086606 -0.15866515 -0.40739185 -0.4143007 -0.48794782 0.26080748 0.3577333 -0.123770855 0.39066252 0.12058961 -0.28779802 0.37156487 -0.21893021 0.2928164 0.49764618 -0.4021775 -0.037238374 -0.344377 0.13782933 -0.45480955 0.27054927 0.14461163 -0.80084413 0.0792692 0.40183362 0.788172 -0.41200203 0.055582922 0.28861204 0.3373039 0.6108859 0.22385852 0.17989285 -0.42784142 -0.13582548 -0.27572155 -0.20363536 0.59038275 -0.88733613 0.31957394 0.08042798 0.71472037 0.2325347 0.10007177 -0.11389019 -0.33074126 0.3543207 0.44709495 -0.12882857 0.16305318 0.8365412 0.047949776 -0.25993487 0.7534681 0.24453755 -0.76929516 -0.4810822 0.19807087 -0.5153184 0.08362261 -0.06808069 -0.2724967 -0.2952692 -0.14911781 0.69506943 0.716173 0.17096043 -0.21083556 -0.08609354 0.4484916 0.29469404 0.4174395 0.19638035 
i 0.0643255 -0.124972165 -0.1969667 -0.012609569 -0.030743243 -0.018581286 -0.013304975 -0.045178458 -0.0030078294 -0.08408695 0.002777041 -0.010606298 0.03425901 0.1185364 0.23578104 0.13053465 -0.14831917 -0.090702236 -0.20503433 0.09133735 0.18423891 0.12429281 -0.17532426 -0.06814541 -0.1380975 -0.36945218 0.114119604 0.17306753 -0.038621206 -0.20707045 -0.12703021 -0.32578036 0.053273845 -0.0045014685 -0.10652524 0.009511183 0.16395971 -0.08761775 -0.22037753 -0.11209043 0.32554024 -0.09597063 0.009749442 -0.06271586 0.13922597 -0.1138103 -0.13065536 0.07511612 0.08735945 0.26466897 0.08296822 0.14560327 0.14475209 0.18833482 0.040016055 -0.11631761 -0.051222716 -0.14016478 0.05026363 -0.0942695 -0.24671286 0.020907514 -0.034138627 -0.17227855 0.0792562 -0.29180047 -0.29328558 -0.18265538 0.023923075 0.2996916 0.1586658 -0.1964358 -0.19486336 -0.15758523 0.18606292 -0.17068665 0.022417322 0.37494722 0.081917055 0.09851882 -0.028104216 -0.23541638 -0.07721282 0.20501971 -0.19758223 -0.16721107 0.13519946 -0.033405922 -0.020877993 -0.16875188 -0.22091566 0.1690039 0.1481143 -0.15276785 -0.073562734 0.02211193 0.002095419 -0.027162246 -0.035069827 0.13050316 
go -0.08591318 0.109318264 0.22362225 0.26272103 0.23896213 0.28993315 -0.21959615 0.27239066 0.2949577 0.094384454 -0.20902672 0.33835772 0.7509364 -0.11733437 0.120692395 0.08033709 0.3175893 0.161497 0.03585409 0.033701204 -0.3366368 -0.17974514 0.097035885 -0.29572168 0.25344118 -0.15594035 0.1179616 0.3697396 -0.29259 0.11000456 0.6345409 -0.44664323 0.5656169 -0.4587528 0.46083128 0.15460363 0.050935578 0.12785494 0.34520683 -0.12988107 -0.06417282 0.16690291 0.048607286 0.12941988 0.15848954 0.2027536 0.50379336 -0.055832025 0.007339146 0.08996391 0.022744203 0.538236 0.34664345 0.33534515 -0.6770785 -0.36412346 -0.1732246 -0.31089616 0.23529229 0.0891136 -0.38344118 -0.16607186 -0.10177237 0.41583136 0.118705496 -0.046763357 0.4120138 0.22475049 -0.18114115 0.028746279 0.29843456 -1.0855715 -0.11565352 0.10450976 -0.10494567 0.1628431 -0.10275974 -0.09683275 0.58299434 0.33149037 0.13949162 -0.31559414 -0.012356174 0.41196787 0.02987699 -0.09555579 -0.61628 -0.16932276 0.0053248135 -0.37589636 -0.41282806 0.050637133 -0.06797651 -0.35733768 0.1286804 0.20463465 -0.05320226 0.46389523 0.5727617 0.20207159 
to 0.04490144 0.10507278 -0.14627361 0.122389905 -0.05035086 0.098641664 -0.16490412 0.0048726234 0.43326318 0.12997042 0.079281785 -0.042078596 -0.09405981 0.037535015 -0.11506436 0.040022217 0.15183148 0.13832106 -0.28813818 -0.11385335 0.14913152 -0.04056204 -0.2742088 0.21797822 -0.10831268 -0.10804234 0.14465237 -0.17566401 -0.058679983 -0.2756097 0.31095397 0.06457364 0.25590035 0.15200281 -0.22709659 0.0490447 0.2123203 -0.10671724 -0.11923023 -0.31275952 -0.15919144 0.0033210446 0.05904328 0.16472398 -0.2262631 -0.06869487 -0.26160994 0.10693506 0.11250933 0.06152166 -0.16717733 -0.008577881 0.043983538 0.10747761 -0.19101405 -0.2219469 0.08846811 0.08954022 -0.07815875 0.06257542 -0.32087398 -0.032144774 0.17475265 -0.14103486 0.25861728 0.047907207 0.026409782 0.16315517 0.046787582 0.1255799 -0.0517439 0.012216152 -0.101163544 0.037914928 0.053807795 0.014648902 -0.0061282273 0.018770479 -0.18534811 -0.10763626 -0.1422832 -0.24805543 0.11048782 -0.13307826 -0.028873187 -0.16784818 0.1755539 -0.11369169 -0.2392485 0.03135933 0.21565615 -0.14594246 0.0022673954 0.07536831 -0.16666578 -0.22502396 -0.010644082 -0.094463386 -0.20766863 0.014472078 
far 0.05681069 -0.42695177 0.31920096 -0.11291981 0.75501573 -1.229785 0.68161905 0.3886026 0.12566014 -0.38277692 -0.38745347 -0.79179865 0.37415656 0.4224747 0.3552929 0.046024933 -0.31753317 0.31107304 0.56681895 -0.25590733 0.6231489 -0.16778383 -0.40407464 -0.5268376 0.42015383 -0.061898436 -0.41794738 -0.19266273 0.39245975 -0.27441445 0.034022976 -0.47935626 0.88561887 -0.38030845 0.29462767 0.42108425 -0.30513307 0.17535444 0.1631887 -0.20447108 -0.8746983 -0.24505933 0.25190207 -0.7247713 -0.014598133 0.121414654 -0.71024394 0.16854638 0.0022330468 0.13809012 -0.008579434 -0.19584917 0.45086598 0.08460746 0.41757375 -0.61209977 -0.5862118 0.312909 0.92539155 -0.09940183 -0.19527495 0.25552306 -0.60921204 -0.09870131 -0.23881887 -0.5541062 -0.14381859 -0.27927658 0.047914986 -0.035524577 0.43875062 0.15067051 -0.2877993 1.1618173 0.26147944 -0.15952343 0.24831097 0.28408316 -0.15422618 0.12578103 0.2714527 -0.45950985 0.3005538 -0.6610665 0.37057453 -0.28663942 0.55258274 -0.43881533 -0.769965 -0.18447226 -0.32459578 0.4027739 0.106298365 0.18988355 -0.33376703 -0.19566025 0.02739943 0.4330658 -0.49839833 0.03906494 
too 0.4276929 0.7271634 -0.47862738 0.27726895 0.08691105 -0.44631633 -0.39737043 0.03915693 0.5150089 0.053729974 0.35224488 0.087852836 -0.043071833 0.5407294 -0.6142639 -0.006324494 -0.37170526 0.14677203 -0.22313003 0.3531063 0.11611426 -0.0042292704 -0.75284845 0.49308175 -0.16709389 0.26109502 -0.24603783 -0.24133247 1.0938524 0.0025675492 0.12874399 -0.17476922 -0.12604564 0.031366322 -0.6032661 -0.09785937 0.2048476 0.5037637 0.0003440058 0.18609783 0.21761246 -0.118128955 0.037511047 0.21970432 -0.088062406 -0.76915735 -0.45852175 0.07339782 -0.09003459 0.033241045 -0.21543299 0.33783883 0.3916887 0.09522874 -0.63670313 0.28882173 -0.21290654 0.13841315 0.0890707 0.7617145 -0.7476454 -0.1638778 -0.036164418 0.17154554 -0.015838096 0.3350171 0.39787158 0.7009024 0.102602795 -0.13919216 -0.035081 0.17763714 -0.068082064 0.013656769 0.056829784 -0.23534425 0.18932465 0.45764378 -0.15596673 -0.6179913 -0.36119238 -0.50733435 -0.17514686 0.37614948 0.14659846 0.11822406 0.43913716 0.035263587 -0.32705912 -0.021191368 0.23896757 -0.4521432 -0.298458 0.19883999 0.56168747 -0.0335398 0.19437948 -0.3607069 0.5416187 -0.09897138 
many -0.28601548 -0.19003096 -0.029673237 -0.06402904 -0.14261006 -0.18671717 -0.030822188 0.28345066 -0.64336944 0.017205762 0.7031026 -0.13159811 -0.08584716 0.030838454 1.0540358 -0.68703836 0.5480574 -0.136225 -0.03176784 -0.10207584 -0.1781734 -0.07523448 -0.9513005 -0.06782658 0.43471962 -0.60867304 -0.0037755687 0.15345947 0.17535356 0.20974956 0.2222867 -0.2775825 0.18276353 -0.073852845 0.14331533 0.2566062 0.28715923 0.89751047 -0.5889142 -0.5729199 -0.12176011 0.4222065 0.3548812 0.058825858 -0.11545789 0.3225581 0.13487053 0.57827944 0.16423942 -0.19630608 1.0960206 -0.08251022 0.673151 0.35018623 0.43543702 -0.26291606 -0.12824462 -0.15936798 0.13688505 0.036697354 0.2667834 0.33538866 0.4672492 0.40601447 0.20939578 -0.37628394 0.12485044 -0.14009838 -0.55914485 0.17178898 -0.061795134 -0.07522426 -0.110930875 -0.27876985 0.34154812 -1.0824174 0.46086246 0.034475405 -0.2604591 -1.0713012 -0.32711488 -0.058997415 -1.2157699 1.3613728 0.275903 0.04612407 -0.4627991 -0.04497477 0.0022058622 0.18852054 -0.27346668 -0.20912883 0.0041728998 -0.17624465 -0.07537518 0.5796328 0.2623542 -0.076974645 0.4776864 -0.2865338 
places 0.43670556 -0.2466686 -0.2775486 0.5505607 -0.4896574 0.33498096 -0.21150707 0.23488645 0.1527806 0.734545 0.16978295 -0.45122683 -0.053282734 0.6596929 0.010653938 0.0056549404 0.477904 -0.3196419 -0.8521593 -0.4493302 -0.34480458 0.57399607 -0.24603495 -0.44534117 -0.8336664 0.29210255 0.14303426 0.13476254 0.5262152 0.35226172 -0.11126421 0.021581091 0.5640864 0.11485793 0.045855522 -0.38415626 0.37090194 -0.15573862 0.13982068 0.10711063 -0.08399395 -0.034323093 -0.19497383 0.22803707 -0.1615449 0.06501023 -0.21686195 0.11381374 -0.24592559 0.3126747 0.30320898 -0.009414242 -0.90921867 -0.07652132 0.4012484 -0.18267986 -0.0299114 -0.6309115 -0.0031166736 -0.609275 -0.43419513 0.59986067 0.45157635 0.66960245 -0.35203362 0.011290608 -0.26692235 -0.8403537 0.18985555 0.4491945 1.3394516 -0.3116189 -0.7491857 -0.5890867 0.09370814 0.07563776 -0.21432556 -0.16807343 -0.42413884 0.3260855 0.79042894 -0.19287768 0.00064165593 -0.3557331 -0.45039958 0.4657885 -0.48965713 -0.34152082 -0.28405845 -0.37197205 -0.1645235 0.2762521 0.08738785 -0.5020883 -0.35749024 0.4280152 0.47699493 0.37050653 -0.31152257 0.42777234 
ive 0.3015944 -0.08415876 -0.9665224 0.16295685 0.3571357 0.4882951 0.002168375 -0.5732322 0.0449955 0.5553814 -0.49415413 -0.23806 -0.09914808 -0.84084725 0.1921759 0.018375922 -0.21770991 0.10907798 -0.36920044 0.20959322 -0.1513076 0.33361027 -0.6592468 -0.28365955 -0.27476785 0.007889227 -0.9514087 0.09023426 0.08618508 -0.2847133 0.076396175 -0.18299384 0.2252959 -0.01722573 -0.46478525 -0.031012224 0.9594132 0.016705988 -0.45841992 -0.029037088 0.8764915 0.1970778 0.2743647 0.30540195 0.004010269 -0.34471962 0.02577599 0.3999483 -0.5417368 -0.24087653 0.7686491 0.12788565 0.2549175 0.33908814 -0.70143235 0.17266674 0.08232132 0.5974071 0.31296927 0.35668674 0.17980936 -0.82421666 -0.37407672 -1.0442233 -0.09744311 -0.4670045 0.5604056 -0.60083693 0.18696767 0.10339285 0.1288165 -0.181938 0.002197072 -0.11599712 0.09098879 -0.35420582 -0.07420651 0.8110419 0.31182942 0.6759499 -0.28032407 -0.28877375 0.121662706 0.24517502 0.30680186 -0.9047136 0.68496895 -0.017107584 0.46310866 -0.41876635 0.024356144 -0.267262 0.25914177 -0.16292274 -0.2736963 -0.19105552 -0.2694488 0.15303221 -0.27984223 0.15704155 
never -0.4255536 0.28100264 -0.22892286 0.1967973 0.69696 -0.64750534 0.37099406 0.5722841 0.24188344 -0.8113939 0.35312936 0.36670074 0.088749066 -1.1103973 0.12265134 0.3958114 0.016234184 0.504272 -0.5576162 -0.21516618 0.43822074 0.67929035 0.47315997 -0.91805243 0.43403366 -0.4406543 0.14979751 0.20267612 -0.23582499 -0.1535894 -0.123581335 -0.65941894 -0.047697574 -0.5879345 -0.36091414 -0.23498055 0.40545687 -0.03173 -0.45300043 0.12688285 0.8553394 -0.052247997 -0.6789866 -1.0972863 -0.22383289 -0.636937 0.03264725 -0.25970984 0.4944739 -0.20110963 -0.5069348 -0.0061341473 0.15991734 0.29642484 -0.014150522 -0.10967755 0.1907759 0.5327081 -0.056347102 0.3156843 0.5040747 0.15326336 -0.07250233 -0.45337945 -0.024038075 -0.5552899 -0.18553725 0.22931193 -0.7597389 0.1602766 0.19886683 0.18573055 0.18227169 -0.049272195 -0.10577757 -0.26185936 0.6093932 0.53603405 -0.13414702 -0.90785694 0.028900526 -0.16851291 -0.081819996 1.1370246 -0.8106749 0.26159832 0.15844636 0.0490863 -0.038295448 -0.8114633 -0.3776223 -0.08173862 -0.1544088 -0.04118639 0.3212945 0.21899515 0.3319678 0.43424597 0.27363062 0.03822235 
seen 0.15621954 0.54261965 0.16622674 0.8393867 -0.7545038 -0.12559849 0.027875204 -0.19793013 0.37289876 0.32513073 0.008208933 -0.14174952 1.3796631 0.18268318 0.14053799 0.028889075 0.21117565 0.29679146 -1.0003132 0.5189142 0.31186265 -0.5929282 -1.0060358 0.5495214 0.5348315 -0.14123984 -0.284026 -0.005535047 0.12054049 -0.11417363 -0.23154375 -0.08910362 1.0280678 -0.13117507 0.4047911 -0.5298596 -0.013294616 -0.1820601 -0.21655136 -0.95049816 -0.6099701 -0.2598448 0.18602568 0.033641774 -0.0067298445 0.7333097 -0.6009907 0.21212076 0.07507302 0.410697 0.06468638 0.62875795 0.37457433 0.43691236 -0.019235292 -0.31119797 -0.16165479 -0.24452709 0.09039815 -0.43924314 0.37182897 0.061823394 0.007815062 0.52776223 0.4829261 0.446083 -0.58025914 -0.12197514 0.030790446 0.97026277 0.6543859 -0.048245665 -0.70961565 -0.59897965 0.19400345 -0.8902522 0.19419402 0.5055959 -0.5914781 -0.56606007 0.4481152 -0.49267393 -0.123863176 -0.6242975 -0.31448567 -0.5599479 0.16082163 0.25359225 -0.096242845 -0.36389926 0.14639243 -0.010322256 0.067884944 0.124567114 0.3644733 -0.40697476 0.45016885 0.181426 0.023965048 -0.13285261 
any 0.5208786 -0.09354587 -0.71994245 -0.60120374 0.55489147 -0.14239837 -0.016429204 0.9034408 -0.14355043 -0.09773914 0.51599914 -0.47762 -0.24195838 1.2708061 0.8760139 -0.37271714 0.2208338 0.3974498 -0.24399996 -0.07992509 -0.12721361 -0.010061365 -0.19417231 -0.14910375 0.40381148 0.023376672 -0.083643965 0.49286425 0.30337808 0.42703322 0.7745444 0.25899976 -0.31912056 0.49908972 -0.46928012 0.7925245 -0.20825677 -0.23368642 -0.20202313 -0.52761173 -0.1146286 0.026913458 -0.07621242 -0.8237389 0.68059146 0.69331276 -0.97582245 0.09220441 0.65822285 -0.28135833 0.21778245 -0.23724245 -0.0005262185 -0.03302686 -0.2745844 -0.45179537 -0.15094809 0.069218 0.63862395 0.056872923 -0.75556844 0.33840492 0.8157908 0.07353168 -0.37765312 -0.115132734 -0.31392664 -0.2764878 0.005395718 0.05451719 -0.22095817 0.099200085 0.07596953 -0.030521827 0.2879988 0.1858935 0.85109115 -0.13507181 -0.011329206 0.17139459 -0.01524225 0.32096824 -0.11742062 0.5430526 0.25270396 0.11445589 -0.37059993 0.27863428 0.020252403 0.27124298 -0.30902776 0.06405225 0.37090176 -0.31249493 -0.5516967 0.08290804 0.04738544 -0.06641094 -0.20913926 0.29551086 
restaurant 0.34647232 -0.5574575 0.17175116 0.43730116 -0.044038337 -0.100897506 -0.50591016 0.26859576 0.24563606 0.060396943 -0.10686994 -0.11121932 0.04398331 -0.43694526 -0.23022306 0.24566713 -0.056453034 -0.2253889 -0.06504462 -0.77074385 0.53987145 -0.41651413 -0.35113868 0.07044826 -0.07540508 0.21632935 0.5703323 -0.31136644 0.039674576 0.32283115 0.4808173 -0.32692388 0.29542527 0.3858538 -0.1437612 -0.060396265 -0.2685625 0.5395903 0.44110793 0.06408073 -0.5277077 0.5417849 -0.16596441 0.046633597 0.051664907 -0.44315368 -0.19707343 0.1768561 0.2572813 -0.019131955 -0.28409603 0.17713097 0.25094664 0.11787 -0.028625693 0.08148234 -0.056128196 0.36257982 0.22800453 0.08956585 -0.23781873 0.12133648 0.05649653 0.6119305 0.4221581 -0.0999632 0.13826148 -0.21879312 0.86402106 -0.11707441 -0.11533289 -0.13475734 -0.45280394 0.33821365 0.13457853 0.33357143 0.068374105 -0.038151372 0.041139863 0.037446838 -0.37874055 0.45599005 0.05428094 -0.08572206 -0.3980415 0.054853316 0.645255 -0.09132722 -0.4242124 0.6583769 -0.06710236 -0.16611166 0.38382787 -0.17997481 0.35083115 0.0749198 -0.7304581 -0.01856536 -0.60314095 -0.19441968 
that 0.08406883 0.15922268 -0.19240393 0.20151685 -0.13673471 0.09567465 -0.11648894 -0.014956912 -0.008906546 -0.006272401 -0.094538815 -0.47153175 0.2307289 0.12968695 0.08970377 0.20387994 -0.12226297 0.29651824 0.53010166 -0.263196 0.59065026 -0.13148187 0.38615355 -0.12920308 0.35749558 0.1027727 -0.055870894 0.1348511 0.24662061 -0.23778263 0.11623222 -0.6893346 -0.051290598 -0.25524727 0.1812809 0.2324584 0.13838916 -0.40403268 -0.045015085 -0.2675217 -0.22554266 0.1424102 -0.2118889 -0.076254874 -0.3007088 -0.06240776 -0.3280069 0.20305376 0.104482435 0.16839065 0.069328554 0.23733222 0.10560392 0.09673831 -0.9153552 0.30829185 -0.26726747 0.17749783 0.7044293 0.47612983 -0.35807228 -0.081232145 0.09866963 -0.024729421 0.050326604 -0.18256046 0.3864125 0.08225325 -0.1717716 0.2289562 -0.108443476 -0.21803385 0.34865183 0.16270664 0.08843376 0.4831407 -0.292959 -0.20179887 -0.22669488 0.1632296 -0.16254383 0.12868057 0.04716314 0.39336282 0.007324889 0.08290745 -0.33458337 -0.10379396 -0.14659552 0.3867179 0.36863834 -0.06080563 -0.5232203 -0.19735359 0.005158557 0.36511594 0.27798456 0.07079521 0.12554193 -0.24514359 
serves -0.26563993 1.0431374 0.86124474 0.29790545 0.76452684 -0.37473777 0.3181369 0.7848309 -0.66464674 -0.29297125 0.42297047 0.70163935 0.9091714 -0.13477038 0.70748705 -0.7258393 0.87279236 -0.2648023 -0.41161498 -0.6175871 -0.65152293 0.18913297 -0.89529693 -0.15080166 -1.215943 -0.6409484 -0.21258159 0.55234814 0.7983445 0.002018341 0.40083578 -0.2922036 1.6637933 -0.701235 -0.56294006 0.05324816 0.6613473 -0.437874 -1.1847848 -0.009339839 -0.8297333 -0.24187253 0.08195484 0.6748591 0.80387205 -0.5180385 -0.05577487 -0.01888351 -0.2628368 0.5477111 -0.013947782 -0.5337344 0.639249 0.17140733 -0.9281777 -1.1756296 -0.797386 1.1442907 -0.69642925 -0.35886788 -0.0037353116 -0.53371155 0.5142583 -0.46924907 0.53552604 0.602536 -1.8846315 0.007277537 -0.19333953 0.3984015 0.5736702 0.0061680744 -1.3309449 -0.33350793 0.4030252 -0.35961998 -1.36689 0.2974715 -0.31408674 -0.4031385 -0.23566668 -1.7066783 0.24472718 0.5295899 0.075155586 -0.91846156 -0.28009903 -0.8478337 -0.16323502 -0.7513802 -0.08345613 -0.033267297 -0.17475443 -0.22858661 -0.57490784 0.68621635 0.6825029 -0.2394539 -1.2577343 -0.13445275 
a 0.1534386 -0.181951 -0.039118435 0.14103755 -0.086407006 0.11961193 -0.034200203 0.09068708 0.23003879 -0.016378492 0.025787305 -0.17659968 0.1101839 0.1519266 0.122577325 -0.1353328 0.045329206 0.011234603 -0.08620426 -0.19235413 -0.093430884 -4.206031e-05 -0.2553517 -0.108468704 0.06596127 -0.15689941 -0.024010452 0.20533037 0.5600869 0.2800635 0.059337907 0.120604664 0.0042510103 -0.016225582 -0.13434507 0.36268649 -0.023484772 0.028538479 0.04919321 -0.06407963 0.032283142 0.0753806 0.060295068 0.11588639 0.1870181 -0.10043986 -0.0429887 -0.082209535 0.10109759 0.18933366 0.020116799 0.29643828 0.2927153 0.0036123774 -0.07630157 0.002027785 0.14757518 -0.29427084 -0.13691609 0.23247162 -0.12479642 0.3399711 0.08635124 0.26572207 -0.22296336 0.12388866 0.022717148 -0.26728395 -0.06736932 -0.08054386 0.13707237 -0.005544319 0.32840344 -0.18150303 0.026242295 -0.5101254 0.21205598 -0.2124454 -0.37468228 -0.081796214 -0.14923927 -0.013569352 -0.1445396 0.24282514 0.10339478 -0.018334758 -0.06547699 0.14800534 0.033130366 0.07616012 0.034751724 0.010040052 0.11553287 -0.092068955 -0.0011479651 0.11077298 0.16666247 0.18312216 -0.103957675 -0.3094584 
egg -0.18650846 -0.74561113 -0.61457825 0.39822826 -0.00077029824 0.2835067 0.37226316 0.315906 0.3664176 0.9692175 0.9941977 -0.23178871 -0.68153673 0.3518006 0.1620166 0.09818125 -0.4090701 0.62362057 0.52384686 -0.41745627 0.13377148 0.2920124 -0.7514876 0.07354813 -0.49440894 0.46318394 0.09548479 0.08685755 0.018819675 0.37764525 0.15423895 -0.08154063 0.1313043 0.27139786 -0.42091683 0.4509485 0.7688755 0.45964953 0.25163394 -1.1213654 -0.3968765 -0.0005012191 0.060906712 0.14945704 -0.5869349 0.11676068 -0.9226907 -0.15934803 0.15528785 -0.40408993 -0.28968242 0.082250476 -0.086825855 0.062591754 0.6529687 -0.024420349 0.19523492 -0.41097915 -0.21077405 0.14594372 -0.539706 -0.15350774 -0.63750523 -0.2618429 0.27463585 0.04597845 -0.13144687 -0.31704295 -0.06548738 0.4312685 0.016428212 0.23071536 -0.22808123 -0.31548882 -0.8156531 0.54702604 1.1574631 0.46024334 -0.223447 0.4170973 -0.08433012 -0.35720193 -0.11179388 -0.14573023 -0.40117845 -0.9578386 0.177967 -0.08431824 -0.15482906 -0.4499286 0.9997105 -0.5287267 0.21431708 -0.66223943 -0.13620342 0.3853909 0.3173552 0.4170258 0.061858438 -0.64419293 
breakfast -0.18487935 0.40849647 0.47961122 -0.16639979 -0.14715278 -0.19050384 -0.36583245 0.35216975 0.5190022 -0.064922124 0.1995262 -1.1931654 0.48624587 0.65143335 0.10717514 -0.049577124 0.4474064 -0.062975354 -0.5100891 -0.6341187 0.2145224 -0.7082868 -0.20837362 -0.134526 -0.18995412 0.11056796 -0.16509722 -0.4304841 0.11082864 -0.24608795 0.9926316 -0.19200608 1.0168335 0.081379116 -0.91567194 -0.28916904 0.5023606 0.43522456 0.74265736 0.371067 -0.30438042 0.23115526 0.60387534 0.21334223 0.0060678665 0.36541796 0.07994909 -0.43311203 0.31103337 0.3178362 0.4884586 -0.3444389 0.62883335 0.57383233 -0.867244 -0.32408205 0.14155461 0.73111707 0.004495747 -0.77688736 -0.3893319 0.033419654 -0.07015918 -0.013881241 0.093316905 0.4180987 -0.34719107 -0.21301359 -0.016613696 -0.16322991 -0.07335987 0.035225615 -0.28903943 0.36189997 -0.36960393 0.088395596 -0.6101426 0.044014305 -0.19121246 -0.56926537 -0.11411758 -0.46856418 0.42804527 -0.24566673 -0.7017564 -0.36136186 0.33205223 0.04479011 -0.2004243 -0.2096544 0.026650578 0.31090656 -0.21253958 0.7832654 -0.019363372 -0.28092548 0.5164245 -0.27691773 -0.3682813 0.07763224 
especially 0.331881 -0.4024382 -0.44854277 0.4735789 -0.47383735 0.055200316 -0.2351346 -0.3306526 -0.20732927 -0.8497654 -0.43564165 0.69154596 0.10229483 0.15723877 0.64251137 -0.009842618 0.24288881 0.36849883 -1.6475365 -0.5658434 -0.3749738 0.3622718 -0.5835674 0.16101065 0.4490748 -0.40127006 0.8241147 0.17794123 0.5399112 0.091124706 0.21675134 -0.13036668 -0.04970157 -0.36073527 -0.7061508 0.3634945 -0.036353987 -0.47726926 -0.6516443 0.04921318 0.46823978 0.0226053 0.23964655 -0.033467803 -0.34783235 0.059157968 0.0036545675 -0.1462434 -0.2631181 0.0583918 -0.4185527 0.8747829 0.18375765 0.016118659 0.008299887 -0.17335324 0.32286552 0.121255115 0.10402303 0.7781151 -0.65821815 -0.41420275 -0.022715073 0.08415182 0.37970984 0.68022805 0.08231593 -0.46543407 0.21483125 -0.25987238 0.24136478 -0.13635089 0.46083206 -0.13995598 -0.25281012 -1.291639 0.4009018 0.13526553 -0.056102294 0.01760881 -0.6364604 -0.15814795 -0.06408281 0.50953364 0.39751402 -0.17078686 0.14745283 -0.49618343 -0.46867317 -0.2661559 0.5320991 -0.09639393 0.016381824 0.13661392 0.28608078 -0.6805796 -0.13932492 0.29977864 -0.5472482 0.4727396 
for -0.11685056 -0.18043563 0.014403065 0.21129382 0.59628683 0.017590614 -0.049288668 0.24172439 0.21934818 0.29903886 -0.062018324 0.110067934 0.19695522 0.06895443 0.098784514 0.044450972 0.043629125 0.15273051 -0.039779913 0.0955311 0.30926034 0.19512968 0.30858946 -0.35464844 0.029187642 0.024902102 -0.2689068 -0.2685143 0.061017748 0.29212818 -0.19665386 0.12373931 0.29138744 -0.9684745 0.55416024 -0.0020930732 0.035669502 0.18881097 -0.24969774 0.020039652 0.1498572 -0.38875085 -0.46378654 -0.0927161 -0.14643535 -0.22987294 -0.023112128 0.6214989 0.5155578 -0.04374934 0.15457772 0.39663622 0.13487181 -0.1352172 -0.13874832 -0.17814572 -0.23199035 -0.005278072 0.053125054 -0.023935566 -0.26375976 0.07080626 -0.09074099 -0.08984604 -0.18239649 -0.30538985 0.08220919 -0.06444705 0.1326722 0.07622961 0.5063727 -0.22416827 0.043415226 0.061153803 0.4193696 -0.048108466 0.20127828 0.024375513 0.2227017 -0.68308204 -0.08289824 0.17174675 -0.19608915 0.31093717 0.06299573 0.11469422 0.72653544 0.054417554 -0.68595684 -0.07990878 -0.10369778 0.17886263 0.23644161 -0.10595303 0.12593837 -0.22230133 -0.0324146 0.1706661 0.11801209 0.10038162 
$400 -0.44117078 0.18191104 -0.2710935 0.7870404 0.7315319 0.9030558 0.40206742 -0.28799608 0.31769502 0.33609042 0.35396138 0.16326217 -0.05252243 -0.0016471813 0.45085186 0.5768133 0.067092255 0.6398916 0.16009024 -0.09268654 0.5203743 -0.023854537 -0.14574979 -0.018743593 -0.119984016 -0.53951645 -0.5888765 0.095089495 0.46035823 -0.09200231 0.12970519 -0.6265749 0.15288962 0.7960469 -0.436178 0.40823445 0.19407344 0.19876751 -0.14625786 -0.85938567 -0.45712742 -0.09975137 0.16826911 0.045920473 -0.22084942 0.11510535 -1.6979208 0.45422652 0.26389593 0.18906295 -0.15409398 0.3004291 0.34749386 -0.030754473 0.04579077 -0.25073814 -0.19296083 -0.09202867 -0.51406187 0.11366192 -0.4521327 0.37023857 -0.45485827 0.2974077 0.33702835 0.09973234 0.13581666 -0.2758063 0.21424888 0.8518227 -0.035770115 0.26851812 -0.30250227 0.15699495 -0.045571603 -0.02232067 0.14546089 0.46929392 -0.89564097 0.059894685 0.017198125 -0.010956755 -0.2507292 0.3184245 -0.5166242 -1.1613722 -0.23384649 0.14486273 0.00046690472 0.13514222 0.3072826 -0.25318575 0.31186756 -0.6254142 -0.8300448 0.8113243 0.13959303 0.35569248 -0.11646948 -0.25608212 
0 0.0 0.0 0.0 0.0 0.0 0.0 0.0 0.0 0.0 0.0 0.0 0.0 0.0 0.0 0.0 0.0 0.0 0.0 0.0 0.0 0.0 0.0 0.0 0.0 0.0 0.0 0.0 0.0 0.0 0.0 0.0 0.0 0.0 0.0 0.0 0.0 0.0 0.0 0.0 0.0 0.0 0.0 0.0 0.0 0.0 0.0 0.0 0.0 0.0 0.0 0.0 0.0 0.0 0.0 0.0 0.0 0.0 0.0 0.0 0.0 0.0 0.0 0.0 0.0 0.0 0.0 0.0 0.0 0.0 0.0 0.0 0.0 0.0 0.0 0.0 0.0 0.0 0.0 0.0 0.0 0.0 0.0 0.0 0.0 0.0 0.0 0.0 0.0 0.0 0.0 0.0 0.0 0.0 0.0 0.0 0.0 0.0 0.0 0.0 0.0 
all 0.04583054 -0.19467197 -0.027743345 0.09677496 -0.2152267 0.22460502 -0.023072422 -0.0017047988 -0.13369961 0.049813844 -0.11329238 -0.05280429 -0.00479301 -0.20708598 0.08918786 0.27289563 0.27815956 -0.07342841 -0.1555831 0.06373002 0.538646 0.13261247 -0.34342852 -0.16872616 0.12499472 0.12207135 -0.099502966 0.41539124 0.26951188 -0.19921926 0.19277117 -0.14119573 0.41937163 -0.054257024 -0.03159167 0.055069264 0.20446523 0.0021466329 -0.21236345 -0.013622738 0.11708388 0.031043872 0.02390538 -0.15167055 -0.10901178 -0.047479097 -0.27585337 0.11409705 0.099531315 0.017800752 0.25868452 0.06065821 -0.0151567925 -0.09861128 -0.2353915 0.1641633 -0.101418056 0.11434601 0.018435577 -0.11675472 -0.08981497 0.013285525 -0.058188934 0.2746248 0.15725708 0.30585268 -0.013481199 -0.120750874 0.0039175763 0.117194355 -0.05010551 -0.08335104 -0.24778876 -0.030533567 -0.1576741 -0.2687822 0.077212885 -0.15654945 -0.21182856 -0.30333117 -0.020707335 -0.20603003 -0.21061765 0.16173515 0.11253625 -0.2593622 0.23162113 0.07330509 -0.11532912 -0.31715006 -0.19153786 -0.017753458 -0.22137289 0.08694223 -0.12178734 0.057513524 0.07250187 0.15955253 -0.102898404 -0.17791754 
in -0.11948019 0.20358963 -0.21707253 0.18024383 -0.007525991 0.00728396 -0.016122425 -0.029442212 0.44268957 -0.0059043616 -0.03691657 0.10834759 -0.056307264 -0.1947552 -0.19362457 0.6055402 -0.07451818 0.35774112 -0.057070065 0.20990877 0.027774192 0.28652945 0.071477234 -0.6975083 -0.06636009 0.016283218 0.027066793 0.48381752 0.0019845688 -0.0014252841 0.068839885 -0.30338547 -0.040329274 0.5922501 -0.41164503 0.65726286 0.3512315 0.2612447 0.04384068 -0.3116088 0.340476 0.12949441 -0.065164775 0.30974293 0.26274055 0.7128595 0.050801814 0.04038143 0.06886087 0.04124514 -0.19723472 -0.11408869 0.32575214 -0.19211785 -0.010540736 -0.13721947 -0.16513185 0.03448081 0.19440623 0.1992368 -0.68336177 0.010894132 0.06595405 -0.08264361 -0.076394334 0.10115518 0.007926723 0.63311666 -0.06946142 -0.1113614 -0.0069088857 0.23215346 -0.32235566 -0.10482186 -0.5769599 0.102874726 0.17026979 -0.0027221665 0.061181843 -0.05541168 0.13771547 0.048751343 -0.0012413394 0.17756227 -0.24955001 0.25455105 0.4077058 -0.028225122 -0.3237991 0.07572588 0.072952256 -0.005528623 0.20613518 -0.21462384 -0.11150204 0.004823684 -0.037473377 -0.1946338 0.15174939 -0.33508384 
an -0.4025178 -0.13695571 -0.10574091 0.16829194 0.47405013 0.01348277 -0.20641749 -0.041803237 0.16642159 -0.56394786 -0.10078066 -0.33681527 -0.06178828 0.10329605 0.048916977 0.082276754 0.5078977 0.33961415 0.5354975 -0.01936557 0.30441242 -0.21466953 -0.07847734 0.24482606 0.49987411 -0.43090665 -0.24653178 -0.33992457 -0.06558904 -0.69997495 0.12637518 -1.1073011 -0.18664305 0.055811886 0.17158607 0.059949927 -0.14440854 -0.1595231 0.03663739 -0.36682943 -0.32402852 -0.02467601 1.151936 0.03303973 0.7391955 0.15713896 -0.109200455 0.30764917 -0.0058402354 -0.03942129 -0.25800297 0.5477907 0.5522193 -0.22071332 -0.029300358 -0.30327597 -0.052601993 0.7227354 -0.21650755 -0.20869754 -0.22308353 0.028709529 0.26503038 0.12921558 0.22007975 -0.45855546 0.16932425 -0.9600894 0.082601175 0.24455677 0.2825662 -0.006175499 -0.061005723 0.071016476 -0.2617166 -0.108116016 0.16474165 0.09392918 0.13568236 -0.30722037 0.43983448 -0.76644987 0.35548845 0.4798417 0.41155237 -0.05011347 -0.022870904 0.110400796 0.05799686 0.19156376 -0.2785553 0.7280567 -0.16478479 0.10183487 0.29382026 -0.09275261 0.8474421 0.32550868 0.5401088 0.33551374 
excellent 0.2938029 1.1481085 -0.35998815 -0.6512224 -0.57619435 -0.13062532 0.16952431 -0.35085514 0.7882562 0.3040698 -0.43142945 -0.0012265894 0.6823858 0.314276 0.07928448 -0.36961392 0.08063743 0.42873177 -0.77348167 -0.2237767 -0.26504058 -0.020223595 -0.38781652 -0.32938442 -0.4224361 -0.0065689213 0.24709469 0.093954116 0.3186074 0.39060053 -0.3544589 0.50749975 -0.16704665 -0.6682112 0.1279326 0.2817438 -0.108655445 0.1905824 -0.13504602 -0.3307124 0.7825818 -0.067764126 -0.28018153 0.12495 0.38679773 0.24644 -0.30933616 0.09244554 0.09924209 -0.12572965 -0.87708455 0.1336279 0.3038205 0.5427248 -0.38709253 0.6339158 -0.8944298 -0.34755227 -0.2751519 -0.46494347 0.5868417 0.26194715 -0.23088166 0.8280697 -0.45263693 -0.49953604 0.6141088 -0.62231135 -0.73733926 0.2398056 0.33585873 0.011898529 0.3656788 0.5273885 0.31104857 -0.18309101 0.02050305 0.32280922 0.10279346 -0.7379392 0.3008265 0.2251051 -0.058678493 0.29417127 -0.38099113 -0.2690385 0.29644036 -0.22843426 -0.9582879 0.29634735 -0.6150642 0.39484423 0.025884325 -0.51129395 0.07316946 0.31290904 0.6133754 -0.43312457 -0.6345673 0.34998745 
highlighted 0.3174347 0.31413516 -0.15479624 0.2486891 1.004073 -0.10394017 -0.4434813 0.11993612 -0.07013379 0.55867237 -0.1490611 0.0019622296 0.59333235 0.19299474 -0.053307302 0.3985732 0.0910777 -0.63544345 -0.45682248 0.030681191 -0.21011147 1.727509 -0.83103335 -0.5748584 0.5402601 -0.435072 -0.13503836 0.059105452 1.2834646 0.34754664 0.18787014 -0.4779824 1.124969 -0.11612938 -0.5417277 0.40503386 0.01767716 0.07560651 0.24120003 -0.07378336 -0.24250342 -0.27682686 -0.2997292 0.060199156 -0.07563257 0.19067448 -0.23024592 0.7251982 0.24373975 0.15942396 0.37173408 0.12720649 0.1599452 0.015917387 -0.24599975 -1.2089491 -0.10915756 -0.07822097 -0.13508865 0.8898916 -0.7598885 0.08305658 0.33837873 -0.26023808 -0.31911677 0.17547445 0.16496007 0.19952211 -0.064020135 0.09058242 0.25732714 0.12633066 -0.09778283 0.23154397 0.31909293 0.1760832 -0.6582212 -0.081772275 -0.40233374 -0.41944548 -0.5572818 -0.21892856 -0.28208375 0.9487791 -0.7213149 -0.21079177 -0.46400198 -0.016749592 -0.26614603 -0.29259005 0.33824155 -0.22894871 -0.107803605 0.7086365 -0.5732847 -0.021925014 -0.015543671 0.3172115 -0.161321 -0.16051938 
by -0.5755147 0.19276924 -0.26924866 0.5018827 -0.030487945 0.34671718 0.2509885 -0.21092218 -0.11984294 0.45218208 0.3484634 -0.07189554 0.09240758 0.6904209 0.4940502 0.14852566 -0.47073913 -0.021880092 0.26793405 -0.25629094 0.2119146 -0.049264066 -0.46863252 -0.38662237 0.034864746 0.05270334 -0.7394844 -0.1740639 0.23712151 0.13109712 -0.47860745 -0.05074678 0.3730277 0.35541114 -0.33799183 0.099479645 0.799244 -0.32019347 0.21639854 0.0046600127 0.36574858 0.114635505 0.1906241 0.896151 -0.21706232 -0.3438261 -0.35400164 0.010927305 0.013977755 0.67929316 -0.015762897 0.08128637 0.25108054 0.0010781486 0.083051205 -0.108286224 0.2957696 -0.2049521 -0.23931172 0.15548445 -0.32953125 -0.17015907 0.59832025 -0.0059671323 0.52094054 -0.3703381 -0.31696734 -0.16350286 0.24922575 -0.041121677 0.50652814 -0.7562847 -0.17369747 0.054602668 0.076048166 -0.26273647 0.32057348 0.45994452 -0.24978517 -0.4110185 -0.018658932 -0.15490717 -0.8730881 -0.29680496 -0.08585523 0.119425 -0.003843154 0.7190996 -0.14353888 -0.12004001 -0.22198929 -0.25790915 0.6192652 -0.3183113 0.04220668 -0.37318465 -0.2230158 0.45869577 -0.098905854 -0.12622362 
great 0.19098282 0.12000303 0.041631825 0.395354 -0.59315777 0.16427384 -0.112050705 0.121045776 0.5139805 -0.035629693 0.4063078 -0.10759074 -0.20825897 -0.20309635 -0.23985907 -0.2651825 0.089456595 0.12424486 -0.0180393 -0.012848467 -0.06439003 -0.049079113 -0.45324263 0.30955988 0.061175197 0.3475546 0.04709044 -0.28279266 0.40749368 0.15730081 0.44021422 -0.0024192887 -0.021092933 0.2470388 0.04966168 0.08915709 -0.055701956 -0.47668296 0.22918779 -0.6249522 0.032542873 0.36682564 -0.18532924 -0.05040696 0.27818543 0.18020906 -0.06071684 0.1280724 0.27690306 -0.40690535 0.12280204 0.16287275 0.39656574 -0.2087421 -0.19778965 0.18441767 -0.3820624 0.27744368 0.35955977 0.24724819 -0.32036248 0.09619774 -0.024427352 0.36648533 -0.371589 -0.09395737 0.46400633 0.025906365 0.058394723 -0.06854944 -0.21982057 0.055735167 -0.082612544 -0.015307537 -0.19591686 -0.13493414 0.2540051 -0.20696375 -0.065212935 -0.22837745 0.1754067 -0.28625584 -0.11857986 0.06258817 -0.041741822 0.021356324 -0.08483334 -0.1055323 -0.50501174 0.033686154 0.032952007 -0.28751358 -0.36617884 -0.46235296 -0.24162444 0.013262983 0.18409117 -0.22993328 -0.27812847 -0.19938254 
service 0.0933519 -0.02324692 0.3089923 0.31058165 -0.06601452 -0.37505937 0.17632146 0.26758343 0.010487917 0.09569997 -0.707557 0.18205306 0.64034945 0.15625605 -0.47902653 0.07152048 0.28078064 0.5178007 -0.15045312 0.11867192 0.34966636 -0.7706506 -0.10497923 0.012108699 0.07116341 0.98772407 -0.0371166 0.6797612 -0.14589888 -0.13547988 0.63853157 0.32674816 0.34114775 0.341205 -0.18004514 0.110060975 0.14049846 0.24435957 -0.22373696 0.06964585 -0.013433269 0.68238765 -0.2040659 0.29377353 0.02839355 -0.7604487 -0.53042287 -0.2482559 0.4903659 0.120646656 0.03173087 0.5714226 0.108488835 0.50655895 -0.07523724 0.05243013 0.22376129 0.21046807 0.64215225 -0.3178872 -0.114013135 0.23276372 -0.6070241 0.13510685 0.33962074 -0.30925262 -0.29611623 -0.036668256 0.146285 0.047540016 0.47801104 -0.5889348 0.122125894 0.10611836 0.09974228 -0.1729753 0.8590686 0.24343158 0.19173172 -0.2748319 0.5181343 0.07353674 -0.17120989 -0.43230447 0.3497477 0.30243444 -0.090994924 0.09502395 -0.10841107 0.123243 0.2190991 -0.4328184 0.08320407 -0.34989542 0.12802425 0.2580425 0.034065742 0.6326255 -0.117220916 -0.18195869 
unique 0.047146447 0.28769758 -0.41552386 -0.05558849 0.892508 -0.08543244 -0.1355756 -0.13658892 0.1342733 0.37496826 0.14714444 0.2771251 -0.072179794 0.8046484 -0.29958475 0.005126611 0.3025374 0.37442538 -1.2036626 -0.0769065 0.0697998 0.3465839 -0.12603895 -0.21758015 -0.30062655 -0.24885473 0.032846395 -0.08268162 0.44333118 -0.2325169 0.07438889 -0.89270526 0.89103836 0.48556298 -0.11898653 0.09055327 1.2577487 -0.10079658 -0.41431817 -0.23295291 0.32985163 -0.6021284 0.21629533 0.18775396 0.1123643 -0.15033925 -0.7557835 0.57452106 -0.12999439 0.31560102 0.16306557 0.17085566 0.7685288 0.10208406 0.5328513 -0.6482831 0.015374648 -0.3939104 -1.0721592 0.09576931 -0.39785993 -0.26933074 0.23087582 -0.88637024 -0.075758815 0.11626054 -0.3342204 -0.40119386 0.8285685 0.57540405 0.4327265 -0.09694839 -1.6825451 0.031782724 0.53725183 0.24441394 -0.26393056 0.7840892 -0.33822444 -0.7604441 -0.5253143 -0.56106645 0.37990314 0.58988386 -0.28660697 -0.35451722 -0.10400835 -0.6776995 -0.46973032 0.14687562 -0.3427627 -0.22485638 -0.19494812 0.17533593 -0.19311896 0.40701726 0.93237513 0.68649405 -0.18117201 0.39457145 
menu 0.65486366 0.26953512 -0.5248363 0.7518263 -0.23073116 0.19618991 -0.05036066 0.39587545 0.6449434 0.34316346 -0.709784 -0.47361946 0.3758051 0.6201411 0.0064072227 0.5435175 -0.40271878 -0.09022558 -0.85655046 -0.54259133 -0.36329973 0.035379462 -0.547666 -0.23733908 -0.32163987 -1.0135306 -0.26134485 0.31713054 -0.18373914 -0.011502591 -0.31777692 -0.14977886 0.36191732 -0.10226883 -0.32953614 0.20138286 0.30633485 -0.19988582 -0.056521453 -0.6974462 0.3647288 0.18619418 0.57087094 0.49816164 -0.203444 0.43880713 0.28248778 -0.20063715 -0.5484489 -0.12338228 -0.53401345 0.41510615 -0.21691497 -0.16393358 -0.025675809 -0.18320543 0.37093446 0.82483107 0.052071907 0.83688104 -0.9647031 0.3428638 0.104298726 0.44944018 0.20948257 -0.6606032 -0.37190464 0.11019046 -0.32487872 -0.029323116 -0.6161807 -0.046324663 0.19867633 0.5655861 -0.28691694 -0.039007235 -0.03681263 0.019511359 0.5273125 0.07486957 -0.10004032 -0.05452387 -0.37702742 0.09842166 -0.7262609 0.08209871 0.43176007 0.15351595 -0.20069414 0.010161844 0.37494645 -0.08713111 0.15396011 -0.6341837 -0.20129262 0.34628403 0.19197619 -0.25828272 -0.6326902 0.13983499 
beautiful 0.12024915 0.044992857 -0.16314697 0.56861097 -0.3818723 0.26260698 -0.41825944 0.970039 0.09767381 0.2157224 0.52625054 0.32112643 0.20204435 0.7171479 -0.020915939 -0.36346403 -0.26606244 -0.6286318 -0.61997473 -0.68714887 -0.20214108 -0.033524644 -0.79903924 -0.19351766 -0.018076204 1.7789367 -0.015444359 -0.0683752 0.93569356 -0.38636324 0.8601543 -0.13192925 0.66182077 0.4695027 -0.53088504 0.741714 0.6612244 0.33547267 -0.58208627 -0.95974964 -0.99798566 1.1674991 0.2435359 -0.37514165 -0.268592 0.22640485 -0.4438154 0.29370072 0.14037876 -0.33550817 -0.057771303 -0.18477632 -0.7995556 -0.48379916 0.8841149 0.19541661 0.07612282 -0.10302423 -0.59509826 -0.17072013 -0.47384062 0.34993413 0.60286033 -0.015294303 0.31243995 0.16908324 -0.5624127 -0.21171485 0.8346281 0.17932078 -0.3013642 0.42625988 -0.5511575 -0.25370702 0.3048986 0.4026249 -0.5524439 0.39602774 0.08339373 -0.36818632 -0.2642591 0.061531175 0.8241832 0.25858706 1.02096 -0.16394576 -0.3557249 -0.15079089 -0.64297706 -0.44468716 0.40217197 -0.45977226 -1.5552384 -0.041991632 -0.3506471 0.48114967 1.1318076 1.0010308 0.937388 1.033641 
setting -0.30927613 0.007907122 0.4597947 0.25417536 0.015118605 -0.16835704 1.1744819 0.099378586 0.2860515 -0.060506187 -0.033097368 -0.021585392 0.04395616 0.024083635 -0.4741386 -0.34427357 0.5236578 0.43312284 -0.6691321 -0.3831139 0.22573344 0.12817967 -0.903676 -0.020418197 -0.06546198 -0.8983847 0.16180459 -0.30138576 -0.0067012943 -0.78448945 0.15712734 -0.4242246 0.46576142 0.5986849 -0.113555476 -0.15376244 0.19508187 -0.25954184 -0.6649995 -0.35043526 -0.042713802 -0.33674246 -0.14906342 0.5374456 -0.114939556 -0.3452554 -0.42897752 0.5540148 0.7971843 0.3707109 0.93325466 0.5275888 0.22652908 0.5397919 0.26921296 -0.18591182 -0.17557205 1.0463612 0.091710426 0.12326032 -0.7014248 0.026856441 0.20995504 0.23685913 0.68887484 -0.8728962 0.014953902 -0.31285673 -0.038272966 0.0245697 -0.010570497 -0.34737748 -0.49916446 0.26989713 -0.14750531 -0.10109757 1.0807778 0.8527695 -0.0749485 -0.5303641 -0.21833728 -0.37236276 -0.24088916 0.2997705 -0.35535452 0.041706204 0.21811041 -0.680001 -0.22249997 0.27415216 -0.47723943 -0.1339411 0.7486019 -0.36570218 0.014110187 -0.80888975 0.38092253 -0.41273683 -0.12835705 0.2340945 
not -0.06744162 0.30079705 -0.24248181 -0.24274027 0.56138265 0.23660356 0.18070558 0.26455757 0.20037334 -0.79045266 0.21905756 0.29177967 0.12343732 0.1401861 0.785296 -0.001184644 -0.14839318 0.4422213 -0.31961116 -0.11116499 0.24531174 0.080399364 0.8764576 -0.5069099 0.13605069 -0.39812526 -0.15900604 0.2723229 -0.18787137 0.241161 -0.06578936 -0.46876106 0.3104179 -0.6899155 0.14062539 -0.21061476 0.66587144 0.2301381 -0.5026418 -0.042627934 0.029839205 -0.19018048 -0.21917494 0.10971638 -0.57448214 -0.3501035 -0.23945482 -0.5837398 -0.2147055 0.17172348 0.03194665 0.34539402 0.055829298 0.5758943 -0.020335894 0.4200897 0.50170934 -0.3475732 -0.42122123 -0.017481476 0.1857057 -0.17257984 -0.6161819 0.04296017 0.007885474 -0.009499307 -0.1056997 -0.105216466 -0.37454516 0.38687482 -0.5495335 0.011260885 0.10437159 0.06423735 0.35638654 -0.032342386 0.18571731 0.31857786 -0.0067359447 -0.26681834 0.20323864 0.017185591 0.55341804 -0.14429477 -0.35459575 -0.7422582 0.03545988 -0.080273576 0.2266795 0.118049756 -0.16480999 0.56788754 0.12870447 -0.16572516 0.10914303 -0.026344467 0.21076187 0.39590448 0.39558628 0.2660191 
my 0.03960489 -0.11287088 -0.93361664 -0.3255242 -0.11606002 0.21831076 -0.039760612 0.060607646 0.081342034 0.39544186 -0.24265997 0.28443602 -0.3958605 0.34161833 0.11956413 -0.34470108 -0.06737263 0.3461086 -0.056575563 0.05881859 0.14783037 -0.047700014 0.037213106 0.12858915 -0.0743627 0.0049176025 0.02188339 0.010691539 -0.27062425 -0.4998652 -0.08807605 -0.10949798 0.226307 0.19882591 0.38785282 -0.21136375 -0.30126846 0.0027033074 0.12572978 -0.09355116 -0.56377715 0.15842143 -0.13907121 -0.22783372 -0.2783215 0.1031956 0.35154936 0.38877392 0.14533935 0.050834924 -0.10695977 0.06372704 0.14144056 0.024258131 0.15762627 -0.24521947 -0.009830555 0.2817158 0.543708 0.5650495 0.053123847 -0.11224615 -0.22325349 0.027407873 -0.06409234 0.0597433 0.31421715 0.07279141 -0.56129956 -0.021666314 0.24275397 0.4982032 -0.8997501 -0.25901738 0.54708517 -0.0016392128 0.8569212 0.098825365 0.20629546 -0.17186204 0.27721798 -0.25248477 -0.17431884 0.20054245 -0.38641846 -0.6026851 -0.25844035 -0.19985221 -0.38767323 -0.27050707 0.54354143 0.33300877 -0.11605731 0.17527714 -0.13795713 0.3638974 0.3458291 0.16897678 0.16751021 0.512504 
thing -0.20774472 0.25064296 0.20315051 1.1668409 -0.08555949 -0.30875424 -0.2681076 -0.5593164 0.4984226 0.89823776 -0.43735278 0.48114917 0.34547147 0.5512857 -0.070752606 0.5070152 0.34168836 -0.14282764 -0.43463817 -0.2559734 0.035146993 -0.70340246 0.06280885 -0.4434296 0.26040453 0.040711448 -0.15963869 0.34961393 -0.10255984 0.08370373 0.57066846 -0.10959625 0.25219202 0.32091925 -0.36088 -0.038135063 0.7037348 0.08993349 0.44551766 -0.39593944 0.35361502 0.09014601 -0.08888014 0.13432254 0.21417221 0.28669012 -0.67125124 -0.18595353 0.44310513 0.2779057 -0.18930447 0.24369612 0.14286433 0.60247415 0.17625852 0.24754727 -0.31229967 0.861628 0.37296426 0.17626984 0.14002815 -0.4301345 0.16416498 -0.06867203 -0.34907737 0.09486778 0.4569978 0.292126 0.18960203 -0.11543736 -0.40093252 0.006337921 0.46012527 0.16997482 -0.35174048 0.012768469 -0.57580537 -0.50299436 -0.106052525 -0.036679048 0.045528643 0.55241305 -0.2686522 -0.7473566 -0.30436566 -0.68447185 -0.26444525 -0.13147618 -0.92623216 -0.16732138 1.1158283 0.5658548 0.43138766 0.5085959 -0.014019799 -0.87192273 0.15412866 -0.13567767 -0.47906876 -0.07648338 
have -0.016472755 0.21767801 -0.093287066 0.132656 -0.6048666 -0.055617906 -0.1556074 -0.42055666 0.21746694 0.7176403 0.0019867835 0.12426633 0.19386792 0.14063863 -0.58701444 -0.062673405 0.4515063 -0.14064838 -0.34077793 0.52721447 0.124143764 0.59950566 -0.21495064 -0.21992895 0.098679066 0.39800438 -0.32665998 -0.20798646 0.6170317 0.115314 0.010314151 -0.12888528 -0.10624442 0.10796581 -0.10954141 -0.2755328 0.22567344 -0.06722549 -0.019141942 0.005677565 -0.1948309 -0.28486913 -0.2919422 -0.0652123 0.005574654 0.05535728 -0.022942662 0.19630449 -0.35645545 -0.1624531 -0.18774119 0.06977827 0.57182187 0.49480936 0.034082755 0.2719903 0.3322988 0.077187546 0.41624394 0.036918167 -0.38181856 0.47879776 0.61908257 0.004621046 -0.033989526 -0.48146325 0.3123741 -0.30880168 -0.29548275 -0.24894239 0.5563894 0.20009123 -0.8714096 0.4828457 0.14737938 -0.028844291 0.033142477 0.17021725 -0.26652426 -0.15560573 -0.096541464 -0.0004909761 0.20329869 -0.37477458 -0.19314224 -0.05974443 -0.38375738 0.02767884 -0.26117206 0.5685418 -0.016472593 -0.7658402 0.10442622 -0.20812611 0.35006818 -0.44695663 -0.21392007 -0.013761785 -0.03019728 0.23945242 
watched -0.3576147 -0.68026876 -0.08540778 0.56451285 0.08177394 -0.46103653 0.4193869 0.24956164 -0.6890948 -0.55317265 -0.34148392 -0.38613242 0.8336884 0.09077784 0.15413499 0.51164484 0.17103393 0.37398258 -0.75892943 -0.052200086 -0.5269795 0.07977419 -0.15404198 -0.43747398 -0.2916965 -0.19401188 0.09488955 0.2464426 0.134374 -0.239033 0.0965766 -0.1593488 0.1354885 0.014844057 -0.1986036 0.46300805 0.36411935 0.57065505 -0.42706186 -0.46462318 0.10005083 -0.011137274 -0.30174443 0.31704092 -0.15987903 -0.8534424 -0.42787436 -0.3685141 -0.1912267 0.044739373 0.023062542 0.103779145 0.67169034 -0.034878418 0.8163492 -0.22739004 0.57578737 -0.5092151 -0.11978382 -0.091852084 -0.3505277 -0.75752336 -0.22885062 -0.13753937 0.080732524 -0.38207567 -0.4683296 0.07390078 -0.35248393 0.33611995 -0.20849332 0.14306886 0.0682748 0.34528348 0.72995913 0.24560669 0.26455146 0.6922227 0.05816909 -0.87905604 0.34050983 -0.14678286 0.41297358 0.59788483 0.3104587 -0.48688185 -0.06973198 -0.2072899 -0.09512204 -0.21002616 0.5523459 0.5870571 0.38228348 -0.21529962 -0.652576 0.39411286 1.5861965 0.4988093 0.35426047 -0.6613004 
their 0.10774289 -0.1512527 -0.116033204 0.06409484 -0.11963757 -0.6481347 -0.06785624 0.017999882 0.5846578 -0.12099797 -0.018387245 0.33367163 0.06926983 0.35918522 -0.012084667 -0.15510158 0.37219965 0.19676624 -0.005720907 -0.5051285 0.07517619 -0.08279035 -0.3583429 -0.11893761 0.15894642 0.13253315 -0.012239706 -0.1155975 0.33096218 -0.21915697 -0.16465732 -0.24170083 0.28493166 0.28645375 -0.11252816 0.32711378 -0.013147873 -0.18859029 0.17982511 -0.05360333 -0.15329309 0.4683886 -0.1286554 0.094175436 0.03635065 0.08191727 -0.31174672 0.07646103 0.39347768 0.13233297 0.16144907 0.423689 0.24537645 0.12014081 -0.05146389 0.012262535 -0.17075898 0.03739136 -0.054469887 -0.028719297 -0.12942024 0.5127867 0.17218342 0.280702 -0.14239715 -0.27490515 0.0105425455 -0.09711803 0.1944059 -0.52362037 -0.12495869 -0.013300181 0.11832544 -0.021370595 0.11122693 -0.22315432 0.34622973 0.1096606 0.011832081 -0.35234377 -0.20779629 -0.012143942 0.06279728 -0.1872042 0.026961824 0.12846446 -0.018327398 -0.27418894 -0.23462455 -0.23912165 -0.09408804 0.100026265 0.17914984 -0.014338398 0.11456773 0.021922708 -0.058355015 0.11353948 0.22802216 -0.0101937605 
prices 0.17230676 0.061743725 0.74907225 -0.11825332 0.65172917 0.4522582 0.42837772 0.34140584 -0.052395176 0.10001286 0.74484 -0.077186316 0.52706623 -0.009868995 -0.0067561474 -0.117725685 -0.1984587 0.10630245 0.3377568 0.1678781 -0.020984754 0.5085199 -0.2956125 -0.3867094 0.33855367 0.07585805 -0.07885154 -0.14409359 0.046454437 0.16124435 -0.09617477 0.101547845 0.93467355 0.0018439767 -0.35173252 -0.050373558 0.36663902 -0.558656 -0.4059808 -1.3519957 0.6171299 -0.21169908 -0.39968783 0.013030828 0.57052517 -0.05209799 -0.029155893 0.07536228 0.3348573 -0.50339967 0.49561918 -0.05119011 0.6479696 -0.21174169 0.123219475 0.052025337 0.22327347 -0.030630747 0.33994842 0.406116 -0.56839293 0.18934005 -0.36693826 0.022057358 -0.66767836 0.53106976 -0.041793685 0.1285373 0.9791011 -0.4206942 0.00216048 -0.016579133 -0.9436659 -0.03935293 0.26646477 -0.27926752 -0.046632476 -0.76912105 0.17769463 -0.050630465 -0.111997694 -0.7134503 -0.43716916 0.18978958 -0.2750621 -0.5245122 0.37175304 -1.1571535 0.08730543 0.16835739 -0.5273515 -0.16408616 -0.06128825 0.059210066 -0.39912167 0.12669218 0.008258139 0.16861816 -0.1845785 -0.051571216 
inflate -1.3452193 0.67819995 -0.40600368 0.38718367 -0.06713355 -0.08933014 -0.25760263 0.61765677 -0.12942116 0.6673352 0.94488055 -0.6842088 -0.18074918 0.17656623 0.25621235 -0.465687 -0.5602949 0.0026163864 -1.084116 -0.5152615 0.44244012 -0.045557946 -0.9146336 0.45512924 0.24783035 -1.2581656 -1.0959089 -0.113621846 0.63578004 0.6645605 0.78168696 -1.0986629 0.6189373 -0.4420104 -0.24715336 0.27726588 -0.3971281 0.6178587 0.19101007 -0.46561578 -0.85088956 -0.87554187 -0.15123112 0.44749552 -0.21033247 -0.0049871886 -0.5428736 0.41297275 0.21181245 0.022858893 0.029521381 1.5673528 0.6215185 0.8579819 -0.5694536 -1.0433539 -0.52043104 0.88030934 -0.070374295 0.56664544 -0.46297973 0.23917297 -0.114512056 -0.14264254 0.13565575 -0.0815687 0.2637907 -0.88449526 -0.43759632 1.1442758 0.61365104 0.65587276 -0.3529698 -0.31038785 -0.42811123 -0.27859494 -0.046916038 0.48550418 -1.7042102 0.9718221 0.21077983 -0.12247248 -0.79849577 1.0837753 -0.94496 -0.5680834 -0.6992727 0.24203025 -0.8687134 -0.2734803 0.38878614 -1.2564348 -0.38231078 -0.8762858 0.028296286 -0.11912889 0.11621199 0.10517696 -0.8090011 0.3189878 
portions 0.19161515 0.2572257 -0.7302228 0.52233875 0.3821897 0.9861055 -0.07492433 0.53582215 0.3898196 -0.7111077 -0.055572007 -0.4232586 -0.0631847 0.05320813 0.75326973 0.10897422 0.3556687 0.14752565 -0.07433723 0.057334527 -0.037710827 0.9111233 -1.0895289 -0.43633902 -0.0827781 -0.034803163 0.36424932 0.4806328 -0.10264635 -0.27764204 0.23037633 0.101080045 0.4442396 0.25638753 -0.35376218 0.10193636 0.8831563 0.45718122 0.46540752 0.18903181 0.43410376 0.7201872 1.1273956 0.017021013 -0.365395 0.21136402 -0.2703294 0.30206424 0.020139651 0.06702128 -0.39329064 -0.7302542 0.17877294 -0.3788594 -0.34248924 -0.021031449 0.38367307 -0.078731224 0.06883634 1.00975 0.2028691 -0.3651491 0.37579226 -1.0671798 -0.03146551 0.2386596 0.09548812 -0.30394056 0.011607851 0.6552815 0.42859226 -0.008315506 0.26955712 0.9490164 -0.5919607 -0.27988845 0.01750963 0.8530799 -0.54986876 -0.38856596 -0.318733 0.2035591 0.009361229 -0.12791418 0.14456719 -0.2695863 1.007077 0.09232019 -0.44550446 0.85945773 0.9652298 0.2909121 0.9036089 -0.39099398 -0.077976905 -0.72697306 0.6850027 0.4363725 0.43355933 -0.18682702 
get 0.07316351 -1.0855958 0.113004364 0.069369555 -0.4482635 -0.2023518 -0.8681565 0.5473556 -0.79275095 0.06746235 -0.33294556 0.5163489 -0.36432284 -0.47350052 0.8584042 0.25845906 0.38496032 0.08717962 0.055120487 0.30906194 0.68001103 0.3610263 -0.043724425 -0.5472941 -0.23441112 -0.13162097 -0.3131609 -0.2026768 0.2649365 0.023396892 0.43405235 -0.6463498 0.19716573 0.05995576 -0.43410647 0.7072773 -0.19219273 0.018050784 -0.2779768 -0.3972527 0.21908718 -0.20090303 -0.09966256 0.02494523 0.24386379 -0.1396831 -0.45441306 0.16004728 -0.3341952 -0.42410946 0.18338475 -0.09990401 0.01624489 -0.23063473 0.3163042 0.11734192 0.21881764 -0.6286847 0.21773185 -0.5340135 -0.7138311 -0.27170372 0.005577641 -0.14741911 0.30795896 -0.5819563 -0.1368475 -0.32212013 -0.58572406 0.35122213 0.14290485 0.2539411 0.05979936 0.43009105 0.81731486 -0.4008031 -0.054214895 0.2540277 -0.48292348 -0.17442606 0.22554624 -0.23297465 0.078281984 -0.0020673778 0.28006232 -0.8155876 -0.09889765 0.14076664 -0.103468016 0.17645462 -0.7622524 0.6712201 -0.031303912 0.16663286 -0.48765242 0.71056753 0.4699327 -0.11765653 0.30918357 -0.8955023 
smaller 0.7447093 -0.15912125 0.48937646 0.2782709 0.31321478 0.9988507 0.36655477 -0.39999792 1.0946922 0.789325 0.029309629 0.820652 0.2903362 0.54531527 -0.4093621 0.43733335 0.17540434 0.709901 -0.16623928 -0.2389113 -0.33737704 0.39090014 -0.53319156 0.24204153 -0.049929537 0.06094929 -0.21703514 0.07475364 1.0985094 -0.68932563 0.29383257 -0.37406835 0.117797606 0.9435705 -0.8774917 0.07597519 0.33387083 -0.29573923 -0.25036806 0.23133065 0.45276368 0.72302085 0.108154066 -0.65851456 0.42767328 -0.9108767 -0.46426773 -0.44494206 -0.5613473 0.42665973 1.1513896 0.5256279 0.8054614 0.11324128 -0.8728409 -0.33821198 -0.20756127 0.27030215 -0.1757564 0.31379482 -1.3895351 0.61848676 0.33886096 0.47896335 -0.43052316 0.53502625 -0.96124357 -0.27345857 0.35994208 -0.7462017 0.15665913 -0.7643102 -0.83856857 -0.7386662 -0.11044906 -0.26891038 0.34810263 0.10189226 0.11275207 -0.7689479 -0.68219095 -0.36181673 -0.09576601 0.6820776 0.12731273 -0.45648026 0.03667067 -0.49178243 -0.010937127 -0.23005931 0.110413134 0.90885097 -0.64683497 -0.28635898 -0.7136077 0.21920851 0.86953026 0.9090845 0.2992355 0.4117945 
management 0.22846772 -0.31775057 -0.526761 -0.0980421 0.25321513 0.07223524 0.7441501 0.56459016 0.2808898 -0.3032809 0.54346055 0.041557185 0.50055295 0.33032444 0.3422617 -0.38652343 -0.18334065 -0.41720372 -0.9244977 -0.42468104 -5.2359817e-05 -0.014256826 -0.51631045 -0.5581883 0.33204395 -0.8723994 0.45726237 -0.119246416 0.43239793 0.86142504 0.07663595 0.29854056 0.62921005 -0.58347136 0.23677973 0.60228544 0.95489955 0.13551877 -0.70053566 -0.67756426 -0.027779967 0.0632542 0.18184035 0.7126059 -0.6840046 0.08026184 -0.9451972 -0.4579443 0.024788123 -0.39204967 0.18803366 0.41500744 -0.046098016 0.4180576 0.20159163 0.09020394 0.6026878 -0.037867364 -0.26099172 0.023407504 -0.019463465 -0.0764124 0.595254 -0.75101346 -0.39355126 -0.5048281 -0.15285654 -0.81438756 0.34181365 1.5225163 -0.21302962 0.22023767 -0.20623018 0.4894112 -0.5912299 0.22317195 0.29385003 0.53672117 0.18755794 -0.008669005 0.018657465 -0.04074233 -0.33001766 0.6428296 -0.05898477 -0.05819226 -0.19848578 -0.1086766 0.4668488 0.11621239 0.47389138 -0.111513525 -0.4010179 -0.03962688 0.21464415 -0.10314606 0.14911507 0.054960128 -0.045439575 0.71006995 
attitudes -0.06429884 -0.1263968 -0.7041907 -0.029353125 -0.5645109 -0.5530698 -0.18227565 1.189619 -0.2536286 -0.16524804 0.27899668 -0.1551509 -0.09449932 0.75829446 0.78070307 0.18436645 -0.7847855 0.92348725 0.45570233 0.00497931 -0.23842199 -0.22143954 -0.8038661 -0.57928336 -0.058643486 0.0130325705 0.95502067 -0.34520173 -0.6230208 -1.8666782 -0.17130874 -0.529652 0.49210754 -0.63903373 -0.8702028 0.3699632 -0.33561197 -0.89622855 -1.0486172 -0.87309504 -0.034106534 0.12802908 0.48385128 -0.42087328 0.05599364 -0.8001093 0.4353577 1.8879377 1.032349 0.08635448 -0.061585013 -0.13264415 0.49661708 -0.5763519 0.45296237 -0.5923969 -0.6360041 0.089628585 0.024921156 0.104122296 -0.7614983 -0.18407422 -0.20726934 -0.085291535 0.19405712 -0.4164708 -0.39181697 0.18621416 -0.1922588 -0.06378061 0.52630687 0.18555187 -0.0001338596 0.60913205 0.81059515 -0.017438522 0.27964786 0.5719626 -0.15305033 0.8088278 -0.0091128005 -0.35169312 0.36207008 -0.24471168 -0.057776492 -0.118130155 0.8325178 -0.022681186 -0.6082399 -0.18313025 -0.62043625 -0.69417304 0.27710694 -0.7449288 0.2943555 -0.7057889 0.78738034 0.98188776 -1.4625071 -0.31075287 
grow -0.02708248 0.009811409 0.008834783 0.29867333 -0.059779033 0.26231763 -0.38374344 0.15396112 0.88084143 0.1431852 -0.16728109 -0.28339043 -0.0086106695 -0.27991113 0.41127416 -0.426311 0.29916275 0.8796574 0.033602223 0.09663967 0.3295569 0.18729109 -0.085214 -0.19114566 -0.47475648 0.12702575 -0.34127986 0.19164322 0.43719295 0.11228061 0.057827584 -0.12854172 0.10175948 0.5355026 0.1438859 0.26693133 0.016113361 -0.08008091 0.76783514 -0.13661544 0.19574983 -0.5513474 0.13752617 -0.01886959 -0.03791243 -0.24164857 -0.35811365 -0.26903462 0.27200973 0.25440863 0.26353717 0.49900487 0.3015486 0.088817485 -0.7916913 -0.2445969 0.13830674 -0.21056981 0.35345146 0.08374804 -0.75293946 0.1711588 0.04535752 -0.15823631 0.07424735 0.5765198 0.43408135 -0.39490527 -0.08789576 -0.49946046 1.7345493 -0.64897317 -0.630071 0.0536511 -0.5817276 -0.48840815 0.051794775 -0.1312779 0.05073591 -1.2728283 -0.23928249 -0.21623045 -0.36386523 0.24624799 -0.01962554 -0.1697725 0.08506749 0.3499449 -0.29322597 -0.09216196 0.13644272 0.9727438 0.4396288 -0.051566947 -0.04687572 -0.19730951 0.3287395 0.2560764 0.27013728 -0.13206622 
rapidly 0.3179369 -0.17602469 0.16215077 0.23333326 0.9056707 0.07822215 0.047932196 -0.3491638 0.18936743 0.601984 -0.19305721 0.37063366 1.1735032 0.51383865 0.4632095 0.6789734 0.79233813 0.07848453 -0.20722361 -0.79169226 -0.19099215 0.42237052 -0.4964631 -0.04069546 0.918156 0.28565383 -0.5391807 0.17339501 0.9025706 -0.18885797 0.5563783 -1.0960084 0.61958927 -0.30473953 -0.7619355 0.024178222 -0.17341252 -0.6320435 -0.16323817 0.36096457 0.092918746 0.9230001 -0.2732626 -0.4466603 0.27695253 -0.31186232 -0.15135847 0.0972616 0.16167958 -0.22283807 0.18262343 0.040337056 0.61735564 0.373328 -0.9686906 0.49834934 -0.4397609 0.90530854 0.21038668 0.30916902 0.22313643 0.28507003 0.094265185 0.12282379 -0.8173311 -0.15249354 -0.35481057 -0.23406829 0.464067 -0.10903891 -0.14545465 0.46291485 0.46224058 -0.7724946 0.5062971 -0.14431432 -0.018392136 0.23976254 -0.6914705 -0.3140103 -0.37326348 0.5587217 0.63607144 0.22791047 -0.15918677 -0.35474777 -0.5438208 -0.5816989 -0.40072748 0.46855977 0.20518234 -0.228688 -0.05682466 0.12093387 -1.0020733 1.3280699 0.8043335 0.6123359 0.41667116 -0.021204831 
overall -0.18152957 -0.43498784 -0.15086126 1.1913662 0.26404834 0.008031615 0.29983917 -0.39246178 -0.3276529 0.60440314 -0.05202244 0.2970688 0.0069452706 -0.0020724095 0.081873156 0.5893354 -0.43910766 0.67526114 0.4622664 -0.49267 0.16425937 -0.47524595 0.8091278 0.052487034 0.6265761 0.20377727 0.14030254 0.6473317 1.0385607 -0.020692958 0.82217973 0.5384797 0.83235765 0.59202886 -0.085228905 -0.39639264 -0.04236252 -0.3847248 0.7433327 0.30597067 -0.38855094 0.13632332 0.3192325 0.9380583 -0.3867795 -0.0028072505 -0.22058252 -0.15339749 0.066123754 1.2924752 -0.6283945 0.17187658 0.37075296 0.42087305 0.5078849 0.1229878 -0.06784382 0.24355131 0.42363483 -0.12827851 -0.09924373 -0.2296254 0.08353435 -0.0022404103 -0.06153237 -0.38859603 1.3006179 -0.08505576 0.6363979 -0.3089266 -0.33272693 -0.19407102 -0.8855707 0.23190837 0.23083429 0.4790245 -0.41108245 -0.0011225507 -0.70646983 0.34424657 -1.1032975 0.23388696 -0.7475721 -0.0036853587 -0.0078444015 0.43262947 -0.42891216 0.102956355 -0.96630687 0.047838837 0.42092115 -0.05888848 0.2769948 0.93742657 -0.25635678 0.08719674 1.1574891 -0.82283795 0.075440384 0.09790057 
experience 0.049021866 0.22953604 -0.41026577 -0.26288024 0.025836002 -0.3344948 0.15710516 0.30877504 0.48414502 0.38534677 0.3660914 -0.29019478 0.34550035 -0.12417027 0.3185559 -0.069871925 -0.10949616 0.22946312 -0.35487616 -0.17944841 0.051956624 -0.22660863 0.22484303 -0.5895007 0.5352138 -0.06556965 -0.040584277 0.28708228 0.091455966 0.5050014 0.31804332 -0.45034233 0.04199207 0.35514078 0.017397366 0.33991525 0.42223674 0.36402288 -0.63810724 -0.07934251 -0.41129035 0.07089007 0.0687413 0.027623046 -0.03730577 -0.11599619 0.30023494 0.2160642 -0.06472765 -0.4696476 -0.35735038 0.426619 -0.21140532 0.38921827 -0.71895474 -0.677647 0.44920555 -0.08677636 -0.2418431 0.40520626 -0.4287851 0.013992174 -0.015538154 0.2862725 0.36539274 -0.7715473 -0.2112591 0.18474278 0.4366979 -0.5712432 -0.113485485 -0.22257262 -0.12007958 0.029837469 0.24978931 0.6769743 0.21410775 0.23531531 0.051548228 -0.31349984 -0.20791773 -0.068519495 0.091315046 -0.05401421 -0.72666293 -0.20157629 0.35092124 -0.11833755 0.22805035 -0.15328169 -0.44875664 -0.025610682 -0.41585767 -0.55789673 -0.36561123 0.042713083 -0.56106293 0.14026129 0.28211528 -0.22279668 
this 0.04043852 -0.1783695 0.03966182 0.3354679 -0.2629932 -0.1608432 -0.3703221 -0.0794068 0.14298452 -0.114050224 0.34545904 -0.07419025 1.1138599 0.22555473 0.021086082 0.13290171 -0.056530785 0.40568265 -0.3050759 -0.10637463 -0.17792925 -0.03783202 -0.56884485 -0.37186137 0.023486558 0.12442659 0.0046117636 -0.51248014 0.12911679 0.09933952 -0.1745124 -0.23086856 0.28236225 -0.0045045773 -0.3279732 -0.030009722 -0.27664363 -0.054780435 0.04310597 -0.49315485 0.0125948815 0.04372537 0.4266285 0.01992583 -0.04781851 -0.07780743 0.14531273 0.1886688 0.07345514 -0.5792173 0.23940171 0.08206015 0.0426817 -0.19431588 -0.026557902 0.13766205 -0.032565393 0.11545853 -0.11302546 -0.19777194 -0.470086 0.080546364 -0.093356356 -0.6062691 -0.34649885 0.121232875 -0.15461598 0.094329424 0.024973292 -0.032564547 0.07302583 0.40112582 -0.53151095 0.13141419 0.057224303 -0.22453769 -0.1339777 0.022898741 -0.20873025 -0.27277943 -0.006910143 -0.07975134 0.00071060995 0.7511804 -0.35554364 -0.030671436 -0.13000241 -0.03289135 0.48758966 0.38521573 0.020487303 0.060627222 -0.1404742 0.02770187 0.008763409 -0.056713656 0.078202106 0.07772339 -0.15240891 -0.27480993 
hole 1.0766033 -0.6924818 -0.899419 1.0403749 -1.0095347 0.6329245 -0.09209655 0.062490188 1.213287 -0.16126162 -0.16874394 -0.21780756 -0.1596913 0.12864888 0.50182664 0.18657787 0.16300927 0.4512635 0.078744635 -0.45921388 1.3851324 -0.24956697 -0.5901944 0.94687057 0.47849992 -0.46922734 -0.01799403 -0.6189165 0.21487269 0.30946085 0.16549936 0.5422994 0.13970281 0.068021215 -0.20211622 0.44943407 0.37626538 -0.19189316 0.31150097 -0.15636086 -1.1603607 -0.3298353 1.1676234 -0.2207527 -0.32680398 1.0096142 -1.1017568 -0.11300058 0.17051236 0.8311572 0.46889082 0.34095547 0.39368212 0.1936471 -0.7995732 -0.09700404 -0.2350908 -0.6300092 -0.16316861 0.16113596 -0.7850377 0.3275255 -0.38741612 0.91483563 1.174898 -0.098709226 0.68126863 -1.4278734 0.472371 0.7639041 1.1011602 -0.09657897 0.8001839 -0.38372687 0.0063247536 -1.157256 0.60368556 0.9262103 -0.4058596 0.31852612 -0.22372277 -0.16819066 -0.34553468 0.34017628 -0.46910554 -1.1786674 -0.30307707 0.04160845 -0.38749492 -0.42376402 0.45959172 -0.66516286 0.5396061 0.12908877 -0.7298535 -0.58891535 -0.07594931 0.6001735 -1.4792914 0.36774942 
the -0.07990313 -0.063654706 -0.019846978 -0.004694153 0.09916472 0.014802446 -0.09871664 0.21934342 0.014686687 -0.064924955 -0.050360046 0.021842532 -0.0043488354 0.020803861 0.10840381 -0.04975969 0.057205644 0.0032957862 -0.073308475 0.0077221645 -0.0939589 0.23240888 -0.36564347 -0.09293207 -0.18601416 -0.099378884 0.030816043 -0.019377705 0.21754956 -0.22375216 0.27695194 -0.22344781 0.11669776 -0.0659053 -0.10614445 0.022527821 -0.04067118 -0.038004894 0.014065431 -0.018734906 0.0010798943 0.17575127 -0.10587763 0.035927005 -0.010895035 -0.06548514 -0.091413125 0.10381638 0.07110435 -0.108023904 0.009072364 -0.079133905 0.093903914 0.0053064274 0.018569926 -0.1685516 -0.041982736 0.18441066 0.17653199 0.15821496 -0.10163731 0.095475964 0.14329647 -0.17438607 -0.12383122 0.01203505 0.017655253 -0.1076431 0.10376445 -0.0071312836 0.10868371 0.06748555 -0.012909693 -0.08398395 0.10424529 0.09580306 -0.037340824 0.17933497 -0.035058428 0.0638406 -0.053480186 -0.075390555 0.04013694 0.08578991 0.0460681 -0.024731198 -0.11002208 0.0034439228 -0.16792506 0.10234722 0.07424446 -0.006115969 0.060548063 -0.1510358 -0.07327743 -0.03155453 0.45150527 0.036929123 0.13434592 0.044666413 
wall 0.12823765 0.27388978 0.3284419 0.5783022 0.3531272 0.07067237 -0.4103462 -0.5730952 -0.42516315 0.75703436 -0.12753996 -0.14461643 -0.051925104 1.030857 0.36278868 -0.5008727 0.1931537 -0.6910956 -0.5132418 -1.4086635 0.33818725 -0.10973568 -0.25546712 -0.122428514 -0.18888405 -0.4353317 0.1762315 0.1931588 0.50489485 -0.15582937 0.5515356 -0.8826067 0.3374321 0.6461527 0.14234306 -0.659073 -0.4005232 0.6936026 -0.34592727 0.007630178 0.25340417 -0.0025213417 -0.5121739 0.05580463 0.607417 0.33491006 0.21064126 0.5445209 -0.027743706 0.23675126 -0.028739695 0.67978424 0.18587272 0.76452273 0.6121826 -0.0049288366 -0.14960316 0.5488719 -0.18845415 -0.39613724 0.21453829 -0.054741707 0.0920322 0.567632 0.051224634 0.08008227 -0.14589213 -0.78436995 0.26169986 0.42153034 0.23659182 0.027295316 -0.55657506 0.4183959 -0.05811989 -0.11015997 -0.72718745 0.39330626 0.10404984 -0.33847198 -0.5317895 -0.6394387 0.31662086 -0.11070785 -0.56255186 -0.2041436 0.41887975 -0.119385414 -0.69909185 -0.29624233 -0.523893 0.5209738 0.43653712 0.018280804 -0.19913457 1.0514874 -0.3614635 -0.27683863 -0.07899552 0.17171566 
has 0.718148 0.17377749 0.052505527 0.63924885 0.18324122 -0.06887755 0.08879185 -0.073722 0.24920808 -0.3538194 -0.2302687 0.06833928 0.79587555 0.7758672 0.3771743 0.108215734 -0.27944705 0.41915923 -0.42115945 0.0648456 -0.23291898 0.15090345 0.2490643 -0.09276013 -0.10143856 0.12912586 0.09466837 0.41715345 0.48984036 -0.022487056 -0.17403114 0.62530524 0.6616012 -0.35367566 0.028934339 0.5950889 0.29594764 -0.33195964 0.3847373 -0.54629946 0.3668232 0.47105867 0.23585653 0.4512238 -0.16902536 -0.45996052 -0.069493264 0.43578547 0.34539995 0.37420648 -0.029688668 -0.15675005 -0.31033313 0.047384154 0.18633597 -0.16013256 0.23667139 -0.34018925 -0.22981897 0.5883953 -0.38139445 0.75628984 -0.19599615 0.75810033 0.7476615 -0.620086 0.5270654 -0.5464116 0.112988375 -0.052693862 -0.29929793 -0.08148014 0.034316685 0.15250209 0.15232255 -0.50158066 0.45928583 0.29166785 0.6321382 -0.18884254 0.63141054 -0.62992245 0.56107074 0.52791166 -0.18303534 0.73554534 0.021177534 -0.07974156 -0.36671075 -0.86026233 0.4520704 -0.30204743 0.10194794 -0.086168155 0.27768618 -0.6719627 -0.19120908 0.113463365 -0.5489791 0.3845304 
mexican -0.45910516 -0.49996418 -0.76954323 -0.7800177 -0.6202785 0.17517383 -0.27879164 0.26511422 1.3988451 0.80542594 0.38395798 -0.22130929 -0.4059666 0.27307227 -0.34936053 0.059084054 -0.4664305 0.30031216 -0.25390673 0.39680848 -0.57373226 0.41919717 -0.5722953 -0.85704774 0.4127456 -0.96357983 -0.039429545 0.24519643 0.88477427 -1.5528079 0.45601177 -0.077949725 -0.32125628 -0.3627699 0.34565994 1.2591665 0.6037341 0.22174826 -0.53681254 0.45782316 -0.46736473 0.061021198 0.63473344 -0.29637635 -0.81853646 -0.8381482 0.07704971 0.8798836 -0.28095347 0.15965678 0.052454352 0.46567896 -0.07947406 0.23408575 0.23714724 -0.7368989 0.42673898 0.7747082 0.17410429 0.49206382 -1.2091622 0.7738576 0.5089539 -0.09196924 0.013628888 0.28009528 0.47065037 1.385091 -0.5125052 -0.15194061 0.81646913 -1.6811846 -0.3726765 -0.15166858 0.49770996 0.3709674 -0.122498825 0.15759873 -0.48407418 -0.7710735 -0.56011426 -0.0022640945 -1.205034 0.9260406 -0.12885258 0.0483161 -0.032145545 -0.22749618 0.19090459 -0.21916156 0.20112912 -0.76582015 -0.3262961 -0.30131394 -0.7409264 0.53058255 0.33600748 0.9280223 -0.21703078 -0.39589655 
street 0.39209366 0.4790418 -0.33992597 0.43971223 0.98073745 0.5022707 0.23739277 0.9298955 -0.4008019 0.40066096 0.20079622 0.28773844 -0.077957965 0.7520117 0.14110187 -0.5856427 0.38763067 0.04415145 -0.3910365 -0.11539898 -0.24358661 -0.3071718 -0.6511311 -0.27255994 -0.018236797 -0.12865163 -0.42566365 -0.45583087 0.061098836 0.0006842487 -0.08904155 -0.7704476 0.721551 1.0638641 -0.7121139 -0.33033383 0.73946315 -0.020277448 -0.23996192 -0.3446534 -0.74939096 0.25927326 -0.38701427 0.404985 -0.3483629 0.54184884 -0.7805177 -0.086913146 -0.08989394 0.27216595 0.18138666 -0.07805896 0.5479929 0.16795275 0.01354209 -0.56803435 -0.05564711 0.51259 -0.21568565 0.6503911 -0.19555114 -0.4529542 0.13315682 0.11033469 0.22606865 0.30698442 -0.80764157 -0.047811843 -0.22097643 0.47380397 -0.29475754 -0.024558991 -0.83376867 0.25163475 0.22797517 0.11510193 0.0851619 0.8707434 -0.11858561 -0.32797047 -0.1550709 0.1556942 0.26328665 -0.70552206 0.22214709 -0.6562189 0.24704249 -0.31547946 -0.029550655 0.55227983 0.19445582 0.33219472 0.518788 -0.20146492 0.3673566 -0.16837458 0.7548457 1.2050765 -0.2817587 0.2596944 
tacos 0.15688069 -0.022738166 -0.47889417 -0.47457263 0.29810894 -0.16350408 -0.23057273 -0.35038233 -0.55663127 -0.38607234 -0.7217798 -0.64598566 0.65383095 -0.054431986 0.155684 0.48963898 0.26143417 0.1037656 -0.41581076 -0.47636905 0.34494418 0.23572594 -0.67112315 -0.04259866 0.8131921 0.5025954 -0.7063375 0.4393791 -0.39566734 -0.5607259 0.95113194 -0.58596873 0.48671722 -0.4129293 -1.1086735 0.1805539 -0.5423217 0.30449012 -0.1576297 -0.15530504 0.16102636 -0.118938155 1.1289012 -0.5155349 -0.7168736 -0.003523741 0.16430071 0.46789914 -0.059231963 -0.5401888 0.20804605 0.6436001 -0.119231075 -0.22909224 0.0067681116 0.038399167 0.21320648 -0.123940155 0.53228444 0.24150033 0.51879436 0.15317729 0.2905171 -0.15990062 -0.08817149 -0.6433492 0.31531754 -0.6210589 0.68554074 0.16312383 0.6357458 0.5649374 -0.5743266 0.8543444 -0.29532263 -0.6599652 0.86988866 -0.22756378 -0.025906827 0.465821 -0.1422569 -0.81457597 0.37290588 0.5074541 -0.63903064 -0.27217808 0.12343019 -0.1718171 -0.8800934 0.39559287 -0.6453138 -0.462289 -0.20951757 -0.22518703 -0.7347286 -0.44954395 0.80937386 0.31207508 0.7894692 0.42021686 
friendly 0.08428586 0.0010478914 -0.09040671 0.37845826 -0.91007733 -0.16982625 -0.323532 0.22192958 0.17952925 0.44673902 -0.058264334 0.1563759 -0.7820545 -0.0843745 0.18271624 0.48045954 0.20622206 0.18610555 0.5191776 -0.25813857 -0.24976222 0.90151244 -0.8510906 -0.41297638 -0.6084933 0.7291591 -0.26832262 -0.1726141 0.4713827 0.3400964 0.42996275 0.40222526 0.6693477 0.22880496 -0.2808364 0.48163834 0.31466725 -0.27674696 0.14588039 0.06711192 0.46187776 0.14227885 0.22400698 -0.15067066 0.30968553 -0.07162896 0.03457145 0.6209955 0.38118783 -0.29226857 0.1033607 0.05938258 0.30627808 -0.34351197 0.05566668 0.07007604 -0.18503496 -0.8726488 0.06984209 0.65581596 0.06061306 0.006613287 0.2214014 0.423682 0.09743087 -0.06876266 0.6482229 -0.26572698 -0.113566875 0.40816715 -0.010551673 -0.31800395 -0.4104542 0.20084552 0.0774557 0.46438012 -0.19368649 -0.16691838 0.048776798 -0.3781247 0.031393286 -0.5414271 0.5170996 0.13646896 0.21799369 0.32863647 0.13416474 -0.19995287 -0.8447244 0.18829514 -0.18369597 -0.43594375 -0.38969117 0.41095704 0.16586272 0.0808686 -0.43142065 -0.28808 -0.65442574 -0.57192093 
staff 0.36277676 0.6475112 -0.53022707 -0.44489893 0.07644572 0.64287305 0.04344958 -0.25414574 0.1772141 0.49740246 0.23450446 0.49618322 -0.29234177 0.5436605 -0.85450846 -0.29544228 0.47655085 0.012720949 -0.7732631 0.0819503 0.19866654 -0.22848198 -0.67001736 0.33409894 -0.18314277 -0.24124971 0.018957328 0.17889293 0.41701177 -0.30296326 0.1687833 0.12826633 0.30571923 0.49570945 -0.11166921 0.14681129 0.5091385 -0.14413704 -0.17281325 -0.8841821 -0.039969154 -0.25966215 -0.34321365 0.2514737 -0.22235706 0.17231448 -0.16568635 0.026848659 -0.1917452 0.53894824 -0.2650786 -0.12725645 0.023706743 0.4263638 -0.28977832 0.103765376 0.31708065 -0.1964539 0.1208937 0.4306741 -1.2583747 0.094303474 -0.34635255 0.33581457 0.6405977 0.2048959 -0.6307068 -0.22756797 0.39549863 -0.14760146 0.21409951 0.115030654 0.033881072 0.39937627 0.20104484 -0.3511865 0.24382925 0.20192666 0.45593983 -0.17953844 0.28441963 -0.35453746 -0.23478588 0.28296608 -0.591773 0.096931875 -0.31484815 -0.20249532 -0.002008207 0.40551504 -0.5576054 -0.15486881 0.26899594 -0.24380058 0.23918507 0.3456813 -0.71399695 -0.1757425 -0.06654576 -0.18443193 
are 0.016424283 -0.130302 -0.14600728 0.88940275 -0.081996396 0.09145645 -0.14902227 -0.13374947 0.18476184 0.20798457 -0.20070803 0.20280716 -0.30257335 -0.0056159873 0.34744644 -0.33112413 -0.42345414 -0.010487343 -0.0568662 0.014149454 0.08837998 0.095502846 -0.1786925 -0.006626249 -0.24591 -0.59758574 -0.042653076 -0.043862097 0.13979396 -0.57367045 0.16176246 0.2790204 -0.24601501 0.41098702 -0.3538116 -0.07636706 -0.1991705 -0.0064010983 0.1896927 -0.12648991 0.07911158 -0.07246874 -0.11127592 -0.98283494 -0.0002668784 0.16913679 -0.18784727 0.19875343 0.023913773 0.5302633 0.46559805 -0.1782077 0.65883416 -0.4163968 -0.6337673 -0.28784144 -0.20716104 0.26177645 -0.5598583 -0.52190465 0.003116136 0.1309882 -0.2516627 -0.015520598 -0.14813754 -0.15060195 0.5398375 -0.17955889 0.25889957 -0.037465446 0.03432128 0.03066552 -0.10767212 -0.09236418 0.1915661 0.28239718 -0.093412355 0.17935367 -0.049493782 0.2276389 0.035613798 -0.38638765 0.044754274 -0.49611095 -0.35614365 0.18250643 -0.09694279 0.19174615 -0.15814678 0.14035876 0.029954543 -0.48175463 -0.007572059 -0.2769119 -0.69574887 -0.18296312 0.10860288 0.45596212 -0.2069953 -0.11317666 
also 0.5584533 0.12398429 -0.19635518 0.28227878 -0.014810987 0.022460395 -0.4993417 0.1761449 0.33741805 0.044373047 0.33986908 -0.17446807 0.5181962 0.08383806 0.4452055 0.29978046 0.36512032 -0.15896082 -0.5020324 -0.608718 0.33640277 -0.33282372 -0.18800251 0.36915606 0.5946024 0.05330084 -0.31609544 -0.018099593 0.17286243 0.0011202801 0.68081295 0.07623402 0.19312456 -0.41998866 0.09039845 -0.26876524 -0.021052431 -0.4936507 -0.37329152 -0.19438462 0.78828377 0.57226574 0.34141836 -0.4672776 0.10065518 0.20732313 -0.062103342 -0.14435063 -0.67020035 0.21571432 -0.025165092 -0.35512695 0.14688112 -0.37454262 0.8670936 0.54382426 0.18654208 0.51025087 0.23912337 0.1270129 0.13933793 -0.2492887 -0.24278598 -0.7408774 -0.38942957 0.2028916 -0.16657276 0.042073842 0.38556367 0.041101206 0.11310423 0.10135742 -0.69768566 -0.42408842 -0.61210096 0.06322153 -0.013239584 0.063698255 0.11697317 0.06716682 -0.05975617 -0.711066 -0.23812343 0.25010008 0.067090765 0.19699098 0.28348523 -0.010444914 0.12552992 -0.046957895 0.3853018 -0.34284285 -0.0029721272 -0.121257335 0.7096413 2.0563361e-06 -0.3318993 0.015729815 -0.16552657 -0.021709831 
very -0.18083385 0.0564102 -0.18438847 0.34517828 -0.06945189 0.11400368 -0.22345492 -0.10832089 -0.06887709 -0.044888005 -0.09365804 0.13536935 0.02992373 0.19050628 0.36685207 0.29036114 0.12401883 0.0709409 -0.29776192 -0.1821954 0.31178018 0.089140795 -0.056261566 0.098230764 0.0037014813 0.01597992 -0.16895542 -0.09574788 -0.13509312 0.09022867 0.09123112 -0.23176268 0.0690158 -0.0054686316 -0.029651351 0.41636726 0.054231416 -0.06683648 0.069372006 -0.133771 0.22162575 0.069223136 0.02692817 -0.07714981 -0.009692725 0.12010394 -0.32168886 0.0669262 0.13016096 -0.24930859 -0.010028806 0.17608461 0.26168898 -0.065138996 -0.04525127 0.20151347 0.057668183 -0.037245452 -0.124047145 0.091714785 -0.18338901 -0.24395573 -0.20235604 0.124262966 0.20496061 0.03888321 -0.11569882 -0.1234934 -0.041910913 0.07090332 0.24909651 0.035982907 0.10086054 0.07009568 -0.017823836 -0.24741195 0.24317522 0.32130605 -0.10355301 0.05167337 0.006187169 0.2306383 -0.05939063 0.21915965 -0.076852135 -0.26841292 0.2454216 0.10215665 -0.19174308 -0.17575455 -0.07123554 0.130669 0.2003709 0.07583506 -0.01904938 0.33229202 0.20686613 0.14522852 -0.0016818144 0.030257497 
efficient 0.9348942 -0.28338277 -0.25213364 -0.1391189 0.20249441 0.1392163 -0.40898696 0.13566875 0.7571925 -0.011094374 -0.4598852 -0.7053016 0.36621535 0.07970375 -0.17594439 0.43104768 0.42319134 -0.48754418 -0.33472964 -0.22777191 0.305056 -0.6147693 -0.25808203 -0.36266613 0.61420196 -0.18524164 -0.08178499 0.06973678 1.0824052 -0.21954794 0.33756468 -0.4393814 0.81817347 0.034078382 -0.46965975 -0.6206123 0.35477674 -0.091769464 -0.7178533 0.003547229 0.18136495 0.24800532 0.2662437 0.15249754 0.33284566 -0.91621834 -0.12391275 0.0568942 0.11826507 0.087397344 0.5181002 0.12765844 0.52475816 -0.34096074 0.18521872 0.05975372 -0.31151348 0.015988853 0.003323283 -0.23754609 -0.8391948 0.35893428 0.04029181 0.3356601 -1.0883757 -0.61623394 -0.040114097 -0.11486556 0.81050044 0.5616978 0.9226404 -0.005390908 -0.36713612 -0.14684984 -0.037143577 -1.1190811 0.098278314 -0.17763454 -0.16317186 -0.7929541 0.4880716 -0.13534173 -0.033199947 0.9589976 0.15576531 0.03594167 0.21568483 -0.34453452 -0.59435636 0.57747984 -0.21167691 0.06504394 0.38629335 -0.77224326 -1.5070437 0.2840228 0.4003338 0.16423549 -0.345335 -0.22509609 
bad 0.050408136 0.24147241 0.18885171 -0.23987848 -0.32785606 0.14736526 0.9197847 0.42210662 0.912503 -0.508206 0.52604 -0.00809057 -0.45371193 -0.4574938 0.10397307 -0.6350817 -0.09310767 0.8039423 0.66743577 -0.0329123 0.6161047 0.94181937 -0.16471352 -0.019363167 0.5304861 -0.06951874 0.8208844 0.3105098 -0.16131242 -0.25603202 0.22950353 -0.44073436 0.18042485 -0.034989525 -0.574889 -0.15337121 0.325694 0.28715166 -0.8358143 -1.0634807 -0.3901002 0.16311581 0.113674276 -0.42756516 -0.385994 0.020373177 -0.50169516 -0.32682508 0.4197134 -0.045340594 0.2223393 0.35372066 0.6301586 0.32290682 -0.49472365 0.23407656 -0.24747767 0.63572437 -0.16686481 -0.09981584 0.47042987 0.19819516 0.017318292 -0.1629808 0.0601585 0.42245147 0.181743 -0.14954558 0.011364415 0.38278365 -0.37604022 0.2019606 -0.5817073 0.1286686 -0.08930204 0.18629195 -0.054542173 0.1513944 0.28982264 -0.42437163 -0.1526347 -0.20507684 0.01118808 -0.6657393 0.18787141 -0.27910215 0.1857291 -0.547393 -0.46580324 -0.44167474 0.058907375 0.630126 -0.33186576 0.63269967 -0.30413985 0.22246549 0.07800725 0.24399103 0.013314568 0.4765495 
day -0.20507912 -0.5805979 -0.56366163 0.15363094 0.2518949 0.34165987 0.11492349 -0.3339272 -0.53750885 0.111799404 -0.409536 -0.08909439 0.19796301 1.1652188 0.49968618 0.61190736 0.29553527 -0.50866675 -0.28343752 0.1858019 0.12011719 -0.2547933 -0.224841 0.14143056 0.62260824 0.21687092 -0.5952676 -0.659909 -0.49939522 -0.094310045 0.13012879 0.09001529 0.1535738 -0.26321235 -0.3766765 0.52300864 0.18972254 -0.7790678 -0.06473115 -1.0046867 0.07617686 -0.31997025 -0.3533998 -0.28577313 -0.021648953 0.28834668 0.40612632 0.30124655 0.49465412 -0.67524767 -0.063898124 0.47619528 -0.041933093 0.24800976 -0.503483 0.19355856 -0.17044841 -0.45435336 -0.08747452 0.23767605 -0.38535044 -0.5866067 -0.10738423 0.26327032 -0.716093 0.10709568 0.5959256 0.32125354 -0.42907226 0.030678617 0.29244247 -0.36519077 -0.14634643 0.11125912 -0.6290921 -0.08232204 -0.038993802 0.09444061 -0.7504834 -0.58496106 -0.09150389 0.015688354 0.39362594 0.49887595 -0.25852573 -0.2345282 0.26706153 0.20638853 -0.5787629 0.40738547 0.39785323 -0.49505135 -0.21278392 -0.76667774 0.026257783 0.55007493 -0.08566231 -0.30775133 -0.5705214 0.6271869 
or -0.6424097 -0.033217963 -0.48837078 0.04917803 -0.21628618 -0.046403315 -0.3386894 -0.23042494 0.65626264 -0.39305025 -0.13374196 0.20887586 -0.09669332 0.45244545 -0.51134473 -0.3737823 0.9345099 0.1282305 -0.99618983 -0.62753826 -0.4147657 -0.63943833 -0.07874393 0.115554176 -0.37819916 0.44234473 -0.20150322 -0.08125801 0.38874316 -0.096475385 -0.13291529 0.028680746 0.5384288 0.65431976 -9.926268e-05 0.03395627 0.033798203 -0.28181598 -0.22752698 0.0029959437 0.5347709 0.18989867 -0.3631544 -0.5302727 -0.6324224 0.13292967 -0.35899812 0.41775075 0.14812192 0.23964417 0.055541612 -0.2785805 -0.36039796 -0.20759115 -0.13988364 -0.38200262 -0.041944552 -0.051794104 -0.03337857 0.17082417 -0.63763535 0.008613281 -0.1045743 0.186275 0.15755758 -0.5451906 -0.095514774 0.008285742 0.39141026 -0.2985346 0.01492939 -0.42750797 0.26110438 -0.7303608 0.24087296 0.5994697 0.11757542 -0.06391344 0.0547164 -0.17169864 0.08930444 -0.06430548 -0.5286186 0.2144391 0.21882664 -0.19337568 0.2463834 0.24846788 0.19780207 -0.10600489 0.9139969 0.66162235 0.25562745 -0.012944523 -0.24623995 -0.8375288 0.46586227 0.5735776 -0.27826852 -0.09426512 
low -0.22252189 -0.43707743 0.11349157 0.13092457 0.41788682 -0.29289168 0.28914985 0.01966376 0.39942738 0.09134481 0.9488285 -0.40897888 -0.22421989 0.8636985 -0.2769702 0.51912653 -0.56453556 0.52035767 -0.33397353 -0.6244173 0.36379665 0.091624975 -0.023403648 -0.9086922 0.45149308 -0.54193866 -0.20851515 0.06297597 0.11817838 -0.14413211 0.18851988 -0.39518133 0.91385496 0.015885567 -0.1652153 0.2587471 0.57568 0.46186024 0.40728068 -0.24140161 -0.02513043 0.21237941 0.311449 0.08378324 -0.046125285 0.08541377 0.25110486 0.25943816 -0.34386164 0.76445013 0.6938991 0.31175762 -0.13166724 0.16477928 -0.48134658 -0.39879102 0.16905555 0.02798336 0.15717877 0.141927 -0.73658365 -0.46459416 -0.42600754 -0.07402329 -0.34691256 -0.032255318 0.09328192 -0.24107906 -0.2014601 0.5342604 0.33550388 0.14611241 -0.55227786 -0.37746623 -0.09374303 -0.7562094 0.63809794 0.63227713 0.3721724 -0.45236778 0.036702953 -1.6267554 0.35524625 0.7359791 -0.9313655 0.042163018 -5.369727e-06 -0.72603893 0.22656012 0.018243825 -0.17752308 0.22795531 -0.07819862 -0.89155877 -0.71733135 0.09843617 -0.15298375 0.15755992 -0.42810532 -0.052682143 
tolerance 0.7731801 -0.04860538 0.8941258 0.30076247 -0.51224005 -0.14036946 0.7954198 -0.0520692 -0.5238973 -0.15335582 0.6020639 0.4270257 0.120114006 0.07028749 -0.053216822 0.56434095 0.4906262 -0.43168327 -0.065527156 -0.016728198 -0.3091619 -0.4630265 -1.0648254 -0.26990753 -0.30955735 0.023471152 0.22495471 0.3741369 0.9096331 -0.25040212 -0.09315156 -0.6782304 1.478915 0.36963198 -1.1146246 -0.40541017 0.020069892 0.8463617 -1.6585884 -1.1230925 -0.1745563 0.58401364 0.41290697 0.7614318 -0.26967627 -0.4839094 -0.17003463 0.5401976 0.0022130231 0.03954587 0.6225039 0.15995277 0.46894047 0.42103058 0.37870368 -0.48558724 -0.50553626 0.49219266 -0.41089767 0.34042343 -0.11875275 0.4926427 0.578765 0.20490055 -0.059789 -0.38221553 -0.45711035 -0.53415394 0.55001163 -0.07821311 -0.29101005 -0.41415834 -1.0749979 1.5403388 -0.11676863 0.23116186 -1.316404 0.8920151 -0.26007497 0.2885311 0.18570828 -0.023110801 -1.4626011 0.15525235 0.111524634 -0.5342614 -0.12962267 -0.60646397 -0.36715394 -0.97727096 -0.014492648 0.19677712 -0.5953112 -0.12889683 0.43974078 -0.2728035 0.6984891 0.5094003 -1.1465621 0.56241405 
rude 0.22029148 0.14786081 -0.96046793 -0.21579294 -0.5071865 0.11933295 -0.26777908 0.09692847 0.0069749155 -0.16587073 -0.5618605 0.78815943 1.0625689 0.3439258 1.1044056 -0.1490892 -0.64013875 0.34216538 0.29014668 0.34115672 -0.32602575 0.47265726 -0.3595457 0.095023066 -0.35065666 -0.65719324 -0.4894792 0.61664265 -0.20655951 -0.5579114 -0.08932506 -0.6412294 0.39678204 0.27124894 -0.021267293 -0.46184772 -0.15215014 -0.8943713 -0.43739545 0.18300804 0.3144248 -0.51339287 0.2805022 0.04724109 -0.021227278 0.09619513 0.19393533 0.07027776 0.2564022 0.23781027 0.27693477 0.09141759 0.43340668 0.054914046 0.72851354 -0.7259202 0.21259128 0.1391093 0.54684883 -0.59566134 -0.17775905 0.368426 -0.026327634 -0.4137974 -0.40291157 0.24083926 0.17809016 0.57899034 0.23205648 1.119795 -0.1676594 0.21276349 -1.0102553 -0.2233656 0.32770202 0.3406089 -0.18274336 -0.105408035 -0.106641695 0.02638673 0.18923795 0.17787166 -0.0046484442 -0.3074451 -0.85513085 -0.40531236 -0.31033662 0.54761815 -0.26706755 0.4255228 -0.14556941 0.28140026 0.4011767 -0.37239233 -0.27000722 -0.34357873 -0.22475152 0.14284517 0.5810828 -0.28165498 
customer -0.016790882 0.08624579 -0.2596251 0.3057845 1.2471361 0.28863075 0.75820667 -0.33791596 -0.49971795 -0.53205585 -0.03898903 -0.8215572 0.41532114 0.26873317 0.054318942 -0.15778883 -0.5091983 -0.41180435 0.26946256 -0.70062983 -0.09393271 1.2646109 -0.7373073 -0.578204 -0.061807327 -0.969905 0.1511001 0.41974682 0.9510234 0.044788588 0.29764387 -0.26526976 -0.32163233 -0.11212119 -0.046898495 -0.0796517 0.41172007 -0.26121116 -0.0055051404 0.4241423 -0.51297116 -0.17158546 0.057629853 -0.14554209 0.51780784 -0.8645705 -0.581126 0.17009568 -0.26722595 0.43710113 0.35306594 0.023319615 0.07983743 0.6098048 0.31840092 0.11165314 -0.55151814 -0.26050538 0.12516141 0.5253876 -1.0812418 -0.21796893 0.07488845 -0.012702497 0.0748946 -0.03359194 -0.09637737 -0.84236497 0.18140432 -0.2064187 0.12625301 0.7156146 0.12950613 -1.3354626 0.4975014 -0.2813532 -0.72078276 -0.0055045267 -0.0932262 -0.0407556 -0.69654405 -1.2591472 0.32520762 0.5430398 -0.5846206 -0.25652865 -0.35507056 -1.006803 0.48011452 0.5084824 0.29507926 -0.5123429 -0.14795601 0.054993205 0.12540197 0.8946715 0.66846055 0.29955304 0.22230352 -0.46225688 
people 0.15152921 0.5556158 0.40748215 0.5896638 0.10719111 0.04085566 0.051149208 0.103165045 -0.096390195 0.3122175 0.14895757 -0.3354443 0.02054782 0.448127 -0.06788954 0.4201007 -0.32065287 0.16724576 0.10909518 -0.99613714 0.31289756 0.17745712 -0.4613564 0.31894585 0.10497173 -0.172819 -0.013783182 0.13381535 0.11815976 1.2040606 0.12443425 0.26714054 0.93212676 -0.010858958 -0.21923237 -0.050978366 -1.1467576 -0.18792513 -0.16833948 -0.75452685 0.20031658 -0.54343796 0.18606304 0.37863457 0.15507068 0.7974224 -0.38144684 -0.080483414 -0.39908165 -0.45858222 0.10364603 0.57772547 0.21443617 -0.5896973 -0.1342235 0.002713313 -0.31158644 -0.13418956 -0.14346889 0.50743437 -0.21024093 -0.18195915 -0.87020904 0.01812111 -0.6303923 -0.6662702 -0.09630496 -0.54296476 0.08039903 0.30678877 0.059991233 0.030737687 -0.43618667 0.6090548 0.14938994 -0.36509016 -0.19905385 -0.2707632 -0.27235487 0.6698282 -0.30885282 -0.11130861 -0.36215037 -0.014731534 -0.16245082 -0.801743 -0.42663115 0.04964321 0.15797725 -0.57980573 -0.2941072 0.28494814 -0.04479812 -0.20714858 -0.026303524 0.5331947 0.24878521 -0.28806347 -0.18145798 0.0038690239 
it -0.20274067 0.058289353 -0.23067299 -0.15650803 0.2391104 -0.07034686 -0.33095375 0.090201475 0.16776833 0.13169788 -0.031554937 0.22260627 -0.1383973 -0.027791673 0.086779796 -0.143714 0.21863163 -0.13157436 -0.08063465 0.044066373 0.24004088 -0.02557056 -0.3722728 -0.19310328 0.23724473 -0.12996916 -0.42538002 -0.12914975 0.023588486 -0.3246606 0.17171532 -0.20107779 0.5091344 0.078172125 -0.04251232 0.06914535 0.0075414395 0.1739399 0.34353817 -0.18618797 0.032962594 0.4100769 -0.07745342 0.31508264 0.07048536 0.13800934 -0.02294181 0.039774776 0.14033826 0.088116206 0.057425752 0.009769216 0.28440958 0.21575402 -0.4730463 -0.39661828 -0.21804227 0.35936534 0.17701365 -0.012673164 0.155022 -0.079261936 0.09804513 -0.2003181 0.028323034 0.10264669 0.17259131 0.053442374 -0.20728076 0.22120488 0.2786843 -0.30609527 0.075847745 -0.13082552 -0.10196007 -0.34412032 0.17892937 0.19544765 -0.05764709 -0.2874493 0.38817525 -0.15492924 -0.08590047 0.045807492 0.03874626 -0.098519996 0.08203449 -0.22310527 0.035256606 -0.013016741 0.39106837 0.2657906 0.22831976 0.05176769 0.020930057 -0.2856473 0.121334985 -0.0433941 0.13713889 -0.08218063 
is -0.43353578 -0.071872205 -0.18608002 0.11696336 0.4798985 -0.07604492 -0.19897014 -0.087400794 0.12715349 -0.240163 0.13352144 -1.0511996 0.15031084 0.10971893 0.04599617 0.033675633 -0.021630052 0.13825528 -0.098674834 -0.06848537 -0.12520163 0.26741332 -0.22942357 0.25237066 -0.27988094 0.004572119 -0.13891143 0.30308667 0.09777371 -0.14228292 -0.13956164 0.21029192 0.045778252 0.045697544 -0.9921818 0.01557473 0.03847967 -0.10438837 0.19865775 0.08246335 -0.06881814 -0.4066426 -0.13940802 -0.6627561 -0.052650202 0.07797275 -0.20506813 0.20067737 -0.07120633 0.20742168 -0.013535199 -0.06023252 0.12999883 0.060361415 0.09463444 -0.3661209 0.09486291 0.07633061 0.13013199 0.059236974 -0.26100582 -0.50311214 0.14374046 -0.017960768 0.04208063 -0.17037195 0.10760501 -0.11365267 0.0039831325 -0.15893295 0.06426528 0.11886287 -0.6082085 0.15151788 0.27418455 -0.03261643 -0.12220534 0.030115565 -0.007196158 0.1366491 0.07664146 -0.3538264 0.31529886 0.26671633 0.022235846 -0.10997233 -0.12582862 -0.01580567 -0.12041824 -0.14500359 -0.04282238 -0.11200853 0.23540798 -0.031078644 -0.17278995 -0.18000351 0.051630765 -0.00037871918 0.05624564 -0.32255414 
your 0.8592175 -0.008902559 -0.23853502 0.069647714 -0.88350767 -0.3851983 0.02317238 -0.4142447 0.5024272 -0.32676584 -0.3422756 0.38156065 -0.28777653 -0.050723318 -0.0028222816 0.05673297 -0.4362208 0.31302837 0.19336452 0.55274034 0.012160061 0.14125504 -0.19431669 -0.2406433 0.08971966 0.62668055 -0.20360172 0.017906904 0.21324083 -0.39466503 -0.16755715 -0.92085797 0.1448143 -0.19402698 -0.5341349 -0.2665045 0.29007423 0.1396404 -0.7036635 0.24999695 -0.035147727 0.4494935 -0.26087973 0.0953966 -0.28835437 -0.46381563 0.33819816 -0.12703785 0.26329157 0.050657492 -0.1439859 0.32094803 0.8122961 0.068496525 0.025190946 -0.10993958 0.31034774 -0.609004 0.44893524 0.07155163 -0.2992716 0.38732848 0.22436774 -0.29319894 -0.9445547 -0.11728828 -0.449047 0.31610218 0.11969318 -0.26807272 -0.0012606534 -0.21074143 -0.7388108 0.037020676 0.5787041 -0.30153203 -0.42861181 0.6726405 0.3128415 -0.18433335 0.024042403 0.080954164 -0.298646 0.28786674 0.60178804 -0.2875047 -0.20141721 -0.4958791 0.24427862 -0.7092239 0.05386689 -0.5132714 0.22416084 -0.048851896 -0.49790755 0.07270496 0.15128446 -0.035235148 0.2958972 0.21296057 
job 0.0572806 0.08107471 -0.3562634 0.5850418 0.067535914 0.30432042 0.2487872 0.08203491 0.011020643 0.30092114 -0.083831675 -0.02647024 0.2877484 0.81472474 0.8110787 0.5762844 0.38055107 -0.13410325 -0.45541608 -0.056108665 0.038559206 0.21070242 -0.54615885 -0.25318238 -0.1875616 0.1426229 0.09533301 0.020633258 0.9686151 0.44411308 0.018233098 -0.14253931 0.31472 0.2602403 0.02347732 -0.1470955 0.0022784693 0.26057333 0.17741923 0.80192435 0.10148613 0.3497156 0.31228286 -0.1679356 -0.29857334 -0.061242174 0.08291872 -0.029360102 -0.77011657 -0.02163225 0.3183756 -0.6420084 -0.55903804 0.8325909 0.39690307 0.049002104 0.17449255 0.12809728 0.10050731 0.73522276 -0.79322034 -0.19166803 0.30883953 -0.47348806 -0.387231 -0.42905062 0.2846109 -0.86497617 0.05389832 -0.004014608 0.38693538 0.27152917 -0.6547952 0.40203673 -0.49610773 0.19793262 -0.21001402 0.013760565 -0.12502667 0.3056507 -0.16484828 -0.654038 -0.21115565 0.1955946 0.06165656 -0.7072692 -0.7556239 0.29395056 -0.64678335 0.72610986 -0.06830281 0.3087305 0.089513235 0.085092224 0.22983149 0.57900983 1.054822 0.77788025 -0.33829802 0.07015145 
be 0.17450568 0.14696078 -0.1802095 0.1753736 -0.18496199 -0.18452954 -0.004462551 -0.2141459 0.046505857 -0.13118315 -0.12648316 0.37640983 0.12820311 0.29040778 0.13455085 0.03413892 0.33313227 0.34989172 -0.09741377 0.0052994587 -0.03815064 0.13257849 -0.2901542 -0.12469747 0.15096585 0.13883111 0.1615323 0.53080803 -0.03434918 0.062477607 0.70122176 0.17506158 0.41622168 -0.059666947 -0.059111405 0.19832182 -0.40887547 -0.3198828 0.26896632 0.084667124 -0.064932525 -0.28655207 0.06701825 -0.057090573 -0.017884258 0.2514163 -0.32115054 -0.01453835 0.10402963 -0.034566958 0.033688188 0.38091305 -0.13127829 -0.17596143 -0.24515785 -0.19310664 -0.026377162 0.22475185 -0.012472852 0.20019938 0.124323495 -0.06515054 0.06783865 0.17194186 0.080605336 0.21915987 0.04990027 -0.12724684 -0.15209664 0.22572549 0.20220806 0.006128526 -0.12161197 -0.2887175 0.2976166 -0.052315585 -0.1697854 0.10375224 -0.18141226 0.26209956 0.15878385 -0.08032499 0.3693886 -0.07334706 -0.18236683 -0.003434569 0.06424333 0.095943324 -0.19806245 0.05063028 -0.122244604 -0.030336458 0.5801133 -0.3888534 0.06839312 -0.2743931 -0.068153694 -0.026627345 0.07714896 0.2733894 
polite 0.29640853 0.8652081 0.19906802 0.10566239 -0.12216955 -0.37106755 0.3164816 0.034703735 0.19191356 0.73107725 -0.17188123 0.165535 -0.48629582 -0.40935108 -0.23327681 0.1120718 0.009083471 0.56516874 -0.3551379 -0.10708063 0.6614454 0.25967082 -0.8302614 -0.5538036 0.6070521 0.19400944 -0.87326455 -0.7040905 0.61097944 -0.48776025 0.5731977 -1.2221469 0.90224653 0.22683522 0.19511025 0.033377416 1.12527 0.1346872 -0.627605 -0.9000695 -0.104474805 0.39283925 -0.5472096 0.16975555 0.41979748 -0.35919833 -0.17665884 0.59176075 0.61122197 -0.42656842 0.12416644 0.3576427 0.46339744 0.5175802 0.19605887 -0.083030656 0.113985285 -0.068941064 -0.1284459 0.7726459 -1.0960898 -0.17576899 0.042920448 -0.5509181 -0.6050857 0.1678399 0.30120996 0.28452572 1.0559883 -0.073465325 0.26686186 0.097120725 -0.26015422 0.80895305 0.6152949 -0.96604 0.16665527 0.2967587 -0.34404767 -0.17785463 -0.48101076 -0.36883205 -0.26753566 -0.38519806 -0.037525337 -0.2773664 0.32171518 -0.7233196 -0.31011024 0.15598331 0.12608495 0.29367432 0.31534213 0.24395785 -0.0064560776 0.083796896 0.330312 -0.2496191 0.06954296 -0.59155375 
wash -0.22004563 -0.23848651 -0.27575418 0.044634722 -0.15274645 0.5442319 -0.53455967 0.18614838 0.013921519 0.14655472 0.09682872 -0.35225344 0.5166145 0.2873374 0.28320077 0.10694073 0.19308245 -0.6582438 0.009666535 0.4199654 0.18111804 1.0435814 -0.35207117 -0.42612496 -0.029037964 -0.16684338 -0.096987344 0.6065199 0.7027144 0.030885288 0.27687728 0.0127986 0.29550716 -0.9226975 -0.15816286 -0.07202017 0.004617579 -0.21641901 0.092298426 0.48822984 0.39333764 -0.24043444 -0.5350811 -0.17400722 -0.5918518 -0.23766376 -0.3136183 0.4781628 -0.2088473 0.36940637 0.7197629 0.4397243 0.06413768 -0.21590878 -0.4304323 0.36071473 -0.25581837 0.4098088 0.77108055 0.8873484 0.071990274 0.16981642 0.30695096 0.72473097 -0.29251736 0.23668875 0.4222327 -0.33989596 -0.61515146 0.58758855 0.47272316 -0.17308511 0.026477441 -0.8779738 1.1019878 -0.051493775 -0.23737772 0.752756 -0.9094919 -0.22152017 -0.36929712 -0.1562839 -0.046076417 0.26028013 0.03923511 -0.39023903 -0.09184447 0.30339223 -1.2780402 0.020495398 0.08299391 -0.24528807 0.14216681 -0.031518523 -0.10235128 -0.3627062 1.1168091 1.1111975 0.28196156 0.20773338 
dishes -0.986564 -0.21600111 -0.18347953 0.6171941 -0.46858174 -0.2846387 0.22054237 0.26888487 0.21159953 0.19424936 -0.3662912 -1.021331 0.1597438 0.3094052 -0.41383713 0.16612329 0.1759153 0.05105952 -0.32952306 -0.2841641 0.27496487 -0.100597054 -0.46903676 -0.097318605 -0.32313564 -0.4830928 -0.26509792 0.76681036 0.16158217 1.1141341 0.24718381 -0.70258534 -0.15292533 0.1985503 -0.382145 0.9164833 0.1315662 0.27294084 -0.068365015 -0.2935162 0.2930092 0.7676731 0.9282446 -0.4336725 0.13933337 -0.23368438 -0.21861216 0.27897656 0.347668 -0.16226497 -0.3633017 -0.113547474 0.527371 0.09705153 0.06945091 -0.053443372 -0.19562009 -0.21717203 0.3262437 0.29161775 -0.37693113 -0.074816115 -0.3863478 0.21778955 0.14686811 -0.548786 -0.11652203 0.016516563 -0.5286711 0.3841249 0.2584623 -0.778884 -0.07874737 0.4644466 -0.100122884 -0.37476277 0.8938177 -0.14492206 0.2010552 0.35397732 0.36617342 0.066519715 -0.69096684 0.8650786 -0.5821448 0.6224429 0.16883977 0.85111916 0.25010774 -0.43841937 -0.3152072 -0.14907953 -0.24722157 -0.7900512 0.015660468 0.32802355 -0.3001616 -0.04840841 -0.36542264 -0.10209492 
otherwise -0.16979893 -0.4827183 0.14523643 0.22839898 1.7212516 0.31810397 0.5580382 0.6637152 -0.12772523 -0.44300067 0.7820815 0.7975315 0.3256479 0.14660442 1.2327566 -0.76939154 0.4151806 0.93631935 -0.32191998 -0.5345712 -0.3393394 -0.31490695 -0.8093676 -0.33939072 -0.4220185 -0.113746256 0.44803977 0.79565436 0.21915562 -0.35284725 0.4771993 0.095043145 0.8461364 0.0885988 -0.952309 0.23491147 -0.090857945 1.1002481 -0.17568515 -0.12522516 -0.20987761 -0.006328585 0.25391877 0.3845644 -0.13264558 0.020680528 -0.95975804 -0.2977995 0.36560822 0.6144154 0.97788334 0.5020531 0.61060506 0.4399688 -0.24473852 -0.8012195 -0.3191157 0.57965314 -0.091359265 -0.6114661 -0.23901014 0.33484632 -0.13219629 -0.53382784 0.49134737 -0.38059092 -0.815341 -1.2699755 0.33100888 -0.39724523 -0.25554496 0.5023713 -0.30414844 0.074661 -0.85445356 0.14423922 0.23876978 0.31319124 0.67383516 -0.43213764 0.06448462 -0.512647 -0.18443415 0.68724 0.2000524 -0.65893203 -0.40149033 -1.1836612 0.06886605 -0.4104534 0.22432032 0.038929377 -0.092118554 -0.4389797 -0.65680724 0.623676 0.45305836 1.0069381 0.022408416 0.3010103 
