2104 100
<unk> 0.002929533 0.0012213027 0.0011286057 -0.003184566 -0.0031260664 0.0026337996 0.0007292932 -0.003857535 0.0013610779 0.0022268996 0.0006232653 0.00215607 0.00090184837 -0.00023171394 0.0016991298 -0.0012725627 -0.0025750974 -0.0024147483 0.0038445005 0.0005549917 0.0016025861 0.002809603 0.0021771453 -0.0010162214 -0.00026617758 -0.00012477723 -0.0004262219 -0.0011667111 0.00019536217 0.0017290941 0.0046443343 -0.0042302664 -0.00023253722 0.0011972255 -0.0033591194 -0.001176565 0.00050938287 0.0016059843 -0.00154003 0.001646094 -0.0002747185 -0.005489648 -0.002613762 -0.00012985631 -0.00013059289 -0.0031415808 0.0014474865 0.0013641665 -0.0006418884 -0.00035374385 0.0016067529 -0.0021855177 -0.0030502714 -0.00058276835 -0.0015598364 0.0007738027 -0.0015315985 -0.0052552363 -0.0006886526 -0.0014591941 0.0040886835 -0.00031172181 0.0005144145 0.0013397658 -0.0025466513 0.0012032246 0.0018219764 -0.0009384095 -0.001704621 -0.0010135185 -0.0005174758 0.00014146548 -0.0031690232 0.0027918087 0.00010157254 -0.002713844 -0.0021173253 0.0018714246 -7.874119e-05 -0.001193822 0.0021307564 -0.0023740577 -0.0026561103 -0.00067458366 -0.0023350029 -0.0018080111 -0.0016095401 0.0007289379 -0.0024307438 0.0015470982 0.00010095383 -0.0009322539 -0.0037241334 -0.00047853566 0.0017145487 -0.0012652188 0.00043677367 0.0027122411 -0.002483791 -0.00254173 
nice -0.32154968 0.037526164 0.2620781 -0.15071042 -0.08832092 0.5270575 0.4975606 0.6498083 -0.2955733 -0.38058734 0.086198084 -0.42597374 -0.47142357 0.2284489 0.20242614 0.82533765 -0.28084996 -0.21709472 0.029604888 1.0015476 0.07709988 0.46591333 -0.42353556 -0.79039085 0.4545951 -0.3424811 -0.7117461 -0.5005363 -0.16539274 -1.0258764 -0.88650763 0.17486893 0.58298564 -0.34402063 0.824586 0.7231015 -0.10837221 0.42025647 0.38678434 -0.6449505 0.8906462 -0.69532555 0.49229655 -0.9953347 -0.6396351 0.28159663 -0.18837538 0.05135142 0.30637285 -0.73555243 0.18420647 -0.08921683 -0.2283888 0.27289847 -0.4217171 -2.3798895 0.35313857 0.8396617 0.5618881 -0.7511612 -0.31752333 0.47381285 -1.5114815 -0.28766525 0.61740625 -0.19348525 -0.09115473 0.3539833 -0.3332349 -0.49676904 0.16019367 -0.10979339 0.37605053 -0.7096001 0.29151845 0.4330951 0.6144476 -0.5409285 0.5652556 0.32247376 -0.24394093 0.06420056 -0.108431816 -0.098029606 -1.1737224 -0.04430449 0.18014736 0.310707 -0.37295574 -0.62655824 0.21275665 -0.27040955 0.45762083 -0.04979354 -0.83732384 0.5724796 -0.6222309 -0.05328855 0.052009538 0.47261024 
spicy -1.2175212 0.6023251 0.5029016 -0.37531546 0.012645703 0.65405816 0.45055225 -0.52720165 0.0073614465 0.58381987 -0.36236143 -0.23203582 0.5128439 0.96667755 0.6668811 0.9772441 -0.05313909 -1.3183006 0.06498974 0.838485 0.39114136 0.17261922 0.0016190879 -0.5244905 -0.14817195 1.696226 -0.10137216 0.292778 -0.60540277 -0.4028271 -0.6700487 0.36303034 0.36250716 -0.61386096 0.27295658 0.90902007 0.13100813 0.3189037 0.48162156 -0.44673416 1.1482722 -0.9558266 -0.57865286 -0.73382807 0.7042361 0.68093187 -0.37332895 -0.0036246807 0.36664224 -0.86347216 -0.15607613 0.019250188 -0.010949151 -0.41176838 -0.65307045 -0.35339516 0.7616362 0.07549326 -0.06923472 -0.49723002 -0.2198958 1.2299658 0.302691 -0.1465253 0.15678473 -1.0193954 0.18264121 -0.5984153 -0.096319556 -0.55715764 -0.18134786 0.25406232 0.30282423 0.9038658 -0.5741016 0.8650843 -1.3618096 0.042556636 0.42276466 0.2757052 -0.1589349 -0.97470516 -0.21418338 0.5461894 0.09282652 -0.12838241 -0.3745619 0.7787055 -0.15540695 -0.26132095 0.117295206 0.41941768 -0.9319669 -0.5101577 -0.84670097 -0.4528667 -0.86862504 -0.9915498 -0.09427284 0.7903052 
and -0.012261833 0.12151299 0.01613915 -0.48428914 0.38399687 0.1907704 -0.29286885 0.24378157 -0.17948237 0.35803145 0.2053952 -0.5815187 0.26368552 0.59339446 0.18937317 -0.4386199 0.19507615 -0.111064695 -0.8699296 0.31412315 0.100656636 -0.15079091 0.95701087 0.37937158 0.40943456 0.2682162 -0.11125288 -0.55347174 -0.05209951 -0.41439804 -0.2797596 0.6516541 -0.5054267 0.2915326 -0.1031266 0.2513895 0.55077016 0.34628403 -0.18911657 -0.11835516 -0.44114068 -0.5195214 -0.0028149742 -0.29192892 -0.2907734 0.10022624 0.14535214 -0.57190126 0.40638328 -0.53432095 -0.40643802 0.19975752 -0.2120901 1.5966815 -0.0246604 -2.306892 0.052601736 -0.2931215 1.1825953 0.8220912 -0.18232739 0.6753166 -0.10902141 0.31514996 0.79488057 -0.43317074 0.87975913 0.39026183 1.0370263 -0.15063393 -0.24418151 -0.5168747 0.047518335 -0.63779044 0.1470586 0.25502342 -0.22554569 0.54888594 -0.6856656 -0.056486282 1.0343368 0.5544782 -0.21483313 0.6451341 -1.4035344 -0.33529004 -0.155102 -0.08361145 -0.008207826 -0.57720184 0.12300631 -0.6557036 -0.29382604 0.410954 -1.0219694 0.55269665 -0.45972058 -0.72601604 0.8494212 0.20098884 
tender -0.3738788 0.5360842 -0.6077547 -0.17629786 -0.040503673 -0.14831443 0.48305717 0.69483113 -0.07267156 0.03599446 0.3403579 0.8684929 0.24335052 0.026162364 0.2213534 -0.3693889 0.15805517 0.08820587 0.6756171 0.2867798 -0.6301799 -0.23341171 -0.4129284 -0.49954003 0.98255336 0.97849035 -0.55009466 0.5699901 -0.22792521 -0.20349096 -0.4538219 0.8295124 0.09975092 -1.202426 -0.21470487 0.66458565 0.43114328 -0.6134786 -0.21750624 -0.7960609 0.976167 -1.2782968 0.23726271 -0.49756956 0.8654976 0.17944531 -0.5370799 -0.3133187 0.47117162 -0.44951555 0.06467983 0.3440809 0.6534025 0.49393275 -0.44829288 -0.91847473 0.54219455 -0.5321592 1.4310325 0.19799674 0.6111428 0.6844569 -0.17751707 0.51326805 0.62256056 -0.5931153 -0.49644506 0.5277939 -0.26719669 -1.1110723 -0.362546 0.0417244 0.30909437 0.14247636 -0.17281567 0.61852753 -0.8288528 0.14186709 0.015777782 -0.7071768 0.43706012 0.031199833 0.2360334 0.8901511 -0.24484992 -0.39898446 0.25143984 0.9011325 0.19576357 0.083909646 -0.6080409 0.47019485 -0.3055435 0.27839416 -0.37689906 0.78858334 -0.48652878 -0.54552984 -0.23943086 0.6642514 
1 -0.21999943 0.57877386 0.012153426 0.32147267 -0.07456681 0.20000657 1.1499487 0.38598624 0.065615915 -0.28809425 1.0946877 -0.10270479 -0.595679 0.53808105 0.6753388 -0.44437897 0.8632143 0.12956299 -0.19956955 0.7102493 0.5670346 -0.026244415 0.51318264 0.9964559 0.30764782 0.43274465 0.7102229 0.062218543 0.32199875 -0.17385885 -0.14237024 0.86636555 -0.095733926 -0.28065702 -0.74913514 0.22160637 -0.04884031 1.0033224 -0.14895077 0.05675776 0.72172064 -1.5568328 0.22751488 -0.6848178 0.6648941 -0.5984678 -0.28182402 -0.29027 -0.11899589 -0.562805 -0.07426549 -0.5977353 -0.40000927 1.479446 -1.1786778 -2.693948 -0.30165106 -0.7279141 1.6873082 0.48621503 -0.25815153 0.032439366 -1.0163968 -0.13865466 0.98955846 0.25749162 -0.7889106 0.9576799 0.4952852 0.4097676 -0.6654801 -0.2122604 -0.06327189 0.9152898 0.358117 -0.0037917432 0.032451313 0.024152288 -0.83664995 -0.16640897 0.485699 -0.7028531 -0.9832974 0.2698562 -0.3380779 -0.084312946 -0.23454304 0.1857802 0.4769581 0.4341313 -0.7219732 0.6765603 -0.54516375 0.4702795 -1.0095549 -0.35075447 0.27134693 -0.12137789 0.46225438 -0.7179928 
i 0.011791435 0.54467 0.55460674 -0.3608427 -1.2229762 0.52674145 0.09240237 0.338377 0.21561284 -0.16882639 0.83336264 0.3769058 0.23550573 -0.08887416 0.12857676 -0.35074753 -0.32597497 0.4976559 -0.9694645 0.46673748 0.146179 1.0920812 -0.31718883 -0.33658937 0.23849545 0.6417431 -0.18857254 -0.77644545 0.9595146 -0.42391562 -0.16105755 0.90985453 0.7460177 0.28608242 0.17853257 0.6165599 -0.35983428 0.55312127 0.77732253 -0.39222327 -0.46944356 -0.17805631 0.270505 -1.088513 -0.9281188 -0.12793416 0.3154562 -0.5072545 0.18090403 -1.643879 -0.023334825 0.06539589 0.18638052 0.9872137 -0.60908234 -2.6211443 0.24637802 0.5932172 1.3182956 1.0325745 0.18162262 1.292034 -1.1907172 0.030932048 0.96557474 0.056651797 1.0215008 0.7497065 -0.543077 -0.087778285 0.5868507 -0.42216998 0.5445141 -0.4517397 0.08330046 0.32605663 -0.10045368 0.13494787 -0.6595853 -0.2378065 0.54926056 -0.5578129 -0.8708252 0.17862825 -2.0209548 -0.30582178 -0.4465941 -0.94685227 -0.8845113 -0.655125 -0.26008004 -0.49893385 0.3222005 0.2738962 -0.5826254 0.20372574 -0.17091042 -0.25336072 -0.13470542 0.69061804 
go 0.012640735 0.40107697 0.6809032 -0.88611305 -0.071957655 0.2359078 -0.37038916 0.5679993 0.09540566 -0.19169599 0.54934096 0.46480048 -0.023155468 0.47318938 -0.18018803 -0.3247223 0.025969692 0.9081854 -0.9892899 0.5878724 0.2909783 0.62826794 -0.013096468 -0.11693889 0.030911468 0.114697225 -0.5939541 -0.8755193 0.7478018 -0.3978391 -0.65425587 0.23816486 0.036322083 0.1530795 0.12615469 0.8311669 -0.20231496 0.09674605 0.12400806 -0.6212409 -0.3492454 -0.03276314 -0.39418522 -0.7746941 -0.6439768 -0.17166243 -0.344847 -0.1861914 0.051199757 -1.1934172 0.05018941 -0.27049443 -0.028282657 0.7666963 -0.07481976 -2.433475 -0.20114157 0.51138663 2.141153 0.22164805 -0.45510417 0.5937416 -0.534254 -0.1988046 0.8379247 0.70646185 0.11077402 0.31012535 -0.56348556 -0.08671313 -0.13591227 -0.6414778 -0.36029 -0.8391265 -0.06594121 -0.06575257 -0.33831 -0.2939032 -0.33788618 -0.1754657 0.4997919 0.05717782 -0.5036205 -0.2727057 -1.4636227 -0.31944 0.11053979 -0.028987871 -0.3347182 -0.47729445 -0.14185393 -0.16908486 0.2540151 -0.3210453 -0.6794032 -0.12459157 0.39197412 0.2432974 0.6620177 0.41017908 
to -0.2283532 0.039111916 0.12549031 0.06040779 -0.0060858806 0.13791737 -0.5433714 0.026503464 -0.26220894 0.27026471 -0.11545927 0.09749844 -0.15728043 -0.2088323 0.17102991 -0.46130326 1.0528727 0.17817613 -1.1376706 0.407033 0.4911117 -0.5911913 0.39067522 0.5194858 0.061239276 -0.28844598 -0.0057491357 -0.7104618 1.0177865 -0.26612735 -0.51757836 0.5456947 -0.11133833 0.3311405 -0.41113892 1.0065225 0.30197337 0.19028898 -0.07563999 -0.081141576 -0.6942078 -0.28535953 -0.5467639 -1.0378922 -0.38483563 0.48308966 0.0021659369 -0.56872 0.0023351135 -1.0613661 -0.30696216 0.173139 0.6554371 1.5657151 0.14934014 -2.965399 -0.1532601 -0.95374084 2.1298583 0.32101986 -0.3459552 0.5610983 -0.37795874 0.41323653 0.8702272 0.122921035 0.28658217 0.9984627 0.005199174 -0.87727433 -0.014918801 -0.9002005 -0.28684655 -1.0836152 0.08570826 -0.2564459 -0.43149465 0.1211564 -0.73026466 -0.027059378 0.4326152 0.31158853 -0.60960114 0.07967624 -1.5043701 -0.082655475 0.6486577 0.67001724 -0.032214712 -0.033269644 -0.2633507 0.09129521 -0.31113592 -0.6319709 -0.6589304 -0.48623973 -0.09794543 -0.44546458 0.5031654 -0.17591292 
far -0.1908001 0.6563486 0.8942376 0.046429098 0.23353298 -0.22943605 0.11486483 -0.19436027 -0.110724434 0.04245131 0.10495326 0.3576787 0.0896537 -0.43226552 0.2844163 -0.485374 -0.4253072 -0.15302289 -0.4327988 0.47410548 1.030653 0.8213676 0.15879443 -0.08766152 -0.4753701 0.048342418 0.020060321 -0.47659317 -0.19318138 -0.39699024 0.24913748 -0.028413055 0.24492206 -0.06860383 0.6657385 0.4303939 0.21230769 -0.09589871 -0.65156925 0.27284482 -0.47403136 -0.4382732 -0.07024533 -0.12375191 -0.10257697 -0.34230742 0.91884553 0.017065268 0.29226172 -0.2869427 0.72578335 -0.2764512 0.2511077 0.9977925 -0.32321486 -2.2799072 -0.03849746 -0.3912858 1.6265041 0.3415334 0.0074931197 1.2458491 -0.30628854 0.13382144 0.6529855 0.10713573 0.23577785 0.035427514 0.2858996 0.01742845 0.24515903 -0.47676712 -0.13998201 -0.08290977 0.29337984 -0.5910083 -0.067666516 -0.13611794 -0.8582443 0.1395573 0.4303126 0.4608978 -0.5085073 -0.48551068 -1.5227509 -0.28009745 0.42879462 0.15988389 -0.2464662 -0.23193854 0.041482117 -0.22047159 -0.4704795 -0.12109335 -0.5637368 0.33810028 -0.65066075 0.078597836 0.5464969 0.16863045 
too -0.607959 0.30938175 0.60041857 -0.6151324 -0.61732197 0.056021657 -0.66318685 0.004070708 0.36015525 -0.43683115 0.19830766 0.24777825 -0.076985046 -0.27208126 -0.14715259 -0.5719295 -0.65132505 0.23622076 0.0012258996 0.50875086 0.61240304 0.8035389 0.35207218 -0.37363344 -0.11826459 0.22354178 -1.0561723 -0.9755291 0.018075218 0.119181305 0.05134424 0.36631894 -0.325503 -0.2510996 0.18598852 0.50640666 -0.16191992 0.1291544 -0.45507523 -0.09542989 -0.15269062 -0.19278952 -0.17720082 -0.51311344 -0.3330171 -0.5225049 0.6909886 0.5168625 0.25139764 -0.86489886 0.12526815 -0.30843526 -0.109933436 1.2016588 -0.34204152 -2.425498 0.2350432 0.21448661 1.5468686 -0.045211405 -0.0025877857 1.4008372 -0.4597735 0.23036624 0.55800045 -0.2885687 0.83937144 0.10790842 -0.05865373 -0.23846549 -0.15063822 -0.5497286 0.0017136601 -0.019349853 0.35458127 -0.21590534 -0.48508856 -0.04204464 -0.5849061 -0.06797366 0.88308203 -0.27786738 -0.67576075 -0.061940365 -2.0765643 -0.52199095 -0.1455709 0.026163265 -0.9559246 -0.46461165 0.055519443 -0.05888239 -0.20156936 -0.015284481 -0.4322827 -0.24824682 -0.5204386 -0.25383148 0.08622137 0.27418557 
many -0.46963763 1.0033262 -0.24792646 -0.13811246 0.118522555 0.56700885 -0.51856554 0.0744993 0.04223378 -0.27836698 -0.07358042 -0.3846596 0.44662842 -0.13284746 -0.06605054 -0.21339232 -0.12374266 -0.04502785 -0.28024837 0.6019956 0.44269785 -0.08807068 0.23232196 -0.43621677 0.13104989 -1.0717391 0.14104557 -0.4486097 -0.07657372 -0.14153405 0.25166532 0.14893042 -0.5188303 0.07208775 0.08806565 0.59919554 0.25181845 0.24960592 -0.21908763 -0.3232862 -1.0305018 -0.13960868 0.061131116 -0.041457515 0.046722922 -0.23990086 0.6889521 0.051224865 -0.031139962 0.025917742 -0.2362187 -0.15916681 -0.2543474 0.7106156 -0.044261392 -2.052195 0.11727778 -0.17919038 1.6941496 0.6149656 -0.4872484 1.5996019 0.5846016 0.2063023 0.7295894 -0.21826667 0.60807467 0.1598226 0.8331912 -0.61782545 -0.43627384 0.0013138854 -0.13330899 -0.2728928 -0.067553945 0.2784421 0.2582212 0.033017196 -1.1455224 0.06479831 1.4807777 -0.10949106 -0.2752261 0.31670254 -2.1148756 0.06048149 -0.39260226 -0.3568731 -0.6494296 -0.38764665 0.125604 -0.4729589 -0.41326883 -0.039815288 -1.5854511 -0.11910794 -1.24312 -0.14570266 0.7333136 0.7270861 
places -0.26810312 0.29043394 0.24000357 0.12872028 0.5650224 0.23536918 -0.78218544 0.4201068 0.2623856 -0.1214801 -0.0022815864 -0.38491887 0.4422553 0.19557722 -0.015697403 -0.03946033 0.2624924 0.16823792 -1.0263066 0.60873485 0.5906679 0.66373235 0.40885764 -0.15629284 -0.20605676 -0.86091 0.47359636 -0.026993657 -0.13596548 -0.3478083 0.19426936 -0.46403593 0.28386107 -0.083175756 0.43673193 0.54743505 -0.5124986 -0.18010375 -0.35776162 -0.24378371 -0.22376928 -0.3880668 0.05839444 -0.35956985 -0.021704553 -0.0052590915 0.114581525 0.26522928 -0.14753734 -0.47997054 0.19391206 -0.044934087 -0.35565856 0.6418205 -0.015427102 -2.088822 0.26215732 -0.15723862 1.5961112 0.065641515 -0.9921515 0.94970006 0.4706801 0.09513469 0.87445307 0.2398305 0.43923345 -0.2781827 0.50640726 -0.6559694 -0.4684822 -0.31335476 0.27802736 0.16975674 0.26883462 0.14822605 0.19994804 -0.3481967 0.12966287 0.23441127 0.40044194 -0.14263651 -0.65479153 0.34855807 -0.6805873 0.20252857 -0.4537731 -0.41905963 0.16111785 0.2824192 -0.46732104 0.20472565 0.68544096 0.33784947 -1.323732 0.45078567 -0.62596387 0.1160948 0.2559445 0.19277988 
ive 0.30693778 0.31695688 -0.11139292 0.172776 -0.51742125 -0.122754894 0.52347285 -0.00412697 0.72305334 -0.4604717 0.48844224 0.3648667 1.1541705 -0.0887116 -0.26423874 0.21914302 -0.3119161 -0.13149627 -0.58167607 0.8071983 -0.63292205 0.4399031 0.9793998 -0.3844992 0.010593325 0.08024875 0.39222574 -0.4117419 -0.4752335 -0.38283503 -0.02874882 -0.13145217 -0.020401437 0.30537346 -0.06658965 0.37041974 -0.64878964 0.32647204 0.25308388 -0.05328698 0.1579821 0.74392605 -0.40528876 0.32845083 -0.47413275 0.084707245 0.48247096 -0.4935155 0.760281 0.49616653 -0.3328751 0.04063882 -0.37669024 0.19407423 -0.64407533 0.3686889 0.011907374 0.06568167 -0.7657101 -0.31847897 -0.10733332 -0.10708568 -1.1996533 0.57092136 -0.57033277 -0.01716891 0.4179089 -0.84027463 -0.34678298 -0.36910033 0.75996685 0.73358595 -0.12672514 0.13017644 0.15776591 -0.38062942 -0.47109306 -0.2897775 0.08768393 0.7369012 0.42535737 -0.7201154 -0.45931566 0.0072901803 -0.86670685 0.11823934 -0.14322901 -0.9072653 -0.08619399 -0.22761644 0.06968777 0.12942696 -0.12701085 -0.06085117 0.35841343 -0.18351594 -0.05766359 0.187845 -0.9922441 0.31441003 
never 0.44889772 0.2294429 0.6482316 -0.33316684 -0.52809453 0.19203831 0.21772371 0.24366409 0.6036798 0.031096764 0.6712989 0.73608726 0.541974 0.357098 -0.15421574 -0.42740306 0.3416126 0.8106551 -0.6635975 -0.032403097 0.18570511 0.27690864 -0.040559676 -0.4746308 0.08632498 0.023355562 -0.73443717 -1.1824154 0.6962091 -0.18414642 0.38540438 1.1140279 -0.053641718 0.53519267 0.16910696 0.22113098 -0.30322295 -0.05258482 -0.16804339 -0.025475167 -0.799499 0.079266526 0.3205403 -0.56523776 -0.22400165 -0.47710755 0.8573268 -0.5047604 0.5130057 -1.5954077 0.27471665 -0.0024572131 0.30817658 1.1532763 0.24778229 -2.287328 -0.3752069 0.4523246 1.0283101 0.86346275 0.2680863 0.69094425 -0.7795773 -0.35318658 0.96859235 0.022845967 0.54489064 0.23544458 -0.6328434 0.09819853 0.272685 -0.5413574 -0.10909652 -0.0048183682 -0.054200802 0.039969362 -0.2712895 -0.2251464 -0.9480436 0.40635908 0.35802418 -0.19825272 -0.6949285 0.10563982 -2.2448468 -0.6392672 -0.075545534 -0.56694853 -0.38588017 -0.24039267 -0.22314273 -0.6216437 0.21923263 0.12155682 -0.51249295 0.29816666 -0.29035544 0.19697028 -0.29711428 0.40755332 
seen -0.10018456 0.32202128 0.29430285 -0.071960375 0.07603465 -0.051857714 -0.19037357 -0.13768803 0.22422317 -0.2575799 -0.17501672 0.096245654 0.6631938 -0.004374044 0.3919381 -0.1678815 -0.22784968 0.13402715 0.22406185 0.2771946 0.56344384 0.22526602 0.032076858 -0.09473512 0.16494212 -0.212555 -0.18272816 -0.22703613 0.11917546 0.11693967 0.57016665 -0.27355248 -0.20595397 0.27934498 0.3805771 -0.02033446 -0.09452053 -0.26050028 -0.15258385 -0.15643711 -0.64210224 0.13390636 0.23130168 0.31130096 0.06377351 0.10811227 0.63221955 -0.011812281 0.039616946 -1.2558076 0.2465682 -0.29474124 0.16455802 1.5511482 -0.044232316 -2.3560731 -0.43703425 0.10422286 1.1371381 0.21648344 -0.30848905 1.3050716 -0.40882093 0.08517747 0.58863163 0.5659911 0.7462405 -0.28287685 0.20622204 0.06509258 0.20396802 -0.532269 -0.28692368 -0.06946872 -0.03851307 -0.5054998 0.23113777 0.38441074 -0.7499913 0.06888352 0.4714212 -0.17310771 -0.30998603 -0.38067475 -1.4400382 -0.9135932 -0.09109201 -0.36452916 -0.011264244 -0.47265252 0.19136994 -0.40792176 -0.14244458 -0.10402841 -0.4492549 -0.016935615 -0.33399677 -0.28744286 0.48512334 0.091567084 
any -0.23365746 0.067766786 0.3297737 -0.050190877 -0.28251252 0.20146991 -0.47641584 0.02434658 0.5233214 0.3086764 0.1843422 0.4068606 0.055032622 -0.030523298 0.29030308 0.061517816 -0.3087088 0.43663758 -0.09970082 0.5115134 -0.29981232 -0.43718427 -0.29659224 -0.6613732 -0.09954999 -0.084905736 -0.099877454 -0.6995557 -0.013584504 -0.37496215 -0.036872555 0.47878703 -0.29616147 0.12067789 0.44293067 0.27910942 0.010036548 -0.11983551 -0.2705581 -0.0054633114 -1.010934 0.09882806 0.8178149 -0.39348453 -0.047683883 -0.13908601 0.28338203 -0.49936563 -0.5328411 -1.1965362 0.7669505 0.26546046 0.21174364 0.7660217 -0.042115107 -2.4612443 0.48379302 -0.33669442 2.3482664 0.49058652 -0.3390128 0.5314745 -0.6283376 0.32740992 1.4046649 -0.3799392 0.9572461 0.59083533 0.02148434 0.008913018 -0.5564335 -0.67829406 0.073883936 -0.51971155 0.81447333 0.1366434 -0.1546084 -0.71605307 -1.512016 0.5140501 0.6336783 -0.40753725 -0.13753419 0.5531341 -1.5918987 -0.045844756 0.2651057 0.52559465 0.47961715 -0.6370447 -0.57577246 -0.0749991 -0.19964048 -0.21569164 -0.44392785 -0.17056853 -0.19094618 -0.2804056 0.82335716 0.35788822 
restaurant 0.24264967 -0.40721118 -0.34487376 0.38763914 0.08019114 0.4277336 0.4948242 0.212978 0.24351506 0.4932661 -0.2844113 -0.40145722 0.32658428 0.37318602 -0.5638529 0.27064162 0.34877965 -0.3925861 -1.1234773 0.6811685 0.2671943 0.48407477 -0.47941032 -1.1559411 0.4148362 -0.12578945 -0.24010701 -0.44502184 -0.7821541 -0.7190456 -0.26385495 0.9345873 0.69034135 0.3297908 0.6351514 0.9693299 0.22510837 0.12926042 0.56384295 -1.2743038 1.0480236 -0.3164923 0.08781406 -0.20234972 1.196016 0.5757877 -1.263389 0.011556622 0.6144795 0.092287555 -0.3061947 -0.71860135 -0.28818306 0.4149087 -0.92919236 -2.002101 -0.54257303 0.2680053 1.2087326 0.17702498 -0.561753 0.735209 0.9288661 -0.18790011 0.19149998 -0.3787352 0.3686896 -0.25728425 -0.07212634 0.26196706 -0.78314686 0.54027224 0.3541302 0.0063269087 -0.4385112 0.030147621 0.4337108 -0.57580006 -0.16546275 0.16536708 -0.13779508 -0.048806332 -0.16361186 -0.0066172895 0.08883633 -0.75436527 -0.3920301 -0.33072603 -0.18564944 -0.38764215 1.1347748 -0.07563176 0.61230797 -0.3509116 -0.9138052 0.5405256 -0.04916617 -0.17276002 1.4820117 0.8224397 
that -0.12011951 0.13770035 0.65062827 -0.52257895 -0.30314094 -0.18366241 -0.20664714 0.13447432 0.11789096 -0.13842042 -0.012528325 0.37125388 0.8042667 0.024197938 0.4182561 -0.15818818 0.2909945 0.1344905 -0.528571 0.28876978 0.09955291 -0.6060588 0.28798303 -0.13650252 0.32058054 -0.15352942 -0.09759595 -0.5331448 -0.35725603 -0.42269698 0.21450666 0.7115515 -0.124132104 0.2801422 -0.30029142 0.38939542 0.28167126 0.55588037 -0.32384926 -0.23260519 -0.75810844 -0.1392073 0.13163376 -0.31365514 -0.23046388 -0.07371929 0.6631678 -0.7591223 -0.300869 -0.83275914 0.028941775 0.048646696 0.41069156 1.4370531 -0.10799198 -2.878875 -0.044887703 -0.34761152 1.9129497 1.093679 -0.15723825 0.6759793 0.32220402 0.42258745 0.9804179 0.31224355 0.6638165 0.69320583 0.11558009 -0.68308574 0.5591368 -0.61483395 -0.028751977 -0.511666 0.38274705 0.038238887 0.14379379 -0.011935522 -1.7321527 0.16655 0.7820844 -0.28412247 -1.0328274 0.12934971 -1.8442835 -0.687945 0.1576151 -0.35439864 -0.44537854 -0.4369762 0.082489796 -0.34910044 -0.41912448 0.025522526 -0.19958457 -0.4611829 -0.31784552 -0.57392114 0.32921728 0.5278398 
serves -0.2927249 -0.037163284 0.30012226 0.24448016 1.1473006 0.5446564 0.16650006 0.63803464 0.21298371 -0.15052803 -0.34495774 -1.0113747 0.35308763 0.77529895 0.29535615 -0.504929 0.20310608 0.11439805 -0.7603589 0.36203623 0.20141025 0.2689114 0.28387403 -0.34435287 -0.33667418 -0.3516855 -0.34985512 -0.099231236 -0.33337063 -0.03782927 -0.49438038 1.4119104 0.33896908 -0.23268011 -0.30902833 0.44458345 -0.1501356 -0.028469134 0.485053 -0.17052676 0.15588447 -0.6427325 0.22780341 -0.6439214 0.8635409 0.1450327 0.24149498 -0.47458002 -0.35510954 0.2339422 -0.60034657 -0.83829457 -0.012198279 0.22836874 -0.27305213 -1.9719385 0.43301728 -0.33981466 1.3332287 0.3226982 -0.08087441 -0.17052713 0.7248992 -0.24680398 0.22829683 -0.7064108 0.062145945 0.09870598 0.6166122 0.40366063 0.20689306 -0.060117774 0.77790004 0.17202228 0.43634263 -0.08283784 0.33400074 -0.015048268 0.15825754 -0.47732165 -0.055925895 0.19584967 -0.68637294 0.05118348 -0.5157309 -0.13220784 -0.14469011 -0.021430682 0.9389973 -0.20139182 0.2353971 -0.1426165 0.14473759 -0.04283165 -0.054029997 0.29653004 0.27132997 -0.74780595 0.66283417 1.2818077 
a -0.22648194 0.043417934 -0.0036336647 -0.16781548 0.63223934 0.6084038 0.3649717 0.47947398 -0.2245788 0.6091925 -0.7313215 -0.0070886193 -0.052807912 0.022184152 0.28933853 0.2023699 0.33329102 -0.50086725 0.047196 0.05359346 0.5853654 -0.05327933 0.12778185 0.014925365 0.6799412 -0.20067665 -0.7797369 -0.42591807 -0.23471177 0.10691073 -0.4679984 0.77564645 -0.01867443 -0.08733547 0.23506716 0.429244 -0.2001505 0.26333264 0.72055525 0.2621742 -0.15597896 -0.037908804 0.94609404 -0.28725776 0.4980704 0.15228885 0.59465885 0.22452594 -0.5676213 -0.7871242 -0.16667219 -0.5259364 0.054074783 0.8535865 -0.5095982 -3.6575813 -0.020536762 -0.14480817 2.2236402 0.24276693 -0.044657934 0.57076365 -0.65162295 -0.092774674 0.8004168 0.21760638 0.37114784 0.5593781 -0.09789181 0.13218394 -0.56520706 0.13318047 -0.21089372 0.057042036 0.08693477 0.09077558 -0.21188702 -0.47384125 -1.444306 0.24077252 0.97122055 0.09104791 -0.25253725 -0.027897978 -1.0736995 -0.3508938 0.99320424 -0.22437857 0.069763236 -0.96623605 0.67070186 0.013410531 -0.41690752 -0.020727098 -0.05474994 -0.17924753 0.035016093 -0.50574315 0.6307798 0.29880086 
egg -0.5186525 0.8103646 -0.5117068 0.09053155 -0.56081665 0.39792797 1.2754766 0.18808177 0.1696603 -0.4754438 -0.68761635 0.29273418 -0.111300245 1.3304218 0.55935544 0.34719875 0.3202146 0.03841722 0.45913482 -0.5552844 -0.66417325 0.0813897 -0.24597111 -0.41964564 0.39216655 1.3398842 -0.4783731 0.48477224 -0.5588972 0.18600632 0.4270566 0.507848 0.34565413 -0.28188804 0.03321198 -0.46405274 -0.29876736 0.31322244 -0.1414041 -1.1092228 0.10175711 -1.7256463 -1.2824775 -0.4836493 0.59054244 -0.17603545 -0.4903355 -0.1820062 -0.6781976 -0.73507774 -0.52898234 -0.44238526 0.22731167 1.124497 -0.8348002 -1.1543983 -0.6210563 -0.12244081 0.57275444 0.41171768 -0.06808286 0.079799734 0.5746917 0.47675645 1.3215948 -0.43264177 -0.26588535 0.40256542 -0.12603848 -0.83145696 -0.087193035 0.1828487 0.0890903 0.37280247 0.5662699 0.3097536 -0.63129216 -1.5594459 0.3381281 0.12857498 0.32331666 0.7442146 -0.17098014 1.2054999 -0.55221957 -0.5651959 0.20675689 -0.0048277564 0.32122406 0.36991146 0.31247312 0.4446928 -0.10790571 -0.33813447 -0.3784795 -1.5093879 -0.20227759 -0.20139027 0.8477977 -0.40959948 
breakfast -0.90026397 0.10320052 -0.1772004 0.24591066 -0.33798385 0.46400625 1.0822151 1.053605 -0.5138514 -0.65958434 0.012240953 -0.25919005 -0.20207576 1.0518454 0.19745174 -0.33080205 -0.20684136 -0.43606928 -0.5967836 -0.1502719 -0.28294194 0.13528459 -0.43729463 -1.2357093 -0.008097422 0.23079361 0.1363397 0.2148225 -0.7252906 -0.106123455 -0.33544868 1.0132202 0.53350097 -0.16313703 0.42764536 1.5914085 -0.27821448 0.2651472 0.27398515 -0.50615036 0.20267123 -0.5953967 0.05796375 0.1598247 0.4461732 0.067812964 -1.2741507 -0.71886367 0.24278548 -0.6328339 -0.35589376 -0.30336946 0.4217288 -0.020266654 -0.4080293 -1.6653346 -0.12613383 0.38326305 0.55836415 0.13955997 -0.34937507 0.45998755 0.26066077 -1.1303358 -0.011430452 -0.67879725 0.29097438 -0.1785365 0.77815217 -0.6239872 -0.5728477 -0.28180242 0.583758 -0.27705523 -0.53819925 0.8708887 0.15140803 -0.37427127 0.2511692 0.17865036 -0.82632476 -0.1333681 0.70456207 0.08124687 -0.42481655 -0.44074774 -0.16371082 0.29852298 -0.13519041 -0.26974478 0.63614494 0.09791587 0.48654455 0.09209887 -1.5905617 -0.58718914 0.6936419 0.068805255 1.8136989 0.67290336 
especially -0.47230098 0.48992768 0.25896186 -0.07485679 -0.0736598 -0.3089816 -0.63647574 -0.33947256 -0.21726434 -0.2502354 -0.7001317 -0.7625912 0.023084696 0.17080162 -0.080507666 -0.34855005 -0.22305165 -0.36928204 -0.32013008 0.55633837 0.11988012 0.057345428 0.20842004 0.028747683 0.1809135 -0.05555935 -0.1653859 -0.30826968 -0.16974466 0.26233974 -0.21667482 -0.0024186927 0.25368953 -0.36782068 0.38539094 0.13544244 0.24696113 0.33537313 -0.24178906 -0.19329491 -0.23855902 -0.14818929 0.037897937 -0.07709845 -0.12707861 -0.43075383 0.97251904 0.3352085 0.13703112 -0.8887264 0.17209275 0.21952768 -0.26203677 0.81860256 0.023144688 -1.9642632 0.031223988 -0.2379411 1.3527077 0.07144412 -0.6696527 1.157888 0.12672213 -0.3156951 0.9227919 0.06407928 0.4480797 -0.2367943 0.67294455 -0.36873627 0.04139675 -0.54493904 -0.11840679 -0.071580864 0.34190214 0.13830975 -0.18231866 0.28411204 -0.29753405 -0.055881638 0.7267237 0.2516141 -0.62543297 0.16181077 -1.6682994 -0.018646851 -0.46689543 -0.119937524 -0.61051756 -0.70182866 -0.021173926 -0.37448367 -0.045009125 0.072064154 -0.8537983 0.3922876 -0.9239524 -0.32007504 0.47765642 0.24176422 
for -0.03804425 0.40075338 0.15817322 -0.048685607 0.60978806 0.32940474 -0.1156204 0.16533427 -0.7580196 0.23977108 0.13598828 -0.42402327 0.06535968 -0.06416935 0.32018682 -0.44989762 0.66123474 -0.05309817 -0.2013399 0.57356256 -0.12267314 -0.37943015 0.30633575 0.16906883 0.021332055 0.13607441 -0.1321729 -0.74186856 -0.13137922 0.13924882 -0.3470755 0.41942647 -0.28975445 0.22718787 0.06336766 0.6472025 -0.05994786 0.7499634 -0.39728957 -0.11687082 -0.61760354 -0.1730284 -0.03763001 -0.28199047 -0.07846618 0.22475679 0.24319784 -1.3759444 -0.5519346 -0.7279019 0.20033115 -0.12825765 -0.06271763 1.7505355 -0.7525164 -2.548796 0.11814465 -0.57023764 2.0866666 0.46558306 -0.46007258 0.09004412 -0.2825101 0.46189025 0.62246406 0.13844708 0.8676275 0.5253256 0.18641631 -0.30533183 -0.42445117 -0.5155263 -0.66180193 -0.19526865 0.09642761 0.14975822 -0.3302835 0.31177565 -1.5615159 -0.014604688 0.9635071 -0.23764566 -0.38682938 0.555428 -1.5737752 0.13704675 0.30822963 0.2242319 -0.47328538 -0.61163336 -0.11827498 -0.050310217 0.031933635 0.2114561 -0.6193207 -0.14375977 0.15494388 0.41193604 0.9341429 -0.2168807 
$400 -0.082167596 0.0016351008 0.08398477 0.08826359 0.06085692 -0.0121578695 -0.07945164 -0.07677888 -0.0569506 -0.04959294 -0.08824291 -0.098211914 0.088967554 -0.051277723 0.07667996 0.07280345 0.06208737 -0.04329482 0.11229005 0.08217114 -0.029511321 0.03280977 0.06913513 -0.06871309 -0.11463245 0.004518216 -0.08228478 -0.0014385323 -0.08149893 0.104939505 0.06449473 0.007710855 0.05287346 -0.07202902 0.0814537 0.09414429 -0.058172747 0.051220365 -0.03739409 0.109975435 0.03889782 -0.06889417 -0.006597506 0.09471269 0.07313979 0.059102964 -0.049626973 0.08526171 0.08775729 -0.097651936 0.06557655 0.077076815 0.07535648 0.030802108 -0.09377202 -0.07632468 -0.03752497 -0.08036355 0.089624785 -0.079061314 -0.074316904 0.08503959 -0.085675865 -0.0706646 -0.011764073 -0.09028415 0.09673319 -0.029181777 0.06303345 -0.09522072 0.09923611 0.01838231 -0.05222307 0.0763307 0.07459162 0.004336327 -0.068924025 -0.03366018 -0.022307873 0.067892216 -0.09686008 0.0825324 -0.064369485 -0.011243872 -0.09255596 0.027292643 0.066663906 0.07829308 0.08224187 0.093575016 -0.094107464 0.063924976 0.0010096186 -0.10362444 -0.08347468 -0.0808983 -0.11411547 -0.07444629 0.08868733 0.03323974 
0 -0.61491 0.92734 0.55826 0.0057455 -0.67172 0.61189 0.99226 0.27641 -0.64889 -0.51675 1.1789 -1.1631 -0.90994 0.5714 1.0018 0.20675 0.36751 0.46931 0.096868 1.4351 1.3924 0.4589 0.65491 1.0463 0.11249 0.56988 0.76595 0.45246 0.48627 -0.74383 -0.21478 0.7041 0.068082 0.54945 -0.012204 -0.18558 0.4266 0.90742 -0.62418 0.56063 0.9091 -1.4814 0.39494 -1.2353 0.39864 -0.86375 0.51337 0.36805 0.2084 0.068722 -0.011695 -0.48135 -0.61458 1.2844 -1.2055 -1.929 -0.48368 -0.67811 0.15408 0.15402 -1.4051 -1.5294 -1.2464 -0.38637 0.89358 0.71173 -1.0529 0.64586 -0.16673 0.53946 -1.1164 0.19146 0.55717 0.031212 0.76968 -0.59599 0.05137 -0.61187 -0.56898 -0.34163 -0.1408 0.045282 -0.71647 -0.29842 0.16358 0.30357 -0.14735 0.052451 -0.15184 0.83193 -1.1335 0.61988 -0.14507 0.51219 -1.2197 -0.39897 -0.38261 -0.092153 -0.079833 -1.2843 
all -0.24083777 0.73774964 0.717994 -0.5604789 -0.23820882 0.593217 -0.19742948 0.56309927 -0.3123449 -0.27986217 0.77516943 0.062315136 0.41215888 0.028684305 0.19350968 -0.58001053 0.01984784 0.8019608 -0.5254899 0.5663246 0.27549893 0.05321058 0.36444327 -0.4134164 0.31769347 -0.35170338 0.25773326 -0.4122038 0.058034312 -0.41956687 0.25129282 0.22986995 -0.06128282 0.06469345 -0.09827692 0.2966674 0.15146224 0.2984501 -0.6333712 -0.0046012085 -0.76040083 -0.24466954 0.17943291 -0.12199144 -0.06230015 0.2670886 0.006315002 -0.4358356 -0.112554535 -0.7377663 -0.028602146 0.115980744 -0.2298017 0.8719755 -0.43257496 -2.132215 0.16898684 0.08935865 1.9879029 0.99273556 -0.2657074 0.94822603 -0.36997554 0.3203171 0.7585226 0.11692834 0.8352443 0.40683013 0.21211155 -0.15131857 -0.06532885 -0.61661446 0.003690128 -0.38536805 0.39005727 0.42988923 -0.46663204 -0.29021332 -1.1332079 -0.3691814 0.81838864 -0.086465806 -0.25935546 0.94704825 -1.8684982 0.24667898 -0.20884617 -0.2602811 -0.17142072 -0.15337414 -0.5481393 -0.082309835 -0.44530934 -0.010796927 -1.2374941 -0.32547724 -0.712863 -0.35297835 0.61266917 0.59099925 
in 0.059599504 -0.36477014 0.08944639 0.15589668 0.3448584 0.29716682 0.077456236 0.2086161 -0.47109634 0.4766602 -0.3953521 -0.40743947 0.027747441 0.69881624 -0.23654015 0.14380425 0.46648952 0.14354074 -0.22106639 -0.24042709 0.51385975 0.5019084 0.91525954 0.70857495 0.22180362 -0.430464 0.1786341 -0.35957196 -0.08865356 0.169118 -0.2620669 0.09633874 0.08781446 -0.24353756 -0.18327098 0.55881834 -0.2518482 1.0171815 -0.37342817 -0.3882193 -0.2651534 -0.37760878 -0.151456 -0.4320357 -0.02277763 -0.16752079 0.71762556 -0.8020506 -0.07387042 -0.97004324 -0.3130672 0.17910664 0.5233945 1.3440589 -0.61346096 -3.21686 -0.26040676 -1.1894232 1.8287009 0.30691656 -0.8772391 1.2523563 -0.32913896 0.3682809 0.8350715 0.24742047 0.4405707 -0.040203977 0.37556815 0.06091945 0.31714094 -0.48235732 -0.62966096 -0.45015445 0.2437197 0.30055308 -0.10300721 -0.2891003 -0.939461 0.06524306 0.5857662 0.3018911 -0.62092894 0.77858406 -0.8729239 0.005432753 -0.41009876 -0.64009947 -0.34765416 -0.23377143 0.34424376 0.049456403 -0.13523583 0.8930959 -0.55160344 0.7194227 -0.19817643 -0.064354695 0.831605 -0.3309417 
an -0.40844136 -0.24188216 0.5774997 -0.17364603 0.3463477 0.43068802 0.24594748 0.24877493 -0.056863748 0.5026326 0.08717485 -0.3220261 0.080703706 -0.39338526 0.50531095 -0.06292478 0.7416293 -0.21366361 -0.34675795 0.06849627 0.5709024 -0.25610122 0.31412312 0.18782908 1.1353536 -0.20232418 -0.06542666 -0.48782036 -0.20052922 0.06630709 -0.7104158 0.8879384 0.050943285 0.26134193 -0.3530711 -0.025351036 0.44876075 0.7876225 0.3035635 0.16964534 -0.5000696 0.4512638 0.03726814 -0.60071504 0.38505632 0.04371011 0.47842544 -0.25961137 -0.3168186 -0.7643142 -0.032326605 -0.45959654 1.283147 1.2298844 -1.0456299 -3.4378498 0.22239146 -1.0438685 1.944212 0.7561539 0.44684556 0.377516 0.069894 0.27683184 0.6092226 -1.0979153 0.7533623 -0.17355587 0.022706827 0.1741352 -0.22146522 -0.60347384 -0.023430264 -0.83683056 0.50786036 -0.09563032 -0.55107236 -0.047140103 -1.6768396 -0.9007329 0.97925633 0.33288372 -0.3490454 0.034670666 -0.7040813 -0.26206362 0.8477253 0.49339435 -0.16438676 -0.9401121 0.29355603 0.039235912 -0.15607673 -0.03319793 0.2479588 -0.46145174 -0.453887 -0.5532027 0.68558544 -0.14702186 
excellent -0.3830782 0.112668596 -0.045697346 0.29780358 0.03657519 -0.4223862 0.40656266 -0.05113503 -0.9634906 -0.26563236 0.003061739 -0.7813133 0.19344962 -0.1819439 -0.3779599 -0.029477214 0.30427238 -0.41159353 0.103530206 1.1963623 -0.55463195 0.43536207 -0.30276936 -0.5362778 0.20374025 -0.026451727 -0.3519733 0.29546833 -0.3808755 -0.44668537 -0.8465087 0.575034 -0.16165268 -0.015090881 0.9122347 0.34347898 -0.28994772 0.5654064 -0.10316445 -0.1698173 0.67149305 0.2047395 0.37036237 -0.07134681 0.52068746 0.036858946 0.24696569 -0.60096383 0.16077018 -0.74111485 -0.016830878 -0.28099707 -0.13250262 0.6522594 0.15973768 -1.7079476 0.7315419 0.11427073 1.0905043 -0.5493888 -0.81617594 0.5904261 -0.6288666 0.38380125 0.19305737 -0.3374808 0.37099978 0.104101926 0.30989525 -0.06805976 0.2880906 0.505631 1.1154126 -0.20398237 0.84848356 0.46026 -0.18960944 0.08504892 0.5261563 -0.41401735 0.4353671 0.722212 -0.241854 -0.3650805 -0.8729528 0.042578816 0.44380215 0.024726309 -0.5043805 -0.21117137 0.1014275 -0.5005706 0.19843946 -0.043590467 -0.5528296 0.3015675 -0.7920575 -0.82007676 0.275185 0.7775726 
highlighted -0.62586933 -0.19370928 0.25986168 0.06742467 0.7825078 -0.5209483 -0.41155857 -0.13240409 -0.017102178 0.04917882 -0.57666904 0.033718705 0.1512994 -0.20275238 -0.26665965 0.5114021 -0.41143775 -0.43198186 -0.49819836 -0.6084821 -0.002819998 -0.5969119 -0.13349192 0.39343414 0.017333914 -0.54579014 0.15477255 0.69055015 -0.5210823 0.15297034 -0.10736138 -0.2623914 0.023586586 0.42532596 -0.22397278 -0.0045837774 -0.29432982 0.3294336 -0.4539022 0.5427665 -0.3225815 -0.090612 0.21158694 0.4720554 0.06274546 -0.11751115 0.57500225 0.024485787 -0.10710647 -0.57368046 0.26197955 0.033968393 -0.3966776 0.72834533 -0.0034353554 -1.4174379 0.30928105 -0.13412149 0.10167377 0.35172966 -0.865937 0.2753053 -0.06023262 -0.40233678 0.2942894 0.04259884 0.16533539 -0.13238041 0.26298252 0.1257791 0.21323365 0.54861754 -0.65065956 0.072820604 0.53040195 0.4448383 0.04652997 0.30163366 -0.665339 0.2737543 0.16436139 -0.053327024 0.25798166 -0.16697083 -1.1107619 -0.84940046 -0.45473206 -0.11537229 -0.6081631 -0.15876389 -0.36085528 0.07529325 -0.68275565 0.0069209165 0.1078303 0.4949989 -0.53510886 -0.6106584 0.28816184 0.4256219 
by -0.29259476 -0.037091475 0.15907657 -0.16139571 0.3150062 0.7512961 0.025882065 0.024741441 -0.42973158 -0.19878201 0.22713539 -0.6353514 0.41295835 -0.7115112 0.17314953 -0.36413917 -0.14658538 -0.5263459 -0.61991835 -0.03932238 0.16659948 -0.6378615 0.3839107 0.6278515 0.67170656 -0.48541474 -0.06832869 -0.43977892 -0.10005151 0.03247306 0.1931675 -0.02404067 -0.2259188 -0.17103943 -0.27979046 0.16158605 0.3899984 0.20821086 -0.3506959 -0.24490236 -0.5053812 -0.051017523 -0.080900066 0.8308366 0.46249464 -0.44301453 0.17281316 -0.45013225 -0.29189038 -0.24373527 -0.25963196 0.75998133 0.27697513 1.4674351 -0.41722825 -2.9195411 -0.3717156 0.1184881 1.9044667 -0.11246825 -0.18550994 0.6756746 0.2497968 0.7171717 0.64791703 -0.27530485 0.662583 1.141625 1.2836031 0.107782826 -0.75652647 0.16076581 -0.29127407 -0.44810855 -0.27607465 0.24616729 0.34262672 -0.118006594 -1.450808 0.21537775 1.0751231 0.12786636 -0.25131577 0.5762989 -1.016281 -0.093131475 0.18058774 -0.006028086 -0.48570096 -0.8998538 -0.054000784 -0.6638193 -0.7476587 0.596082 -0.41073832 -0.16954744 -0.3626765 -0.43442097 0.38319007 -0.7835368 
great -0.3070899 0.3564243 0.26566747 0.18719736 -0.022952998 -0.48129192 -0.35154805 -0.67324924 -1.0280563 -1.1397741 -0.61028546 -0.42129597 -0.32152596 -0.03230998 -0.39597762 -0.24154472 0.62069505 0.36739746 -1.2652264 0.64924794 -0.2244132 0.519682 -0.78929734 -0.9093111 0.8968539 -0.12931687 -0.3945674 0.26003638 0.1409514 -0.62547076 -0.5916309 -0.058910485 0.44310328 -0.3656196 0.110869095 -0.2992076 -0.40999418 0.83412606 -0.18896796 -0.4478745 0.076852165 -0.11335304 0.8575209 -0.7032429 0.71929383 0.39021116 0.8446983 -0.41024354 0.6800378 -0.21361707 -0.7379892 0.26386222 0.3887454 0.68473166 0.3206839 -2.8461154 0.004867068 0.13427703 1.2021227 0.0265702 -0.31528792 1.5111121 -0.6443499 0.36664274 1.0249847 -0.28667134 0.06636186 0.03905296 0.51070607 -0.31732073 0.6118083 0.11803472 0.54611164 -0.55720645 0.51724124 0.30582207 0.21452779 -0.51543415 -0.071792 0.12741321 0.34264842 0.39598146 0.4103944 0.2514041 -1.0891144 0.2086784 -0.65261173 -0.868545 0.013772051 -0.53835344 -0.25130224 -0.065743215 0.16953972 0.27450535 -1.162348 -0.50192255 -0.9735314 -1.2455554 0.5150398 0.8782622 
service -0.44788426 -0.05936424 -0.4476377 -0.20152384 0.08866642 -0.2826749 -0.18461698 0.56199926 -0.051779993 -0.032923277 0.33024698 -0.28792635 0.25166976 0.1869443 0.062203523 -1.030729 1.368926 -0.32804352 -0.5641101 0.16582303 -0.3590574 -0.07895048 0.14567804 0.10130348 0.49939123 -0.18286024 -0.20001464 0.36771682 0.060618427 0.037995934 0.21813703 1.0325919 -0.13887505 -0.545938 0.19345608 0.44265094 -1.0332954 -0.08571376 0.12053778 0.08491316 0.38583273 -0.39884916 -0.24628352 0.13445668 0.6725028 -0.15742315 0.50475013 -0.65942365 0.37801704 -0.3810506 0.7507728 0.23384188 -0.14330499 0.85553735 -0.099055946 -1.8792794 0.21901982 -0.27611646 3.2234328 0.73882365 -0.17377883 -0.4467584 0.4502089 -0.07920493 -0.08820771 -0.17314601 -0.2479754 -0.15023512 1.2701784 0.57758135 -0.26058877 -0.56135374 0.14896494 -0.53019685 0.8147137 0.28944382 0.63775206 0.47164685 -0.9871511 -0.9215886 0.51145303 -0.2852188 0.4835942 0.62263983 -1.7458603 -0.2472117 -0.13901898 -0.16608109 -0.14836234 -0.037247438 0.2886338 -0.16306949 0.16746828 0.1850337 -0.7425812 0.014541731 0.50350064 -0.037132192 0.018912913 0.42657405 
unique -0.27338734 0.6065274 0.25597027 0.5363989 0.5886317 -0.015878908 0.10663976 0.1941642 -0.09833494 0.19680634 -0.42948046 -0.53599393 0.41358134 -0.29270804 -0.33943373 0.090106875 0.48950702 0.24403411 -0.149369 0.35673 -0.06740687 -0.4745682 -0.0063777217 -0.637245 0.37282625 -0.4171135 0.4261462 0.059093513 -0.48188215 -0.38311642 -0.34171316 0.76633924 -0.37042785 -0.09799375 0.72984695 -0.49573871 -0.1538944 0.2298045 -0.10593305 -0.5554614 0.47072262 0.036547344 0.5691797 0.034244426 -0.03506885 0.44784823 0.5406651 0.3584105 -0.29268965 -0.4122836 0.11176372 -0.2118004 0.4235355 0.32982823 0.26823598 -2.178464 0.5828444 -0.40075102 1.3769021 -0.26063186 -0.20612332 1.1967639 0.11170567 -0.08787168 1.0903745 -0.26290518 0.08940474 -0.33814397 0.48597422 -0.38775387 -0.11364242 0.33440682 0.18384995 0.010859614 0.851953 0.101840295 -0.31617406 -0.49596 -0.19151253 0.115798905 -0.017147822 -0.23912504 -0.03592019 -0.14052537 -0.7290418 0.55910623 -0.0008262339 -0.57981 -0.23162489 -0.041475225 -0.13886799 0.010509517 0.28644392 -0.476364 -0.13192354 -0.016793594 -1.3804579 -1.4126505 0.7461121 0.5818216 
menu -0.7250694 0.17190264 0.2874271 0.0044518556 0.44076425 0.2963849 0.5556934 0.11963052 -0.04858402 -0.37852153 -0.27382752 0.09276667 0.0317438 -0.5206078 0.28281248 0.78802824 -0.49026448 -0.28560942 -0.36877885 -0.050980356 -0.6598308 -0.20524071 -0.15166865 -0.96576685 0.32567942 -0.20455253 -0.30346215 -0.0729747 -1.0518465 -1.0199902 -0.2524862 0.7473061 -0.19111134 -0.33794603 0.8360583 1.3949357 -0.096669264 -0.25446615 -0.058887012 -1.590679 1.043917 -0.6975711 0.2873509 -0.27895346 -0.04461034 0.823484 -1.3479617 -0.6130201 0.23356353 -0.20819749 0.28713524 0.17643154 -0.863884 -0.07859702 -0.8164661 -1.0734403 0.14709854 0.14283898 1.2789001 0.13896342 -0.36175916 0.65205896 0.78093135 -0.4773264 0.5854916 -0.8402195 -0.49024028 -0.38895887 0.2880628 -0.1229976 -0.14567885 0.38888294 0.3410938 0.07823823 -0.60636586 0.7075018 -0.9669818 0.4163843 0.44715557 -0.4293023 -0.37131396 -1.0633104 -0.22555128 -0.025734596 -0.5071984 -0.38636103 -0.16513844 -0.49061173 -0.3615454 -0.2904995 -0.06588456 0.84502214 0.46265906 -0.23542683 -0.6462452 -0.19759615 0.0662255 -0.8903605 1.3408089 1.0409143 
beautiful -0.24940725 0.4234835 0.44166344 0.22260384 0.5300238 0.60999346 -0.5854408 0.84356934 -0.24825 0.13901787 0.1961785 0.032067694 -0.02505027 0.031077527 0.16898558 0.38362515 0.35535693 0.21919861 -0.13150513 1.225415 -0.1261492 0.28781793 0.01759563 -0.4381654 0.6162969 0.37490073 -0.7213253 -0.122184545 -0.4104913 -0.30078524 -0.46497262 -0.15416639 0.7165055 -0.37736866 0.66667247 -0.3336374 -0.18422711 -0.13744944 0.22392538 -0.91064477 0.3622077 -0.09319432 0.13416363 0.061098255 0.18179257 0.2715311 0.019488394 0.5411818 0.41022173 -0.030188378 -0.24858661 -0.48604986 0.94689685 0.32641575 -0.18248343 -2.3746617 0.5051543 1.1366947 0.705759 -0.8060932 -0.3309974 1.6348946 -0.6668594 -0.47372824 0.5888015 -0.35827196 0.93490356 -0.059304353 -0.052317332 -1.1272261 0.46505192 0.42866826 0.50939894 -0.07770325 0.9010528 0.27763948 0.12418149 0.10929395 0.51613796 -0.24796359 -0.020547178 0.45524552 0.31030428 0.32085866 -0.7839398 -0.39693764 -0.1281958 -0.48046076 -0.14332995 -0.553749 0.3816948 -0.16598949 0.6339864 0.019111775 -1.0545418 0.20088494 -1.9827148 -0.8892916 -0.37897056 0.58046967 
setting 0.20076388 -0.1420428 0.3460924 0.65889347 0.51021504 0.488253 -0.38218403 0.27046815 -0.58444875 0.31479186 -0.040157415 -0.404335 -0.21535556 -0.18472867 -0.029375754 0.2173978 -0.13232663 0.4137695 -0.09530733 -0.4260018 0.2317809 -0.2421186 0.5382122 -0.2844248 0.11869932 -0.31172767 -0.788924 -0.05942035 -0.9928528 0.17814986 -0.63551486 -0.43667787 0.01979666 -0.3032313 0.3593061 -0.49931043 -0.23671438 -0.38311213 -0.3382212 -0.17124793 -0.22985952 -0.053469732 0.48408347 0.23079799 0.051836006 0.032350436 -0.43898964 -0.20678277 -0.23789339 -0.8024148 0.32814625 -0.15386917 -0.025613068 1.2423686 -0.06766219 -2.5416648 0.43593433 0.1699084 1.4186251 0.725341 -0.33619043 0.23133433 -0.07341766 0.038429007 0.6715674 -0.08130182 -0.038307857 -0.14054808 0.121606834 -0.51657045 -0.350155 -0.15375072 -0.14460857 -0.29461455 -0.28973955 0.08540046 0.2988551 -0.14588375 -0.38361642 -0.0817126 0.47973448 0.2928818 -0.42615086 -0.059845436 -0.8041204 0.46635538 0.03904632 -0.2544135 0.0699633 0.004136229 0.20271438 0.14839803 0.0710424 -0.34541354 -0.3795245 -0.041601848 -0.05648656 -0.21872196 0.6096147 0.055731002 
not 0.07008087 -0.027242782 0.58622086 -0.8102668 -0.7589461 0.2807641 -0.2363876 0.41660544 0.511445 0.35410058 0.33602235 0.52039707 0.9217705 -0.13200013 0.018364355 -0.657118 0.16935912 0.5465031 -0.38423643 0.20866282 0.3710832 -0.020937514 0.66969925 -0.12028769 -0.32148445 0.011776441 -0.4958833 -1.2404095 0.44440287 0.19940071 0.4927014 0.70251054 -0.572847 0.33206064 0.008248241 0.7672432 -0.08753229 0.09294532 -0.38719943 0.055760685 -0.92274237 0.39754465 -0.1129755 -0.696215 -0.29428804 -0.45856056 0.9618963 -0.66848934 -0.56653607 -1.6375407 0.3665821 -0.09767999 0.06960829 1.2911621 -0.49709484 -2.5726857 -0.15703475 -0.11439994 1.9599675 0.815491 -0.28367114 0.3377251 -0.77105796 0.08502598 1.260436 0.29283178 0.7245527 0.714791 -0.5371663 -0.49940813 -0.41143042 -1.1750108 -0.23149315 -0.53548896 0.12623556 -0.2185716 -0.48009783 0.2534958 -1.3859419 -0.068854004 0.8673689 -0.74883336 -0.96830004 0.33865914 -2.314609 -0.6564222 0.22146778 -0.2735469 -0.414046 -0.61629033 -0.13213411 -0.33170116 -0.18203062 -0.12676142 -0.22410132 0.19938084 0.04255998 -0.227256 -0.16645192 -0.035411622 
my 0.16086248 -0.17806342 0.6628856 -0.516035 -0.84562933 0.7035212 -0.17006648 0.45659056 -0.010095769 0.34885517 0.43551123 0.58997774 0.6054588 0.27288434 -0.25345856 -0.4955888 -0.38744843 0.38806596 -0.26251623 0.29431266 -0.1782477 0.38732043 -0.25355786 0.23389894 0.50105184 0.8338855 -0.71404207 -1.2890908 0.9428331 -0.08103657 0.40207693 1.0102832 0.74723893 0.23849998 -0.67823094 0.6566971 -0.6819938 0.4471868 0.3094005 -0.48106122 0.073279075 -0.04724574 0.9125943 -0.8229186 -0.5377239 0.1399283 -0.25493953 -0.5345238 0.101619646 -1.3611614 -0.13720652 0.22336087 0.04663967 1.2426562 -0.26361775 -2.693254 0.630991 0.48634732 1.8298322 0.15168615 0.6927292 1.7788048 -0.5877193 0.05867963 0.74779654 0.44236916 0.79782987 0.23240118 -0.12879631 -0.21392715 0.2740672 0.81963277 0.8413604 -1.0089933 0.34273267 0.80176866 -0.43041447 -0.30194166 -0.61275434 0.03405087 0.23054446 0.5135012 -0.21358469 -0.05023129 -1.8451971 -0.38995507 -0.41766486 -0.3477083 -0.65421104 0.008814071 -0.4126557 0.3915534 1.0264574 0.5841598 -0.4634795 -0.47685444 -0.25313425 -0.23019749 0.20223695 0.90627486 
thing 0.17870872 0.25736034 0.8424312 -0.67950153 -0.6497691 0.15108585 0.070109375 -0.08240559 0.55070895 -0.41859007 0.3599488 -0.1296669 0.059945785 0.0068870615 -0.1758712 0.2754977 -0.16168928 0.588848 -0.23576897 0.85102123 0.26151723 0.35838315 -0.6546562 -0.9381313 0.4429007 0.45171776 -0.33189946 -0.41892478 0.06410998 -0.54771835 -0.2736374 0.48232195 0.6105716 -0.3160423 -0.19012268 -0.04561123 -0.6780557 0.23913842 0.5740981 -0.96010715 -0.19081606 0.15124035 0.42310435 -0.62253565 -0.9709508 0.084777445 0.47933784 -0.32712102 -0.5113353 -1.0956664 0.14988707 0.015495572 -0.054307126 0.7516843 0.18436603 -2.5233722 0.09038326 0.7695996 1.3919392 0.3327853 -0.2609956 0.8501708 -0.54805624 -0.39126363 1.2707409 -0.06372994 0.7142276 0.30733746 -0.055527866 -0.41367286 0.40906972 -0.34022835 0.1471634 0.029151954 0.3918958 0.2279461 -0.08286752 -0.33935598 0.0962436 0.28223643 0.0786226 0.016624438 -0.22435865 0.023352623 -1.5568398 0.048467044 -0.44457588 -0.30573148 -0.25035676 -0.7334678 -0.012312204 -0.17963248 0.26873052 0.018629564 -0.5572482 0.2915781 -0.08160573 -0.3113233 0.051352415 0.93893033 
have 0.19055673 0.59482145 -0.021636171 -0.6640402 -0.25321546 -0.21888812 -0.03716591 0.48854375 -0.11353332 -0.15141074 -0.19926538 0.22447748 1.1484387 0.42436177 -0.28168803 -0.6124991 0.2812848 0.48285475 -1.0935485 0.09266536 0.56717443 0.12049215 0.5505 0.2576132 0.1428164 -0.6341711 0.15668735 -0.4606689 -0.28744048 -0.577572 0.73448896 0.605743 -0.38283452 0.5763413 0.7188441 0.18194057 0.12555425 0.9264694 -0.14648193 -0.0748616 -0.51972836 -0.3145766 0.4432619 -0.61761063 0.24745321 -0.12201326 0.5074652 -0.48394158 0.7405234 -0.92779046 -0.09762807 -0.3130665 -0.055052817 1.4652005 0.16571073 -2.314515 0.28361186 -0.060467407 1.3434659 1.3388581 -0.44693694 1.3124766 -0.40551445 -0.054219663 1.2541316 0.17142844 0.40891322 0.61661136 0.22912122 -0.5577843 0.20554999 -0.48277223 0.000575914 -0.65477455 -0.39262393 -0.16071622 -0.11246427 0.1691458 -1.3941702 0.18891218 0.87698454 -0.16712347 -0.6151284 -0.2178717 -2.286429 -0.42068303 0.49183282 -0.12505378 -0.6855696 -0.46536365 -0.3666011 -0.13263524 -0.28544638 -0.30660823 -0.97070193 0.19736801 -0.6013682 -0.6281984 0.7343738 0.4858672 
watched 0.1837699 0.31302717 0.011629339 -0.3974698 -0.77796954 0.42980826 0.05243554 0.44971249 -0.39282143 -0.56903833 0.14811137 0.17872755 0.17750153 -1.0022826 -0.11514139 -0.107605174 0.13465977 0.6840651 -0.032074545 -0.4483779 0.19957016 0.14680004 0.3806647 -0.015429578 0.7572735 -0.9714743 -0.005976764 0.5096929 0.50937873 0.3456368 0.3488706 0.18306763 0.210487 0.946248 0.40724918 0.1300174 -0.11962303 0.11051821 0.408795 0.15863973 -0.43693265 -0.49986207 -0.07153861 0.4140571 -0.018719977 -0.05645347 -0.09480197 -0.0040925755 0.17534368 -1.3874128 -0.015338925 -0.53789437 0.46195653 0.8132592 0.08937291 -1.6420532 -0.5435497 0.24994889 0.70370996 0.49111095 0.0902723 1.0766844 0.09150399 -0.62000346 -0.18267147 0.48456088 0.26726002 0.41676578 0.06741599 1.0175257 0.27773008 -0.033472613 0.2553695 -0.13557653 -0.37898582 0.6639591 -0.03072408 0.041170727 0.23859969 -0.1647019 0.8273127 0.44425526 -0.34008247 0.027107641 -1.3774586 -1.4707991 -0.4727616 0.074419744 -0.11979122 -0.36993572 0.582293 -0.33449376 -0.12387067 -0.38281497 -0.8106481 -0.08353924 0.31165674 0.59443593 0.14019041 0.3751382 
their 0.22820513 -0.37739623 0.12810257 -0.4165553 -0.7706072 0.5102916 -0.73892474 0.31742662 -0.6018824 0.41266546 -0.29374972 0.10019724 0.6267805 0.29701456 -0.25442374 -0.67906487 0.42342332 0.28995582 -0.24862431 -0.10268313 0.26548722 -0.34970704 0.7481824 0.5339593 0.1575889 -0.31512356 -0.12611358 -0.6188866 0.392918 -0.30759785 0.6666179 0.35178939 -0.5364073 0.08543421 -0.019752853 0.010385919 -0.05033047 0.5296065 -0.37132034 -0.2508725 0.04038545 -0.34675062 0.5681736 0.03184199 0.14869721 -0.071995504 -0.17748177 -0.13465245 0.30232537 -1.0419436 -0.15251671 0.23202786 -0.2548389 1.7682623 0.090743326 -2.575327 0.7891274 -0.78463286 1.9813507 0.23644307 -0.16632678 1.3000348 -0.020232819 0.09508494 0.8918531 0.11713957 0.44892374 0.43851292 0.261418 -0.5675524 -0.32422373 -0.18439001 0.20465207 -1.6113222 -0.12535761 0.31939447 -0.7341226 -0.46850947 -1.3535988 0.2290335 0.69554067 0.75895923 -0.21580444 0.4574932 -1.8286568 -0.42357805 -0.049692295 0.018054105 -0.77296495 0.14863953 -0.46924698 0.27806503 0.29858568 0.3743489 -1.1479977 -0.7841957 -0.99467176 -0.1559696 1.2263054 0.58132416 
prices 0.3542038 0.5280025 0.37278873 0.24411577 0.20238915 -2.1565843 -0.94887125 0.2836066 -0.107743464 -0.27252188 -0.3343042 -0.4118799 0.04763658 -0.41966626 0.0840604 -0.06630204 -1.5878986 -0.052771803 0.023102958 -0.5343568 0.9761336 -0.6161428 0.65905017 0.6488718 0.17428455 -0.088833496 -0.22670083 -0.95330346 -0.90402055 -0.06299733 0.13222022 0.0960851 -0.6514469 -0.017880816 0.0021155218 0.990221 0.8344927 -0.13304967 0.21153076 -1.2797592 0.20186515 -0.9708754 -0.62187266 -0.35309988 0.91073626 0.104604095 -0.4503374 -0.60160744 0.40409184 -2.1475217 -0.13853464 0.24937822 -0.04752704 0.9896186 -0.44887367 -1.6357138 -0.38481963 0.23411551 2.1124668 0.09506425 -0.34125134 0.18454492 -0.84177023 -0.058429126 -0.10270811 0.01658583 0.58638364 -0.67027545 1.0737741 -0.54127896 -0.31126797 0.21067579 0.06070388 0.35458887 -0.24634285 -0.10032822 0.35125318 0.12527286 -0.9701163 -0.08536436 0.8138975 0.27407083 -0.98246 -0.95203257 -0.68774426 -1.4191253 -0.25073785 -0.13650425 -0.2856667 -0.48915055 -0.27266935 0.4043381 -0.31168956 -0.7655603 -1.3915828 0.10684125 0.68466944 -0.2661171 0.79632694 0.035616316 
inflate -0.6033791 -0.34100518 -0.13104063 0.40871766 -0.30434966 0.13939208 -0.73912907 -0.29118052 0.49213785 0.3683467 0.2983962 0.7164481 0.42046827 0.09386345 -0.42994463 0.054321423 0.4730469 0.5893418 0.66887414 -0.63740873 0.05274564 -0.64594793 0.39910945 0.5641964 -0.44399673 -0.0044434587 -0.748343 0.1871999 -0.361847 -0.48377475 1.282787 0.23618624 -0.78507346 -0.43035337 -1.162983 0.23928751 0.52670616 0.36538184 0.079915866 -0.38765815 0.86524564 0.07072349 -1.1483932 -0.4662847 -0.14680153 0.6065285 0.34675372 -0.709934 -0.56035185 -0.9016717 -0.67791617 0.66929126 -0.093883164 0.83746386 0.20759414 -0.089809164 0.52010286 -0.01113892 0.40176916 -0.4209698 -0.47734946 0.040865555 0.12447245 1.0464185 -0.93254054 -0.4270901 0.586285 -0.26042044 0.31847414 -0.58805436 0.18007825 -0.70218176 0.020525597 -0.0816277 -0.4398743 -0.18337575 0.43289223 -0.5184692 -0.39594758 0.2754861 0.20415846 0.7490881 -0.25310504 -0.5137876 -0.40898272 -1.3056476 0.18187073 0.26415464 -0.24678087 0.8212568 -0.41797152 0.27082694 -0.45036614 -0.9319795 0.37044886 -0.6937037 0.18876518 0.22456424 -0.51179504 -0.19027297 
portions -0.7100471 -0.026548611 0.49892697 0.25666767 0.25510687 0.24705344 -0.19684595 0.719024 0.17675814 -0.14787956 -0.44256604 0.15175763 0.14093699 -0.10554975 0.4410869 0.0364895 0.47358587 -0.13467328 0.08259979 0.41643614 0.26027918 0.34563905 0.34707898 -0.14459181 -0.51048136 -0.50975853 0.075365454 -0.077780575 -0.7817386 0.3547915 1.0957254 -0.115097545 0.50336164 -0.5298486 -0.62812334 0.11780541 0.44590467 -0.17767644 -0.31189737 0.3833824 -0.14031354 -0.97089565 -0.29291674 0.29519922 0.32553366 0.3122849 0.32361478 -0.3744916 0.063745566 0.33173123 0.10785372 1.200377 0.47013178 -0.3399872 -0.06585589 -1.0771599 0.29145247 -1.0518389 1.2584227 0.36700737 -0.21439582 1.2389704 0.6947668 0.051942863 0.7405329 -0.6283984 0.2770731 0.2623111 -0.1558673 -0.35936472 -0.07260169 0.3299193 0.96994954 0.43701962 -0.03412716 0.40732348 -0.16447595 0.32302913 0.4643966 0.08399625 -0.19635929 0.199746 -0.5810697 0.08082784 -0.6185346 0.16264747 -0.00064606935 -0.57706296 0.37020865 0.71377707 -0.20717454 -0.48725078 -0.8338327 -0.1928276 -0.92623967 -0.2979935 0.31578538 -0.10455647 0.5474009 0.11127163 
get 0.056597777 0.44452122 0.62391275 -0.7552684 -0.53243905 0.1645945 -0.31461272 0.46548447 0.08454894 -0.47609147 0.25547656 0.47697997 0.27107406 0.08487103 0.17960958 -0.37874192 -0.025453068 0.25276455 -0.6065748 0.7299003 0.32718256 0.45598313 0.13580881 -0.501709 0.10663398 0.08995725 -0.26573622 -0.8055482 0.549363 -0.37582785 0.041327745 0.765244 0.32076687 0.3321822 0.23415804 0.24230428 -0.5252295 0.08530731 0.118362956 0.28332123 -0.2177997 -0.32222298 -0.32917598 -1.1469935 -0.47467697 0.22561876 -0.563488 -0.16608231 0.3473115 -1.0932342 -0.38972625 -0.15675987 -0.3572389 0.925725 0.06760879 -2.451629 0.2881611 0.120956324 1.8532978 0.20916192 0.056246687 1.1275004 -0.85222304 0.13921982 0.7119766 -0.049694136 0.672818 0.3204368 -0.18071765 -0.5585378 -0.009106234 -0.5247102 -0.10405999 -0.54285747 -0.011101925 0.4064875 -0.5786027 -0.3380556 -0.45992875 -0.27561456 0.66410226 -0.15182664 -0.92427665 -0.24541296 -1.8168116 -0.01912215 0.44244376 -0.056393184 -0.88302815 -0.37498793 -0.1374557 -0.10429233 -0.13322265 -0.82034636 -0.3826708 -0.3173726 0.32052755 0.57457554 0.4502268 0.37349334 
smaller -0.49168235 1.0132558 -0.3462821 0.10456132 -0.0846814 -0.048413996 -0.26068082 0.019820416 0.40228978 0.1840764 0.048221152 -0.22232352 0.124803975 0.004991163 0.124263294 -0.46774206 -0.50996894 0.08287291 0.75577617 0.39126742 0.47675657 0.098860644 0.0013247376 -0.047467988 0.17006968 -0.7011847 -0.3949436 -0.40260687 -0.25584877 0.55356395 0.74817353 -0.11044368 0.05258009 -0.76261914 1.1316463 0.484976 1.0725824 -0.091149986 -0.3352637 -0.10748678 0.020629438 -0.70333296 -0.27169618 0.051801614 -0.090804696 0.09404927 0.36006364 0.53648746 -0.05146897 0.21017382 -0.1813019 -0.067477524 0.121823445 0.4367576 0.108222164 -1.9494041 0.05690835 -0.13249964 1.9640142 0.5449303 -0.40461576 0.80236614 0.1977403 1.2695905 0.49748522 0.0495907 -0.27612755 0.12023258 0.96958405 0.11099867 0.25292966 -0.44970253 -0.101556525 -0.058656454 0.14258887 -0.34611577 -0.08070506 -0.39543325 -0.29499632 0.6986464 0.31685668 -0.16259004 -0.6189245 -0.10435231 -1.3033476 -0.19765113 0.5980959 -0.40244836 0.14279638 0.1289242 -0.11012834 -0.16257714 -0.3842665 -0.62877613 -1.2298572 -0.14712295 -0.552158 0.34284264 1.1689401 -0.1115915 
management 0.4079063 -0.7043319 0.43046218 -0.40745777 -0.34520608 -0.35160473 -0.265147 0.22425121 -0.5265267 0.42929962 0.6005907 0.1036874 0.515643 -0.21134698 -0.23664348 -0.5617408 0.38931674 0.015622411 -0.051754408 0.09687742 -1.1030172 -0.007327947 -0.16078128 -0.33234754 -0.70975244 -0.2239307 -0.04744172 0.26816845 -0.7575583 0.29600182 -0.2889041 1.3864672 -0.79525584 -0.11155384 -0.6355648 0.16677456 -0.07961905 0.35577628 -0.030489279 -0.6330756 -0.09100944 -0.5388105 -0.40931663 -0.17491958 -0.19194205 0.46899405 -0.10261486 0.25177434 -0.39893204 -0.65482384 0.09752029 -0.5996657 -0.76183265 0.8724775 0.49600136 -2.0108545 0.6029421 -0.4939072 1.8565012 0.39553514 0.47163242 -0.42885193 -0.39794773 -0.006790128 0.38775167 -0.28379285 -0.061589662 0.2659306 1.4514605 0.4381732 -0.6925863 0.20340826 -0.9367285 -0.85549015 0.058285445 -1.1718776 -0.358008 0.75848645 -1.1302301 0.265482 0.9316213 0.14258125 -0.58716017 0.0057061617 -1.4370283 0.34123513 0.34545124 -0.73271596 -0.44575375 -0.3071863 0.54751796 -0.79067886 0.06235098 0.2382247 0.7045783 1.1986643 0.085622355 -0.23077796 0.82910764 0.3430251 
attitudes 0.571036 0.37420288 0.2633532 0.14946672 -1.294384 0.4525696 -0.60948616 -0.8295651 -0.35764337 0.812774 -0.9067775 -0.41421258 0.47703496 -0.48908678 0.9712672 0.12669551 -0.289578 -0.06188111 -0.71085554 -0.036938973 0.38127258 0.010122798 0.32200527 0.055975467 -0.9829698 -0.59644145 0.74724495 -0.567098 -0.075086474 0.11495559 0.3571118 0.94747764 -0.19303541 -0.067253605 -0.31751797 -0.18243633 0.18387394 0.015822178 -0.5233478 -0.03296939 -1.1006321 -0.6905251 -0.935785 0.5748773 -1.2061561 -0.70430875 0.009690367 0.5550641 -0.24432346 -0.97269845 0.6413883 -0.016654447 -0.4518635 1.0655135 0.2902963 -0.6671879 1.0046012 -0.30144262 0.38560045 -0.18159464 0.05727267 0.71606284 0.45344615 -0.44386277 0.5210201 0.81457853 -0.2088723 -0.55570406 0.2646573 -0.5346746 0.17973919 0.12777992 0.15746507 -0.16759032 -0.19390784 -0.3945989 0.25894368 0.12542872 -0.46441853 -0.49144405 -0.14354633 0.48639554 0.4062884 0.2880503 -0.74836314 -1.1202213 -0.53069544 -0.38781905 -0.7586385 -0.76826733 -0.6400796 -0.18470821 0.070710555 0.07654632 0.4003119 0.094226636 -0.7214932 -0.7835895 0.21131815 0.7575369 
grow -0.090142295 0.9308542 0.1294133 -0.233156 -0.21673892 -0.51575524 -0.34326416 -0.059792668 0.56730664 -0.2640367 -0.44301802 0.16903329 0.4132006 0.13112895 0.28743616 -0.797563 -0.08055702 0.930172 -0.031061279 0.65578616 -0.29753578 0.025324551 0.27262264 0.834545 -0.18243563 0.4854443 0.23509228 -1.1771873 0.47080886 0.3306613 -0.46414074 0.3377682 0.60193753 -1.1999543 0.41486514 1.045046 0.2854438 -0.30607086 0.054195978 0.07768172 -0.031695053 -0.5733672 -0.8869588 -0.38062954 0.2969543 -0.6071061 0.71218544 0.37118477 -0.13767432 -1.2620618 -0.21577598 -0.84177506 0.08021704 1.1232123 0.37432203 -1.5072144 -0.28769517 -0.21831271 1.1024667 0.022651747 0.40921366 1.1269325 -0.5808312 -0.46018586 0.6184044 0.64339024 0.272236 -0.019093152 1.5695591 -0.5852676 0.9528878 0.04073758 -0.5214234 -0.5635 -8.49411e-05 -0.23031466 -0.7337026 0.09302347 0.1432862 0.2552333 0.55519044 0.34973806 -1.3105283 0.4680314 -0.38010043 -0.7371137 0.77929217 -0.24463578 -0.2961608 0.58723545 0.4551492 0.17043902 -0.10032969 -1.0608294 -0.38864905 -0.48643705 -0.16879411 -0.4399779 0.9519033 0.15587272 
rapidly -0.19702679 0.41773844 0.060903285 0.9878328 0.021238321 -0.27325782 -0.16371882 -0.5316054 1.1885114 0.17028789 -0.24230587 -0.31663206 0.16009249 -0.8373168 0.2215777 -1.1451374 -0.33390933 0.12311476 0.013138586 -0.930683 -0.057716064 0.20334728 0.61364526 0.3703295 -0.12727107 0.27152586 -0.1414365 -0.6561859 0.041248783 0.56705695 -0.09867001 0.34827402 -0.5144921 -0.46760133 -0.1705123 -0.16449551 0.090722315 -0.8188798 -0.53096294 -0.09498817 -0.6318225 -0.48237607 -0.9316067 -0.08402305 0.73651534 0.552978 0.6418066 0.6273936 0.7338074 -1.1528546 0.07614811 -0.12164052 -0.013555149 1.4435298 0.1898596 -1.4800905 -0.1611349 -0.022711236 1.0583582 0.27060866 -0.11562257 0.8587509 0.019042524 0.04521292 0.43619582 0.5878065 -0.26086083 -0.265631 1.4241095 0.18689668 0.7019767 -0.40836158 -0.3345881 -0.44255495 0.66468424 -0.43449947 -0.6888669 -0.25472146 0.075266674 0.12767473 0.4595759 0.19333589 -0.63356113 0.32147357 -0.53458387 -0.74799544 0.5750668 -0.9366849 -0.935811 0.22005193 0.022461537 0.26870126 -0.47960863 0.035740852 -0.37749103 -0.19480701 0.1299781 -0.25937527 0.32477623 0.17469999 
overall 0.04140499 0.013714222 0.9298465 0.11434225 0.20611309 -1.2271627 0.16259281 -0.22362214 -0.799708 0.259825 0.07095148 -0.09070145 0.025612412 -0.9214751 -0.17438781 0.3422282 -0.27820438 -0.27819616 -0.1490569 0.057446558 0.160142 -0.2592062 0.014152197 0.5386419 0.040104304 -0.5675772 0.49619022 -0.349275 -0.17077342 -0.6137074 -0.42470303 0.059178997 0.16802435 -0.1244076 0.015065026 -0.091843896 0.070716046 1.2114117 -0.25659788 0.7010865 0.8552002 -0.8897824 0.6371766 0.4512938 0.087464415 -0.16025469 0.3732729 -0.6099847 -0.3089461 -1.5848182 0.21557313 -0.30533335 -0.7044852 0.89113694 -0.016346222 -2.5071735 0.78489107 0.022602296 1.2612 0.13320115 -0.40195158 -0.079467975 -0.27743787 0.50581884 0.71091783 0.35733125 -0.50461715 0.0073645143 0.6497531 0.08413155 0.5711498 0.024866713 -0.30538163 0.43859765 0.72122645 0.62663877 -0.7439269 -0.6348288 -0.035093013 -0.74460155 -0.09575212 0.74784386 -0.7115052 0.43688276 -1.0681939 -0.8036226 0.049848024 -0.54833347 -2.7373178e-05 0.23313309 -0.3693029 -0.08964907 -0.035442278 -0.16007908 -0.56760013 -0.17135477 -0.037979413 -0.43144357 0.8589014 -0.052528355 
experience 0.17348208 0.3786715 0.46654615 0.051977593 -0.36297148 -0.5398356 -0.020111347 0.4106357 -0.1687002 -0.015170565 -0.1837634 -0.6224243 0.12993 -0.2755383 0.01217715 -0.2829723 0.1525448 0.37520298 -0.5701156 0.6289607 -0.44855 0.008021607 -0.4034976 -0.4468309 -0.45715314 -0.19811107 0.04128824 -0.4374207 0.41266155 -0.59973264 -0.62655723 0.7813304 -0.9072927 -0.20823017 0.14552276 -0.08091937 -0.5061427 0.67158943 -0.09573468 -0.46380734 -0.53687954 0.033866644 0.438235 -0.5326066 -0.24730141 0.18056332 0.6691063 -0.6133523 0.54769266 -0.94733214 -0.14554873 -0.60476565 0.08298771 0.9450102 0.8839975 -2.2908652 0.5447937 -0.09401185 1.4191667 0.5089055 -0.13658321 1.2165126 -0.0658314 -0.85455245 0.25338292 -0.05778058 0.42849368 -0.78938264 0.37472308 0.45866314 0.15313709 -0.02986338 0.2011923 -0.16337068 -0.10434226 0.45945087 -0.13866964 -0.54114705 -0.52877736 -0.1510592 0.012810976 0.58852684 -0.014542484 0.25666332 -1.6250631 -0.028991234 -0.29501882 -0.48120013 -0.6058486 -0.8317938 0.24208738 0.13026255 0.6805708 -0.026703445 0.37308085 0.46213964 -0.4524235 -0.60462964 0.4242202 0.72690755 
this -0.55453235 0.3873276 0.6155305 -0.3730235 -0.27994907 0.05119246 0.027221318 0.52023864 -0.010713283 0.2059893 -0.20969898 -0.018817827 0.207134 -0.4517607 -0.10142487 0.055955116 -0.09235684 -0.005658336 -0.35251632 0.23986639 0.3384826 -0.4315114 0.0675266 0.3578619 0.4311034 -0.31626993 0.29007468 -0.61498696 -0.029549094 -0.36600634 -0.5373102 0.6625994 0.09677122 0.0946095 -0.15914539 0.4965031 0.016516244 0.37177873 0.04064715 -0.40440598 -0.2760968 0.23609325 0.31180742 -0.17074811 0.14553986 0.050383583 0.7034273 -0.6714965 -0.08678951 -0.8956965 0.2415 -0.12007679 0.49211758 1.1431539 -0.52395755 -3.3496175 -0.12373497 -0.3474381 1.7268206 0.50890106 -0.5944975 1.0620639 -0.35817578 -0.082296096 1.0702806 -0.1380476 0.370961 0.21281242 0.36754417 -0.30760527 -0.19207062 -0.32536975 -0.05953634 -0.3732659 0.13232362 -0.05906694 -0.30677938 -0.25178865 -1.3115255 0.28128725 0.1399378 0.11076929 -0.76636106 0.15012507 -1.297904 -0.063084796 0.091561906 -0.75521815 0.0076057673 -0.7380629 -0.0041359 -0.16735247 -0.5282855 0.15126494 -0.15607269 -0.063622974 -0.27867374 -0.68598926 0.4650348 0.39907116 
hole -0.6422039 0.17988014 0.8591177 0.09140098 -0.09719477 -0.25190932 0.81950176 0.35564923 -0.38311446 -0.14130981 0.7191027 0.94171834 -0.54687047 0.0021776308 0.643933 0.5174951 -0.3448238 0.15430059 -0.5217491 -0.39774904 0.09998041 1.0331753 -0.56251234 -0.20117985 0.70815283 0.11069245 -0.5638737 -0.5510987 0.3654786 -0.55291027 -0.4591901 0.23228103 0.7041894 -0.10044698 0.353559 -0.36662188 -1.1819514 0.4469779 0.97578746 0.59071654 -0.39098617 -0.33501896 -0.08871617 1.05801 -0.19548416 0.14604636 -0.033834983 0.9777057 -0.6821708 -0.35316312 -0.75513303 -0.23015383 0.008946941 0.8174887 -0.24293196 -2.6814928 0.017602718 -0.16545253 0.913269 1.280265 -0.03258657 0.8140962 0.15932457 1.5910956 0.38789472 -0.45171794 0.12671192 -0.4037735 -0.27559915 -1.1567088 0.04311381 0.8867703 0.5239764 -0.09474045 -0.48089558 -0.12299413 0.46801323 -0.4971426 0.25334424 1.4353688 0.16415839 0.08208974 -0.5010931 -0.23580608 -0.67531 -0.053938657 0.29514223 -0.12625836 -0.039914276 1.1789232 -0.21331823 -0.11044248 -0.004671583 -0.037868563 0.010996977 -0.04834431 0.7557841 -0.39255553 -0.042267524 -0.13714693 
the -0.0010050309 -0.11629851 -0.079405196 -0.016509254 0.0048275273 0.03712943 0.031264752 0.0571135 0.00468788 -0.060320638 -0.0012845164 -0.014053198 0.078910656 -0.02974767 -0.01597545 0.05132659 0.026378457 -0.080168314 0.05374399 -0.025797352 -0.008779129 -0.044613134 -0.0073135486 0.124843836 -0.023124272 9.035835e-05 0.022516739 0.063236155 -0.04523531 -0.015894677 -0.029050466 0.054987427 0.018118726 -0.04380008 0.016646273 0.023927914 0.058538925 -0.00464662 0.049285308 0.019633822 0.042644385 0.035060424 -0.022610774 0.00466052 -0.011935126 0.063549936 -0.10652788 -0.069343016 0.04589606 0.06015256 0.005334768 0.028080478 0.042168416 0.050732754 -0.0039269263 -0.061621275 0.12241799 -0.09606235 -0.102140985 -0.000688971 0.055377718 -0.017073428 -0.029880844 -0.086099386 0.06328135 -0.0059617436 0.0324719 0.073556624 -0.033389192 0.029831903 0.03360418 0.085707426 0.08585776 -0.061474837 0.13515738 -0.0491469 -0.089819014 0.050442778 0.061454564 0.03028684 -0.01586304 0.021346206 0.011744719 -0.013455981 0.05185294 -0.017040035 -0.008661361 0.07343084 0.05888049 -0.029421963 -0.03384566 0.06461432 -0.020969866 0.068648614 0.035104763 0.017849267 0.010279948 -0.0026085223 -0.0521955 -0.013593338 
wall 0.117899396 0.19900234 -0.029695604 -0.24077223 0.028779231 -0.16534652 -1.1003741 -0.7954621 -0.12366453 -0.6225571 0.7682547 0.118024975 0.31672987 -0.15673202 0.0031363608 0.74983346 -0.7413807 -0.19825926 0.06276942 -0.9109284 0.33131576 -0.15707448 -0.86035246 0.2952203 0.8864825 -0.8124803 -0.33570755 -0.3697175 -0.19908613 -0.19266383 0.75201267 -0.13581054 -0.14484222 0.71214306 0.08132909 0.13971187 -0.18057123 -0.17784397 0.70383024 -0.010111208 0.033200573 -1.1008433 -0.22874181 0.38860622 -0.17185956 -0.16822581 0.0037509946 0.46729448 0.25846747 -0.98770845 0.068439834 0.02679881 0.20930342 0.6960143 -0.6039086 -3.0555022 -0.56861156 -0.4387628 1.6203507 0.5331092 -0.23990574 0.81348795 0.1972903 0.6632047 0.051801223 -0.13811687 0.747324 0.14051247 0.092144564 -0.7635608 -0.26932448 0.97685784 -0.3229188 -0.24610579 -0.348338 -0.3922422 0.6910287 0.5805579 0.032496795 0.027154898 0.78766954 0.71028906 -0.686016 0.16592118 -0.43055663 -0.6395537 -0.5564627 -0.57754934 0.6714828 -0.1968183 0.824142 -0.55853856 -0.05329769 0.088790245 -0.1537054 0.123506136 0.4034435 -0.48705158 0.35311076 0.7102209 
has 0.09432791 0.5447193 0.47944498 -0.4813375 0.6397762 -0.2352967 -0.040357012 0.46019992 0.047545724 0.18477458 -0.07459175 0.049855266 0.64933306 0.15042804 -0.19479972 -0.03188834 0.26560983 0.086445056 -0.24375203 0.27625805 0.25770968 0.15807746 0.11756696 0.115634635 0.31080055 -0.3577 -0.14425409 -0.41044575 -0.7448624 -0.46926323 0.22111434 1.2314386 -0.27763343 1.003074 0.40114844 0.3692676 0.15904243 0.5158131 -0.5507599 -0.0748224 -0.9080335 -0.30122945 0.7150557 -0.46282062 0.30639917 0.05700888 0.5621393 -0.58986956 0.9016632 -0.39811048 -0.10966401 -0.65783393 -0.045968037 1.4008378 -0.09454473 -2.9162958 -0.28973198 -0.055135135 1.067401 1.3960963 0.4870701 0.21801348 0.07592866 -0.17715223 0.8230854 -0.2446987 0.5285456 0.36004573 0.5068014 0.0739931 0.5629016 -0.23842297 -0.2703397 -0.05943989 0.18937604 -0.5689466 0.0052421587 0.31021678 -1.6229477 0.4805175 0.800771 -0.017853722 -0.29343218 0.009652425 -1.4621575 -0.48606423 0.2913165 -0.340174 -0.09131554 -0.53601724 0.017428843 -0.18924505 -0.6164502 0.14887357 -0.4733835 0.7164608 -0.48123932 -0.8119076 0.61244154 0.83698857 
mexican 0.73697436 -0.4468316 0.27896833 0.33632702 0.281279 0.48765555 -0.46163443 -0.29187915 -0.18762755 0.061198894 -0.251766 -0.44987714 0.16919136 -0.10513422 -0.27333653 0.5276273 1.0248466 -0.33269194 0.36559594 0.16977851 0.5122328 0.26727182 0.20527874 0.1492346 -0.87149835 0.24765015 -0.014986521 -1.6361068 0.2794646 -0.37382615 -0.13260351 0.31214553 0.1644924 0.27028728 0.17291504 0.04489033 -0.015085608 -0.20721586 0.92513657 0.049675465 0.19977136 -1.0612462 0.16997264 0.25922102 0.9231416 -0.32016796 -0.39429647 -0.20528308 -0.7699332 -0.0027032793 -1.0363532 0.29560158 -0.013410954 0.5266016 -0.22256593 -0.9002696 -0.9308472 0.046531267 1.6378654 0.9281981 -0.56267244 0.854763 0.5413026 -1.3827565 0.47015208 -0.41823247 -0.49829134 -0.17358318 0.5553393 -0.03416236 0.45020133 0.20811777 0.17838013 0.3113968 0.25723866 0.69282264 -0.23795572 0.19856976 -0.88352865 -0.0546113 0.64838 -0.659931 -0.41694653 0.12387696 -0.50562334 -0.6400189 -0.7037111 0.4765892 -0.18251647 -1.6742399 0.25426164 -0.3027245 -1.0118653 -0.22385307 -1.0003616 -0.29072216 -0.8910325 -0.04881244 0.0913014 0.04832688 
street 0.50120956 -0.22437167 -0.33028427 -0.27011952 0.31370306 0.4201859 -0.61737865 0.059435733 -0.061217234 -0.4460962 0.120475255 0.13224629 0.06412324 -0.5796895 0.04482844 0.8932035 0.028858906 -0.26145908 -0.08420403 -0.28817788 1.1073843 -0.22893006 0.46183205 -0.5061575 0.18102439 -0.37328354 -0.24774323 -0.35042322 -0.10386258 0.4741549 0.18269187 0.45977598 0.17865947 0.50169307 -0.07085405 0.2433245 -0.14684314 -0.55251205 1.2041767 0.24157962 0.031224418 -0.8296908 -0.34268942 -0.39162412 0.5365861 0.09272956 -0.057830475 -0.057606623 0.85410076 -0.27731305 -0.23769662 -0.6112417 -0.13661313 0.44783944 -1.0325376 -3.2222648 -0.44167802 -0.23694678 1.042086 -0.17695968 -0.7703678 0.467772 -0.06440901 0.55280983 -0.09634103 -0.26726487 0.829822 -0.5527826 0.62774944 -0.14842471 -0.77378434 0.018655915 -0.45607492 -1.0113806 0.33398658 -0.7703977 0.9555903 0.8108898 -0.49264166 -0.76905763 0.624831 0.5127502 -0.21336533 0.32736087 -0.8980428 -0.8505822 -1.3357345 -1.1069301 0.7145002 -0.2950437 0.02071855 -0.48113048 -0.37812102 0.17825012 -1.2713964 0.10197195 0.8830319 -0.02594756 0.651262 0.7722522 
tacos 0.09391317 0.20512997 0.02116373 -0.06142199 -0.061064973 -0.071926415 0.6680728 0.17871498 0.027390733 -0.4436702 0.33028024 0.30395663 0.2546081 1.3189697 0.93737787 -0.17270291 0.11238753 0.24190685 -0.02103435 0.0020528517 0.7750127 0.2718098 0.025033295 -0.6330145 -0.13017553 1.2338394 -0.031022007 -0.2236181 0.049797602 -0.19937712 -0.06651747 0.043907836 0.15481475 0.0731307 0.39058912 1.135522 -0.25078952 -0.20615968 0.28937128 -0.82552373 1.1742558 -0.289068 -0.44642723 -0.774564 0.47329205 -0.5151494 -0.37172255 -0.1619465 -0.44503137 -0.3468562 -0.85916686 0.26550996 -0.08453174 -0.2711598 -0.7779128 0.6914213 0.5181142 0.3137087 0.0816589 0.37781066 -0.6387528 -0.1986948 1.2834715 -0.9582878 -0.40848145 -0.7183131 0.38306767 -0.29750586 0.06707676 -0.2163074 0.6967191 0.5482538 0.57177144 0.25273502 -0.2970084 0.24803823 -0.5165904 0.5874392 0.9852343 0.8019278 0.023620155 -0.20197576 -0.13099122 0.02237789 0.16100167 -0.3559459 -0.03451883 0.7600546 -0.3844889 -0.36045438 0.23688737 0.19384602 0.102598 -0.47914705 -0.9276885 -1.0617499 -0.59272087 -0.31715178 0.7025296 0.33333614 
friendly -0.8529256 0.46915463 0.04752361 0.34852317 -0.21784845 -0.075528845 0.6156816 0.021651149 -0.42000237 0.06455446 -0.77267885 -1.278495 0.20227529 -0.28786215 0.39719105 0.68026286 0.6229121 -0.5363822 -0.14581199 0.6139831 0.41495913 0.22736682 0.14806528 0.25053838 0.114785664 -0.10864057 -0.010125743 0.5561937 -0.26446465 0.044951394 -0.81249046 1.2027364 0.42082268 -0.2864738 1.5611538 0.14337127 -0.06957916 -0.3008662 -0.71881485 -0.6151569 0.3511581 -1.0429753 0.7569928 -0.4803736 -0.024105206 -0.004997353 -0.36651376 0.39717278 0.51247424 -1.071902 -0.3026936 -0.00029986468 -0.0866359 0.45237058 0.10475118 -2.0917432 0.5542717 -0.011580566 1.0427562 0.116857626 -0.7572819 0.065378904 -0.58577895 -0.24604212 0.21948513 0.18561839 -0.43146437 0.39889327 0.32843757 -0.8598451 0.46282268 -0.400677 0.9054773 -1.0489765 -0.0106516015 0.8052104 0.70856863 -0.7953538 -0.3579786 0.29814792 0.6161328 0.78421503 0.74994254 0.5014089 -0.7418366 0.45744157 -1.0432692 0.9011791 -0.6183447 -0.86595505 0.13200244 -0.014253538 0.25220394 -0.07111312 -0.5085073 0.52025485 -1.0272528 -0.15393208 0.15069446 -0.12931186 
staff -0.66383517 -0.3381414 -0.3431146 -0.40687254 -0.36168283 0.21834677 -0.093576714 0.4723512 -0.6084369 0.23391001 0.3649895 -0.7198547 0.7480827 0.5338488 -1.0272346 -0.83839256 0.12690601 -0.34306887 -0.74731654 -0.34671652 -0.41180494 -0.25018832 -0.59148335 -0.18790999 -0.1668916 -0.8558769 0.16188006 -0.077150024 0.4845534 -0.35269335 -0.020724243 0.54193175 -0.41201708 -0.23790377 -0.70850277 0.52283514 -0.6517374 0.5416327 0.20912358 0.17445008 -0.19844502 -0.1912894 0.29765 0.03454127 0.7990139 0.24540575 -1.03161 -0.66723645 0.099981286 -0.32507017 0.5830156 -0.58308595 -0.6913755 1.0945643 0.13047287 -1.6001321 0.3403163 -0.79898804 1.4635024 0.52224827 -0.059088647 0.43760455 0.1728807 0.02910768 0.6234632 -0.8444219 0.58650804 0.87479955 0.9716875 1.2364854 0.3416984 -0.052962102 -0.82675827 -0.8313495 0.6161237 0.25425887 0.11718234 0.71932673 -0.19364361 0.14644569 0.22457227 -0.490493 0.045417707 -0.5270747 -1.5932611 -0.26424795 0.4665084 0.023893064 -0.2939766 -0.1683002 0.7082334 0.01117318 0.56801826 0.22023045 -0.5305968 0.25444704 0.10705327 -0.10133294 0.17411235 0.29839757 
are -0.5589447 0.7987391 0.24688548 -0.66738313 0.20652017 0.3408263 -0.574021 0.6393301 -0.37752825 -0.6762975 0.09490947 -0.26625118 1.1697949 0.7021879 -0.092893146 -0.86042607 0.093996346 0.3256775 -0.40054923 0.4121054 0.2744409 0.3251814 0.83409727 0.43549764 -0.14859161 -0.34991428 0.5876463 -0.20965745 -0.495127 -0.19351798 0.3332523 -0.23516227 -0.4222883 -0.055722684 1.079965 0.25552785 0.4001425 0.42008483 0.18509415 -0.12395958 -0.050703473 -0.284112 -0.28722852 -0.3861967 0.08998613 -0.102261424 0.49914184 -0.0113210445 -0.17077252 -0.5974319 0.27265185 -0.53838915 -0.10033319 1.5534271 -0.12564647 -1.9267188 0.57152736 -0.30150262 1.4178138 0.70720166 -0.55436367 1.1606714 -0.24473207 0.11353202 1.3355025 0.25270116 0.7254302 0.7738519 0.31716186 -0.8541164 -0.27375475 -0.61557716 -0.15997641 -0.47394446 -0.081832245 -0.3655629 -0.025708107 0.6099433 -0.99078757 -0.30730307 0.5549743 -0.27695054 -0.97373277 0.030862244 -2.0513322 -0.1813872 -0.0007426972 0.04502388 -0.25809863 -0.40048447 -0.9300725 0.07830539 -0.37911442 -0.23488511 -1.1038681 -0.100379795 -0.6662597 -1.2180498 1.0840052 0.2973197 
also -0.40354866 0.13197978 -0.13808423 -0.22310953 0.8511375 -0.3771696 -0.24926485 0.2691724 -0.054102443 -0.115373135 -0.18672837 -0.45284876 0.48303628 0.4623161 0.061966747 0.0037564524 0.63674617 -0.08180472 -0.44001034 0.33319387 0.42888552 -0.15913512 0.2723943 0.58366114 0.09733513 -0.2513414 -0.106272794 -0.12344984 -0.3151897 -0.06643193 -0.21086967 1.1281283 -0.5109508 0.61693305 0.51574355 0.328288 0.2518688 0.8044921 -0.24301554 -0.031247212 -0.61217767 -0.35158095 0.35550618 -0.40733248 0.32544968 0.01665019 0.058960475 -0.48512873 0.685031 -0.63546616 -0.20274135 -0.34762996 0.31927067 1.0644495 -0.3057344 -2.3629148 -0.49309632 -0.3233672 0.7781739 1.4222202 -0.18216406 0.4198048 0.097929195 0.28433558 1.0812759 -0.33068725 0.33310926 0.23340103 0.5173194 -0.30913696 0.2092206 -0.46093795 0.124872796 -0.16096814 0.19713783 -0.058520924 -0.013650628 0.50745195 -1.1746844 -0.14486328 0.52890277 -0.22554734 -0.6211885 -0.3208119 -1.8498818 -0.49853364 -0.028917367 -0.3594584 0.37926 -0.090364605 -0.28076023 -0.5748475 -0.19480704 0.107931234 -0.6028343 0.43268105 -0.48880985 -0.884303 0.8050973 0.4008541 
very -0.8096451 0.2893821 -0.06358757 0.10771945 -0.57522917 -0.11781529 0.059595563 0.2378339 -0.07378845 -0.31152794 -0.14765605 -0.17702179 0.3611239 -0.46365175 -0.289109 -0.29001373 -0.6477417 -0.24173366 0.13675494 0.61040676 0.49393708 0.27086464 0.2768954 -0.32880738 -0.043866407 0.1963097 -0.15637277 -0.607679 -0.19366494 0.37342286 -0.5415357 0.56806755 0.069783114 -0.3223892 0.81997615 0.46235758 -0.0162088 0.13873172 -0.19579244 -0.26582336 -0.10900671 -0.04242667 0.31863973 -0.18218152 -0.16658741 -0.3508209 1.0302035 0.43478215 -0.22197755 -0.84727144 0.33352944 -0.3008424 0.19336133 0.89943045 -0.4458462 -2.7746952 0.2848769 0.085437484 1.3879198 0.1912345 -0.08857861 1.3668247 -0.6899686 -0.07544973 0.8775578 -0.27860838 0.78566986 0.34330028 0.48922938 -0.35767144 0.14586008 -0.41785246 0.4243762 -0.2625712 0.9287725 0.0016549105 -0.49191597 -0.2770645 -0.55343384 -0.14881007 0.6420207 0.1463519 -0.66164804 0.3348872 -1.6438209 -0.28229636 -0.10614346 -0.26912728 -0.63101685 -0.83851856 0.066310905 -0.023958243 -0.30593774 0.41423756 -0.19994886 0.19818927 -0.9297641 -0.71373236 -0.1412011 0.41103086 
efficient -0.7150679 0.18485732 -0.14017841 0.11731391 0.05601112 -0.546951 0.121456355 -0.17233813 -0.087736644 0.5828652 0.07273878 -0.7953008 -0.044930506 -0.46824288 0.07233124 -0.717193 -0.06219352 0.49869046 0.6539768 0.17650305 0.098628566 -0.16313368 0.06829023 -0.46080598 0.16348623 0.106013924 -0.45572564 0.10175874 -0.7873363 0.5884974 -0.42377657 0.5608836 -0.28129822 -0.8543209 1.2693576 0.22243549 -0.19073433 -0.4794438 0.16010958 -0.15503645 0.47338927 -0.7936168 -0.26934212 0.2871454 -0.116940565 0.15573867 0.66310173 -0.17546792 -0.0668112 -0.7215954 -0.32511556 -0.1547002 -0.66742134 0.91412675 0.006292473 -0.7479864 0.51096904 0.6911509 1.6863598 -0.806792 -0.47191724 -0.78674936 -0.20084496 0.7593475 1.1766776 -0.34931368 -0.32791084 -0.32149988 0.5780325 -0.9497894 0.55666023 -0.7464716 0.39369363 -0.37704888 1.130692 -0.33173522 -0.12615305 -0.46467608 -0.43996465 -0.46062887 1.0433828 0.73829305 -0.75409305 0.4582711 -1.3031437 0.95389926 0.68502074 -0.0062673995 -1.1898237 -0.7285261 0.78541017 -0.18558289 0.19580388 -0.19735609 -0.41637123 -0.27892426 -0.18494059 -0.60807234 0.5427734 0.1418806 
bad 0.6180389 -0.3620537 1.2938293 -0.8157454 -1.4269516 0.09968325 -0.7503869 -0.2557758 0.12375324 -0.1380429 0.4130646 0.54063666 0.5915203 0.30497712 0.47023755 0.017389432 -0.34829256 -0.06608257 0.6369133 1.0736048 0.36692604 0.55906564 0.023884049 0.042936683 -0.49228212 0.2055018 -0.8706301 -0.40340468 0.14328317 0.2904129 0.3513026 0.44455636 -0.07271729 -0.30641228 -0.88452524 0.105439104 -0.67398894 -0.26679406 -0.09107774 -0.006814242 -0.27632755 0.052190717 -0.50921774 -0.48031446 -0.37412938 -0.26476803 0.26801938 -0.023966203 -0.28741223 -1.3822938 -0.000754138 -0.04755491 -0.093515284 0.6869127 -0.075955614 -2.4796696 0.4321638 0.7471454 1.3663608 0.18814911 0.14419329 0.88747 -1.1463815 0.12805629 0.42756975 0.12397403 0.8213224 -0.24531378 -0.10539231 -0.6330446 -0.55437857 -0.32544196 -0.36818865 0.57201123 0.49024868 0.04748948 -0.38931987 0.62764007 -0.645933 0.31314668 0.92419374 0.0603076 -0.93064845 0.010287298 -1.9987514 -0.50127196 -0.8772747 -0.6248657 -0.77364963 -0.29028735 -0.16153742 0.05037289 -0.13602106 0.0934646 -0.017327253 0.5077344 0.039828826 0.22734113 -0.07494406 -0.2611511 
day -0.47442937 0.524184 0.056734033 -0.24396709 -0.3044648 0.13600954 0.45861405 1.0844609 -0.9142995 -0.5494249 -0.09689644 -0.23468792 0.19655432 0.043796685 0.38504988 -0.33600128 0.2203203 -0.25115973 -0.5155073 0.06725858 0.80839026 -0.285596 0.23483843 0.40383112 0.6058898 0.17515907 -0.25295526 0.1074991 0.27791995 -0.10531206 -0.6199218 -0.26850307 0.17705703 0.0022382382 -0.1173232 0.45334822 -0.3740677 0.36238334 0.22245194 -0.10102586 -0.64098805 -0.36763468 0.7320615 0.11219749 0.08480596 0.21398705 -0.22560738 -0.82385826 0.20535597 -1.067766 0.09303099 -0.6365028 0.574357 1.0246785 -0.8379016 -2.6675954 -0.3175456 0.13904326 2.181057 0.609284 -0.5129662 0.9284692 -0.21764323 -0.47396266 0.058807243 0.41363412 0.27889746 -0.2986855 0.33483365 -0.42553502 -0.18472347 -0.43852037 -0.36299488 -0.3550003 -0.08340534 0.6425524 -0.15899515 -0.30747372 -1.0027163 -0.011968454 0.3244286 -0.01586156 -0.09737953 0.03746694 -1.4030609 -0.22099896 -0.2285236 -0.03511736 0.34968767 -0.30508703 0.12246246 0.08751254 -0.100500695 0.30285332 -1.2484534 -0.030619374 0.51743287 -0.095346205 0.2634332 0.5273592 
or 0.24569203 0.64679146 0.25207195 -0.48041838 -0.2761783 0.73912287 -0.0021188098 0.3233231 0.48946154 0.12062762 0.2156258 -0.099283874 0.1785354 0.7240623 0.64253217 -0.38071322 0.2289767 -0.06930465 -0.3788629 0.55901057 0.07537841 -0.1284064 0.29171506 0.3439495 0.5608439 0.093886204 -0.16398732 -0.65814954 0.13574275 -0.32287586 0.40181115 0.62818426 -0.53644377 -0.567497 0.26753092 0.6864301 0.039292444 -0.08763745 0.06295974 0.1694101 -0.3863514 -0.7532017 -0.213435 -0.63946664 -0.22463535 -0.18928458 -0.25117448 -0.14146091 -0.52349585 -1.4648104 0.16173252 0.2401934 0.47044763 1.3675723 -0.6383655 -2.0392478 0.3314574 -0.19647418 2.330268 0.734479 -0.3258632 0.75920075 -0.30203092 0.29171187 0.9146619 -0.30400908 0.72265655 -0.20964089 0.54093176 -0.26594868 -0.95976734 -0.3371135 0.0059178327 -0.51818025 0.053848784 0.020906968 -0.21763785 0.22384615 -0.53966725 0.18888465 0.24316454 -0.17238364 -0.6392885 0.47851756 -1.6733228 0.37850568 0.3876585 0.5826936 0.9486419 -0.21100105 -0.6412832 0.054847203 0.16971174 0.16726692 -0.8351052 -0.09293839 -0.15705138 -0.9070175 0.8720064 -0.533655 
low -0.35487995 0.26037297 0.06000459 0.18146884 -0.6837881 -0.43163633 -0.3604838 -0.21454018 -0.9065643 0.6109545 -0.24507609 -0.040453434 -0.08252474 -0.12790142 1.1323552 -0.8170646 -0.705759 -0.63106257 0.6516207 0.2800081 0.30466023 0.6506992 0.5664007 0.27263972 0.26624915 -0.09812167 -0.52400637 -0.550065 -0.746998 0.17019793 0.39625505 0.23513992 -0.2594017 0.24944527 0.26027346 0.43355143 0.44341758 0.2153691 0.010984032 0.19989721 -0.0661375 -0.6399932 -0.846188 -0.012428587 0.9715167 -0.12415341 0.35632655 -0.23464268 0.09481716 -1.1611644 0.04352403 -0.7574536 -0.25741497 1.0332228 0.078331254 -2.3884625 -0.056131095 0.07490465 2.3714576 -0.021168496 0.17825428 0.07901041 -0.19798781 0.07964359 0.020768384 -0.056728598 0.62426525 -0.5471518 0.61026335 -0.5875686 0.21810316 -0.19738092 0.17435804 0.41238052 0.096422814 0.12826005 -0.24917161 -0.21145457 -0.1510324 -0.15110105 0.8569149 0.33257055 -0.87966734 -0.94038844 -1.1071405 -0.40793678 0.29054055 0.20289107 -0.13069685 0.08380208 -0.73339194 0.45078564 -0.39598683 0.24265255 -0.94214576 -0.19897832 0.0749031 -0.51354814 0.2569973 -0.57234406 
tolerance 0.73122513 0.3645667 -0.056919917 0.56236994 -0.5065742 0.76398766 -0.36204037 -0.5999675 -0.77314687 0.64572185 -1.3942616 0.1349423 -0.38146678 -0.20054507 0.5851499 -0.11372066 -0.32973328 -0.28285304 -1.1366704 -0.01908603 -0.18200499 -0.39591557 -0.5635153 -0.4597297 0.5341271 0.94717795 0.30006814 -0.36838385 -0.23347531 -0.16913229 0.19997275 0.63536584 -0.264305 1.1679877 0.80517024 0.048907135 0.6303432 0.14725976 -0.6359803 0.23653197 -0.7719388 -0.24099217 -0.09282735 -0.39903772 -0.40092206 -0.7863701 0.5361337 -0.062348142 -0.55329376 -0.63951397 0.38192087 -0.48940888 -0.7877838 0.9595246 -0.1337115 -0.6698254 0.72717965 -0.38726464 1.1358753 -0.5033864 0.09680307 -0.37408105 -0.3355515 -0.9343182 0.21514167 0.67042196 0.25532338 -0.6661069 0.8752141 -0.78429306 0.2615309 -0.25780165 0.27385572 -0.0951733 0.09302609 -0.17717081 -0.15101688 -0.2678692 -0.2891774 0.21134558 -0.3568853 0.03299739 -0.106835276 0.6013252 -0.7994411 0.9061515 -0.39067733 0.0147102345 -0.43653613 0.06695376 -0.54242176 -0.4917631 -0.6139405 0.57949483 0.07433158 -0.15811567 -0.0341514 -0.98013645 0.19072281 0.9030878 
rude 0.65270984 -0.25100088 0.7112633 -0.79044324 -1.066445 1.0259926 -0.3896123 0.5767706 0.31648237 -0.044249676 -0.10719764 -0.64380556 0.38573343 -0.25844926 0.81577456 0.43406352 -0.85914135 -0.4976092 0.15908913 0.6476935 0.936016 0.11425342 0.046038654 -0.14574544 -0.5850248 0.7933612 -0.60048604 0.476916 0.56815827 0.23336843 0.029676208 0.35532233 -0.31637442 0.17446722 -0.13543524 0.52732974 -0.7955215 -0.6904342 0.3724731 0.036139753 -0.30278665 0.52384967 -0.7717295 -0.17530449 -0.02967055 0.5635964 0.03536968 0.5839449 0.1959499 -0.2675342 0.30732304 -0.22565202 -0.058200665 -0.4311506 -0.9149149 -0.37902397 0.8287649 -0.16314824 -0.16130085 -0.66755944 0.6084144 -0.16145949 -0.9265695 -0.528011 0.18172032 -0.62350225 1.2105069 -0.5915554 -0.12615098 -0.6014322 -0.7591311 -0.29327834 0.02993599 0.004351964 -0.054258816 0.66026133 -0.07223697 0.6052481 -0.26857755 -0.3838035 0.07161156 -0.7618511 -0.030126952 -0.08814077 -1.2118686 -0.36184967 0.2780571 0.021605695 -0.029294698 -1.3611041 -0.034744952 0.37107933 -0.4289937 0.27884498 -0.18528828 0.09970515 -0.89364153 -0.15166776 -0.67633164 -0.08212055 
customer 0.22689757 0.09173032 0.589058 0.2074687 -0.39355677 -0.5308117 -0.43716055 -0.21618141 0.31620753 0.39916885 -0.116801076 -0.045867752 0.682693 -0.4798585 -0.0047672056 -0.33268932 -0.21923852 0.45989805 0.34155744 0.7697719 -0.3314475 0.24641037 -0.1941786 -0.19442062 -0.06646676 -0.44520342 -0.12426022 0.061525688 -0.044026256 -0.09950793 0.60650617 1.3906206 0.4897297 -0.35402927 0.20021798 0.36618412 -0.10053197 -0.23533277 0.44226623 -0.45522618 0.86097646 -0.78477126 0.165518 0.014538582 -0.03272741 0.56489575 -0.44081703 -0.23781309 0.2966603 -0.6060961 0.5413404 0.0065457877 -0.6094122 0.38121086 0.04132183 -0.86763996 -0.056419346 -0.6236256 1.9709263 -0.04272536 0.4623698 -0.5251011 -0.15603407 0.2030086 0.23692353 -0.7273118 0.3818638 -0.5171203 1.0501807 0.045823544 -0.35362092 0.20181096 -0.24108104 -0.9564159 0.63496846 0.86433876 0.03811449 -0.69798505 -0.90796304 -0.1866999 0.9136594 0.16066699 -0.49096176 0.018821888 -1.5079687 -0.86833346 0.31220654 -0.7839997 -0.5437572 -0.13143517 0.06498696 1.1277238 0.41178071 -0.9077958 0.31411475 0.59499323 0.21310565 0.030334309 0.40966555 0.73934275 
people 0.23473749 0.8492999 0.27737334 -0.3332213 -0.46355164 1.1490196 -0.39322862 0.086827844 0.35937768 0.028350614 -0.17136294 0.035774827 0.84630704 -0.30510005 0.24076723 -0.5900004 -0.11891156 -0.30477217 -1.022028 0.70546556 1.1133993 0.38343498 0.86347777 -0.546223 -0.22534934 -0.30790165 0.46217668 0.012096979 0.27454534 -0.32152364 0.5216639 0.64115095 0.042415563 0.058048792 -0.08855966 -0.45111585 0.24872176 0.7580509 0.34015027 -0.043862447 -1.0791256 -0.21819663 0.116776116 -0.6487022 0.04146565 0.029636342 0.09972223 -0.44449916 -0.87498146 -0.47094658 -0.46030465 -0.73173636 0.091780186 1.2585195 -0.58860236 -1.7361969 0.33890793 -0.24768697 2.1747503 0.10787013 -0.29408136 1.5076478 -0.18955936 -0.22033757 0.45449805 0.9037121 0.55620277 -0.12483972 0.5346246 -0.7437999 -0.19131906 -0.4756164 -0.25890315 -0.44227204 0.2091169 0.6404182 0.11265284 0.50806546 -1.0679848 -0.2466074 0.7863896 0.18664303 -0.5469293 0.18294705 -1.9035189 0.006644555 -0.4526927 -0.20274568 -0.57718784 -0.39503443 0.7784422 -0.27810833 0.17828135 -0.50211746 -1.4186592 0.25446868 -0.8092794 -0.28506976 0.41507277 -0.1155652 
it -0.3283645 0.17693089 0.9134929 -0.23007077 -0.19831894 0.17714314 0.006480867 0.3714496 0.54621655 -0.22672082 0.4171696 0.19855136 0.18596923 -0.022092 0.03854182 -0.22470948 0.2121526 0.36332545 -0.2342063 0.49182793 0.37722075 0.002940625 0.33974123 -0.046388753 0.41842508 0.21370047 -0.25982124 -0.42087954 -0.12377079 -0.6907398 -0.23602812 1.1709541 -0.11292957 0.11646864 -0.048714373 0.3972146 0.04899796 -0.18745385 -0.4975031 -0.5558463 -0.29878294 -0.08500439 0.1501606 -0.35446644 -0.42648634 -0.060723167 0.6831572 -0.52535975 -0.123856775 -0.72571313 0.09765725 -0.053391073 0.52278733 1.2624265 -0.73401713 -3.3863502 -0.06308291 -0.27445608 2.0669374 0.6106327 0.11494368 0.91418326 -0.02162069 0.27625415 1.0835761 -0.27854556 0.6686139 0.7028901 0.29427707 -0.28340378 0.41035473 -0.7105405 0.32181352 -0.27337337 0.69109094 -0.40381008 0.019001216 -0.25567397 -1.2399727 0.41605517 0.18391375 -0.24795915 -1.0411007 0.5703175 -1.2771183 -0.23466475 0.29239693 -0.3306113 -0.1383383 0.03889777 -0.12040083 -0.49190283 -0.3102295 0.092303716 -0.4442208 0.0058286567 -0.18141931 -0.39643863 0.39247036 0.55918825 
is -0.5007609 0.3626232 1.0068123 -0.43548122 0.5109043 0.25440174 -0.16643028 0.49697676 0.082371294 -0.14190918 -0.1755248 -0.12776244 0.5881833 0.24520712 0.11977143 -0.36585507 0.5064159 -0.003667114 0.15228967 0.47461706 -0.19452585 0.0112793 0.15222144 0.2547521 0.3846484 0.2458398 0.15497614 -0.55045784 -0.5901203 -0.05642877 -0.7005069 1.0010309 0.12916493 0.20622407 0.6545275 0.3032696 0.3121228 0.3357569 0.29359937 -0.38267258 -0.42734456 0.22437859 0.65279084 -0.63659835 0.13163725 -0.098196514 0.5885191 -0.42367983 -0.19859956 -0.3869767 0.041968267 -0.88747513 0.63662666 1.4482361 -0.7117821 -3.1525595 -0.12128792 -0.36736363 1.4571781 0.46340632 0.3127754 0.44774744 -0.19385013 -0.32382283 1.2289643 0.06064447 0.7685853 0.2637214 0.3846952 -0.046667807 0.016176919 -0.56816584 -0.13124986 0.17344072 0.7797568 -0.50420505 0.10529144 0.21099749 -1.094141 0.006819699 0.047949363 0.10741246 -0.9504589 -0.22239068 -1.084544 -0.119424604 0.102394246 -0.47877407 0.5958263 -0.76246977 -0.3817513 -0.100446366 -0.34290785 0.36616492 0.08147019 0.29803118 -0.026482172 -1.3354578 0.7976535 0.46431896 
your -0.4182415 -0.081669964 0.870564 -0.6390704 -0.73416847 0.650237 -0.7693469 0.31049067 0.08618598 0.30881286 0.4115641 0.19846287 0.45320833 0.20738617 -0.06019593 -0.32443124 -0.11099222 0.5042792 -0.002172449 0.32436794 -0.67072797 -0.10967152 -0.2352425 -0.102864265 0.2632604 0.9860646 -0.84271884 -1.1721852 0.64943534 -0.38711175 0.8207819 1.3596005 0.3989575 0.043325204 -0.34521538 0.5254579 -0.744212 -0.0066609653 0.51231027 -0.72465426 0.51023453 -0.2680211 0.26181972 -0.8520536 -0.74113196 0.10771883 -0.8750095 -0.45552668 -0.00995254 -1.4122882 0.14811343 0.30924603 -0.14904916 0.9090509 -0.21445817 -2.3063912 0.92258954 0.3132883 2.3717737 -0.13254584 0.51107305 1.7024765 -0.49431524 -0.10127812 0.93359333 0.6255681 0.5713726 -0.30053195 0.40482262 -0.45377666 0.060198355 0.50443137 0.5697302 -0.99119455 0.65857303 0.42026836 -0.41906652 -0.42991725 -0.47866932 0.123894 0.46770898 0.4796199 -0.46559286 -0.1860795 -1.617517 -0.32529965 -0.2167146 -0.27103156 -0.15270832 -0.122775905 -0.5943713 0.9071619 1.3521867 0.050642546 -0.4232951 -0.43471757 0.2999283 -0.32579347 0.8849385 0.8114507 
job 0.18206769 -8.158681e-05 -0.098415606 -0.44993383 -0.32275566 -0.4608571 -0.21800831 0.25359473 0.055396907 0.35372493 0.027392466 -0.4793472 0.29090577 -0.10760849 -0.09600189 -0.48022547 0.26612166 0.12848604 0.1521958 0.818257 -0.4477658 0.4144007 -0.662615 -0.4106428 0.07680362 -0.824761 -0.30626473 -0.68604773 -0.25372058 -0.4255108 -0.57017785 0.41018933 0.10222164 -0.55346686 -0.58062595 0.3966808 -1.027069 0.058183555 0.32702106 -0.4088322 -0.32259673 -0.19043852 0.4259707 -0.009155374 -0.37077937 0.6622646 -0.17713471 -0.6992367 -0.030732239 -1.1745664 0.19793448 -0.80061924 -0.6086118 1.5757596 0.2590292 -2.1887333 0.4588903 -0.38116112 1.4390016 0.074383475 -0.18300205 0.10404366 -0.29354823 -0.33375993 0.7240689 -0.16764393 0.78239185 0.033214245 0.30881572 0.26006022 0.19596207 0.017906819 -0.58833086 -0.46944326 0.4470033 0.32435477 -0.48023567 0.2518109 -0.2892573 -0.026248412 0.5724633 -0.07814424 -0.40957925 -0.38061425 -1.5224522 -0.63280785 0.46320653 -0.025277054 -0.5165857 -1.0279495 0.30798182 -0.08837624 0.66304374 0.41388625 -0.20335378 0.32410187 0.17679965 0.48801902 0.72447544 0.40390146 
be -0.47619134 0.45572942 0.50936866 -0.5768658 0.07595939 0.034205977 0.10149732 0.49755654 0.03864999 -0.11041785 -0.0927324 0.48427668 0.9528869 -0.056757957 0.32645124 -0.7352362 0.45032647 0.39813727 -0.77529013 0.17193058 0.31542847 -0.31658372 0.23814419 0.15477426 0.1455094 -0.11499563 0.18811706 -0.44123104 -0.28805035 -0.03470397 -0.056453872 0.55358857 -0.21321262 0.37212822 1.0045476 0.31162494 0.09208988 0.3477797 -0.1826174 -0.2828907 -0.4007916 -0.35675517 0.27274272 -0.5163253 0.2860655 0.09730522 0.41672045 -0.35235593 -0.025409957 -1.0241641 0.15729658 -0.80369747 0.44385776 1.1450107 -0.4410459 -2.4751182 -0.11972747 -0.13013397 1.8441968 0.8652225 -0.06567478 0.96134156 -0.88600343 0.017749708 1.3045632 -0.14771795 0.5995664 0.65620255 -0.06917886 -0.7404639 0.010263633 -0.92470235 0.03192366 -0.22280535 0.20858304 -0.44155937 0.1551537 0.13507977 -1.1955965 -0.024426611 0.4136153 -0.31147203 -0.86352736 -0.24324784 -2.0361104 -0.36701614 0.84823513 -0.008454568 -0.16907023 -1.1504812 -0.68040806 -0.37746352 -0.25146028 -0.14507866 -0.30114388 0.117806 0.09720985 -0.8035503 0.48937583 0.36429444 
polite -0.16027234 0.35371727 0.14705198 0.36560285 -0.81229866 1.4809848 0.17517363 -0.17006487 -0.14285873 -0.33049354 -0.61902493 -0.3979215 0.19784997 -0.38714862 0.40092483 0.0209298 -0.5988752 -0.46149576 0.1878888 -0.038351536 0.11065148 0.3830583 -0.064410605 -1.0650109 0.044517275 0.2058333 -1.0154653 0.3104796 0.19629891 -0.42215294 -0.07830046 0.5191542 0.3533017 -0.107790776 0.8774724 1.0310373 -0.5271253 -0.44221178 0.30891773 -0.059245717 0.21604964 -0.5259044 0.0193269 0.10122325 -0.3975411 -0.39842287 0.41226965 0.4902153 0.41900098 -0.7122243 0.5159262 -0.5221713 0.73018116 -0.15414588 -0.5361081 -0.1407632 0.54802537 -0.3028382 0.31111217 -0.38293725 0.14437038 -0.006952872 -1.1474749 -0.3260088 0.35315716 -0.65718675 0.82995176 0.29213852 0.0459171 -0.25491098 -0.39590347 0.19997369 0.40676677 -0.94264865 0.17352216 0.90573275 -0.11088538 -0.7122645 -0.2605554 -1.119088 0.3538396 -0.19439799 0.082012124 0.08019553 -1.3268911 0.23261243 -0.20285846 0.357199 -0.05897466 -1.0359901 0.30590475 -0.032644756 -0.15007032 -0.11154888 0.057036128 0.65869486 -0.90489036 -0.096188575 -0.8426305 0.6554768 
wash -1.059643 0.50307024 0.12639703 -1.0581722 -0.44806927 0.4506721 0.16842657 1.2248133 -0.11851371 0.5546919 0.1555532 -0.023571495 0.13361019 0.49913603 -0.29090834 0.00026047733 -0.123871684 0.24566378 -0.62909555 -0.44458076 -0.5815095 0.077957265 0.16186887 0.012819905 -0.44734985 0.97098476 -0.83284634 -0.17550103 0.18007532 -0.582039 0.40464014 -0.010066708 -0.0732396 0.099181205 -0.64116764 -0.09587585 -0.08334351 -0.7678207 0.9241714 -0.11316987 -0.17649667 -0.89699405 -1.1805235 -0.8860126 -0.19287676 0.8713143 -0.55520403 -0.29963633 0.14988737 -0.23964715 -0.21383122 0.005341986 0.34973645 0.45325983 -0.6600506 -0.8273762 0.03767296 -0.08443352 0.7448365 -0.48393315 0.13014024 0.5480876 -0.23390754 0.21285567 0.7345243 0.56796026 1.2522945 -0.59662926 -0.5397536 -0.5704591 -0.4678518 0.5024926 0.10018753 -0.055483647 0.69250244 -0.10266924 -0.33005098 0.09297518 0.4589909 0.34933245 -0.30885413 -0.2102555 -0.6581444 0.57095176 -0.3765189 -0.39355758 -0.101112075 0.18553834 -0.25167468 0.06598196 0.02768927 -0.24912547 0.3814247 -0.5827001 -0.3182632 0.056395736 -0.19167365 0.08718134 0.5231455 0.060594827 
dishes -0.9662545 0.6884869 -0.075884715 -0.09922755 0.08726261 0.31792194 0.49017859 0.12619093 -0.01825864 0.5085389 -0.37340575 -0.34361264 0.42928442 0.95984215 -0.19858666 -0.06474005 -0.3608911 0.07082496 -0.47836408 0.15852496 -0.6484719 0.7450771 0.7969933 -1.1449972 -0.04156747 0.3857542 -0.28552434 0.32669953 -0.6019463 -0.85349953 0.050989788 0.33009002 0.2789105 -0.46917632 0.75910693 0.8681449 -0.009616966 -0.33855852 -0.3560733 -1.2090616 0.41207343 -0.7364821 -0.6321832 -0.62664694 0.52213603 0.47320136 -0.63629854 -0.53501 0.07369793 -0.37997004 -0.26463935 0.2503343 0.4021156 0.21468808 -0.97160286 -0.46945518 -0.26508728 0.50831395 0.8220023 0.73736763 -0.5726733 1.3513302 1.0807135 0.15771255 0.18489987 -0.30710116 -0.037264403 -0.6662375 -0.22295801 -0.65452677 -0.24357103 0.51887935 0.8290565 0.6369854 -0.6064468 0.9963833 -0.63157064 0.34920955 0.76243 0.2723156 0.20933415 -1.0411217 -0.63014555 0.50499785 -0.8046631 -0.22022276 -0.21704143 0.56532264 -0.3654406 -0.6300434 0.30422452 0.50824034 0.5340775 -0.74370545 -1.3394476 -0.51972085 -1.1310312 -0.7293606 0.775644 0.89007974 
otherwise -0.58495814 0.10102678 0.3382009 -0.14689182 -0.1976761 0.42541608 -0.29572508 0.45479223 0.51287216 -0.22863308 0.16824405 0.410058 0.55143046 -0.26262 -0.1962547 -0.29573038 -0.0077510537 0.22186787 -0.09418126 0.49841008 0.03301277 -0.34176496 0.43904194 -0.365564 -0.1181783 -0.047029 -0.42095077 -0.546205 -0.10861391 -0.003280842 0.26697636 0.49118793 -0.5267587 -0.5073273 0.3647543 0.26181716 0.22255582 -0.2917171 -0.37758762 -0.23444109 -0.09656335 -0.19090891 -0.11395578 0.06971433 0.014653007 -0.49553946 0.44352853 0.31425813 -0.3560968 -1.1220473 0.5392195 -0.05333943 0.51423126 0.3826366 0.2092532 -1.5032051 0.43394867 -0.28748304 1.3090675 0.27505097 -0.5845426 0.5109193 -0.5692824 -0.30250886 0.8565189 -0.15119496 0.7742254 -0.28315246 -0.20283768 -0.48605362 -0.017046088 -0.26918894 0.1613882 0.039673205 0.5792968 -0.048451163 -0.10846865 0.047328092 -0.3412342 -0.107396 -0.0041198838 0.113974415 -0.7986278 -0.07749048 -1.5073522 -0.38843015 0.055428237 0.37276834 -0.31059074 0.0071024317 -0.40821636 -0.43224028 0.38690513 -0.16960053 -0.29778153 -0.0020936532 -0.1788109 -0.09815418 -0.15974504 -0.166681 
took 0.49950704 -0.39920864 -0.18126655 -0.14947449 -0.09820185 0.0633558 0.12341158 0.5289022 -0.47911608 -0.017639156 0.5177761 0.36953557 -0.060710076 0.30900618 0.17166138 -0.26428816 0.007780521 0.32929787 -0.39691323 -0.16775936 1.1819447 -0.0074197343 0.5301093 0.25149566 -0.21492335 -0.48676786 -0.58451015 -0.20246696 0.42934945 -0.40987816 -0.032696314 0.60560274 -0.0059106387 0.1921895 -0.59604824 -0.2078796 -0.47096288 0.661879 -0.44307193 0.28632635 -0.86312866 -0.27081263 0.60867804 -0.5090422 -0.05205728 -0.18304798 0.1925288 -0.24971312 0.6707915 -0.6925764 -0.16177753 -0.0068979743 -0.16986176 1.3799065 -0.3581566 -2.7875772 -0.6741744 0.023681851 1.2100105 0.6157676 0.044103287 0.63932854 -0.08148357 0.346019 0.40612298 -0.17688964 0.027914437 0.03288642 -0.24049217 0.5860701 -0.43789622 -0.38886663 -0.38294086 -0.111682676 -0.21194959 0.16454871 -0.6578515 0.17313114 -0.8665486 -0.13496286 0.8597823 -0.28873628 -0.39210424 -0.017302588 -1.1693529 -0.4727509 0.25797105 -0.2302735 -0.30232894 -0.40114674 0.12133498 -0.68537873 0.24923262 0.38130948 -0.557448 0.21633485 -0.26577756 0.35595804 0.081392944 0.1967419 
