2103 100
<unk> 0.024030056 -0.034945834 -0.022484733 0.013413813 -0.003302645 0.013777856 0.045400683 -0.047208812 -0.042204022 -0.022755885 -0.028769208 0.019829024 -0.0149720535 0.007849406 0.0054251067 0.03538921 -0.04929266 -0.013100971 -0.026591659 -0.016979896 -0.0062820427 0.0389832 -0.018533707 -0.020514179 0.019148264 0.0022141114 0.017324876 -0.048281956 0.040944505 -0.0130521655 -0.024643898 -0.04097736 -0.03895979 0.014101688 0.026476968 -0.016358722 -0.042647194 -0.03758005 -0.035345506 0.041643027 -0.007720113 -0.009765945 0.023193311 -0.0391181 -0.012094151 0.016869519 0.039773215 0.007990681 -0.027204096 -0.0053038 -0.0026212707 0.04157691 -0.0351161 0.044999387 -0.038174033 -0.01999936 0.019962255 0.030589234 -0.042595744 0.032069232 0.013595108 -0.017430328 0.020628486 0.013854835 -0.017227303 -0.015240312 -0.026774978 0.036221955 -0.02652644 0.0010177493 -0.0013498664 0.018925179 -0.0038437955 0.025928807 0.0025753602 0.04670043 -0.025527049 0.04443318 -0.033983625 0.0050166845 0.01815131 -0.049382713 0.041113805 -0.01603086 0.038186196 -0.03923123 0.043382082 0.047560606 -0.019293427 0.014385354 -0.01878289 -0.04357603 0.03380349 0.025136564 0.007677652 -0.0014904141 0.019449797 0.024828825 0.009661533 0.014088359 
wow -0.5135584 0.65274936 -0.43760446 0.21201172 0.074689455 -0.3262198 0.3757794 0.53623444 0.9461948 0.023934957 0.33984792 -0.30074093 -0.29306874 -0.10096647 0.549452 -0.007832437 0.518508 0.10728767 0.016082 0.5223305 -0.06863728 -0.18375868 -0.6714721 -0.37061387 -0.30386087 0.2187539 -0.1547549 0.133864 0.42118016 -0.14331847 0.3961054 -0.07387336 -0.020106075 0.33220306 -0.28897455 0.09927279 0.8964954 -0.29919198 -0.22309831 -0.29030234 -0.81545675 -0.04980082 0.05202123 -0.57420397 -0.5913613 0.05398251 0.039855868 0.23671015 -0.09923164 0.0017552238 0.26415512 0.072003886 0.17128606 0.5500243 0.062264424 -0.30703798 0.2380646 0.30619615 -0.122129686 0.1732243 -0.34009165 -0.25665998 -0.08155454 0.5055804 0.3139715 0.5451755 0.068919234 0.1249674 -0.12939292 0.86469537 0.18223712 -0.6946651 -0.026255695 0.064812586 -0.44212145 -0.3800149 -0.079762876 0.40658507 -0.24337195 0.11678914 0.14166307 -0.391059 0.13591939 -0.053615488 0.4086604 -0.024928259 0.29421455 -0.12441445 -0.58136773 -0.15813148 0.17830278 0.21649155 -0.028665444 -0.3982791 -0.39224866 0.03675816 0.67815906 0.41895407 0.26242942 0.19408809 
loved -0.21015595 0.04800739 0.40933606 0.3420469 0.24006157 0.8859033 0.08266813 0.15907203 0.23478317 -0.27959776 -0.14087206 -0.35540953 0.22687481 -0.3272326 -0.068634085 0.20540638 0.014466587 0.5416429 -0.85449153 -1.046938 0.034431845 0.25984558 0.01826633 0.23891981 0.3867841 0.23370613 0.20590426 0.7447243 0.36743557 0.19443585 0.44311857 0.6461438 0.24030702 -0.37674254 -0.39679742 -0.077611215 0.40186217 1.2941313 0.01402649 -0.15928258 0.37813085 -0.40272623 0.42943814 -0.23977596 -0.20217013 0.38512418 -0.26080418 -0.50770307 0.2706979 0.49346474 -0.16491269 0.45549265 0.59911186 0.18892114 0.04203482 0.049577247 0.38801402 -0.58097976 -0.4540636 0.5535585 0.12517221 0.24693413 0.5683953 -0.7133765 0.29033366 -0.20570579 -0.092951976 -0.2958634 0.19259225 0.18080129 0.21281879 -0.07359957 -0.02858429 0.17836834 0.37541294 0.35807103 0.4193097 0.09575051 -0.8818221 0.03137939 -0.48313063 -0.09254985 -0.039462812 -0.1938511 -0.03550136 -0.30522844 -0.103239805 0.13212326 -0.20624219 0.032479618 0.032015838 -0.49949586 -0.119122624 -0.60639143 0.08856411 -0.25670317 -0.12801169 0.3441104 -0.2307124 0.06368666 
this 0.005892945 -0.1323887 -0.019824225 0.35645834 -0.19658892 -0.17137451 -0.28905994 -0.02601916 0.18309455 -0.08238267 0.33311352 0.06979174 1.1295961 0.21886148 0.07027956 0.11064483 0.018534008 0.46942273 -0.29517978 -0.115934536 -0.09821677 -0.10310946 -0.4889933 -0.36925918 0.021081233 0.09070708 -0.010093839 -0.43402416 0.15304571 0.053869337 -0.09703284 -0.18370901 0.335839 -0.012858712 -0.27550954 -0.09669785 -0.276787 -0.06570907 0.015786905 -0.468695 0.01735223 0.07047335 0.4100933 0.029339798 -0.08700937 -0.10770858 0.007653563 0.14979753 0.10208517 -0.5595096 0.22588755 0.14413717 0.09101868 -0.10106691 -0.107902 0.1487481 -0.12249592 0.22327633 -0.09337804 -0.24220528 -0.4125735 0.05745461 -0.0947653 -0.6588105 -0.37532386 0.18056795 -0.122872144 0.05431747 -0.046736065 0.030137533 0.049259562 0.39225265 -0.45809728 0.08408205 0.019447958 -0.13301674 -0.0857094 -0.025689173 -0.22453435 -0.27618468 0.060495697 0.013609237 -0.044314023 0.63793665 -0.30760518 -0.047684204 -0.12518355 -0.08830083 0.4205944 0.3702149 0.091091625 0.07814639 -0.0943963 0.014589251 -0.042385012 -0.10958245 0.18371972 0.051760845 -0.075852655 -0.2699437 
place 0.339887 0.058745347 -0.19550732 -0.4860428 -0.19906914 -0.2258836 0.18622904 -0.02137163 -0.27544567 0.36845917 -0.33134437 0.06977216 -0.13178596 0.1366852 0.1790053 -0.06700238 0.2412347 -0.18085833 -0.42746758 -0.23496433 0.17970966 0.015210659 0.060143374 -0.15759851 0.409467 0.04851254 -0.3247936 -0.13804333 0.19897866 -0.07626109 0.12962624 -0.0047744606 0.36139938 0.36346823 -0.23774968 0.23777427 -0.0071822437 -0.013951799 0.13995634 -0.333853 0.024149273 -0.06893351 -0.27906638 0.023837522 -0.061355114 0.033790607 -0.73385096 -0.19424744 0.009745545 -0.055020146 -0.13209577 0.25971183 0.44977453 -0.38626817 0.3225605 -0.06290681 -0.018701134 -0.27648112 0.08120969 0.11685115 0.008172057 -0.09697837 0.00438559 0.34381714 -0.64328146 -0.53714836 0.1073705 -0.11033334 0.10078405 -0.4519442 0.07017873 0.01387776 0.13996421 0.03915487 -0.19964887 -0.03866967 -0.030875867 -0.45022342 -0.0063696965 -0.18399952 -0.028690968 -0.04766309 0.23585634 -0.19010885 -0.20712128 -0.5476911 -0.10671524 -0.78326935 -0.37327206 -0.2749033 -0.011037658 -0.01407824 0.25020474 -0.1922109 -0.41064805 0.64186984 0.104190975 0.1148385 -0.024194116 0.054384246 
crust 0.32957935 -0.2246418 0.5276341 0.40803558 -0.15576439 -0.01774541 0.17620018 -0.8903322 0.6137253 -0.52470416 0.43257558 -0.08136416 -0.10015296 0.19761498 0.48401958 0.67372763 -0.08405726 0.38615224 0.19120817 -0.3816814 0.8181166 0.3651661 -0.430252 -0.2284483 0.2460267 -0.30384693 0.13001283 0.3100399 1.0377334 0.22293027 -0.1413288 -0.7228664 0.430384 -0.15253456 -0.05803474 0.4887943 0.028210415 -0.08336672 -0.41284597 -0.4559423 0.20559546 0.4501933 -0.3894512 0.261691 -0.5626203 -0.27326876 -0.36427504 -0.19097888 -0.19503649 0.5413824 0.66582865 0.6261063 0.0153198065 0.2059181 0.1430579 -0.113984466 -0.20291157 -0.030804992 0.051404383 0.40515044 0.0059470194 0.015222969 -0.38347355 0.36136302 0.2957383 0.13637322 0.92557114 -1.0049047 0.45584738 0.11319059 0.17136097 -1.1277806 0.32970047 -0.081801504 -0.07578194 -0.68342286 0.2687326 0.32880375 0.23491949 0.36652374 -0.19596541 -0.35377792 -0.2759643 0.05855038 -0.029644469 -0.5900873 0.077750444 -0.24237327 -0.19729501 -0.47308302 -0.14241204 -0.041273743 -0.3065859 -0.4575254 0.2720726 0.22624272 -0.118556544 0.28384653 -0.51949865 -0.4191992 
is -0.4338572 0.0713658 -0.16959205 0.1735517 0.58413494 0.0032075124 -0.08542269 -0.08431809 0.080822535 -0.15659069 0.14404812 -0.9548454 0.11343394 0.022425476 0.13912293 0.09013873 -0.05198096 0.20322481 -0.13089903 -0.09580341 0.058593564 0.20105465 -0.16527739 0.20461737 -0.20366466 0.011544147 -0.1910062 0.40906128 0.08875347 -0.07855599 -0.18674813 0.20424056 0.112691075 -0.0064695613 -0.9219173 0.018874502 0.20263812 0.011350354 0.1152895 0.08037071 0.06707677 -0.3377557 -0.039089113 -0.7730256 -0.05045201 -0.006457345 -0.30592772 0.18040031 -0.00052644376 0.2783873 0.11409512 0.06247424 0.11807913 0.12986803 0.0093496805 -0.22317809 -0.056210894 0.16952515 0.21605396 0.10936142 -0.10119103 -0.642756 0.011847924 0.0028143185 0.034814186 -0.21658427 0.0015380863 -0.0928654 -0.04292358 0.028822523 0.051289212 0.0026136213 -0.5198557 0.22857645 0.18651515 -0.07871311 0.016923767 0.11705545 -0.018006653 0.028534682 0.21843646 -0.2961132 0.14117575 0.17048316 -0.021661853 -0.110723995 0.022165937 -0.05458722 -0.14867735 -0.3190915 -0.015623044 -0.08628948 0.17206283 0.00058431097 -0.27076346 -0.10602419 0.112708166 0.07617739 0.03805529 -0.30387852 
not -0.04152971 0.27303347 -0.103269905 -0.027350722 0.29108185 0.20113598 -0.07138569 0.14937884 0.26980752 -0.7113722 0.028209655 0.04427558 0.027838303 0.21816164 0.53544116 0.07513884 0.0666932 0.2015934 -0.2953589 -0.14444277 0.07099718 0.031744663 0.58922696 -0.38716146 -0.029291661 -0.1037887 -0.32894537 0.13703199 0.063094705 0.20016247 0.20800343 -0.25555485 0.44030374 -0.42540714 0.054348208 0.0005889352 0.490139 0.075027555 -0.14014995 -0.11861454 -0.0234418 -0.07036992 -0.106534846 0.15496586 -0.30300254 -0.095906205 -0.04936395 -0.37223 -0.1364957 0.17955296 -0.0128910085 0.13345969 0.103258125 0.3774533 0.068890914 0.29499534 0.5199512 -0.41183558 -0.48562843 0.065721214 -0.07904428 0.10046664 -0.45520014 0.19238569 -0.03933318 -0.024834339 0.09520731 -0.15358987 -0.17646568 0.18531565 -0.34188604 0.012775189 -0.029605448 0.115096554 0.15584335 -0.29451764 0.15518601 0.22368655 -0.09006464 -0.28930363 0.16006568 -0.13718894 0.5506928 -0.085754946 -0.35302228 -0.46772543 -0.121693105 -0.008579346 0.076899014 0.3481018 -0.33774674 0.2950555 0.11298912 -0.23971018 0.07964693 -0.021130322 0.14750497 0.29336467 0.15217309 -0.028076224 
good -0.37516972 -0.15884711 -0.28998026 0.0680111 -0.22273469 -0.13905875 0.15833536 0.19419707 0.05582998 0.118313074 0.092359886 -0.27686158 -0.0426672 -0.17332047 0.10049141 -0.10877078 -0.08478129 0.25133267 -0.22821155 -0.30458602 0.07941423 -0.066590235 -0.063874505 -0.05536064 0.27619684 -0.31876945 -0.11554975 -0.17650498 0.20665064 -0.14346646 0.15442389 -0.22726123 0.047389563 0.010020932 0.20051897 -0.15710111 0.15035564 0.016961055 0.10964151 0.16810808 -0.020444976 -0.1184379 0.3201947 0.040028684 0.031604987 -0.16754498 -0.037475713 0.1402421 0.047971204 0.056655116 -0.09429024 0.049240883 0.33903715 0.33124435 0.19844528 0.020262329 -0.2402787 0.06239025 0.26658395 0.05624298 -0.30386427 0.13320965 -0.2540728 0.3260764 0.024275685 -0.14058542 0.06488788 -0.12420104 -0.07806645 0.02142438 0.13239223 -0.009022792 -0.14560191 0.011913541 0.21881486 0.1032996 0.27142698 0.0058792667 -0.27992558 -0.30775025 -0.13656086 -0.14597787 -0.05092419 0.13542601 -0.18802007 0.21484149 0.10160428 0.09748648 -0.12794547 -0.053945806 0.054990623 -0.0644278 -0.2911508 0.05281082 -0.12810968 -0.13594568 0.1039967 -0.13788582 0.28218386 0.01996405 
tasty 0.55073994 -0.5698058 -0.3795436 0.12632129 -0.57186425 -0.028639022 0.100254305 0.035866357 0.3045836 -0.45966318 0.06799628 0.88873744 -0.6258777 0.3974972 0.13612725 0.14610457 0.21734042 0.42489862 -0.11944133 0.15913485 0.12805136 0.27542096 -0.20651676 -0.28557158 -0.12379409 0.6926191 0.085906826 -0.08499895 0.36501506 -0.47607207 0.3508813 0.26987922 0.09466265 0.75443393 -0.17050119 0.4160868 -0.56209046 -0.30577347 0.40712672 -0.37081382 -0.31015378 0.063093536 -0.30833125 -0.08028863 0.19413106 -0.2342133 -0.7148162 0.047158435 0.2522803 0.11957628 0.16282468 0.21608967 0.092263915 -0.092804864 -0.18415593 0.13865906 -0.16187146 0.44500607 0.73827106 0.09138473 -0.100257896 -0.3028739 -0.107701175 -0.0837535 -0.2639011 -0.31393564 0.25232738 -0.41596144 -0.07303483 0.35471272 0.2756527 -0.0932639 0.085456 0.7349921 -0.4809591 -0.07105487 0.27972198 -0.19510426 -0.33355886 -0.17879461 0.09602334 -0.21705689 0.117287226 -0.030955523 -0.19811347 -0.24869771 0.24494624 -0.15760992 -0.49535742 0.26813966 0.029234324 0.1955329 0.14782707 -0.31608745 0.082417496 -0.17777961 -0.019367961 -0.18936041 -0.41700095 -0.38277915 
and 0.106665395 -0.109785594 0.060407247 0.31021678 0.07764522 -0.0025567175 0.0896871 -0.105711974 0.010214982 0.12363111 0.12236583 0.04025286 0.18523057 0.04031215 0.26006484 0.12272493 0.0143882865 0.070010096 -0.07987147 -0.14395697 0.066423304 0.055224597 -0.10904552 -0.116572686 0.00898124 -0.29099464 0.091327235 0.08511809 0.23661992 0.20619103 0.19552606 -0.053837944 0.23183331 -0.028854152 -0.055726577 -0.012042396 -0.042981822 0.24060228 0.004678086 -0.06085216 -0.004535517 -0.02831134 -0.15835324 0.19805582 0.022627627 -0.012719199 -0.19607471 0.06841896 -0.004211352 0.19528745 0.036537506 0.2026367 0.22752157 0.22366461 -0.013601048 -0.044976205 -0.08286005 0.042076457 0.16812398 0.0580363 -0.08945732 0.050635055 -0.20159589 0.035881862 -0.060677677 0.009065788 0.08040146 -0.28808868 0.0572905 -0.01760882 0.045850974 0.21566385 0.023647202 -0.056667384 -0.004123844 -0.020546144 -0.17405805 0.054066118 -0.038069542 -0.06267498 -0.10234899 0.018510949 -0.22450623 0.024782585 -0.26176122 -0.27817997 -0.046021838 -0.11689605 -0.1821798 -0.14790978 0.20639287 0.055563476 0.15438293 0.067059584 0.008050195 0.015664797 0.007168972 0.11128378 -0.19263218 0.13217868 
the -0.04443405 -0.016529515 0.008683025 0.05091596 0.14520971 0.018020308 0.038969643 0.28783804 -0.010548023 0.011239664 -0.0035826224 0.0615254 0.017456392 -0.011701502 0.1622232 -0.022531463 0.001342078 0.10411174 0.017589582 -0.04611173 -0.03237618 0.24938054 -0.34163672 -0.14390871 0.009051364 -0.124222696 0.0038002788 0.08401745 0.27345163 -0.11590283 0.21590193 -0.31061113 0.21872571 -0.09379889 -0.06477093 0.089287974 0.059109118 0.075635955 -0.102231055 -0.054327197 0.039787326 0.24503055 -0.04748358 0.060938265 0.0053209523 -0.13754645 -0.118769914 0.08391084 0.08464469 -0.047442332 0.07291484 0.06835783 0.13269162 0.07089867 -0.0106731355 -0.09539179 -0.032101132 0.13449861 0.18775079 0.23785056 -0.12353316 0.07455341 0.112496056 -0.07002484 -0.13563418 -0.073457986 -0.074576296 -0.0829077 0.021023398 0.02325503 0.0060052616 -0.00070836773 -0.0039425753 0.025194364 0.11654583 0.055596504 0.04035271 0.19990589 -0.104411714 -0.0432274 -0.012156632 -0.06611377 -0.099993035 0.1707357 -0.0027654415 -0.07130231 -0.08156149 -0.051783763 -0.16498074 0.03720504 0.051202305 0.021323817 0.030628894 -0.107048154 -0.05320606 0.108174436 0.42101726 0.14556883 0.16562009 0.0456742 
texture -0.9824944 0.09379526 -0.8102831 -0.38279966 0.032102816 0.24820045 0.001682834 0.36980638 0.7200279 0.29548907 0.1466995 -0.186899 -0.34467617 -0.25798187 0.51302296 -0.275908 0.58004427 0.29109272 0.27482495 -0.45274478 0.28334594 -0.38705727 -0.8001738 -0.23258865 0.18546781 -0.47501454 -0.5006294 -0.18813609 0.040885124 -0.12734574 0.06424719 -0.19041994 0.1334573 -0.17080848 -0.45474115 0.3359456 0.44210058 0.27211943 -0.641039 -0.32777435 0.093442954 0.4476169 -0.40095225 -0.10304312 -0.3099632 0.7281287 0.4338573 0.598545 0.1892158 -0.32716778 0.52373135 0.28943238 1.095847 0.2833637 0.04852983 -0.38358384 -0.22995347 0.4000646 0.08686378 0.7448393 -0.61576635 -0.13070442 -0.33277288 0.00060371816 0.16972987 1.0792371 0.5536149 0.1324188 -0.29872903 -0.14529672 0.6028089 -0.5321851 0.53579086 0.009924099 -0.08674681 -0.1733446 0.49191374 0.18445979 0.5516709 -0.36604688 0.16717386 -0.78171307 -0.36090702 0.17000206 -0.2669195 0.102688685 0.42820066 0.37753844 -0.41424313 0.06041903 0.112452775 0.27861565 0.24315321 -0.10083825 -0.59789854 -0.01621066 -0.3497461 0.41712824 0.16601232 0.031135729 
was -0.064764224 -0.25115177 0.00029108836 0.116342805 0.07869806 0.057742085 0.2199027 -0.0033751791 0.0019799669 0.05902449 -0.011407861 0.015878629 -0.07343404 0.26481506 0.11161748 0.014681241 0.07581735 0.042104665 -0.09524237 0.0017128057 -0.16815358 0.11417319 -0.23598029 -0.1719263 0.10680045 0.0052118977 -0.21781959 -0.09343832 0.29836613 -0.020326229 -0.041442752 -0.11951391 -0.018574208 -0.024444511 -0.28627086 0.19146778 0.27222112 0.038555402 -0.20250893 -0.19249447 -0.104494944 -0.21605928 0.17987636 -0.19363347 -0.3568783 0.041833803 -0.16579306 0.28130266 -0.12399612 0.106963895 0.27911213 0.23153675 0.09478368 -0.062110685 0.15395144 -0.16774905 -0.10328321 0.1294937 0.06523202 0.0024106246 -0.20033503 -0.13804828 0.0065054907 0.1556157 0.16107881 -0.0236154 0.07237723 -0.24927387 -0.073166594 0.13277647 0.053273574 -0.017841911 -0.18949117 -0.0066258195 -0.107660726 -0.18895999 0.02990896 0.1602871 0.029880665 -0.09141358 -0.17897609 -0.11848667 0.04888215 0.14803772 -0.089694016 -0.109815955 0.11616112 -0.10197571 -0.11717316 0.009001843 -0.058054347 -0.17851736 -0.13459897 -0.36683968 0.012994934 -0.15617618 -0.012026127 0.35498518 -0.087103724 0.104134224 
just 0.5507109 -0.055852916 0.52232635 0.35953215 -0.33489442 -0.3584817 0.25716186 -0.27164617 0.17991751 0.09592797 -0.36421904 -0.012054244 -0.088552855 0.40585423 -0.05794125 0.24547777 0.00493148 0.01332433 0.14535262 0.30612874 0.12452554 0.33094367 0.036522377 0.17722 0.07262533 0.3262286 -0.4982546 0.2729853 0.069291286 0.6385408 0.24966903 0.09556745 0.13554612 -0.009772646 0.12030429 0.12971896 0.046892777 -0.08379022 -0.22811267 0.2690408 -0.23741548 0.03747068 -0.2083285 0.20826653 0.17287838 -0.15557696 0.27541366 0.08136528 -0.028520614 0.027123684 -0.43969914 0.52091223 0.41362387 -0.18366118 0.041845888 0.06824264 0.53741676 0.29716292 0.051659036 0.35155454 0.018455261 0.28767532 -0.21358663 0.25959775 0.30362505 0.29417548 0.03356045 -0.08504406 0.6384446 -0.08577067 0.6287735 0.49160787 -0.18784142 0.37786287 0.20047545 0.01140338 0.702215 -0.22611222 -0.22375397 0.1149304 0.44683 -0.22040501 -0.33480754 0.35192856 -0.27403024 0.030065194 0.5026993 -0.19990626 0.37877554 -0.13919108 0.39236063 -0.20990172 0.73663545 -0.18472968 0.041110482 -0.14625204 0.8155236 -0.48591986 -0.023250163 -0.096521966 
nasty 0.18049899 0.3438445 0.13967653 0.13152209 0.3291793 0.3683796 -0.1992747 0.2514037 -0.13631415 -0.21071006 0.5316272 -0.051326286 0.28654498 0.78843516 -0.03453556 0.34461564 0.149879 0.13037187 0.09740039 0.24484599 0.020125346 0.57322174 -0.13404597 -0.71319985 -0.59757096 -0.13690482 0.0822124 -0.11425907 0.8059621 -0.20611188 0.8544581 -0.5375313 0.18018706 0.11565396 -0.15494777 0.2339149 0.17746843 -0.091332115 -0.38265455 -0.6806465 0.5679347 0.38657138 0.24689524 0.87994236 -0.17240204 -0.033016223 -0.17969672 0.1697907 0.3463147 0.17005047 -0.02707163 -0.097296916 0.106325395 0.43756637 0.07929952 0.04271759 0.13769609 -0.48075747 -0.12864773 0.078503504 -0.4020464 0.47408625 -0.015198284 -0.24289803 -0.021211613 -0.33856523 -0.302394 -0.031211104 0.66009635 0.4145511 -0.08535657 -0.029254 -0.43908492 -0.40465865 -0.17225462 -0.19921327 -0.039982464 0.19122407 -0.18926361 0.0039740913 -0.27702135 -0.44422764 -0.35907397 -0.36371487 -0.5441391 -0.4314609 -0.054022007 -0.45122552 -0.83205086 0.23450337 0.2537842 0.14422117 -0.09063058 -0.021012392 0.09450321 0.073702484 0.54771227 0.311607 0.15371823 0.18670616 
stopped 1.0062537 0.15817948 -0.5153094 0.0785691 0.10572501 -0.120755635 -0.40510914 0.17213209 0.54075724 -0.09299996 -0.31736666 -0.2600287 0.06988448 0.22068295 0.26330906 0.86202943 -0.36644575 0.11789809 -0.30868906 -0.77365273 0.34019506 -0.05616566 -0.12893742 -0.2756787 -0.16586415 -0.85592985 -0.23896828 0.06317065 0.6736081 0.046357784 0.26669627 -0.9443529 0.31338072 -0.4078616 0.40755823 0.19973922 0.18206872 0.399288 0.13373028 0.09171648 0.41269475 -0.34367377 0.06926534 0.00340073 0.5332049 -0.1477692 -0.03511749 0.50512356 0.67356265 0.09933988 0.066644974 -0.22720984 0.4705145 0.4043316 -0.15273072 0.30274153 -0.41244328 -0.34889466 -0.23909086 0.012871606 -0.5160997 0.6880826 -0.8345059 0.06929164 -0.1406879 0.044578735 0.3458869 -0.3882717 0.28522155 1.2378399 0.7391791 -0.1753018 0.0144372005 0.49979043 0.32496572 -0.4156961 0.5641029 -0.041749936 -0.17824244 -0.2159799 0.36112958 -0.32630408 -0.1799028 0.23308791 -0.40061206 0.09814682 -0.027403034 0.07849286 -0.20359342 0.47074234 -0.8994877 0.5186381 -0.16856214 -0.021364624 -0.2987492 -0.23871866 -0.0054699527 -0.41560006 -0.02994912 -0.24348332 
by -0.5962661 0.25415674 -0.3548786 0.3814215 0.056554753 0.40437534 0.2411633 -0.24072096 -0.05787876 0.41545933 0.41872522 0.011129233 0.018449575 0.5915939 0.50944304 0.09221097 -0.48130634 0.033650935 0.14825697 -0.12720497 0.25012025 -0.051996175 -0.37324718 -0.36117655 -0.044562094 -0.07207717 -0.6195954 -0.2749175 0.119743094 0.022627667 -0.5141705 -0.10563121 0.23508595 0.2712617 -0.39837793 -0.024320185 0.83793104 -0.3587497 0.10729032 0.024839815 0.36649075 -0.0033436504 0.11144963 0.7639457 -0.36746168 -0.42285636 -0.32595536 -0.019373799 -0.037217382 0.6214195 -0.060249288 0.035646208 0.2564367 0.012201488 0.06205131 -0.048892565 0.26444337 -0.078558125 -0.14336468 0.16486123 -0.24012521 -0.28572768 0.53136766 -0.15796232 0.55233413 -0.2996213 -0.28403816 -0.08361566 0.1697386 0.013594265 0.40951583 -0.6971258 -0.20078732 -0.027827524 0.16481572 -0.1932928 0.25827307 0.5605963 -0.12362514 -0.3131636 0.0020235118 -0.22406025 -0.75873494 -0.37099174 -0.13458036 0.0024088586 0.07081912 0.7475749 -0.14143318 -0.1810125 -0.12254778 -0.18590172 0.6259036 -0.30725393 -0.048441563 -0.48810726 -0.24213138 0.38418615 0.021912351 0.00019501874 
during -0.52083933 0.20586866 -0.10779401 -0.32043627 -0.41102016 0.19912122 0.2760249 0.19248366 0.4828089 -0.32743984 -0.122950934 0.12529019 -0.22545646 0.22032453 -0.23562588 -0.1552108 0.6546707 0.17448123 -0.16946784 -0.031775273 0.30657986 0.055558216 -0.2275112 0.10196319 0.24661174 1.1594982 0.61265695 -0.08772151 0.23526879 0.17617391 0.7218777 -0.4329971 0.5736233 0.017374841 -0.58113927 -0.4256873 0.46142358 -0.8162832 -0.09809483 -0.060731426 -0.30050048 -0.15715757 0.13602816 -0.51726097 -0.3058407 0.37697655 -0.62323946 0.19712757 -0.23558483 -0.2045029 -0.07567658 0.2466572 0.380712 -0.19708501 0.2387477 0.09183338 -0.17669576 -0.051126305 -0.42867786 -0.3997096 -0.4685731 -0.06883644 -0.429014 0.67516965 0.047548607 -0.3491857 0.3875895 -0.2043988 0.32905555 0.62515235 -0.13293463 0.286001 -0.79329693 0.15478364 -0.30763844 -1.0176358 -0.5991665 -0.3291114 -0.5467399 0.0024093736 -0.98737454 -0.109204546 0.49908617 -0.18185022 -0.6377563 -0.86842316 0.13644017 0.19321756 -0.72620904 -0.2828684 -0.025644297 -0.041188106 0.2529101 -0.6558243 -0.08612102 0.34703356 -0.3726866 0.34975544 0.56551117 -0.316633 
late 0.3093889 0.6437741 -0.25242117 0.2503699 0.4793806 -0.34153506 0.120565094 0.21518427 0.21096782 0.21230727 -0.57433933 -0.1911853 0.36694285 0.34016824 0.0866104 0.012531568 -0.5289694 0.40949732 -0.3295171 0.13594161 0.49684733 0.4502491 -0.37264347 -0.49257186 0.083796605 -0.32505408 -0.044179413 0.35403198 0.3537134 0.33009884 0.3496196 -0.21577053 0.5184345 -0.16201305 0.35151556 -0.07724119 -0.13779292 1.1514354 -0.07056412 -0.13435136 -0.052572824 0.30616355 0.032359384 0.3619416 -0.10486303 0.065339014 -0.027950069 -0.9281446 0.45383802 0.48345342 0.58877224 0.8221669 0.78269154 0.56999016 0.18984978 -0.1430776 -0.4760985 -0.09045884 0.500662 0.15309276 -0.06472855 0.7219864 -0.11814106 0.35179457 -0.24214984 0.51409614 0.036321264 -0.19665483 -0.2759939 -0.42842367 0.35841542 0.13104309 0.02531361 0.015103033 0.4503917 -0.66342074 0.45039147 -0.098700896 -0.59413964 -0.15910372 0.5093087 0.61399233 -0.33563846 0.3963739 -0.5795041 -0.25550544 -0.16692747 -0.105114534 -0.81058156 -0.31931078 0.9943188 0.17601712 0.28691876 -0.07668301 0.32871 0.26312372 -0.04394513 0.17514603 0.07786686 -0.3832457 
may -0.63066536 -0.61246294 -0.46481347 0.34874132 0.38564283 0.24836965 -0.5454075 -0.37852365 -0.05231864 -0.18144181 -0.39129764 -0.2920249 -0.01331278 0.7578464 0.6945486 0.63941544 -0.57062614 0.2271001 -0.27841207 -0.5245314 0.28502977 0.5507155 -0.31232092 0.82412535 -0.5227789 -0.5639784 0.48491699 -0.024576783 -0.33352348 0.29787803 0.16920356 -0.83991194 0.06829845 0.1754653 -0.6592169 1.1872113 -0.43748915 0.39496896 -0.44985095 0.5927487 1.087371 -0.34388414 -0.15140136 -0.31876263 0.92346245 -0.536603 -0.32064533 1.0868982 0.33922577 0.22644486 -0.67313683 0.57438487 0.20734854 0.43084952 -0.57070863 -0.9414725 0.7360325 -0.12810223 -0.1042633 -0.5267176 -0.41397926 0.2337541 -0.123013794 -0.09951324 -0.19084826 -0.06496432 -0.37691265 -0.45796636 0.19531715 -0.4154453 0.7526747 -0.37988457 -0.23475486 -0.23893824 -0.038232304 0.20240895 -0.36991876 -0.2991752 0.2686957 1.284138 -0.38342276 -0.00080699124 0.028163202 0.31481102 0.27061403 -0.36914033 -0.41688654 -0.74553716 -0.19169335 -0.2743737 -0.37190393 0.09308641 -0.8118887 -0.5411323 -0.010555534 0.26596522 -0.03338682 0.4777699 -0.33708328 0.05530989 
bank -0.02655243 -0.13524355 -0.55075127 0.55565333 0.37108156 1.0637373 0.56002116 0.5746814 0.1794989 -0.010118801 0.14875577 0.57731414 0.41005832 -0.2705074 -0.21311006 0.0884021 0.34728864 0.3326708 -0.18934426 0.1516349 -0.5171103 -0.062263824 -0.18922162 -0.9598917 0.09759067 0.61637306 -0.15351513 -0.20135815 0.638031 -0.41030318 0.82794845 0.16512816 0.32227623 -0.23964854 -0.80980784 0.23381731 1.260216 -1.0323124 -0.6007257 -0.65400696 -0.2251619 0.44068253 0.36843288 0.43580014 -0.24719696 -0.11060778 -0.8266406 0.3481197 0.46703044 0.3730114 0.30665535 -0.027002538 -0.15069568 0.72517914 0.042867392 0.53918695 0.13808048 0.2089155 0.5578437 0.511912 -1.0673158 -0.11514506 0.43192887 0.5808818 0.18563347 0.28033808 -0.15182434 0.014220539 -0.0051785796 0.22299364 0.8921289 0.41636264 -0.6598005 -0.55086064 -0.24277008 0.18833727 0.45505595 0.48264644 0.005002 0.41139886 0.050548118 0.1662575 0.19591242 -0.18670057 0.1765881 0.070107035 0.14807284 -0.0023152821 -0.6483331 0.62674683 -0.5947542 0.014619453 -0.1864106 -0.32001483 -1.2260239 -0.107345335 0.69367296 0.6830308 -0.013598035 0.07153529 
holiday 0.03272811 -0.09116952 0.3736536 0.2151315 -0.0716846 -0.6338152 0.11023219 -0.2876351 0.03416006 0.80961037 0.3011071 0.23425572 -0.14261027 -0.023197973 0.358897 0.7004893 0.6104803 0.41335666 -0.77937114 -0.87466824 0.09030305 0.3572607 -0.45009115 0.12670827 -0.019545594 -0.25257304 -0.15729974 0.35250038 1.0570195 -0.1739759 -0.08420308 -0.69546247 0.71732414 0.47771972 -0.7425396 0.2512111 -0.06975172 0.18851738 -0.03838554 -0.41744933 -0.5317273 -0.015864598 -0.07329338 0.2889404 -0.22109285 -0.018656649 -0.31522015 0.49410835 -0.8052065 -0.453441 -0.45854196 0.07876569 0.3434422 -0.28409997 -0.10462079 -0.3029126 -0.4660202 0.46684977 0.08277159 0.81738514 -0.3883693 -0.25423184 -0.051085092 -0.5420016 -0.10054773 -0.3997571 0.093063325 -0.30380604 1.1037555 0.4931343 -0.16129868 0.4440141 -0.124361604 0.5380994 -0.3159283 0.25245047 -0.33917525 0.17581148 -0.65621233 -1.411375 -0.5293167 -1.160461 -0.67592704 -0.001667678 -0.102808915 -0.36248094 0.41770548 -0.1900729 -0.18745594 0.0064902767 0.5075397 -0.5221477 0.3993942 -0.11358239 0.1496224 -0.33462405 0.6657953 0.05758919 -0.064199984 0.2502038 
off 1.2483844 0.32779106 0.29234383 -0.12027848 -0.07798879 0.15635237 0.7151633 0.2757422 -0.49716592 -0.11528396 0.0144904 -0.15531817 0.55159134 -0.042636193 -0.41871023 -0.058967948 -0.25596067 0.39812866 0.20639934 -0.11614224 0.65319675 -0.04592743 -0.807133 -0.17430991 -0.0092898905 -0.3661297 0.19986689 0.21226972 0.104750104 -0.4557876 0.7776045 -0.3937698 0.19587371 0.4015322 -0.18695067 -0.09375236 0.061620746 0.8151182 -0.701717 -0.16052096 0.03594048 -0.07282514 -0.7161206 0.05205887 -0.6772658 0.114422575 0.052966096 -0.14098024 0.17142361 0.715746 0.12411747 -0.052078363 0.18271291 -0.4831676 0.07668494 -0.056360617 0.23074561 -0.17388672 0.5239374 -0.04230824 -0.09227646 0.39564583 -0.06750439 0.17452197 -0.07477972 0.39086312 -0.039300237 -0.5538472 -0.053824294 0.38117507 -0.40729672 -0.04689241 -0.07741666 0.05641478 -0.133935 0.31687266 0.6605258 0.12205105 -0.3316236 -0.021888623 -0.3985172 -0.013515841 0.1479845 0.66849196 -0.79122084 -0.5971581 -0.17097372 0.6332307 -0.24050473 -1.137042 -0.059181046 -0.1203736 0.21853441 0.068190806 0.6987673 0.44103846 0.19975641 -0.050380908 -0.48068243 0.23213015 
rick -0.30540803 0.2081607 0.14186026 0.1327363 0.16088256 0.99363637 -0.3250288 -0.028161181 0.6450028 -0.76986027 -0.07919128 -0.8786855 -0.18917389 -0.0946162 0.72669417 0.6833956 -0.037997015 0.8048913 1.6794579 -0.63313955 0.60030544 0.3156304 -0.13358712 -0.11899765 0.06786376 -0.69579613 0.13953592 0.6511555 0.37618184 0.83028525 0.20661107 -0.33932942 0.05131714 -0.84205717 -0.30310044 -0.27733976 -0.31935975 0.53198904 1.2902942 0.19587606 0.3077375 0.09949182 -0.0635065 0.016683051 0.6653322 0.22116469 -0.62518173 0.11740924 0.8403839 0.42063692 0.3009839 0.44729987 0.9036831 0.09379975 -0.7042518 0.79373103 -0.025688427 -0.31749848 0.19102666 0.12565106 -0.2751117 -0.31541684 -0.069195636 -0.1984313 0.3271632 0.20159979 0.4400497 -0.4030913 -0.2066129 -0.037481286 -0.22181313 0.22734925 0.8294152 0.08371716 0.44065085 -0.86205864 0.17564303 0.30736732 -0.49079645 -0.2031733 0.8050956 -0.21540087 -0.37009665 0.16641632 -0.34005934 -0.29398176 -0.048046093 -0.31805426 -0.095118724 0.14648691 0.0113053825 0.7504546 0.145184 -0.5437969 -0.4002146 -0.58503544 -0.026987236 0.17429017 0.1301189 -0.21157645 
steve -0.20948814 0.20639339 -0.92161226 0.505894 0.0010455824 0.8198349 0.24865393 0.66857153 0.4121036 -0.6419801 0.62274367 0.23794766 -0.27581212 0.73177344 0.070099436 -0.2284707 -1.4306992 0.34197804 -0.87782305 1.4426805 -0.4757758 0.31926793 -0.80772185 -0.6054093 0.08728273 -0.30431294 0.018008277 -0.9604003 0.51033247 -0.6424574 0.67071587 0.12348872 0.5527229 -0.35464242 -0.33683017 0.90305984 0.5445135 -1.0612702 -0.5708871 -0.74393374 0.42041555 0.70111823 0.45169175 -0.36649367 -0.50271726 -0.4330204 -0.74597996 0.47551793 0.29453665 -0.2662651 -0.020613238 0.77601457 1.151618 0.2607138 0.833788 -0.40961838 0.22231387 0.63504505 -0.47210383 -0.15758255 -0.58781475 0.020185623 -0.38694355 0.8090725 -0.6473464 -0.015463215 0.3757113 0.33101556 -0.7363924 -0.07789929 0.8313007 -0.107402444 -0.32249704 -0.40764457 0.3412473 -0.6931815 0.30491978 0.085411265 -0.062001657 -0.37774402 -0.077268064 -0.08836972 0.15708803 0.21263543 0.24134786 -0.6693313 -0.070771754 -0.9352741 -0.59207195 0.24586505 0.13877247 -0.599017 0.034530036 -0.4389501 -0.4326371 -0.091035105 0.4134047 0.8802266 0.336493 -0.9669199 
recommendation -0.110264726 -0.27433562 -0.43069416 0.2597234 -0.17350584 -0.588834 -0.09281662 0.047233254 0.49567237 0.63257444 0.2491814 -0.06491536 0.72273415 0.1941723 0.45365173 -0.14948471 0.5729763 -0.06122962 -0.281339 -0.6626909 0.62813854 0.21192087 -0.077186026 -0.16298912 0.25054127 0.08701697 -0.17732313 0.066312544 0.2565914 -0.4504484 0.04607515 -0.7176891 0.26218396 0.3386266 -0.047682565 -0.080215804 -0.017011883 -0.63637847 -0.031177107 0.11590064 0.03256872 -0.061029803 0.014859886 -0.07309546 0.25931022 -0.04882226 -0.28166497 -0.09961403 0.25958022 0.03545074 0.4789625 -0.10608253 0.043470174 0.14387415 -0.46125725 -0.16610347 -0.70605946 0.010061169 0.18095137 -0.11064645 -0.78438926 0.043915126 -0.18725117 -0.020058738 0.08530649 -0.17793962 -0.20321059 -0.3803111 0.49896976 0.07497235 0.4270205 0.07458757 -0.9622796 -0.11793579 -0.014962343 0.009072809 0.38623378 0.5657927 0.104225606 0.0488772 -0.035168663 -0.18124482 -0.09357709 0.08964017 -0.5054883 0.052998636 0.31048384 0.07942819 -0.35653022 -0.18981723 -0.038619176 0.32065427 -0.33165732 0.054146957 -0.87583596 -0.053971283 0.122771956 0.011234594 -0.39169568 0.21151994 
it -0.08821777 0.007285921 -0.21379995 -0.16858435 0.17419134 -0.06126846 -0.34297544 0.06406663 0.0687808 0.048090898 0.003278811 0.21238546 -0.07291266 0.04015925 0.13114616 -0.056771204 0.14469041 -0.13906646 -0.056974843 -0.025369575 0.17514466 0.051020354 -0.35263884 -0.20467195 0.26604834 -0.17557716 -0.45126277 -0.14233477 0.061649226 -0.24435282 0.055577382 -0.25615442 0.47953463 0.10594556 -0.08588008 0.06091822 0.05469232 0.15672885 0.29931688 -0.19708475 0.031725 0.36584008 -0.07279369 0.32936463 0.10830452 0.14020756 -0.07257098 -0.01531623 0.08352925 0.03732697 0.13273294 0.026988177 0.23805003 0.1738769 -0.38926622 -0.28606656 -0.14790207 0.24791045 0.12100188 -0.0635701 0.13533224 -0.07880817 0.04511935 -0.16523513 0.042868692 0.07113221 0.1559281 0.09580939 -0.14978127 0.20934926 0.24319199 -0.22710986 -0.023302307 -0.21629348 -0.04019504 -0.38292068 0.04355203 0.1466087 -0.0630397 -0.20864762 0.27106512 -0.11256753 -0.041988615 0.08140331 -0.007197116 -0.15602547 0.09618897 -0.23658964 0.14931263 -0.024316326 0.30061758 0.26594386 0.2137407 0.053206127 0.062389117 -0.22057036 0.077714205 0.010542054 0.17243178 -0.1012718 
selection 0.47494146 -0.02934091 -0.3265137 -0.20554876 -0.5010173 -0.00829842 -0.081791475 -0.11385664 0.25793147 -0.37860024 0.192016 0.10911926 0.59505606 0.09603633 0.52328676 0.2922499 0.84593207 0.2150858 0.25188997 -0.31177235 0.6879776 0.47805136 0.24934684 0.0027899542 -0.5601098 -0.15954575 -0.1476366 0.7498117 -0.38549176 0.3969506 0.40838557 0.13522893 0.352186 0.3164474 -0.69593465 0.7362667 0.41589367 -0.061165333 -0.042002287 -0.4337859 0.7312533 0.33773145 -0.5829074 -0.46460637 0.13709036 0.27614444 -0.61871934 -0.3508047 0.13452223 0.5449706 0.14289543 0.28970835 0.1653863 -0.3416758 -0.33378494 0.09193087 -0.15096247 -0.544179 0.2903259 -0.10538322 -0.057454087 -0.00856162 -0.59707093 0.108299464 -0.63157487 -0.22801611 0.63901186 -0.2204967 -0.11551835 0.29916045 0.40904656 -0.034000818 -0.17168123 -0.2761314 0.2804868 0.05879056 0.09403473 -0.05643627 0.15436804 0.26031044 0.09313399 -0.05458345 0.2544831 0.35921407 -0.64242727 0.032867286 -0.17367463 0.105859116 0.14990006 0.2495724 -0.17560965 0.19209786 -0.40365827 0.10629032 -0.047172163 0.11258926 -0.068780996 0.2706408 0.05478417 -0.27642378 
on -0.53050053 0.27469194 0.044588037 0.58244795 -0.28740177 -0.116668634 -0.5217021 0.10016048 -0.047355168 -0.6412684 0.028003972 0.50020725 -0.54043466 0.047106694 0.28118533 0.013021242 0.17201863 0.28699306 -0.5057348 0.24785487 0.06836953 0.27161127 0.4003035 -0.33344734 -0.3999424 0.24720271 0.064236864 0.06002869 0.7014822 0.15685533 0.3679146 0.39892 0.25107896 0.44453895 0.011245462 0.09942229 -0.032428857 -0.03262435 0.14891459 -0.073405996 -0.17786671 -0.2511776 -0.20917164 0.13107017 0.017570477 0.09638843 0.4376105 0.25656906 0.07455298 0.15396084 -0.013926696 0.065201536 0.28215873 0.23439182 0.052834526 -0.120515406 0.2916009 -0.19144899 -0.03713945 -0.08222389 -0.8482436 -0.43915874 -0.16472593 -0.37092817 0.084035605 0.014019618 0.52393425 0.05366387 0.42581615 0.058353126 -0.28916377 -0.28140622 -0.25542676 -0.057230905 -0.1789446 -0.03087771 -0.053717658 -0.23707072 -0.21273068 -0.13655086 -0.410919 -1.005387 -0.18048863 0.03987403 0.23322865 -0.20104629 0.16581447 -0.28526506 -0.26600873 -0.3485346 -0.42140293 0.021803647 0.79129076 -0.5730999 0.259916 0.09298836 -0.07348492 -0.14937018 -0.027871119 -0.16353856 
menu 0.5469326 0.31510407 -0.57355726 0.7097402 -0.14713587 0.20704453 -0.032101996 0.29245844 0.67694044 0.2151571 -0.7445577 -0.41329345 0.2977383 0.5350104 -0.023397176 0.5727636 -0.3167452 0.008647762 -0.7983996 -0.4775055 -0.20700796 -0.06101605 -0.52097124 -0.15205714 -0.25119638 -1.0776194 -0.26739693 0.38255724 -0.22467837 -0.09309573 -0.2961329 -0.117029294 0.35146645 -0.13920766 -0.36976838 0.229078 0.26417434 -0.18154907 -0.117172875 -0.5558439 0.30358672 0.08265907 0.58013886 0.40812317 -0.26168975 0.39341256 0.39618918 -0.17399237 -0.42819884 -0.056877654 -0.5875215 0.40729994 -0.24223658 -0.20444927 -0.13314857 -0.11080188 0.3060593 0.8773026 0.072121516 0.87132096 -0.9070706 0.2197157 0.0008544314 0.3964938 0.32119092 -0.5868963 -0.35599953 0.10460074 -0.39183122 0.008607909 -0.6208331 -0.064631805 0.18322346 0.6220796 -0.30282378 -0.028983142 0.03327615 0.11364154 0.49080306 0.0917077 -0.09503629 -0.08741348 -0.37697765 0.09794048 -0.8200488 0.004725101 0.56007403 0.1530783 -0.28987396 0.027295707 0.43665692 -0.04176282 0.24764419 -0.68070054 -0.1395009 0.3088305 0.106063105 -0.2975636 -0.639002 0.11037961 
great -0.08531991 -0.110093646 -0.06426927 0.05013565 -0.24160501 0.18121943 0.077078424 0.05429735 0.19019051 -0.23255788 0.23944426 0.13036944 -0.11408891 -0.06940037 0.09555882 -0.006116719 0.043753896 0.37566468 0.09324794 -0.0144476555 0.09607437 0.2305435 -0.1301822 0.0143452035 0.078930624 -0.0329785 -0.0735125 -0.07938869 0.10690671 0.050094012 0.07347848 -0.18198846 0.16980705 -0.1135464 -0.05528039 -0.062345773 -0.047364607 -0.22560254 -0.11824953 -0.28996918 0.118991286 0.14205097 -0.118516505 0.0041779 0.01836214 -0.0033194316 -0.20932911 0.11125466 0.07738023 -0.111199245 0.17351462 0.1576517 0.2289456 0.10089429 -0.038803495 0.11298156 -0.13110532 0.07721966 0.33854032 -0.028860452 -0.119631074 -0.095928095 -0.22069797 0.09695123 -0.0920312 -0.021899583 0.13637692 -0.11192653 0.05260493 0.16237694 -0.00737818 0.1434251 -0.1074149 -0.15047896 0.006720141 -0.17148514 0.24701674 -0.022860855 -0.16240329 -0.014254243 0.027267516 -0.16818096 -0.05901877 -0.001331025 -0.21679951 -0.24588095 0.043961763 -0.18764338 -0.19012694 -0.12965238 -0.039545793 0.06495611 -0.044258628 -0.27765998 -0.1348857 -0.18750095 0.14664547 -0.02999481 0.027769946 0.071541384 
so 0.20519173 0.5191566 -0.25053206 -0.7517804 0.0041432097 0.20376885 0.03183787 0.14046164 -0.21494284 0.13133712 -0.41554102 0.25482535 -0.027949613 0.21435721 -0.09940271 0.44877565 0.35646468 0.110639945 -0.093664564 -0.5024768 0.51752126 -0.11276501 -0.27294567 -0.11950768 -0.39302528 -0.0064124768 0.08141368 0.065679856 -0.016422661 0.2626569 0.31438822 0.028590417 0.22550543 -0.0015438453 -0.06206882 0.114314094 -0.24502 0.06790937 0.05414498 0.7816162 -0.10434239 0.1919909 -0.14524391 -0.15846416 0.002078235 -0.13421337 -0.3119082 -0.26763344 0.48719117 0.39275336 0.1443451 0.085373126 0.041324567 0.17525443 -0.26992133 0.40973914 -0.13803133 0.27368662 -0.0922424 -0.16262163 -0.15219513 -0.36199436 0.25022656 -0.122509256 0.15609828 0.047651913 -0.11836609 -0.15022317 0.3726065 0.08366597 0.5974869 0.26884797 0.026648764 -0.5470021 -0.5367429 -0.06253055 0.48848167 0.4941711 0.04617408 -0.3608533 0.13187112 -0.007971995 -0.041321814 0.23646632 -0.18003477 -0.07759602 0.007466708 -0.320386 -0.07784557 0.347872 -0.34291336 -0.07672939 -0.04241845 -0.17895637 -0.35142556 0.029472576 0.26906073 0.06760956 -0.52308553 0.06287319 
were 0.3381781 0.02306656 -0.35213086 -0.057792775 -0.31010246 0.106889 -0.36595723 0.33894855 0.021433333 -0.15516782 -0.009173045 -0.020722846 -0.22031686 -0.17986144 -0.22434014 0.18703872 -0.26242927 -0.12544249 0.09201347 0.06371045 -0.21719801 0.1601945 0.20674886 -0.15548617 0.5952941 0.11062865 0.027103217 -0.23593533 0.38691452 0.13474552 0.35225156 -0.040479932 0.47081625 0.45340103 -0.6533365 0.15020564 0.00463751 0.13309431 0.040731538 0.05691784 -1.0094686 -0.086321846 0.21522573 -0.21799181 0.5548799 0.23129953 -0.382701 -0.24548392 0.017472556 0.30150113 0.15770262 0.032764338 0.60338247 -0.44674605 0.08645185 -0.7587244 0.13749182 0.009257872 -0.03590057 -0.7211535 -0.108688205 -0.07161086 0.1626027 0.2900997 -0.22278035 -0.64433515 -0.047585905 0.12561737 -0.2627098 0.33013758 0.43712565 0.30644804 -0.117810875 0.38428172 0.62423784 -0.036269516 -0.51061034 0.13537888 -0.13426349 -0.042153943 0.28229666 -0.106788054 0.18103874 0.01095364 0.304784 -0.127843 0.1571537 0.16475634 -0.197634 -0.5042514 -0.2325355 0.1230255 -0.1799018 -0.2042075 0.21862683 0.021215599 0.0133404685 0.19411187 -0.48855913 0.028671658 
prices 0.12311368 0.07448759 0.7110974 -0.14331007 0.73859465 0.46196127 0.46443802 0.22776154 -0.09528564 0.10576392 0.7378821 0.0058222804 0.54819673 -0.024992147 0.08811937 -0.10649164 -0.12682916 0.14712027 0.31314412 0.19173896 0.04792876 0.44538993 -0.28371167 -0.32238075 0.22833571 -0.0043307515 -0.05794264 -0.03702807 0.0056329137 0.10946851 -0.0077854353 0.1867512 0.93925864 -0.08268608 -0.3403271 -0.15143697 0.2739655 -0.49712744 -0.45615122 -1.2425089 0.65022504 -0.23680162 -0.39359295 -0.06636637 0.48840868 -0.10328581 -0.08928124 0.11762298 0.39266187 -0.39917058 0.5434606 -0.10913476 0.6957757 -0.10958486 0.059735287 0.12278059 0.12796798 0.0734265 0.44482842 0.40490362 -0.45598623 0.13947278 -0.47027224 -0.05320259 -0.7387362 0.5793101 -0.0072584567 0.06068993 1.024373 -0.32543248 0.05812218 -0.037091516 -0.8277322 0.0076041124 0.21147439 -0.22716002 0.018861247 -0.76783085 0.17092474 -0.028368758 -0.028210605 -0.6437569 -0.5339222 0.11391996 -0.2278864 -0.51129377 0.3826235 -1.0541337 0.038170632 0.090823434 -0.4759319 -0.049365535 0.0784045 0.066397294 -0.44461703 0.049217857 0.116396464 0.18433417 -0.12598574 0.022622222 
now 0.17307773 -0.18487257 0.44125184 0.6457271 0.117695615 0.37772712 -0.15566008 0.16668375 0.24427338 0.019924805 -0.056797564 -0.70605916 0.16523275 -0.1419364 -0.13430445 0.18520485 0.08621935 0.42523605 0.7300553 0.21052495 0.16914345 -0.50749654 0.46817222 0.5829126 0.3640437 0.09269855 0.65929097 -0.25790247 0.42247045 -0.9575742 0.3811987 -0.7909504 0.49345964 0.20084108 -0.5781156 -0.11973542 0.06533225 0.045048058 -0.04096689 0.08424789 0.15429066 -0.20952542 0.17426856 0.320981 0.02242609 -0.056828003 -0.9399411 0.3965281 0.43142238 0.079570025 -0.9679981 0.484572 0.5486156 0.43223807 0.39667332 -0.08185172 -0.07331975 0.090702705 -0.04186472 -0.01726691 -0.02501909 0.20698261 -0.052095924 0.024117572 -0.2733671 0.16011013 0.0817977 0.021655863 -0.09227941 -0.54668474 0.4478482 -0.30019933 0.68888956 0.5584361 -0.37016425 0.27132156 0.40851852 0.61372495 -0.05159182 0.4942043 0.20773347 0.13628969 0.077421084 0.40742597 -0.020141626 -0.6897517 0.42446932 -0.0040191943 -0.25173584 -0.2601021 0.05381396 0.025939869 0.054966707 -0.06475463 -0.5967526 -0.4504342 0.030798236 -0.25024584 -0.3544498 -0.19190292 
i 0.17787185 -0.02951639 -0.11619508 0.17113115 -0.17303583 -0.029521083 -0.009824312 -0.003188697 0.06514217 -0.10157842 0.0829976 -0.07637781 0.07228373 0.16725226 0.14419761 0.03410909 -0.08890406 -0.15880118 -0.16783682 0.015996406 0.11574778 0.029884338 -0.28013173 0.05491128 -0.111478 -0.21874534 0.07374869 0.1398351 0.097851925 -0.13805649 -0.020097855 -0.24635422 0.090397805 0.10234675 -0.0232655 0.059141185 0.08509966 -0.20279191 -0.08520192 -0.25300312 0.26473287 -0.046742525 -0.019740796 0.05366995 0.2723258 0.0059615467 -0.06731066 0.004049058 0.16110705 0.19054206 0.042411383 0.21770507 0.15504456 0.14605069 -0.047641635 -0.14397188 -0.14130019 -0.11844205 -0.03452574 -0.019722486 -0.363 0.14307843 0.06627292 0.003535382 -0.027498087 -0.25441515 -0.14434446 -0.3098089 0.03354066 0.21486431 0.14674407 -0.17825639 -0.12248162 -0.1442348 0.11514379 -0.16553855 0.011486803 0.22521238 0.025040748 0.029503072 0.0510267 -0.2854828 -0.11219795 0.14224172 -0.14542128 -0.120204546 0.029677538 -0.06371644 -0.12583148 -0.09974733 -0.17408936 0.059506003 0.04406158 -0.27197775 -0.028262414 0.09327954 0.022699548 -0.09471907 -0.1489859 0.016185947 
am -0.29443294 0.28386343 0.44632816 1.0853695 0.00088862906 -0.36442158 0.05297446 -0.11206394 -0.06475994 -0.24508831 0.21413517 1.4436194 -0.47089985 0.13313979 0.37623924 -0.13727872 -0.036181163 0.6569097 0.012610228 -0.7907707 -0.6666711 -0.083182305 -0.42546225 -0.079664744 -0.07619537 -0.058897574 -0.7149186 0.40084794 0.82035214 -0.29461032 0.3733353 0.17053191 0.3536288 0.35705358 -0.32197288 -0.079181485 0.3157199 0.53269607 -0.71532726 -0.181945 0.07074259 0.6998772 0.736157 0.58662254 0.29521003 -0.27748516 -0.33190876 -0.24043895 -0.30940676 0.14005722 0.110460564 -0.004154416 0.10349765 -0.6993516 -0.45140052 -0.35018793 0.16609156 -0.22397383 -0.46795374 0.69346476 -0.12181714 -0.25071248 0.29569644 0.5847268 0.15683667 0.12081152 0.121217065 -0.02243652 -0.2698982 0.38801038 0.3490728 0.51858836 0.27785528 0.62069607 0.18198587 0.047304217 0.08197072 -0.06316486 -0.21902435 0.051467236 -0.47810128 0.05171458 -0.18640928 0.2928857 -0.31732565 0.030080274 -0.21727313 -0.7267665 -0.6873177 -0.30274183 0.15983063 0.17679833 0.47634158 -0.39103386 0.38382506 0.3365894 0.00027966095 1.2909958 -0.11567719 0.24051504 
getting -0.37159252 -0.35763234 0.19470283 0.13878056 -0.05810801 -0.726414 -0.02863519 1.5242124 0.007087663 -0.2600047 0.14508243 0.2875961 0.7049266 -0.6459065 -0.30786797 0.50392103 0.75598425 -0.80080134 -0.43433768 0.008859249 0.24602255 0.82310504 -0.7556095 -0.54800844 -0.3394412 0.36378655 0.1732246 0.117429 0.18196975 0.119715914 0.047955055 -0.7078107 -0.12398876 -0.23562366 -0.3164323 0.6162245 -0.2442574 0.23388498 0.7523774 -0.43374002 -0.046682753 0.32939112 -0.27206945 0.35863048 -0.06895788 -0.45331934 0.09691855 -0.03213385 0.19160835 -0.89842945 0.35284188 -0.31478345 0.32707244 -0.04813557 -0.089050695 0.39703616 0.6659227 0.3839207 0.16973847 0.18399595 -0.41456127 -0.35946962 -0.6362195 0.10726411 0.013966956 0.103483714 0.02017983 -0.4110608 0.20699741 -0.19319823 -0.15723567 0.61080515 -1.1650527 -0.096379235 -0.95935374 0.3348837 0.7444064 0.12843497 -0.6934703 0.424052 0.00048647428 -0.53244734 0.39332983 -0.2010986 0.69153076 -0.06463575 0.57454526 -0.26698962 -0.1944319 -0.860005 0.21674652 -0.4205156 -0.13127029 0.12025115 0.0356114 0.2547949 0.4214975 0.50657535 0.634368 -0.3901668 
angry -0.053659406 0.14910418 -1.1180531 -0.21387468 -0.23916157 0.8505531 -0.5337686 0.1766824 1.0135956 0.06895805 -0.67204875 0.12834798 -0.17115277 0.17460188 0.4541815 0.008108204 0.45307246 -0.081159145 -0.15881953 -0.29369527 0.64195824 0.16563533 0.30283436 -0.3339801 0.23893815 0.2582275 -0.19464463 0.19785981 0.88846177 0.16693461 0.4077909 -0.27044195 0.809799 0.44560996 -0.6938 0.22994912 -0.3601699 -0.18075794 0.11819588 0.4918789 -0.7405296 -0.06755879 0.06607004 -0.19882555 -0.40829057 -0.27365527 -0.21476969 0.8907535 -0.1061664 0.41172475 -0.071482 0.33469084 0.67467296 0.38249862 0.049167927 -0.04791872 0.3143057 -0.22272947 0.3255662 -0.026226807 -0.16497415 0.31298053 0.3781437 -0.20007868 -0.60934377 0.012578489 0.45774972 -0.41297072 0.37645152 -0.33880782 0.28856757 0.039659534 0.009358782 -0.04513238 0.15577267 -0.31279975 0.29982734 0.00066128036 -0.24547338 -0.29809985 -0.39320153 -0.045769032 -0.4303064 -0.23755103 -0.26792443 -0.81738806 -0.07754168 0.113035716 -0.5532004 0.36253873 -0.10460206 0.043299798 0.0323437 -0.3796466 -0.8344615 0.041412152 0.09335756 -0.06411195 0.0980072 -0.17926575 
want -0.2854914 0.06755919 0.31034994 0.016228018 -0.14957051 0.07139892 0.09361411 0.67221767 -0.90076023 -0.18491204 -0.23301178 -0.048143946 0.450583 0.22767381 0.061396454 -0.27147654 0.24799581 0.7921391 0.30367574 0.01477755 0.32338247 0.5562366 -0.38915324 -0.5059062 0.22625369 -0.4061032 0.21171267 0.014422331 -0.7056275 0.3148038 0.06850199 -0.25946483 0.5531191 -0.08261879 -0.4488364 0.40674347 0.08545971 -0.8569736 -0.64432555 -0.21745825 0.7005869 -0.31080475 0.5672954 -0.4497648 0.7005756 0.51689583 -0.24691004 0.2772255 0.4372429 -0.08106922 -0.45208967 -0.09611547 0.7291614 0.22719921 -0.3112522 -0.23187624 -0.15499905 0.2324415 0.54485786 0.26877093 -0.0515269 -0.42089885 0.17105976 -0.15979785 0.3655559 -0.27026275 0.120650254 -0.62262404 0.023461668 0.47288707 0.21237321 0.07408961 0.112456195 -0.031177955 0.108036496 0.3242654 -0.31633162 0.21629891 0.125525 0.24856077 -0.7051919 0.028146133 0.74212193 -0.058645763 0.68655443 -0.11839672 0.09773049 0.0128698 0.30461454 -0.5121202 -0.42467096 -0.30572942 0.090622246 -0.33255056 0.08080129 0.98293775 0.8181137 0.6340536 0.40550917 -0.4721907 
my 0.028612755 -0.08775073 -0.79615384 -0.20380555 -0.14651553 0.22890288 -0.049528882 -0.00083801924 -0.043256585 0.3574198 -0.3183947 0.19682445 -0.3448787 0.41677502 0.2157741 -0.17225222 -0.10654179 0.29905313 0.008836496 -0.11901886 0.20572223 -0.04688741 -0.044698145 0.075778805 -0.0024269915 0.03260252 -0.1721929 0.07997336 -0.21451324 -0.43356535 -0.067118146 -0.08508872 0.40663677 0.2554445 0.38131598 -0.08476514 -0.33294332 0.11420315 0.21927029 -0.05565243 -0.49407533 0.24435018 0.057849266 -0.20543687 -0.12882157 0.17754698 0.35830155 0.42829442 0.16252887 0.14198361 -0.0462097 0.009319601 0.015144318 0.11997898 0.23601317 -0.12867199 -0.025191857 0.11912673 0.4470849 0.48382923 0.04988255 -0.05331427 -0.3555014 0.1741944 0.026997685 0.11335605 0.24290688 -0.024535937 -0.4222731 0.03924197 0.4111901 0.4499595 -0.87206656 -0.15908106 0.44077006 -0.13973787 0.9257098 0.1139773 0.10639699 -0.13606942 0.34475455 -0.15850426 -0.28227413 0.20830007 -0.4449302 -0.45857078 -0.31434667 -0.1899032 -0.37200546 -0.3069478 0.4388436 0.32267168 -0.041550964 0.22618233 -0.15015936 0.45510593 0.32321033 0.31962875 0.0016107418 0.43595022 
damn 0.86045617 0.10638425 0.4724454 -0.076835416 0.09583748 0.41625512 -0.0008966975 -0.41685444 0.95053834 0.10417367 0.036060046 0.943931 0.20019096 -0.07510627 -0.3043766 0.14868434 0.27839422 0.3422029 -0.41134992 1.0167006 0.18021795 0.37653455 -0.654206 -0.61467427 1.0668958 -0.03493374 -0.5241377 0.42002258 0.4818931 0.5676383 0.05788371 -0.72841007 0.16468015 -0.52108574 -0.38635242 0.24236806 0.11571162 0.29366726 0.13378519 -0.80799633 0.20409442 -0.020662347 -0.52894217 0.35481083 0.042229235 0.16530362 -0.6832408 -0.12384057 -1.2367513 0.03305213 -0.09727367 0.22040473 0.115228385 -0.0435546 -0.20937537 0.6469102 0.058735706 -0.20835155 -0.15772292 0.5606433 0.23531844 -0.08252375 -0.2311057 -0.25334352 -0.12787691 0.19744615 1.109252 -0.020719485 -0.09105934 -0.02611126 0.3381811 -0.42859578 -0.19675823 -0.025332564 -0.3061252 -0.7848005 0.5034381 -0.6031282 -0.09874286 -0.302241 -0.036017165 0.2263145 -0.38960686 -0.3819345 0.21729212 -1.0077281 -0.18691584 -0.14617135 0.23160411 -0.27199215 0.110399865 0.2111188 -0.1172252 -0.07606868 -0.9827554 -0.28640383 0.13916667 -0.008151914 -0.37926793 -0.7442198 
pho -0.30872548 0.1520457 -0.3243174 0.1085498 0.36734265 0.84897727 -0.21910405 0.4875643 0.4340858 0.25774795 0.11523203 -0.19390453 -0.07034694 0.06330991 0.20411783 0.31460828 0.13586178 0.1354519 -0.9125051 -0.8830069 0.33316886 0.08175836 0.15592258 -0.36416182 0.017861135 -0.82074726 0.15743966 -0.12824965 0.56204134 0.14279222 0.31346676 0.10187654 0.1930733 -0.1812136 -0.2932852 0.12824993 0.62770516 0.27831253 -0.14513709 0.42900768 -0.20797722 0.41481754 0.52812517 0.2222062 -0.47862798 -0.014935844 0.097447455 -0.0027028641 -0.15426123 -0.25837964 -0.46574956 0.19839431 0.5299483 0.19582045 -0.22254892 -0.017855143 -0.06338159 -0.15706998 0.15382062 -0.25725392 -1.2801816 -0.20028228 -0.24210748 0.06420221 0.4714861 0.2579832 -0.09648469 -0.0060723615 0.23709379 0.106016465 0.21157116 0.09795508 0.65239143 -0.20905949 -0.39537767 -0.116316944 0.29015365 0.28602463 0.0011324387 -0.84999776 -0.118813045 -0.24193454 -0.23286922 -0.06391585 -0.45690128 -0.34573168 0.21335924 0.22937159 -0.23920922 0.37952566 0.2107196 -0.70426065 -0.08258794 0.05096013 0.11482166 -0.3408714 -0.06509332 0.26570216 0.10422788 -0.014678979 
honeslty -0.037905466 0.7736103 -0.15088463 0.5777613 0.11398398 -0.058015365 0.1397455 0.42789698 -0.34635428 -0.20308036 0.04884427 -0.43 0.09858124 0.07732608 1.0388513 -0.3562825 -0.4499973 0.1821206 -0.61978525 -0.14313647 0.5968909 0.24630794 -0.35294044 -0.5205603 -0.35566276 -0.5877322 0.1817304 0.5278286 0.96571195 -0.39946422 0.30743715 -0.7393931 0.2960044 -0.759425 -0.7338862 0.4782444 0.39165246 -0.6713049 -0.24552469 -0.68213594 0.7317622 -0.34197307 0.4343886 -0.6523989 -0.5470621 -0.3750141 -0.7664432 0.4953662 -0.016319916 -0.13679059 0.40889767 0.7770633 0.6353993 0.5417277 0.63140327 0.4500526 0.20783876 -0.17906795 -0.09930825 0.68660146 -1.4568574 -0.7923479 -1.1580111 -0.075065054 0.56475055 -1.0518343 -0.3146253 -0.6717143 0.1135377 0.30197385 0.015188779 -0.37587145 0.041645043 1.2260318 0.068983644 -0.08033924 0.32198596 1.0436816 0.6805544 0.9861609 -0.7115748 -0.42982638 0.058362797 0.908908 0.12179615 -0.44600114 -0.15993655 -0.034972455 -0.6488738 0.21341754 -0.02904212 -0.94998527 0.29819667 -0.47107115 -0.8029164 0.9565344 1.3869696 0.9317682 -0.44809717 0.009194304 
didnt 0.1980345 -0.107696734 0.4397368 0.64361095 0.0010496669 0.8888664 0.19198537 0.5386542 0.20094115 -0.30657226 0.04733989 0.19988883 0.7157693 -0.650449 0.8447713 0.7848257 0.8765111 0.75607514 0.15885314 -0.86690116 0.038137384 0.17865273 0.11543354 -0.5516646 -0.25040233 -0.00738066 -0.56143814 -0.33276764 -0.06404247 -0.40693125 0.4534586 0.14034963 0.04827944 -0.2871124 -0.43684798 0.6903572 0.028900784 0.43175578 -0.31360176 0.10615949 0.08701586 0.41186965 -0.34951386 -0.21050753 0.15449473 -0.034538604 0.06126205 0.12126735 -0.10402771 0.17784822 -0.42484313 -0.25759056 -0.11934091 -0.30475178 0.5178023 0.018330846 -0.1211181 0.18160012 -0.2951102 -0.08037622 -0.05079384 0.85653484 0.2725947 0.49931294 -0.17916052 1.0347987 -0.40340582 -0.18482 0.75725996 0.053210713 0.5721055 -0.21680053 -0.10791709 0.078786395 -0.33841127 -0.09201517 1.082322 0.3636278 -0.35411358 -0.48269045 0.3389373 0.2980383 -0.19466652 -0.30327374 -0.12486687 -0.21885765 0.28210247 0.53534716 -0.34108904 0.28342724 -0.3319255 -0.10943584 -0.26343334 -0.7877849 -0.09235671 0.024945283 -0.17916426 -0.5448379 -0.015043602 0.3366538 
taste 0.16453072 -0.6263804 -0.33011538 0.2189578 -0.09984944 0.37681732 0.40188617 -0.83850795 0.28743422 0.09492166 -0.1269434 0.021769507 0.046698574 0.5514818 -0.45702323 0.019665498 -0.21899855 -0.5041669 0.03878596 0.38595182 0.4104954 0.29849067 -0.08958584 -0.1281794 -0.5683459 0.67335606 -0.34046313 0.081897184 0.6804436 0.15549509 0.7392124 -0.68450046 0.53030175 0.5959108 0.18132965 -0.27861583 0.0877603 -0.47782603 -0.6047551 0.28191254 0.014725726 -0.03719036 0.10283764 0.5096026 -0.23518732 0.8421215 -0.22218229 0.137422 -0.05211575 -0.42097792 0.036342498 0.0948004 0.4324752 -0.5648219 0.054160994 -0.54069287 -0.15974467 0.22258566 -0.011110463 -0.06527252 -0.17294267 -0.08266126 0.7208683 1.0770085 -0.31528044 0.09075919 -0.38006812 -0.53388906 0.62819606 0.19414413 -0.4322067 0.5211142 -0.34591705 0.06508748 0.16791658 -0.12607323 -0.3774282 -0.041081086 -0.28732234 -0.046106946 -0.32523167 -0.31413504 -0.21910183 -0.30302277 -0.20408055 -0.6771743 0.3325626 -0.097555235 -0.32392657 -0.8568008 -0.35520485 0.49940848 0.13692293 -0.2201598 0.118743025 0.13397583 0.29266888 -0.08018715 0.46700943 -0.116174124 
that 0.048017174 0.10669656 -0.081528634 0.23934446 -0.20433214 0.030900307 -0.1306187 -0.07099903 -0.07941133 -0.051383056 -0.21049173 -0.5198807 0.22108683 0.20226493 0.036149476 0.32207477 -0.027462086 0.29066837 0.6143172 -0.26710185 0.58126706 -0.11909397 0.30056983 -0.16263866 0.28400105 0.110666394 -0.15381311 0.10623548 0.2727912 -0.2445626 0.14539668 -0.6223057 0.072483435 -0.22101308 0.1269942 0.30500904 0.115572296 -0.37273106 -0.030010216 -0.2105077 -0.27065635 0.10419178 -0.14257757 -0.020882374 -0.21654968 0.025767552 -0.25293395 0.2434203 0.07078137 0.28011596 0.033972993 0.16031885 0.05017171 0.11511061 -0.84831303 0.23864959 -0.18554744 0.056243677 0.6259009 0.40582877 -0.49529272 0.01600159 0.13624522 0.0056492067 0.1828224 -0.15449281 0.37841108 -0.021212758 -0.11836561 0.1532489 0.035819013 -0.14512978 0.23465133 0.18132767 0.04635415 0.4027247 -0.32517913 -0.13432074 -0.28704706 0.20274636 -0.21943371 -0.010881124 0.050893966 0.3906313 -0.11149826 0.12547523 -0.35800114 -0.144507 -0.12052553 0.45502493 0.26656637 -0.133485 -0.44195434 -0.14814256 0.12099485 0.28477907 0.1430687 0.085454404 0.047156055 -0.34262812 
fresh 0.04910192 0.5802141 0.11215382 0.010969704 0.4822366 -0.7552359 -0.50983286 0.37740067 0.61496425 0.064161055 0.39486867 -0.41451886 0.40325767 0.2766937 -0.13582289 -0.42788172 0.24341734 -0.44170222 0.22686194 -1.301007 -0.19449733 1.3994758 -0.26443955 -0.20603508 0.24822962 0.35592082 0.14816958 -0.073137425 -0.39799127 0.0494671 0.16086929 -0.14019996 0.9156141 0.73979217 -0.32511333 -1.6081182 -0.005509031 -0.0875021 0.45734873 -0.5872303 0.68877405 0.16827497 0.16569412 -0.33166704 -0.028379668 -0.35356963 -0.8291086 0.6358734 0.37843204 0.15970078 -0.23544301 0.7765392 -0.16662169 0.5296982 0.27945268 0.51808435 0.42644984 -0.13506998 0.2625769 -0.1986478 0.030257074 0.04834998 -0.6348002 0.26904112 -0.49020755 -1.3364207 0.82085824 0.5067221 0.4070665 0.83479035 0.61474854 0.52911216 0.13478543 0.15151317 0.10382388 -0.11397137 -0.026920248 0.14465292 -0.2451494 -0.47123507 0.67896 0.00035115602 -0.83902645 -0.2800739 0.26123446 0.14046164 0.5391787 0.44757113 -0.17775734 0.116229676 0.24414231 -0.034746762 0.6077601 0.11815428 0.5790303 -0.5976922 -0.06334353 0.3350827 0.29973233 -0.041854676 
potatoes -0.48150274 0.080740064 0.024589028 0.13244168 0.2271893 0.45597798 -0.36575523 0.22988763 0.48117852 0.45740807 0.057570178 -0.2150057 0.070001446 0.8122545 0.812526 -0.4003129 0.18690085 -0.09538593 -0.85410506 -0.17134275 0.1574316 0.025493631 0.23409957 -0.55962855 0.5094481 -0.3103707 -0.41649985 0.4581427 0.31239206 0.15768372 0.09460229 0.014357776 0.13556068 0.13074179 -1.1343083 0.5870535 0.71674985 0.20186798 -0.15818319 -0.13288318 -0.08565502 -0.100381576 0.28826272 -0.09166452 -0.32060003 -0.26758146 0.35972765 0.61509866 -0.18315965 0.30124676 0.4348474 -0.018125258 -0.31108394 -0.041777123 0.1448935 -0.09791398 0.0076388847 0.022197597 -0.16187161 0.05799273 -0.08206425 0.85884356 0.0576698 0.10413287 -0.0864044 1.1285645 0.51006967 -0.63267255 0.23972113 0.56792647 -0.2248416 -0.48891526 -0.2840094 0.051213153 -0.5462481 -0.4168044 0.5466265 0.20098777 -0.13438208 -0.14197494 -0.33173063 0.20751184 -0.32526293 -0.027031772 0.0796507 0.031665105 0.11753743 0.021449916 -0.4184853 1.0212113 -0.1433931 0.7940199 -0.25588876 -0.41999567 -0.08019712 0.18995379 0.23624566 0.87940896 0.057405155 0.034450073 
like -0.24874651 -0.035731647 -0.26910883 0.030732214 0.018896675 -0.386091 -0.04101648 0.28678212 0.1293279 0.15615149 -0.17419404 -0.09856274 0.22134012 0.19841951 0.042113785 0.18084837 0.09309267 0.119094834 0.07016525 -0.20239404 0.36118373 0.3243109 -0.24173559 0.20400237 -0.15293656 0.24106899 -0.014772838 0.0490853 -0.006456638 -0.032209273 0.08430179 -0.16023472 0.24010548 -0.20453759 -0.05085252 -0.033308942 -0.13155797 0.38496357 -0.23316665 0.054488625 0.00858477 -0.07849603 -0.17747785 -0.119496055 -0.19717792 -0.06398019 -0.044671036 0.019541493 0.051909532 0.008294701 -0.22910164 0.11957269 0.418655 0.2043123 0.1331904 -0.2797431 -0.14298363 -0.08892586 -0.075316705 -0.14433512 -0.14072964 -0.27052507 -0.13489479 0.021045782 -0.14392923 0.10279126 -0.16710953 0.04642459 -0.22548528 -0.09321163 0.28711763 -0.033765826 0.004635693 0.049881134 -0.12278299 -0.105853215 0.032789543 0.033272278 -0.2446253 -0.06340299 0.09497382 -0.0014179327 -0.012773817 0.03390228 0.05755656 -0.0826698 0.21050559 0.23391148 -0.32607475 0.1572909 0.008950152 -0.3893179 0.035621446 -0.17610206 0.018748129 0.022856116 -0.06403955 0.11465072 -0.15424491 0.15662389 
rubber 0.68110746 -0.14085786 0.1156101 -0.12625307 0.13193464 -0.13236728 0.5328695 -0.44587913 -0.076747134 0.05111621 -0.028054792 0.7822866 -0.034771163 0.4972657 0.19336137 0.07612432 -0.09728442 0.48301402 -0.37626463 0.3629781 -0.09968366 0.25847003 -1.1907356 -0.5119077 0.2730004 -0.15933762 0.076448545 0.25174809 0.7538686 -0.53085107 0.52942103 -0.5603159 0.16870986 -0.33272168 0.39309472 0.4651508 0.39903018 -0.3327901 0.40150812 -0.4522974 0.50948757 0.18252116 0.118089676 0.18163069 -0.3520163 0.18630427 -0.79075927 0.053935785 0.4796835 0.023873031 0.4822925 0.72332853 0.19803275 -0.1898899 -0.0011435964 0.15648255 -0.25614208 0.53421956 0.07476266 1.2430613 -1.327757 -0.2811596 -0.12631848 -0.29840863 -0.31835786 -0.92199665 -0.095024295 -0.33555844 0.46754575 0.18459919 0.42762655 -0.4858815 -0.57631004 -0.27724853 0.3132447 0.15644921 0.037598107 -0.18474132 -0.15923482 -0.15569873 -0.10108957 -0.7978329 0.015106602 0.21619947 -0.3862993 -0.31552503 0.009232858 -1.0240393 -0.30129373 -0.08093857 0.26511556 -0.3882028 0.26965818 -0.19347759 -0.09822315 -0.31038854 0.691315 -0.18860693 0.029582 0.02907944 
you -0.24940917 0.109398656 -0.1914164 0.4114408 0.0961511 0.05632928 0.31115562 0.13723746 0.38322005 0.033543132 -0.046129387 0.020097375 0.09283428 0.2805501 0.34181032 0.070891716 0.34246004 -0.049902752 -0.06659028 -0.15924343 0.0308829 -0.35849866 -0.2284303 0.011504512 -0.07661778 0.19747272 -0.28147984 0.123436525 0.2991812 0.20950359 -0.031341746 -0.1893556 0.28158003 0.29261014 0.016901469 -0.10957081 0.24274 -0.115132794 -0.1802178 -0.061940286 -0.28171048 0.14009835 -0.001035616 -0.114136465 -0.21817479 -0.027014868 -0.10101595 0.10442909 0.18308553 -0.037889425 -0.063794754 -0.21381716 0.23356421 0.13537313 -0.023905441 -0.18826504 -0.173336 -0.0721958 0.21360756 -0.10872357 -0.043399654 0.09927404 0.084617406 0.25699395 -0.1467016 0.10964673 -0.23665898 -0.19951949 -0.07942368 -0.011739039 0.032958005 0.024082541 0.03710003 -0.055986356 0.10158645 -0.15160047 0.11675009 0.15757428 -0.05571999 -0.00065227743 0.10398489 -0.06417812 -0.27769926 -0.08341791 -0.10033267 -0.24709417 -0.23369841 0.33552584 -0.253169 0.032219913 0.13828313 0.08744768 0.08556155 -0.24882948 -0.08526882 0.24235192 0.05270739 -0.11058296 -0.13292924 -0.0018695586 
could 0.2856588 0.12654246 -0.0653998 0.5184316 0.15310414 0.2320307 -0.38216257 -0.23453476 0.0069878753 0.0493697 0.06950425 -0.33523795 -0.114369854 0.009013922 -0.21353365 0.8322336 0.13235196 0.28193888 0.32275313 -0.49381372 0.4083389 0.20845707 0.05704504 0.0988376 0.39433265 -0.324073 -0.24487707 0.2773091 -0.46032298 0.30276302 0.558119 -0.59928024 0.46427345 0.37284952 -0.2254678 0.20372346 -0.38744903 0.023435336 -0.7300996 -0.26663595 0.35021222 -0.11259571 0.077162854 0.0056048376 -0.18878183 -0.03560138 0.16226928 0.34382263 -0.0032654835 -0.49001753 -0.5059136 0.21257965 0.09036517 -0.10278966 -0.18631613 0.10710748 0.136053 -0.14229769 0.18947735 -0.111330785 0.15043662 -0.020435119 0.35878932 0.7178548 0.41725054 -0.011245047 0.52334154 -0.41023904 0.29568037 0.37362453 0.4418686 -0.043952946 -0.29551432 0.37964207 0.44421732 0.8080664 0.41818118 -0.26302058 -0.43512648 -0.09910646 -0.13309015 -0.05075106 0.008028981 -0.087140225 -0.19059461 0.1658732 0.041230068 -0.012744445 -0.11434742 0.09090299 0.14214835 0.5659436 -0.23158981 -0.05029819 -0.6091051 -0.059007987 -0.2785479 0.7375976 -0.1540674 -0.05014064 
tell -0.36728346 -0.37371767 -1.2513173 0.17782375 0.28326342 0.75126654 -0.64496535 0.26231402 -0.6010742 0.12285849 0.31730193 -0.7418448 -0.05288024 -0.11836579 0.19356483 0.2162082 -0.21239981 -0.05276358 0.011138993 0.24221863 0.5848166 0.19100338 0.2421202 0.015992055 0.30204907 0.25406164 0.13790362 -0.05321238 0.25110018 -0.18772322 0.7219815 0.20371291 -0.09213491 -0.44239008 0.023417355 -0.029720807 0.41295302 -0.13232252 0.39128235 -0.6209333 -0.21964327 -0.14555098 0.13583314 -0.41467822 0.47104022 -0.38305554 -1.3266451 0.023928488 -0.07279266 0.56448144 1.1541094 0.011065497 0.9259811 -0.05856073 -0.5883008 0.27467972 -0.16392705 -0.54507846 -0.37333116 0.021286532 -0.4849855 -0.031118013 -0.30257383 -0.18539965 -0.13508266 0.21319126 0.4083371 0.32642055 -0.3548116 0.042078566 0.33827567 0.50236434 -0.13670708 -0.51320404 0.77435815 -0.06328494 0.15655033 -1.0581822 -0.28711033 -0.08927251 0.27245614 -0.4315107 -0.28775957 0.78132194 0.13617226 0.05646467 0.6397247 0.80113906 -0.118174136 0.006855285 0.18977776 -0.44826928 -0.16521537 0.28876838 -0.5742777 -0.28569227 0.1267254 -0.13170123 0.21745312 -0.6008874 
they -0.048933666 0.09868856 -0.035490952 0.022704601 0.15013456 0.04916102 0.3195184 0.28318822 0.40806803 0.009871476 0.18769477 -0.16707268 -0.008603836 0.06029034 0.19181104 -0.2734813 -0.35122272 0.43555686 -0.18271409 0.18673722 0.27854767 0.037660733 -0.24841188 0.021195339 0.25645727 -0.046066977 -0.053663764 0.20288064 0.053435303 0.15575376 0.14540939 0.015410924 0.34686264 0.015307078 0.16030441 0.23405309 0.23294725 0.19700505 0.10367448 -0.216247 -0.20531715 0.06716822 -0.07406313 0.22932045 -0.27852058 -0.207735 -0.2326621 -0.32354203 0.0124844825 -0.18163686 0.13920146 0.33709475 0.16345507 0.13452539 -0.033507165 -0.15729742 -0.0089195315 -0.04402806 -0.087899156 -0.016938426 -0.15431692 -0.1964537 -0.1498886 -0.13892846 -0.11280999 0.024365582 -0.21382967 -0.06631124 0.21966612 0.036301404 0.29041797 -0.5160865 -0.47705597 -0.012477766 0.029452667 -0.11452117 0.26911262 -0.053148806 0.23379213 -0.18583913 -0.0324282 -0.06395171 0.03900924 0.071809836 -0.10256575 -0.20993964 -0.40340805 -0.16665685 0.002897642 -0.13581789 0.1441945 0.022925729 0.08745255 0.13573065 -0.22497897 0.19833317 -0.015137393 0.0073659765 -0.06569414 -0.122111656 
had -0.2138926 0.19888717 -0.095457986 -0.061927535 -0.4838703 -0.0140921585 -0.18679217 0.2161958 0.24449348 -0.03916402 -0.049888436 -0.14563802 0.27837735 -0.20036234 0.3626262 0.0013390671 -0.10534834 0.053971507 -0.18642345 -0.26573738 -0.4423505 -0.46341068 -0.0845544 -0.45398957 0.08313189 0.60221845 -0.3549069 -0.27381346 0.7229985 -0.06460976 0.015211798 -0.15956196 0.12794177 0.09327709 -0.41581282 0.24284056 -0.29140937 0.026599986 0.22947901 0.0033229152 0.010987166 -0.98259705 0.14969137 -0.42148674 -0.23790453 0.15431498 -0.69217676 0.04093031 -0.03233422 0.101784 -0.08061868 0.1542979 -0.55620635 0.34781647 0.36517003 -0.13547777 -0.026835244 0.019623408 0.1881346 -0.11654047 -0.0917155 0.60183686 -0.36411494 0.04448702 -0.109587334 0.39758635 -0.02231994 -0.2988357 0.3155187 0.19467579 0.31618866 0.14684062 0.35022202 0.23385409 -0.29802927 0.02123813 -0.2336763 0.4101705 -0.2802027 0.004408569 0.10975596 -0.07132241 0.21364447 0.16097671 -0.5160245 0.010865271 -0.18730235 0.033744838 -0.07658721 0.0153490575 0.35839385 0.096189305 0.080457255 -0.2500168 -0.41971022 -0.1717832 -0.01658407 0.2951086 0.380801 0.06701483 
been -0.5059967 -0.12107135 0.016722782 0.5895079 0.24356617 -0.33295286 0.16519214 -0.053603873 -0.08615657 0.56313324 0.049499597 -0.104230255 0.21265621 0.18017949 0.6389636 0.0015310636 0.0067886533 0.22251481 0.06293975 -0.23826872 -0.27518666 -0.106694594 -0.3273101 -0.037312217 0.0750501 -0.55664617 -0.15654579 0.202954 0.8210001 -0.3802575 -0.085913815 0.37251213 0.86092293 -0.40553766 -0.16582811 -0.31959438 -0.2378925 0.7125273 -0.23450243 0.07645 0.13729908 0.21436214 0.6228342 -0.15829052 -0.760179 0.15407045 0.46796998 0.3168732 0.11501657 -0.17775665 0.7341478 0.5311296 0.66783416 0.11799916 1.4316556 0.055956468 -0.018647388 0.29036656 -0.06952419 0.347342 -0.62388945 -1.0929079 0.19327268 -0.062666796 -0.29746613 0.24942106 -0.2040751 0.25095597 -0.22921203 0.41625386 -0.2533231 -0.14739618 -0.09792889 0.19484915 0.00014896733 0.2048836 -0.23081475 0.07382597 -1.0393596 0.1600478 0.20380731 -0.33628157 -0.5271366 -0.06340045 -0.100833274 0.6692465 -0.09821907 -0.35792965 -0.10014362 0.36416718 0.05569646 -0.27722025 0.13664165 -0.21788913 0.07731753 0.69318753 0.36006227 -0.2666286 0.15906365 0.20757464 
made -0.04752413 0.33317703 0.08554312 0.11677508 0.18770185 0.09245218 -0.33813435 -0.1684 0.31240633 0.057034545 0.34412614 0.1842455 -0.47113782 0.2524575 0.21585779 0.3856184 0.6912628 0.043600585 -0.4582496 -0.15922312 -0.3225475 -0.47008136 -0.10689002 -0.20585702 -0.17917947 -0.11989756 0.14340976 0.08497257 -0.20690541 0.11826477 0.3866021 -1.4667428 -0.42578962 0.4258042 -0.083278134 -0.57976943 0.38772765 0.0039955713 0.10859848 -0.32315987 0.018777639 0.123897046 0.28499663 0.1643332 -0.60798854 0.08273639 0.05351991 0.536858 -0.32178473 0.7822121 -0.12602015 0.0904106 0.4667423 -0.243393 0.3652469 0.124374904 0.021470552 0.34663907 -0.05914936 0.32100156 -0.19034077 0.6861681 1.0571483 -0.05200667 0.7112781 -0.13270627 0.005890202 -0.17639151 -0.035454188 0.14232409 0.6651341 -0.08450549 -0.5285569 -0.024478905 -0.2641156 -0.285303 0.019704606 0.36644474 0.29182255 0.028114934 0.34252957 0.2443866 -0.5918796 -0.33871603 -0.33578572 -0.18471362 0.12808643 -0.015631123 -0.3192815 -0.5386929 -0.14648134 -0.07807443 -0.13043778 -0.9637947 -0.11022554 0.008057441 -0.35490128 -0.3866245 -0.5697973 -0.20941216 
up -0.9509861 0.94108963 0.06908265 0.15285963 -0.49236065 0.14835942 0.379321 0.2164559 -0.4241458 0.34255254 -0.021401886 -0.064788945 -0.060812153 -0.13279448 0.119525924 -0.10889938 -0.787774 0.35695234 0.27650726 -0.11996523 0.21134266 -0.0030470702 -0.46707162 -0.33056402 0.11480043 -0.049549773 0.75239533 -0.018188113 0.48917273 -0.23293734 0.40517384 -0.36915618 -0.3879595 -0.32728425 -0.19540115 -0.031932015 0.11386432 0.747834 0.29163036 -0.07069089 -0.118417 0.43767068 -0.30412346 0.14292076 0.29985854 -0.20877738 -0.17643604 0.0019176835 -0.28511778 -0.58171874 -0.16096027 -0.2582983 0.8252617 -0.49821532 -0.55780774 0.1559627 -0.3428647 0.0441839 0.4350329 -0.589406 -0.6304525 0.24825953 -0.43457335 0.4814898 -0.6966899 0.25050196 0.15937391 -0.10174925 -0.1169981 -0.0638961 -0.5801248 -0.0062238835 -0.51600796 -0.04444961 0.15574354 -0.08324232 0.19563088 -0.36283597 -0.046025477 0.16342825 0.08860877 -0.20884268 0.24056163 0.2693079 -0.38646632 -0.4232848 0.32286388 0.14901178 -0.06587753 0.22813208 0.47935396 0.37483993 -0.46474525 -0.588571 -0.45298117 0.08584477 0.6228004 0.030514533 -0.23717248 -0.11490373 
ahead 0.12398197 0.35723603 0.1396443 0.32132977 0.2923229 0.51792395 0.3463903 0.89175475 0.32697266 0.2031394 0.28826854 0.28798667 -0.10295226 0.9188853 0.85074687 0.044018622 0.48849708 0.004437479 -0.44928667 0.029354112 0.5989636 0.34718361 -0.89599967 -0.09803745 0.29036725 0.27432686 -0.20821466 0.76921713 0.5499572 0.44066015 0.11899144 -0.0009109216 0.6515539 0.10166881 -0.43672088 1.0419872 0.4794204 0.5077809 -0.47686931 0.027256992 0.112475045 0.22281133 -0.39955568 -0.06559622 0.10458556 -0.19635181 -1.156788 0.17899007 0.39404044 0.046228696 -0.034556646 0.56120104 0.20563138 1.1568955 -0.215255 -1.1038189 0.19199593 -0.39193812 -0.1954 0.36365977 0.1512548 0.3019342 -0.4050698 0.15494213 -0.056063894 -0.66312146 -0.3288125 -1.0751355 -0.23149605 -0.32027942 0.018492484 0.61209875 0.27647486 -0.33217695 0.23160452 0.026200809 0.6831234 0.4933534 0.16205476 -0.60449034 -0.9202434 -0.45905524 -0.21499412 -0.4365632 -0.045311023 -0.4652411 -0.41343367 -0.34300196 -0.9972506 -0.44479114 0.028497027 -0.8505781 0.18400407 0.3167818 0.17992295 -0.35367128 0.62486935 0.6828208 -0.42171028 0.67020184 
of 0.32779884 0.059978776 0.05355845 0.011670593 0.04788996 0.062131517 0.017434632 0.0076708826 0.13041627 0.12170405 -0.2166005 0.37268525 0.29674605 0.029510988 0.028372802 0.15839006 0.25421703 0.41140664 0.167426 -0.13864952 0.009500513 -0.14661042 0.00417426 -0.23832648 0.14973506 0.020025183 -0.19755936 0.17132299 0.14759706 -0.29503158 0.07633427 -0.26424146 0.3588357 -0.100838035 0.042328708 -0.11915771 0.19565463 -0.07912924 -0.21018066 0.14337945 0.10352933 -0.19809084 0.29582816 0.007651803 0.06339009 -0.023271866 -0.08107759 0.047972374 -0.11400219 0.05606599 -0.039360754 -0.32748908 0.5984784 0.19329242 -0.10646539 -0.013420319 -0.077257924 -0.15971465 -0.17023139 0.17070764 -0.34378776 -0.3185252 -0.16793688 0.060196817 0.017409755 0.04256261 0.030032286 -0.026069438 0.26447546 0.26427165 0.20800231 -0.012046887 -0.0019985402 0.12183664 0.2188252 -0.16813688 0.034625646 0.3276848 0.07492394 0.24911971 -0.05103504 0.012197848 0.050028827 -0.05867874 -0.007960534 -0.37679106 0.29807234 -0.1242692 -0.07393958 -0.039184596 -0.12598453 -0.0064430474 0.07292532 0.15557471 -0.50159883 0.090260394 -0.013119757 0.31205645 -0.34966797 -0.13281812 
time -0.16871886 -0.19970472 -0.18343979 0.4891466 0.36883226 -0.48099053 0.7338421 -0.18194886 1.001926 -0.11954958 -0.29064912 -0.011519199 0.3707567 0.10144683 0.39318782 0.42847234 0.055943273 0.07069637 -0.1394351 -0.052490678 0.1913692 0.18926513 -0.183758 0.19111542 -0.14770032 -0.101163134 -0.14399238 -0.077364616 0.32974923 0.036326896 0.31958768 -0.10252452 -0.05498636 0.06924761 0.12638956 -0.13298643 0.23832947 -0.08825862 -0.27954498 0.112120196 -0.7019294 0.16755573 0.05930392 0.0008095524 -0.42242813 -0.31533036 -0.17835131 -0.13715076 -0.17855014 -0.031027365 -0.038491715 0.12753345 -0.24242112 -0.37783232 -0.47482193 -0.18509297 -0.2575654 -0.045112204 0.5473901 0.011223511 0.09209531 -0.38326648 0.25616527 -0.18387333 -0.08848789 -0.20154525 -0.06569524 -0.42700753 0.4062798 0.019786555 0.5367333 -0.4835614 -0.07868292 -0.16040248 -0.20656835 0.1343218 -0.22123343 -0.40655038 -0.008166634 -0.20589042 0.22087987 -0.007411823 0.21603239 0.16231395 -0.62375957 -0.06498259 -0.20852996 0.27530214 0.3896152 0.18280841 0.00867594 -0.021480301 0.28250167 -0.15848522 -0.3887556 0.3106096 0.19907106 0.28454918 0.10772247 -0.20754537 
being 0.11298012 0.081962645 -0.25542077 -0.3464387 -0.35980257 0.035050903 -0.40637526 -0.06683757 -0.20146018 -0.031174805 0.21481805 0.0972119 -0.16874109 -0.36586058 -0.017185353 0.22044918 -0.09223606 0.92796654 -0.051326495 -0.26357144 0.27023125 0.4077872 -0.30341077 -0.064977184 -0.09599488 -0.19715296 0.31630358 0.17785673 0.017162848 0.43913364 0.7385642 -0.084374174 0.7715086 -0.0607911 -0.31278467 -0.15396479 -0.17391197 -0.2900778 0.4010754 -0.5273344 -0.22227609 -0.5839644 0.13540784 -0.20967996 -0.77785885 0.25447857 -0.6613134 0.16959065 -0.40911505 0.6451403 0.37418845 0.23422743 -0.10963241 0.068392836 0.06565902 0.034668252 -0.20163296 0.693436 0.8223652 0.036577266 0.12674591 0.29943305 0.21725029 -0.20466498 -0.33945054 -0.24679868 0.27038825 0.3353523 -0.034707446 0.11831193 0.101498075 0.19361103 -0.448534 0.060193602 0.0051368093 -0.5705731 -0.18000919 0.008172608 0.47294277 0.40525073 0.51251024 0.5736622 0.14331265 0.45009598 0.07750149 -0.16736649 -0.5234242 -0.41045475 -0.4774433 -0.94455 0.08546452 -0.10338079 -0.33945122 0.008874118 0.46842077 0.1830961 -0.32823887 0.063732915 0.09712844 -0.37434226 
kept -0.11624054 0.10763403 -0.36663595 0.45863086 -0.36236554 0.39834547 0.31292564 0.42940104 -0.7938587 0.06455854 -0.3927092 0.06726009 -0.56660515 -0.5123996 0.52163243 0.13813245 0.26865804 -0.5903259 -0.27596223 0.30384538 0.23319979 -0.5063906 -0.3457247 -0.67245406 0.29504707 0.13023797 -0.24692248 0.25022972 0.7135624 -0.21252416 -0.24578957 -0.3463653 0.5913276 0.41133416 -1.4629499 0.08034474 0.27749082 0.082371265 -0.7014839 0.4919863 0.2868771 0.21734081 -0.046933908 -0.33840117 -0.81960535 0.2992027 -0.05965678 0.44327325 -0.2035076 -0.021564854 -0.37122953 -0.066229366 0.5345109 0.43674988 -0.29999092 -0.7344608 -0.1463023 -0.16015235 0.11425761 -0.49228942 -0.30283388 0.23908041 0.12571982 0.6103663 -0.012036788 0.19309399 -0.22922733 -0.049261957 -0.06066708 0.45392305 -0.21110328 0.046563543 -0.5847071 0.3991312 -0.2506408 0.20504825 -0.8114108 0.2587008 0.50301564 -0.50113213 -0.6001119 -0.7658265 -0.4246626 -0.09770384 -0.23295887 -0.21134908 -0.17532545 0.22451198 -0.7814773 0.5918087 -0.3910292 -0.15986939 -0.25119844 -0.7548383 -0.44100052 -0.55212086 -0.05809152 -0.1975922 -0.108506896 0.33218765 
under -0.079647794 0.0114887655 0.4909495 0.9273916 -0.31128532 0.06470312 0.3851541 -0.011649205 -0.3177774 0.030634627 0.1614108 0.03125167 0.13861968 1.5555813 0.1726015 0.48193908 0.19232097 -0.27982387 -0.6179579 0.01737645 -0.16605818 0.9267161 -0.6996703 -0.24151556 -0.66289544 -0.18676358 0.15848884 0.23875558 0.21275406 0.006647782 -0.06803113 -0.8637529 0.75823313 0.20395224 0.44194087 0.21940143 0.6341316 0.5131802 0.32118028 -0.017480556 -0.073686294 0.008037547 -0.2807436 -0.58536005 0.6996654 0.01627866 -0.15329157 0.56278 0.24033669 -0.14873184 0.36112046 0.2349141 0.21619712 0.52120835 0.2662428 -0.2696411 0.018200722 0.49446446 0.13254857 0.40168992 -0.4405804 -0.16766368 0.068069436 -0.59499836 -0.13729726 -0.7953533 -0.6003929 -0.86605227 -0.23944369 -0.22222178 -0.5142643 -0.06525484 -0.73262143 0.23148592 0.4615724 0.0129087325 0.720487 0.39771804 -0.7574596 0.22889148 -0.41974035 -0.43976393 0.1679511 0.025498822 0.06222361 -0.980886 0.04349875 -0.356138 0.2940399 -0.74533504 -0.3239689 0.062287036 0.37378958 -0.0974344 -0.014686936 0.03766824 0.50310016 0.63886 -0.32662734 0.5316954 
a 0.07768191 -0.116109766 -0.13057457 0.052460607 -0.040475722 0.17267813 -0.07105539 0.041998327 0.33151513 0.020301217 0.020671908 -0.122887045 -0.036337916 -0.010060375 0.11665716 -0.17178841 0.07742915 0.018091185 -0.16363294 -0.04084241 0.06859729 -0.020707775 -0.24796394 -0.101966016 0.046084564 -0.22569937 0.004653307 0.182666 0.45773828 0.14726739 0.15796128 0.083937064 -0.022481441 -0.04949254 -0.15245041 0.2512163 0.015818853 0.014468308 -0.008255028 -0.0069790212 0.07180206 0.066354536 0.050069094 -0.052229617 0.07977922 -0.16249399 -0.061213925 -0.025777541 0.09629569 0.18357308 0.016963705 0.25740266 0.3541485 -0.04336936 -0.18861447 0.04442301 0.042745788 -0.17619148 0.030077316 0.27821356 -0.037569392 0.22992982 -0.0020842757 0.12331259 -0.21760449 0.147674 0.062035974 -0.18450874 -0.18792151 0.060565677 0.1467465 -0.05384784 0.36914134 -0.15134247 0.021706166 -0.46329996 0.28505373 -0.06005762 -0.274708 -0.11218666 -0.034143303 -0.037740458 -0.1794922 0.19929516 0.016959924 -0.0723574 0.042255465 0.20447668 -0.04754175 0.03783866 0.1120328 0.060709786 0.12372192 -0.11325187 -0.122619905 0.08165624 0.18423967 0.14386512 -0.047279295 -0.2742791 
warmer -0.9127792 0.030837718 -0.23560622 0.2072573 1.7863206 -1.1756049 0.4101194 0.08343427 0.256759 0.533717 -0.20971651 1.5951887 0.3952969 0.18652916 1.0725989 0.100677274 -0.3417206 1.6145319 0.94526803 -0.6358728 0.35520336 0.4890097 -0.4515819 0.0038432071 0.88034624 0.19423915 -1.0683242 -0.57889605 0.3628078 -0.5784114 1.4173635 -0.7253587 0.8327279 -0.25770223 -0.18441033 0.09180041 -0.31024206 0.08789301 -0.7256711 -1.4008234 -0.4748215 -0.4296114 -0.435981 0.80937946 -0.45605823 0.07112653 -1.6908089 -0.29354563 -0.33061248 0.6819375 0.64161515 0.36919415 0.31510192 0.11096467 0.7602187 0.41808125 -0.4878575 0.6099901 -0.2741566 -0.18679805 -0.27106926 -0.38275778 -0.78586906 0.7979615 0.20482631 0.48791724 0.2617436 0.17953978 0.9327726 -0.11868135 0.31521243 1.2394009 -0.0038784433 0.3487585 -0.0021012628 0.19413358 0.056115236 0.9571824 -0.19411387 0.30622756 0.6364128 0.53112054 0.03691513 0.13117367 -0.8496326 -0.16652909 -0.04810149 -0.30664688 -1.4003261 0.20649736 0.8023659 -0.016027186 0.3986452 -0.12769668 0.042749364 0.46119133 0.7620055 1.2675389 1.2728724 0.51978946 
fries -0.44385839 0.48498914 0.6316473 0.08525844 -0.010150754 0.305077 0.096268274 0.22374165 0.5420174 -0.16108327 -0.26262197 0.35558975 0.6317197 -0.014465436 0.46869907 0.70110214 0.517361 0.6510232 -0.44161662 0.46870372 0.033649698 0.00660215 -0.077387914 -0.19271581 0.11307005 0.06879276 -0.27335903 0.7704962 0.45871377 0.024556575 0.004254405 0.33473444 0.418847 -0.13470338 0.144116 -0.18657637 -0.053630847 0.23746565 0.10573509 -0.052683555 0.09462779 0.2569552 0.10631181 -0.50413895 -0.2162439 0.27677017 -0.0698495 0.2152723 0.17063364 -0.6254949 0.33454362 0.2809363 -0.21796405 0.038844366 -0.033640403 -0.29622856 -0.3890079 0.5016107 0.32832816 0.14699759 0.3157625 -0.13158232 0.18231048 -0.16469023 -0.17435801 -0.09303846 0.008891891 0.23837738 0.44838265 0.6385747 0.019440265 -1.04535 -0.62688583 0.6264299 0.1363971 0.030221364 0.17286597 -0.28091207 -0.39861283 -0.5842477 -0.26063016 -0.13236725 -0.1316013 -0.14563245 0.10037157 -0.11242299 -0.2403213 -0.38121605 -0.3794646 -0.7612065 0.35201645 0.3773232 0.27544466 -0.09794841 -0.40420786 -0.12940313 0.0011988297 -0.054624632 0.26730356 -0.12833299 
too 0.2984648 0.65613157 -0.42275566 0.23768042 0.15518416 -0.57280296 -0.41361478 0.043960772 0.4718333 -0.012238541 0.17729446 0.14373673 0.03832069 0.68438315 -0.60739 0.10847681 -0.24410096 0.13753834 -0.13612698 0.31471232 0.021882458 0.019333195 -0.73133004 0.47000867 -0.29232618 0.21089277 -0.36217356 -0.20390144 1.1166825 -0.03683142 0.12231742 -0.018176617 -0.056353614 0.043911584 -0.6178658 -0.043578364 0.02327539 0.4626127 0.08340481 0.30856493 0.14578107 -0.16828878 0.039445482 0.3161331 -0.02629622 -0.6034036 -0.4093825 0.035516553 -0.13532756 0.16459136 -0.2982209 0.26641285 0.25749665 0.18813345 -0.56254065 0.18427603 -0.13552924 0.05635769 -0.033599135 0.6249594 -0.82709247 -0.077354535 0.03483134 0.1748668 0.075746335 0.36897898 0.37748823 0.58409464 0.20160903 -0.21231824 0.1239754 0.2293757 -0.08181116 -0.05401823 0.05584798 -0.28150594 0.14439476 0.36112076 -0.240318 -0.56598675 -0.44407007 -0.546694 -0.123246886 0.32267156 0.09035565 0.15739153 0.36854723 -0.033138655 -0.2668694 0.12992908 0.16069359 -0.42323124 -0.15348518 0.075849235 0.6852023 -0.09186945 0.17108922 -0.39950967 0.51312166 -0.14797464 
touch -0.79099226 -0.53466105 0.49061978 0.48467702 -0.24868499 -0.16062619 0.6842179 -0.38396057 -0.93528676 0.4639846 -0.7300007 -0.31373256 -0.39174366 0.47899255 1.032871 0.2016714 -1.0638133 -0.4092359 -0.47163165 -0.8464042 0.42654637 0.24648473 -1.2222874 -1.4203097 -0.693094 -0.22123842 0.35793868 0.6216407 0.25104198 0.14424811 0.32616428 -0.99248344 0.040941015 0.2992166 -0.050627228 0.6248322 0.7305005 0.27910736 -0.18567608 -1.0130498 0.4557362 -0.21538614 0.10934186 0.62673044 -0.45116708 -0.12212899 0.18701325 0.73020774 -0.03205558 0.19718975 0.1709045 0.3397287 -0.2880713 0.6804966 -0.014185153 -0.5694568 -0.6016651 0.7889695 -0.1355259 1.1026148 -1.0073409 -0.13456608 0.53105944 0.44620436 0.009826758 -0.7353686 0.4242423 -0.48800746 0.44738108 0.06695757 -0.33133405 0.004967111 -1.2307849 -0.0056980187 -0.42600572 0.9099611 -1.3447616 1.555667 0.4463643 -0.5965959 0.08206269 -0.37145597 -1.2141973 0.7035741 -0.50785446 -0.34698492 0.12059375 -0.014533028 -0.76984584 0.26378566 0.6402133 0.04664778 -0.2769511 -0.08651316 1.1911374 0.4949711 -0.25714806 0.23187804 0.20932959 0.20814307 
service 0.0763793 -0.11467252 0.32261837 0.39346153 -0.088218205 -0.33403167 0.15722722 0.28960294 0.059160408 0.13627332 -0.73957187 0.13322936 0.65013903 0.24819778 -0.5301767 0.084291466 0.28411826 0.43088368 -0.16310513 0.119270556 0.269246 -0.78390163 -0.12326907 0.03140966 0.0058538294 0.9932861 -0.07170234 0.5895147 -0.07915462 -0.1661023 0.6572146 0.28115076 0.39277193 0.38663542 -0.15909219 0.11115111 0.031519916 0.2316402 -0.15289906 0.011338853 -0.09106655 0.63958097 -0.17958032 0.33840388 0.091087475 -0.70192355 -0.4824593 -0.18283795 0.4430891 0.13867219 -0.013604455 0.5764396 0.08168617 0.4885056 -0.15190399 -0.09444724 0.22726771 0.19534108 0.6517164 -0.2605011 -0.19725533 0.32306996 -0.4823005 0.15931453 0.38228452 -0.32988986 -0.24346614 -0.071153134 0.13852352 -0.0071020406 0.5083153 -0.5391891 0.011515039 0.06345343 0.10855919 -0.22341116 0.7241457 0.19057028 0.24440396 -0.24814509 0.42209294 0.0071593733 -0.11232356 -0.5006149 0.31803417 0.33848724 -0.16948605 0.07206691 -0.12778693 0.1735654 0.17809261 -0.4548657 0.07858585 -0.39008462 0.096776634 0.21050106 -0.018320099 0.56138015 -0.10490324 -0.19913879 
very -0.16803269 0.02308947 -0.1899418 0.3073822 0.002469816 0.07205756 -0.119080745 0.037478916 -0.033314336 -0.07586389 -0.05996739 0.17345889 0.06906179 0.2394179 0.35548612 0.13635653 0.159786 0.13916475 -0.25918663 -0.1025863 0.22759625 0.04075833 -0.04504161 0.10055269 0.020436471 -0.036542494 -0.094405994 -0.14788483 -0.15258425 0.11324801 0.085195586 -0.21201365 0.08307242 -0.0849069 0.04240196 0.28934392 -0.053029347 -0.1216689 0.055525284 -0.20828782 0.09699522 -0.040633515 -0.09073562 -0.018687373 -0.058699705 0.17155923 -0.29388082 0.0022367476 0.053501256 -0.31709963 -0.1261942 0.24994186 0.27485853 0.00039887798 -0.107070126 0.047649488 0.042259306 0.030612748 -0.11311012 0.10320178 -0.27663937 -0.1627386 -0.10897003 0.066507354 0.15670615 0.08860904 -0.1047563 -0.18478341 -0.08154367 0.0049404996 0.19824828 0.13988088 0.111271165 0.005321986 0.075027585 -0.054361764 0.19079548 0.26125404 -0.06601458 0.07029067 -0.045330152 0.13534175 0.028648788 0.091328114 -0.04906398 -0.3668715 0.14203353 0.06390182 -0.13371666 -0.1253072 0.016158396 0.15601416 0.15270068 -0.012117224 0.041529957 0.20556775 0.25086492 0.06378209 0.13613431 0.05237836 
prompt 0.36162534 -0.3159837 -0.015844768 0.14131404 0.14702004 0.47830048 0.08130788 -0.11490844 1.7158197 -0.068175316 0.4499581 -0.20583665 0.0042938204 -0.291377 0.525663 0.09434743 -0.006855584 0.4271733 -0.0464592 -0.70484763 0.1113745 0.31117782 -0.38167378 -0.29296336 0.29463336 -0.9533759 -0.16006847 0.5450396 0.6733556 -0.036969192 0.6017289 -0.1382579 0.26574054 0.25493217 -0.20164189 0.28865945 0.52764255 0.29722494 -0.15047726 0.05195077 -0.36719933 0.34105858 0.52426946 0.2639785 -0.06728068 -0.39413533 0.30246365 0.13221838 -0.267584 0.5018133 0.027002545 -0.016828433 0.68369067 0.07445857 -0.05786302 0.006044209 0.020623535 -0.18329091 -0.39667013 0.11066159 -0.7067577 0.0061070826 0.042045224 0.23791595 0.21332486 0.17316015 0.5391376 0.1309331 0.3810882 0.35020322 0.0029179386 0.22652431 0.04870397 0.16088039 -0.09631798 -0.40510935 0.17420933 -0.1756233 -0.31116417 -0.14652044 -0.1266214 -0.21584985 0.027972134 0.0524023 -0.7643736 -0.65482515 0.33569562 -0.34733662 -0.122690365 1.0840976 0.28494966 -0.07153999 -0.009481561 -0.25090054 -0.8970738 0.13896747 -0.14989424 0.10192624 -0.34179243 -0.39466152 
would -0.033560112 -0.3410297 -0.23122396 0.2219766 0.22461982 0.15491527 -0.4198924 0.017536094 -0.087322436 -0.5699311 0.09620461 0.1883716 -0.3035525 -0.38331214 0.36095482 0.547214 0.22135642 0.39023063 -0.06384546 0.2742607 0.20073837 0.6119979 0.07915186 -0.45606548 -0.026007205 -0.12835006 0.056746416 -0.06949851 0.2762627 -0.1644791 0.11126453 0.13450651 -0.08805071 0.2780114 -0.3187141 -0.09273367 -0.43043566 0.111008205 -0.2078014 0.035634026 0.2593756 0.25391552 -0.3543878 -0.015784599 -0.4200175 0.3317198 -0.17921956 0.29840428 0.22252952 0.1476664 0.65948904 -0.34121346 -0.021514094 0.5663537 -0.22056861 -0.42196777 0.09320798 -0.0052647437 0.23814072 -0.5803842 0.1520519 0.08329387 0.026832884 0.0990545 0.12180177 0.4740255 0.4806781 -0.22456074 0.44293422 -0.25483558 0.3903131 -0.09261859 -0.26378715 0.19359103 -0.275435 -0.17419626 0.31319615 0.021253567 0.34167996 0.062069185 0.13267197 -0.12430449 -0.76880443 0.10491667 -0.15766744 -0.19707054 0.3827807 -0.005419993 -0.62290484 -0.07831604 -0.08765372 0.44700468 -0.59523594 -0.04010121 -0.56624067 0.37618083 0.29069185 -0.054355025 0.041554857 0.45149225 
go -0.11527127 0.05821848 0.16423374 0.2253553 0.12742324 0.39778987 -0.37054753 0.15585369 0.27482197 0.12858725 -0.33460245 0.28471172 0.5570509 -0.13779216 0.029932426 0.15393324 0.49951485 0.025108477 0.047795285 0.10172203 -0.32345235 -0.029656792 -0.028107777 -0.23402216 0.12980795 -0.08289217 0.054895326 0.294778 -0.2414708 -0.048227392 0.79041594 -0.31101936 0.6003104 -0.38702375 0.30163157 0.12220599 0.060341377 0.056086417 0.4332116 -0.040719032 -0.05062906 0.14996746 0.09036476 0.034440897 0.15057518 0.27127492 0.44689694 0.08811255 -0.049313575 0.15331094 0.15474628 0.37481785 0.47669756 0.19285028 -0.63713634 -0.31951895 -0.19644937 -0.2727294 0.32388163 0.18738958 -0.36360696 -0.1820752 -0.07501344 0.25149715 0.08991399 -0.049449507 0.4846247 0.1960922 -0.12882613 0.09779008 0.4339422 -1.040093 -0.25929356 0.034410425 -0.14952551 0.047758617 -0.18378529 -0.0027455844 0.5621565 0.40640056 0.05567198 -0.3793156 -0.0038919472 0.33780336 0.060479593 -0.061039202 -0.5135612 -0.10082646 -0.17215182 -0.34492794 -0.52820927 -0.050499696 0.015570945 -0.35433254 -0.003953486 0.18226798 -0.007893522 0.3632773 0.581599 0.12318536 
back 0.52373874 0.7004984 0.044555485 -0.26614875 -0.08113497 -0.041274678 0.6083544 0.050807368 -0.16517553 -0.09074719 -0.3943537 -0.49172652 0.019671356 0.082808584 -0.23340666 0.3747033 -0.3582638 0.28838006 0.3131366 -0.09234713 -0.14832865 -0.26690516 -0.5177719 -0.25612932 -0.18341096 -0.15773211 -0.21398105 0.19781975 0.28493628 0.05329586 -0.015194474 -0.3398996 0.046159774 -0.11367733 -0.44440955 -0.13677125 0.069994226 -0.09352385 0.24801438 -0.5900311 -0.21485567 -0.05759793 0.24148436 0.30039653 -0.0045208964 0.5689482 0.13952655 -0.08502154 0.118127935 -0.17621437 -0.1128819 -0.28161392 -0.0857235 -0.037798505 -0.07150069 0.030545443 -0.4319727 0.018029694 0.09165319 0.1873607 -0.101483196 -0.49565357 -0.4203192 0.55992705 0.35631847 0.11626637 0.712856 -0.21755038 0.33760485 0.05739792 0.27187046 0.49590707 -0.37304923 0.09421013 -0.11247962 -0.043081034 0.18767585 0.26200524 -0.36668196 0.05730676 -0.20357662 0.07682417 -0.20766014 -0.2973904 -0.14700074 -0.19700864 0.3434374 0.1541409 -0.38093936 0.028718704 -0.015518947 -0.16546153 -0.15926756 -0.16770564 0.09518082 0.105262995 0.9033201 0.39636093 -0.19887 -0.5682667 
cashier 1.0120788 0.6264484 -0.84946454 0.63921505 0.15357035 -0.08059935 -0.41352344 0.010776749 0.66058326 -0.13541043 -0.34376296 -0.27590445 0.3206256 0.7670413 -0.061274234 0.6849852 0.18558198 -0.080324054 -1.2900366 -0.025971547 1.1210197 0.28933695 0.65371424 1.1996937 -0.0626214 -0.46298838 0.23019049 0.29333687 -0.29112205 0.34361264 0.57679284 0.21403454 0.5734071 0.024154818 0.12402208 0.049431566 -0.031239975 -0.69310915 0.3451127 -0.7878749 0.5350945 -0.36487538 -0.61361265 -0.39459044 -0.14300704 0.06546634 -0.84044963 -0.15151198 0.36773768 0.28425127 -0.23446006 0.46660328 0.5325448 0.3215222 -0.5082157 0.4212104 0.37467462 -0.42743164 -0.017602162 -0.16470607 -0.20951322 -0.3344097 0.44954428 -0.31172884 0.095050566 -0.20451014 -0.26863384 -0.30390006 0.2580542 -0.118529126 0.5980213 0.08457546 -0.26351002 -0.19546564 0.23139592 -0.77691406 0.52090997 -0.13434008 -0.6607266 -0.89193577 -0.04016562 -0.7190715 0.20894934 0.60840195 -0.5942936 -0.47410685 0.57079417 -0.25279206 -0.35522154 -0.49045354 -0.20116304 0.19049414 0.579835 0.08081081 -0.87382394 -0.59179986 0.09849477 0.17575605 -0.13269232 0.08445012 
no -0.62828636 -0.24309398 -0.52830553 -0.15832666 -0.07811094 -0.24659376 0.100283 0.42700952 0.91155696 0.25612554 0.11250618 -0.45683816 0.080511734 -0.05128068 0.3422463 -0.63116133 0.24701954 0.30046383 -0.08102123 0.31262848 0.76517606 0.6846317 -0.045238856 -0.52678615 0.66086155 -0.56456536 0.24240348 0.48061222 -0.59993726 0.095516324 0.23421434 -0.39415294 0.017171068 0.3122503 0.27561417 -0.254851 0.07476014 0.39383385 -0.6853362 0.055551432 -0.0285298 -0.044675853 0.0460927 0.3392871 -0.14794917 -0.65426487 0.035711236 -0.29786104 -0.07335176 0.07730996 0.075970225 0.3099979 0.3371385 0.3331588 0.77023196 -0.31043917 -0.36881408 -0.016635334 -0.50249916 0.6758711 -0.14062008 -0.296359 -0.74515533 0.037944637 -0.077281326 0.16585787 0.13846925 -0.59934115 -0.13645507 0.040390875 -0.18697202 0.22908174 0.27378258 -0.19216847 0.077647425 0.35500285 0.4355448 0.09454677 0.06402122 -0.07785533 0.5969275 -0.04915489 -0.1486015 -0.016718201 0.15778476 -0.124775864 -0.19103082 0.7143736 -0.42786664 0.44833404 0.5005162 0.88770145 0.21041414 -0.51959264 0.11880427 0.071580835 -0.21994595 -0.28526983 0.064274326 -0.25987098 
care 0.28567722 -0.18964905 0.23942932 0.9242236 0.5917433 0.7482731 0.29316503 -0.10290112 0.6154935 -0.21405758 -0.13124597 0.12721682 0.3287981 0.68451995 0.06447841 -0.799367 0.41580716 0.016198166 -0.33092868 -0.16965666 0.056897588 0.11863157 -0.3056908 -1.1420083 -0.118491255 0.1519572 -0.6386644 -0.20331365 1.2056359 -0.27916712 0.4776261 -0.15978692 0.4851891 -0.5775871 -0.22247794 0.00014440731 0.62852746 0.08807289 0.5835799 0.15254991 -0.1803773 0.17109548 -0.3889356 -0.1705589 -0.25748628 0.037591267 0.05937487 -0.0019097446 0.100208655 -0.57106894 0.364295 0.5673996 0.625663 -0.68186724 -0.4008118 0.09896266 0.7684417 0.43503523 0.0003591683 1.0120473 -0.6130897 -0.13680018 -0.5472572 0.43304637 0.20832205 -0.20849489 0.6301802 0.31298292 -0.3403166 0.59933627 0.12650886 -0.5763502 0.08569896 0.20882377 0.5924411 -0.38080397 0.39986253 0.17512502 0.00938327 0.5060209 -0.04341335 0.5454784 0.18734944 -0.1646497 0.48331195 -0.4813181 0.43164873 0.5952771 -0.26853457 0.20800777 -0.16056009 -1.5187122 0.28420526 -0.5937564 -0.0962275 0.07433206 0.16077295 0.4799508 0.3143401 0.08983152 
what -0.024709618 0.04539287 0.05234269 -0.034612168 -0.17700705 0.2246549 0.39372042 -0.46576932 -0.14600961 -0.17902012 -0.1580168 0.30444524 0.66441196 0.1688835 -0.50001925 0.2434674 -0.66456306 0.5940118 -0.22489525 -0.39549288 -0.2235873 0.38539714 -0.21937163 0.11375799 -0.35035905 0.1696177 -0.1812371 0.46928206 -0.06514409 0.10512226 0.49967206 -0.21518832 0.42571685 0.18847243 -0.5655947 -0.023607701 0.25445867 0.12452669 0.012988183 -0.085053824 0.6315994 0.7704734 -0.15252262 -0.24649036 -0.039974798 -0.5358296 -0.50356734 0.4157521 -0.0052410057 -0.12705338 -0.75665915 0.19712107 0.28927797 -0.23483302 -0.1134275 0.22983357 -0.08206268 0.073600836 0.031045208 -0.032183155 -0.28695652 0.1803362 0.15168525 0.38981622 -0.06820509 0.22446701 0.05770294 0.12529112 -0.0675605 0.4082586 -0.17070127 0.27828452 -0.23752557 -0.47270247 0.030159518 -0.4926808 -0.124715686 -0.37004983 0.5079 -0.11535667 0.3755982 0.55283123 0.07833445 0.3939029 -0.7471056 0.20354965 0.096415184 -0.33349946 -0.25560072 0.030315705 -0.30964768 0.05406402 0.15139905 -0.015114809 0.029459314 -0.3594259 0.46455956 0.16710234 0.47259766 -0.78032714 
ever -0.1604042 -0.22939971 -0.07622285 0.006486516 -0.58370304 -0.49181145 -0.17355268 0.1429735 -0.03298173 0.3758124 0.4110659 -0.17088528 -0.45822594 -0.021928554 1.0048649 -0.07449372 0.4778042 0.19605608 0.07534623 -0.13571662 0.21349208 -0.26313186 -0.9044308 -0.00932204 0.47600126 0.14554888 -0.16943249 0.091173746 0.22701377 0.3120532 0.23410112 -0.01106283 0.27883524 0.06429532 0.40095764 0.20631246 0.74297774 -0.24491793 -0.1802359 -0.11011112 -0.05731498 0.011545813 0.48484784 -0.76031387 -0.16429931 -0.13903111 -0.27164134 0.08683859 -0.26609293 -0.055609643 0.4286496 -0.38572922 0.6150732 0.16443829 -0.06816046 0.38006487 -0.3411723 -0.4523096 0.2023802 -0.2397476 -0.07099382 -0.12121649 0.104553156 1.0630965 -0.75235337 -0.122343004 -0.28326377 -0.06444136 0.030999985 -0.047143087 -0.2236829 0.03612483 0.7737713 -0.034707636 -0.19567475 -0.6580842 0.24006763 0.054461528 -0.52954453 0.23352143 0.7098223 -0.3253444 -0.45989457 -0.012881825 0.0632747 0.5500907 0.4015035 0.03167638 -0.18109438 -0.030353218 0.1850911 0.067103356 -0.11388731 0.37435567 0.123742476 -0.2942636 -0.004460974 0.35409242 -0.050146036 -0.07330367 
to 0.08219961 0.1717168 -0.08215705 0.18494761 -0.040097307 0.14300689 -0.08955207 0.090697646 0.33220923 0.16058782 0.12301241 -0.048314326 0.04025246 0.05777691 -0.03932915 0.11333534 0.017047752 0.20138346 -0.25905377 -0.20575537 0.08725255 -0.061585173 -0.19931912 0.14923728 0.021237092 -0.050068878 0.09382249 -0.097812496 0.028040944 -0.11545587 0.25261036 0.056777112 0.2465027 0.10783261 -0.19673179 0.095789954 0.29020616 -0.018032925 -0.19159257 -0.27029738 -0.12314426 0.07211715 0.082847334 0.1088362 -0.16618377 -0.13126451 -0.25510597 0.04615203 0.1256415 0.1238897 -0.07747095 0.138618 0.04271019 0.16095345 -0.10706115 -0.17282675 0.118889704 0.05962433 -0.09865255 0.024908338 -0.27255192 -0.018129436 0.1258816 -0.07539688 0.19960143 0.02687713 -0.05581324 0.15143725 0.13579139 0.20910765 -0.06669907 -0.0442571 -0.011625801 0.08619926 0.08583394 -0.044131357 0.049149077 0.04577295 -0.23988196 -0.15135129 -0.118306085 -0.12508224 0.015322767 -0.051230043 -0.014965595 -0.17850594 0.15033579 -0.15712526 -0.21350841 -0.05924151 0.20539363 -0.07017831 -0.033745654 0.017929826 -0.12831825 -0.1861557 0.041919045 0.0223813 -0.19545871 0.09159227 
say 0.028024783 -0.20386845 0.439952 0.3464177 -0.083954394 -0.5555076 0.34017608 0.15232247 0.65817577 -0.06153399 -0.25484428 -0.15115552 -0.6652486 0.35697138 -0.003000329 0.091338575 -0.11859577 0.20001195 -0.098645255 -0.30367386 0.0114708105 0.06971819 -0.09360629 -0.24060355 0.00488416 0.30477947 -0.45155066 0.079140976 0.44555834 0.5374026 0.2764199 0.025939805 0.25238678 0.2203396 0.14073169 -0.156225 0.062403206 0.2545669 -0.26565555 -0.28180107 -0.26488242 0.876435 -0.11109108 0.04955556 0.24528311 -0.55997133 0.21518822 -0.23309892 -0.45025814 -0.106425904 -0.035779394 0.032032385 0.32525367 -0.12356925 -0.021423023 0.14373583 -0.32282642 -0.7376992 0.31200922 0.3664769 -0.7937919 -0.53977925 -0.5091097 -0.09168484 0.02503544 -0.35087144 -0.45723587 -0.32839638 0.1162819 0.25057003 0.37612188 0.3247419 0.46916658 -0.29135844 -0.49480867 -0.22050944 0.5674699 -0.1749743 0.16985437 0.15754926 0.1912169 -0.07587508 -0.2014415 0.11194825 0.06752547 -0.5103888 0.59568673 0.42151052 -0.30195138 0.104978 -0.11836539 -0.36627233 0.032275595 0.058106232 -0.057509772 -0.4000326 -0.1071732 0.47317347 0.09503889 0.19371685 
still 0.53226143 0.35374662 -0.08421987 0.62890553 0.3480633 -0.20105079 -0.21379085 0.7027944 0.5462414 -0.18402222 -0.39913 0.19169523 1.1730552 -0.16693494 -0.5228626 -0.18892887 0.25944442 0.15861014 0.41376683 0.57563424 0.03300106 0.42763108 -0.29379576 -0.6167349 -0.6779652 -0.21741848 0.5252568 0.324645 0.58339167 -0.45888007 -0.6070364 0.21418579 -0.052117676 -0.1272694 0.5288253 0.28835514 -0.079819866 -0.37157288 0.015074732 -0.07064275 0.42459387 -0.011108961 0.04127512 -0.09858198 -0.14990331 0.2685586 0.06829177 0.98239255 0.2512226 -0.0940612 0.08694466 -0.3584989 0.8827338 0.13186419 -0.4334812 0.2511314 0.29898116 0.0952136 0.24216676 -0.10674181 -0.32964835 0.5578696 0.58279735 0.008076703 -0.286673 -1.0117179 -0.48422813 0.2718331 -0.034436464 0.21708708 0.35433567 0.10816064 0.7307076 0.1848105 0.4917552 -0.6238841 0.3529176 0.8999878 -0.20426926 -0.76095587 -0.41406235 -0.6013107 -0.14929603 0.21755615 0.14707911 -0.365608 -0.24376531 -0.6635832 -0.34208864 1.0397903 0.35669896 0.027167661 0.07962348 0.4575852 -0.10469903 0.2173577 -0.12522449 0.36745837 0.120005906 -0.6363729 
ended 0.4177379 -0.39694086 0.12255202 1.123507 0.62147796 0.75837755 -0.011417349 0.69645774 1.0111519 -0.5999957 0.3867804 -0.71193445 0.6536778 -0.46709374 -0.07171769 -0.43634015 0.44126958 0.08171667 -0.19475771 -0.96390927 -0.27492452 0.33845195 -0.17872569 -0.3803717 0.21655364 -0.41260085 -0.21207874 0.4291324 0.43637115 -0.25445348 1.0758705 -0.6626359 0.40022334 0.12103181 -0.881129 1.0658451 0.33365616 0.09608327 -1.0279212 -0.1724451 0.15244113 -0.18014067 0.49446088 -0.4577488 -0.69325274 0.060711473 0.123000376 -0.2937066 -0.08044356 0.41980448 -0.37341648 0.16548313 0.33317867 -0.4376343 0.6068204 -0.5739627 0.9797041 0.44884542 -0.6359722 0.68672824 -0.2694306 0.22654049 0.20977212 0.4508668 0.64278084 0.09767904 -0.54327697 -0.010217576 0.45819473 -0.046833612 -0.19407527 -0.64283615 -0.8905161 0.74185926 0.74013805 0.7632069 -0.7161941 0.31812042 -0.4161386 -0.5037287 0.42401218 -0.24339652 0.36043838 -0.030463371 -0.22263141 -0.44665736 0.81615585 0.045455262 -0.091644876 -0.3504876 -0.15501703 -0.49111867 0.03480667 -1.3290515 -0.30766284 0.38567385 1.0783129 0.47668716 -0.04953699 0.78022873 
wayyy -0.27678147 0.052556034 -0.7504443 0.14130908 1.0527427 -0.55476487 0.033665977 0.28038552 0.4079013 -0.15931112 -0.20321849 -0.22065575 0.68660665 0.67005 1.1944699 0.42675158 0.30698475 -0.17779148 -0.6967723 -0.17148304 0.68226886 -0.21462868 -0.034236453 -0.2747891 0.4768467 -0.11710136 -1.0574722 0.23735256 1.1292347 -0.09659536 -0.10565441 0.01455322 0.76526076 0.47576332 0.0023294888 -0.40661252 0.8390196 -0.06735139 0.35236233 0.52489436 0.11688203 0.38469845 -0.76047873 0.14696698 0.2534467 -0.66920733 -0.6343036 0.4362985 1.3040785 0.8193928 0.0069159158 0.6096813 0.866268 0.9617076 -0.28205732 -0.09161934 -0.6835062 -0.14547431 0.78677195 0.65821904 -0.00023730789 -0.2147034 -0.20288104 -0.13254142 -0.759094 -0.8171831 0.29828158 -0.99853903 -0.45801222 0.22105826 0.32340544 0.19906676 0.37409797 -0.2755894 0.2663383 0.016873015 0.15587094 0.79543793 -0.87389004 -1.0330329 -0.49182478 -0.35700846 -0.62406945 0.31661692 0.24608834 -0.0010799846 -0.4995542 -0.4978838 -0.73420084 0.3968025 0.6197267 0.46362993 1.4610188 0.024827735 -0.18397006 -0.3724748 0.5377111 0.5390591 0.33979428 -0.16500445 
